encog,BasicNetwork,java,3.0.0,1,1547764993127
[BASIC]
[BASIC:PARAMS]
[BASIC:NETWORK]
beginTraining=0
connectionLimit=0
contextTargetOffset=0,0,0
contextTargetSize=0,0,0
endTraining=2
hasContext=f
inputCount=10
layerCounts=1,13,11
layerFeedCounts=1,12,10
layerContextCount=0,0,0
layerIndex=0,1,14
output=0,0,0,0,0,0,0,0,0,0,0,0,0,1,0,0,0,0,0,0,0,0,0,0,1
outputCount=1
weightIndex=0,13,145
weights=-0.38539692849249757,0.6971897740917004,-0.019952209225047614,0.4206574523635001,0.68814707740662,0.011888103417524193,-0.40849733990072806,-0.5851446516028215,-0.4433364955879444,0.4528520668027142,-0.690086624832192,0.476015668646473,-0.2017646090808507,0.20904434539886801,-0.12247474916653216,-0.13047239966727636,0.30122074508979857,0.11002976672917321,-0.14508625887785237,-0.7036448257738723,-0.15087881318994956,-0.9780347195126021,0.15421202347774016,0.36175023183947436,-0.20607156769614454,-0.10671996249404378,0.647916446749472,0.07468502963973643,-0.21046315619770392,0.22231276501435895,0.5390232362393826,-0.3223632379958292,1.4054377854353919,0.008166489072689758,-0.7475295827772327,-0.018488290713961568,0.49569858613242707,0.1903660566152655,-0.5381348529045146,0.10249001667945713,-0.0757655878307732,-0.32923751989282407,0.34469472012760466,-0.24030625872145767,0.7690964841596578,0.3824694739109622,0.6480027359130054,-0.000615880489870782,0.26280255531267865,0.13708965557958253,-0.312727522889543,-0.019272596691509845,0.6450857144108776,0.1153748791183447,0.6784382604053593,-0.0026362694064265696,-0.6787017721868511,0.13198343794754785,0.03864356875680343,0.8051758954463555,0.07710890035077028,-0.13878337393161844,-0.19503571065540992,0.8284511563321187,0.29959709744091634,1.761144769720763,0.32571708841404795,-0.5772086566361766,0.443111765164085,0.31282154278196034,0.2895199555390117,0.309914060063893,-0.2725834342563078,-0.11457774298820368,-0.21027232550466912,0.5188329006023933,0.03138064450109883,-0.21988738793478085,0.3150956642069738,0.1706949048921022,0.42517486859971104,-0.3303726089932623,0.07244534952642366,0.033861211488789976,0.1757162150554198,-0.7070030185729953,0.06661608794329989,0.24373152661304373,0.22381687857480334,0.7365274344750892,0.24070877509022728,-0.07290107026156657,-0.26151391017374376,0.17097743515939112,0.17294296237169832,-0.14243477470465388,-0.8844351786898575,-0.22691151655816752,0.22539642417936787,0.030103333381462836,0.6733366675330683,0.3604395606838283,0.08187713589855712,-1.0231394318566318,0.16056038730665562,-0.1264475511400092,0.012816919234198079,-0.6639452353358457,0.0019402949161018666,-1.5715872380395175,-0.47452274407868716,0.48793837774289,0.13536656284538318,-0.16008969626413774,0.663077050869215,-0.1670795855099711,0.21590780832422354,0.1980667709743298,0.5506895477493597,-0.28823255088547195,0.7326653025595234,-0.07388635466646994,-0.723164639320859,0.20210323358948296,-0.024778062389271074,-0.475738463699424,0.2881767191077005,0.39821726741615104,-0.020422336638075335,-3.438264482289318,0.17933013041753124,-0.7016612964723771,-0.0650124436359862,0.6547560955517092,0.6540950008932062,-0.7235783384783775,0.7997666236413098,0.43141944240570285,-0.12815791082895084,-0.3993937366680948,2.805163433830519,0.10310964349004577,1.3524551049049363,-0.44936000127806325,-0.2418931522760323
biasActivation=0,1,1
[BASIC:ACTIVATION]
"ActivationSigmoid"
"ActivationTANH"
"ActivationLinear"
