encog,BasicNetwork,java,3.0.0,1,1547765016064
[BASIC]
[BASIC:PARAMS]
[BASIC:NETWORK]
beginTraining=0
connectionLimit=0
contextTargetOffset=0,0,0
contextTargetSize=0,0,0
endTraining=2
hasContext=f
inputCount=10
layerCounts=1,13,11
layerFeedCounts=1,12,10
layerContextCount=0,0,0
layerIndex=0,1,14
output=0,0,0,0,0,0,0,0,0,0,0,0,0,1,0,0,0,0,0,0,0,0,0,0,1
outputCount=1
weightIndex=0,13,145
weights=-0.443304969542753,0.6180550196209748,0.13287146569555983,0.5666510635549624,0.6557957224751874,2.549596424809731,-0.5056889556480367,-0.6828740644859166,-0.9515789563639061,0.5962875153108443,-0.7280132963759658,0.6150060474452107,-0.23995313045849154,0.15436316004995373,0.024970180337515465,-0.7013155922667579,0.3003025705095497,-0.027510978394032354,-0.8430587490732525,-2.4313040384091993,-0.2053570258999874,-3.3577762435672254,0.2472073237103434,0.3331565941703542,-0.36899149901504114,-0.06561572415214216,-0.22522700343177054,0.48492516608355246,0.7409972460441665,0.02020781138189264,-0.11197096530545969,-0.3742281316640759,3.244766702017985,0.031013406881286867,-0.6680560190596796,-0.32069237997012967,0.8863791642857213,-1.4205749136739225,-2.6559181386586608,0.09436523354184713,-0.15449137408850958,0.2170060639540298,0.3272553132322994,-1.7828316740092343,0.7928811319468532,0.3085578697803794,25.430179718452575,-0.15999195154194945,-0.062874635847576,-2.3863738097216385,-0.9992765333708011,0.16311406813791496,-0.2594090722383313,0.20365057312683385,0.2089672615235119,0.18365285916692364,-0.6564303939956493,-0.592274033059192,0.0009010054482423309,0.7986399532302649,0.0329009582283764,-0.19279385294585605,-0.1938762063682735,1.2179765431074716,0.29719272720035206,1.302839040936138,0.07034138499178705,-0.46618776732411954,33.74530635643447,0.02133695331785674,0.27471252841231897,0.09237297838417924,-0.0768142911131181,-0.18471155210030096,-0.1641741872493438,0.11746861803718574,-0.1465214258489679,0.011554041736646025,0.33552338997760905,1.3272232857262776,0.43323839723931934,0.045978907555320046,-0.26839112839017937,-0.003076779958948831,0.3175786078148807,-0.7557194729644865,0.22635808141094907,1.3825851442478116,0.1782235369410289,-0.15170075588770196,-0.00263962617309277,-0.12414792135897289,0.3432473443978517,0.5277412787204586,1.1340037808104149,-1.0228136027642318,2.190959983882698,-0.16155690635554673,0.4149632130683219,0.050165121812801694,0.6875873575956286,0.7487366943091446,0.4841172376638671,-7.06522563653986,0.13237118118313057,0.6499656573475718,-0.02186921107957891,-4.551503981153646,-0.025197430767519097,-8.43403516757107,-0.08879281449459103,-1.7358084028002905,-0.6711545254573641,-0.18144067465009597,-0.13922136120149037,-0.028136658908267012,0.449990440529163,0.4944289736219451,-0.24026668799785605,-0.29090678777224205,-2.747613470549975,-0.05913166789861661,-0.7058800086228962,0.38704769668132616,-0.020807020193783884,-0.09386922292855873,0.5507813907558597,0.41633359639859124,0.31274801776603134,-5.584333251207296,0.5126410887765651,-0.6294375211840258,-0.09058092394452916,0.6352309290565178,-0.49815648078851504,0.007895469036439695,4.745146219358278,-0.3734452703483165,0.8339272008780799,-0.5881629810732248,9.795258309020236,-0.34973886517408853,8.637531855974542,-0.0674215571915075,0.16408285492750482
biasActivation=0,1,1
[BASIC:ACTIVATION]
"ActivationSigmoid"
"ActivationTANH"
"ActivationLinear"
