encog,BasicNetwork,java,3.0.0,1,1547764991297
[BASIC]
[BASIC:PARAMS]
[BASIC:NETWORK]
beginTraining=0
connectionLimit=0
contextTargetOffset=0,0,0
contextTargetSize=0,0,0
endTraining=2
hasContext=f
inputCount=10
layerCounts=1,13,11
layerFeedCounts=1,12,10
layerContextCount=0,0,0
layerIndex=0,1,14
output=0,0,0,0,0,0,0,0,0,0,0,0,0,1,0,0,0,0,0,0,0,0,0,0,1
outputCount=1
weightIndex=0,13,145
weights=-0.36889692849249756,0.4576697740917005,-0.1932322092250476,0.18113745236350007,0.4486270774066201,0.0008481034175241847,-0.16897733990072808,-0.34562465160282163,-0.13181649558794437,0.21333206680271427,-0.4505666248321921,0.21201566864647298,0.037755390919149284,0.07392434539886802,-0.3389547491665321,0.3322476003327236,0.30122074508979857,0.1210297667291732,-0.18408625887785238,0.26399677422612755,-0.005378813189949552,-0.010393119512602425,0.13771202347774011,0.12223023183947437,0.20102603230385543,0.10976003750595617,0.18519644674947208,0.20818502963973645,-0.22146315619770393,0.26131276501435896,-0.2793191637606173,-0.2833632379958292,0.4377961854353921,0.024666489072689757,-0.5080095827772328,-0.03696829071396156,0.46497858613242704,0.3013660566152655,-0.4691348529045145,0.20561501667945714,-0.006765587830773218,-0.024917519892824147,0.4478197201276046,-0.0007862587214576972,0.3063764841596579,-0.31145692608903774,0.40848273591300555,0.2158641195101292,-0.19991744468732128,0.21208965557958254,-0.27372752288954294,0.019727403308490155,-0.1732566855891223,-0.030125120881655323,-0.1399041395946406,-0.21911626940642656,-0.4391817721868513,0.2798810379475478,0.2551235687568034,0.3424558954463556,0.2271089003507703,0.23753662606838152,-0.29191071065540997,-0.1391904436678811,0.24959709744091627,0.32470368172076297,0.46721708841404797,-0.33768865663617675,-0.09598583483591497,0.2963215427819603,0.41503995553901174,-0.0016059399361069843,-0.4705834342563078,-0.012577742988203675,-0.030752325504669137,0.47083290060239336,0.03810064450109881,-0.20338738793478084,0.33159566420697384,-0.20115149510789773,0.44167486859971095,0.13234739100673765,-0.14403465047357633,-0.00513878851121001,0.2867162150554198,0.2606385814270046,0.027616087943299894,0.22002643861304375,0.10093687857480335,0.4970074344750893,0.21970877509022727,-0.28938107026156656,0.20120608982625618,0.1709774351593911,-0.20337703762830164,-0.14243477470465388,-0.06609277868985766,-0.08141151655816753,0.20169133617936794,-0.11139666661853717,0.43381666753306847,0.3394395606838283,0.09837713589855714,-0.39764183185663216,0.1605603873066556,-0.11544755114000921,-0.02618308076580192,0.3036963646641542,0.11444029491610187,-0.13514615003951774,-0.5550427440786873,0.24841837774289,0.28326416284538314,0.056390303735862235,0.20035705086921504,-0.18357958550997108,0.20490780832422353,0.2370667709743298,-0.26765285225064017,-0.249232550885472,-0.08567709744047652,-0.007386354666469946,-0.4836446393208591,-0.204994366410517,-0.28877806238927106,-0.013018463699424096,0.2881767191077005,0.40921726741615105,-0.059422336638075335,-0.32322262884931885,0.19033013041753122,0.11668110352762287,-0.2570124436359862,0.46275609555170927,0.4145750008932063,-0.5070983384783774,0.17426902364130992,0.4704194424057029,-0.13915791082895085,-0.4962687366680948,-0.30987841960948026,-0.04239035650995424,-0.08398598309506375,-0.25736000127806324,-0.0023731522760323115
biasActivation=0,1,1
[BASIC:ACTIVATION]
"ActivationSigmoid"
"ActivationTANH"
"ActivationLinear"
