encog,BasicNetwork,java,3.0.0,1,1547764998243
[BASIC]
[BASIC:PARAMS]
[BASIC:NETWORK]
beginTraining=0
connectionLimit=0
contextTargetOffset=0,0,0
contextTargetSize=0,0,0
endTraining=2
hasContext=f
inputCount=10
layerCounts=1,13,11
layerFeedCounts=1,12,10
layerContextCount=0,0,0
layerIndex=0,1,14
output=0,0,0,0,0,0,0,0,0,0,0,0,0,1,0,0,0,0,0,0,0,0,0,0,1
outputCount=1
weightIndex=0,13,145
weights=-0.3744966499452976,0.6180296231290329,0.12357493819812312,0.5502539634373949,0.6549767308594201,0.20679608405971364,-0.49951600513793215,-0.6855095747134692,-0.440688104685429,0.6118569059015478,-0.7289230211713918,0.535801902847229,-0.24026762926440268,-0.01318187300821921,0.00026440270049362833,-0.28377455461237855,0.30277400523939857,-0.031520461525553045,-0.17906565585781012,-1.584983484934686,-0.22242614573705355,-2.549390859738786,0.14284412494409787,0.33323367558947437,-0.1867405497324902,-0.10485591413038943,0.1916517460750372,0.4857470458006797,-0.1526754114180383,0.11215980958320121,-0.38533970679806956,-0.35737373934622924,2.9767939256615765,0.03019667654353776,-0.6683825441063849,0.024452770701196183,0.26855491308982754,0.03194081332553121,-1.1551792516268788,0.09525432532905713,-0.06355021759077319,-0.374171921123672,0.32767706027800464,-1.7934066994831228,1.0194380178146383,0.30821084671198623,1.4397798958134633,-0.04128744476582853,-0.06316448243605513,0.06442897406981964,-0.4446477580513562,-0.005421891460661848,-0.10974891988275716,0.20245561896388903,-0.10590231810848372,0.04305809577347742,-0.6570096352268511,-0.0659094745654761,0.000988667836803432,0.8026626838760451,0.03313063635941285,-0.19427857135728244,-0.19369534041540995,1.0585700890599496,0.2972467815209164,1.3188707551659966,0.2501433792544418,-0.46834262545466726,7.114639081842444,0.3066931896569603,0.1195507617064613,0.2948247512998674,-0.15784772318241325,-0.13871443592900362,-0.19806466339736684,0.3705740179462717,-0.17709219059547715,-0.21676268853318087,0.32350029620697385,0.034794188821082137,0.43189200059971106,-0.18937916156968143,-0.09436726834652351,-0.0019780689118397703,0.30296937608810576,-0.6930808901093238,0.1405886059034714,1.3517977337653058,0.19165718393160333,0.6738448690519852,-0.045220352841320144,0.06739094446893741,-0.14932052964343337,0.3022415685340683,0.5528732396377202,-0.3308614556688788,0.3533333174385174,-0.350087672478437,0.4214907601149083,0.049983632461462826,0.6877421160322682,0.36814148018556003,0.1015198014097149,-7.255982664775535,0.15396118617801305,0.2299478095951836,0.01285049116379808,-4.426307761071486,0.08009643623672064,-8.533344163979178,-0.19042666347491277,-0.6545594919936175,0.01840013864812887,-0.17797703642413776,0.20681235019478017,-0.16697292883081333,0.3518505549181181,0.2305917290686658,-0.915554022365575,-0.29092679229172197,-1.7359634386897198,-0.059220915146469946,-0.7062165960420109,0.00728763678142536,-0.021447772229271064,-0.01947376302498921,0.36318022018586227,0.416370069416151,0.23577238646703058,-5.460050992369339,0.4513444694632451,-0.4384662570198044,-0.15865241837474808,0.6354075585917092,-0.37454019706761144,-0.04224116013359339,4.927797028626708,0.20464750479331564,0.6105948073691073,-0.39553098734982917,11.478194797641258,-0.1468875818741257,8.400128651146455,-0.2870582229610465,0.15893328966205547
biasActivation=0,1,1
[BASIC:ACTIVATION]
"ActivationSigmoid"
"ActivationTANH"
"ActivationLinear"
