encog,BasicNetwork,java,3.0.0,1,1547764996504
[BASIC]
[BASIC:PARAMS]
[BASIC:NETWORK]
beginTraining=0
connectionLimit=0
contextTargetOffset=0,0,0
contextTargetSize=0,0,0
endTraining=2
hasContext=f
inputCount=10
layerCounts=1,13,11
layerFeedCounts=1,12,10
layerContextCount=0,0,0
layerIndex=0,1,14
output=0,0,0,0,0,0,0,0,0,0,0,0,0,1,0,0,0,0,0,0,0,0,0,0,1
outputCount=1
weightIndex=0,13,145
weights=-0.3734707404924976,0.6113258301045005,0.11801107753200064,0.4942257132005484,0.6539508214066201,0.15413811979230813,-0.49123473104159204,-0.6587129124398698,-0.4280140908007443,0.5050363276397626,-0.7291225595521919,0.499300742859337,-0.23802118989365068,0.005450993708546166,-0.01774255376480418,-0.18447699388014036,0.3030567825897985,-0.08258318277912588,-0.18293998013071636,-1.2280872659577735,-0.22139700484281358,-1.6774558220965035,0.14224008235774013,0.33331113183947436,-0.19349549888334458,-0.11161086328124378,0.18161599739689105,0.4671141790839143,-0.2132776211848399,0.11396108245435897,-0.4458661910538321,-0.35663151703582924,2.1048588880192933,0.030683550192689757,-0.6697277955900328,0.022107302246038425,0.2998234633754505,0.02845617836784156,-1.0058223519211127,0.09542337867945713,-0.06290776447077319,-0.375339039252824,0.32814416148760467,-1.4674412561252765,1.0310683932257543,0.30998710109816224,0.9371209271237044,-0.03828894160987077,-0.06567727136098533,0.08396681606598255,-0.388378773102407,-0.004254773331509848,-0.11075711685704416,0.18589307077120867,-0.16400219646624886,0.04168527171357342,-0.6567954841868511,-0.0676857289516521,0.000929968756803432,0.8017901877215555,0.02921033844357029,-0.18894980819875445,-0.19305288729540993,1.053803541760312,0.2974089694409164,2.015112239874397,0.27118581320124796,-0.4570521674570407,2.945384531942107,0.3067015427819603,-0.1664262132023847,0.2875183506238931,-0.2138759734192595,-0.13851489754820362,-0.21908080376395103,0.3817320718522417,-0.18054021381570112,-0.21733392593478085,0.32340941420697383,0.04952715320178035,0.43180111859971104,-0.17256673074583828,0.06186162827355967,0.004491676475925985,0.2982028287884681,-0.669820139287092,0.13893355475776387,1.3477594089697793,0.19245533745480334,0.6760158466350892,0.029735423399905467,0.04252015989216139,-0.14844803348894373,0.24597258358511911,0.3908185629847466,-0.2633934919129022,0.3616957064220435,-0.29742970821103143,0.41150701013457636,0.04992493338146283,0.6874881580930683,0.37601061645477996,0.09924893589855711,-6.4792322202257395,0.1578814840938556,0.19645232841116989,0.012950260354198079,-2.566214031257481,0.07922979127315015,-7.205084341955857,-0.10436951190833468,-0.22441162084101118,0.022438463443655216,-0.17771529626413773,0.196776601516634,-0.1695098735099711,0.29582230468127185,0.23592049222719377,-0.9239164113491011,-0.29090723838547194,-1.2991972198701516,-0.059266754666469953,-0.7049033513208589,0.003249311985899012,-0.02170951238927107,-0.009438014346843016,0.34517326372056445,0.416146995416151,0.1839123518469729,-6.804197302399763,0.3994844348431874,-0.5224074082433288,-0.17509748802792222,0.6351934075517092,-0.058254997690694976,-0.20360252081571062,5.0242640144366675,0.12070635356979126,0.10793583867934821,-0.39034332148089484,11.045102598814452,-0.022965283618253292,8.655457066643455,-0.23740944259492736,0.10152672727514671
biasActivation=0,1,1
[BASIC:ACTIVATION]
"ActivationSigmoid"
"ActivationTANH"
"ActivationLinear"
