encog,BasicNetwork,java,3.0.0,1,1547765003278
[BASIC]
[BASIC:PARAMS]
[BASIC:NETWORK]
beginTraining=0
connectionLimit=0
contextTargetOffset=0,0,0
contextTargetSize=0,0,0
endTraining=2
hasContext=f
inputCount=10
layerCounts=1,13,11
layerFeedCounts=1,12,10
layerContextCount=0,0,0
layerIndex=0,1,14
output=0,0,0,0,0,0,0,0,0,0,0,0,0,1,0,0,0,0,0,0,0,0,0,0,1
outputCount=1
weightIndex=0,13,145
weights=-0.37444177179129656,0.6179511376451315,0.135132041210585,0.5611966401066603,0.6559223877961572,0.6375424689590756,-0.5057128911751276,-0.6829168962410378,-0.5725370638352063,0.5962483618748274,-0.7289763522467587,0.6122952862036102,-0.24001366512561223,0.004711024298173284,0.018919865273447585,-0.47049470458784826,0.30022470353118247,-0.03273908913410835,-0.17985132609073382,-2.4462384764736425,-0.22143978633811776,-3.5086485467953183,0.13862769484701706,0.3332171288374745,-0.18986928614600437,-0.06438310349477182,0.10459225691346827,0.48489822598362037,0.1940380136802988,0.027200373569984986,-0.10601803192853891,-0.36456989164123893,3.2439040095781078,0.031111049840110684,-0.6680933488628008,0.029838142278049352,0.2658720987272803,-0.1467556278550334,-2.147387002796249,0.09460569826572163,-0.06371288623296364,-0.33475123496040543,0.3273349346433693,-1.7871369848177558,0.8389758341276108,0.30850969324589295,20.295444188330624,-0.141855629181533,-0.06731232931065442,-0.1330534369589831,-0.7285033407946412,-0.016232274919175844,-0.10604918127182406,0.20301742380196805,-0.06867543338496329,0.15700343471011202,-0.6569704179359709,-0.06833768032119009,0.0009723799968034321,0.8007986223766258,0.033097462724013677,-0.19341748339247586,-0.19430792074539444,1.1050317006653179,0.29718964903230455,1.299436056589618,0.23513456270155875,-0.46623614530188323,29.648415891797583,0.30503693690253153,0.32965827837653994,0.3237185165572171,-0.10499003502036047,-0.19221256096028394,-0.17237187628000603,0.35983030701579366,-0.1765298641609133,-0.1900136260175407,0.3235824012947569,0.09623077115897952,0.4325130874294165,-0.1924019091040391,-0.2804679396826389,-0.004007758154628655,0.3173736302734487,-0.755384829841961,0.1446450686558896,1.3517927680681894,0.17796944568046913,0.6307021513215536,-0.0014472060765475156,0.1644270845641778,-0.14756564045004886,0.46424022633635953,1.14952832998692,-0.8769339766520298,1.6336696624196647,-0.39303403385973484,0.6432755555405435,0.0499985503221681,0.6876811438188326,0.5450788373187044,0.4296823775472225,-7.426447508460324,0.06134788355824775,0.6105656925734528,0.0035984484440363534,-4.332225169898278,0.07792622184105655,-8.437302840448105,-0.1801981137973868,-1.229648516095888,-0.10122367394462897,-0.18149856257390073,0.01654705535629793,-0.15496260473081078,0.44738213861043435,0.23088931311612912,-1.245329660549155,-0.29093134241672186,-2.763380334064917,-0.05904024160931566,-0.7059626319032203,0.07780782130145071,-0.020829108258731934,-0.03875135137663303,0.3803061366994948,0.4163166835285479,0.2946817332103541,-5.5992874362137925,0.5102538162065686,-0.44756497312933036,-0.1572213290694248,0.6353341152294736,-0.3019999979506585,-0.05569511787804647,4.754517898967131,-0.2285098738254404,0.8301299767549433,-0.505844621849831,11.277378911561863,-0.3460830907609264,8.502082319360582,-0.09709029373149386,0.1628889424241148
biasActivation=0,1,1
[BASIC:ACTIVATION]
"ActivationSigmoid"
"ActivationTANH"
"ActivationLinear"
