encog,BasicNetwork,java,3.0.0,1,1547765005039
[BASIC]
[BASIC:PARAMS]
[BASIC:NETWORK]
beginTraining=0
connectionLimit=0
contextTargetOffset=0,0,0
contextTargetSize=0,0,0
endTraining=2
hasContext=f
inputCount=10
layerCounts=1,13,11
layerFeedCounts=1,12,10
layerContextCount=0,0,0
layerIndex=0,1,14
output=0,0,0,0,0,0,0,0,0,0,0,0,0,1,0,0,0,0,0,0,0,0,0,0,1
outputCount=1
weightIndex=0,13,145
weights=-0.37468662672912206,0.6179968180489432,0.13548895133440259,0.562287847745823,0.6558702027491439,0.7204683844557388,-0.5055355022203156,-0.6829215362410379,-0.6318222291044223,0.5963364565365966,-0.7289812364067588,0.6123999452304635,-0.24001830512561223,0.009350558958578623,0.018469509589939603,-0.44442807617810903,0.29997099090528695,-0.032514985668213994,-0.18570038950407647,-2.4449414521051396,-0.22144242633811775,-3.5513285084717885,0.1393122312398804,0.33322176883747445,-0.18981498979141478,-0.06168648891144963,0.1014495789126799,0.4849288144078458,0.21640481368020634,0.022093611111127558,-0.10975346210982752,-0.3652486698039902,3.2437814343840694,0.031082393608493932,-0.6680979888628009,0.029838142278049352,0.271721162140623,-0.20254117516019202,-2.515682142420116,0.0945278845622861,-0.06346803129513817,-0.2903483680111545,0.3273537875442685,-1.7812879214044133,0.7878448868806499,0.3084990722652591,25.460170349410586,-0.13812019900024436,-0.06557060790642472,-0.26093369377282566,-0.7729062077438921,-0.011149306468572925,-0.10675436349276142,0.20363024310783745,0.020130300513538466,0.16552925806337018,-0.6569397705406831,-0.06889703779857308,0.0009723799968034321,0.8007529419728141,0.03309209472401368,-0.1934445020395021,-0.19430792074539444,1.1101384631241753,0.29718964903230455,1.302231947735555,0.21878244496949803,-0.46626673372610866,31.441723586617012,0.29918787348918885,0.3265156003757515,0.3068732139267903,-0.11034338992840094,-0.20692003684179333,-0.17282223196351404,0.341011226507906,-0.17690875570228923,-0.10120789211903891,0.3238272562325824,0.10959263098094689,0.432565584337096,-0.19238604785271557,-0.2807557520064854,-0.003929944451193119,0.31745546598944396,-0.7551311172160654,0.1447793605964169,1.3516397368440145,0.17857684181845684,0.5862992843723027,-0.0017723187529704258,0.16095561939990266,-0.14751996004623713,0.5086430932856104,1.1471410994480076,-0.9005656988076206,1.853262529676242,-0.32860409397310836,0.8628684227971207,0.050230000539383035,0.6876886858303538,0.6147190025878776,0.4719158961099222,-7.298567251646481,0.05865126897492557,0.6549685595227037,-0.04491602313159289,-4.348577287630338,0.06108091921062973,-8.435036785625613,-0.119858846731768,-1.3575287729097307,-0.11458553376659635,-0.18141046791213145,-0.05852483446375097,-0.15149113956653565,0.4448469979542572,0.2329202379124287,-1.2187216509684267,-0.2909287392167219,-2.750018474242949,-0.05905429472483685,-0.7059672719032204,0.07752000897760424,-0.020833833934839882,-0.08726582295226228,0.4288206082751241,0.41631409847859147,0.29645491461967965,-5.6414476097304735,0.5101538813718998,-0.4960794447049596,-0.140376026438998,0.6353367552294736,-0.29930338336733636,-0.04984605446470383,4.742850510653529,-0.22612264328652812,0.8297262919370807,-0.5212622839849876,11.279483305566092,-0.34682317959367454,8.50328768920929,-0.11454497936016422,0.16285835399988935
biasActivation=0,1,1
[BASIC:ACTIVATION]
"ActivationSigmoid"
"ActivationTANH"
"ActivationLinear"
