encog,BasicNetwork,java,3.0.0,1,1547765022155
[BASIC]
[BASIC:PARAMS]
[BASIC:NETWORK]
beginTraining=0
connectionLimit=0
contextTargetOffset=0,0,0
contextTargetSize=0,0,0
endTraining=2
hasContext=f
inputCount=10
layerCounts=1,13,11
layerFeedCounts=1,12,10
layerContextCount=0,0,0
layerIndex=0,1,14
output=0,0,0,0,0,0,0,0,0,0,0,0,0,1,0,0,0,0,0,0,0,0,0,0,1
outputCount=1
weightIndex=0,13,145
weights=-0.45069684228326984,0.6332179249615324,0.1248316545885166,0.5609338523339829,0.6557791948717793,3.4845270253966794,-0.5057250766848371,-0.6828378289365602,-1.0881509662076267,0.5962372097460503,-0.7244552646637615,0.61503932052975,-0.23990282489369777,0.6277464131217182,0.22742754531332715,-0.82094652137158,0.3003271273575515,-0.027505433864771535,-0.8199938178484655,-2.321351236921705,0.05527888132061243,-2.3328606267216716,0.24711358853889245,0.3331062886055606,-0.7623188873649566,-0.06559852824814212,-0.324656737650469,0.48505966873395684,0.7425509857564697,0.021140091383113187,-0.1117998385890701,-0.3759845472978082,3.2451341018266717,0.027719671787301677,-0.6680057134948856,-20.77612293478705,0.952118243800916,-1.5200046478926215,-0.6067475806322914,0.09724480744736226,-0.33911489086340035,0.3813752490483925,0.32724467163229953,-1.7803081483855365,0.790233775421981,0.308639816699989,26.75370672113262,-0.15764959830665642,-0.06319168845379734,-3.5191566881693945,-1.0140977821930983,0.163011232436127,-0.2915275390498012,0.20367075044505337,0.23892911861544275,0.1876588059362339,-0.6561589146796397,-0.9856014214091074,0.0008946845356862988,0.6390877211548075,0.03296163227486015,-0.1924439428854321,-0.18621190855058734,1.2184579634604942,0.2972129045185714,1.3028824442963043,0.03689956370291989,-0.4661374617593259,33.743446792552966,0.013149594208766682,0.2617648045344002,0.06266036058630979,-0.044814593397818264,-0.12627713332785556,-0.16373585932141138,0.09605807141981439,-0.11636574811192384,0.011858493260464412,0.3519889582940297,2.4600061641740334,0.43247220836083106,0.4843216878536776,-0.26055074275372114,-0.0030744992287365875,0.3175925833606191,-1.2281529189740297,0.16900619784725981,1.4224193224795147,0.1782800075115447,-0.49623783170958896,0.052782634545991525,-0.2719291256856708,0.40251375962641983,0.4888190784953095,1.131204708983265,-1.0291648017345643,2.0744175010567716,-0.140377240028654,0.23922465455629688,0.010900654126517983,0.6874651679537622,0.8101160866044635,0.46249966813759874,-6.968451256884327,0.13498353789626744,0.6517782552608556,-0.021760407407443758,-4.611027358780496,-0.04443207842765379,-8.43399662487221,-0.07024231951981105,-1.793868070389374,-1.0644819138072794,-0.18148292273008976,-0.355335462242177,-0.02757635046184142,0.4501700215820646,0.49418896915322647,0.056541213094618195,-0.2909200693722419,-2.7476308986296623,-0.08270151515753263,-0.7058297030581022,0.4344685334326181,-0.02079925379378388,-0.09383905293260036,0.4472042758125407,0.41636707743539103,0.31042085634927724,-5.388574255295405,0.512856523075283,-0.6133718834588769,-0.08748603952878886,0.6351742788089189,-0.9377384264434104,0.010550465570211979,4.7268723510182316,-0.2603814324986932,0.9803078569299367,-0.644838443959874,8.54885250137037,-0.34965522067934274,8.7234630844262,-0.05726457478750612,0.1660679977125671
biasActivation=0,1,1
[BASIC:ACTIVATION]
"ActivationSigmoid"
"ActivationTANH"
"ActivationLinear"
