encog,BasicNetwork,java,3.0.0,1,1547765008126
[BASIC]
[BASIC:PARAMS]
[BASIC:NETWORK]
beginTraining=0
connectionLimit=0
contextTargetOffset=0,0,0
contextTargetSize=0,0,0
endTraining=2
hasContext=f
inputCount=10
layerCounts=1,13,11
layerFeedCounts=1,12,10
layerContextCount=0,0,0
layerIndex=0,1,14
output=0,0,0,0,0,0,0,0,0,0,0,0,0,1,0,0,0,0,0,0,0,0,0,0,1
outputCount=1
weightIndex=0,13,145
weights=-0.3759633577801759,0.6180537364063039,0.1354835176619977,0.5750521704857949,0.6558452058361538,1.183736654881863,-0.5056974880941509,-0.6829269410410379,-0.7599222351168409,0.5963432099779657,-0.7289844412067588,0.6132693869939331,-0.24000882512561222,0.04505137081150534,0.021173529970327756,-0.3372051872245288,0.3000398664277588,-0.029766578646972887,-0.34896409332222067,-2.4414284326777604,-0.22143758633811775,-3.4690663463404503,0.15899583750653556,0.33321228883747456,-0.1901409953349608,-0.06586154901610303,0.05297063938626069,0.4849295157296056,0.5266454501743764,0.01979233637311312,-0.11503890534814817,-0.36795269018437826,3.242443359014565,0.031061160954326688,-0.668108130814801,0.029795719764112893,0.5321760741875567,-0.349136194648945,-2.6361231708654342,0.0942018790187401,-0.05663344578588292,-0.10431968494269617,0.3273693126791158,-1.78416694875666,0.7931004152159575,0.308503712265259,25.422952378512903,-0.16054842564333588,-0.06370860995389416,-0.7966963010099852,-0.9305616612338818,0.009933363727509211,-0.1235873286061014,0.2036647312474435,0.07829481240734523,0.17583483792654234,-0.6568113712958465,-0.10029833410052785,0.0009458132814974481,0.8000482762280654,0.03303903231947449,-0.19354043361649853,-0.19430075594539442,1.1325666897672666,0.2971781274323046,1.3021382117333098,0.15029967330828667,-0.4662434619912399,33.824780064188964,0.14882109220671208,0.289754350884632,0.24227992119468675,-0.1293508471875143,-0.21154940192345087,-0.1701182115831259,0.21368881130735182,-0.17657494174356944,-0.015729290501943882,0.324766152197995,0.17418592371305042,0.432891589880642,-0.1923002692868523,-0.2729681733109675,-0.0036039389076470934,0.31747883062400406,-0.7506990607091307,0.14627387680334092,1.3521585891856378,0.17825122462073562,0.4002706013038447,-0.0013860598275669998,0.09382333815784737,-0.14620543122165391,0.5789580009637981,1.1371450250237423,-0.9778236897911688,2.062665006434326,-0.28998381333581574,0.9148634690273705,0.056690422839785114,0.6876818458303536,0.7109954873614692,0.5339805406566002,-7.1518827073084,0.09060292224523302,0.8291994053099029,-0.0969541966700222,-4.495634625884162,0.03615057410635494,-8.434191335219888,-0.13156611951052677,-1.504213317247813,-0.1791788264986999,-0.18140680286696273,-0.13669780553902403,-0.12014632566158988,0.4457249518803857,0.2896090239603955,-1.1933440008800213,-0.2909152132037939,-2.747954674874335,-0.059057148740836854,-0.7059471663071318,0.08991612420431491,-0.020827392334839885,-0.09353589004922319,0.5470687984616857,0.41631409847859147,0.3030547261679829,-5.6265354096979605,0.5116737878240725,-0.6241794507173781,-0.1250724927815531,0.6353104285141673,-0.30776915255686343,-0.0026413097794957714,4.7451518411969325,-0.2907159360186317,0.8300686037447139,-0.5448701044096278,11.277048408397608,-0.34939820146791534,8.503611827061835,-0.10228621087424565,0.16289374645367186
biasActivation=0,1,1
[BASIC:ACTIVATION]
"ActivationSigmoid"
"ActivationTANH"
"ActivationLinear"
