encog,BasicNetwork,java,3.0.0,1,1547765009672
[BASIC]
[BASIC:PARAMS]
[BASIC:NETWORK]
beginTraining=0
connectionLimit=0
contextTargetOffset=0,0,0
contextTargetSize=0,0,0
endTraining=2
hasContext=f
inputCount=10
layerCounts=1,13,11
layerFeedCounts=1,12,10
layerContextCount=0,0,0
layerIndex=0,1,14
output=0,0,0,0,0,0,0,0,0,0,0,0,0,1,0,0,0,0,0,0,0,0,0,0,1
outputCount=1
weightIndex=0,13,145
weights=-0.3829708281887263,0.6180602717698543,0.13547257200969745,0.5727773588454494,0.6558400922783088,1.4856379733557983,-0.5056865955797422,-0.6829195362410379,-0.8052347986305564,0.5963329870659656,-0.7290103998888708,0.6136252268175545,-0.23999860221361222,0.09036393432522069,0.021463723080158606,-0.29345263546072775,0.3001192743268747,-0.02901720555591202,-0.5102722797143147,-2.4422182978306584,-0.22141162765600572,-3.563907054325732,0.19593809767580778,0.33320206592547463,-0.19049683515858218,-0.06554061193339604,-0.05342306990124318,0.48490194354241256,0.5602579255637343,0.01979698666877178,-0.1131420196182801,-0.3698495759142464,3.2431019998929913,0.031056163594554057,-0.6681014908148009,0.02959574677643919,0.7153125392746424,-0.8312296363990755,-2.6518566998632522,0.09397318426928648,-0.049880722630296095,0.026180497976803982,0.32736190787911584,-1.784274927588225,0.7928784691434767,0.308512398025259,25.433753551136526,-0.15959682979652015,-0.06304996907546774,-1.1725368278181456,-0.9484625897133883,0.029381206415599256,-0.13125383255785927,0.20365551027883386,0.1236073759210606,0.17752656387643698,-0.6567212984927633,-0.1708028587871455,0.0009421384513629712,0.798501790204979,0.03297168389093517,-0.19353747170828373,-0.1942903330333944,1.157047427505675,0.29717072263230465,1.3023669064827634,0.12868443113850805,-0.46623323907923997,33.847511663973435,0.0972664181857337,0.28208784693287414,0.1969673576809714,-0.12884550625579025,-0.2107352715275709,-0.1682213258532578,0.16837624779363647,-0.1736234639105244,-0.0016974387831377288,0.32542479307642136,0.24469044839966805,0.4329819367521531,-0.19200692082916834,-0.26750514240894746,-0.0033752441581934764,0.317480830624004,-0.7514889258620285,0.14922535463638595,1.3523282330115793,0.17824881204682094,0.2697704183843445,-0.0007274189491405817,0.028890284006638088,-0.1391979608131035,0.6242705644775136,1.1339792584483879,-1.0050846887701612,2.049445660835267,-0.2698022985591906,0.7474699128641307,0.06881536570806054,0.6876716229183535,0.7382564863404616,0.5248631329195798,-7.118379597822145,0.13591548575894835,0.6618058491466631,-0.08578236649272565,-4.741048661756439,0.037669706691876144,-8.434303438242937,-0.12900174578864215,-1.582724994307311,-0.24968335118531754,-0.1814028435989753,-0.138907311582039,-0.12343300088571607,0.44577192130656307,0.34561881090209484,-1.1352212383233409,-0.2909175031488819,-2.7474256085937867,-0.05906114874083686,-0.7059315032151523,0.11439686194272382,-0.020830760334839882,-0.09342116254068542,0.5532843986281808,0.4163094584785915,0.30334491927781376,-5.627349540093841,0.5119024825735261,-0.6694920142310936,-0.12137806184685672,0.635291632803792,-0.31626940871603315,0.00647609795752467,4.745131500132562,-0.33602849953234704,0.8302038756921047,-0.5451602975194586,11.27515152266774,-0.349626896217369,8.504456670619964,-0.09378595471507588,0.16292131864086487
biasActivation=0,1,1
[BASIC:ACTIVATION]
"ActivationSigmoid"
"ActivationTANH"
"ActivationLinear"
