encog,BasicNetwork,java,3.0.0,1,1547764999786
[BASIC]
[BASIC:PARAMS]
[BASIC:NETWORK]
beginTraining=0
connectionLimit=0
contextTargetOffset=0,0,0
contextTargetSize=0,0,0
endTraining=2
hasContext=f
inputCount=10
layerCounts=1,13,11
layerFeedCounts=1,12,10
layerContextCount=0,0,0
layerIndex=0,1,14
output=0,0,0,0,0,0,0,0,0,0,0,0,0,1,0,0,0,0,0,0,0,0,0,0,1
outputCount=1
weightIndex=0,13,145
weights=-0.3743827606934781,0.617955145827476,0.1305206330594401,0.5609587797763063,0.655758435756186,0.3081451930011113,-0.5061107711874404,-0.683019877062124,-0.4535570685563271,0.5977836521892723,-0.7289689948143281,0.5728645187954153,-0.2400630674504465,-0.007684341881028544,0.007039125843397387,-0.4140637592967641,0.3022624912733065,-0.03213820605558609,-0.17857591117787575,-2.4703305106901223,-0.22142192088551624,-3.0822340595015647,0.14127379315827365,0.3332283075894744,-0.18868916973385977,-0.09263693398216921,0.15646108324816302,0.48465507314658085,-0.051326302476640634,0.09809920888739372,-0.3482770908498831,-0.3590689313668464,3.2432155255429658,0.03074193063583785,-0.6681476121039048,0.028695472141550424,0.26449277481657996,0.019721833177311004,-1.4910570812914388,0.09454032707007032,-0.06379813365292138,-0.3726203967372308,0.32756521720158094,-1.7882828792532168,0.9028137714033327,0.30836741455037014,4.22568496618319,-0.05534804546163602,-0.06979269404799751,-0.0016472020472099395,-0.5861162068737186,-0.010304044480039446,-0.10588801657005066,0.20267011359237272,-0.0947493112654552,0.04794024879285502,-0.6569944204253151,-0.0668432544218843,0.000979219996803432,0.801372076196296,0.033090012376745484,-0.19364053409469267,-0.19394325647755814,1.0714390529308477,0.29720794711938037,1.300518907989094,0.24529427188899458,-0.466645907944989,30.2220500975171,0.3066222251097367,0.32988749487955277,0.33531928130379296,-0.1193438530870661,-0.14040962794962084,-0.1938021013432641,0.3689783079070976,-0.17603061069878134,-0.2162239647878888,0.3235198412685098,0.06053211656287827,0.4319569508969347,-0.19280483578168284,-0.25551532731251697,-0.0035899274355017845,0.31583833995900384,-0.7301435060575102,0.1422311581029265,1.3503352703892806,0.19111846018631126,0.6689627160326076,-0.008447885433762098,0.13346712058596696,-0.14802992196368422,0.4065770400277269,0.9603023722461237,-0.46115066035326435,0.6452187511897427,-0.417531638316772,0.42983583727596847,0.04995896981992683,0.6876982974038445,0.4422667120819329,0.11558040210552238,-7.575349164894383,0.14971848473765878,0.37141625841754594,0.012699260517073882,-4.341309732041621,0.08110066108825793,-8.412501006545304,-0.22254732318283488,-0.9806037272775499,-0.02209439135579668,-0.17856564476462983,0.17162168736790598,-0.16273022739045906,0.3903544250134653,0.23045932497700916,-1.2074394561168003,-0.29093543841672187,-2.6749708363074447,-0.059141005769246274,-0.7060120342280547,0.04778216678535091,-0.020859163888778974,-0.025296286013518805,0.36791077052029303,0.41634335974261505,0.28489337564146194,-5.568230302043713,0.5004654586376764,-0.4378710657809769,-0.1607490058706178,0.6353512688144854,-0.3183479334311105,-0.05776788810300565,4.770262101366109,0.08173349589440093,0.8075641456849486,-0.4360255173537547,11.305569381360275,-0.300880924591814,8.48895395651387,-0.2414595007796763,0.1619478829686167
biasActivation=0,1,1
[BASIC:ACTIVATION]
"ActivationSigmoid"
"ActivationTANH"
"ActivationLinear"
