encog,BasicNetwork,java,3.0.0,1,1547765017699
[BASIC]
[BASIC:PARAMS]
[BASIC:NETWORK]
beginTraining=0
connectionLimit=0
contextTargetOffset=0,0,0
contextTargetSize=0,0,0
endTraining=2
hasContext=f
inputCount=10
layerCounts=1,13,11
layerFeedCounts=1,12,10
layerContextCount=0,0,0
layerIndex=0,1,14
output=0,0,0,0,0,0,0,0,0,0,0,0,0,1,0,0,0,0,0,0,0,0,0,0,1
outputCount=1
weightIndex=0,13,145
weights=-0.4438969245606376,0.6181707447295822,0.11939786498895429,0.5648902299067853,0.6557866088237794,2.818607537353604,-0.5056935956480368,-0.6828693099733605,-0.9936415251648563,0.5962723914646199,-0.727949006957645,0.6150131091072715,-0.2399380066122672,0.1689682186613947,0.029252024840647248,-0.743378161067708,0.30030857594010574,-0.027503916731971532,-0.8189555461806647,-2.4315656346923555,-0.1792895084079665,-2.8859068621275354,0.2472075740191032,0.3331414703241299,-0.4901316971617771,-0.06561772415214216,-0.24384444078261838,0.4849271520675525,0.7426041946406967,0.020504839484178767,-0.11196083541445936,-0.37437158862050246,3.244978993883361,0.0309973412570925,-0.6680408952134551,-1.159877105820782,0.9074074729821354,-1.4391923510247704,-2.617114168623637,0.09463584734826087,-0.17792366592664563,0.22207726486078014,0.3272526732322994,-1.7822202734369503,0.7928682191187648,0.30857299362660373,25.434858052031256,-0.15995932545610675,-0.06288539653764959,-2.7352575803842383,-1.0027034147834273,0.16289881176777513,-0.25865567494284186,0.20364793312683385,0.23421115097274497,0.18541369281510087,-0.6563467815671528,-0.713414231205928,0.0008962509356862989,0.7980924314534865,0.0329108272101364,-0.19252777659756307,-0.1935791782659874,1.2185879436797555,0.29719008720035206,1.3028646355379627,0.0566338593412812,-0.4661726434778952,33.74482053476575,0.017910071905230276,0.2724679492564007,0.08894609697155278,-0.058196853762270254,-0.16609411474945313,-0.1641004747960881,0.10678122536229011,-0.14145022494221757,0.011823654308020503,0.3405945908843594,1.6761070563888771,0.43325569287932064,0.20039937991819234,-0.26862677266111756,-0.0030803995807365874,0.3175925833606191,-0.8674749066653556,0.22739549752815083,1.3679800856363706,0.1782212469959409,-0.2728409540344379,-0.002427334307716468,-0.16422668745271396,0.4976678167607239,0.513825040493465,1.1338136690823666,-1.027884803670982,2.0965639854966027,-0.13812461451741068,0.2938230149215859,0.03635962530913525,0.6875497246265916,0.7875406643441685,0.4802254024917386,-7.050620577928419,0.13281857945598197,0.6496950435411579,-0.021653954709439056,-4.613063362961044,-0.025297634370249185,-8.434028105909007,-0.08819488013309144,-1.7610522922495233,-0.7922947236041,-0.18145579849632032,-0.1438996947801728,-0.027901014637328803,0.4501841795092616,0.49380903527594233,-0.11912648985112005,-0.29090942777224205,-2.7476163566776624,-0.05921255053173134,-0.7058648847766718,0.4016527552927671,-0.020805020193783882,-0.09377525980133172,0.5373077900492539,0.4163355963985912,0.3105034386101131,-5.589929916830932,0.5126909002197688,-0.6307269929437117,-0.08885887298341033,0.6352134814481831,-0.8200121298470178,0.008001599950602258,4.745081625850406,-0.359971669641711,0.8474008015846858,-0.5982541997053812,9.192235509074804,-0.3497326055523008,8.746015392849285,-0.06235035628475716,0.16469425549978856
biasActivation=0,1,1
[BASIC:ACTIVATION]
"ActivationSigmoid"
"ActivationTANH"
"ActivationLinear"
