encog,BasicNetwork,java,3.0.0,1,1547764994904
[BASIC]
[BASIC:PARAMS]
[BASIC:NETWORK]
beginTraining=0
connectionLimit=0
contextTargetOffset=0,0,0
contextTargetSize=0,0,0
endTraining=2
hasContext=f
inputCount=10
layerCounts=1,13,11
layerFeedCounts=1,12,10
layerContextCount=0,0,0
layerIndex=0,1,14
output=0,0,0,0,0,0,0,0,0,0,0,0,0,1,0,0,0,0,0,0,0,0,0,0,1
outputCount=1
weightIndex=0,13,145
weights=-0.3743494284924976,0.5875747161717004,0.04747089477495237,0.4188482363635001,0.6563302774066201,0.09748631141752416,-0.47275239782072803,-0.5833354356028215,-0.4182264955879444,0.4296588508027142,-0.729256928832192,0.47111246864647305,-0.23160371308085068,0.13182928747886805,-0.07244396516653216,-0.15236961566727636,0.30328324508979854,0.12669978272917318,-0.15233305887785237,-0.6253523252938723,-0.19291759718994958,-1.0747208814326021,0.14755202347774016,0.33421023183947435,-0.20607156769614457,-0.12317916249404379,0.391322679939872,0.35503879644933645,-0.23945035619770388,0.11506962901435897,-0.07186609199101715,-0.3491740219958292,1.502123947355392,0.024827289072689752,-0.6733880147772328,0.013328509286038424,0.45736352821242704,0.10127099869526554,-0.6227299108245145,0.09980126667945714,-0.0706787878307732,-0.36616833589282405,0.3377291701276046,-0.4839400255310575,0.9041774236796578,0.30632688191096225,0.7200337938330054,-0.032432680489870774,0.006208788503078641,0.10615387157958255,-0.366349090889543,-0.012025796691509846,0.034196386180477684,0.15741366311834468,-0.31807241221211247,0.04534683459357342,-0.6560217721868512,-0.0375010138924521,0.0009299687568034322,0.8270731114463555,0.04617311635077029,-0.22226650993161845,-0.20082391065540992,0.8232406142521187,0.30073709744091637,2.3460918689591623,0.27659552041404795,-0.4675935987161767,1.1447770135757327,0.3071065427819603,-0.517898892872636,0.288789260063893,-0.28925345025630783,-0.14356494298820366,-0.24501922598466913,0.4297378426823933,-0.2194320582189011,-0.21727738793478085,0.32297066420697385,0.17590544697210223,0.43088986859971107,-0.24538155107326226,0.09246854952642367,0.03066441148878998,0.2170205990554198,-0.5368019305729954,0.09342687194329986,1.5884941210726913,0.1887937745748033,0.6864966504750892,0.15611371717022735,-0.006054012341566592,-0.1559942122537437,0.20191321915939112,0.3273730782116983,-0.1752455587046539,-0.2735458504594577,-0.26895030055816743,0.9229987277697677,0.04992493338146283,0.6852598675330683,0.3985003446838283,0.09924893589855711,-3.348505715282177,0.1698696873066556,-0.03735249322000919,0.01133191923419808,-0.8303374021454455,0.006562094916101865,-5.828169916890608,-0.23088897726908728,0.37832331982289,0.07713987484538319,-0.17654889626413775,0.406483284059615,-0.16770778550997112,0.22315460832422354,0.20531357097432978,-0.3388279194890399,-0.29012255088547195,-1.592700980866022,-0.05722555466646996,-0.706705439320859,0.019719330869483007,-0.02288806238927107,-0.21914469688982405,0.31911250310770045,0.415540467416151,0.10885736128192462,-7.4267334161425005,0.26842518833753115,-0.533610116952377,-0.15410750155598618,0.6374328955517092,0.5444799429732062,-0.4799445716687776,3.125132907066855,0.15106567559610293,-0.10134712682895085,-0.3900844366680948,8.02619409365061,0.19760470141004574,8.049510001170507,-0.16900623446846338,-0.13227809435603236
biasActivation=0,1,1
[BASIC:ACTIVATION]
"ActivationSigmoid"
"ActivationTANH"
"ActivationLinear"
