encog,BasicNetwork,java,3.0.0,1,1547765612675
[BASIC]
[BASIC:PARAMS]
[BASIC:NETWORK]
beginTraining=0
connectionLimit=0
contextTargetOffset=0,0,0
contextTargetSize=0,0,0
endTraining=2
hasContext=f
inputCount=10
layerCounts=1,30,11
layerFeedCounts=1,29,10
layerContextCount=0,0,0
layerIndex=0,1,31
output=0,0,0,0,0,0,0,0,0,0,0,0,0,0,0,0,0,0,0,0,0,0,0,0,0,0,0,0,0,0,1,0,0,0,0,0,0,0,0,0,0,1
outputCount=1
weightIndex=0,30,349
weights=0.2668407010348704,-0.22696162090465327,-0.37143319871596425,0.41522935065453037,0.26814049414804864,-0.4003364029379161,0.9352042364082914,-0.1833055811763633,0.2925980215446398,-0.6507663261157945,0.393962029201208,-0.24858561357423736,-0.1955819164605386,-0.45675407524047856,-0.25410511875048225,0.46112140655976186,0.3281215473423292,-0.6657354649714161,-0.23594759749976513,0.7005145026984749,0.1945401700965519,0.2892296187436251,1.5129856489107139,-0.37979631542298214,-0.3344051109596174,-0.17860828548451577,-0.22286695514397728,-0.36021659802844597,-0.47453655259592253,-0.06300117130376949,-0.08509871245629345,-0.1615416229213796,0.1272512865255266,-1.6498132194194446,-0.07676365657288277,0.1151863272780783,7.8594492645290766,-0.5705087308479462,3.6421804611338415,-0.11695331062582046,-0.27369181124680764,-0.3590297928797206,-0.49411121349692105,0.09945772376230796,-0.14355002671536488,-1.269564426594057,0.37046443086841113,-0.09176593291382788,-0.3598058821561583,-0.07645064702379765,-0.140657625185714,-0.21102604156942587,0.24258794661437127,-0.23638185118658772,-3.2537076998320464,-0.14883920322114227,0.09798737890382321,0.521534496317764,-0.5355419879881027,-0.00893796204388261,-1.409541988177581,-0.1365621800195692,0.6773205577698768,26.156275032787494,-0.02471145551684089,0.5354767660719478,-0.05873215904759845,-0.13961523074963722,-0.34314441802018286,-0.21054347652779154,0.21990492523908753,-0.26359632305180586,0.15404454650048272,-0.4083417399815136,-0.6086237139698589,-2.2912568195962884,0.5907627251967958,-1.5928148989241095,-1.1595673475882728,0.9018945757884014,-0.7977558245745744,0.320769578404,-0.45066782889871926,6.727460033988075,0.1584350354290328,0.37821786805519814,-0.17751376622478557,-0.2928392426905486,-0.03962566069868887,-0.2925291541350762,-0.2888205267982693,-1.3257770606780541,0.230000996655766,0.0659212023252033,0.03609562010582976,0.5727634677368341,-0.9049440690594904,-0.18442595900014552,-0.6711931093611475,0.30224709102907016,-0.0998700796847292,0.2762996496308568,-0.4801701816121289,-0.13213580924512713,0.6474949011046143,-0.05743761185373421,-0.0000850982923099202,6.4670783720226375,0.6426928873776423,1.0816130215614408,0.21124237000075283,0.6239167711206741,-0.43150494660770566,9.44108973670988,-1.496238264615114,-2.3506472515185055,-6.981590526531502,-0.7752880879383337,-0.4354555771388107,0.17058699092463833,0.36332158883212423,0.039348846848122544,0.057839455741139474,-0.31422197312010014,1.1141715015709277,-0.04181481299768288,-0.3051422739850272,-0.07460117389804076,-0.7145480658529858,1.1542041939990781,0.6020928450967956,1.5456101246756853,0.1349096684661323,0.04420400025421292,0.07459386675984278,0.03184651273399193,0.009073166958542475,1.386334890896782,0.303608056944268,0.2621664552835125,-2.1481954440098163,0.2647070369346862,0.21673717404477585,0.7809054446571317,0.9690379467796773,-0.3002096784812216,0.015238951286932555,-0.8054914891668353,4.2400417132671695,-0.03679885649979354,-0.44765102674431406,0.06270365872821512,-0.23857071344238606,0.0512543961951118,0.8864612141726674,1.5379491461313084,-0.12899961594616025,-0.18161755637123245,-0.2153837830834892,0.07667710403018306,-0.613536914049932,0.25803021698769213,2.0760294611371792,4.859172195020108,-1.7553100330765812,-0.6042680277738139,3.242886408512706,0.11503807743984837,3.1855109791148295,4.123027867923838,-5.5909213839535825,0.31115735862279004,-0.261437564491543,-79.95881218653791,0.39199524248452067,-3.120666925529914,-2.8163537367794564,-0.24654986538812673,1.1729199196131328,-1.2672181714107713,1.113212292431122,-1.5347132345187247,-0.31778767647523765,-0.41640927334351807,2.120512970201115,0.2929318043074524,0.4401887972284999,0.2403544684844463,-1.23638306937882,-0.7102649371619675,1.211548884722768,-0.3269868671876132,0.9521676296927591,1.0698083443476794,-0.4119841948828106,-0.08679045723198671,-0.06723798846145851,0.06289576237699616,-0.2455479734872575,-0.043424894529586235,0.07732607284326655,3.0307454031274417,-0.1551592884714757,-0.03817325425979928,0.255253419694934,-0.6918163547112657,0.11490685004127624,-0.2699908969103054,0.17180644026449818,0.043600239561883025,-1.5996285166341007,1.3625151889894092,1.9308997457288388,-0.42005495091545475,0.6695740026945329,0.2450940393116558,-0.4405512176363365,-23.273906928423525,0.12142544103835935,-0.0918177272060145,0.10537049434229917,-0.3338139257251933,0.3805742363895941,0.7399446330810399,-0.21536616660208666,-0.3030491316830137,-0.1295322046425488,0.09445045653382242,2.054885256315478,-1.3564052587385473,-0.984277475219491,-2.1752587081572035,0.4626328291542166,0.5019398751869951,0.672090480158684,0.4308666437155005,0.41248595066430854,1.1106760784220289,-0.21642074203663486,-0.5448288146333924,-0.34981126297141946,5.7460978401853495,-0.3639687278861305,-0.3667486057788558,-0.16802778269291138,7.157410456994536,-0.4109944424818898,12.497100928603366,0.1396321415973835,1.350837511636486,-0.5347048571045981,-0.052009158579103695,0.7158511416369894,0.6885458611166142,-0.2019934687547601,-0.03185582291903748,7.82290636403896,0.2502367262720019,-0.6438817728912943,0.6549475181078395,-0.2022450943396358,-0.34811180307331474,0.4482887103242765,3.6568876979758387,-0.910506372894272,-3.764178967364513,-0.5618445998010717,7.477522487250927,-0.9054929177985895,11.563434058735915,-0.12217339065671022,-0.2430923473134357,26.697364704217144,0.0316864218888899,0.0968439881215868,-0.07295436300355539,0.22838103777117721,-0.20938788449894613,-0.0692321173582398,0.25184554045055835,-0.23565495840536965,-0.1387141998448846,0.4454963525335754,0.7624968719117081,0.06070507918579456,0.9860048709152954,0.22648865608333335,0.46928189505636037,-0.3619942593884049,-0.5117369151639392,-0.919635710335084,-0.49216412932507414,-0.05910603088239426,0.7492308618842595,-0.062496087234798166,-0.3965793409321568,-0.8232598045617117,1.8157505111775902,1.4947431918186007,-1.0186282868109642,-0.09781952309929985,-0.2234965844071555,0.5006113262268996,0.10027293500939252,0.5130896559200167,0.8504824853548669,-0.4593542746897758,-19.786598839872738,-0.0974903022910815,0.030482819262084515,0.1562388226417126,-25.429115188850698,-0.19438700580812052,-1.5938173313903208,0.33971872288792904,0.08126420077553838,-0.7971079019117125,-0.9137501105509839,1.5852422685669965,5.672482233402543,-0.26730683128175037,0.006155192561837112,0.35169302612911224,-0.5059204314790452,11.416890857631762,-0.17469717326825626,-0.22841400122634933,-0.004602757540904608,-0.03966168513539179,-1.9993722551757984,0.7140792516449581,1.794746389655526,-1.0988290103988014,-1.4483632454383801,-0.31243129302816136,-11.925988350933512,-0.16391863794816192,-0.6886775624110135,-95.66573716429012,0.05512939843430067,-0.3573409263820463,-0.4853346601579399,0.1275696489637937,-0.22418556092756733,0.004274744494199495,0.044378296508374465,-0.9045439364146624,3.861169407501189,0.4810222213352136
biasActivation=0,1,1
[BASIC:ACTIVATION]
"ActivationSigmoid"
"ActivationTANH"
"ActivationLinear"
