encog,BasicNetwork,java,3.0.0,1,1547765903271
[BASIC]
[BASIC:PARAMS]
[BASIC:NETWORK]
beginTraining=0
connectionLimit=0
contextTargetOffset=0,0,0
contextTargetSize=0,0,0
endTraining=2
hasContext=f
inputCount=10
layerCounts=1,22,11
layerFeedCounts=1,21,10
layerContextCount=0,0,0
layerIndex=0,1,23
output=0,0,0,0,0,0,0,0,0,0,0,0,0,0,0,0,0,0,0,0,0,0,1,0,0,0,0,0,0,0,0,0,0,1
outputCount=1
weightIndex=0,22,253
weights=-0.44171412506302005,-0.3908483078116811,-0.23558509005949727,0.2647827917281569,-0.10419041379508961,0.34475470787487666,0.23878012990035896,-0.37995341943780725,-0.6117336920816729,0.22220209839830493,-0.5633247958171088,-0.683477356633035,-0.012079587447897151,-0.5265911457095805,-0.16623186162398707,-0.3655474682512762,-0.15134223920894907,0.5002466539174979,0.39095890732962296,-0.14941778349613816,0.13464310420268766,-0.455065677379378,-0.6957442880148962,-0.5689941680444429,0.5879871752097046,0.0009754027287780711,-0.042109478562461417,-0.021046058539012345,0.28393373270266087,0.2949680018100295,0.18072072556585397,-0.08989435176484041,0.7173600037092953,0.20339721756525503,-0.055742845477401624,0.03836983471681184,0.06454171162829629,0.16046323456893266,0.19269006299526456,-0.3846763593221007,-0.1513758523537186,0.11180595520123171,0.026278503573931102,1.2873637175162864,-0.08381826661792952,-0.35293813815178937,-0.2510986533896136,0.4220776862796021,-0.2405946491684376,-0.141831918736645,-0.23980057050989725,-0.19001135676637956,1.324736888901329,0.2594248986635289,0.6908737366206343,0.6422339302128752,0.7898243556518892,0.01194966527496048,-0.0724152330624345,0.20775316155634932,1.756297816416662,0.2241813626583901,-0.1889276104059458,-0.10713597249145292,-0.04491398218269431,-0.3958541202562551,-0.9337362842295032,-0.6427850902957534,-0.2670760535946754,-0.09814490448471747,0.7769054753171717,-6.418415096415888,0.32293908924790343,-0.2112972045501522,-0.8629192167672346,1.0953757847769348,-0.27417668935481604,-0.2592540697919994,-0.21011950222019793,0.3983201229432909,0.42723162908069073,0.12136497914326513,-0.07911304728687998,-0.09191026949632806,-0.17210920666039212,0.07042486877622549,-0.24598617878591955,-0.6433189120050288,0.36170124577299867,-0.005392442904489647,-0.11574727368745664,0.464646795298798,-0.6592858484359329,-0.5740930890070703,-0.955481029415368,0.25774638338098654,-0.2470567393188795,-0.6232005123765503,-0.3979737697499943,-0.5962142386269953,-0.3389496015368653,-0.11367571843894843,0.07432892826608356,0.32162762935929284,-0.1049180661983371,0.1420494097310792,-0.13506384937360524,-0.7415001976923359,0.11207383732689503,0.4243350951568943,-0.2166190619758147,0.17642124837048825,0.038151144859530216,0.11314398194569028,-0.3198088866502414,-0.13262958496525415,-0.1640532259782681,0.11009474402050727,-0.21009639820765358,-0.06060820941456927,0.8936170810827354,0.40866145479591826,-0.24923005134088155,0.2778089641345825,0.07803593027576819,1.1170523301621698,0.3095683699928494,-0.27273063215424986,-0.4357418217972095,-0.9037575239979105,-0.2679073154322871,-0.29236274699107867,0.1702301718980243,0.00022818523953998095,-0.331685928185056,-0.1280665158407767,0.03794340100067287,0.11953460166212136,-0.4758788831741226,0.22281142251737535,-1.0550908116287216,-0.05577379019813512,0.5878932145994189,-0.07649038367316546,0.16164655791673035,-0.5453902603687549,0.17772059666230028,-0.017864226064823144,-0.11307197332605805,-0.6000884262895224,-0.22035478386634866,-0.1708450932407882,-0.02093241498022567,0.8628908270823424,-2.4065834353044675,0.9558519529353355,0.35250787360429375,0.34108831465039346,1.0668903165362529,-0.055724822133784595,1.8800453212930006,0.5979017865416881,1.0530724432775609,-2.5393400509594337,0.575404899396294,-0.3672876690094794,-0.06675843633002655,0.09356935244966624,-0.10037403648201638,0.3966779481243851,0.0781559997073053,-0.17644302566271228,-0.15446680535148924,-0.07768520188338485,-0.4943585589705252,0.698997560878882,-0.6334127716177367,-1.307402445045699,-0.14015267715848204,-0.13900691240343743,-0.49354438673570994,0.1848247314718661,-0.7815816444259174,-0.9533747508120519,0.0524552015290123,-0.40470217068877623,0.05706978731745452,-0.2606693968274825,0.04585908429737232,0.06657037765548633,-0.420902051477265,0.29919617156245265,-0.20182545684722425,0.23189167873705016,-0.006635955457368188,0.05447976938314484,-0.18406282981628994,0.93180216799448,1.045313732681864,-0.33627472076516024,-0.08586973809790929,-0.15964668821913983,-0.7330271511886131,-0.17527213575170106,-0.02220049744343462,0.12097050043034055,0.2551061617766425,-0.09984348798510043,0.4515245559861927,-0.017066855859142162,-0.16614410026046236,0.040090919090234475,-0.2520651374170746,0.04519106704242375,-0.3290073351573786,0.14283491890747568,-0.26603810816656814,0.3015632771387587,-0.22600793309483466,-0.8382381559470046,-0.06419610057445248,-0.1779188294478737,0.43067129960684347,0.393292937047206,0.15892552864425358,-0.7860500811202185,-0.17491337056894463,0.1161208136602345,-0.4847453031354716,0.1023129041720126,-0.3652697024683927,-0.062475547436828684,-0.16659279095681803,-0.13276848726449245,0.2504957955849758,0.09947360262943143,0.8739380694833855,0.823878279696784,-0.37908578523859254,0.14752795434015187,-0.2052236770323523,0.44628612068303836,-0.43244557079939566,2.066563900185355,0.1508580598431037,0.4519326577077671,-0.27923455468374864,0.39554894163131016,0.3216473671650497,2.684802614941249,0.18067549634321536,-0.7181804454782275,0.4603526307705752
biasActivation=0,1,1
[BASIC:ACTIVATION]
"ActivationSigmoid"
"ActivationTANH"
"ActivationLinear"
