encog,BasicNetwork,java,3.0.0,1,1547765468069
[BASIC]
[BASIC:PARAMS]
[BASIC:NETWORK]
beginTraining=0
connectionLimit=0
contextTargetOffset=0,0,0
contextTargetSize=0,0,0
endTraining=2
hasContext=f
inputCount=10
layerCounts=1,23,11
layerFeedCounts=1,22,10
layerContextCount=0,0,0
layerIndex=0,1,24
output=0,0,0,0,0,0,0,0,0,0,0,0,0,0,0,0,0,0,0,0,0,0,0,1,0,0,0,0,0,0,0,0,0,0,1
outputCount=1
weightIndex=0,23,265
weights=-0.04265608378305417,-0.15254203223517904,-0.4567988594711717,0.37160280025222353,-0.18306175747291015,-0.047289387198883,-0.4365777630352309,-0.6271234092500662,-0.07629656026869076,-0.6148795916397636,-0.6533544066189745,-0.0696577279474236,-0.10955997676330381,0.09046333636621245,-0.051859953956770434,-0.3803659337524111,-0.1391768976059945,-0.0805000485625109,-0.024243486157053774,-0.3845442648856656,-0.15373975296077375,-0.0791538393076686,0.022894104827689526,0.4119970125970893,-0.13592071774446307,-0.9091275083925277,0.46837830697258576,0.03552144152194828,0.3152600418480344,-2.8101407709772053,-0.36407380515712506,-2.4984723101587005,0.33267359958478865,0.1868572645810028,0.3995426387728158,0.4297409238065587,-0.8967502181414253,0.21397729117903683,0.31995086516811516,0.5631070261941135,-2.91305481201237,-0.3301349763247007,-1.1651316430431045,0.056807242675678396,0.0730940646977237,0.08766468892397031,0.24439889623353891,-3.360771582208309,-0.13092734844800785,0.4791002460827389,-0.22587958598435182,-8.729165722060472,0.012373800128912659,-4.902542996415725,-0.30615949240345297,0.37443323185864075,0.8844002293175426,-0.24576773128565518,1.5471948747464688,0.2826187789248772,-0.5658545511124161,0.25380241370249434,3.2403326211960035,0.4897822660301847,2.3047414022100776,-0.11573767584396383,-0.34088402197253476,-0.2840915093160785,0.18278420577308352,-1.1703442550580907,0.9337579658354649,3.280112823886398,0.03986349446757505,-2.663762353520264,0.5223801715520284,-2.9359060333184885,0.3820966797165717,-0.16196239105150842,0.17533408888920785,0.32129903183205033,-0.8039253874030199,-0.001246430786550328,0.5817248865362123,-0.32688536460762574,-3.2315024678595563,-0.2477059397432785,-1.3789661524766197,-0.36256358535075717,-0.01643924125255738,0.18617058671822376,0.4778587501669296,-2.7728811700454887,-0.38337052705667374,0.2587799604414599,0.4413459949046884,-8.776528898817006,-0.12219333937166302,-5.385859503524912,0.14649782973106606,0.2284177694752818,-0.4917220659840701,0.14193142974231537,-3.34747081608762,0.17382091069320016,0.4916659102512626,-0.3047138001172288,-9.02222743812091,0.2015002138439745,-5.131794365151331,-0.0538974245877124,0.3417775793965837,0.3257630946269169,-0.11122579132976207,-1.8439102139893595,-0.07781554066079026,0.09260581742047769,-0.058982145822642086,-2.9745305552911265,0.17086661812964551,-1.5842023330465402,0.06913887853509931,-0.20240332613079223,-0.6727406293089591,0.8225592649180757,-4.266365135135009,0.12869109758512068,0.20510604653980358,0.2560144579603034,-8.682841958989375,-0.4543253516325948,-5.680408787461696,-0.22770402735326767,0.06238942983868335,0.030238115991432432,0.20476506781890033,-3.0531350806508604,0.12869091238899721,0.46748489197843535,0.28650459002872253,-8.164651509901434,-0.2627326689209062,-5.779886480718023,0.030476239813482707,0.5833432942427434,0.02228383629486884,0.1192606220467275,-1.250399974263767,-0.3023593612211807,1.1071912199616039,0.23614889874469727,-2.5727240374587144,0.40257515105532954,-2.856770384541873,-0.13756088417037013,0.3048691740921953,0.5505505708258875,0.2675767856655279,-1.6646084121242326,0.23714352440447972,0.015273731068475686,-0.05625295227124135,-2.4127465299748834,-0.17690885742015827,-1.6547125494775534,-0.2590063558509216,-0.6391802362615834,1.5160978071139932,-0.4606230136490022,0.9156977801365118,0.06927040734546985,-0.3241105374570187,0.12773039959041396,1.4143366076548347,0.3620792301452456,0.9906314735307746,0.5079218576896254,-0.7444844066042428,0.1333392971611524,-0.36191850508629364,-0.9648121600611057,0.12698150191925411,2.712911626352401,-0.33425454981817393,-2.62330264907886,-0.35130751486072176,-1.6657796584359132,-0.26509887788491193,-0.11066454992787514,0.016710128628099855,0.3828245903085773,-3.376380311682019,0.21266473208607953,0.1093146790192061,0.1851612982446732,-9.139117983224201,0.013145642572140358,-5.664940318375004,0.0939946538979601,0.6767052972167348,0.23577270595879807,0.48560651534702903,-1.2319330332777485,0.03869697530146275,0.1706724056750159,0.010448879438878844,-2.2727380746041193,-0.2677134695636459,-1.459273193019382,0.037866591747374,-0.2019738548924638,0.5209750682414581,0.10303135923749451,-0.8424601932571136,0.07071332213929267,0.40787306262671286,-0.3072721685267333,-2.5249127549719286,-0.08149026240943782,-1.7295509637503297,-0.10836683109968148,-0.4872666524246175,0.5882515954797122,2.604857365355075,0.5149186074148798,0.42251981514318,0.36396620486845144,0.11949544644187197,-0.30441248007520005,-0.3356661805385929,-0.4266553944954616,-0.281802251563329,-1.5172311991502117,0.23997791863877788,0.40698392857534926,-3.1722702702621746,0.06589155353301096,0.29120742168540026,0.2541257814612137,-8.394440495523957,-0.12857657507584844,-5.693221522951992,-0.11161056738771073,0.4593919756729979,0.26772414693847246,0.3364334352077489,-0.6310491304568879,0.3861882267733374,0.551295094032443,-0.25001045428724433,-3.2392683983392,-0.3282543990863051,-1.9127261596092013,-0.24131928610468653,-0.05583734685707817,0.4416669663168393,0.9147616098873856,-0.9611614986537136,-0.1630856014819364,0.33179575151421,0.23831364706560076,-2.8518479543436275,-0.030075420609771916,-1.3839064558420515,-0.48108978200300845,0.3088426831449966
biasActivation=0,1,1
[BASIC:ACTIVATION]
"ActivationSigmoid"
"ActivationSigmoid"
"ActivationLinear"
