encog,BasicNetwork,java,3.0.0,1,1547765965791
[BASIC]
[BASIC:PARAMS]
[BASIC:NETWORK]
beginTraining=0
connectionLimit=0
contextTargetOffset=0,0,0
contextTargetSize=0,0,0
endTraining=2
hasContext=f
inputCount=10
layerCounts=1,30,11
layerFeedCounts=1,29,10
layerContextCount=0,0,0
layerIndex=0,1,31
output=0,0,0,0,0,0,0,0,0,0,0,0,0,0,0,0,0,0,0,0,0,0,0,0,0,0,0,0,0,0,1,0,0,0,0,0,0,0,0,0,0,1
outputCount=1
weightIndex=0,30,349
weights=-0.35011175077369283,0.27354282232823757,-0.5645537245908873,-0.5210773704304611,0.19658906450576855,-0.0174029243365798,-0.4854171636613975,-0.35449302316411585,0.05201214229811575,-0.04695330876898411,0.1270428865346283,0.11545896762456631,-0.06281919332698452,-0.1258845070817156,0.06573876323917141,0.17985946686338355,-0.5324415428192392,0.0939114753955787,-0.31066191307796576,-0.6177905352667867,0.17812789780046318,0.16088277485744218,-0.42323673663114886,-0.62281089648052,-0.3159148942374395,-0.09240716142684546,-0.5578024999456344,0.15765542101764238,-0.4315982616129928,-0.21428097946970384,-0.6576101648372058,-0.8783169465357457,0.12528088003663077,-0.3765125538683528,0.24853233531234312,-0.3547709318573685,-0.32183400050752736,0.30248530997215256,-0.20824186613924234,-0.2516417204540848,0.5293871302108651,-0.3579455308890307,0.10653748145026917,-0.5329168865555576,-4.939872305913194,0.5771250826426357,-0.0938699527997093,0.04612338193455362,-0.9561245562019197,0.0736487132347861,0.4357914553822241,-0.9224269928232751,-0.4453660149481677,0.20626785740374293,-0.6859836353810157,0.8176245286405636,0.0763149892224311,-0.20572170988164448,-0.46514593788469405,0.0878635387593732,-0.25926713299599985,-0.33830831454136756,0.3415838354794132,-0.390792259905231,-0.3828140198777702,-0.4610318647440323,-0.017420351452092177,-0.1805492112264438,-0.6103148492267274,-0.10537523970558012,-0.1739295164138191,-0.33044277278196654,0.5526550117171738,0.20339534176744697,0.7812913269282645,0.3316080893379088,0.6239417752885742,0.9067574269371493,0.278746486312095,-0.17685934628049962,0.840849062329175,0.7057347398068325,0.28105717624870663,-0.09805480938521377,-0.05623493601867298,0.19334530559406904,-0.4150717726495053,-0.9634858630696383,-0.27522318411534735,-0.3888759385669451,0.19101222126812512,1.2146279642304292,0.6461405280632713,-0.9399081781154008,-3.102854959821161,-0.28060687488527947,-0.41563805841373047,-0.08355901615972162,-0.06257553126622532,0.06920616766818466,0.30331261568500756,-0.3890939127815795,-0.3056267185799925,0.2542663871619216,-0.1493322483324353,-0.18588499940519335,0.9447675752720653,-0.43836949627483524,0.580272916900985,-0.26178830004975445,-0.07093021021626722,0.7398083389641809,0.3196726504842975,-0.3159862829987995,0.4202703646380271,0.00632694799161785,-1.4510201321080984,0.010157560909118497,0.9267472998495102,-0.3132642656468988,-0.20534010757807558,-0.14018601957583882,0.3494282037106949,0.5515773789572227,0.613439631248032,1.495191323143834,0.2181139303368406,-0.25277218482126923,-0.14947528857332748,-2.119703009464116,0.004873569595436742,1.264981783215449,0.14525715701181713,-0.24638791361523243,0.06474359182523332,-0.5551921024699601,-0.22056305135219617,-0.2512465707817607,0.0637908224654748,0.6040617868335107,0.4398845820257706,2.0162209569944456,-0.22604187538857504,0.4043395505519387,0.9037078053273365,0.5447457989657508,0.3926666804097427,1.3415921856085689,0.6850202232064333,-1.2473687007254644,0.3029829770889252,0.11211403067441263,-0.133209688758734,0.48774775320315716,-0.3596643906441007,-0.09110170170167838,-0.1072351301176578,0.08528221267598596,-0.4208868048817767,0.2679674601866238,0.13635193431875428,-0.20404456646292513,-527.1146174189905,-0.7046795496331913,-244.3567182987379,-2.8515705460957017,0.9564385788552032,1.767703815153977,-1105.0752984721314,-0.5735848371770678,-440.4823288334996,-0.3100780750468446,10.657036062769187,-0.30675531454711186,-0.03393839419276923,0.036184680852313994,0.13559344552892305,-0.1932036747831638,0.2519062490019742,-0.2101184633122622,-0.1228276098472837,-0.2805035506458995,0.28184634118095947,0.5132153818738288,0.17718507968144265,-0.11821664781279975,-0.24352189483105513,-0.3535572280124403,3.1555936748420996,-0.14700353117743592,0.13726665905867438,-1.334445298938185,-0.3676855644085477,0.827689160326025,-0.7713626994900362,0.1284697900521657,0.17513346820417774,0.17267003147920207,0.2794750799477188,-0.2811083766294044,-0.10787634294000467,0.3398414748853307,-0.14236830815119655,0.20752968018183837,-0.21213679029417215,-0.5669312386529372,-0.7733223161766962,0.09825050533128736,-0.2288858746038014,-0.1498142082758171,0.09736067047539228,-0.6462375197704576,-0.13014200184108593,-1.048453752675076,-0.21812992337541087,0.44111938445165894,0.13576335060179576,0.13663357472437762,0.3878550223290512,0.12010389533722896,0.1650844282157141,-0.8248636488791259,-0.4105278337508327,-0.16453546010252765,0.38542817026422665,0.15304291551090451,-0.28188524807846244,-0.8799234213992727,-0.06936699436090328,-0.23818034931706847,-0.38786782552208415,0.2782611323626609,-0.060073305132850724,0.3043579914674174,-0.14300109687302273,1.0512157109192493,-0.33720134426445914,-0.20953720127803693,0.37015129678296266,-0.5559866943235396,-0.49886340040052807,-1.5767798901555412,-0.1929870926448634,0.09682575527346436,-0.096843501941068,-0.8405171440599942,-0.4852718926455148,-9.795731037520698,-0.6695851835877373,0.42670963289729635,1.0923667784805522,0.34618473143302625,0.833590725308077,2.330049517698945,-0.14160035931896922,-8.613464027831833,4.037849148610944,-0.17002745042549652,0.24750065922569184,-0.02672077539724535,0.37185232055510914,0.44352324753411726,0.09852537255267751,0.3686636244915851,29.75426007166067,1.7652118165310942,-1.115601658372047,0.3933590183870614,-1.2399925626674904,-0.668508333048999,0.5191518552521912,-1.1945673346645995,-0.24859225600273346,-0.35713014381033914,-0.05619200097211376,-0.8840118597051139,-0.3747947724768745,-0.4519476716069337,-0.7467233477327166,-0.6729035341247984,0.3104143854294148,-0.1684121084118306,0.19103618530750202,-0.3964715604911478,-0.5261520049267591,-0.12001210539740603,-0.31315533072607116,-0.3605981576476754,0.0740415657178836,-0.12863368961542268,0.3072013519569237,-0.4284308173304039,-0.05707716870792269,0.23614190507194727,-0.5399429591341856,0.034458086604999244,-0.24058609779660692,-2.4331490254951387,-1.225048236402643,0.2094116912920613,-0.4741659647943844,0.21528665778134645,0.3968849423400447,-0.11066380905382693,0.08814316051855156,-0.1679300158539573,0.003091207461564252,-0.21114388830719227,-0.23929119332385063,1.3595218455298674,0.11301540360597563,-0.4929820443957615,1.0303882015704313,0.35344269752025387,1.1822404260590709,0.5056316658637944,-0.5809516168472574,0.42321330347786634,-0.26433664367091625,-0.34193866547542867,0.1876018722019758,0.026572386749582594,-0.6706519427065054,-0.08519323168837317,-0.10240664057370147,0.23854181291921647,0.12654888048246296,4.206280439490174,3.245755860810711,0.48478286395795406,0.03541483059861039,-0.03276961293411955,0.027954409439756342,0.5954539903429011,7.48196752697069,-0.14070444589328496,-0.05854313714114006,-0.14554653575279958,-0.23018906614943307,-0.030546526389268074,-0.5598523350428558,0.16956957408608644,-0.24801713031939998,0.12467139061591959,-0.5944181358420777,-0.5860828236089124,-0.571683524573386,0.3296566434163461,0.1496427002034597
biasActivation=0,1,1
[BASIC:ACTIVATION]
"ActivationSigmoid"
"ActivationSigmoid"
"ActivationLinear"
