encog,BasicNetwork,java,3.0.0,1,1547766020850
[BASIC]
[BASIC:PARAMS]
[BASIC:NETWORK]
beginTraining=0
connectionLimit=0
contextTargetOffset=0,0,0
contextTargetSize=0,0,0
endTraining=2
hasContext=f
inputCount=10
layerCounts=1,30,11
layerFeedCounts=1,29,10
layerContextCount=0,0,0
layerIndex=0,1,31
output=0,0,0,0,0,0,0,0,0,0,0,0,0,0,0,0,0,0,0,0,0,0,0,0,0,0,0,0,0,0,1,0,0,0,0,0,0,0,0,0,0,1
outputCount=1
weightIndex=0,30,349
weights=0.21004789899838738,0.06704292553536993,0.21959215428051734,0.16442430339211656,-0.5098993690984341,-0.3350453312468933,-0.31116278817147325,-0.28259118866297933,-0.5103978419412626,-0.06878609106123669,0.12383680614870832,-0.1113613107762637,0.10286063323523033,-0.5051788812535926,-0.5402856724076447,-0.4161663717970002,0.17553779004954967,-0.2631968350817903,-0.34016162316493825,-0.3637240421653485,-0.5016706688352086,-0.2871549122524834,-0.3022855392400895,-0.35763342527684466,-0.3831633371465154,0.023487133011816066,0.030400336889460484,-0.32271851450482986,0.0908353696488806,-0.07291611782800954,0.40950980088546274,-0.17529176215843445,0.0680871097566984,-0.047635971186619476,-0.42039680184255745,-0.7317108308849261,0.3183276618310863,0.3598713585192711,-0.17702620384135417,0.6679750105275397,0.20345779927962326,0.5191579667446428,-0.21527728249157255,0.15973198350205825,0.4865373371614279,0.5630640133849443,-0.6113042883699384,-0.30160115200468013,0.1993436391604686,-0.2826870841587893,-0.011578437698706855,-0.21504303922934137,0.8221578990592097,0.24774183918312298,0.03206650978618182,-0.24995431941825746,-0.07337235480728431,-0.5626957474543267,0.00836917049249927,0.34819947720210165,0.36723489914995877,0.024225120351992355,0.16523350378124402,0.726438347230335,0.40101520731718976,0.11203173639437611,-0.41054317209569136,0.33550645277406027,0.0833313054626582,0.20944824605317344,0.14079712771189126,0.8490340236510862,-0.3099741439662205,-0.41663703891015447,-0.23296751993647793,-0.3564146155428405,-0.30819991513816125,-0.02384982283801631,-0.11717710840145108,-0.32662157906746764,-0.44055602432741514,-0.35879045449032093,-0.7917668491513697,-0.3235882635491278,0.39140931389584654,-0.30415489436245774,-0.5413270994839133,-1.1277020756488896,-0.39778995930829136,0.26938883564105365,-1.6044032027666504,-1.49672577462522,0.08212163096959597,-0.40832906151158244,-0.36197477395927063,0.1813740747161825,-0.5899835862509722,-0.4157394434271892,-1.567712601370826,-0.3600820651421649,0.25156225280964967,0.06400291986810382,-1.1615577474004373,-0.555508919690181,0.07918294883947792,-0.24322655177404034,-0.013475200307815762,-0.20640979833121545,0.03246530495909966,0.1680618832678679,-0.5295514580724843,-0.15538637210353404,0.4201722046098628,-0.1672098386885969,0.06588193328297359,-0.48861982499083245,0.2756843349416954,0.24116462554361945,-0.4497698185013276,0.19983560634699876,0.09776570897060811,-0.38957485460693486,0.19322414041291572,-0.10964622796249461,-0.759900360731364,-0.6873136961183588,-0.3698283169610222,-0.17384267593668035,-0.16867527897482995,0.226635997983231,0.07733700459345516,0.3681590522837691,0.020219969383001073,-0.025568476860249847,0.17805291635308754,0.0700731509119628,-0.34081644868134997,0.23671330116331682,-0.3111678555887115,0.3075303786551551,0.07677543115318575,0.5520740739135386,0.08353278417285469,0.36085162361356554,0.37728875399594514,0.7287222580114894,0.24102606509054877,-0.26237316818893275,-0.23876594320792102,-0.0024534665466035476,0.12306479133903127,0.10948613834032889,-0.3778018824093887,-0.29353157473010205,-0.38502826891310743,0.43739104014340363,-0.342611720523517,-0.12881585193340994,0.14017696179429343,-0.37860443537949917,0.5186283143259942,0.010923909120560767,0.00859264578208949,-0.07358847943217953,0.49723694369249166,0.2913037474555025,-0.8765177653700362,0.18226507684744955,0.4788578012281711,0.564003180396213,0.364487074886296,-0.4193997991954801,-0.7096425449259599,-0.8009128470385029,-0.1783862158163043,-0.8764129826221182,0.2947900353952647,0.08973937256366453,0.09717906890186573,-0.07594014275791654,-0.6143030568758276,-0.7722740255055546,0.4076518283322016,-0.10137043270866287,-0.5306527836861327,-0.1005948718463951,0.11006631058246978,-0.46001096617460063,0.525716023518074,0.20410817587039048,-0.40192083271041845,-0.5072655624615412,0.26541393838471783,-0.009135129792507319,0.4071518713897123,-0.12743985201865027,-0.06569176761847466,-2.0970442119552173,0.26417082811024906,0.17627878171397526,-0.06379372625241891,-0.17032405155284447,0.31891510678594615,-0.45292234766025113,-0.3131797957431234,0.3502183871057758,0.8602257973111458,0.3124902194093456,-0.08882369388293898,-0.26046449108373326,0.39415387054418577,0.8598032691474591,0.7678125087666514,0.40460662662328767,0.3687867991458464,-0.32098860944774205,0.19226652858316856,-0.2861406194009572,0.13560339085517126,0.19911416930198828,-0.1738038946192833,-0.38550201483952606,-0.009588064086829662,-0.34854230029696964,0.5759283144648105,-0.4395627004368811,0.011161218240857779,0.07871876496221804,-0.6568619025812695,-0.25121136152689694,-0.01090090882935119,-0.507092228096298,-0.05569399813804048,-0.05325245568562428,-1.0514604847685896,-0.1147622253870588,0.34474174984204076,-0.2543224437236064,-0.06770749245355097,-0.6786178500879515,-0.6488686607831882,-0.17953303916785326,0.36992443585550605,-0.5008093293592742,-0.08528458583178565,-1.205911106895824,0.10696694687707746,-0.4147898354444252,0.11265193864298412,0.349516033077248,-0.8821085476146667,-0.5220130150882125,-0.014543730406347292,-0.4929427698972324,-0.35953515880684234,0.22800785342262153,-1.03980323955025,-0.3539401059901734,-0.6427765635659553,0.15342817374969003,-0.0830024726006767,-0.9653593949989562,-0.23845933830499055,0.5014682433709752,-0.18127233077380547,-0.31402637816818185,0.31709009857759257,-0.12232573492110496,0.3059364020703529,0.07862246571192437,-0.20201911353462768,0.2213604616295126,-0.03335280777426412,0.1807687661092737,-0.020347590810281042,0.2576265758489387,-0.3156980842899228,-0.3661092633872317,-0.21876169978447943,-0.04165296555524343,-0.6463765502762052,0.2902312283220241,0.17451913286343568,-0.9224265769181829,0.17368851788177092,-0.6625438430093845,0.3829010509108032,-0.369201592932788,-1.5532405265930105,-0.24893350114759766,-0.011164544164802686,-0.7846612737332227,0.18372051010664664,-0.13842731786501677,-0.21278621795616742,-0.5142375147156908,-2.138784762837371,-0.5294393295562329,0.15335536534780686,0.13385961515962463,-0.4590742741380823,-0.12313654091735642,-0.48459120439368175,-0.1865690970235539,-0.03335221878652338,-0.24371618688367422,-0.4949528566102923,-0.07415543523229196,-0.5082021791659816,0.44849184021873884,-0.2158269485921559,-0.253122016431788,1.132997138392669,0.5083602066442302,0.8847314221379821,-1.3683186164818049,-0.1261110523422392,-1.7652790653747024,-0.08391451142577033,-0.2210247015794694,0.3010911943368042,-0.39166808204296244,0.536414631194327,0.8125542856150645,0.2631035337925067,-0.8179874653667816,-2.0619759683147696,-0.57816678399461,-1.1393909527033033,-1.0145663264745,-1.4502888059364,-1.165445191899596,-0.5032085115901194,-0.9075845758445253,2.8829770745541965,-0.34276180134479584,-0.5029618429090124,-1.465285651288709,0.054389412237810845,-0.05816793007957057,-0.23509778882841684,-0.2136390688658799,-0.0204860435394575,-0.6793200697987347,0.4889939069196818,0.1738280277588633,0.4624553547582638,0.03761692107005531,-0.06898446071445968
biasActivation=0,1,1
[BASIC:ACTIVATION]
"ActivationSigmoid"
"ActivationSigmoid"
"ActivationLinear"
