encog,BasicNetwork,java,3.0.0,1,1547765829357
[BASIC]
[BASIC:PARAMS]
[BASIC:NETWORK]
beginTraining=0
connectionLimit=0
contextTargetOffset=0,0,0
contextTargetSize=0,0,0
endTraining=2
hasContext=f
inputCount=10
layerCounts=1,11,11
layerFeedCounts=1,10,10
layerContextCount=0,0,0
layerIndex=0,1,12
output=0,0,0,0,0,0,0,0,0,0,0,1,0,0,0,0,0,0,0,0,0,0,1
outputCount=1
weightIndex=0,11,121
weights=0.46027597438159656,-0.2367312576801668,-1.0585355414954953,-0.40267650500474844,-0.7196723620191766,-0.013465074840845883,-0.31600188442827726,-0.0067412751776647975,-0.27857660605649803,-0.5728433709826378,-0.5189155474867029,18.777267358641623,19.16832302048209,9.433621471004228,1.1190809319148918,3.168240893350966,0.3971357832864569,-0.9711753139484355,0.24507383968146235,22.859038963324643,0.5952699378144136,-1.541786219959676,-54.63053755666046,-12.118832211150117,-27.047019335379318,-45.12981996076454,-5.266804466227397,0.005651133963760033,-340.05035143748626,-8.453543892814555,-66.02660986129558,-0.8414934004468795,0.27582411771466553,-3.9531464819821767,-3.1945978309791494,-3.4233585663320096,-1.9363926557635787,0.028152252971171823,-0.3575418826944495,-67.04405505349747,-0.23807012696003454,0.11441680646010471,-0.8165125793322668,-0.14533669499006893,-55.17817453243865,-11.947070175854975,-26.816135215223504,-15.411911246909245,-15.69402513305918,0.07246593584769716,-340.1345157704089,-68.09840388107172,-33.04543852996758,0.2685626310413961,0.04178489650788843,-157.51179072440223,-11.393847399481194,-27.57168762107885,-5.7259266625336975,-5.197938633723256,-2.1256480049684856,-340.32299547647176,-0.24754019258701243,-66.0861210425197,-1.2414105346988,0.4060850269737543,-25.049288177360253,-6.033497981227725,-15.883591293815028,-4.932468278001939,-6.453539011091309,-0.3778796802475531,-169.79988922312228,-0.7101842927990101,-238.32232977612486,-0.313295607923378,0.17615681955612647,-54.827679217028845,-11.644248761327715,-9.80335170140191,-5.393525359542891,-0.7441918487589422,0.2853555375343504,-340.6143390685379,-0.08560557500488654,-479.42189781429687,-0.4770708239763728,-0.1591938648894562,34.06998933037863,9.208320822860289,8.70769411429994,0.2017077822338582,0.6380967412364481,-0.27710154592281966,288.38954913973737,0.364014817194938,355.05363926360866,0.4274448907001437,-0.5005633959427935,-55.09990309758714,-12.198811115166574,-9.68595925002142,-1.949634053329448,-1.6986941506350894,-0.4893269853738668,-340.34316627159194,-1.408248336616065,-479.49336921919564,-0.10604513946507799,-0.14062201790197648,-18.499238751189928,-4.0837645785991965,-26.11379550216879,-16.173424827655055,-1.600134383794496,-1.5866443857468302,-0.18783785981136672,-0.31148299784658356,-189.00357500141402,-1.2940745758725691,0.21960687478361116
biasActivation=0,1,1
[BASIC:ACTIVATION]
"ActivationSigmoid"
"ActivationSigmoid"
"ActivationLinear"
