encog,BasicNetwork,java,3.0.0,1,1547765654199
[BASIC]
[BASIC:PARAMS]
[BASIC:NETWORK]
beginTraining=0
connectionLimit=0
contextTargetOffset=0,0,0
contextTargetSize=0,0,0
endTraining=2
hasContext=f
inputCount=10
layerCounts=1,30,11
layerFeedCounts=1,29,10
layerContextCount=0,0,0
layerIndex=0,1,31
output=0,0,0,0,0,0,0,0,0,0,0,0,0,0,0,0,0,0,0,0,0,0,0,0,0,0,0,0,0,0,1,0,0,0,0,0,0,0,0,0,0,1
outputCount=1
weightIndex=0,30,349
weights=-0.015287526471564904,-0.277324126432251,0.10513662837616251,-0.3179393095755543,-0.3745294105580714,-0.22156495810512924,-0.4450422217588919,0.15806989748305794,-0.08082419199929619,-0.3392198307110329,-0.22397629085731705,-0.27234171500690174,-0.20535527614662996,0.13421034275781588,-0.0736322924078322,0.1443488004229024,-0.37475150132060897,0.14323569580895806,0.07363741576623098,-0.38307074000645047,-0.38976451285404967,-0.026840064950712266,0.25436483313268493,-0.39575198518075483,-0.24725446242764074,-0.17080971051871727,0.11557360627647481,-0.3612697866133774,-0.33978626612531126,-0.29038951760927845,-0.1910142691633712,0.26184148706817956,-0.7294715424858749,0.44141467629246145,2.4376178693582236,0.49748002529024493,-1.3750925478773843,0.5491997047930375,-1.3689176202540765,-0.08984199788856331,0.4537672394633784,0.04423663053488906,0.24222762148181226,-1.8366833856643994,0.02575770765351207,0.6400685547938632,0.22980560276641737,-4.398487901844941,-0.11087719550086211,-2.811523048040454,-0.3018554223760714,-0.3569428870409944,0.1479761156833449,0.13816225860783615,0.4842006420370002,-0.24749661565115827,-0.4509645516042649,0.868898444414773,0.47165811155218096,0.3293497848735019,0.5718349822312321,0.10419969270081544,-0.5365918237535504,-0.48972974104414546,0.7255534448700689,-2.529027154130776,0.23976270745327136,2.180658266619786,-0.12583556606115195,-4.412921956522638,0.05086399662672483,-2.7377789359449443,-0.2023170915243371,0.29321558661510405,0.13462384265082797,0.516864434353487,-1.6517616056255684,0.05772566954077943,0.02416169035821442,-0.39210663065572493,-4.822988113809906,-0.18370269417500645,-3.134320730230228,-0.12275810355309863,-0.5306898800666465,-0.1119245535930736,0.8134671012740405,-1.8758818132009978,0.13173223934310105,0.207585879918111,-0.14055054697075947,-4.531597526142795,-0.39438011814531226,-2.849732940458111,0.08694536790372695,-0.41415633025341647,0.17131315537521047,0.4096581055667787,-2.4956608019720457,-0.2696168246777203,-0.1568422182883042,0.018426806587670735,-5.079152274257925,-0.24450904331618759,-2.584815328257578,0.050455299952181426,-0.45991046550307335,0.28217542827972747,-0.005910575625209719,0.5839271835759754,-0.24357172105641617,-0.6741703923317517,-0.23623063921319937,1.9288060007726202,0.6075466555313125,0.5871822994896755,0.40453167006831836,-0.5708048053891821,-0.0075475615995117245,0.47848020778659345,-0.505202010031711,0.4139813932394476,1.259105428032848,0.14516474750530056,-1.3426559174587858,-0.34505617444959324,-1.3929465619474746,0.4388465075847754,0.21167837109387944,0.05204368048317638,-0.021573183973786707,-2.087503730424539,-0.35488772272372715,0.43333917408331407,0.15069355281575217,-5.210535804355521,0.38177063647117365,-2.6076587830814266,-0.017687876700990708,-0.2008127381251506,-0.11971718343785626,0.5335309217545358,-1.7926547891393931,-0.12184009489746789,0.3866007220014119,-0.26395570487280196,-5.038682854362527,-0.20902624276983778,-3.1975880099012226,0.10491679306923514,0.44449592660672904,-0.025499518429396306,0.3078902872967231,-2.1628829788304715,0.10497147212934127,-0.25650011509317977,-0.44090280820425287,-4.721841987055427,-0.021545503476456895,-2.494689375758446,-0.1536226847448337,-0.38066005845544537,0.28799274423042365,-0.11011301947047294,-1.560838392304981,0.10609977007304541,2.395250526531876,0.1532384117770013,-4.789883511463952,0.15749327696928286,-2.415843278175605,-0.12182289794610451,0.09501628422996464,-0.10427994379658279,-0.06804973297422742,1.1336327225084317,0.5266045003711363,0.1347694866211698,0.020493385242788004,2.108583529609577,0.27639341000551876,0.938459681118961,0.23434789935165115,-0.255247741383629,0.350077770706676,0.664623234544619,-0.7237094724455093,0.6254966422910433,2.6790751438843707,-0.1711414720129692,-1.2566353854064674,0.4307070180989094,-1.045828882701242,0.28607687417141403,-0.18871044556486347,-0.014753974584929802,-0.10328991391412284,1.0507343192871605,0.40967259352876717,-0.4392779234973903,-0.3119224635511683,1.216931481878293,0.10509614658280211,0.6307480196738703,0.1916901938601986,-0.02526925543602812,-0.07338434336939442,0.11050957058055419,-2.0473755078966964,0.301351610063974,-0.43756833827997915,0.11203824456675618,-5.287863315997887,0.06305411081319448,-3.281482676853408,0.1544196202492209,0.1464682637067482,0.7207314350142392,-0.011855433475308902,0.28973950564085915,-0.3838644496550055,-0.003436184456280439,-0.26000218771370526,1.4753094988347573,0.2421399403386684,1.156485794695336,-0.2769747210991987,0.0802546327147769,0.7388470632864962,-0.009300671756734677,-0.10891293709690754,0.4612656789521127,0.09471017207490634,0.28224072596160604,0.5430734784788025,0.023027055211293185,-0.41270553724260145,-0.3713102411419895,-1.039138563909268,0.1590275388629397,0.7221704791120849,-2.2831077000975415,-0.16577445897078436,0.9993714695939283,-0.20980402880784968,-4.484804100749491,-0.15729705700648244,-3.173179724364818,-0.28561101241188497,0.4260802422500055,0.19287567810269013,0.03496698825806249,-1.8727461783399253,0.6494500630174714,0.22507367575036127,0.030047751253575332,-4.779845500304248,-0.4333610008392387,-3.013921724464433,-0.21326025300121804,0.01093042750346086,0.0875024031653494,0.7585861640812521,-1.005847471794465,-0.14758307859484876,3.103392701902037,0.45413366795289833,-1.2777188638519807,-0.35240114313907367,-0.9329710606921698,0.3812108053985974,-0.015129445521039116,-0.051465138864736346,-0.23866719478460283,2.334008361321011,0.3193583547988834,-0.2333643764442349,-0.15616073561669383,5.191209377996332,0.37817947003282426,3.380075898108316,0.07814993969125322,0.3594610754628016,-0.026536298695449462,-0.005233947783050698,-2.433801190603484,-0.1750418668112439,1.1222872000281945,0.32496271535883703,-4.774749598444776,0.46101260846132947,-2.989556527112365,0.17035736133734466,-0.31539119288299144,0.03441130478530505,0.3396294721222261,-1.8796847809810955,-0.20176840247302122,0.8549480319498137,-0.1298561633419706,-4.7089428132369715,-0.15392430470532859,-2.9471610829298345,0.20181592127666745,-0.46731830740448144,-0.37956558641486843,0.5171135939916596,-1.9084562167163868,-0.2728483298128715,0.2228025443727027,-0.36497041701604493,-5.14804368971779,0.07858945015148602,-2.857405625269484,-0.39395433283174214,0.4055129173073234,0.12241602691300311,-0.5918236024958907,0.010271914899305012,0.04554520377209642,-0.27366258926520876,0.7138364723367363,0.9879125654482701,0.12912168596030177,0.3695306888464681,-0.8483461828797821,0.013462906831222754,0.33871372392544197,0.282353062172151,-1.9311190114312904,0.0861121768402884,0.5019609996434604,0.1265467353578502,-4.479617421313787,-0.2937699838510877,-2.5405968605365095,-0.38307047870276023,0.43241717148456127,-0.12655948826553676,-0.10430333507447345,-2.306266675704391,0.3781124519585392,0.5611823984383003,0.3044814670683491,-4.983356908405286,0.34666688776857807,-2.5814425825053307,-0.3223248689196702,-0.15068709696734758
biasActivation=0,1,1
[BASIC:ACTIVATION]
"ActivationSigmoid"
"ActivationSigmoid"
"ActivationLinear"
