encog,BasicNetwork,java,3.0.0,1,1547765749331
[BASIC]
[BASIC:PARAMS]
[BASIC:NETWORK]
beginTraining=0
connectionLimit=0
contextTargetOffset=0,0,0
contextTargetSize=0,0,0
endTraining=2
hasContext=f
inputCount=10
layerCounts=1,25,11
layerFeedCounts=1,24,10
layerContextCount=0,0,0
layerIndex=0,1,26
output=0,0,0,0,0,0,0,0,0,0,0,0,0,0,0,0,0,0,0,0,0,0,0,0,0,1,0,0,0,0,0,0,0,0,0,0,1
outputCount=1
weightIndex=0,25,289
weights=-0.40976760825777664,-0.16245178143630642,0.12085181339204715,-0.49329689699517054,-0.37800729825497326,-0.4495123289891738,0.17615751593977874,-0.4904324809691839,-0.5849219652596308,0.0997894033315162,-0.3348977612148887,0.12538894769908393,0.05246035538607908,-0.2610039678875068,0.12505505550864013,-0.166920531290776,-0.3846005562891086,-0.46970203868137195,-0.30630575491196843,0.1802371392579598,-0.18616429393040218,-0.15170352926177189,-0.5272810461231741,-0.07368350215985922,-0.18837577854338344,-0.46527826058994554,-0.15405481570879911,-0.7251445179539762,-0.5200600032310307,-0.06762254932152077,-0.3808036951346007,-0.9142815055473316,0.24685456764929192,-1.794652917471275,0.21938671743130767,0.1680349507243541,-0.11658919050427828,0.16659304986694518,-0.4163244616402939,-0.21353957464078827,0.5456831802315735,-0.11465000124854728,-0.5789716120147433,0.27829641972115654,-0.0788345328199752,-0.31061854849368037,0.31246838676094235,0.854614434304945,0.7450139627875446,0.5319176178380335,0.33407717856348995,0.4493068659523464,0.23957452927181397,0.735097977833942,-0.2825635291624858,1.8395811777014068,-0.1505513016453781,0.20136688896444194,-0.9536712217066933,-0.46669098898652467,-0.5029484570434779,0.2571436750622933,-0.23237141092027558,-0.43110708643935214,-0.775984083972769,0.2241453264387888,-0.480621777809107,-0.157299016481543,0.3229275911453498,-0.5482819243261953,-0.3216286122957423,0.09661744390634461,0.01854989648448805,-0.44899758110258786,-0.33947978383923083,-0.15644735231787785,-0.09775766503617417,-0.9880992152740601,0.4980699453318925,0.19430028877811775,-0.4365639412669638,-0.27999306526103457,0.09216343324245303,0.21618973566794122,0.20972298655192922,0.017095873216481018,-0.7021976066235002,-0.46684214896594295,-0.5669479750053845,-0.5636981413682288,-0.19076863788413082,0.8528637511835668,0.36782791176115537,6.1669962748677385,0.26355112382862184,0.23966057790211648,0.5191621347513191,0.47618285195191795,-0.05877900357439415,1.2224532910134318,2.7820805655538425,0.15523939608588166,-0.3035269614342938,-0.6665137965884856,-0.528132864654789,0.38176015091503035,-0.27601019326024656,-0.22647769850931687,-0.6502177878807003,-0.5367425965269002,-0.2338317860307412,0.1996172036845232,0.18285362155584836,-1.3293941526953816,-0.05050358459387916,-0.15693317831224052,-0.5233420394139416,-0.17118488696939985,-0.2115045178821343,-0.36980281933178893,0.3382401289383323,0.6100877873120317,-0.11818324551787729,-0.561911636008339,0.5091461272294133,-0.2613842385380648,-0.05834332271863837,0.25752128290005427,0.15293520478319783,-0.4471493092936322,-0.03830924575861205,1.2684892988768595,0.39324892792501764,0.21748455644738487,-0.4972506996931064,-0.27527990195586344,0.059047047512449,-0.41996871773975236,-0.5910189138794484,0.7480333529251622,0.32486870068210566,-0.6737605278527263,-0.6494618731343008,-0.06611001705616751,-0.3895282730564448,0.14641160423291605,0.06117766748060971,-0.06785288931988466,0.1743841360118725,0.21625045057299044,0.4756572710052009,-0.08694085432805287,1.0453256878051473,-0.06962878509009185,1.1143955348380934,-0.011478967827718158,-0.19599655987784698,0.44771981930675836,-1.2237495650492474,0.03517080675093886,-0.039950121724981566,-1.11600329038134,-0.8522017629188929,0.4989104253903983,1.3954918549638164,0.15709700134312318,-3.053632175580728,-1.1636652480642278,-0.45068547364254435,-0.16136971365836728,-0.023525344770694623,-0.4720815279420273,0.24837267811887245,-0.19496019542857324,-0.3874941651329028,-0.12529894645448933,-0.39586998427469006,0.25828090902695267,0.5562405965615267,0.5107027577705616,0.14542877219786474,0.34528902191276395,-0.2761215600938567,0.1364964981187069,-0.5009913903919394,0.018442379936663846,1.325404626510718,0.23126263086305052,0.29853777714001484,-0.11765720295021881,0.04288895507393439,-0.39846625755283893,-0.4288814360598583,0.11712063873032785,-0.2635511076768403,-0.41382357343844123,-0.36783150140170867,-0.27963476466040266,-0.4232426167113074,0.39288570162407377,0.22684869570457117,-0.4673882095636965,0.024869000058371716,0.029672361157820477,-0.027733450019117433,-0.18173376339159206,0.2746522746762866,-1.0670453525284054,-0.40085897890375144,-0.21567469083753535,0.1037177608761808,0.5549886808141414,-0.7304515290897211,-0.07034318390681327,-0.5981533284033903,-0.25265148618344924,0.15832038471801518,-0.19873625479624007,-1.0168137467319316,-0.040684949635796414,0.24945802863786165,0.04349400947475226,0.5298643344518478,-0.6306987295371306,-0.20722457098586927,-0.7516797209827502,-0.26044519069753114,-0.24015443670022432,0.26231580250155,-0.45362879585451954,-0.27299421391612105,-2.08564452033414,-0.131502768852571,0.2827644870762261,1.1059073360130345,0.5679745579056776,-0.13862729553892347,0.0275890526277371,0.17182765483689094,0.3984550000728405,1.9992624401498107,0.38383237043574836,-0.1589816147256604,-0.07387221779019988,-0.0807012985308236,-0.700341357001455,0.010888716790940842,0.2087598508697365,-0.7989521304479036,-0.2105420723852605,0.3865139445094756,0.4202082141813822,0.054631304963459484,-0.43742161361660853,-0.053210063391260526,-0.004856865134471358,-0.5208125600810865,-0.12377930285797428,-0.28871322436931346,0.3143724497899961,-0.17396397284985837,0.01087407806922272,-0.8297620977604032,-0.3480668548269058,0.22850871673734832,-0.22277776965914986,0.36594024991158014,-0.7547316849103705,-0.1140018235095105,-0.6275101468033208,-0.4062448151861478,0.08444610986847532,-0.12964586376947998,-0.06883051192428442,0.13790476655615094,-2.120963903956661,0.03291972413000174,0.42140573754036,0.15383794833609454,0.24607982181276866,-0.1299342382470544,0.36832676707637735,-0.32182059347871705,0.3752407384342838,-0.22255474668973138,-0.37370963647260025,-0.5922375835754077,-0.20912597307589298,0.4071639336235476
biasActivation=0,1,1
[BASIC:ACTIVATION]
"ActivationSigmoid"
"ActivationSigmoid"
"ActivationLinear"
