encog,BasicNetwork,java,3.0.0,1,1547765400899
[BASIC]
[BASIC:PARAMS]
[BASIC:NETWORK]
beginTraining=0
connectionLimit=0
contextTargetOffset=0,0,0
contextTargetSize=0,0,0
endTraining=2
hasContext=f
inputCount=10
layerCounts=1,20,11
layerFeedCounts=1,19,10
layerContextCount=0,0,0
layerIndex=0,1,21
output=0,0,0,0,0,0,0,0,0,0,0,0,0,0,0,0,0,0,0,0,1,0,0,0,0,0,0,0,0,0,0,1
outputCount=1
weightIndex=0,20,229
weights=-0.3280674260899263,-0.9303809655327678,0.2728819260024198,-0.35165205203275984,0.6548149216111007,0.4452072277470413,0.17380966164306,-0.5922845982510497,-0.24797038097874052,0.1867412116616787,0.3821581233359247,-0.3140755629573773,0.5627350357705028,0.22338635399228088,0.34969610297722625,-0.4228936495390006,-0.26643161737797205,0.31686016760139446,-0.2513995772997784,-0.2736897890468982,-0.48111416745213714,0.08853597623806818,-0.08671328794208538,0.10281140214997904,0.36378848235015265,0.1963196518916377,-0.13665386642318111,0.36065666660837314,0.22631201648948054,-0.16951579657739957,0.9234455109652866,0.016508324574519343,-0.051828687678538536,-0.27840186347818763,-0.28690845480555127,0.14525746638986028,0.0562829772945757,-0.35541511209021914,0.18223440016804793,0.09532598250716454,0.06479023685028291,0.5557583106335391,0.37210755262790646,0.4527146432325207,-0.0510824640380013,-0.16170251962687693,0.4366671418950235,0.07934233514985337,-0.8147173405961546,-0.05350273084710882,-0.16004906660056384,0.385840328981492,-0.4902163882388329,-0.08865792665725482,-0.2585347508507899,0.20389928561706272,0.6488585372132921,0.3557853187924869,-0.07982434279435947,-0.10016349972004665,0.19225416546428253,-0.06891224528557004,0.026631970989126893,1.0775630333838029,-0.012392998875046649,-0.004005156323879806,0.22422837383684247,-0.03994128369124447,-0.07405108761046561,-0.03908783348718389,0.5065733849370954,0.1086417742867576,0.27629517231448814,-0.18388243167256285,-0.6398127373936388,0.18451162116473804,-0.23068567149034155,0.3258607361691736,-0.10030257335021958,0.040646729772754776,-0.19980015385229127,-0.10304359623976997,0.6420304472919108,-0.285924049895184,-0.08736057476177042,-0.24138935889100357,-0.31220878728959,0.38730651398906224,-0.16022726579947927,0.134850079944896,0.8169002298462317,0.5598276180814847,-0.3111585411219274,0.4464110914172246,0.30266616923813455,1.0879483902127127,-0.9357857241114755,0.5148851782976319,0.4580088501609361,-0.7796160959967005,0.6468874673501447,-0.4482377795484402,-0.145738204909696,0.14622769033109445,-0.20571626660804557,-0.21960621048558684,-0.11893230075142372,2.3401362770035137,0.1885249233890253,0.1629756799840195,-0.08774263032685209,-2.994954947646529,-1.2308574380297848,-0.48342671720358354,0.2838612165891021,0.8689642706827353,-0.24119110546110578,-1.5535527771976336,0.8045135703137061,-0.11026971655055691,1.2676648458683613,-0.22976899082275076,-2.872969448851696,2.544785989939064,-0.289517745500282,-0.41104293953633475,1.4625379512678833,-1.6841444877841005,0.042354043164246895,-2.2703247355834244,-0.0865650982144169,0.5854451948728446,-0.35540725399583895,0.5954272370793954,-0.4111071558494793,-0.0579732585223979,0.39092790651867304,0.16509659668849863,1.585130808275408,0.1276853369998937,-0.9069355974724874,0.3858449763490225,-0.7055332281359655,-0.19647917117710917,0.5103257861516833,-0.3190975856100825,-4.0663303775288275,4.494344177069157,-0.5662914515153216,-0.7797059946696193,-0.21915892178353863,0.7295188617068307,0.45242309874521575,0.2936532749823766,-0.10160645319693389,0.08751776228909176,0.04265476658122502,0.04679626154319806,0.46732117047193084,-0.11311604271685502,0.1289366127306015,-0.2322648682098277,-0.31063644642364596,-0.3243058532101316,-0.965997112260516,-0.45565583233720375,0.393764357196855,1.4534729054718514,-0.40187394731724363,-0.21014971247864955,1.2486826192083307,0.38573318626894565,0.3335594246808978,-1.8758572112870682,0.7616360987153006,0.14228724784346056,-0.2527461384994619,0.03440585424711519,-0.2358591588611178,-0.2988124569865013,0.8466117978852613,0.6333815776343332,-0.1740866549210364,0.09517720696665011,0.13455130478454028,-0.42670994118449607,-0.019971635595694738,-3.0101287278898106,0.8392036087160831,-0.7817673749166335,-0.06226516076049057,-0.4380368447118163,0.03404913508001501,-1.465689315670807,-0.04815116735453633,0.13370319526391009,-1.2580117223770773,0.2214189941973273,0.45348795676707604,0.45824844868007775,-0.6680794968283587,-0.6639609873703394,0.43200457301950984,-0.12443111466536788,-0.41603907532591367,0.48755977553017454,-0.2885262936247742,0.2176152192955037,0.007286637221562803,0.09076157317479626,-0.12260066509653185,-0.2514674661491213,-0.2646205913864681,-0.4165754677795226,0.12954699121883392,0.04076756533665926,0.24375196728667267,-0.9595601323198321,-0.376967094494341,-0.19329890602961153,0.7082943418143941,-0.31633813678803013,-0.021339252610809677,0.3203894029044016,-0.0680024863249598,0.5295596039595403,-0.07909082670509367,0.3005224231529337,0.27806472298554286
biasActivation=0,1,1
[BASIC:ACTIVATION]
"ActivationSigmoid"
"ActivationTANH"
"ActivationLinear"
