encog,BasicNetwork,java,3.0.0,1,1547766086623
[BASIC]
[BASIC:PARAMS]
[BASIC:NETWORK]
beginTraining=0
connectionLimit=0
contextTargetOffset=0,0,0
contextTargetSize=0,0,0
endTraining=2
hasContext=f
inputCount=10
layerCounts=1,30,11
layerFeedCounts=1,29,10
layerContextCount=0,0,0
layerIndex=0,1,31
output=0,0,0,0,0,0,0,0,0,0,0,0,0,0,0,0,0,0,0,0,0,0,0,0,0,0,0,0,0,0,1,0,0,0,0,0,0,0,0,0,0,1
outputCount=1
weightIndex=0,30,349
weights=-0.18792155504588595,-0.3302465964109646,0.6548212493753757,0.07430572215655194,-0.15226630654261386,-0.3381786392209695,-0.07720728982122826,0.3368855416935508,-0.15909242021949538,-0.4960886906749282,-0.5069162753814849,-0.23542318216575825,-0.6535231176069926,-0.05518639781956973,-0.44353469754060243,-0.2673678494432612,0.595391098413782,-0.4976987356420269,0.0664323717218009,-0.08545931415879003,-0.3223994900216008,0.46068202194913555,0.2038758080646668,-0.047486871085056975,-0.1227119945206009,-0.16620928664193474,0.06415722408862073,-0.25232599652501125,-0.02272591677198352,-0.1897199461222179,-0.40079353269188867,0.3578782519320954,-0.020946456093648015,0.1614447154849763,-0.02002931613030246,-0.8839600638751683,0.0355735482957327,0.35608677680539164,-0.45516912028225415,0.3830807839666135,0.3115680079994448,-0.4133563765985602,-0.7209193654992593,0.143644198765556,-0.009851944222068665,0.25025353795753136,0.0456465272511478,0.3075543467651912,0.1606408689315276,0.4648558410324365,0.30915738586391633,0.2563371346156115,0.21108666267174048,-0.132565031262945,0.3908440289105911,0.08928483142607369,-0.024320869406065787,0.20951882516905676,-0.31729305038128025,-0.2299994795744137,-0.1505903447904706,0.052192480498472214,-0.7897246279792958,0.5423664047475915,0.27259991082687574,-0.22516218650281414,0.14475139554325098,0.094545702993141,0.7388833794715768,-0.03937667102908116,-0.1818365549112883,1.124957760174449,-0.25227454544600564,-0.21608924223982418,-0.27500359520364603,0.2506243656738935,-0.21698971427262986,-0.09157074306256556,-0.02418211020092676,0.34331602975688225,0.0422914849393377,-0.33504739858139443,-1.7103166928917386,0.6599630189960992,0.14313287634258762,-0.30055733509180277,0.04403370122263488,0.04693649871965096,-0.1444684862713999,0.01867092210923007,0.06539291142888162,-0.3718890905933627,-0.49056024700842826,0.4359488514628083,-0.06152675659621325,0.43715909181557205,-0.47561970716947394,0.1424121363020719,-0.25510389652559173,-0.2985201726785585,-0.22178584238586915,-3.1468116638518757,0.21630232455381657,0.6139634393527181,0.1654105142343555,0.40946454832295204,0.036986766294151555,0.043615810537725376,-0.06071278372474173,-0.24585859437803387,0.3442265159184112,-0.023153460480947366,-0.0303786673328771,0.24855479589245577,0.1926611526345882,-0.07292480250316112,0.11301245425384776,-0.9517625226157618,-0.16504290287985543,-0.15471929786559677,-0.02540247907629852,0.25274407616874967,0.6721660785552702,-0.20450415044929976,-0.05086821086418301,-0.3049650152681434,-0.29334550087084593,-0.6827077262863376,0.13197460653204324,0.35402293671872465,-0.4767373158205915,-0.030864089219668926,-0.14153315345996917,-0.2690607067109808,-0.3037513979995406,0.24710730170611883,-0.3820341839409108,0.0686176259563731,-0.2651109883535306,0.5558536776883223,-0.2374254904093087,0.35406853126920645,-0.03851978476265449,0.25684353442963187,-0.45208194384266875,0.18362133521907492,-0.16697529434308175,-0.0027068687178453815,-0.07674889565521825,-0.15226940446096038,0.6045452300725885,0.2253935560963837,0.12326920723399362,0.047439870743158336,-0.4536146502568696,-0.3527877041524229,0.20640413178293965,-0.4104931565516546,-0.28171764444523867,0.2988827197561793,-0.2902634932077592,0.4640767169880264,0.05249968309959785,-0.18108316359455326,-0.361344269685368,-0.09898683507515747,0.00818610493183079,-0.048564909022131376,-0.4129827917133701,-0.08884876560860129,-0.46894266484159375,0.1253528031860594,0.5247468527758661,-0.6438925915005562,-0.3203470593910244,-0.18708424779326832,0.4617619893433571,-0.6983817332765407,0.07822945382851886,-0.7699763303020394,-0.19020510956180126,0.07141387368088346,-0.24575440307395158,-0.1732375693805439,-0.4598857447031559,-0.27339332377222003,0.07712269952151633,0.24386606622665682,-0.03447593985640941,-0.3844598894366464,0.32068637741684947,-0.28294099195110567,-0.2529039306326539,0.09570137162008982,0.19138483270676945,-0.3988500222741597,-0.3884318915978904,-0.6063681073422174,0.4395240090097296,-0.06927283912381307,0.37011436073671694,-0.22808839300603595,0.09644546717285682,-1.0509919416185074,-0.0656828523182036,0.19316263596072303,0.43102125073284314,0.10362943274564629,-0.22496342727791133,0.27353399568455733,-0.09642635130070469,-0.20640830888208236,0.4481821035463858,-0.36842486794913587,0.12656499795896584,-0.03235676860524065,-0.7270715741351784,0.09663782748957624,0.17594584836701244,0.09395577331890653,0.09089553455457378,0.016385452946053522,0.25711652381505273,-0.32370329647349605,-0.2357124393775967,-0.18391286110459276,0.20504177711400834,0.7850014380959623,0.11846627342091785,-0.5513605624263094,-0.1800349676742292,0.3741547425765917,0.14926749829377617,0.555707695218897,0.24727313975573653,0.27911504164379036,-0.47478061012087486,-0.2365299538154019,-0.85641221140755,0.1367991582628188,-0.11918308096821989,0.5633305480795925,0.35260662743037063,0.21603397098860855,0.2629812738088954,-0.20728575082140863,0.5684275590337186,0.3103180962439162,-0.37581714671679317,0.3053917367995146,0.1658920871186041,-0.332228824795168,-0.049365433296026794,-0.5377825474595873,0.3943494234024373,0.18086470697382884,-0.10562010449279378,0.2339322289711676,0.15019820895960181,-0.04510883703496485,0.8330153713250895,0.22095964081680983,0.1523382687787933,0.03528442155404359,-0.27702462251046356,0.14932965631892578,-0.2560795136549995,-0.08383255314236097,-0.1971145724798449,1.012942547532994,0.05001846231969133,-0.5579634576965058,0.4511422128322569,-0.07267217273477852,0.2677317270262044,0.20844320326885532,-0.3037479918565992,-0.0456460601653561,0.24516751069297166,0.5311718325552816,-0.28188349328412593,-0.39981498336809496,-0.48186182793688476,0.09134457102916846,0.12038945004121425,-0.18501483033881816,0.0820184444455112,-0.4199771873378213,0.2714805852885682,0.5308702130027197,0.3562292741977729,-0.11912253507010283,-0.09415465827372382,0.92498728647545,-0.1047445062692738,0.5548259292925956,-0.004965232550191252,0.26606809150533633,0.24500990210575593,-0.23762306170791214,-0.07643244194914553,-0.6764496389129623,0.35572317001828363,-0.29020219657080193,-0.06100034717814584,0.3432433171255059,-0.8296887198750958,-0.4423107503297761,-0.05815085979752413,0.20962372997499717,0.09976124732615134,-0.10965806430262164,0.6053723557826639,0.4932135738908435,0.1342523973311926,0.2683435083030909,0.1590628963099119,-0.5038448176111486,-0.272540083110075,0.18308137125427362,-0.9026461886154293,0.39202213419694004,-0.24383349171313926,0.3552053768290598,0.2582782752977446,-0.1273471193450667,-0.24655466667174644,0.22049872663337805,0.30919909166493936,-0.4741107876819928,0.3797646216885568,-0.2909522481781924,0.1922746004784736,-0.33864533600211744,-0.12174407403756175,-0.0010707847008998767,-0.3193125382880982,0.5097861428523192,0.2864807956813767,-0.2961250159872605,0.21381265626836377,-0.31999747441304016,0.6495547231359821,-0.8244300251515154,0.08383414026654284,-0.03465635510368845,-0.38817019406022607,-0.08217836946154759,-0.13428500019135683
biasActivation=0,1,1
[BASIC:ACTIVATION]
"ActivationSigmoid"
"ActivationTANH"
"ActivationLinear"
