encog,BasicNetwork,java,3.0.0,1,1547766097366
[BASIC]
[BASIC:PARAMS]
[BASIC:NETWORK]
beginTraining=0
connectionLimit=0
contextTargetOffset=0,0,0
contextTargetSize=0,0,0
endTraining=2
hasContext=f
inputCount=10
layerCounts=1,30,11
layerFeedCounts=1,29,10
layerContextCount=0,0,0
layerIndex=0,1,31
output=0,0,0,0,0,0,0,0,0,0,0,0,0,0,0,0,0,0,0,0,0,0,0,0,0,0,0,0,0,0,1,0,0,0,0,0,0,0,0,0,0,1
outputCount=1
weightIndex=0,30,349
weights=-0.18781731937745932,-0.520256981306138,0.654461055833932,0.07430372215655194,-0.15618192388673577,-0.34343140604706857,-0.2663420718851584,0.33755624087013725,-0.1712953837675301,-0.49609597892492824,-0.5065431788547714,-0.23538728108897103,-0.651992002133905,-0.058425480490978045,-0.4343645484695806,-0.2673664263182611,0.5815978516039582,-0.49770662333733945,0.0661458590865361,-0.08563797641201125,-0.3226593619222619,0.4606609449552317,0.19316203006988272,-0.047861495860487185,-0.12272143092685094,-0.16381927121650341,0.0637873843492473,-0.2519687384632896,-0.022332993466395487,-0.1896522096037667,-0.49759627707212006,0.3437296701882501,-0.0038050788639492914,0.16188442292042807,-0.11427031397686384,-1.0195735415493257,0.03665406528748292,0.3590269540859254,-0.4570526350753186,0.3829974321906135,0.3119836078588496,-0.41317387750080015,-0.7209353857815308,0.14494667947758294,-0.009895889472068662,0.24855950191670192,0.05908093841829336,0.30931884639178947,0.1549749662374757,0.42204182193896295,0.30764650040528924,0.25679523678393146,0.21109166979674046,-0.02210361296580971,0.38855082886155357,0.14697576216213684,-0.03241843245738977,0.09808844518428468,-0.4418254901863287,-0.16888621148256228,-0.0229655252819732,0.05054105898138502,-0.7901206640074557,0.5424067555017502,0.26473471324198183,0.7208192785413775,0.14916751974409637,0.1624442318537659,0.7240185324813038,0.12719147415871995,-0.15306157852730978,1.2292451160278246,0.6098826715092915,-0.2151501570043685,0.12053735762996706,0.2602810908724765,-0.21898356525436113,-0.5752148630218017,-0.028067034585563172,0.5378399299050518,0.15118107194143923,-0.33953406788484036,-1.7586287921689547,0.588453961829714,0.14914798611230118,-0.2996987824243752,0.044027061222634875,-0.02787501878016091,-0.1366382749202158,0.17063289162908007,0.17682329141365372,-0.3718648179683626,-0.49057096100842823,0.4339560495160204,-0.06195414134459171,0.43714975443057213,-0.41610274612402254,0.17206141866004207,-0.13055652535773113,0.0974328737514983,-0.1792650047111885,-3.847826221311283,0.2100971209126474,0.48990807790559515,0.32399213038776514,0.5128555479789713,0.5264586577183764,0.04223470671325386,-0.06067647578622014,-0.2518081655501095,0.3443314838534805,-0.023315409539632174,-0.030638555273945746,0.24829430888223142,0.19293356198754819,-0.07264965446505298,0.11751640837469313,-0.9516979324685462,-0.15770789920269668,-0.14983034739434128,-0.023614016794568465,0.6884530180582289,0.6737709823772698,-0.14357045142584832,-0.07920308577467329,-0.3182252946827589,-0.09821473223459412,-1.6631014916784463,0.4487344638726131,0.3540200841812248,-0.45710680997645303,-0.030773808771808516,-0.13897606780817787,-0.2614504226664081,-0.0645689470608349,0.1108095807943961,-0.3823461705498321,0.06775240975331892,-0.29536356786876655,0.5560760881154071,-0.23315293908754528,0.35488073632586054,-0.038472333476154495,0.25658701896460145,-0.4518286331408639,0.1854919838800115,-0.16640386232882795,-0.002709142701595382,-0.07643966145268127,-0.15192767524477813,0.6045539456563385,0.2260167938954081,0.12344955683399364,0.048296903295185205,-0.4536216991631196,-0.3520364985200676,0.2085571699345919,-0.3892061070065936,-0.2794384612963518,0.13616795744059362,-0.29052800294340797,0.4618580820030773,0.05022723357270034,0.07053842675379876,-0.36132420758493555,-0.11357719322997709,0.03135136010189983,-0.0687678838977593,-0.4148455994732294,-0.09104115292079606,-0.5327157192721566,0.11269844283802466,0.5244261268414498,-1.234037809722207,-0.3562467120493645,-0.11946234883752706,0.45546142696103525,-0.7519233756262111,0.05882716632880917,-1.0560422561987035,-0.2938823437778204,0.39270696590503656,-0.24678823208118006,-0.7802318641094345,-0.46037261916187305,-0.27350178655326735,0.07716229154005076,0.24381546259103176,-0.036593502019998884,-0.37102547826950083,0.18999769311519438,-0.2829459059348558,-0.2526965853966859,0.19845910391605653,0.19129190194831824,-0.4084287230984996,-0.3885557298782023,-0.6787919417875806,0.6581537873894118,-0.17966913872328652,0.09944112852854359,-0.21858289557557375,0.0963701168778568,-1.051460856287475,-0.062342474756526246,0.09126748525353215,0.43101197073284325,0.10364286198819748,-0.2313753874191389,0.2720754874784561,-0.10278782081627517,-0.1923920682479557,0.46149429879089826,-0.36833818212536795,0.12643653774682512,-0.027325327260242477,-0.7270609136151784,0.12104181290755937,0.17596072734951243,0.08918798860605277,0.06663393053029557,0.016318041798053518,0.271980130879666,-0.32367922135849597,-0.2357202341785967,-0.18049303244967632,0.18357265860942631,0.7867805100144605,0.11853282113096217,-0.6740372264673501,-0.1795252228318239,0.38661989974962635,0.14290602877820566,0.5170165910575178,0.18724284497797225,0.3021258057451654,-0.4823030810435342,-0.5383546252142437,-0.8423950382491381,0.13680828105781884,-0.26347807378435484,0.5634086653009455,0.49402962728092387,0.12678438594930325,0.26306801102536925,-0.20653568258901442,0.5683651354812186,0.30528631500211895,-0.3801425430876386,0.30273150760909046,0.17064300983267106,-0.332234869420168,-0.04888693904879524,-0.5377870143345872,0.39413872815884804,0.18581566763353216,-0.2525348348323932,0.16766122835920724,0.06648536181666165,-0.03548854965733403,0.8329507811778739,0.1791166158461929,0.1530539061989086,0.009421531094448744,-0.3100063908252887,0.15292043522780766,-0.22812380004514948,-0.08891431206696397,-0.19718878744839233,1.0120548811058745,0.04979119948010734,-0.5579281902002738,0.4267382274142738,-0.07400983378857638,0.2676400019403602,-0.021455253201907394,-0.30354731782059907,-0.3665655545214997,0.23562837311745655,0.5391616812015925,-0.3850993122931204,-0.2937112218943911,-0.4802465750537821,0.06371317558543502,1.3461042412547268,-0.17556025054553911,0.08428662793614856,-0.78925598730663,-0.3373900655693939,0.9827190018081378,0.3559673073576367,0.5016432545631735,0.14008366230800343,0.9256278213234501,-0.1047496436542738,0.5522481192853466,-0.004910518452431251,0.26878691489116413,-0.3694719741257038,-0.23730906738684346,-0.07579861014338186,-0.6766255455589525,0.3562103772735152,-0.290224309070802,-0.061009684563145844,0.3327012798727137,-0.8296939984750955,-0.4405540624871157,-0.05817666160463612,0.2095640802348046,0.09975829955673726,-0.10957627668762165,0.8122182159201337,0.49146832954906405,0.09816055888885256,0.26427372527168236,0.1642844896717294,-0.5035238443773853,-0.2727961277590362,0.5593141102157783,-0.9026025726527469,-0.15256384542684132,-0.24041734649341387,0.3552203703440599,0.16453915206396424,-0.1417035543432424,-0.24649989454792018,0.22047655423113802,0.3172736209512502,-0.47398742197114857,0.3797477263355567,-0.26722921498418606,0.19184531314984438,-0.3387064862143558,-0.12280715491337943,0.01424889369181559,-0.07503843063934319,0.5117885876295414,0.28648723728137665,-0.2960875926395005,0.21187661968975538,-0.31918916629482175,1.4162397754663354,-0.7916657029112618,0.08513010953040055,-0.03469481997407645,-0.38808654357782624,-0.07571549416420022,-0.13429258503729433
biasActivation=0,1,1
[BASIC:ACTIVATION]
"ActivationSigmoid"
"ActivationTANH"
"ActivationLinear"
