encog,BasicNetwork,java,3.0.0,1,1547766100887
[BASIC]
[BASIC:PARAMS]
[BASIC:NETWORK]
beginTraining=0
connectionLimit=0
contextTargetOffset=0,0,0
contextTargetSize=0,0,0
endTraining=2
hasContext=f
inputCount=10
layerCounts=1,30,11
layerFeedCounts=1,29,10
layerContextCount=0,0,0
layerIndex=0,1,31
output=0,0,0,0,0,0,0,0,0,0,0,0,0,0,0,0,0,0,0,0,0,0,0,0,0,0,0,0,0,0,1,0,0,0,0,0,0,0,0,0,0,1
outputCount=1
weightIndex=0,30,349
weights=-0.18777375294447876,-0.5436391369086734,0.6546417345447889,0.07430352215655193,-0.156299556318673,-0.3437477339391967,-0.28424151116141355,0.3375616088701372,-0.23628497724911507,-0.4960872931649283,-0.5065548145383403,-0.235380839488971,-0.6519719872111318,-0.0662608385013929,-0.42846639614751447,-0.26738154552752824,0.5811197376906652,-0.4977119913373394,0.06617518472710136,-0.0857002005830324,-0.3229873676152937,0.46064093003245865,0.19322000724725988,-0.04818950155351899,-0.12272143092685094,-0.16388804572588667,0.06379433397521017,-0.25198853736504956,-0.022335193466395488,-0.1896544096037667,-0.4999605490855049,0.33094447436585245,0.061184514617635674,0.16282907931635962,-0.23323375637776322,-0.9976683769776993,0.03671680095097495,0.3815927851559201,-0.4565745211620256,0.38301178809461345,0.3119836078588496,-0.4131716775008002,-0.7209254558615307,0.14522797720820477,-0.009895889472068662,0.2482207205127226,0.06691629642870821,0.3094995251026465,0.15498919401717423,0.42987717994937774,0.29981114239487444,0.2568598302918044,0.21109366979674046,-0.026770004759549323,0.38821880531065567,0.170282930587143,-0.032488756890045226,0.0761832806126584,-0.45150172020982715,-0.19145204255255707,0.005100444793933848,0.05048252442996596,-0.7901260320074558,0.5421982782870418,0.24216888217198712,0.9894927556601012,0.17173335081409116,0.16605939893283836,1.0666332465958939,0.15334238708541598,-0.15305706607199365,1.2370804740382397,0.6961743381756016,-0.21525747774809306,0.06914229980023757,0.26811644888289127,-0.21898974269966145,-0.6575067607075707,-0.03078764500584611,0.6513235401018834,0.1563508610076452,-0.33858941148890875,-1.757432638087698,0.6110197928997086,0.14912706142031115,-0.29865807304983855,0.04402506122263487,-0.050440849850155685,-0.1362051686438223,0.17246671266930094,0.19872845598528002,-0.3718626179683627,-0.4905687978084283,0.4339562625805909,-0.061917947383704805,0.4371451144305722,-0.4165382644341312,0.157381236597566,-0.13442705742438346,0.14311736960014673,-0.22057175554483413,-3.8443475546092083,0.21032745011713122,0.4926191527855023,0.3232428196380987,0.5922734755622616,0.48963729374987086,0.04163429233489324,-0.06068087578622014,-0.2539661805091487,0.34445871940493006,-0.023343208043483662,-0.030966560966977544,0.24827252566574115,0.19292363206754817,-0.07264965446505298,0.11662718893747018,-0.9517703203903201,-0.1433652773854586,-0.1272645163243465,-0.026334627214851403,0.7048994365637423,0.6816063403876846,-0.2017120479354489,-0.1852486140039694,-0.3212225376814245,-0.09584634715370595,-1.7555602662585328,0.5082161850730629,0.3540222841812248,-0.4345409789064583,-0.030781836161936593,-0.13114070979776304,-0.2614840841274355,-0.042663782489208615,0.10811823411156864,-0.3823434219082722,0.06773856104412747,-0.28798802616866453,0.5561020467975192,-0.22817286206767098,0.35660992973553907,-0.03848668938015449,0.25658775394019573,-0.45182541946534294,0.1856025403291502,-0.1664014492642575,-0.00264454919372245,-0.07643966145268127,-0.15189148128389127,0.6045543856563385,0.22608918181718188,0.12347806725252804,0.04916150000002449,-0.45361789756311965,-0.3515203863559496,0.2086710608002279,-0.3820347960979746,-0.27924378733633864,0.14953586389630608,-0.29039975653727296,0.46245849638143793,0.04868580853624228,0.06846185876067838,-0.3613911781338981,-0.1130738696739832,0.05475867165929028,-0.06910775527804207,-0.4151776230241273,-0.08832054250051315,-0.5377629331443242,0.09079327826639838,0.523890909814902,-1.4688456192564865,-0.41438830855896513,0.015690663681114457,0.4571313484654641,-0.9390934048531759,0.05705727555160092,-1.3304503834872283,-0.5682904710663453,0.4123512991199554,-0.24630272309788978,-0.9582008512886597,-0.4604222295511768,-0.2738297922462991,0.07718223388472002,0.24381009459103176,-0.03753815841593046,-0.36319012025908604,0.17959408746966124,-0.28288131242698283,-0.2526965853966859,0.19952283090710352,0.19129190194831824,-0.4083912949891257,-0.38854522859822493,-0.7513964190556661,0.6879502307929191,-0.20297630714829268,0.16252800249482727,-0.2223581525787771,0.09635904150488274,-1.054181466707758,-0.05450711674611139,0.09265836209220267,0.4310000548288433,0.10367824049822544,-0.23470000032661303,0.26935487705817324,-0.10560988287711023,-0.19302351667384518,0.46844423217836717,-0.36833667767736794,0.12640034378593826,-0.02736985726237272,-0.7270708435351786,0.162348563741205,0.1760099933527399,0.06662215753605799,0.06670139901542517,0.016313401798053517,0.2722985334531854,-0.32367922135849597,-0.23562721952725965,-0.17962843574483706,0.18497092448130226,0.7867874596404233,0.11886082682399396,-1.0166519405819403,-0.17680461241154097,0.45160949323121136,0.14323432964080562,0.5122659121273548,0.18007153406935325,0.2814724303283426,-0.4826032882327145,-0.5455259361228627,-0.7774054447675532,0.13688579326726638,-0.43092587173200453,0.5634205812049455,0.5561605416350858,0.12643727041881908,0.2630824503287192,-0.2062354753998341,0.5683629354812185,0.3055865221912992,-0.3787442772157626,0.30224272869688984,0.1706569090845968,-0.33222950142016805,-0.04858673185961493,-0.5377810127345871,0.39412872069746147,0.1885362780538151,-0.25248201290384126,0.09606347125418659,0.06650150185038585,-0.028317238748714998,0.8330231690996478,0.17312805652961308,0.15389902351800724,0.022206726916846522,-0.3103199686233589,0.15595982179468498,-0.1631342065635645,-0.08943466675423231,-0.19737462669372147,1.0119368702099427,0.0497373715568799,-0.557931526020736,0.4018778950861416,-0.07404986363412253,0.2675916770212648,-0.051251696605414766,-0.30353887622059916,-0.3685483885427084,0.23562142349149368,0.5477937410377495,-0.3855774262064134,-0.31912139609946705,-0.48023925721199767,0.06360893697808075,1.557364766499658,-0.15299441947554432,0.09212198594656343,-0.7865049500293442,-0.4609363587849201,1.0789155987758408,0.35612534809911434,0.5531936396787883,0.6791333464816617,0.9256589717419845,-0.10472984475251379,0.5525761249783782,-0.004955375055120787,0.2688669745822564,-0.43659661918972154,-0.23698106169381167,-0.0756943715360276,-0.6767925198297987,0.35651058446269546,-0.29020780998600204,-0.06100748456314584,0.3324010726835334,-0.8296164862656482,-0.44056208987724377,-0.0581966762687868,0.20955511523545456,0.09976726455608731,-0.10957827668762166,0.8686956431490549,0.49148446958278824,0.10435691520512974,0.25643836726126756,0.1868503207417242,-0.5031958386843537,-0.27007551733875335,0.5463067190366492,-0.9035824553127592,-0.15256384542684132,-0.21785151542341907,0.35515577683618693,0.17214511198466778,-0.16235692976006522,-0.24638600368228417,0.22047455423113801,0.3215896508693287,-0.4739535077964498,0.3797384931451568,-0.33221880846577106,0.19184531314984438,-0.3387255401231952,-0.12186249851744785,0.015071249622679538,0.0962689264179519,0.5118225018042403,0.28651194609991104,-0.29606779373774056,0.20404126167934056,-0.32702452430523654,1.6425424941022002,-0.792661306383343,0.08519284519389259,-0.03453409065656609,-0.3880766136578263,-0.07545610076506123,-0.13429795303729433
biasActivation=0,1,1
[BASIC:ACTIVATION]
"ActivationSigmoid"
"ActivationTANH"
"ActivationLinear"
