encog,BasicNetwork,java,3.0.0,1,1547766083198
[BASIC]
[BASIC:PARAMS]
[BASIC:NETWORK]
beginTraining=0
connectionLimit=0
contextTargetOffset=0,0,0
contextTargetSize=0,0,0
endTraining=2
hasContext=f
inputCount=10
layerCounts=1,30,11
layerFeedCounts=1,29,10
layerContextCount=0,0,0
layerIndex=0,1,31
output=0,0,0,0,0,0,0,0,0,0,0,0,0,0,0,0,0,0,0,0,0,0,0,0,0,0,0,0,0,0,1,0,0,0,0,0,0,0,0,0,0,1
outputCount=1
weightIndex=0,30,349
weights=-0.18689512304588596,-0.3415658645581646,0.6729611021753756,0.07439853465655194,-0.14961811198261385,-0.3756070409218335,-0.05114652920836426,0.33397731769355077,-0.16218726821949542,-0.49643392504992817,-0.5069162753814849,-0.23824493704575825,-0.6553621416069926,-0.05204442725956973,-0.4526224527534024,-0.2673678494432612,0.610644699079382,-0.4974262747045269,0.0642939717218009,-0.08536650165879003,-0.3233937650216008,0.45745715922913555,0.2500626860903948,-0.04457864708505698,-0.1228203929581009,-0.1766900904819347,0.06288584808862076,-0.2510215725250112,-0.02531625789198352,-0.18134426100221793,0.011322895787220663,0.35896921393209535,0.007241818119215976,0.1615443248599763,0.026157561895425525,-0.8844290126623682,0.041563867655732695,0.3462991815925917,-0.44538152506945416,0.38412568396661345,0.3175583273594447,-0.41034706459856024,-0.7217040529992592,0.13937797412555603,-0.010009209847068665,-0.09123994488768364,0.045557103251147806,0.3046461227651912,0.1481767745187276,0.49008768004530046,0.30888492492641634,0.2553273346156115,0.21256896267174047,-0.2076200218279933,0.39119465391059116,0.09355105606607368,-0.06838023383179377,0.22649683159465675,-0.3085319951684803,-0.2340162501344137,-0.17877861900333458,0.06085929905847221,-0.7813489428592957,0.5446263047475914,0.28097559594687566,-0.3063444162358624,0.14501869554325097,-0.03234526655295558,0.5957873973607749,-0.01796447836348117,-0.18585332547128833,0.9248804661155843,-0.16441380561214963,-0.21608924223982418,-0.280898736323646,0.2390560664610935,-0.20720211905982988,0.2322762909788094,0.019877254224801223,0.34305848863688226,0.03860141437933771,-0.3360922985813944,-1.6919272357172106,0.3531353346937037,0.1409157832225876,-0.3026042590918028,0.04377588872263488,0.055985373932450955,-0.14688145683139991,-0.026199353396618233,0.056305156216081634,-0.37176534059336275,-0.4893452470084283,0.3992797974370803,-0.06378665659621324,0.43502069181557207,-0.5110286998350739,0.1684728969149359,-0.02129907489441267,-0.3072812278913584,-0.17772647796014115,-1.959916349832041,0.2079266394338166,0.5719396082758541,0.15779695902155552,0.4084196483229521,-0.038390710542896736,0.04652403453772537,-0.05857438372474173,-0.2451160943780339,0.3442265159184112,-0.023153460480947366,-0.0327581233328771,0.24850698339245578,0.1926611526345882,-0.07391907750316112,0.11455210225384777,-0.9276405494701618,-0.16555759037985546,-0.1550645322405968,-0.02435757907629852,0.30243018106833364,0.6787610596752703,-0.20765962100929974,-0.054558281424183,-0.3051182402681434,-0.3009590560836459,-0.00934983998854201,0.10785263338644323,0.35375047578122465,-0.4858250710333914,-0.031648776719668925,-0.14169041908496918,-0.2537623162853809,-0.3791288748365889,0.26913698391898283,-0.3817441448784108,0.07840522116917309,-0.17557847968562662,0.5558536776883223,-0.23843529040930866,0.3535842562692064,-0.03851978476265449,0.2380990198696319,-0.45264181584266877,0.18231691121907492,-0.16798509434308173,-0.003069681217845382,-0.07635231965521827,-0.17222324254096036,0.6049080425725886,0.2224853320963837,0.12278493223399362,0.04530147074315834,-0.45364687681936955,-0.3474757630324229,0.20509970778293965,-0.41925421176445454,-0.2848596150052387,0.3033854903161794,-0.2950500877677592,0.4399547438424264,0.050239783099597854,-0.2537508599516015,-0.361616730622868,-0.10980624950075747,0.00630773437183079,-0.04542293846213138,-0.40533359650057016,-0.1247453575174653,-0.4529055544159938,0.12234349118605939,0.5247468527758661,-0.5627103617675079,-0.32030065314102446,-0.15889597358040433,0.4609773018433571,-0.4854652545721876,0.08727832904131885,-0.8334218150750877,-0.19453292012180126,0.14408157003793173,-0.2487637150739516,-0.1512078871676799,-0.4598857447031559,-0.27460832377222,0.07670082452151633,0.24386606622665682,-0.029163998736409416,-0.38208043343664644,0.3233423479768495,-0.28298739820110563,-0.25076941863265384,-0.23360231589561783,0.18847660870676944,-0.4003313502741597,-0.3885356513635154,-0.6064246453422174,0.3668563126526813,-0.053974448698213065,0.3983026349495809,-0.09702914650037972,0.09592369217285682,-1.0509919416185074,-0.0686921643182036,0.19504100652072304,0.4315359382328432,0.1044141202456463,-0.22069440327791132,0.27382491130955733,-0.0971529407407047,-0.1696293945330264,0.43521412433358586,-0.36842486794913587,0.12642156045896585,-0.11185866426885663,-0.7263017501351784,0.09074268636957625,0.17596196164826242,0.09427598581890653,0.13445440028615777,0.016542718571053522,0.3324129921005746,-0.3236554839734961,-0.23589947062759672,-0.19664517153019276,0.21613530487080834,0.7882907980703624,0.11947607342091786,-0.5422728072135092,-0.18005840517422916,0.3741547425765917,0.1508799296537762,0.5616028363388971,0.2563608949685365,0.2777203296437904,-0.4671670549080749,-0.12999256343262566,-0.85002698322195,0.13578935826281882,-0.1192396189682199,0.5611921480795925,0.1433236619220716,0.26009333541433655,0.26402617380889537,-0.2071480508214086,0.5673826590337185,0.31245260824391624,-0.3758791584355432,0.29923314479951457,0.20945095285018808,-0.333443824795168,-0.047541961296026794,-0.5378147740220873,0.4096478138280373,0.18611630633382886,-0.0244378747597455,0.2629559934511676,0.1783864831724658,-0.049895431594964845,0.8088933981794896,0.22685478193680986,0.15308076877879329,0.04366010667404359,-0.2570104794975996,0.1474852323189258,-0.2592214842149995,-0.08014248258236095,-0.1971145724798449,1.010725454412994,0.05033773731969132,-0.5338414845509059,0.45429768339225696,-0.07062524873477852,0.2684742270262044,0.2838206801059036,-0.30400027985659916,-0.019473325152492112,0.26928948383857165,0.5301620325552816,-0.21873362092707763,-0.4495010882676789,-0.3410394514403882,0.14103067592875246,0.09029761102835025,-0.15682655612595417,0.0817919819455112,-0.03688474624122317,0.5052854069197472,0.5682179931355836,0.35116274363777283,-0.07111676423995118,-0.11911509572652382,0.93578161863545,-0.10824370626927379,0.5546630998525954,-0.005707732550191252,0.2652302545053363,0.37802811081985255,-0.23657816170791215,-0.07744224194914553,-0.6757071389129623,0.3550262460182836,-0.2910375090708019,-0.06313874717814584,0.34474602912550584,-0.8318271198750958,-0.4325231551169762,-0.05830812542252413,0.20906385797499716,0.10080614732615134,-0.10911941430262163,0.5771840815697998,0.4958695444508436,0.1351848693311926,0.26852468017809084,0.1590628963099119,-0.5003456176111486,-0.2823276783228749,0.15702061064140962,-0.9155456394954293,0.3951776047569401,-0.24333556671313927,0.3552053768290598,0.28020531431060863,-0.12433780734506669,-0.24655466667174644,0.22049872663337805,0.30810344216493935,-0.47489547518199277,0.3797646216885568,-0.29790160339099236,0.19409807247847363,-0.33852158600211746,-0.12147677403756175,-0.008684339913699875,-0.3240991328480982,0.5014104577323191,0.28547099568137674,-0.2983849159872605,0.22286153148116375,-0.3207672984130402,0.5919139912589337,-0.8506027601643793,0.08423071626654283,-0.035701255103688455,-0.3874290440602261,-0.08309788146154759,-0.13415902362885684
biasActivation=0,1,1
[BASIC:ACTIVATION]
"ActivationSigmoid"
"ActivationTANH"
"ActivationLinear"
