encog,BasicNetwork,java,3.0.0,1,1547765782147
[BASIC]
[BASIC:PARAMS]
[BASIC:NETWORK]
beginTraining=0
connectionLimit=0
contextTargetOffset=0,0,0
contextTargetSize=0,0,0
endTraining=2
hasContext=f
inputCount=10
layerCounts=1,25,11
layerFeedCounts=1,24,10
layerContextCount=0,0,0
layerIndex=0,1,26
output=0,0,0,0,0,0,0,0,0,0,0,0,0,0,0,0,0,0,0,0,0,0,0,0,0,1,0,0,0,0,0,0,0,0,0,0,1
outputCount=1
weightIndex=0,25,289
weights=-0.4837579498846979,-0.1626062024759968,0.17323642026147384,-0.49184501832037275,-0.5786320535466957,-0.44994966676162784,0.25281000268468456,-0.49192441109658674,-0.6252590890315443,0.14168063893570912,-0.3349139559350318,0.12539274449908394,0.2906271492335679,-0.2642270280382337,0.14849565876472334,-0.16694314549396114,-0.38456508711026605,-0.74254701191934,-0.3086907362193344,0.6784828322008843,-0.29661717067978843,-0.15164426170902326,-0.5284133508448997,-0.20167034013925367,-0.18835598252412308,-0.4530325342523239,-0.92005020356726,-2.840447521283587,-0.775429420735635,0.46413431946655304,-0.3145748353719933,-2.0328318802320617,0.28388656460890066,-1.927338400267863,-0.0871489125356691,0.13120563133029714,-0.11512374840653308,0.7962435265969836,-0.42233956157921215,-0.21678758637319062,4.865401204977307,-0.13080407698033758,-0.4378378926259989,0.27753533306647304,-0.16487308274033163,-5.931805756986322,0.3125957188668461,0.8563249408711509,2.407640021110391,1.7563236715838415,4.371524404320199,0.6520561915216202,-3.244854725732813,0.7270676533671899,-5.328611007523049,2.785484673626836,-1.44455751981481,1.4784253165514816,-0.9071252077788198,-0.34646065378858726,-0.50103842071847,0.25717510922171016,-0.7137990368284793,0.20961236845551448,-0.7893884730086138,0.8226944437070149,-0.4688403042571309,0.3779727385600227,0.32264331660579,-1.3323701695081085,-0.33538123651136087,0.11027045240082699,-0.22414855631540873,-0.6357810552440147,-1.1780847296644577,0.6672437627948621,-0.12211693918580255,-0.6886621740952373,1.073382804798297,0.19447415659130995,-0.44479084547481734,-0.2737998562635499,0.29219266619282064,-0.5388548567152974,-0.08944430089000942,0.5605176997387064,-0.7830317506500377,-0.4782737742954809,-2.147764955918958,-0.5682767851745807,-0.19237439845260476,-0.7367579157083277,0.967975405588442,14.552529519332467,1.570549450413794,0.24519621752271797,3.7470644694946595,0.49755549756172873,0.026948852059132583,3.973867082363509,7.650949804684572,0.15535444813736932,-0.3127001170079673,-0.6614075573103676,-1.945316533107854,1.3932651293083096,-0.42780373164499125,0.24874681275107305,-0.6493054736623562,-0.5589020440205453,-0.23302743313954632,-0.47827651323267467,0.18184968368930435,-1.3402391903056405,0.004887163193325668,-0.6224399148692734,-0.5235169526411537,-0.1260284602257254,0.4915091477920195,-0.24924340263840147,0.25544525713980143,1.3218904584539213,-0.7701801262434185,-0.7121392400316076,0.5119804259453666,-0.2604757238605224,-0.04711431150568582,0.25882157187510385,0.12786896448350735,-0.621655577024263,-0.8063507030902983,1.8302129971400694,0.4481983859449674,0.6843826066106613,-0.4832094572819081,-0.2761102530566582,0.24091493832018673,-0.4124685322515679,0.14806552984991633,0.7043008663574426,0.7932399911095637,-0.6775080061420042,-0.6505062646098637,0.07757674951597705,-0.7310976550416117,0.14550142545534872,0.06217461609668999,-0.11059655342229896,0.18540091232198833,0.20070321129654967,0.47156187150805345,-0.18969628836146182,1.293482222069728,-0.08124613398145349,6.15528296624201,0.02200288528856273,-0.18178416470087885,0.4475058649698082,-1.5682690878185246,0.029935949972380377,2.7367218882587157,-1.9995316449294156,0.5405350824532149,-0.4132129855843901,3.3576165718530007,0.05910178050454249,-5.739566174546939,-1.164765657184193,-0.4497235765028839,-0.2418082963516246,0.8486889045220192,-1.157143787680542,0.24835329445579257,-0.19067762998798868,-0.3826068869217836,-0.13218055855299102,-0.39730624136866294,0.32559564863911333,0.5568524429639214,0.5639316132991203,-0.44763729643006556,0.3957620053514122,-0.2756301256800136,0.43885585089890555,-1.1418241610656876,0.020088745423309295,1.507204682419423,0.23149688373828667,0.2986604517764768,-0.053705480775184444,-0.0034330281222402195,-0.38498569634721386,0.09943896232792686,1.7271461268578219,-1.7578516423898904,-0.41561892792351496,-0.36873399308595495,-0.25370905433702773,-1.187119248564968,0.3927828531732129,0.22683426811364557,-0.4681165906850758,-0.16759054742859292,0.055365533642998746,-0.028534165917076255,-0.26564079101580707,0.2797761361059632,-1.142818058223542,-0.3996985441671353,-0.845779294204451,0.07609408515260904,0.5539756762752266,-0.8228625325243538,-0.114454745369097,-0.5367461484487306,0.05429495477415655,0.2952388656946879,-4.902110366659613,-1.6143364583403583,0.3922090848377376,0.4625746067799887,0.23436968005025058,0.05910258719445263,-0.6259030324816753,1.4579610692797318,-1.3700111805106605,1.5607549326318233,-1.2633480537201316,0.3056552241801079,-1.0323289746075484,0.5918262060625544,-2.265416286136,0.056029908727422056,0.024457456239786346,2.1289291650208737,2.5359681024204344,-1.0969450299492873,0.2971830678377209,-0.2435310720934745,-0.5454069064501188,6.467863967360886,0.3837652748408519,-0.6684860655782048,-0.07275137807477401,-0.08086802180429678,-1.1749099213091234,-1.3272791455115236,0.05369350312920331,-3.417335521329975,-1.0207533940719835,9.077769903271456,1.7915022589441916,0.043422800964954884,0.3534583055665274,-0.10935070611670852,-0.16026929992665095,-0.534477321038995,-0.12796875877945735,-0.29034595554194853,0.009920682826489198,1.1124368445251351,0.0584003838570364,-2.2003599770707605,-1.6590358534327403,0.24426899917517025,-0.26739374357107976,0.35427497575121686,-0.7384318865277344,-0.12645762426107077,-0.6270103168658235,-0.40404799310895745,0.7752874527218319,-0.6285573773566241,0.0787292248029868,0.1423242368378694,-4.364138087866394,0.06233543993042308,0.42138434795636,0.017109878098027498,0.35525153191185405,-0.1402180636285732,2.2381342791145906,-4.907782796927568,1.3628303427887012,-0.06219017253971764,-1.1404994648843187,-2.5437527295952598,-0.06948759103550108,0.40752984624280475
biasActivation=0,1,1
[BASIC:ACTIVATION]
"ActivationSigmoid"
"ActivationSigmoid"
"ActivationLinear"
