encog,BasicNetwork,java,3.0.0,1,1547765771529
[BASIC]
[BASIC:PARAMS]
[BASIC:NETWORK]
beginTraining=0
connectionLimit=0
contextTargetOffset=0,0,0
contextTargetSize=0,0,0
endTraining=2
hasContext=f
inputCount=10
layerCounts=1,25,11
layerFeedCounts=1,24,10
layerContextCount=0,0,0
layerIndex=0,1,26
output=0,0,0,0,0,0,0,0,0,0,0,0,0,0,0,0,0,0,0,0,0,0,0,0,0,1,0,0,0,0,0,0,0,0,0,0,1
outputCount=1
weightIndex=0,25,289
weights=-0.43290463888664416,-0.16251889451273757,0.12114456923042279,-0.49275392515494904,-0.5786086792642033,-0.4499847144517596,0.25206017639676875,-0.4915792726059516,-0.625304611091978,0.11033669809727432,-0.33504529578905184,0.12538747089908392,0.23079280675463273,-0.26424539955823356,0.13991604332579513,-0.1669264492727608,-0.3853763942104741,-0.6087482053032659,-0.30661662673667733,0.5501902301092759,-0.2134393398742281,-0.15175437983313886,-0.5284420588321199,-0.07555230905770999,-0.18838096898088344,-0.4612430445062229,-0.8392967883184824,-2.821011663734561,-0.7541339921878387,0.4606518192139725,-0.3144847352821201,-1.5476871339023037,0.28382398976812895,-1.927013407192287,-0.08731670017525349,0.13131373312895195,-0.11492165812421183,1.198804890198737,-0.4219134247006881,-0.21673390130846684,1.7654396446144638,-0.08026692995254033,-0.4434411056503616,0.2766954072314027,-0.07903326519803987,-2.5083012382297274,0.31262300178845975,0.859079099656138,1.73388982416053,1.756927049561782,4.012928656716707,0.5194253017244447,-3.0019810334334505,0.738183727279427,-4.515640153828657,2.7735806852148723,-1.0507045723216477,1.3343325961131645,-0.9071804779013655,-0.38939281893558475,-0.5012132318755095,0.25721660899258986,-0.7138816083034326,0.2094471620899874,-0.7862004164215202,0.6774425629808752,-0.4803203343446935,0.3804455635684367,0.32279491453883474,-1.332763074146612,-0.3678833496216061,0.09714410914841293,-0.1381612927265723,-0.5860873896681471,-1.1775894110485716,0.6767554422186163,-0.11069021561187062,-0.9430130197467768,0.924761536828444,0.1944379987789817,-0.4448000854748172,-0.2709558598407185,0.09468891693132259,-0.533221227809739,-0.08068260522230569,0.5617554721061495,-0.7772732905868616,-0.4787488774183181,-3.255755572067939,-0.5683153608130581,-0.19092439538813089,-0.47167737685578576,0.7166256335062174,14.557451861389433,1.567572090012518,0.24061201694857068,2.483520884531565,0.4972323599717362,0.02910240604679559,3.9592131256508543,7.612884542728486,0.1553010715658817,-0.3127277682831287,-0.6615048505123715,-1.3026408008225348,0.5905651441293182,-0.4500390623890504,0.12476937632120913,-0.646668310912599,-0.5561331373184251,-0.24450746322710945,0.16525211434356626,0.18270389781291252,-1.3402423583056404,0.004997824307459205,-0.6185810548484806,-0.5234575362984836,-0.2595181018221023,0.44448425301876127,-0.24922135577094548,0.2800260996659167,1.2931833593483066,-0.7676335445454908,-0.5621147090621801,0.5119675843453664,-0.2605700279012648,-0.04709401368448544,0.2587248939318693,0.16062763878351505,-0.7753819110203171,-0.42962777697852317,1.2708645582123392,0.4022179172014841,0.6753328651006778,-0.4971533547686708,-0.27597010919170334,0.19720267294326188,-0.41237818596673076,-0.06694304023704921,0.7116216954695975,0.6614103188270453,-0.6758005544320193,-0.6505892243782118,0.07759565896697775,-0.7050721695465588,0.1469514285198226,0.06217662249668999,-0.1105227766675937,0.18539144207272112,0.19503890308311567,0.47284069559646014,-0.19816107780621087,1.2931598383995135,-0.0810702531242124,6.16213231901725,0.021646200487972417,-0.19572806218764177,0.4480798422696725,-1.5646856730343994,0.029929430380339576,2.219006848763581,-2.0886070321407706,-0.38866472751274,0.2561425960852682,3.2735206749842143,0.059256807108734516,-5.650361185300521,-1.1646681412209348,-0.44974794040688376,-0.2020765403087918,0.7334278174861625,-0.4788189285014095,0.24810871632378234,-0.1905398167464365,-0.39061460156047034,-0.12651648703011595,-0.39790971511316214,0.25512434597940487,0.5568310836090413,0.5639644445558809,-0.343375862357879,0.39541747332049765,-0.276344789778217,0.23899405612631147,-0.929245746193844,0.020115176680069603,1.342361959413245,0.23127117768377167,0.2986669783751328,-0.07418110380687681,-0.0033617109736722574,-0.38515186349819197,-0.4286168966373923,1.247100851952335,-1.5829086078206804,-0.41181348364386383,-0.3686728262348796,-0.2812028755967434,-0.9732402186242339,0.3928222751963808,0.2267970337240559,-0.4681588477155432,-0.16745201756862868,0.05544542409329541,-0.028285574532951017,-0.16684380443718685,0.27976905990083084,-1.0971443771566383,-0.39992312874782443,-0.4545284125491991,0.07718366234409975,0.5548740308002053,-0.8318535761886445,-0.10670410209391602,-0.5843306046405656,-0.22625696642069726,0.2694193944376784,-4.462861284817837,-1.5947553891303254,0.39412748556454186,0.4124229220656415,0.147787613887915,0.5202531356351879,-0.6258775038624507,0.4389279681047885,-0.7683344207032178,1.678399052863582,-0.5101598017349894,0.313528649120726,-1.006351337994617,0.2730278615446327,-2.274769792451124,-0.12829738277730482,0.11399509300222732,2.145470129985153,2.535959660820434,-1.0975321996973997,0.2899434505309198,-0.23785039643881628,-0.5434226791299098,6.541891202418735,0.38384944413589317,-0.45891552147719206,-0.0709633916255417,-0.08083850225229669,-1.1748459998625342,-0.7920948686506756,0.036483718162190995,-2.2787836240892205,-0.6596704336389058,6.19381112820783,1.2056270491335197,0.03829356614072472,0.3523641671891049,-0.08990279849485612,-0.017993102708736605,-0.5207652597004249,-0.12796251717945734,-0.290240549920398,0.010228030505534443,0.6184179665316589,0.058415434150773944,-1.8589260509297825,-1.420703600024762,0.244464675990964,-0.2673626314253449,0.36585615020435414,-0.7385278769861999,-0.12607908733427856,-0.6271896359654885,-0.3865120413725481,0.4283939624173412,-0.6100321895718442,0.05226012739257589,0.14194011711699817,-4.365788375153881,0.06235683319147907,0.42137386315636,0.01679506224275978,0.3236773462566506,-0.13534784286982768,2.083874944644011,-4.418605070404217,1.114136923767353,-0.2184789197177967,-0.2850842834530721,-2.146447396293637,-0.06943821592329473,0.4072030862756303
biasActivation=0,1,1
[BASIC:ACTIVATION]
"ActivationSigmoid"
"ActivationSigmoid"
"ActivationLinear"
