encog,BasicNetwork,java,3.0.0,1,1547766107852
[BASIC]
[BASIC:PARAMS]
[BASIC:NETWORK]
beginTraining=0
connectionLimit=0
contextTargetOffset=0,0,0
contextTargetSize=0,0,0
endTraining=2
hasContext=f
inputCount=10
layerCounts=1,30,11
layerFeedCounts=1,29,10
layerContextCount=0,0,0
layerIndex=0,1,31
output=0,0,0,0,0,0,0,0,0,0,0,0,0,0,0,0,0,0,0,0,0,0,0,0,0,0,0,0,0,0,1,0,0,0,0,0,0,0,0,0,0,1
outputCount=1
weightIndex=0,30,349
weights=-0.1877190885965582,-0.5644856065765845,0.6566644221881226,0.07431761271655198,-0.15901817416106742,-0.34436224430816686,-0.30642379915734974,0.3376117878868608,-0.26412335561131534,-0.4961003101249282,-0.5065530129383403,-0.23548884364430808,-0.6520594293405793,-0.11246287760948681,-0.4238513000343811,-0.26747653408372934,0.5808086492323498,-0.4977355244986065,0.06617918472710137,-0.08577877028148773,-0.3375932434439963,0.4606510719844586,0.19352225874072432,-0.05401484196631979,-0.12272607092685095,-0.16390415929304103,0.06380367584055684,-0.252246722163133,-0.022369556388009207,-0.1896779427650339,-0.5048070999655278,0.31539528457390814,0.11112785773120164,0.17960605970522597,-0.23527535313823383,-0.892947705249239,0.03677754650928475,0.4753165363957188,-0.4565018892883805,0.3830285723213573,0.31199424945884946,-0.41316523590080023,-0.7209353048215308,0.14517262213555154,-0.00991130397446866,0.24535259669990983,0.0861885484081602,0.3095103015398943,0.15498526470952334,0.46107032023728345,0.18917921884728645,0.2580070029775552,0.21107545852157888,-0.026653612402504374,0.3882741603833089,0.2258488770441854,-0.03360171125417769,0.0589668309463956,-0.454387893222586,-0.20834566010904076,0.03880959302873349,0.05038478136693354,-0.7901762110241798,0.5371267936242979,-0.16628944550711855,1.0395356000306726,0.7518521057619183,0.1521438848230098,1.5842636858357146,0.4061245672317215,-0.15244104605230552,1.5859837662821819,0.7763488678587382,-0.21533085957856557,0.07448079696064003,0.30939854201543665,-0.2190179013817735,-0.7099530563835216,-0.0723568588872075,0.8063284826059158,0.29550584714505806,-0.32736070855463023,-1.7574061720267369,1.0194781205788146,0.1491474189243112,-0.2966951496456666,0.04401097066263488,-0.05804461832567315,-0.13497315238121224,0.17133420503465208,0.2337895007788809,-0.3718648179683626,-0.49059678204466084,0.433946254580591,-0.061676610440086016,0.43715468243057204,-0.41626376810254057,0.1418320468056217,-0.1432545674917374,0.15938543764131186,-0.22392309307808705,-3.8858702613275997,0.21450656662697296,0.4712386397723517,0.3120580913505266,0.5860728767598922,0.4906424689463487,0.038818927200523115,-0.060667858826220146,-0.2542264004357866,0.34473916348528544,-0.023334029291483666,-0.032929484371149544,0.24825284172079384,0.19291102982754815,-0.07264501446505296,0.11661870493647349,-0.9521097500216822,-0.12915301165748266,-0.07251123092869795,-0.09627564223074492,0.6921042478403887,0.8234321486095965,-0.19543964706014214,-0.2189027691096187,-0.32600781086273567,-0.09278543758934364,-1.8513160984043022,0.6260984019271862,0.3540307257812247,-0.3366398058779343,-0.030869378993541568,-0.06388762783466635,-0.2614258170934157,-0.040428122143243136,0.10333340047229439,-0.38236052162027206,0.06772759689004336,-0.28776090154441697,0.556324857468507,-0.22056031898598713,0.35915281449058706,-0.03849651299615449,0.256537547125553,-0.4518199441191685,0.18564606599429057,-0.1664144662242575,-0.0022636665623344105,-0.07641147721644855,-0.15179373822085887,0.6045570256563385,0.22642861144854398,0.12347564907145767,0.04925185414121821,-0.45360505596311984,-0.3510652925803905,0.20884801562760655,-0.3224191057707745,-0.278592863311296,0.1195301999207889,-0.29039024859013357,0.4652738615158081,0.04879424477177713,0.06749645399440474,-0.3614184666013648,-0.11652795148371851,0.05551291709064666,-0.06943018597977735,-0.41527216682837576,-0.07227816781020277,-0.5330427756352334,0.05320750970778243,0.5238643875321847,-1.5741338174630548,-0.4074813151499784,0.004154400004515446,0.4991962708521277,-1.0714214295635274,0.057269862076139266,-1.426281933654976,-0.6741505364722215,0.45150217356335975,-0.24364386949465697,-1.1354396074829545,-0.46041304246495607,-0.28843566807500176,0.07718907388472004,0.24379436244997574,-0.05197191323584761,-0.338467547884926,0.1703991957366653,-0.28275312725511087,-0.252683962484686,0.19970308854539523,0.1913252830317975,-0.4082813502142467,-0.38876925419777186,-0.7975015607555952,0.7348022667514745,-0.23450258898382437,0.1873650714528084,-0.24283016709493743,0.09631612668378088,-1.1753284431813493,0.0873186914758003,0.09283506239607425,0.4309498758121197,0.10370213089788058,-0.2361656233270455,0.2610285137288542,-0.13823066366028622,-0.19314887058944938,0.4687422217619479,-0.3683086934411354,0.1260242770343578,-0.028313821790981894,-0.727145301319261,0.2254900410779233,0.17606087712616275,0.057427265803062066,0.06677996871388049,0.01630442304605352,0.2720787442046297,-0.3236922383184959,-0.23402298896810092,-0.17586768870009528,0.18509440096353205,0.7868035755444235,0.12488800964572608,-0.7314891239782113,-0.055657635937949895,0.5536359753500709,0.14824605006438799,0.5126828213192933,0.08612368541380647,0.25708835275739883,-0.49720916406141713,-0.5674500601981122,-0.5387193616044108,0.14033736051274434,-0.5598970715423073,0.5635104814495895,0.576028863397146,0.12635818382006297,0.2631194001653375,-0.20230260734630684,0.5683436147772184,0.3087057702556079,-0.3710867788384521,0.30274775123446757,0.17067302498859682,-0.332242518380168,-0.047991774480072046,-0.5377636924837068,0.3940949326943366,0.20793800128467174,-0.2525284199772459,0.011103434053153963,0.06637348579004487,0.01950019305528963,0.8331806024216591,0.1497762919590934,0.1540326758894124,0.024846924304178973,-0.3103686485303442,0.1797491879476792,-0.13274936264752252,-0.08956709781504504,-0.19736311874658213,1.0119441781570824,0.048452478763345325,-0.5579428233283871,0.3799537710108921,-0.07403684667412248,0.2675699015530861,-0.12031388460411795,-0.30350336947642265,-0.368484843485551,0.23562089549149368,0.5961114445576846,-0.3868832411525042,-0.4081451450911682,-0.4802488252119975,0.06416883369868245,2.1970431533990955,0.4271243354722829,0.4410252781905057,-0.7830939822743881,-0.5334331183740239,1.080807971925534,0.3560330787205138,0.7857642550665691,0.3566870047838277,0.9270460792062487,-0.1046995801618224,0.5546837498900715,-0.00534314888705264,0.26886477458225644,-0.5190211639103963,-0.2319693412702293,-0.07516439973950977,-0.6788152074731324,0.3711164602913981,-0.29009779608864006,-0.06098395140187865,0.332451622276709,-0.8291184258140689,-0.44057345947724363,-0.05869484412152922,0.20953916358105454,0.09976770455608731,-0.1095923672476217,0.8563254485383276,0.49150346755216767,0.10442462448051305,0.24088917746932326,0.45402967843002534,-0.4993122524733912,-0.2001345023228598,0.5552161906521267,-0.9074511605798218,-0.1934192390605676,-0.08478964279210864,0.35486513902574407,0.26491572229310556,-0.1639743602636347,-0.24571443382916744,0.22047728223113802,0.3200755049537893,-0.4739466677964499,0.37927395366193634,-0.42692053881513764,0.19184628114984437,-0.3387165208955444,-0.11629222952775675,0.029505004442596686,0.3096112664140545,0.5118530481495783,0.28654526486152465,-0.29607096173774056,0.12446806411773197,-0.5284546475510099,1.662010191730862,-0.8100195929099313,0.08525359075220237,-0.027376920816343048,-0.3878542839058814,-0.07544551939452672,-0.13428718023729433
biasActivation=0,1,1
[BASIC:ACTIVATION]
"ActivationSigmoid"
"ActivationTANH"
"ActivationLinear"
