encog,BasicNetwork,java,3.0.0,1,1547766075978
[BASIC]
[BASIC:PARAMS]
[BASIC:NETWORK]
beginTraining=0
connectionLimit=0
contextTargetOffset=0,0,0
contextTargetSize=0,0,0
endTraining=2
hasContext=f
inputCount=10
layerCounts=1,30,11
layerFeedCounts=1,29,10
layerContextCount=0,0,0
layerIndex=0,1,31
output=0,0,0,0,0,0,0,0,0,0,0,0,0,0,0,0,0,0,0,0,0,0,0,0,0,0,0,0,0,0,1,0,0,0,0,0,0,0,0,0,0,1
outputCount=1
weightIndex=0,30,349
weights=-0.1513319230458859,0.006083113361835341,0.1345121242553758,0.07388290965655195,-0.04218451198261386,-0.12731225692183362,0.21815785479163574,0.21192981769355082,-0.09017226821949548,-0.37615267504992833,-0.3824162753814849,-0.11653652104575823,-0.36760214160699256,-0.04643442725956973,-0.1648624527534024,-0.30911784944326126,0.15854153107938204,-0.37770752470452706,0.18224647172180095,0.03519599834120993,-0.20134626502160086,0.1422499912291356,0.2094594860903949,-0.16253114708505698,-0.07282039295810089,0.04136469351806529,0.028132648088620787,-0.15514157252501123,-0.11575305789198351,0.10295253899778203,0.27467666259682055,0.3594848389320954,-0.01835138188078403,0.0619349498599763,-0.12424563810457448,-0.5791246286623682,0.0471738676557327,0.34068918159259176,-0.44286527506945417,0.4912981839666134,0.03996832735944476,-0.21119026459856025,-0.45621905299925924,0.24266955812555602,0.09038141515293134,-0.2873258508076837,-0.050114146748852215,0.3361611227651913,-0.25739480948127236,0.49260393004530045,0.4172911749264163,0.2548117096156115,0.25695896267174045,-0.27971507974799326,0.39119465391059116,0.08374027206607369,0.19678898216820626,0.19729363159465677,-0.30801637016848027,-0.3560637501344137,-0.16943541900333456,0.032567715058472224,-0.4970521428592958,0.49546950474759144,0.4815723959468756,-0.25359520023586235,0.20098869554325097,0.04787967552704443,0.4848179714407749,-0.27066767836348116,-0.28933832547128835,0.2833266993059843,0.13918125230785036,0.12079045568017574,-0.30140873632364595,0.24248966646109346,-0.25159211905982987,0.41663005778840934,-0.09881196177519878,0.4005252886368822,0.03808578937933771,-0.34170229858139434,-0.4577137057076105,0.28100827677370377,-0.16872300077741234,-0.35311988409180284,-0.006224111277365121,0.33614217393245094,-0.2544139568313999,-0.5599224002062181,0.09925765621608165,-0.37228096559336277,-0.5238302470084283,0.3039850134370803,-0.08962985659621325,0.31297319181557215,-0.2769464419150741,0.31722368091493586,0.41104455902558723,-0.11628122789135845,0.09030430603985884,-0.5532699678011934,0.3646898394338166,0.3900288242758543,0.18931195902155548,0.526529648322952,0.18011450545710325,-0.21599096546227461,-0.4176143837247417,-0.24460046937803384,0.44442182841841116,0.08945653951905264,-0.0470999233328771,0.24902260839245582,0.25369795263458816,-0.03343407750316113,0.22883640225384771,-0.6037457654701619,-0.21504196537985543,-0.2045489072405968,-0.06874757907629853,0.23961596506833358,0.5828398096752704,-0.10837055850929975,-0.05507390642418301,-0.3056338652681434,-0.3414440560836459,0.22900392682105794,-0.21604215061355672,0.3042661007812246,-0.5388100710333914,-0.07603877671966894,-0.23544041908496918,-0.33514051628538083,-0.37526765883658897,0.34344136791898283,-0.3822597698784108,0.0408902211691731,-0.17198342176562664,0.15897397976832245,-0.28895091540930873,0.2598342562692064,-0.1372229097626545,0.43791435938963186,-0.6193694158426687,0.2866456612190749,-0.16850071934308175,0.11664906878215461,-0.1320491196552183,-0.09614098462096038,0.48434554257258855,0.20400033209638366,0.029034932233993616,0.3078164707431583,-0.5036468768193696,-0.44339701303242285,0.30942845778293965,-0.41976983676445456,-0.3193446150052387,0.24768869031617938,-0.39881633776775915,0.11605995984242651,0.04939658309959785,-0.3245976599516015,-0.409460480622868,-0.28792781750075747,-0.3043674656281692,0.05890581153786863,-0.3561767965005701,-0.27582761543746526,-0.4503893044159938,0.09650029118605935,0.3981768527758661,-0.45941877776750806,-0.41555065314102446,-0.13448917358040438,0.370774801843357,-0.33913708776258766,0.1784567290413189,-0.30511593603508796,-0.1385697201218013,0.3389183700379317,-0.3496069150739517,-0.28401409516767995,-0.47540074470315596,-0.29012332377222005,0.027216449521516306,0.15011606622665682,-0.18870399873640945,-0.3246136334366465,0.32895234797684947,-0.28350302320110565,-0.30646621863265383,-0.6054560827052177,0.06642910870676946,-0.4011745502741597,-0.4884379951135154,-0.33621464534221746,0.34260951265268125,-0.20437764869821307,0.5626444349495808,0.02506591141962025,0.09540806717285683,-0.5311857336185076,-0.09453536431820361,0.046219406520723066,0.4810203132328432,0.11992912024564631,-0.19510120327791128,0.36757491130955733,0.05833705925929531,0.22321613547657357,0.5080089083335858,-0.3689404929491359,0.12590593545896586,-0.11545372218885663,-0.4420049501351785,0.07225768636957625,0.08221196164826242,0.09427598581890653,0.38870945820615777,-0.09595728142894648,0.6667667589101746,-0.3241711089734961,-0.11561822062759677,-0.2523419715301928,0.3210475608708083,0.3218418201503625,0.22018701092091786,-0.49878780721350935,-0.07986309267422917,0.47815474257659174,0.2522907136537762,0.44365033633889706,0.31840839496853646,0.21743907964379036,-0.3336820549080749,-0.28227377943262566,0.17398999469804963,0.31878935826281884,0.06524538103178011,0.5987821480795925,0.29681287792207167,0.32790411941433656,0.1683549238088953,-0.3291955508214086,0.30189765903371857,0.0038558082439162505,-0.2757815021855432,0.2534363447995145,0.31053321077018803,-0.34895882479516804,-0.09193196129602679,-0.6380100865220873,0.3064571138280373,0.24358310633382887,0.04131290924025449,-0.10052376846883235,0.18975828317246576,-0.15366168159496485,0.48499861417948964,0.27983978193680986,0.2480495187787933,-0.3285990933259564,-0.3649172314975996,0.2572039823189258,-0.36355023421499943,-0.07962685758236096,-0.3279613724798449,0.542686670412994,0.09233773731969133,-0.0658027005509059,0.504813308392257,-0.020109623734778523,0.31898985202620445,0.33033146410590364,-0.19428152985659922,-0.04867652515249212,0.3945842678385716,0.5296464075552816,-0.1234388369270776,-0.39675187226767894,0.05584024647961172,0.08828145992875247,0.18220839502835023,-0.24389225612595417,-0.1102080180544888,0.030590311678776794,0.5660020328397473,0.2671320872155837,0.4074277436377729,-0.18223450631995122,0.610691066193476,0.038124018635449834,-0.10908690626927381,0.6038198998525954,-0.056223357550191255,0.16904275450533626,0.09341889481985255,-0.13224941170791216,-0.07795786694914554,-0.5579571389129623,0.3145412460182836,-0.37917750907080194,-0.18518624717814583,0.5003560291255057,-0.5693121198750957,-0.32535065511697625,0.04794187457747587,0.08258865797499719,0.0051348973261513275,-0.23116691430262162,0.2970272815697999,0.38185454445084355,0.2470448693311926,0.26852468017809084,0.13465609630991196,-0.5495024176111486,-0.38950017832287487,0.23220982664140963,-0.2480868234954294,0.3956932297569401,-0.34360119171313924,0.3108153768290597,0.2609021143106087,-0.17349460734506666,-0.09099216667174648,0.273790310633378,0.21435344216493932,-0.5192854751819929,0.3687046216885568,-0.42531840339099236,0.29842682247847363,-0.3390372110021175,-0.12708677403756174,-0.04916933991369987,-0.42786538284809816,0.2171136577323191,0.2014709956813767,-0.28306811598726056,0.15501833148116376,-0.2176200984130402,0.3791629333389338,-0.4727995601643793,0.4620339162665428,-0.10318625510368847,-0.23291404406022612,-0.1257178814615476,-0.13415902362885687
biasActivation=0,1,1
[BASIC:ACTIVATION]
"ActivationSigmoid"
"ActivationTANH"
"ActivationLinear"
