encog,BasicNetwork,java,3.0.0,1,1547765777960
[BASIC]
[BASIC:PARAMS]
[BASIC:NETWORK]
beginTraining=0
connectionLimit=0
contextTargetOffset=0,0,0
contextTargetSize=0,0,0
endTraining=2
hasContext=f
inputCount=10
layerCounts=1,25,11
layerFeedCounts=1,24,10
layerContextCount=0,0,0
layerIndex=0,1,26
output=0,0,0,0,0,0,0,0,0,0,0,0,0,0,0,0,0,0,0,0,0,0,0,0,0,1,0,0,0,0,0,0,0,0,0,0,1
outputCount=1
weightIndex=0,25,289
weights=-0.4433149553178274,-0.16253699785379355,0.13425524710958608,-0.4918518422515156,-0.5786424951466959,-0.4499634123199578,0.25258698690837683,-0.4917108584489987,-0.6252588890315443,0.12633780665866107,-0.33492562293797357,0.1253821028990839,0.2752843169565198,-0.2642374696382336,0.1477882582769898,-0.1669539245090284,-0.38459839402929125,-0.7389520660259721,-0.30704295344473526,0.661584539897168,-0.26696982760112276,-0.15165186982878373,-0.5284137075948957,-0.1533804591594339,-0.1883666241241231,-0.46099632766128196,-0.9185731297274067,-2.8314574340738994,-0.7754283915396213,0.46268021356785444,-0.31452900548340756,-1.6593365833983733,0.2832398841071176,-1.9272751133711976,-0.0871549892615715,0.13121407293029716,-0.11511530680653306,0.8155887728744189,-0.422099447629873,-0.21674118130846684,3.6063517833939813,-0.08631435235204811,-0.44100410143336305,0.27704851455805196,-0.0892838778149167,-4.583627246650411,0.31259771886684606,0.8589963401996746,2.3953885798531114,1.756277266519118,4.156770351786355,0.6623317050512985,-3.244489128351338,0.7370601342821834,-4.6465926718432815,2.7853646273137316,-1.3040379118312109,1.4781796913821295,-0.9071508026650975,-0.34638849296511254,-0.5010051137994447,0.25718891882171,-0.7138599089688986,0.2096119284555145,-0.786396076245958,0.6945640367775413,-0.47991913155238375,0.3790566128860363,0.32265712620578985,-1.3326182109602371,-0.33538439819692545,0.1088750968957749,-0.22488736411962748,-0.646056568773693,-1.1776087708866423,0.6733456476754047,-0.15375314778305707,-0.7947220927495006,0.9304188231192279,0.19446551499130993,-0.4447854774748174,-0.2716914467437315,0.2964533172259585,-0.5371925011659834,-0.10150523685617577,0.5625093008801049,-0.7776679238960484,-0.47870034881562873,-2.8947555495863355,-0.568284964250988,-0.19169444266273244,-0.6721258163024618,0.9664983317485887,14.55247407853049,1.570173105161706,0.24599294047306497,2.623796229629982,0.4969009665762497,0.02885054269428499,3.9670278621351995,7.650955797043064,0.1553438065373693,-0.31270251700796725,-0.6613021891798255,-1.7305624805740087,1.289632092103293,-0.4398646676111576,0.2479206552252392,-0.6468496309122213,-0.5602264068016777,-0.24410626043479935,0.011830141618334535,0.18191313172396892,-1.3402338223056407,0.004908065829531147,-0.6204483137278749,-0.5235085552011536,-0.23685396847391743,0.4872451137493273,-0.24922475693574547,0.24446046248797687,1.321905869952569,-0.7698292958429405,-0.5998734613541709,0.5119719843453665,-0.2604810918605224,-0.04712201692075306,0.258794044962284,0.15977598709383584,-0.712767857784356,-0.7408536853602458,1.3435832971113588,0.41451865234173635,0.6843689728103176,-0.4922099651964887,-0.2760788642178931,0.23463458285031416,-0.412413536385265,0.15069653906485966,0.7041780833628072,0.7947046019866413,-0.6759795125116415,-0.6507582212282214,0.07757578151597705,-0.7310961597503212,0.14618138124522104,0.06216617449668999,-0.11061126091669897,0.18538115311272113,0.19673764454247405,0.4727554534670126,-0.19831439103791035,1.2931267433029383,-0.08107470324901238,6.156112571243836,0.022024472261600467,-0.1907846726154596,0.4480633123496727,-1.56510287901116,0.029929109972380376,2.6094623002199686,-1.9980376962765292,0.3544698416839039,-0.3289473875032756,3.389252780450255,0.05932580610408933,-5.70014695865376,-1.16469645256199,-0.4497374924068838,-0.23401918726860071,0.8490144316677518,-1.0364641872155906,0.24812197027578237,-0.190567638255383,-0.39030051698793133,-0.1316368287523952,-0.39787739190204174,0.2578068445199994,0.5568343855610413,0.5639402548991205,-0.3720784117128931,0.3955314393301742,-0.2761258215242731,0.4735913464814646,-1.1535404853400104,0.02009298702330929,1.4913790800074833,0.23133266696144023,0.2986600117764768,-0.059032853093603906,-0.0034147788117471376,-0.3849803283472139,-0.38802796576400783,1.7268804308573285,-1.7828655088311878,-0.41208251436332016,-0.3686703404629193,-0.27808553523686885,-0.9787961590969374,0.3928088118553248,0.2268414085744374,-0.46813401247927566,-0.1675821058285929,0.05538529285226594,-0.02845509792462474,-0.2673516684947268,0.27977569610596315,-1.098328333595253,-0.39990426104606447,-0.8407783326330429,0.07609423963605098,0.5539894858752268,-0.8315834051691849,-0.11438563805194552,-0.5749854249912573,0.006548614888490019,0.27012275247757384,-4.625888416658828,-1.5987011059392031,0.39204941532805243,0.4623531179974514,0.22758756627322183,0.12624555171776802,-0.6258821980163175,1.2181554956020018,-1.220814656145365,1.5879139208516817,-0.9240411671218661,0.31427332685655635,-1.007508838899377,0.3550142839515243,-2.2741371587808317,-0.06231636374800169,0.03980028851683438,2.128953801112436,2.535957460820434,-1.0973213752013753,0.29719251582449474,-0.23934324710522228,-0.5451664401149336,6.464172402769601,0.38385695308865353,-0.5803497853136753,-0.0724389743188442,-0.08085938020429675,-1.1749425551169579,-1.3205620461096366,0.05513708040281515,-3.4161793080415235,-1.0458696526600608,8.909222558316925,1.759519810971444,0.038858743440589115,0.3533435254664185,-0.11089342520906376,-0.1449264676496029,-0.5310158723173015,-0.12796031717945733,-0.2903005295332908,0.00990499653681093,0.8614626066634308,0.0584172913514364,-1.826864680237072,-1.6906720620299946,0.24426267563798418,-0.26737072676640095,0.35970578263422814,-0.7384835021358184,-0.12618392963299332,-0.6269953771580391,-0.39177112105562323,0.6752492254440619,-0.6131095563051348,0.07845840507179815,0.14196875807107948,-4.3621655960087,0.062343369850423075,0.4213917159563599,0.017127383512891056,0.3555843426634467,-0.13709650556965408,2.233012154285948,-4.95712859762956,1.4119609159561535,-0.06376047194916375,-0.33116747610986585,-2.527233593088043,-0.06948959103550108,0.4073511163825948
biasActivation=0,1,1
[BASIC:ACTIVATION]
"ActivationSigmoid"
"ActivationSigmoid"
"ActivationLinear"
