encog,BasicNetwork,java,3.0.0,1,1547765773698
[BASIC]
[BASIC:PARAMS]
[BASIC:NETWORK]
beginTraining=0
connectionLimit=0
contextTargetOffset=0,0,0
contextTargetSize=0,0,0
endTraining=2
hasContext=f
inputCount=10
layerCounts=1,25,11
layerFeedCounts=1,24,10
layerContextCount=0,0,0
layerIndex=0,1,26
output=0,0,0,0,0,0,0,0,0,0,0,0,0,0,0,0,0,0,0,0,0,0,0,0,0,1,0,0,0,0,0,0,0,0,0,0,1
outputCount=1
weightIndex=0,25,289
weights=-0.43790450724457397,-0.16251669451273756,0.12143253033267293,-0.49254693007622635,-0.5786404951466958,-0.4499732891136447,0.252107512593245,-0.4916200128366012,-0.6252622395980744,0.11068814421631015,-0.3349874332347481,0.1253821028990839,0.23370784144436363,-0.2642381195582336,0.14092820814861834,-0.1669312892727608,-0.3850668492026553,-0.6611659498406246,-0.3066733667969649,0.5978020464581412,-0.2205637424590028,-0.15163105189243428,-0.5284255597473199,-0.08015219969599185,-0.1883703195242434,-0.4612102088231861,-0.9170898336910861,-2.8258666774861148,-0.7776045758974734,0.46111587676907656,-0.3145092387766789,-1.5295320232365381,0.28322118928130297,-1.9272106514171568,-0.08764269755328542,0.13126639693247572,-0.11493905829347904,1.1894259061405048,-0.42193296349267445,-0.21673854130846684,2.3645493695434503,-0.08085226629411464,-0.44170504024830265,0.27674026383409217,-0.07963038133966577,-3.0858732849806514,0.31260560161919265,0.8590680851537379,1.9579337948336284,1.756324249074956,4.036399240426342,0.5870205828081928,-3.061073678232605,0.7380500038360492,-4.516788111681447,2.7871505102285754,-1.2208913893432136,1.4225053586113896,-0.9071734379013653,-0.3688745394914337,-0.5011895118013027,0.2572022530885899,-0.7139215354759332,0.20947804326246824,-0.7861686005390277,0.6782005040100431,-0.48029293275251694,0.3791984942334256,0.32275005793614525,-1.3327271169343562,-0.3473650701774551,0.09791435618226878,-0.20575657381032034,-0.6095579733777818,-1.1775856879133861,0.6838798448033909,-0.12605781099680352,-0.9188345560162727,0.9249849125489673,0.19444940005781394,-0.4447930454748173,-0.271000716443408,0.10793660196957441,-0.5335623845369901,-0.08883211345481776,0.5629818431949364,-0.7770093969311161,-0.4787520454183181,-3.2203077657049035,-0.5682997913386469,-0.19096925199082046,-0.5415858322643329,0.9171714830725105,14.552451993031504,1.5700533957698812,0.2422092011979741,2.4866018726669887,0.4966295594849102,0.0290934075830158,3.961631094774771,7.6564914189202735,0.1553184717351489,-0.3127207282831288,-0.6614012937410738,-1.5689769395543747,0.6147436078598222,-0.4496745108341624,0.13495310819264048,-0.646662942912599,-0.5586068882159162,-0.24448006163493277,0.1298414406823498,0.18241593671066236,-1.3402369903056406,0.004944172169411683,-0.619166391190055,-0.5234659778984837,-0.25566902283704684,0.4480202710296749,-0.24921362585094547,0.25950782022176566,1.319820297365771,-0.7693986247491069,-0.5629440370366606,0.5119695843453664,-0.26052517129857533,-0.047099381684485436,0.25873924983586927,0.1606082515723944,-0.7351124849594278,-0.6228830493048575,1.2724617424617426,0.40293445657143523,0.6839383017164841,-0.49686539366642063,-0.27598750936097044,0.21772095238741287,-0.4123803859667307,-0.037396717837471734,0.7096927211717584,0.8315971358486114,-0.6757928245120192,-0.6507526357518401,0.07758607751597708,-0.7298558270000806,0.14690657191713302,0.06216934249668999,-0.11059545226641049,0.18538379311272113,0.19509273100634314,0.4728428955964601,-0.19893467475884222,1.2930871628006968,-0.08106260416421238,6.158920882624327,0.022006443401858013,-0.19544010108539162,0.44807764226967256,-1.564789229805697,0.029920668372380377,2.243185312494084,-2.065136448431137,-0.2726887804573791,0.1865086205414165,3.3929568903352907,0.05932737717306399,-5.671912015504284,-1.1646754212209345,-0.44974286040688377,-0.203088705131615,0.7925204622853175,-0.5043323496511183,0.24810321437178234,-0.19054455528212685,-0.39057722105822906,-0.12753164173860362,-0.3979043471131622,0.2552302633775192,0.5568268836090412,0.5639534300534808,-0.3505002649426537,0.39542944366289756,-0.2763259790628151,0.30862803167016317,-1.120970241393473,0.020104162177669607,1.357729554798178,0.23127845768377167,0.2986600485764768,-0.07126606911714588,-0.0033723604303122576,-0.38504830672689433,-0.42772540701487405,1.7424267242563178,-1.7869362791828525,-0.41181368364386384,-0.3686618117324797,-0.28119865532693766,-0.9733622485266769,0.3928222751963808,0.22680804822645592,-0.4681566477155433,-0.16762763474142375,0.05539931726239241,-0.028299930436951014,-0.2002529163401187,0.2797637802019632,-1.0946706262591468,-0.39992425994782443,-0.7208645512810391,0.07614616275210924,0.5545860696979551,-0.8318176189763885,-0.10705554821295185,-0.5824778370642572,-0.15666335428281836,0.26947534273473467,-4.553461931037953,-1.5930193237282664,0.3920783591883411,0.4390598600831058,0.21435861916556398,0.4835138091796071,-0.6258732669315176,0.6091147851263546,-0.8050737471587985,1.61716796779537,-0.7872683395026673,0.3139549630205757,-1.0055913242660703,0.28017000482475485,-2.2747076720232937,-0.1236974921390229,0.08981662927172325,2.1370417378882505,2.535959660820434,-1.097475927976479,0.2970896111121254,-0.23510352390309763,-0.5186390216763881,6.48279855761958,0.3838604586382931,-0.46731082138361707,-0.07113003578193645,-0.08084387025229671,-1.1700872577938186,-0.8162733323811796,0.03939875285192191,-3.0458317036369196,-0.9090968250408618,7.6054086633115086,1.4719631878653596,0.038301296060724715,0.3534792492699811,-0.10388523809933155,-0.026388402615161632,-0.5213623758420507,-0.12796251717945734,-0.2902565592366838,0.009366466006450051,0.6271263274122257,0.05840035357290223,-1.7394898355787065,-1.5908904170463278,0.2442654553710556,-0.26735726342534494,0.36549788051937865,-0.7385168624837998,-0.12609648750354577,-0.6271404500196132,-0.38667868552894274,0.5203402685302351,-0.6115746228804754,0.07643859112307996,0.14192910261459815,-4.355920202606841,0.06235683319147907,0.42137894315636,0.016898619014057415,0.34419562570080164,-0.13581458303183414,2.0643949157199843,-4.695713608171895,1.4846880844895451,-0.19430045598729265,-0.2860964482758953,-2.412783535025477,-0.06948164798756526,0.40722278768545234
biasActivation=0,1,1
[BASIC:ACTIVATION]
"ActivationSigmoid"
"ActivationSigmoid"
"ActivationLinear"
