encog,BasicNetwork,java,3.0.0,1,1547766089998
[BASIC]
[BASIC:PARAMS]
[BASIC:NETWORK]
beginTraining=0
connectionLimit=0
contextTargetOffset=0,0,0
contextTargetSize=0,0,0
endTraining=2
hasContext=f
inputCount=10
layerCounts=1,30,11
layerFeedCounts=1,29,10
layerContextCount=0,0,0
layerIndex=0,1,31
output=0,0,0,0,0,0,0,0,0,0,0,0,0,0,0,0,0,0,0,0,0,0,0,0,0,0,0,0,0,0,1,0,0,0,0,0,0,0,0,0,0,1
outputCount=1
weightIndex=0,30,349
weights=-0.18789846032588595,-0.38449274107071574,0.6556194028985757,0.07430572215655194,-0.1555260235788916,-0.3316828142393926,-0.16572240057470797,0.3375617550951508,-0.1591040095698954,-0.4961013469249282,-0.5067611572764849,-0.23542318216575825,-0.6521706908037925,-0.05514419242872173,-0.44186292870655447,-0.26736042444326114,0.5794069822376823,-0.4977086233373394,0.0664203432218009,-0.08548804890879004,-0.32253872902160075,0.4609722595939355,0.1942464195805503,-0.04776400772505697,-0.12271361873935091,-0.16432854670363073,0.06461172817822072,-0.2519037410626112,-0.02214544148238352,-0.1897199461222179,-0.5163960392974843,0.3513381592599611,-0.016087877919696018,0.16154332393997625,-0.07979122694042612,-0.9146944773312377,0.036528913876532704,0.35474152532174363,-0.48018367697875836,0.3829867429666135,0.3120351092090448,-0.41315298559856023,-0.7208998115930092,0.14432444324555602,-0.009886875472068664,0.24567765254987922,0.04980334627346332,0.3094814441050952,0.15522433790921208,0.41632564895018626,0.3091163323639163,0.25677146931641154,0.21108666267174048,-0.06509706750696836,0.390342869209791,0.10125647021034238,-0.031097551551762755,0.17504050547036293,-0.3517713700799741,-0.21116401267866677,-0.1326808056386704,0.05017823124356021,-0.7901237047408958,0.5423100894975913,0.2695533443169391,-0.017681447439330096,0.144934403703251,0.14106720463760453,0.9938068984415981,-0.05536078720518089,-0.1630010880155414,1.2300811009395778,-0.22884816914184705,-0.21598947304942417,-0.2561681283078991,0.2561485586091217,-0.21923615364338186,-0.19600076785683784,-0.028996804442984997,0.35528766854115096,0.06112695183508461,-0.3358784185505465,-1.7468178528796305,0.5992285399490798,0.14753357560810312,-0.3004880509318028,0.044031501222634876,0.0219219420231468,-0.14051916459107738,0.11301181289560022,0.09987123112757545,-0.37185744996836273,-0.4905686001334283,0.43567200654389,-0.06174860587621325,0.43715909181557205,-0.458380547320127,0.13310773967929432,-0.17564988626544992,-0.24427402801880735,-0.21135914053526783,-3.3013601135474144,0.22185236489274007,0.6042828947422798,0.2196566588941066,0.4117354138341098,0.4869259885599911,0.04286199887692537,-0.06070075522474173,-0.24664708934718585,0.34425136318403626,-0.023187662730947363,-0.0304479514928771,0.2483224587324558,0.1929228927945882,-0.07266447835276113,0.11328329233384775,-0.9517625226157618,-0.16425440791070345,-0.15443530551519674,-0.02457145910714652,0.2676845538712806,0.6723111973776702,-0.18566868355355284,-0.04531817052525949,-0.30723588077930114,-0.2390993562110948,-1.1404586693845655,0.18622075119179435,0.3540280857812247,-0.4640633019359068,-0.03080941421966893,-0.14124916110956914,-0.26670769207705824,-0.13163709486638453,0.15859219095263913,-0.38213279239591086,0.06826028536809532,-0.2602524101795786,0.5559654191815703,-0.2359821504710047,0.35429978639880644,-0.038491476950154487,0.2561723598760319,-0.4519032327002687,0.18554843255897893,-0.16630616332228176,-0.0027264226240953818,-0.07647175901521824,-0.1521242856385604,0.6045647839788386,0.22594782937638372,0.12342702115399362,0.047674667063158344,-0.4536267791631196,-0.3530960816500229,0.20833122912284366,-0.39450904037555484,-0.28175984983608665,0.28004725286043236,-0.2902272135021592,0.4637893817196744,0.05181446313044584,-0.0759598228294246,-0.3613365819900554,-0.103358510576193,0.012135426612153347,-0.059236580361044344,-0.4118769862866822,-0.09272308988150753,-0.47833064990607366,0.12488981703565939,0.5247264711508662,-0.8988161104705776,-0.32113555436017654,-0.21939084615747909,0.460973494374205,-0.7057482154668898,0.04749504037244952,-0.7734003128230719,-0.192762209632959,0.09503283775472435,-0.2454409867283516,-0.32946646600062707,-0.46013632455355585,-0.27339750033472,0.07712269952151633,0.2438412189610318,-0.03642343445301741,-0.3803030704143309,0.3150028889047152,-0.2829605458573557,-0.2526761327126539,0.17936519645527166,0.19135019062676947,-0.405390114946294,-0.3884418215178903,-0.6129082000143518,0.5338648997960999,-0.07964817086168177,0.28159924998323727,-0.21003328959831757,0.09638167967285682,-1.0509415531385073,-0.06391248330649162,0.1743271690649761,0.43102125073284314,0.10360987883939629,-0.2262143112162153,0.2730578525421573,-0.10037567298102726,-0.19963162673638538,0.4464232634188979,-0.36836090157413587,0.1264834714589658,-0.027498190431288653,-0.7270715741351784,0.10218786782849976,0.17595099742951242,0.09369544916850654,0.06638874086249735,0.01630392644605352,0.27246336171161334,-0.32366988397349605,-0.23574408000259672,-0.18161417895777676,0.19690761867506437,0.7873001202427783,0.11846627342091785,-0.5640345763109941,-0.18003558115079166,0.3744285255519917,0.14531817661345364,0.5437360564346283,0.2127948200570427,0.2832718606661058,-0.48419266865656513,-0.49145347278542334,-0.855994269199038,0.1367991582628188,-0.12572317364035424,0.5633921339995924,0.6243083928951166,0.18615301558354672,0.2630272008088954,-0.20661661980060864,0.5683569371587185,0.3073022594508385,-0.3759094270467932,0.30522268344911463,0.1707506652925561,-0.332233001357668,-0.04910299329602679,-0.5377920943345873,0.39346129620934933,0.18259428147213283,-0.21244068275457892,0.22196059018689893,0.07815628567366986,-0.04001017428123429,0.8330153713250895,0.20898800203254114,0.1523586504037933,0.0233127827697749,-0.309781876255731,0.15058054025722975,-0.2454078423160865,-0.0893825934812845,-0.1970905154798449,1.012842778342594,0.04977561783969133,-0.5585381282332098,0.4455921724933334,-0.07362552277637852,0.2677150207762044,0.11410231248248517,-0.3035446008565992,-0.1449436208975943,0.23394994181650958,0.5326151724935857,-0.3749264965730529,-0.38455240262077034,-0.48186182793688476,0.05997394922561382,0.27661834666129737,-0.18020013609675992,0.0824945875879112,-0.39252187489190843,0.07548892384133954,0.5566437527498818,0.35564879890817286,0.10992310395089827,-0.039908513613972726,0.92556776176505,-0.1047445062692738,0.5520015687235176,-0.004883706050191252,0.26743938375544835,-0.040967072803090074,-0.23751699220791217,-0.07576331092834551,-0.6765071084129624,0.35600030665828364,-0.2902285090708019,-0.06100034717814584,0.3367032244533716,-0.8297007483750958,-0.44062374401937615,-0.05814478479752413,0.20960063525499717,0.09978749132615135,-0.10956693930262164,0.6525134828977112,0.4910543412577658,0.13327171657804057,0.2675550133339388,0.1597845662790639,-0.5036276502607486,-0.273410796044475,0.33931026787435675,-0.9018480350922293,0.3731866673011931,-0.24450262273393925,0.3552387893290598,0.19851636448762094,-0.12844127495517868,-0.24654758971862142,0.22049872663337805,0.31072711224324334,-0.4740624408069928,0.37973652481355674,-0.27957820173886344,0.19214837733607365,-0.33862926256461745,-0.12318741397586577,0.0045379997373311606,-0.30047707139235125,0.5117336374489272,0.2864807956813767,-0.29606870073726055,0.21515790775201174,-0.3193720324438881,0.8116093997889557,-0.7879288651636235,0.08518656706974283,-0.034726976978688456,-0.38809109756022614,-0.07847292802442503,-0.13428438671479437
biasActivation=0,1,1
[BASIC:ACTIVATION]
"ActivationSigmoid"
"ActivationTANH"
"ActivationLinear"
