encog,BasicNetwork,java,3.0.0,1,1547766079783
[BASIC]
[BASIC:PARAMS]
[BASIC:NETWORK]
beginTraining=0
connectionLimit=0
contextTargetOffset=0,0,0
contextTargetSize=0,0,0
endTraining=2
hasContext=f
inputCount=10
layerCounts=1,30,11
layerFeedCounts=1,29,10
layerContextCount=0,0,0
layerIndex=0,1,31
output=0,0,0,0,0,0,0,0,0,0,0,0,0,0,0,0,0,0,0,0,0,0,0,0,0,0,0,0,0,0,1,0,0,0,0,0,0,0,0,0,0,1
outputCount=1
weightIndex=0,30,349
weights=-0.19333192304588595,-0.17943688663816465,0.5108321242553756,0.07388290965655195,-0.13368451198261389,-0.31931225692183357,-0.009842145208364263,0.3409298176935508,-0.16517226821949543,-0.5051526750499282,-0.5114162753814849,-0.3085365210457582,-0.6316021416069926,-0.04643442725956973,-0.42886245275340246,-0.2591178494432612,0.5175815310793821,-0.506707524704527,0.07124647172180092,-0.09380400165879003,-0.3303462650216008,0.4701475912291355,0.24245948609039486,-0.05153114708505698,-0.1228203929581009,-0.1441553064819347,0.07013264808862076,-0.23914157252501125,-0.031753057891983516,-0.20136746100221792,0.29167666259682057,0.3594848389320954,0.031648618119215974,0.1650599498599763,0.02125436189542552,-0.8431246286623683,0.0471738676557327,0.34068918159259176,-0.44286527506945417,0.3944231839666134,0.3442883273594447,-0.3941902645985602,-0.7202190529992593,0.20966955812555602,-0.0064935848470686645,-0.2668058508076836,0.05301085325114781,0.30316112276519125,0.10164519051872761,0.49260393004530045,0.31104117492641636,0.2548117096156115,0.20695896267174047,-0.29671507974799327,0.39119465391059116,0.06674027206607369,-0.08925101783179376,0.23329363159465674,-0.30801637016848027,-0.2270637501344137,-0.20843541900333457,-0.009432284941527782,-0.8013721428592957,0.5284695047475915,0.28957239594687567,-0.34734520023586235,0.15098869554325095,-0.09660032447295556,0.47372037144077483,-0.006667678363481172,-0.18733832547128834,0.6682866993059844,-0.07981874769214962,-0.12352954431982421,-0.28440873632364594,0.2594896664610935,-0.20159211905982988,0.5126300577884093,0.04668803822480122,0.36452528863688227,0.03808578937933771,-0.34170229858139434,-1.4253553057076105,0.3230082767737037,0.1355969992225876,-0.3031198840918028,0.04377588872263488,0.07214217393245095,-0.1512889568313999,-0.33940240020621815,0.06325765621608163,-0.37228096559336277,-0.49083024700842826,0.3429850134370803,-0.047629856596213244,0.4419731918155721,-0.39294644191507405,0.20122368091493587,0.21124935902558728,-0.3072812278913584,-0.16981569396014115,-0.7761675678011936,0.2036498394338166,0.5510688242758541,0.1563119590215555,0.414029648322952,-0.07092549454289673,0.04800903453772537,-0.058574383724741726,-0.24460046937803387,0.3412968284184112,-0.01679346048094737,-0.0470999233328771,0.24902260839245582,0.22069795263458816,-0.07243407750316112,0.12571140225384775,-0.9080657654701618,-0.16504196537985544,-0.15454890724059678,-0.018747579076298523,0.3333659650683336,0.6859648096752704,-0.20524555850929976,-0.05507390642418301,-0.3056338652681434,-0.3024440560836459,0.2710039268210579,0.08827784938644323,0.35426610078122467,-0.48881007103339136,-0.026038776719668935,-0.14169041908496918,-0.23826551628538084,-0.4112676588365889,0.3104413679189828,-0.3822597698784108,0.07989022116917309,-0.07823342176562664,0.4632939797683224,-0.23895091540930868,0.3535842562692064,-0.03409790976265449,0.40739435938963187,-0.4966194158426688,0.18977066121907493,-0.16850071934308175,-0.012350931217845381,-0.09304911965521827,-0.05414098462096037,0.6133455425725886,0.22100033209638367,0.12278493223399362,0.04381647074315834,-0.45364687681936955,-0.34652201303242286,0.21255345778293966,-0.41976983676445456,-0.28634461500523867,0.2866886903161794,-0.2956913377677592,0.42037995984242643,0.06639658309959785,-0.2555976599516015,-0.35946048062286795,-0.15892781750075746,-0.0341274656281692,-0.037969188462131376,-0.38917679650057013,-0.24282761543746526,-0.4503893044159938,0.13850029118605936,0.5271768527758661,-0.49241877776750803,-0.32180065314102446,-0.13448917358040435,0.46452480184335704,-0.19465708776258764,0.06745672904131887,-0.6690135360350878,-0.22256972012180123,0.1872383700379317,-0.23260691507395165,-0.2450140951676799,-0.45840074470315595,-0.27312332377222004,0.07721644952151632,0.24386606622665682,-0.04320399873640941,-0.36061363343664643,0.32895234797684947,-0.28350302320110565,-0.26746621863265385,-0.5139560827052178,0.19542910870676944,-0.3841745502741597,-0.3853129951135154,-0.6002146453422175,0.35960951265268126,-0.05887764869821306,0.4126444349495809,-0.007934088580379747,0.09540806717285683,-0.9939057336185074,-0.0525353643182036,0.17521940652072304,0.4310203132328432,0.1029291202456463,-0.2451012032779113,0.27382491130955733,-0.0871629407407047,0.2026961354765735,0.49150890833358585,-0.3689404929491359,0.12590593545896583,-0.2092037221888566,-0.7463249501351784,0.08925768636957625,0.17596196164826242,0.09427598581890653,0.21166945820615773,0.016542718571053522,0.6127667589101746,-0.3241711089734961,-0.24461822062759672,-0.21334197153019277,0.12904756087080832,0.6261618201503624,0.11706201092091785,-0.5407878072135093,-0.18298809267422916,0.3750297425765918,0.1857907136537762,0.554650336338897,0.24940839496853645,0.2864390796437904,-0.46568205490807496,-0.10523377943262566,-0.7936516053019501,0.13578935826281882,-0.11775461896821991,0.5657821480795925,0.11381287792207163,0.27340411941433657,0.2714799238088953,-0.2001955508214086,0.5658976590337186,0.3081758082439162,-0.3726565021855432,0.2924363447995145,0.32753321077018804,-0.33195882479516803,-0.04193196129602679,-0.5348850865220873,0.4189571138280373,0.20758310633382887,0.008312909240254494,0.06051623153116764,0.1897582831724658,-0.05053668159496484,0.7893186141794896,0.22983978193680987,0.1542995187787933,0.03044090667404359,-0.3343972314975996,0.1509539823189258,-0.26667523421499945,-0.07962685758236096,-0.1989613724798449,1.0054066704129938,0.05033773731969132,-0.5285227005509058,0.454813308392257,-0.07010962373477853,0.2689898520262044,0.3133314641059036,-0.3005315298565992,-0.012676525152492115,0.3255842678385716,0.5296464075552816,-0.1624388369270776,-0.4905018722676789,-0.24847975352038826,0.18203145992875244,0.11116839502835024,-0.1407672561259542,0.0817919819455112,0.06409031167877681,0.6480020328397472,0.3926520872155837,0.3384277436377729,0.06208549368004879,0.01489586619347616,1.0057656186354498,-0.09208690626927381,0.5708198998525954,-0.0062233575501912525,0.2627927545053363,0.3794588948198525,-0.22912441170791215,-0.07795786694914553,-0.6869571389129623,0.35354124601828363,-0.28542750907080194,-0.05618624717814583,0.3503560291255058,-0.8333121198750958,-0.42222565511697624,-0.058308125422524136,0.16862865797499718,0.10825989732615134,-0.10216691430262163,0.5610272815697999,0.5108545444508436,0.1407948693311926,0.26852468017809084,0.13465609630991193,-0.5165024176111486,-0.2926251783228749,0.13020982664140962,-0.8438820234954293,0.3956932297569401,-0.24672619171313925,0.36081537682905973,0.29690211431060864,-0.14049460734506666,-0.25499216667174646,0.290790310633378,0.30810344216493935,-0.4692854751819928,0.3857046216885568,-0.3190684033909924,0.20155182247847364,-0.3390372110021175,-0.12708677403756174,-0.010169339913699874,-0.3247403828480982,0.521433657732319,0.28547099568137674,-0.2941081159872605,0.23901833148116372,-0.3036600984130402,0.48316293333893384,-0.8548795601643793,0.07995391626654282,-0.037186255103688455,-0.38891404406022606,-0.0712178814615476,-0.13415902362885684
biasActivation=0,1,1
[BASIC:ACTIVATION]
"ActivationSigmoid"
"ActivationTANH"
"ActivationLinear"
