encog,BasicNetwork,java,3.0.0,1,1547765764993
[BASIC]
[BASIC:PARAMS]
[BASIC:NETWORK]
beginTraining=0
connectionLimit=0
contextTargetOffset=0,0,0
contextTargetSize=0,0,0
endTraining=2
hasContext=f
inputCount=10
layerCounts=1,25,11
layerFeedCounts=1,24,10
layerContextCount=0,0,0
layerIndex=0,1,26
output=0,0,0,0,0,0,0,0,0,0,0,0,0,0,0,0,0,0,0,0,0,0,0,0,0,1,0,0,0,0,0,0,0,0,0,0,1
outputCount=1
weightIndex=0,25,289
weights=-0.41385330164599554,-0.16248829754816435,0.12106679519414974,-0.49252920803467554,-0.5772903270315194,-0.44981610385332865,0.25207392151231384,-0.49109840892661527,-0.6253099342743466,0.11023960422868428,-0.33506063218245224,0.12538747089908392,0.2300981267611787,-0.2642325831206636,0.13969517605910592,-0.1669211692727608,-0.38541554632266933,-0.4756908786408752,-0.30613665340111634,0.39284445892948366,-0.19109047700347348,-0.15178476789552056,-0.5284513487521201,-0.07392908926948859,-0.18838096898088344,-0.4613982922910157,-0.4691213114093683,-2.833953642983337,-0.8589569004218309,0.4803241842536099,-0.3144119194237119,-1.4419638047513303,0.28866392697760807,-1.9242725080656369,0.11036210392795705,0.13107865017002066,-0.1148981637682438,1.170081343304484,-0.42264481564338685,-0.21675206361282684,0.6385496770305787,-0.08689213009941288,-0.43530240669766956,0.2766834773114028,-0.07883060839845527,-2.4093014605408527,0.3126223617884597,0.8590922991974571,1.4590225295662995,1.7879075397556379,4.049149304139846,0.4674601607853219,-2.897246288789327,0.7381976326291657,-4.276680269344762,2.0899938743500677,-0.4153306255025927,0.5323972496532469,-0.907189893264916,-0.4537575440033581,-0.5013431439919084,0.25720505500859,-0.713276994569361,0.19466005563897976,-0.785883250628866,0.6726140141833309,-0.48044704422821183,0.4065039093957415,0.32280296029883465,-1.3332351992859905,-0.4322480746893795,0.09653719565034466,0.004654296881620074,-0.5657353505343148,-1.1779643782760019,0.6630877837032632,-0.10101309059413682,-0.9494852084016064,0.9245926939160438,0.1943415535196178,-0.44481702606613444,-0.2710961289323848,0.09175607720758587,-0.5832739708039779,-0.07356343525771437,0.5123791940274428,-0.7719318182350795,-0.47874434205476796,-2.835459726802395,-0.5646606865901059,-0.19091570962813087,0.28296157758459495,0.6656012287403426,14.650364455888013,1.6007071630003753,0.24018504356607553,2.48290789544572,0.4951156993376127,0.029500713788397595,3.5574488960732933,6.79034835105306,0.15528974580588167,-0.31271294537112887,-0.6620054080295137,-0.6228873992668648,0.5857393218045416,-0.44807656484476666,0.07060662880314475,-0.6466585554282825,-0.5483731154883016,-0.2445279585068821,0.19907622340472023,0.18277389413984832,-1.3402392344656404,0.003503849244987625,-0.6377162034328061,-0.523476506218484,-0.22434925306656167,0.3775803931042477,-0.2492372771349135,0.30789621971698994,1.2066366254662564,-0.8161420695195859,-0.5619567690624948,0.5119673843453664,-0.2605722279012648,-0.04698553491370747,0.2587249621149093,0.16056525331815394,-0.5934916879776908,-0.10978461459588382,1.2702253053702188,0.4019698890419825,0.31446487992835204,-0.49722359525560633,-0.27595990119170344,0.13283794787548855,-0.41243220460763114,-0.11188108115182183,0.7131516182958652,0.342142723986829,-0.6758125634793872,-0.6500766117995037,0.07737442216886238,-0.5963379448164168,0.1469434985998226,0.06216861449668999,-0.10963583423859775,0.18540850498472114,0.19504852938747566,0.47331732469228194,-0.1454213347160636,1.2928369535015813,-0.08107616405653273,6.227670033807248,0.002112620100121383,-0.19580050267457758,0.44806125268424174,-1.5643570228288575,0.030434156263714388,2.214047402634742,-2.1072443674293515,-0.8496740390994711,0.2980848371166188,2.0100036523552673,0.05873225018554504,-4.371662787950355,-1.1646701412209346,-0.44975322040688376,-0.20194517372533577,0.3123244596822329,-0.47302096520034825,0.24813001067975035,-0.1923677858991267,-0.3906360959164382,-0.12587723418799546,-0.39785939962598127,0.2550870724273913,0.5568211536890412,0.5639843312784182,-0.3207656907147371,0.39577498452755877,-0.27634359719248913,0.22037888753467738,-0.5054380631374474,0.020132683248364,1.332684834395511,0.23124789922089808,0.2986809844679327,-0.0752824188023475,-0.0033358166177042577,-0.3856524210153343,-0.4289314875070584,0.32996026238993437,-0.8021595658578481,-0.4118226905271291,-0.3686511535966312,-0.2806902630180349,-0.9742610406903629,0.39282212360598084,0.2267901937240559,-0.46811391276374764,-0.16732737849624624,0.05548321300929724,-0.028239634631791168,-0.04704832031765692,0.2798247297725254,-1.0980173697928595,-0.39990587327744276,-0.2519228621666504,0.0812018075402473,0.5549440271271411,-0.8320666346160966,-0.10652956814786671,-0.589170541850045,-0.25247832217902383,0.2703353743496545,-3.9465923009831503,-1.5698929317186556,0.05773314668073572,0.38455280201456826,0.03700793431442087,0.5296136855138799,-0.6258323247506548,-0.09493880749735072,-0.7537215393421438,1.3134103166801123,-0.1911143245633263,0.3126197439548793,-1.011398883864415,-0.21330418123075492,-2.2744986668924723,-0.12939136476370153,0.1231298401006595,1.9729094979449293,2.5368417014012743,-1.0939394878654858,0.11913137023704531,-0.27944605064698647,-0.26099642724473715,6.5627451387697375,0.38381470437220944,-0.358998000311997,-0.07092690966392794,-0.08081327795124064,-0.9337133464879854,-0.7907774529124968,0.021157323725348176,-1.4059648695746123,-0.21440280889720698,4.131408357204473,0.5327399469466089,0.03827957066380813,0.32418119591730143,-0.07592761156388043,-0.016433007202706382,-0.520617973506715,-0.12838417448313064,-0.29020537342811215,0.010285518787712146,0.6778412563751572,0.05848694554419292,-2.098678622773341,-0.46173990395880005,0.24614594823332558,-0.26735208817122813,0.36592823353658005,-0.7385458562979728,-0.12608645533427856,-0.6274590217300531,-0.38647872261093447,0.1258005026496236,-0.5546333489009673,0.030084082482164362,0.14194742188753523,-3.2240383808006134,0.062332870435947714,0.42136858315636,0.019788393506499358,0.29580722620557737,-0.1374731723466713,0.8576672237612619,-1.2386192238029472,0.44771534050320205,-0.2231490433994505,-0.2848203472789637,-0.7863112608938314,-0.07030930436961262,0.40714056141794736
biasActivation=0,1,1
[BASIC:ACTIVATION]
"ActivationSigmoid"
"ActivationSigmoid"
"ActivationLinear"
