encog,BasicNetwork,java,3.0.0,1,1547765767110
[BASIC]
[BASIC:PARAMS]
[BASIC:NETWORK]
beginTraining=0
connectionLimit=0
contextTargetOffset=0,0,0
contextTargetSize=0,0,0
endTraining=2
hasContext=f
inputCount=10
layerCounts=1,25,11
layerFeedCounts=1,24,10
layerContextCount=0,0,0
layerIndex=0,1,26
output=0,0,0,0,0,0,0,0,0,0,0,0,0,0,0,0,0,0,0,0,0,0,0,0,0,1,0,0,0,0,0,0,0,0,0,0,1
outputCount=1
weightIndex=0,25,289
weights=-0.41628645109340884,-0.1625194479666988,0.12107718999788156,-0.4927019846960256,-0.5784922610014354,-0.44992772143493315,0.25198721975953814,-0.49127118558796534,-0.625345301324125,0.11025487760566027,-0.3350686401824522,0.12538747089908392,0.23011415486898915,-0.26426373353919796,0.1396804003099467,-0.1669264492727608,-0.3854466967412037,-0.4958723934175004,-0.30629738271862683,0.4492655442071525,-0.19809794741202388,-0.1518622801049681,-0.5284566287521202,-0.07408981858699895,-0.18838560898088344,-0.4613052776396786,-0.7281481583839438,-2.8045362785563808,-0.7879303083109694,0.46962696082562594,-0.31445888884988926,-1.6093573609145702,0.28623077753019477,-1.9252973267576665,-0.0201380789915431,0.13136476407954797,-0.11490280376824381,1.189765142355321,-0.4217999720852571,-0.21673926930846685,1.1206431187807093,-0.08266057617562493,-0.44812958036755574,0.27668283731140275,-0.07883104839845527,-2.359083939448372,0.3126276417884597,0.8590926620720004,1.4750307056944711,1.7677260249790128,3.999006069321171,0.46761373964758496,-2.895528790138945,0.7382685756738131,-4.339683943884634,2.396407757098079,-0.946443489812626,0.5888183349309157,-0.9071851179013656,-0.43357602922673294,-0.501311993573374,0.2572112409925899,-0.7133821979033746,0.2040611956717849,-0.7861765990865499,0.6696864127677343,-0.48034518712484936,0.39506960335970737,0.32280824029883465,-1.3328178611019919,-0.4120665599127543,0.09661470785979218,-0.014936357728681592,-0.5680972639470152,-1.178012788785487,0.6614140497564122,-0.10344624004155016,-0.9491918599439225,0.9246934554125128,0.19437385027355428,-0.44480472547481714,-0.27095121984071857,0.09191680652509623,-0.533130735985303,-0.07443603379135717,0.5333132780685431,-0.7789392886436298,-0.4787444774183182,-3.2445728973609564,-0.5668374534513904,-0.19091106962813087,-0.21710914242645296,0.667963142153043,14.59224169333133,1.5977338302518211,0.24020385428147736,2.4829452759479613,0.502123169746163,0.02942610341519819,3.830590135070903,7.4305954868644095,0.15528774580588167,-0.31272027836312877,-0.6617011205994346,-0.8451954325346948,0.5860295149143724,-0.44894916337840957,0.09154071284424511,-0.6466908521822192,-0.550806264935715,-0.24451503122710946,0.19833331538595492,0.18277149829984832,-1.3402416303056404,0.00461940014965161,-0.6081282843702729,-0.5234721062184838,-0.2315869343440086,0.4126785939697144,-0.2492402101269135,0.30088874930843956,1.2647593880229369,-0.784386750975364,-0.5619614090624949,0.5119700243453664,-0.2605768679012647,-0.04710269944448543,0.25873026193186927,0.16058709148486283,-0.694574506470235,-0.13643275181598127,1.2703860346877294,0.40197525704198245,0.48185843609159185,-0.49722095525560633,-0.27596254119170344,0.15301946265211372,-0.4124010541890968,-0.10890774840326803,0.7130842161016029,0.40026548654350946,-0.6758194087879875,-0.6502373411170139,0.07766836454367813,-0.629268746200195,0.1469560685198226,0.06217125449668999,-0.1099401216686768,0.18539593506472113,0.19503573508311567,0.47290266070504167,-0.166355418757164,1.293681797059711,-0.08107103358807467,6.16942959514378,0.013546926136155478,-0.19579566267457757,0.44806098791370463,-1.5644626781865238,0.030140807806030488,2.2145538233547817,-2.106597157861903,-0.7915512765427907,0.30032580637641637,2.7966504206683833,0.0586059449467339,-5.078455211262508,-1.1646754212209345,-0.44974794040688376,-0.20183738235702003,0.37044722223891335,-0.4733214475675859,0.24812464267975035,-0.191491438100499,-0.3906334559164382,-0.12603796350550583,-0.3978647676259812,0.2550920640177912,0.5568337236090414,0.5639767865078811,-0.3280344698956747,0.3954816360698748,-0.2763427873206171,0.22119899635853166,-0.5256195779140725,0.0201340310360376,1.3351179838429248,0.23125647018937165,0.29868019287753267,-0.07540497477617375,-0.0033428566177042575,-0.38534813358525516,-0.42890033708852404,0.34843139247457044,-0.9750523697902964,-0.41181756005867104,-0.3686866251189549,-0.2808509923355454,-0.9734161971322332,0.3928249151963808,0.2267948337240559,-0.4681163086037476,-0.16701693935549694,0.055478520017297236,-0.028292797035402575,-0.06789284239670404,0.27978734927028415,-1.102471249539348,-0.39992234828396217,-0.25893033257520076,0.08035696398211768,0.554941631287141,-0.8319217255244303,-0.10661210405065918,-0.5867373924026316,-0.2519023999745235,0.2694627758160116,-4.225387616852641,-1.6068351918879278,0.2800411799485656,0.39156027242311864,0.03944108376183421,0.5291679407026205,-0.6258349647506548,0.07245474866588901,-0.7554264247944436,1.459132173105481,-0.1981217949718767,0.31292403138495845,-1.0094901393291362,-0.15518141867407442,-2.274819603975179,-0.12923063544619115,0.12414636836996384,2.0451989567104834,2.5359653536026467,-1.0979697761578817,0.3414394035048752,-0.27220836936953957,-0.43463209391524,6.669138848057241,0.38383474239587806,-0.45045331771935565,-0.07093110966392795,-0.08082584787124067,-0.9901344317656543,-0.7913738066105461,0.03820396005609195,-1.5684575951742983,-0.23458432367383214,4.63147907721552,0.8391538296946202,0.038282580490421,0.3429646453296165,-0.07677245512201006,-0.01641823145354716,-0.5206203693467151,-0.127966836299132,-0.2902144531352481,-0.005974260822823511,0.6178090327875015,0.058351673596802156,-2.14153082489862,-0.9438333457089306,0.24746449934133172,-0.26736219142534484,0.36594080345658,-0.7385402189382001,-0.12608181533427856,-0.6273944282221803,-0.38647872261093447,0.18392326520630412,-0.6318236382300749,0.03691873493037166,0.14194451711699818,-3.8088311103612944,0.06235219319147907,0.42137386315636,0.01742648009379902,0.30281469661412774,-0.13717982388898736,1.062223809040543,-1.7207126655530776,0.5080055025415711,-0.22301454893274233,-0.2848629014365423,-1.2684047026439618,-0.06897995537845,0.40716066207843726
biasActivation=0,1,1
[BASIC:ACTIVATION]
"ActivationSigmoid"
"ActivationSigmoid"
"ActivationLinear"
