encog,BasicNetwork,java,3.0.0,1,1547619862500
[BASIC]
[BASIC:PARAMS]
[BASIC:NETWORK]
beginTraining=0
connectionLimit=0
contextTargetOffset=0,0,0
contextTargetSize=0,0,0
endTraining=2
hasContext=f
inputCount=10
layerCounts=1,16,11
layerFeedCounts=1,15,10
layerContextCount=0,0,0
layerIndex=0,1,17
output=0,0,0,0,0,0,0,0,0,0,0,0,0,0,0,0,1,0,0,0,0,0,0,0,0,0,0,1
outputCount=1
weightIndex=0,16,181
weights=-1.061996599068177,-1.777208971339987,1.1008342134212825,-0.9961717428004473,-0.3586787007329598,0.010593885071363409,-1.7136672471509486,0.5074830714428964,-2.7130395716473066,0.21796051839792732,1.6119842504225905,-0.2548845440548434,-0.41738907913643175,-0.07093579108399857,0.4939515430352472,0.07262802490248182,0.1581234239961148,-0.14751893047596332,-1.6496171816229173,0.38131745217853563,-0.3533375424268748,-0.3448166123767499,-2.787362567712693,0.21133333104016586,-0.9127082080643778,0.05793998956962615,-0.22636533894738686,-0.3496295691415573,0.2151209492074796,-0.3960364479912654,-0.0016366038596448743,0.042676126028916225,0.0742438565800411,0.7183477647951623,-0.02826323173592422,0.02872019257912395,-0.038066052271259414,-0.06658368995265031,0.10263553539854195,-0.2610378706511428,-0.08858041524668223,-0.12483408093149953,-0.246565215502855,0.050581355974690656,1.8725740154908703,0.11933100450094876,0.4024502278368997,0.016582515316029733,0.08633633910067362,0.056330386943697616,0.2253621245613562,-1.0600099007867425,-0.10746711475287173,0.3061187555500682,0.04852819030011196,-2.7351266907156235,-0.12282672585489934,-1.715835818736326,-0.028263668593358594,-0.09043471404605946,-0.04991598416118594,0.48475079687323386,13.241887843242912,-0.08426444897246142,10.538176032637413,0.15970489610932642,10.642510739576489,-0.10399427434102493,0.19185105349386178,0.03760740501567923,0.20804233146684603,2.8989802155652864,0.7039739940117019,-10.689865235566758,-0.1608574109116327,0.8898314118631021,2.948464077664302,-4.2944247575270715,-0.17506959672783137,-5.723420073623479,0.561540271145484,-0.26004677043684554,0.14935196556415306,0.28223513855808613,-1.9932815733329226,-0.038345071452041926,0.1791608764712441,0.020543608327396552,-1.8546867734878196,-0.032341989578527325,-0.9311471628052985,0.019124138217873603,-0.10762814624549191,-0.3613675025569303,0.8223573960522265,14.46129884392944,0.03441312721638967,-8.64774772249775,0.2037607876643354,37.07485889167809,-0.2947826081148111,13.231277625064655,0.023150441243888487,0.16753604009171386,0.10171740847209479,-0.00277303290731859,-1.3495938679105641,-0.03725773497845553,-0.1631173023704298,-0.01896811871153828,-2.2014515853245378,-0.005855117432329511,-0.242301542781736,-0.033189422732890245,-0.24014160541864324,1.1102414592971677,0.33081938219949597,-0.5220473640713643,0.3831681646492897,0.0638333836234788,-0.1510532308575905,-0.22218712343443392,0.1686839502995958,-0.3413287793919804,0.12614602629503754,-0.46524265565529443,0.06638823609004853,-0.13689798384641558,-0.12144752126923415,0.12009980628366303,0.22338371516505787,0.026390613354442954,2.0796442413430665,0.06271684534366538,0.4241524987896468,0.09254686587090301,-0.32681762237119666,-0.20731351543707574,-0.1731518443864359,0.7335837418044416,2.13526678420003,3.171851252250138,0.19914720879905107,1.6716472510483387,-0.0213906978610064,-0.31291922285646706,-0.09019689790737834,-0.038308938010318365,0.8456557537948166,0.798158255843546,-0.653066615246443,-0.11626734760603594,0.6974185295122315,5.496509684264619,8.893147874913002,0.21482792969889625,-4.647358355810084,0.16722104521242043,-1.026055157915215,0.045703520284075164,0.553293548158441,2.825153069765333,0.077365125976316,0.8599542253732951,-0.27643324041856926,-1.3122531729050784,-0.1235185955468924,-0.9450487686409712,0.5411595856636895,-0.34985044737331356,0.22947608596509997,-0.6782663500347315,12.003026954261202,0.48723181094527324,-1.2811758390340722,0.5348839712125523,-9.377399181254901,12.812918590271172,109.251664624091,0.39216895346617653,0.16980682097188557
biasActivation=0,1,1
[BASIC:ACTIVATION]
"ActivationSigmoid"
"ActivationSigmoid"
"ActivationLinear"
