encog,BasicNetwork,java,3.0.0,1,1547619863465
[BASIC]
[BASIC:PARAMS]
[BASIC:NETWORK]
beginTraining=0
connectionLimit=0
contextTargetOffset=0,0,0
contextTargetSize=0,0,0
endTraining=2
hasContext=f
inputCount=10
layerCounts=1,16,11
layerFeedCounts=1,15,10
layerContextCount=0,0,0
layerIndex=0,1,17
output=0,0,0,0,0,0,0,0,0,0,0,0,0,0,0,0,1,0,0,0,0,0,0,0,0,0,0,1
outputCount=1
weightIndex=0,16,181
weights=-1.1321161859856739,-1.7809256102621274,1.0973163845465665,-1.0106313566619443,-0.35227730793957307,0.005205025260008442,-1.83360106836375,0.8745611885483044,-2.8018221664896124,0.21667001877218414,1.6388826808919978,-0.2548905853688392,0.02300799767358319,-0.0716352961363909,-0.05591015406206837,0.07261027024614065,0.15440678507397446,0.12741191807269447,-1.6633567720305251,0.38140996328262916,-0.3530711104470855,-0.3442195722195667,-2.789019057682746,0.21150345204562243,-0.9389453484216346,0.05592655394816907,-0.22264870002524653,-0.3977534681476721,0.21511116545738004,-0.15776507929491113,-0.0016366038596448743,0.04294255800870554,0.07484089673722426,0.7250131247683084,-0.028204161942362915,0.13679500532770397,-0.05355941409155464,-0.06536222159337393,0.10635217432068227,-0.2613503025159276,-0.08998482503959059,-0.12491885474325064,-0.2466577266069485,0.05037405036455761,1.8742305054609234,0.11791995283328993,0.4780131920657993,0.01656145112944952,0.08281851022595763,0.05503988731795445,0.22512841159129732,-1.0582671728885462,-0.10669979065107849,0.3061187555500682,0.053480280179851965,-2.739897381829376,-0.11876289705204189,-1.7420729590935828,-0.03155797232987191,-0.07973079395029534,-0.04499932475102663,0.48493358010490073,16.047483310176897,-0.08356130106827271,17.105688951619133,0.19117729699883465,11.63100943186787,-0.07729338744921678,0.4834453019753848,0.03713645808395147,0.2069163027243357,10.074629913920901,0.7331522738301464,-12.997894246649377,-0.15594075150147338,0.8904934549643968,6.60129359155729,-4.76785002607602,-0.1764806483954902,-8.142019408228624,0.561574126845542,-0.2617900687901317,0.12989333172279635,0.2821539882212601,-1.991324241003771,-0.03834431112354299,0.17916087647124412,0.025495698207136555,-1.89425679386173,0.001365032043893509,-0.9573843031625553,0.003630776397578381,-0.1039115073233516,-0.36112475617124157,0.8222993084338667,7.495732760266623,0.03722571883314452,-2.4671297418847793,0.20399450063439428,-4.306755649287508,-0.29543537615373056,10.419047938719316,0.12745211508705273,0.16624554046597068,0.10156182161521025,-0.0024606010425338287,-1.363333458318172,-0.03701358640061223,-0.16285087039064047,-0.01837107855435512,-2.241021605698448,0.0058487095198999405,-0.31786450701063557,-0.03383800967358949,-0.2400875822044472,1.1160434340037304,0.32822794734022526,-0.5555957254399059,0.38314896139087923,0.06306605952168556,-0.15112521197222006,-0.22161195330594324,0.16851382929413922,-0.3150916390347236,0.1261492371342196,-0.4664641240145708,0.07010487501218884,-0.13721041571120032,-0.21806680201063378,0.11985565770581973,0.22335841234910772,0.02618330774430991,2.0798439531932367,0.06222689684795052,0.49971546301854625,0.0910977115236036,-0.33694896953037873,-0.2960961102793817,-0.17283941252165116,0.7698321911250677,2.1795229229328386,3.1756522689207807,0.19935451440918409,1.343437674058974,-0.020900749365291522,-0.3237035027127099,-0.09008016571421307,-0.03832530540387525,6.568450180288308,0.7994480299992293,9.2620415744501,-0.11626197960603592,0.6992908003206069,5.623967363815107,12.561605840613955,0.21597498665269227,60.21984164418991,-0.12192035079898483,-1.0262624635253481,0.04198688136193484,0.5536059800232256,3.103416598300564,0.0776092745541593,0.866318718403209,-0.2762259348084362,-1.2917016463212112,-0.12345952575333109,-0.9372840871444764,0.5388492425499266,-0.3498326927169724,0.3591999879064585,-0.6297425294302278,-11.760128536328013,0.4843913166339077,-1.2811758390340722,0.5326535414161543,-13.376018363868942,12.038957039592246,-49.94833537590898,0.40108453896625673,0.1697452126965279
biasActivation=0,1,1
[BASIC:ACTIVATION]
"ActivationSigmoid"
"ActivationSigmoid"
"ActivationLinear"
