encog,BasicNetwork,java,3.0.0,1,1547619873037
[BASIC]
[BASIC:PARAMS]
[BASIC:NETWORK]
beginTraining=0
connectionLimit=0
contextTargetOffset=0,0,0
contextTargetSize=0,0,0
endTraining=2
hasContext=f
inputCount=10
layerCounts=1,16,11
layerFeedCounts=1,15,10
layerContextCount=0,0,0
layerIndex=0,1,17
output=0,0,0,0,0,0,0,0,0,0,0,0,0,0,0,0,1,0,0,0,0,0,0,0,0,0,0,1
outputCount=1
weightIndex=0,16,181
weights=-1.2694042845482199,-1.7809456026919428,1.1058235713470512,-1.0569532932576036,0.21001802009211512,-0.10209253562182725,-2.213954876746153,0.8834883352568089,-2.935229343885111,0.2166893850557429,1.661647948269127,-0.2548580524559195,-0.39067842237235695,-0.07181695421178529,0.3372055205870876,0.07265168442682327,0.15391833615861222,0.3645673460341803,-1.6615885947076043,0.3816007920835057,-0.3533586855636353,-0.24396729029059935,-2.791081244823164,0.1979176344381686,-1.1556967330376418,0.05517171187548194,-0.22260464302118632,-0.44294916114462135,0.21592086111447084,0.5358531940120606,-0.001465826170676896,0.04007186831510049,0.0803305716242471,0.7190745019073842,-0.02979222569678549,-0.08901826880362763,-0.0503900355212185,-0.06657145336565982,0.09927663890931683,-0.2621976484123742,-0.0931481169263717,-0.12879228729193648,-0.24578823551025158,0.044791860626894046,1.8765918729240698,0.12577905117488128,0.7233835768674148,0.016471872086190817,0.08557292763196139,0.05509431295662573,0.2273097234369942,-1.05354529841919,0.08484023719243895,-0.049348967268234685,0.03992127273603108,-2.751739793744771,-0.14139710027582492,-1.7659452725525147,-0.026730984637454838,-0.07866312603235552,-0.028601613916180938,0.4861109562571234,-1.1977091275982321,-0.09092103225939259,16.766689063733118,2.7691619615004908,12.379378103485033,-0.04654353274730526,6.149267766758599,0.03715274954924279,0.20692606304745614,-133.9570871689511,-0.2108136447345285,2.139678930734151,-0.4703605775116719,0.9446033751283978,3.0797773283208523,-2.7321428778193986,-0.1697708475530707,5.800862951997536,-0.14080654970850512,-0.25975364843921495,0.10769348989474041,0.28351659482719965,-1.9862318903137608,-0.038032403554150815,0.17772233098335738,0.0773731867245483,-1.9506648375663487,-0.1287004869729792,-1.0342285553551323,0.004561336972263715,-0.10409451861792478,-0.35931209798892133,0.8205405297416011,1.2089201783511607,0.45924902039727855,-4.944175303775952,0.08613358943476786,-3.396143117896263,-0.29426650179969377,-0.035635274111530675,0.13643431450779556,0.16614920622898,0.10154366116429418,0.00013563531457190148,-1.362731452376153,-0.03331560813801877,-0.16332175338901272,-0.00804134017895186,-2.386327894658382,-0.04688082990002021,-0.906251270752165,-0.03383935250150839,-0.24011865996988346,1.127666199818337,0.3097081457304189,-0.5723229021386286,0.37882923722561096,0.06676112306670519,-0.15241048284372907,-0.2214634519964748,0.19647258738424067,-0.2891910152375782,0.12614021252546392,-0.46675444206861055,0.06454448926781504,-0.13837312674424374,-0.43569201967801996,0.10896087674110207,0.2242120142949536,0.020478742921014783,2.0812003276594093,0.07539893285263324,0.5139751381250811,0.08534474880861023,-0.3204273309484091,-0.29820947095284095,-0.17198764109909603,0.8460311902593722,5.642932852766646,2.3892872134042284,0.2019603543512748,1.4265224823878124,-0.03318388389817646,-0.3204357240016304,0.09078974872015426,-0.03841782533064644,5.040267649620388,0.7962678503349767,18.28547205483779,-0.11620095488620588,0.7093271335958282,5.371220877250311,27.498330759366223,0.21736856192350124,-57.417525952750466,-0.26101327857449547,-1.0268469740583042,0.043856662462854606,0.6054002735255939,3.243058582392286,0.08130725281675275,0.8026023209087839,-0.2708986798827265,-1.2870016582967212,-0.12378852526997243,-0.9313793624562909,0.5459314327084269,-0.3499921738267511,0.43914899541049895,-0.5906127521408109,13.256273738623136,0.4842879057487449,-1.2772676177627154,0.5721958866133021,-256.3975400739834,11.167456189398688,-230.45438521838997,0.14452520881795403,0.16974110555516222
biasActivation=0,1,1
[BASIC:ACTIVATION]
"ActivationSigmoid"
"ActivationSigmoid"
"ActivationLinear"
