encog,BasicNetwork,java,3.0.0,1,1547619867312
[BASIC]
[BASIC:PARAMS]
[BASIC:NETWORK]
beginTraining=0
connectionLimit=0
contextTargetOffset=0,0,0
contextTargetSize=0,0,0
endTraining=2
hasContext=f
inputCount=10
layerCounts=1,16,11
layerFeedCounts=1,15,10
layerContextCount=0,0,0
layerIndex=0,1,17
output=0,0,0,0,0,0,0,0,0,0,0,0,0,0,0,0,1,0,0,0,0,0,0,0,0,0,0,1
outputCount=1
weightIndex=0,16,181
weights=-1.2585038170702088,-1.781550065814469,1.098530826583324,-1.0531684087166273,0.11518458536983031,-0.07744595097015809,-2.186420392926116,0.883523930368878,-2.9243288764071003,0.21646331728664497,1.6423802739578586,-0.2549014669688391,-0.10454393944537482,-0.0718718289588574,0.0009896616754641735,0.07259858741810389,0.15393245118603818,0.38356116980968374,-1.6660739981637005,0.3813621538251753,-0.35298961887191305,-0.3287160912402053,-2.7963512319195907,0.20632239587534726,-0.9819983356879999,0.05569630130586025,-0.22195356784618453,-0.43687485603611503,0.2157889737155485,0.39746207273175643,-0.0016528337241782248,0.043570452748677435,0.08676957839458765,0.7176117812620136,-0.028778920160860217,-0.011156817384817268,-0.05052596291870325,-0.06484618202256279,0.10454475672136684,-0.2621881055857824,-0.09244965009171056,-0.12447145308626988,-0.24692809212653108,0.04623214701130643,1.8818056320687877,0.1255894295786265,0.5371471950639627,0.016475833930543044,0.0806041461638419,0.05506152382672274,0.22732427323723264,-1.05823283318607,-0.11080598564923927,0.3655833467063838,0.11239128637325307,-2.7610140436314854,-0.14085099007861124,-1.7465046894643927,-0.026318673846936813,-0.07720648791190224,-0.029290891551690908,0.48611933274317065,17.348747088973674,-0.092493073877292,30.573167099023472,2.4771483283415447,11.686620744680976,-0.05743163687984313,0.539056614788489,0.03721800450697373,0.20691333550918944,-81.80534798692076,0.3785737262128982,-8.752257550720069,-0.2998626947861293,0.8929184005022842,2.343050434278288,-3.909533242938583,-0.17216581255271787,3.2612942913552017,0.5244504693441513,-0.25722581413831186,0.10825557967000105,0.2835311446274383,-1.999149852267317,-0.03836156112332082,0.17959036489625083,0.09644108075701957,-2.075210448654198,-0.12497466755533751,-0.9779169430924732,0.005245520445958852,-0.10321637514428958,-0.35980409527326696,0.8213071637375591,2.3567914946985153,0.06135678727962987,-4.092333732193622,0.15973802956773595,-3.107981064548428,-0.2942452841950582,0.02008637628156571,0.10094875105721857,0.16594120187144987,0.10153823183770543,-0.0006683064516485429,-1.367216855832249,-0.037636442343685385,-0.16267313050259136,-0.006442396896991744,-2.4219752604909153,-0.05776499839661978,-0.4418571103377676,-0.033791395591907025,-0.24008130201684216,1.1266757445296642,0.31336193908558635,-0.5665295388252156,0.38307157004781933,0.061381185397572015,-0.15280632522978674,-0.22142335151625453,0.1736948854644144,-0.3115957017693932,0.1261337141623965,-0.467353494618297,0.06829745741287342,-0.13804821878105517,-0.38763954701124764,0.12174176477139478,0.2230721576786741,0.021341701562517766,2.082307723590545,0.06699417141545459,0.5097837623426981,0.08520749898079095,-0.3392855891783452,-0.31390566737356324,-0.17200160945179632,0.8287116164725031,2.6092085234651603,3.2886796128566407,0.20419612059097622,1.3128993500402664,-0.023563762124088946,-0.3216843089920284,-0.08351871012987556,-0.03833311167811214,7.591267257870405,0.7962469507733114,4.227907728500368,-0.11626018216603591,0.7000931501832627,5.372105914302081,12.750873270022078,0.2173802955701936,-26.998047936750538,-0.2641730432989097,-1.0268174823471992,0.04275567983438193,0.5622837197901431,3.1179303266444887,0.07698641861108611,0.8802937383382562,-0.27138432862664413,-1.2917283502240524,-0.12378058728385741,-0.9314688092289133,0.5444982620440525,-0.3498374195640973,0.43963651124919845,-0.5904040527769829,-80.68256391996864,0.48409934149453004,-1.2734536798532208,0.5738542550427792,-73.46124407058701,11.410137705265475,35.08238462409102,0.26218294497962935,0.16978149099590162
biasActivation=0,1,1
[BASIC:ACTIVATION]
"ActivationSigmoid"
"ActivationSigmoid"
"ActivationLinear"
