encog,BasicNetwork,java,3.0.0,1,1547619869228
[BASIC]
[BASIC:PARAMS]
[BASIC:NETWORK]
beginTraining=0
connectionLimit=0
contextTargetOffset=0,0,0
contextTargetSize=0,0,0
endTraining=2
hasContext=f
inputCount=10
layerCounts=1,16,11
layerFeedCounts=1,15,10
layerContextCount=0,0,0
layerIndex=0,1,17
output=0,0,0,0,0,0,0,0,0,0,0,0,0,0,0,0,1,0,0,0,0,0,0,0,0,0,0,1
outputCount=1
weightIndex=0,16,181
weights=-1.2620958072983162,-1.7812863747019447,1.1007179861470442,-1.0544156275458312,0.020548647988135813,-0.09761776576911733,-2.1967653247830645,0.9357705180706023,-2.927920866635207,0.21655487670071585,1.6486792935013725,-0.25488199008918394,-0.03889576145491197,-0.07184845670327106,0.28041283150909024,0.07262195967369023,0.15387170642860426,0.3640382500927656,-1.6643994418768304,0.3814705727005123,-0.3532012019472692,-0.3211194410455569,-2.801432839870033,0.19440970252231377,-1.2470024661189276,0.05565546635951626,-0.22221725895870867,-0.43832591902636747,0.21587198966976223,0.4547491117130687,-0.0015480736812000038,0.04204896760963643,0.08438884152116281,0.7185111477064148,-0.03021515344512833,-0.20418716009178572,-0.05053540264418034,-0.06560561242663232,0.10295131019537808,-0.2621888741552717,-0.09273878061117027,-0.12692628534223424,-0.24618010514252775,0.04543979470052468,1.8868872400192307,0.1272120561526751,0.7594100206399209,0.016476024722728622,0.08279130572756212,0.055000779069288824,0.22722574009571414,-1.056356145588416,0.06307915259910427,0.1085857918425765,0.1010556880691166,-2.7756490745287614,-0.14552415461187118,-1.7784544544179675,-0.02634586025631082,-0.07796591831597177,-0.02873196706826449,0.4861289334663706,2.996463952973672,-0.09117784067855439,15.44052736881883,2.7365801002638674,44.384853166274624,-0.0488415604181633,13.05595063268656,0.03714235453316424,0.20690609093148812,-96.35398517285141,-0.17368376685489995,-5.069443741333042,-0.49170119076040736,0.832541616388276,2.586146155519513,-3.583860619350787,-0.17158811111462924,3.20944896551389,0.33335401088290595,-0.2580362755230365,0.10680451667974855,0.28343261148591975,-1.9943271301611316,-0.038225012177061285,0.17851943552488111,0.08810918757069146,-2.1965992489285644,-0.1421266164990671,-1.0699322661587678,0.005127915800488154,-0.10348006625681369,-0.35974335051583306,0.8207824017644872,1.8816298785719199,0.3450448222127476,-3.7010022274278307,0.14853693323171743,-3.1103004157926875,-0.29419873945984787,0.09808914176236933,0.10903960624393372,0.16603276128552075,0.10153535044864943,-0.00014354447857677698,-1.365542299545379,-0.03518161008772097,-0.16304498097876144,-0.008823133770416602,-2.5848872803138643,-0.05876674638783344,-1.2050690059788383,-0.033800082162739116,-0.24010077889649747,1.1271088066231383,0.31310901874129976,-0.5689277030058222,0.3821798290591274,0.06446546198711692,-0.15251929580349613,-0.22143734140447477,0.18560757881744788,-0.2847989683617978,0.12613453722134052,-0.4670898035057729,0.06821916055387629,-0.13823042779948286,-0.4075308799908699,0.11433496235624445,0.22382014466267744,0.02054934925173603,2.0840721707955594,0.07890686476848804,0.5539643364890251,0.08523468539016497,-0.3329865696348309,-0.30831815004400753,-0.1720034263928523,0.8356183293126496,3.588067708590667,3.007243995192733,0.2033694758432593,1.3870528426187398,-0.024752946028510334,-0.32163732553386853,-0.017838355602808612,-0.038356483933698456,5.7295852900748505,0.796243039566568,-2.833081563442674,-0.11626906376603593,0.7143946890262444,5.371273768965492,-45.81579631307028,0.21737129346753536,-406.1261869447505,-0.2595760642104634,-1.026818222532852,0.042580734932972236,0.5843349044465659,3.1627603997612255,0.07944125086705053,0.8439486960869423,-0.2722109733743611,-1.2886241183955127,-0.12384851407842698,-0.9318965740858213,0.5444199651850552,-0.3498735982756442,0.439048899298738,-0.590635610496948,-16.707485033463463,0.48424140952803824,-1.2770867444926233,0.5710018071478683,136.80245992601658,11.19276500837908,132.58019439893133,0.146797886439049,0.16975280431378958
biasActivation=0,1,1
[BASIC:ACTIVATION]
"ActivationSigmoid"
"ActivationSigmoid"
"ActivationLinear"
