encog,BasicNetwork,java,3.0.0,1,1547619856465
[BASIC]
[BASIC:PARAMS]
[BASIC:NETWORK]
beginTraining=0
connectionLimit=0
contextTargetOffset=0,0,0
contextTargetSize=0,0,0
endTraining=2
hasContext=f
inputCount=10
layerCounts=1,16,11
layerFeedCounts=1,15,10
layerContextCount=0,0,0
layerIndex=0,1,17
output=0,0,0,0,0,0,0,0,0,0,0,0,0,0,0,0,1,0,0,0,0,0,0,0,0,0,0,1
outputCount=1
weightIndex=0,16,181
weights=-0.6399815645964948,-0.6656279175770046,0.1425732999842609,-0.8349901821027335,-0.3655581755531472,0.015566390272496811,-0.869135211227226,-0.30603251421467725,-0.937121856671374,0.10251510350080151,0.19901318716990424,-0.2518744015225561,0.07184227504972901,-0.06551782319402691,-0.11381434749965341,0.06797910691922246,0.2128110958751434,0.8832177236182275,-2.8007080800391555,0.4118623280086712,0.08711817761372967,-0.42271888191148993,-7.065883250308052,0.1928423307077461,-4.148205842081641,0.05138244798913669,0.10611745595633539,-0.24865568308773103,0.23094318611010836,-3.6613209244742797,0.006006042440208883,0.23579196787320145,0.06544305266163224,-7.889011007340537,-0.09878720229006271,-4.237186654912515,-0.14819216293187476,0.26589910495107194,0.17567257638056388,-0.2600633595896341,-0.03844355391552314,-0.2296919538896908,-0.25801903368026374,0.09631061178236956,0.7876403058892992,0.11711581052209609,1.492646045399379,0.01962874729089903,-0.5359933766779859,0.009203912094028523,0.4810878074588596,-2.869947046903906,-0.16297848438606524,0.7713126986750861,0.13876907544088737,-7.291102324432598,-0.18905190837898028,-4.951333452753589,-0.0987248390618284,0.44076244517754093,-0.17164215742137992,0.5089174989526726,-1.183441517544549,0.06941341606543223,1.8501178022462157,0.12056614601158784,-2.844518690102069,-0.20145163099550972,-1.1685458131030668,0.0336927911645063,0.2156490183863909,1.0086848101760486,-0.011438468869285203,-0.15105124049789564,-0.2757909772695407,0.8788444949107682,1.6098736742722652,-0.011858384728348478,1.6677297827272703,0.27116986255337916,0.5573870025227404,-0.2173124485378226,0.22705114241764993,0.37102877845305265,-2.989288545171511,-0.021255069463054263,0.6647115553488911,0.14171092695297197,-7.572582899031952,-0.25874432572192446,-4.1666447968225615,-0.17375906267148075,0.22485464865823038,-0.3955044613449814,0.856675841468502,-0.5963983122331008,0.043527046905817005,2.4796587554315304,0.18458259110689368,-2.3677261926838677,-0.319508837993555,-1.3889396889879002,-0.17664286284839048,0.18404590429917173,0.11266784892512893,-0.012260464913467325,-2.9771829845974547,-0.1666486187774259,-0.037903093421891965,-0.07172373605205351,-7.919347710868669,-0.2110213770802184,-3.8862302098359343,-0.04132635928144002,-0.19939924078587798,0.6634295579619893,0.33890236674807406,-0.18430907953909043,0.38136072487804196,0.008947466110298327,-0.13302414289909198,-0.2142377441875194,0.1311864446015466,0.2682712202964115,0.12587534573075607,-0.6496861137190446,0.018271081799307674,-0.1367128009337965,0.7858939047488606,-0.03248869140207816,0.22187751548460471,0.22643750322073422,1.86384103507999,0.9159908255914369,2.20997383573438,0.28543006676025734,-0.6798243602988614,0.41654881191083654,-0.15418109607608874,-1.0574275334764025,1.340642850536368,2.6016389659667922,0.18386185016789797,-3.2695329132280455,-0.04607697512680204,-1.2196011047037796,-0.09834636683760882,-0.036837677237270855,1.7795999912674925,0.6464327832904602,-0.20516220488805,-0.16632937871385778,0.65403869538608,0.7700852643409275,0.20768860294264374,0.11609895954677993,-0.0472528296458776,0.21485119929271648,-1.0116226338749112,-0.0038543650229963915,0.5565180770969324,-0.3433750859414686,0.023870071036489412,0.9472837913213656,-0.3266102568424862,-2.413029609829142,-0.1490250074374436,-1.705533226135646,0.09654964142988567,-0.3476704093900542,0.5546362416829196,0.22329738966718884,-0.6312160613000689,0.48652626588982,0.3691177895641281,0.3378791768074988,-2.310863222493259,0.9580104024572264,-1.1350484225305264,0.058774957767842397,0.16494696533679398
biasActivation=0,1,1
[BASIC:ACTIVATION]
"ActivationSigmoid"
"ActivationSigmoid"
"ActivationLinear"
