encog,BasicNetwork,java,3.0.0,1,1547619857444
[BASIC]
[BASIC:PARAMS]
[BASIC:NETWORK]
beginTraining=0
connectionLimit=0
contextTargetOffset=0,0,0
contextTargetSize=0,0,0
endTraining=2
hasContext=f
inputCount=10
layerCounts=1,16,11
layerFeedCounts=1,15,10
layerContextCount=0,0,0
layerIndex=0,1,17
output=0,0,0,0,0,0,0,0,0,0,0,0,0,0,0,0,1,0,0,0,0,0,0,0,0,0,0,1
outputCount=1
weightIndex=0,16,181
weights=-0.7126492609535431,-0.8749108830853036,0.35185626549255994,-0.9076578784597817,-0.39079001456601115,0.007547835059696815,-1.0784181767355252,-0.3312643532275412,-1.1464048221796732,0.1487019815265295,0.4082961526782033,-0.260635456735356,0.28112524055802807,-0.1381855195510752,-0.1390461865125174,0.06925001635922247,0.15783105633440744,0.8105500272611792,-2.574353254739191,0.39214229247587123,-0.36659720911676286,-0.3941019145144416,-4.54315972379635,0.21132466392861007,-2.639689774400133,0.05416666854913669,-0.026900752757761194,0.04052555241082462,0.22574343089730836,-3.554862685122103,-0.0008411921197911156,0.0019871462420223904,0.07537949967449624,-5.366287480828834,-0.07877305927719871,-3.7133963536342134,-0.12296032391901075,0.13288089623697538,0.2653585369161363,-0.2608122443768342,-0.07511260794125112,-0.1570242575326425,-0.2482314384674638,0.058962831649505575,2.588247824255673,0.1264962912020321,0.5394247136352549,0.017789256730899032,-0.3118426114088302,0.029218055106892515,0.4084201111018113,-1.9940013779762318,-0.16344743317326527,0.5620297331667871,0.14870552245375138,-4.768378797920896,-0.131411176501932,-3.4428173850720816,-0.0734930000489644,0.30774423646344434,-0.15162801440851592,0.49002309993980864,-0.6596512162662478,0.03730603785256826,3.6507253206125894,0.13050259302445183,-2.407858020309001,-0.14381089911846143,-0.6447555118247656,0.036990281724506295,0.21492242894639085,1.2179677756843477,0.01048857014357879,-0.33292287288619465,-0.2537612950566767,0.8916794485363683,1.6973085217080428,0.15129882339102935,-0.06814684638476493,0.08929823016508008,0.5608124730827403,-0.2899801448948709,0.15438344606060164,0.34579693944018863,-2.7629337198715467,-0.03778249090305426,0.0619766146849898,0.12072094048103597,-5.049859372520249,-0.23873018270906043,-2.658128729141054,-0.10109136631443245,0.09183643994413382,-0.39065462613218144,0.8377814424556381,-0.07260801095479938,0.03778835890581701,4.280266273797904,0.1975505703196937,-1.9310655228907998,-0.29949469498069103,-0.8651493877095991,-0.10397516649134218,0.18360461629917174,0.09889858090592893,-0.010103676726331324,-2.75082815929749,-0.10900788690037759,-0.19544315825886854,-0.04310676865500522,-5.396624184356966,-0.2040720218674184,-3.362439908557633,-0.03802886872144002,-0.21800193304981397,1.2661644986258906,0.33269081676912243,-0.28991595513318696,0.3833533248780419,0.0636488775120263,-0.145992122111892,-0.21050765297471938,0.1583036702414826,-0.2555190809818898,0.12656503373075603,-0.6034992356933166,0.27656664814175635,-0.1332626457209965,0.6040222723605615,0.044098108954970135,0.2234249394846047,0.11887589643808592,2.1615817270088717,0.050794122048965246,0.6212128640185687,0.21276237040320908,-0.6334792131771975,0.3913169728979725,-0.16411754308895274,-0.5336372321981014,1.3585321144757487,3.122396295187811,0.19379829718076197,-2.9722698389679763,-0.026062832113938054,-0.6958108034254784,-0.09556214627760883,-0.03563970667727086,3.515476620379528,0.7288496493939592,-0.7289525061663512,-0.11283277602432182,0.675957442321376,0.9441846081337534,0.5716580890011707,0.1765501205859556,-0.4985998147820989,0.1421835029356682,-1.0305170328877755,0.010113160389867603,0.5530679218841322,0.1804152153368327,0.0815108029135377,0.8661015615883173,-0.2892624767096222,-2.115766535569073,-0.1290108644245796,-1.1538801109565449,0.48865834050310863,-0.34647243883005413,0.5294044026700556,0.20440299065432485,-0.10742576002176749,0.47688392635702004,0.2879355598310798,0.6556489967833424,-2.5178950749017632,2.693887031569262,-0.6837014373943051,0.20187093987864424,0.16773118589679398
biasActivation=0,1,1
[BASIC:ACTIVATION]
"ActivationSigmoid"
"ActivationSigmoid"
"ActivationLinear"
