encog,BasicNetwork,java,3.0.0,1,1547619855462
[BASIC]
[BASIC:PARAMS]
[BASIC:NETWORK]
beginTraining=0
connectionLimit=0
contextTargetOffset=0,0,0
contextTargetSize=0,0,0
endTraining=2
hasContext=f
inputCount=10
layerCounts=1,16,11
layerFeedCounts=1,15,10
layerContextCount=0,0,0
layerIndex=0,1,17
output=0,0,0,0,0,0,0,0,0,0,0,0,0,0,0,0,1,0,0,0,0,0,0,0,0,0,0,1
outputCount=1
weightIndex=0,16,181
weights=-0.7122983645964948,-0.5693299335770046,0.049510131984260936,-0.9073069821027334,-0.3655581755531471,0.01556639027249681,-0.772837227227226,-0.30603251421467725,-0.840823872671374,0.034086303500801524,0.10595001916990426,-0.2518744015225561,-0.02122089295027098,-0.1339466231940269,-0.11381434749965341,-0.0004496930807775315,0.015736151875143434,0.9602001236182275,-3.2435410689692046,0.39099154400867114,0.09540249162332962,-0.31310382399148995,-2.769273884963144,0.347272446547746,-2.852399243601768,0.05138244798913669,0.19918062395633537,-0.539463849897331,0.30792558611010834,-3.8099225986118808,0.04384924244020888,0.12256345459320148,0.09637883666163222,-3.592401641995628,-0.04516563429006272,-3.5499039120261138,-0.15980216293187477,0.3589622729510719,0.23178419238056386,-0.22774975958963412,-0.019905569915523145,-0.2102087538896908,-0.23425903368026374,0.02341555386236959,-0.019778542522348428,-0.037314305317903876,0.6852271969877315,0.01962874729089903,-1.3078965173371857,-0.015430455905971474,0.5580702074588596,-3.312780035833955,-0.13978526838606525,0.5742377546750861,0.16970485944088737,-2.994492959087689,-0.03462179253898032,-3.6555268542737176,-0.11033483906182841,0.533825613177541,-0.2371437254213799,0.5089174989526726,-1.453298029954149,0.09260663206543224,0.7839833467945685,0.15862693001158784,-1.3526404382461976,-0.047021515155509785,-0.7186129664086671,0.0336927911645063,0.2394090183863909,1.0663516261760484,0.06087833113071478,-0.09467586257789568,-0.27436019326954075,1.2013307669107682,0.8708836258606177,-0.2739680602483484,1.9053376679368703,0.0477585396733792,0.5322770025227405,-0.3292868485378226,0.23132794241764995,0.39775877845305263,-3.4321215341015603,0.001938146536945736,0.5514830420688911,0.2308059848729719,-3.275973533687042,-0.20512275772192448,-2.8708381983426894,-0.20719586267148077,0.3179178166582303,-0.42781806134498135,0.856675841468502,-0.8662548246427006,0.06355024690581701,1.4135242999798825,0.2226433751068937,-0.8758479408279967,-0.265887269993555,-1.0783209117975003,-0.1933396628483905,0.20780590429917173,0.10411424892512894,-0.03689483291346732,-3.4200159735275037,-0.2951852766974259,-0.15113160670189196,0.03789132186794647,-3.62273834552376,-0.1852777770802184,-3.1989474669495337,-0.04132635928144002,-0.130970440785878,0.8250310120419894,0.6069242905880741,-0.09931802161909048,0.37856447487804196,0.2060224101102983,-0.15833492689909198,-0.27034936018751937,0.07756487660154661,0.47820898710601123,0.12587534573075607,-0.7181149137190446,-0.04183677612069231,-0.10439920093379655,0.8795940826688605,-0.03105790740207816,0.24563751548460472,0.01649973641113429,0.5463507463253023,0.8521333839550846,0.8924835469796922,0.2897068667602574,-1.2474001990188612,0.4180338119108365,-0.17881546407608873,-1.3272840458860025,1.275027643726768,1.5355045105151441,0.22192263416789798,-1.456675045234958,-0.012610799126802057,-0.7696682580093799,-0.09834636683760882,-0.013077677237270857,1.3807489700578925,0.9926540449096601,0.26176925152154984,0.05604998809574219,0.6895121853060799,0.16546449592927975,-0.23707013067655608,-0.19429049407242002,-0.49201156326507745,0.2482879992927165,-1.0116226338749112,-0.09691753302299637,0.5565180770969324,-0.6132315983510686,0.019749413116489423,0.7502088473213656,-0.25371519892248623,-0.6001717418360544,-0.11183499143744363,-1.1441491238380461,-0.8054751333817621,-0.3239104093900543,0.5561212416829195,0.2232973896671888,-0.9010725737096688,0.47861548188982006,0.17204284556412816,0.9424999452191466,-0.4980053545001713,0.8458138452476264,-0.5736643202329266,-0.00133290015215759,0.16494696533679398
biasActivation=0,1,1
[BASIC:ACTIVATION]
"ActivationSigmoid"
"ActivationSigmoid"
"ActivationLinear"
