encog,BasicNetwork,java,3.0.0,1,1547619866336
[BASIC]
[BASIC:PARAMS]
[BASIC:NETWORK]
beginTraining=0
connectionLimit=0
contextTargetOffset=0,0,0
contextTargetSize=0,0,0
endTraining=2
hasContext=f
inputCount=10
layerCounts=1,16,11
layerFeedCounts=1,15,10
layerContextCount=0,0,0
layerIndex=0,1,17
output=0,0,0,0,0,0,0,0,0,0,0,0,0,0,0,0,1,0,0,0,0,0,0,0,0,0,0,1
outputCount=1
weightIndex=0,16,181
weights=-1.2594651356170683,-1.7816487795044031,1.0977120557535343,-1.0548497419506226,0.07621333126932174,-0.07503474902285401,-2.2003660433021666,0.8639652375895301,-2.929171116121007,0.21641819417892333,1.6400222139680645,-0.2549016669688391,-0.016644018302377536,-0.07186880681607473,-0.006983898879608069,0.07259394741810388,0.15386206679876435,0.38079257239472813,-1.6665579764942535,0.3813720837451752,-0.35308263352325014,-0.3271782961913492,-2.7957492299762143,0.2101130261781367,-0.9505573317045428,0.05564475794888879,-0.22182361329594613,-0.4385561892701103,0.21573209828716622,0.3268860206861588,-0.0016233782664851948,0.043099658371968316,0.08986702861924377,0.7133395738044621,-0.028321909370111104,0.04048057118594959,-0.050953484138767276,-0.0645618865955525,0.10512855298317077,-0.2621429824780607,-0.0920934492659703,-0.12494224746297898,-0.24669664190931614,0.045156643461078616,1.881203630125412,0.12073268831566791,0.5114557039205752,0.016493730929491468,0.0797853753340523,0.05499113943944893,0.22731029998912983,-1.058716811516623,-0.10229710591766164,0.30629478426451306,0.13808277751664075,-2.7592802780345624,-0.1268635752412905,-1.7434072392397368,-0.0275499349607212,-0.07683221880721565,-0.029088184516342323,0.48613330599127347,186.23593997621356,-0.09384896168221425,128.00891757028887,2.2640528242018303,70.3280071638615,-0.07236732206405029,59.18044303396901,0.037360728867679285,0.2068963075411541,-82.35390560142135,0.4525652207058547,-11.20711775840958,-0.2065815847147401,0.8904364480520253,2.4488462299914926,-4.012299207512133,-0.17210841724224843,2.1950759830837048,0.5568397436744947,-0.2561479191168145,0.10792178850789702,0.28351717137933546,-2.000543709859309,-0.03832491382107745,0.17911957051954167,0.12213257190040727,-2.06082990328708,-0.0846909128238538,-0.9689962864454635,0.005097075577881066,-0.10308642059405118,-0.3597337108859931,0.8214371182877974,2.94217750078552,0.028967512949286393,-1.8640465147903666,0.15491562567312778,-3.1911246995938134,-0.2944485982978363,-0.02132959437573244,0.11116132323939176,0.16589607876372822,0.10153548704939501,-0.000798261001886942,-1.367700834162802,-0.03694621536779462,-0.162836600772282,-0.0033449466723356287,-2.407594715123797,-0.017481243665136065,-0.3513070188654114,-0.033798235591907026,-0.24007866201684216,1.1272595407914683,0.3144398341070837,-0.5635750666961955,0.3830839354956666,0.06273707320249426,-0.15317976396250477,-0.2213612528342453,0.16990425516162494,-0.3137573588885693,0.1261405541623965,-0.46751729585203805,0.06888125367467735,-0.13800309567333352,-0.36313397338430403,0.11824827581361824,0.22330360789588904,0.020266198012289943,2.0820986951379834,0.06320354111266512,0.5035581898394709,0.08643876009457534,-0.3416436491681393,-0.3155870006075585,-0.17204673255951797,0.8202027367409256,2.446980902076137,3.1953985027852507,0.20527162414120406,1.2423232979946688,-0.021877393630006105,-0.3216773892256234,-0.08742366700805161,-0.03832583167811214,11.115288789767169,0.796235778814165,1.426941581310302,-0.11625505416603589,0.6986641368275633,5.371387225197072,0.006915316162326546,0.21731890492923156,-261.1980479367505,-0.28777897915274203,-1.0267025707674062,0.04255297279903335,0.559925659800349,3.1063691142334724,0.0776766455869769,0.869047462529109,-0.2703088250764163,-1.2946828223530726,-0.12357727318107928,-0.931448880301667,0.5427729021705747,-0.3498238759369357,0.44126793551756816,-0.590882347030895,-35.03333152843357,0.48391526637594445,-1.2721111979959001,0.5635611018410654,-24.74336883495431,11.19704220112576,104.65166462409101,0.1981266086743127,0.16978413099590162
biasActivation=0,1,1
[BASIC:ACTIVATION]
"ActivationSigmoid"
"ActivationSigmoid"
"ActivationLinear"
