encog,BasicNetwork,java,3.0.0,1,1547619872076
[BASIC]
[BASIC:PARAMS]
[BASIC:NETWORK]
beginTraining=0
connectionLimit=0
contextTargetOffset=0,0,0
contextTargetSize=0,0,0
endTraining=2
hasContext=f
inputCount=10
layerCounts=1,16,11
layerFeedCounts=1,15,10
layerContextCount=0,0,0
layerIndex=0,1,17
output=0,0,0,0,0,0,0,0,0,0,0,0,0,0,0,0,1,0,0,0,0,0,0,0,0,0,0,1
outputCount=1
weightIndex=0,16,181
weights=-1.2711727865972913,-1.7810911935190479,1.1054042697649877,-1.0575673564690866,-0.419176045810162,-0.1034404691456331,-2.2229070251641128,0.7907544564310018,-2.9369978459341826,0.2165761815288212,1.6604403597127837,-0.25487107765803757,-0.05998852634905273,-0.07182435901178531,0.38993163975142586,0.07261451964091169,0.15388342319145837,0.3639532828226972,-1.6613677313132962,0.38156514332800084,-0.3533785631482663,-0.289996739037829,-2.790961291859521,0.17799523302438314,-1.1553391772436137,0.055178038966241245,-0.2222786168636518,-0.4460575460119682,0.21591445631447082,0.5403232508368528,-0.0014801759243625876,0.03978210993612357,0.07933642971289286,0.7190889638291197,-0.032194135589458314,-0.08938639581243574,-0.05040091008292354,-0.06536386480931673,0.09960266506685132,-0.26219033122837426,-0.09317067752427917,-0.12850270517717555,-0.24573877371886252,0.0449117176281665,1.8764156920087187,0.12818096106755408,0.7233487540422573,0.016478313686190814,0.08209507258969324,0.05505500617644458,0.22729403526481148,-1.0533244350248818,0.07792273670154123,-0.0692834951438679,0.016173338007765544,-2.751533924470918,-0.14831460076672265,-1.7659331812937793,-0.02674185919915988,-0.07772417069865618,-0.028606453916180937,0.48610078928624345,-3.9099189630057563,-0.09101277093929289,16.23531110870059,2.72035059145628,19.88447075070556,-0.04670486115333866,2.1832824946085556,0.03715288350124279,0.20693192403945615,-148.66918784248608,-0.4246614202677309,1.2016558981952863,-0.49279022233679914,-1.2607045575930276,2.893736882283317,-2.7253965305192125,-0.17060484404358212,5.769581356797431,-0.06494885464891342,-0.25196557731937913,0.10675453456104107,0.283500906655017,-1.9855958037381527,-0.03807668423648466,0.17762172043510152,0.07637904481319406,-1.9464562504115965,-0.13561798746387693,-1.0338709995611042,0.004560505411763921,-0.10398131509100306,-0.359181974013569,0.8205857116774872,1.1718437390236043,0.6452894664348139,-4.650488835015068,0.10211603691644482,-3.3990085389377964,-0.29423158883253997,-0.0355074522334723,0.1362831737736049,0.16600361540187455,0.10153349623629417,0.00011994714238918827,-1.3625105889818447,-0.033605190252779665,-0.16335668760715713,-0.008161197180224315,-2.384866579674093,-0.06680323131380567,-0.9059624363111785,-0.03384199250150839,-0.24009457886918203,1.1280409568673515,0.3097533276663051,-0.5725100287619123,0.37967666545353496,0.06705088144568211,-0.15236886582939838,-0.2214630119964748,0.2020220483153785,-0.2891466326410301,0.12614021252546392,-0.4671737436506741,0.06487051542534954,-0.1383667219442437,-0.43724412274218394,0.10979487323161347,0.22426147608634267,0.020598599922287235,2.0811647694093423,0.0953213342664187,0.5141029600031396,0.08537606754632075,-0.32390518599067725,-0.29824877773302205,-0.17199446061909604,0.8459354274901891,5.57833547567028,2.0834261653118546,0.2016151661876101,1.4268048996454143,-0.04142969456771311,-0.32049054336216115,0.08709163632395119,-0.03840540241864644,5.067564980017399,0.796254955470568,-34.39464156259621,-0.11626046618469117,0.7093122354377436,5.371220253579936,-196.45046924063377,0.21736014446573274,-281.36632595275046,-0.26094764031278983,-1.026827043844852,0.043743458935932907,0.6022918886582472,3.2483345388850093,0.08101767070199184,0.7897982901398493,-0.27189282179408075,-1.286960007962123,-0.12388907461537554,-0.931382002456291,0.5459439917837204,-0.3499346451871112,0.4391511338483756,-0.590610766156811,170.46003693862312,0.4842977826767449,-1.2772232351661672,0.572154202958436,77.80245992601658,11.187378590812473,103.74561478161002,0.14451479623430444,0.1697367055551622
biasActivation=0,1,1
[BASIC:ACTIVATION]
"ActivationSigmoid"
"ActivationSigmoid"
"ActivationLinear"
