encog,BasicNetwork,java,3.0.0,1,1547619861517
[BASIC]
[BASIC:PARAMS]
[BASIC:NETWORK]
beginTraining=0
connectionLimit=0
contextTargetOffset=0,0,0
contextTargetSize=0,0,0
endTraining=2
hasContext=f
inputCount=10
layerCounts=1,16,11
layerFeedCounts=1,15,10
layerContextCount=0,0,0
layerIndex=0,1,17
output=0,0,0,0,0,0,0,0,0,0,0,0,0,0,0,0,1,0,0,0,0,0,0,0,0,0,0,1
outputCount=1
weightIndex=0,16,181
weights=-0.9405752993401358,-1.7638471115180194,1.1607468792892983,-0.9815327936627108,-0.36116051096993773,0.01262480986766294,-1.5922459474229078,-0.08246928839562254,-2.3633462284305486,0.22260005305833266,1.6718969162906063,-0.2548588900616426,-0.38044501858568636,-0.06907698729648451,0.05063710260594242,0.07282224624879537,0.1749687266265416,-0.02778050633274582,-1.573900429527422,0.38218778312348023,-0.3553684672231744,-0.34185625704575745,-2.7889988368410963,0.21109764417809945,-0.9441378032738287,0.05640340135777239,-0.23972719876935425,-0.22820826941351643,0.21572527495702845,-1.2299470401870989,-0.0016142687779113346,0.0406452012326167,0.0738401717621785,0.33057799080874156,-0.028227712218656675,-1.0880567565017676,-0.07477187479273108,-0.07994554977461768,0.08799658626080553,-0.26164219640069164,-0.08583706127097089,-0.12549041197106955,-0.24586003328191766,0.05072152431422628,1.8822839809765255,0.12110418591027426,0.5911849470696523,0.017116052889590064,0.12481849538793967,0.06141335539430053,0.23979818071288225,-1.0589549377960614,-0.10906032416736948,0.1663970774122559,0.09788495676697376,-2.76309139131431,-0.12936112880902703,-1.7472654139457768,-0.04449658268409136,-0.12891687033332552,-0.05022906416437272,0.48470581070048313,5.969158940191832,-0.06489446726928136,7.200522469656158,0.13862458256982607,3.369781836525409,-0.12083957697145174,-0.1959187204925589,0.0370738674421189,0.20643138193198304,1.7400727284190167,0.30157556097480276,-6.181394420578826,-0.16807628390138074,0.8918623366594016,1.7895565905180324,-1.76917166618989,-0.1755546830110243,-2.5071024602705103,0.5624928246092726,-0.25828185083594174,0.16619726819457986,0.28724765805514385,-1.9262456595607447,-0.03828074641664933,0.17331181305790144,0.06990037479425835,-2.0866371861335673,-0.07469952011727435,-0.9625767580147494,-0.017581684303598064,-0.12099000606745927,-0.3614632379861245,0.822310245689603,16.77099004639998,0.015763103929706965,51.05617922126273,0.20352654282069033,125.34610967525575,-0.2939698394023038,15.540968827535195,0.03480756699234329,0.1721755747521192,0.10242259069303215,-0.00216870715776978,-1.2738771158150688,-0.024512657714055645,-0.16514822716672936,-0.019371803529400877,-2.4334019979702846,-0.022069683300525948,-0.33281877698495455,-0.03472601094474401,-0.24033582676495677,1.0956025101594313,0.32580686270243825,-0.45651447544888074,0.3831763351585856,0.06968244703682144,-0.15100456129525178,-0.2177617493842951,0.16858165408986525,-0.27579589076949684,0.12633128239696823,-0.4518807958333271,0.05174928695231211,-0.13750230959596443,0.06728719796351848,0.11820957288970134,0.2235765903460703,0.025362712197848365,2.080814906549188,0.06267909939420711,0.6128872180223994,0.12925268839237467,-0.21598901226387043,0.19508491759982335,-0.17254751863688705,0.5448490225716889,2.1577675171340687,3.155005949619711,0.19900704045951545,-0.8536058402888418,-0.022006385850355522,-0.3596700154377774,-0.09215399113783897,-0.03833235397124544,24.90353364119507,0.812594311995072,-27.330491427441295,-0.11627188478875146,0.6915694660988888,5.669058161964505,-8.702426432201099,0.21404012070076162,-216.39931918832903,-3.0490965681405475,-1.0266145153925978,0.06254882291450199,0.5538978739079897,2.2815970783750057,0.07925535937027768,0.8114397537976659,-0.2765734087581048,-1.6167059472271728,-0.12351404477173587,-1.0796910512751452,0.49440879308237906,-0.3500446687196271,0.08975440782728773,-0.8999235702493839,88.83401041338237,0.48001293795552513,-0.12226835188780279,0.5177462050782253,8.2181751258592,12.971385466422852,543.451664624091,0.7799387274525973,0.16983023693281266
biasActivation=0,1,1
[BASIC:ACTIVATION]
"ActivationSigmoid"
"ActivationSigmoid"
"ActivationLinear"
