encog,BasicNetwork,java,3.0.0,1,1547619865382
[BASIC]
[BASIC:PARAMS]
[BASIC:NETWORK]
beginTraining=0
connectionLimit=0
contextTargetOffset=0,0,0
contextTargetSize=0,0,0
endTraining=2
hasContext=f
inputCount=10
layerCounts=1,16,11
layerFeedCounts=1,15,10
layerContextCount=0,0,0
layerIndex=0,1,17
output=0,0,0,0,0,0,0,0,0,0,0,0,0,0,0,0,1,0,0,0,0,0,0,0,0,0,0,1
outputCount=1
weightIndex=0,16,181
weights=-1.2266376675168458,-1.781558665554563,1.097365734871808,-1.0434513155269345,-0.28366749462338364,-0.02723459123495099,-2.1058229351735256,0.8818200160020718,-2.8963436480207845,0.21650830812876354,1.6390248098286926,-0.25489522536883913,-0.008756708821418414,-0.07185510700181992,0.38948972987637476,0.07259545186610389,0.15394023200114632,0.396279878972415,-1.6607950330881114,0.38136806007201557,-0.35309727742725006,-0.3310349943826243,-2.7905181813461124,0.2111104303175086,-0.9354919116498513,0.05567009496575785,-0.2219017784983281,-0.43235661343242215,0.21566302984351335,0.3555492941890046,-0.0016274019396448746,0.04302362245173664,0.08601033042796864,0.7229150076403373,-0.028340627820180233,0.1654391912875834,-0.05074332878604857,-0.0644941140015381,0.10573380039900064,-0.2621176454611917,-0.0922381142251768,-0.12490950914507915,-0.24665926140707484,0.04649577477749359,1.8759725814953108,0.12117983225495765,0.4680672941630634,0.016503154782016295,0.08001049111691239,0.05506930464183089,0.2273884651915118,-1.057377680200208,-0.10398761636477001,0.2980219153709068,0.12406100766414521,-2.744214857979871,-0.1281513497864449,-1.7386195223217993,-0.028198268415358215,-0.07757965995277026,-0.029047623694967648,0.4861473896098063,55.711797219567295,-0.0923690398212464,82.68803466867557,1.1222087733846002,25.007124262248215,-0.07914508282802095,13.85956013235573,0.03747722658982004,0.2069103528876699,-66.40534390923594,0.608939193260541,-12.029245474997987,-0.20247795865219062,0.8902412629812637,1.6858260811807517,-4.0352972588724105,-0.17436071763501043,4.038227454550929,0.5620707923045961,-0.2563551778207317,0.10978898885725163,0.2835953365817174,-1.9839464328496206,-0.03832991991427579,0.17903395054069235,0.10811080204791174,-1.9358712831854457,-0.08839970351389853,-0.9539308663907721,0.005018910375499095,-0.10316458579643317,-0.35981187608837506,0.8215100888963804,3.2276385134898278,0.02941465688857612,-1.5041656888976616,0.1660229164640001,-2.814416618312469,-0.2944298798477672,0.026359164924938838,0.11653886024553303,0.16598619271356843,0.10153875922041057,-0.0008712316104698241,-1.36193789075666,-0.03704050172334617,-0.16286442600797948,-0.00720164486361074,-2.2826360950221636,-0.021190034355180805,-0.3079186091078997,-0.033796629639907025,-0.24008016646484218,1.1251069102922708,0.3150450815229136,-0.5655271242561182,0.38310890365983136,0.06295605665276148,-0.1527147878109718,-0.22150043657632307,0.16890685102225306,-0.3185450758065069,0.1261389482103965,-0.4674391306496561,0.06948650109050722,-0.13797775865646447,-0.37308649890612544,0.11883525860775308,0.22334098839813035,0.021605329328704913,2.0802823588080877,0.0633587994249185,0.4897695651158104,0.08708709354921235,-0.3422057821719325,-0.3137198002582039,-0.17207206957638702,0.8236584747693357,2.2430820597293764,3.1803330827305594,0.20393249282478912,1.3217457764029537,-0.022032651942259483,-0.3211001664104785,-0.08904861476293302,-0.03832627167811214,6.742267712903054,0.7963466117422059,2.602450422568129,-0.1162582221660359,0.6992413596427083,5.390629904166054,7.875124153247967,0.21710812085153924,73.00195206324949,-0.11028921797466486,-1.0263817598193314,0.04234281744631464,0.5581093234704528,3.1857915926417566,0.07758235923142534,0.8672311261992128,-0.2716479563928312,-1.2907450926943307,-0.12359599163114841,-0.9297864785940497,0.5421245687159377,-0.34982007433693574,0.42374434314235676,-0.5990464679511324,-29.393920114076778,0.48415990829606226,-1.2726059445794444,0.5677104210934877,-22.785239871635998,11.633587634571889,175.05166462409102,0.3200035041885829,0.16978929899590162
biasActivation=0,1,1
[BASIC:ACTIVATION]
"ActivationSigmoid"
"ActivationSigmoid"
"ActivationLinear"
