encog,BasicNetwork,java,3.0.0,1,1547619868288
[BASIC]
[BASIC:PARAMS]
[BASIC:NETWORK]
beginTraining=0
connectionLimit=0
contextTargetOffset=0,0,0
contextTargetSize=0,0,0
endTraining=2
hasContext=f
inputCount=10
layerCounts=1,16,11
layerFeedCounts=1,15,10
layerContextCount=0,0,0
layerIndex=0,1,17
output=0,0,0,0,0,0,0,0,0,0,0,0,0,0,0,0,1,0,0,0,0,0,0,0,0,0,0,1
outputCount=1
weightIndex=0,16,181
weights=-1.260156232579977,-1.781371158982318,1.100014751411916,-1.0537421641019638,-0.059094295573653,-0.0911448212896419,-2.191179349594248,0.9189717367319137,-2.9259812919168686,0.21652543771447513,1.6466539774642046,-0.2548882524664392,0.11639347924668142,-0.07185597155597738,-0.15074239110228743,0.0726144448209839,0.15395290138470327,0.3696242252815812,-1.6651363848582807,0.3813775580491752,-0.3530169628100814,-0.3210322935477389,-2.7968123226110784,0.194014129777071,-1.1825441852542933,0.05557427140341726,-0.2221324746783354,-0.4363863443080288,0.21585109414337866,0.4246881462363191,-0.0016409371835456612,0.04343205119428039,0.08908181259749257,0.7183826831305011,-0.030262844989452548,-0.2774929561166573,-0.05061659760027934,-0.06536143369915735,0.10290361865105385,-0.2621928910963277,-0.09258706143143422,-0.12475022360648892,-0.24686005165830796,0.04542928791307556,1.8822667227602763,0.12915163087101386,0.7376930446302558,0.016480041663784625,0.08208807099243424,0.05508197402538782,0.22725393278880407,-1.0570930885698664,-0.0866275219187352,0.2933527182186106,0.11757514988675465,-2.762341984822972,-0.15111012980068678,-1.770683153194897,-0.026579701729875962,-0.0777217395884968,-0.028849996747533652,0.48617165917431876,-50.96325291102632,-0.08715710325752364,31.74123013302806,3.005771106505962,-61.04877723911674,-0.044113167871110956,-23.552948813629893,0.037144388782675966,0.20691369573148813,-86.05460440297931,0.25747145575647773,-7.137550128387475,-0.4094307375901657,0.8845231005958591,2.5021253757365685,-3.7089873933722903,-0.1723436881062075,2.0062805588025294,0.3239046197778582,-0.25870973896690413,0.1087440913980873,0.2834608041790097,-1.9964495259477073,-0.03834054923213965,0.17945196334185376,0.10162494427052114,-2.0862249240728636,-0.15452098995491498,-1.0475509186363252,0.004894074326923008,-0.10339528197644046,-0.35982454547193204,0.8209557176185232,2.1309675506222714,0.1634464696051722,-4.9427292685485975,0.15205423187526945,-3.220674740648388,-0.2940961624443896,0.17139493778724088,0.12512721478772265,0.16600332229928003,0.10153936738970543,-0.0003168603326126979,-1.3662792425268293,-0.03735767182346634,-0.1627211865978681,-0.004130162694086853,-2.4745129554581635,-0.08731132079619722,-1.0194291570886915,-0.033817354274019024,-0.24009451651924218,1.1268749651495729,0.3124355552974321,-0.5676692834414193,0.3829475748210318,0.06177978187423551,-0.1530850957500058,-0.22143471055647476,0.18600315156269065,-0.287417238038889,0.1261385541623965,-0.4671745877861461,0.06754569711000866,-0.13817024868349814,-0.3970930447558874,0.1206020201551911,0.22314019814689723,0.020538842464286906,2.0824678245250894,0.07930243751373081,0.5794177378865499,0.0854685268637301,-0.3350118856719993,-0.3103434660811759,-0.17199940945179631,0.8319940809671696,3.1867805702160843,3.281282043393167,0.20499897968920708,1.386288815379046,-0.024800637572834548,-0.32187744421175807,-0.06981983981039176,-0.03834896908099213,3.5447995629932185,0.7962408395665679,3.7131042550991213,-0.11626282216603592,0.7029228405417737,5.37154561277679,8.480887340242777,0.21739310315523097,-61.86732793675053,-0.257189119876845,-1.026818422532852,0.04281457640653739,0.5706790196965682,3.1451564001490504,0.07726518913130516,0.8769876197222185,-0.2705814695284133,-1.2886561022926006,-0.123929709034526,-0.9320250386617349,0.5437465017411877,-0.34986196577884154,0.4386119480610981,-0.5907232944774278,-44.31486492806976,0.4840896903483022,-1.276121665163105,0.5701309551603793,31.2777290260817,11.16506868875442,90.5066382549646,0.1517142356336012,0.1697787629959016
biasActivation=0,1,1
[BASIC:ACTIVATION]
"ActivationSigmoid"
"ActivationSigmoid"
"ActivationLinear"
