encog,BasicNetwork,java,3.0.0,1,1547619870184
[BASIC]
[BASIC:PARAMS]
[BASIC:NETWORK]
beginTraining=0
connectionLimit=0
contextTargetOffset=0,0,0
contextTargetSize=0,0,0
endTraining=2
hasContext=f
inputCount=10
layerCounts=1,16,11
layerFeedCounts=1,15,10
layerContextCount=0,0,0
layerIndex=0,1,17
output=0,0,0,0,0,0,0,0,0,0,0,0,0,0,0,0,1,0,0,0,0,0,0,0,0,0,0,1
outputCount=1
weightIndex=0,16,181
weights=-1.2615988042570379,-1.780864007305075,1.1042212702836398,-1.0542430570453873,0.26156433672787666,-0.09712076272783887,-2.195333956024183,1.0194565211052347,-2.9274238635939285,0.21670153204685122,1.6587687518147685,-0.25485079298557134,-0.02702341642124139,-0.07181102017893592,-0.5679728505739263,0.07265939619802536,0.1538925120927203,0.3693442335141649,-1.6649579003441897,0.3815622563607762,-0.3531916765105491,-0.2823154710105329,-2.7968698831705576,0.1731012919047679,-1.140162787519486,0.05523309896264658,-0.22263962635557832,-0.43648356367171487,0.2159229116649481,0.45456175256849896,-0.0014818007058888978,0.0420971806812234,0.08023917705235564,0.7187697466923574,-0.03278416514188107,-0.056622709885027364,-0.05053812600348715,-0.06682203052961698,0.09944802605878222,-0.26220976984902805,-0.09273783500029986,-0.12847925375335123,-0.24620380747722725,0.04502243347885135,1.882324283319755,0.12877099061997682,0.7081723643181298,0.016480974149155232,0.08629458986415797,0.05507790420436376,0.2273723954418495,-1.0569146040557753,0.07736253209100825,0.11813851604676189,0.03773805090119228,-2.7625077592342713,-0.15001388587770015,-1.760663601528457,-0.02685821064862972,-0.07918233641895643,-0.028678027268779122,0.4861127192062433,-54.46740221151606,-0.09122559238103525,13.986198445132441,2.7609808735625365,9.083273461130641,-0.04715837519054195,0.7984576795115679,0.03713446297492106,0.20691253253148814,-101.25743201690213,0.5204414167155537,-4.698484018113175,-0.47868248549434905,0.7240580795135326,2.9457138940420573,-3.25000296391367,-0.17064870594348083,5.97859790277151,-0.07121985654937578,-0.26153955965963244,0.10730151972102701,0.28357926683205503,-1.9959354905471265,-0.03811112839688877,0.1785676485964681,0.07801796893853515,-2.0875999233499467,-0.13731727257485443,-1.0186946098369765,0.004615565408169252,-0.10390243365368339,-0.3596184464446842,0.8203600343676176,1.883183910260639,0.5001223300322476,-6.514578188257071,0.10973296319669346,-3.257864865999446,-0.2942230124565291,-0.049475308444389035,0.1442878127456212,0.1661794166316561,0.10153637976291227,0.00027882291829290056,-1.3661007580127382,-0.033628641676603975,-0.16302824032890487,-0.00796360312576094,-2.4758879547352466,-0.07169717243342096,-0.7800833893833743,-0.033837925633597894,-0.2401319760001101,1.1268866862341225,0.3096057346047038,-0.5689198597310186,0.38033584576140633,0.06432660834094645,-0.15243747487608705,-0.22144727132447478,0.20691598943499376,-0.29097634783732246,0.12614333840316075,-0.46666743610890316,0.06471587641728044,-0.13837708314561822,-0.40746582473233883,0.1098624133322275,0.22379644232797793,0.02055983218259718,2.0824878108304636,0.10021527538603398,0.502726680167234,0.08552281039692153,-0.32289711132143495,-0.29822869173061156,-0.17198253069909603,0.8355957406812152,5.587148237273572,3.4044759770321047,0.2019286201249235,1.4048436955082504,-0.027321957725263076,-0.32105225744311755,0.001330138055597245,-0.038393920458033595,5.021122354186113,0.796243239566568,19.309644492454268,-0.11627081960603594,0.7091142110929691,5.37120649848629,137.84483068496127,0.21735832753842493,28.073813055249502,-0.25900719610264783,-1.0268230625328518,0.0437971530359569,0.5985351614952719,3.162573040616656,0.08099421927816752,0.8451004037697385,-0.27157126665399567,-1.287879353315998,-0.12391377457828656,-0.9313115059950702,0.5449888332928708,-0.3499315475484577,0.4391144801938101,-0.5906117963996599,-163.33996306137686,0.4842868649035189,-1.2769598679884469,0.571570675255684,-101.39754007398341,11.17098682225934,-75.45438521838997,0.144145927958926,0.169728554501926
biasActivation=0,1,1
[BASIC:ACTIVATION]
"ActivationSigmoid"
"ActivationSigmoid"
"ActivationLinear"
