encog,BasicNetwork,java,3.0.0,1,1547619864431
[BASIC]
[BASIC:PARAMS]
[BASIC:NETWORK]
beginTraining=0
connectionLimit=0
contextTargetOffset=0,0,0
contextTargetSize=0,0,0
endTraining=2
hasContext=f
inputCount=10
layerCounts=1,16,11
layerFeedCounts=1,15,10
layerContextCount=0,0,0
layerIndex=0,1,17
output=0,0,0,0,0,0,0,0,0,0,0,0,0,0,0,0,1,0,0,0,0,0,0,0,0,0,0,1
outputCount=1
weightIndex=0,16,181
weights=-1.2141761450859827,-1.782061816915536,1.0959166589522058,-1.0391243980162181,-0.3417902571800641,-0.004688391876892212,-2.0699337505726394,0.8545590170230795,-2.8838821255899214,0.2163707205184429,1.634851471180239,-0.2549005933688391,0.171144915901045,-0.07202981233549105,-0.07507784693285594,0.07259033830825867,0.1539713958917008,0.4191689656573485,-1.6619950389880112,0.38135813015201564,-0.3530961792742748,-0.3348324215736819,-2.7902934558018595,0.2108489619764036,-0.9381429457266274,0.05582981365411437,-0.22137430190613325,-0.4347468430756992,0.21555017696746803,0.14513490936055964,-0.0016373318596448745,0.04300106647146727,0.08422804738310904,0.7217507643294521,-0.028431415438619462,0.14345045424117187,-0.05177573599040752,-0.06399096264056522,0.10568047440515929,-0.2620047925851464,-0.09151357626537587,-0.1248287150883109,-0.24665469897081455,0.047114623056958724,1.8755049035800366,0.12334855526341876,0.47570227230417855,0.016535524472022296,0.07886928444186857,0.05510046853238534,0.22741962908206628,-1.057794348915451,-0.10634952977747034,0.30502938577945715,0.13134106249707872,-2.7435676484124225,-0.13439727205081292,-1.7412705563985755,-0.030425208288602346,-0.07606052736724905,-0.027816146716735515,0.48606532569781696,22.545180305295577,-0.08720263813754667,61.535420543311155,0.4154163500724476,13.490937833681645,-0.09515325895619278,2.34337370378916,0.037183878132136146,0.20708505822134102,29.11451280386663,0.7763327494237808,-16.43450801673113,-0.14435519609551012,0.8905346114389476,5.684501924433033,-5.564902308085307,-0.16489509298952695,-14.753089856126445,0.5610280923180593,-0.26336264822928207,0.11254857203203625,0.28362650047227195,-1.9874024498413314,-0.038345039123542986,0.17913580764405485,0.10335648052436329,-1.9246994530081492,-0.12831272794591303,-0.9565819004675481,0.004763540438847949,-0.1026371092042383,-0.35999301057832533,0.821906341214104,4.757243562702724,0.036216967517153094,-1.482985186510253,0.1769595067742461,-1.5751126747175184,-0.2941971929642746,6.55112212002125,0.13410756400052062,0.16580304111905636,0.10154359524568377,-0.001196247893480374,-1.361971725275658,-0.0372731886068387,-0.1628595899827063,-0.008983927908470335,-2.2714642648448673,-0.03917829047656068,-0.31555358724901483,-0.033790589625404814,-0.24007505290699696,1.125936851140631,0.3177408965807163,-0.5595175166023455,0.38314378817765976,0.06299172674324277,-0.15225695756513632,-0.22148351371481356,0.16916831936335805,-0.31589404172973085,0.12614334821039652,-0.46783538296737953,0.06943317509666587,-0.13786490578041916,-0.3232404091826723,0.11950539683221158,0.22334813373800116,0.022923880436711033,2.079997598799805,0.06411182824730083,0.4974045432569255,0.08931403342245647,-0.3463791208203858,-0.31297536122961733,-0.17218492245243233,0.80635080472647,2.184959297172696,3.1775867646774874,0.20261394171678299,1.303731870882035,-0.022785680764641814,-0.3218247043702794,-0.08989345832106264,-0.03831983007811214,13.066147175406988,0.7964881935861541,1.932338312710445,-0.11626441960603592,0.6990767219186916,5.387634681606218,7.2050120433902825,0.21626327729340963,-46.15071440726605,-0.3750210225700651,-1.0266432281604363,0.042432569451111436,0.5568654073308245,3.135945502918303,0.07734967234793283,0.8669352642007249,-0.27296650750083734,-1.292538982167838,-0.12368677924958763,-0.9318731479182765,0.5398976288426934,-0.34981276077909046,0.36345418110398775,-0.6141590244587718,42.13436941998436,0.4842813844815728,-1.2760619615711553,0.5596885352763025,2.050971772135232,11.758342933078408,409.251664624091,0.47321044556258857,0.16979856186547493
biasActivation=0,1,1
[BASIC:ACTIVATION]
"ActivationSigmoid"
"ActivationSigmoid"
"ActivationLinear"
