encog,BasicNetwork,java,3.0.0,1,1547619871125
[BASIC]
[BASIC:PARAMS]
[BASIC:NETWORK]
beginTraining=0
connectionLimit=0
contextTargetOffset=0,0,0
contextTargetSize=0,0,0
endTraining=2
hasContext=f
inputCount=10
layerCounts=1,16,11
layerFeedCounts=1,15,10
layerContextCount=0,0,0
layerIndex=0,1,17
output=0,0,0,0,0,0,0,0,0,0,0,0,0,0,0,0,1,0,0,0,0,0,0,0,0,0,0,1
outputCount=1
weightIndex=0,16,181
weights=-1.264647948694072,-1.7809542804453022,1.1056094362280093,-1.055301787752691,-0.3717521814043668,-0.10016990716487308,-2.2041154920028414,0.9466189490838497,-2.9304730080309627,0.21671309460256674,1.6610312391262863,-0.2548590654274913,0.41277972117059436,-0.07181902153660695,-0.17913639442345086,0.07264946926772138,0.1538736397894355,0.36550057609289355,-1.663700057494507,0.3815630182055619,-0.35334170718582336,-0.27072297965991204,-2.7918567740533864,0.1588150420249212,-1.1489001021552376,0.05519979880218594,-0.22267292651603893,-0.4395327081087491,0.2159206814138981,0.48460894155783946,-0.0014810313534825877,0.04031936454383067,0.08014327259022899,0.7189796067048848,-0.03450656216636104,-0.08178617603599188,-0.050465906743887276,-0.06649947660819175,0.09989884522399545,-0.26220180947237703,-0.09288948464942252,-0.12848544237399276,-0.2458304831473286,0.04481444201120372,1.877311174202584,0.1304933876444568,0.7169096789538814,0.016478073686190815,0.08536563457045326,0.05505903190107893,0.22731652594994686,-1.0556567612060925,0.07751036506874946,-0.03232195155895434,0.035447097385682504,-2.7524294066647834,-0.15497438930820248,-1.7636973913325376,-0.02673430370056797,-0.0788597824975312,-0.028604253916180936,0.4861105192062434,-94.05576633352678,-0.09108486852905633,17.118243730779426,2.739624350834197,-31.12690454550795,-0.047092119279812904,-13.163409683904606,0.037149008493242784,0.20692204906156172,-117.78688844672497,-0.08370254065862248,-2.6313254130461106,-0.4860979447750224,0.03209789026675325,2.9492453092917184,-2.90511573824419,-0.1706545609167486,5.707974804404462,-0.03783348145958762,-0.2584904152225982,0.10685070055581379,0.2835233973401524,-1.9923129031400397,-0.03807932393232555,0.1778082671738887,0.0771858876905302,-1.9678474144369331,-0.14227777600535677,-1.0274319244727281,0.004582265247708618,-0.1041182281647486,-0.35945511839006344,0.8205209385042972,1.6339605059074533,0.589781039426413,-4.957062662125775,0.0954237593546681,-3.37761737491246,-0.2941979765503426,-0.038146417433626414,0.13576337759781698,0.1661405284756201,0.10153642423629418,0.00011791878161336041,-1.3648429151630554,-0.03362245305596246,-0.16329191443396712,-0.008063921563261531,-2.39229406718289,-0.08598342231326761,-0.8525541718981521,-0.03384038526605038,-0.2401237035581901,1.1272543010630476,0.3097591693453395,-0.5701777025807014,0.379727183030293,0.06651362683797503,-0.15240264208528823,-0.2214569662364748,0.22120223931484045,-0.2899229485997945,0.12613997252546394,-0.4667794339982869,0.06516669558249366,-0.13837066002259432,-0.41789887646474877,0.10984459010477993,0.22416976665787658,0.020501324305324448,2.0812727316722985,0.11450152526588064,0.5114639948029855,0.08535430771037605,-0.3206346240099173,-0.29822869173061156,-0.17198473069909603,0.839218328088302,5.618986248846166,2.389999992422562,0.2018953199644629,1.4192814497657025,-0.03473741700593638,-0.3204478606070389,0.031377327044937744,-0.03840875456972175,5.010566493385497,0.796243239566568,12.800247064758183,-0.11627726120603596,0.7087749808300364,5.371199444585191,88.63206976736622,0.21736702056140642,-14.946186944750494,-0.258615314131579,-1.026816865092852,0.0436406186035912,0.6046155961449753,3.1926202296059962,0.08100040789880904,0.8026321594401664,-0.27108597891674463,-1.2872749564799193,-0.12398587798810388,-0.9313686834683885,0.5451573359794164,-0.3499887449064279,0.43912798302576705,-0.5906271855824605,150.0600369386231,0.48428909691674493,-1.2775771652583752,0.5717391779422295,212.00245992601657,11.168695868743832,237.94561478161,0.1444762311096763,0.1697345055551622
biasActivation=0,1,1
[BASIC:ACTIVATION]
"ActivationSigmoid"
"ActivationSigmoid"
"ActivationLinear"
