encog,BasicNetwork,java,3.0.0,1,1547619854337
[BASIC]
[BASIC:PARAMS]
[BASIC:NETWORK]
beginTraining=0
connectionLimit=0
contextTargetOffset=0,0,0
contextTargetSize=0,0,0
endTraining=2
hasContext=f
inputCount=10
layerCounts=1,16,11
layerFeedCounts=1,15,10
layerContextCount=0,0,0
layerIndex=0,1,17
output=0,0,0,0,0,0,0,0,0,0,0,0,0,0,0,0,1,0,0,0,0,0,0,0,0,0,0,1
outputCount=1
weightIndex=0,16,181
weights=-0.28840076459649483,-0.1454323335770046,0.19399013198426093,-0.48340938210273354,-0.0785181755531471,0.1600463902724968,-0.34893962722722605,-0.09675251421467726,-0.41692627267137417,0.17856630350080152,0.25043001916990426,-0.05987440152255609,0.12325910704972903,0.010533376805973063,0.030665652500346557,0.14403030691922247,-0.1321614481248565,0.4211025236182274,-0.12849921552920532,0.0665115440086712,-0.3524951083766703,-0.35862382399148995,0.3457679684768551,0.42779244654774606,0.2626426098382312,0.049382447989136685,0.05470062395633534,-0.39498384989733093,0.06002798611010843,-0.6948807451718813,-0.35047075755979107,-0.3253341454067985,0.14637883666163223,-0.47735978855562866,-0.012165634290062718,-0.4348620585861146,-0.16180216293187477,0.21448227295107195,-0.17909580761943614,-0.09874975958963407,-0.2594255699155231,-0.12870875388969077,-0.28525903368026373,-0.09508444613763041,-0.2592985425223484,-0.35939430531790384,0.44570719698773165,-0.21989125270910095,0.0270211146628139,-0.1633280559059714,0.2601726074588596,-0.19773818239395557,-0.5341052683860652,0.1263401546750861,0.21970485944088736,0.12054889435231023,-0.20358179253898032,-0.5404850008337183,-0.062334839061828407,0.3893456131775409,-0.1598937254213799,0.06101989895267251,-0.313352941954149,-0.30171336793456777,-0.3379617412054313,0.1421269300115878,-0.2126953502461977,-0.1165015151555098,0.4213321215913327,0.2792127911645063,0.13090901838639094,0.44085402617604863,-0.36201926886928515,0.05322173742210432,-0.21988019326954078,0.21138567891076837,0.4637860258606177,-0.12607046024834848,0.4688965799368705,0.1956561396733792,0.4777970025227404,0.29621075146217735,0.28580794241764995,0.3522387784530526,-0.31707968066156106,-0.3923818534630542,0.2535854420688911,0.3888059848729719,-0.16093168024704305,-0.1721227577219245,0.24420365509731004,0.1950441373285192,0.17343781665823038,-0.3505680613449813,0.6087782414685018,0.2736902633572992,-0.330769753094183,0.2915792119798825,0.056143375106893656,0.26409714717200306,-0.427887269993555,0.06162417620249953,-0.1453396628483905,0.09930590429917177,0.15859424892512894,-0.28479243291346723,-0.3049741200875047,-0.39070527669742594,-0.44902920670189195,-0.007628678132053521,-0.5076964920837602,-0.3080277770802184,-0.08390561350953445,0.22891364071855996,-0.275450440785878,-0.21726018795801053,0.19112909058807412,-0.08827802161909049,0.4816894748780419,-0.2097727898897016,-0.26458492689909197,-0.2593093601875194,0.21556487660154663,0.4892489871060113,0.298875345730756,-0.2294749137190446,-0.2899391761206923,-0.18164920093379655,0.45569648266886065,0.00542209259792184,0.3683875154846047,-0.2467802635888657,0.12245314632530235,-0.13781170404491513,0.46858594697969225,0.33818686676025744,-0.44995968701886147,0.4952838119108365,-0.4767130640760887,-0.18733895788600255,-0.16141344427323176,0.413559422515144,0.05542263416789797,-0.316729957234958,-0.12961079912680207,0.37027682999061984,-0.05034636683760882,-0.12157767723727086,-0.055692117942107405,0.18270895690966035,0.4096668515215498,-0.17104761190425777,-0.12043290269391982,0.31576209592927973,-0.08917253067655612,0.01360710592757991,-0.3441139632650775,0.46880799929271655,-0.38612503387491126,-0.19243753302299635,0.25862047709693237,0.37671348964893125,-0.009952986883510581,0.5023112473213656,-0.3764651989224862,0.38977334616394554,0.03264500856255634,-0.1542040358380464,-0.20967993338176225,-0.30741040939005426,0.5396212416829197,-0.07460021033281118,0.08887251429033097,0.43309548188982006,-0.07585475443587178,0.40340234521914653,0.49193973349982856,0.3067162452476264,0.41628076776707323,0.2965646998478424,0.18144696533679402
biasActivation=0,1,1
[BASIC:ACTIVATION]
"ActivationSigmoid"
"ActivationSigmoid"
"ActivationLinear"
