encog,BasicNetwork,java,3.0.0,1,1547770642679
[BASIC]
[BASIC:PARAMS]
[BASIC:NETWORK]
beginTraining=0
connectionLimit=0
contextTargetOffset=0,0,0
contextTargetSize=0,0,0
endTraining=2
hasContext=f
inputCount=10
layerCounts=1,29,11
layerFeedCounts=1,28,10
layerContextCount=0,0,0
layerIndex=0,1,30
output=0,0,0,0,0,0,0,0,0,0,0,0,0,0,0,0,0,0,0,0,0,0,0,0,0,0,0,0,0,1,0,0,0,0,0,0,0,0,0,0,1
outputCount=1
weightIndex=0,29,337
weights=-0.23812664977628029,-0.24708300460726906,0.1367426584809533,0.29934062458504407,-0.09035849634482743,0.147643923326855,-0.07668033415821543,-0.1678689915921373,0.24560835276699597,0.4628903852496896,0.44186216989250615,0.465161738131031,0.1862061285420561,0.667682235942848,0.09499994785195845,0.18351500702932635,0.17061830855323235,0.6361631242840714,0.24907896945549404,0.14317805087314395,-0.13776919119575756,-0.25643142529903734,0.09165432771998122,-0.11050487890296691,-0.21280295370177277,-0.41020292055558183,0.1734335912110008,-0.2561237172374142,-0.9073545710038826,0.3050780545889092,-0.7686360587465987,0.41415384826652674,-0.4346859107409338,0.26382060602665935,-0.25535819901711526,-1.4397194105463085,-0.694017925870001,-0.6140193435768968,-0.09289457214635996,0.6721411598919783,-0.5637589015054971,-0.06323042442421019,0.19955103721864442,0.07807255861026875,0.22379000206564595,-0.2574206090170699,0.328158714189782,0.03460662467423776,0.4524903479293862,0.16269181744582392,0.32538214594362125,-0.1336543054470586,0.8293091652057639,-0.3576525917457207,-0.3879400110073817,-0.1467896307470174,-0.19009955988858496,0.01071844230828917,0.04329112407715488,-0.30833355593225614,0.4740990454571745,-0.3089267139138466,-0.09047205701839525,0.35265302581015334,-0.1007224234598717,0.7472970472338074,0.6461520437101477,-0.10027920654220068,0.06798023551378472,-0.0002103138910149547,0.1125147318894287,0.617491692209911,-0.8225450357785505,-1.1952666290208518,0.26527647009875893,0.3360404674764257,-0.25249178142983997,-0.14269527070922666,0.07500279074761439,-0.9016729446386724,-1.1604723022200487,2.084723230977024,-0.37559239528744953,-0.11922905067439929,0.22374453407682904,0.6251530418133515,-0.24022904275218385,-0.15345056579405142,-0.06042177486388207,-0.2957179464388527,-0.34499290568324353,0.23970925175425833,-0.15904130418803217,0.15400014435922776,-0.41846836830821504,0.30472329035547235,-0.8392924914807709,-0.17890131424966624,-0.04072140761347673,-0.5103394374159713,-0.12404056836150802,0.48455426401871565,-0.08045043794924134,0.16251207358403236,-1.145234282826497,0.25461721522581154,0.1939825874562106,0.24014805895792046,0.2427054633984671,-0.32808246099235794,-0.6524761037950317,0.49379829967590055,-0.377141761014942,-0.26891472921870424,0.17663581900381048,-0.8450130010849154,0.12969014093335246,-0.17370489475329104,-0.3387064488223521,0.00632537557177159,-0.659765274866505,-0.3259955540737826,0.5029644444227015,0.012030934445674612,-0.5383853812197489,-0.22330656279635425,0.5392316077717402,-0.3832434610225723,0.4645639794114956,-0.07276556305921408,-0.38170100572128196,0.35468266333896653,-0.4790782287306436,-0.2635781371653013,0.38304751647578733,0.3839630958672856,0.09962616845906556,0.005470880136192586,-0.3730314867081203,-0.30646728090262165,-0.24891389342227188,0.2723298170385186,-0.11163527814345564,0.27576755858417373,-0.3225520048540453,0.1448287860547709,0.18151118268672933,0.6690963216488515,-0.01030206526272134,-0.987762873310609,-0.058406097744475645,0.1026927887771134,0.7994927008338227,0.3079678587664986,-0.212624580043988,0.29265849564686935,-0.18660233441123797,-0.1455935830142259,0.26128621346734254,-0.18209570311588924,-0.9124143808307943,0.25181612318511787,-1.046200308722195,-1.0032063589411508,-0.6665630047421527,-1.3673009784630092,-0.06739566895239431,-0.1320785617993756,-0.6334654696771395,-0.3828896552500437,-1.5259340355868267,-0.1636007416517186,0.6420183346411326,-0.045105605780817626,0.06984834504776231,-0.11449500459383323,-0.0953862113694271,0.5080768095778971,0.11150806587676462,0.09222598491023792,-0.08912942471672326,0.1615033636314072,-0.5595366377002418,0.20861236513419093,0.8304217304853071,0.25813456009708013,-0.4134411899243886,-0.635782230628453,-0.16333264938227568,0.1802366462091763,0.031428984779447826,-0.37067849218460935,0.421502398289785,-0.30497626299672553,0.039516107640840174,0.3893199817700772,0.42067722531924767,0.6723812324661326,0.6113950883025088,0.5963844655400341,-0.2500869211642057,-0.22900131634694273,-0.5340819432468611,-0.6693653116765992,-0.04497417302784343,-0.16680382404194796,-0.5946261054873039,-0.2826063994871872,-0.36031299335487654,1.0331621289202282,0.057696706601669805,-0.14609433360504856,0.11709146560813831,0.08827017323652792,0.010926118501038454,-0.9458803075204684,0.4458545690047286,0.15957081352205388,-0.05281067445339063,0.05072872622463352,0.439908509509231,-0.1439571013092727,0.333469685552699,-0.1378862624929723,0.47170323585788404,-0.25331104078299166,-0.5299084960471031,0.11154019516317563,-0.1249290176642602,-0.10723394768374647,-1.0691984594655564,0.950921501363711,-0.05861488418358817,0.14136468980868022,-0.216042286692491,0.6067552977888654,0.2071012854437895,-0.6702248418307558,-0.7757350163714377,0.0076315093878880965,0.21260164185975225,0.2571113432245121,-0.31792587348857976,0.02903884693159154,0.8641789388435899,1.2473961714140425,-0.369499351544622,-0.4273949058713624,-1.5564662237628077,0.2687385039190082,0.10955471851437318,-0.16774967876146127,-0.1530093871796539,0.8639790211177416,-0.3961029895265211,0.23054314142478585,0.11659577902652975,0.010126922027706509,-0.4153595079157379,0.4501477465548075,0.23387966510195826,0.4040076983255539,1.0495019383771638,-0.03413656226178646,-0.12023220916814237,0.2355625509788719,-0.6356836221940702,-0.6772848416531516,-0.36048486361484383,0.4206762599640929,2.033328077058962,-0.04587478089822076,0.4179793990220794,0.42969404286979523,0.42670370974836264,0.12714240069269328,-0.9627874950911077,-0.3806047229058468,-0.3639058710792194,0.3041271778378189,0.18106516758278512,-0.18491698508004345,-0.412437085090176,-1.315932336955753,-2.0864409493779936,-0.3140363730522125,-0.34361100140279105,-0.9461705560733062,-0.9150351637979678,0.29690590840709147,0.07291545888111035,-0.6915153007455778,-0.03946234577525912,0.49843752743158826,-0.30770124248874237,-0.04636332467331591,-0.13811650199947956,0.12246052260466965,0.875697494101105,0.04407186733580395,0.38519689802422463,0.11634395585663729,2.20663043980694,0.3348024724046265,-0.13786514554276946,0.02200821199479587,-1.8828802602835888,-0.2683122836412669,0.25226449311604565,-0.04086244312772701,-0.3530018021743174,0.03723500989438893,-0.5495786807526023,-0.3230575286928536,0.6027772429623757,0.311749381872463,1.0468653944663537,-0.1781579801896307,-0.2830505999525868,0.3069272511168078,-1.1946209316090282,0.11539951727349937,-0.06650927593489515,-0.6841714789137834,-0.34785603670166054,0.6069704116109562,-0.2388060417506134,0.12602064222241582,-0.704163791883571,-0.5619429440593443,0.290029161687187,-0.16012537782623698,-1.1463651007418203,-0.13570019689008755,-1.0032824922914776,-0.31462205828083545,0.46192358126024424
biasActivation=0,1,1
[BASIC:ACTIVATION]
"ActivationSigmoid"
"ActivationTANH"
"ActivationLinear"
