encog,BasicNetwork,java,3.0.0,1,1547771461326
[BASIC]
[BASIC:PARAMS]
[BASIC:NETWORK]
beginTraining=0
connectionLimit=0
contextTargetOffset=0,0,0
contextTargetSize=0,0,0
endTraining=2
hasContext=f
inputCount=10
layerCounts=1,11,11
layerFeedCounts=1,10,10
layerContextCount=0,0,0
layerIndex=0,1,12
output=0,0,0,0,0,0,0,0,0,0,0,1,0,0,0,0,0,0,0,0,0,0,1
outputCount=1
weightIndex=0,11,121
weights=-0.05456788651500868,0.05799582510371441,-0.2382527685674441,-0.5042198116970673,-0.6112385281608265,0.8498645182348462,-0.17208224328774924,-0.31771732546654363,-0.8142915172780728,-0.6603895271075799,-1.0750170336949723,-0.0047269406289099924,0.3051342858658675,0.07092107275582366,0.17050882059641126,1.2543475797918209,0.13245580438243293,-0.37436276590129536,0.4804123759675352,0.2966313556594501,-0.12038547313559474,0.34017441313063057,-0.011264167801097338,0.13735808270750688,0.40690488898422733,-0.36946194589298276,-0.43293222984934315,-0.12093843271274698,-0.43170414288261205,-0.043460516956163986,0.3137209189383676,0.5014847159919504,-0.006996034444600205,-0.6489842717648355,-0.23396507919550927,-0.29279448764678795,-0.05407676164431566,-0.15559071901745564,-0.060417173903761966,-0.7961525759835519,0.669704562919786,-0.4642142320418902,-0.03949226057716202,0.3173020657512127,-0.14683908968051942,0.05206092532010867,-0.47772801738808696,0.08001792408276003,-0.12713859300201769,-0.2996449392933014,0.1932534096151752,-0.10590826267931645,0.15466058450598014,-0.02126874317465001,0.7063571013894528,-0.4426206188109375,-0.1453735568382482,0.44866047457756963,-0.4129647232133635,0.2338162185660396,-0.21265005802215942,-0.10878247478221617,0.096797362320951,0.16780828145181836,-0.2996666506435274,0.4094972257791567,0.09391212013865274,0.14684812297035574,0.5032834538316894,0.14470057511162754,-0.06631020986165191,-0.2560232425178025,0.1282320629290988,0.30769137336437247,0.3730105972184618,-0.10627859347463055,-0.6025243177524511,-0.46751114334160754,0.01932029467411772,0.121783412082894,-0.04323419916620324,-0.556429168093318,-0.41833356946464345,-0.6165162612672541,0.2043681443253928,0.13468747751736754,-0.06403365316799761,0.12893080683713387,-0.027279858247115374,-0.1786947893526543,-0.6550819440249471,0.3254107846060872,-0.20585829452884183,0.3758915956285622,0.09818196040339625,0.026269748217475755,0.2906974404323833,0.2028234927033985,0.7904315643894633,-0.31910766434267746,-0.2670229597738735,0.17393335983069713,0.016226900821957695,-0.11439042998628203,-0.11699015015498261,-0.10271400767773047,-0.29066416850349186,-0.6095617834299422,0.07205003664668064,0.5841945623588727,-0.041541007291277014,0.26992188132254974,0.09227321219758212,0.016545681065313907,-0.05291038890850578,0.17742390082626852,-0.841800316073002,-0.24288771746858537,0.1653744110253786,0.034561748600686684,1.3333702631093827
biasActivation=0,1,1
[BASIC:ACTIVATION]
"ActivationSigmoid"
"ActivationTANH"
"ActivationLinear"
