encog,BasicNetwork,java,3.0.0,1,1547770540658
[BASIC]
[BASIC:PARAMS]
[BASIC:NETWORK]
beginTraining=0
connectionLimit=0
contextTargetOffset=0,0,0
contextTargetSize=0,0,0
endTraining=2
hasContext=f
inputCount=10
layerCounts=1,11,11
layerFeedCounts=1,10,10
layerContextCount=0,0,0
layerIndex=0,1,12
output=0,0,0,0,0,0,0,0,0,0,0,1,0,0,0,0,0,0,0,0,0,0,1
outputCount=1
weightIndex=0,11,121
weights=0.33944639838616275,-0.38985784210437757,-0.5670663784294167,-0.19115312882578137,-0.8872601648214546,0.6109865569365796,4.135720702451976,0.8764174342636183,0.42112826906978384,0.7433003604789686,-0.8815883375830775,-3.533927328098378,-0.1206517285230215,5.564989228308389,0.34665628851170677,0.004600149472964101,-0.5649623650728438,0.34762208413502166,0.025622680134990857,7.829741379043057,-0.7856123187636777,-0.5482887254180211,3.1931358362318796,-0.37120387626429663,-1.4695487910910074,0.9843046825699806,-0.21726298530125282,0.24131799562749173,-11.209035221526205,1.4639387480021535,-13.776935540264516,-0.1928917118752848,-0.4084233944073459,1.1131750483108278,0.032140363917075344,-2.358057813669581,-0.8161827653226474,0.3269102952706146,0.06452641638271497,-11.252353431077264,0.01881018708227851,-0.7174879405085072,0.0959890651401126,0.09960527587998357,5.874554896840491,0.0971821577523684,0.6780302123940533,0.19377763151909122,-0.7653509535363752,0.3263935510318901,2.9503589223602162,-0.4108997876135601,1.685276584090919,-1.830152649264561,0.09171145199997108,1.831922512829761,0.23743970436108916,0.7291428305459838,0.00818026962619349,0.0312100978609701,-0.07155194441665894,4.024537573334968,0.1731221472201713,0.5189579999430495,-0.15119772486628932,0.921570667694681,-4.037252866344674,-0.48700669280874576,9.246079219404676,-0.501933372619774,-0.18148210227661798,-0.015108369874315204,6.2512995965192575,0.14007058649278653,11.299487452038369,-0.13261485647792115,1.596952898097494,67.50602806501745,-0.023526712145778048,0.14068100572301767,-0.05630378189896645,-0.2851866018691384,0.16199995153773075,0.007414996956099119,0.05825915048514426,-0.18125150986528318,-0.04640762593049685,1.4255309379445118,-0.8571281355744708,0.10225461273487961,-0.3137183158752298,0.45793314832716836,0.835753926110293,-0.20336912239054594,2.63339121658801,-0.4781448225021434,2.4450843997417087,0.05693476890937313,-0.7391599984739725,-6.3617032881971225,0.5715982841216584,-0.3450917664739959,-0.6720601482336152,0.4157155787499896,-0.3297957257257219,0.06225521630081513,-0.07149991171270124,0.2996285360156913,0.32217426442432234,-0.15688076718883545,-1.2955317479542547,-0.37482277968767663,0.0019412142723900672,0.021269915274143285,0.47843749202985736,-0.5614640420307897,0.5938523136443815,0.4288618652888702,0.5240791815439844,0.06367512585672837,-0.49409884321809766
biasActivation=0,1,1
[BASIC:ACTIVATION]
"ActivationSigmoid"
"ActivationTANH"
"ActivationLinear"
