encog,BasicNetwork,java,3.0.0,1,1547771699380
[BASIC]
[BASIC:PARAMS]
[BASIC:NETWORK]
beginTraining=0
connectionLimit=0
contextTargetOffset=0,0,0
contextTargetSize=0,0,0
endTraining=2
hasContext=f
inputCount=10
layerCounts=1,12,11
layerFeedCounts=1,11,10
layerContextCount=0,0,0
layerIndex=0,1,13
output=0,0,0,0,0,0,0,0,0,0,0,0,1,0,0,0,0,0,0,0,0,0,0,1
outputCount=1
weightIndex=0,12,133
weights=-0.8190121223887679,-0.26587066805962656,-0.6072540481524517,-0.4430531244481384,-0.5954099850518529,-0.2451642311848282,-0.9060441238165501,0.19029708405055823,-0.6746212619439046,0.16495920230654904,0.44144660758751536,-0.25614781807421194,-2.2809122080572597,-0.8927580541443598,-0.25618604125728484,-1.2701754254585924,-0.8446238659919527,-0.5801371190886416,-0.3818635789401504,-1.4046449976935884,-0.17398821047329746,0.622541558653659,0.6163626685696346,-6.6055527595080425,-4.535720528604236,-47.34529517274539,-1.4313092072448848,3.8770730158155553,-0.4119765886790341,-11.512460170072295,-0.21354196017969815,-0.5855539561322664,-0.9839216413779339,-0.16263127605782912,-7.096095647046619,-1.3262520523401884,-7.612235522894607,-0.10299506456579427,0.7797161380863321,-1.307272011340319,-6.9161057235361305,0.058804123216204145,-162.14693488661098,-0.30513184310632396,0.4860048681462769,-0.872492468533326,-1.5078200477263592,-0.7407185488451236,-0.7501436602475176,0.016414261203061623,-0.0035749555338548955,-0.5420056025948745,0.1861032779027106,-0.06817369150487884,-0.3659779421368144,0.17579541452193365,-2.4429664664487176,-0.5609016286733777,-1.4177018267390344,-0.6998536095669089,-0.2565336744316913,-0.34527055885358215,-0.9907025657955516,1.0856272351615424,-57.57806652782753,-0.1308889121256687,0.545296608557919,-13.998799596903519,-4.627909147429875,-0.006386468038993726,-0.5815198498978954,-0.0833618574131776,-0.056339353920556265,-132.0812470325098,-0.5361921824231198,-0.6107870734015254,-0.5974141761325263,0.5250368334684028,-11.276628527034978,-5.375849947719919,-19.765049095021137,-2.6474773549505506,0.20375444247057195,-0.7967112430726968,-2.862947329047563,-0.2612057342497388,-5.953686415231302,-0.09310111710808018,-0.021124706326624068,0.6666005715690352,-0.2543040877955189,1.7115341853083887,2.0873923432096984,-0.19873783509276635,-2.9899724922228685,0.8344125822523947,-0.24205276028703254,0.10772659445861023,2.028283160839078,-0.2397315304259158,-3.131503781690591,-0.555264284289414,-3.574567078990039,-0.7587868966783746,-0.14027313857789153,-0.7444777393519983,-57.35182655564779,0.25436249129970573,0.4743303086733034,-0.27402805088420223,0.06146115658997982,0.35450870688549974,-0.02050561994398506,1.6861229796779043,-0.24361942513613402,1.4208556311225942,-0.4854330545312441,0.8569064452961453,-0.7053573280939796,-1.4526398810450394,0.6881616684507104,-2.0004650023743893,2.056274904760685,0.8846748252851018,0.11070220452492012,0.21299274665789378,-1.3657677049846202,2.2153228364118682,2.6202585267630787,0.43731153656871224,-0.21850923617176427,0.05354002944954228,-0.6061044097526539
biasActivation=0,1,1
[BASIC:ACTIVATION]
"ActivationSigmoid"
"ActivationSigmoid"
"ActivationLinear"
