encog,BasicNetwork,java,3.0.0,1,1547769654131
[BASIC]
[BASIC:PARAMS]
[BASIC:NETWORK]
beginTraining=0
connectionLimit=0
contextTargetOffset=0,0,0
contextTargetSize=0,0,0
endTraining=2
hasContext=f
inputCount=10
layerCounts=1,12,11
layerFeedCounts=1,11,10
layerContextCount=0,0,0
layerIndex=0,1,13
output=0,0,0,0,0,0,0,0,0,0,0,0,1,0,0,0,0,0,0,0,0,0,0,1
outputCount=1
weightIndex=0,12,133
weights=-0.3750824551017731,-0.8973777143106615,-0.2824439200763311,0.6033938553166495,0.27971405773941443,-0.4730930560838353,0.3205192115800952,-0.4816110124186439,-0.48457588272009944,0.39629166927242343,-0.1777570701271382,-1.1943834434028857,-0.5884791201336603,-0.370783280031923,0.16145856143056678,-0.095390670802144,0.4332469471380239,0.0427579608530758,0.0007875020509857368,0.35906286329484,0.13083277560263348,0.5297672888241054,0.8919746114613855,-0.27643220344674924,-0.017056299311038886,0.03710139273518788,-0.0024759280507353114,-0.1210146361608754,0.010076056835130074,-0.4069928893622313,-0.09517791032698246,-0.4231762179822013,-0.07174665036660488,0.6078697882145819,0.1466703750105187,-0.3041581392511746,0.1615205710578473,-0.6354065931102668,0.13939181775341697,-0.17006418935353,-0.35503460398959724,0.007946733887279744,0.016220911697949307,-0.3743345747082716,1.1507576981264236,-0.12577817403166813,0.014806551158815332,0.44306526638585486,-0.0069850518457477825,-0.10416884124696035,0.05845458984526399,0.0221106117861959,0.18790862950181197,0.2967798923792736,0.06154308162712041,-0.8693992124680014,1.1988677261594178,0.36406244685492545,-0.0655566085829103,0.06323585077944861,-0.004397442820390508,1.7238261483039519,-0.011238416763923008,-0.13158756851559017,-0.04072910077178212,-0.03105470161376658,-0.4630021062106025,-0.31351580845672566,0.0370935725602676,-0.3773111015471462,-0.23033207495938013,-0.08351748685811182,-0.08033879574561312,-0.7591030664290095,-0.14652126106728544,-0.44828499063283533,0.02667284879669233,0.5697604203015896,0.16319936018949446,-0.2260242794808432,0.019411867784853612,-0.4923237545464398,0.3570783585677858,-0.7812066101846828,0.14454125447193275,0.04771563835943399,0.2895169648640858,-0.30203633251491807,-0.8612610433146274,-0.1151817747726524,0.021882092908004795,-0.3971175030683083,0.11649456652659565,0.0947115948715557,-0.14650770501050825,-0.1308939238011495,-0.023030058483342917,0.188756958744068,0.01099403813721196,0.7371358297883819,-0.6465410936277457,-0.8241533597917494,-1.377212515037644,-0.21376892351655943,-0.10029546163200041,0.18734322844929688,2.793995318906998,-0.36421971932687025,2.2274527338853405,0.09375381876697121,0.5586867624699361,0.02948954429426138,-0.12674498167500595,-0.26917342765456576,0.0823812557269831,0.4166136750892926,-0.06622983286609996,0.30223447028322104,-0.10170403114577602,0.18838923343274436,0.1412756306142462,-1.2031008677645367,-0.20049614615366426,-0.27558661677631296,-0.33716121058938275,-1.280667765202991,0.09803032082242667,0.39769376159208025,-0.16664031322282175,-0.11380441275820116,0.05383512114425324,-1.959074724951408,-0.07146054506118348
biasActivation=0,1,1
[BASIC:ACTIVATION]
"ActivationSigmoid"
"ActivationTANH"
"ActivationLinear"
