encog,BasicNetwork,java,3.0.0,1,1547769762656
[BASIC]
[BASIC:PARAMS]
[BASIC:NETWORK]
beginTraining=0
connectionLimit=0
contextTargetOffset=0,0,0
contextTargetSize=0,0,0
endTraining=2
hasContext=f
inputCount=10
layerCounts=1,30,11
layerFeedCounts=1,29,10
layerContextCount=0,0,0
layerIndex=0,1,31
output=0,0,0,0,0,0,0,0,0,0,0,0,0,0,0,0,0,0,0,0,0,0,0,0,0,0,0,0,0,0,1,0,0,0,0,0,0,0,0,0,0,1
outputCount=1
weightIndex=0,30,349
weights=-0.11833689998501515,-0.06843105282964514,0.13384027862013587,-0.024440266595327192,0.4114134615851094,0.07857544808182881,-0.054827858447261825,0.36127977727955285,-0.1909348703501833,-0.060442713039885826,0.17377938212376387,0.04327398175678505,0.4819418449818181,-0.3092600809336376,-0.211888513643355,0.5404924798079183,0.023888740781945486,-0.03910523664569521,0.8050532992315559,-0.3328190824127818,-0.24356028633728138,0.5032540303351283,0.38294472754349507,-0.500528182114741,0.41222546404974564,-0.026908648764491946,-0.24709819611794223,-0.21527373302739664,0.07957216810944939,-0.25140166110430573,0.15513619702120557,-0.3049722058305016,0.34359218574315176,0.36327904006973843,0.19195162346993938,0.15266680947380606,-0.4445356639312071,-0.2231373761434764,-0.11819716443560596,-0.7944806874500676,0.46007519405280123,-0.11209988726673792,0.4780906331529735,-0.25725400690358535,-0.1285596334788796,-0.8636485024016025,1.485132317439216,0.15545454810143064,0.3253199827474136,0.15462427337699403,0.35634667148802446,0.3883058511993923,0.30539495120355215,0.6458356318204476,0.873845357269629,0.4035122817556122,-0.0361692670709014,-0.44193551938919656,0.23510425368449775,0.21264050522073558,0.029256114671001074,-0.14743873370690544,0.37332680160784415,0.3310338661142101,-0.2250147060033693,0.3859122936035935,0.1659634491425977,0.45805554978013807,0.10098107205080104,0.08740021448209036,0.06589452245000922,-0.3254413688945493,-0.1721863732040012,0.513942103163528,-0.23415409968336484,0.3512099426581634,-0.19628153120363315,-0.2449449450150433,0.07054683810508003,0.2697381870473978,0.3744878309895456,-0.06915572415625183,0.1015643071717678,0.0993715221288327,-0.8422575660065698,1.409230809724793,1.638250381532478,1.6377948329475909,0.4799778621977113,-0.14219428764201825,-0.1853321597384885,0.023920629127439908,0.19292151467301338,0.7262348780248201,-0.1615375822480496,0.5365466150766527,-0.2683892102702569,0.4201193614505368,-0.207171687932312,0.24939484549981625,0.25896655704962807,0.31395916540006097,-0.5358870831405874,0.28240421638038776,0.36339838633393523,0.31347730662932694,0.23898672479843536,0.07836247851659149,0.28670418254900776,0.32222148089256153,0.25188329696181405,-0.24313545196655628,0.28620489538905886,-0.0815939842030622,0.07337618969350382,0.4782473258515022,0.2000484143437572,-0.6961859300732575,-0.4703341792502251,0.8295411452508831,-0.219115142606086,0.7172222657814119,-1.7222747961959666,-0.3924518341635353,0.0069593187842172215,0.4576964545814735,-0.27577762166405995,0.36769763809347844,-0.06015872123020947,-0.2677424785202314,0.3982077002546294,0.5661117236037322,1.0986581182227046,0.02433703755274203,0.11314576188279203,0.10914909532021604,-0.3712388034814307,-0.09368053389299931,-0.40465608192980596,0.43456081730265844,0.04758048277083078,-0.5658313001788234,0.03478327247272081,-0.09900627798244489,0.3019907534040794,-0.4903710071638266,0.42933691652810685,0.08128617491032827,3.292216880761916,-0.3712167775586424,-1.001053006279241,0.8438156750440464,1.9356434879726272,2.022285639673695,-2.082178228596903,-0.008070095670432164,-0.3727484667736209,0.5671855963074757,0.5434193007741368,2.3277456588300027,-0.7106427459734354,0.5696539589322759,0.4746375350628855,-0.16805915287886247,0.3032229904465818,0.33521113616801596,0.0022769395986194157,-0.0629426032603613,-0.5568632384437939,0.11586998130269034,0.042105575891690616,-0.26875040331126815,-0.13853172742054035,-0.5304866573499323,0.011243132104634799,0.09687065993747587,1.883165254664762,-0.6075504209331017,-0.24946474374415445,0.021123559160967757,-0.2443028088201788,0.8601412072852954,-0.39669476712939145,3.349826082949636,-0.5288132889457253,-0.33940402063528985,-0.3008735524499557,0.10659722219444541,-0.4301733444203387,-0.0642269413456349,-0.1724452923364803,0.28374532328685204,-0.733532765375483,0.03536424950696418,0.4098943369656314,0.1524770458205949,-0.009292237104885626,0.12980513963500906,-0.3648762149973501,0.13614086465346156,-0.08495228754192002,0.5460295741692207,0.26404946974294163,0.06416000613090526,0.15885387447007912,-0.7189235526514469,0.030598601782530384,0.5236413971884731,0.38165385131055146,-0.1002356127157632,0.36099682378596964,0.8650972139475868,-0.542087384522255,0.028189424590641107,0.5679710263253479,-0.3875625984344725,0.2403646654641574,-0.3471167286347465,0.5556585053027782,0.2839131437559257,0.1808232136626949,-0.4796679723462249,0.25787139682194116,-0.052205341469760295,-0.03782180814216969,-0.058924996008257874,-0.5855258177312241,-0.08832719188183044,0.2610313615293232,0.24013217097835626,0.12638005876514857,0.11724824070499512,-0.36228161092043043,-0.16394794208528546,-0.043178025963344885,0.06711514117487449,-0.12752761392966658,-0.19774701742993742,-0.8371070626414877,0.20606332627100712,-0.0341000883129308,-0.39594595426702267,-1.3179683241981959,-0.44246793259224604,0.1688256310451043,-0.5145105951205475,0.10290021317900551,0.3324812086441939,-0.07215632135767551,0.34145130312010186,-0.5811679073751748,-0.8496679348819224,-0.3074314636738163,0.0031210387192765142,-0.10852604022565601,-1.5437492890571467,-0.2435615016973867,-0.16605387612826947,0.14361677376763907,0.2233465511048505,0.4599739920494965,0.10229702693619326,0.0653580320514042,-0.2594192139619468,0.27220529611097344,-0.1308595928204983,-0.07210483275883746,-0.20909931022159275,0.0733196788373114,0.3120794127364753,0.183545577092272,-1.0217415866273818,0.09111131353830426,0.2661219960630714,0.16062506222336195,0.11391030679229716,-0.0035850003036164055,0.06996155378184414,-0.7466858776555538,-0.2779446344161724,0.06268614766067446,-0.06274895564270283,-0.8318373745477528,0.2594877648983015,0.31933139691186757,-0.1287878012994302,0.11519062597938431,-0.05588622506118068,0.10005007924956036,-0.41188585234055836,0.13332316481228132,-0.0063848001482560935,0.22294218187084297,0.8041552066971264,-0.11425169382760643,0.05948513269010512,-0.15246964685599723,0.15224305392665627,-0.07906015107843924,-0.0521562612792774,0.6434266467829789,-0.15956801071555196,-0.1365272609681435,0.22330302758863094,-1.5608447352756702,0.23100128796856814,-0.046883454774352566,0.32364476407027426,1.3490245499964557,0.26429650678585137,0.06964352529872099,0.3059548148325595,-0.3793983201258231,-0.2109995013842001,-0.08484337692503224,0.5528786770032945,-0.2632552485919044,0.34708070984118367,-0.04901733759288299,-0.22985014247340566,0.28349448290735246,-0.31280156867451,-0.08713537754331117,0.3560533437754997,0.12936109608279842,-0.2246443559147765,0.27438072258401497,-0.40979405213683173,0.1459292748329023,-0.06872242618721935,0.13137162632628546,0.1650626088386378,0.18350547896411804,0.6487361643557924,-0.3919534062993637,-0.34735591424760753,-0.32476580525348964,0.2228194166862886,0.21531636794441233,0.11079238255157309,-0.02890289616385575,-0.16586647550044853,0.7037812160065332,0.8703434933650879,0.36507124084906617,1.4813333134812616,-0.2632341451593177,0.0535266694390888,-0.1051527730563041
biasActivation=0,1,1
[BASIC:ACTIVATION]
"ActivationSigmoid"
"ActivationTANH"
"ActivationLinear"
