encog,BasicNetwork,java,3.0.0,1,1547771117246
[BASIC]
[BASIC:PARAMS]
[BASIC:NETWORK]
beginTraining=0
connectionLimit=0
contextTargetOffset=0,0,0
contextTargetSize=0,0,0
endTraining=2
hasContext=f
inputCount=10
layerCounts=1,30,11
layerFeedCounts=1,29,10
layerContextCount=0,0,0
layerIndex=0,1,31
output=0,0,0,0,0,0,0,0,0,0,0,0,0,0,0,0,0,0,0,0,0,0,0,0,0,0,0,0,0,0,1,0,0,0,0,0,0,0,0,0,0,1
outputCount=1
weightIndex=0,30,349
weights=0.12564149364094046,0.12880122998863644,0.1264481835220513,0.31513795601963634,0.23717986165128355,0.4603102049986814,0.25145782313231346,-0.30734691005129183,0.48374776772087424,0.09530715908199688,0.3910847235537596,0.16514253222258532,-0.19405833954638127,-0.19863153636898165,-0.03289742904165018,0.3353004941635662,0.009045698665527199,0.04211351768889461,0.477425456471883,-0.11151427307885482,-0.3668771951451347,-0.1674554068521349,0.19033271006534785,0.03714737790114554,-0.03884098742364883,-0.11275162344117388,0.23829981751302942,0.1766676700558439,-0.7358071657089572,-0.44738841421313635,0.6158994467204374,0.5160594126034594,0.18635753022132076,0.2904103770097118,0.02467094253520969,0.41041599657880523,0.2633169698904357,0.5265137538041134,0.048552772040216984,-0.28002938106048414,-0.17225078225957594,0.765207644480124,0.3410785350658441,-0.23536313170865344,0.23025501186043804,-0.039085791342875216,1.0940535343796665,-0.11598003001901662,-0.12431480042492592,0.03630935631834074,0.1337763041157213,-0.3406122370723807,0.4280848897802325,-0.43953487788007006,0.09062819658147461,0.3676590735561573,-0.15696432249232944,-1.9886752869896982,0.06803033283759906,-0.16163889053388447,0.22707849881469688,0.24807139137674433,-0.16593450500208382,0.4509007309854189,0.16709587616975824,0.038251027760199466,0.3638345770511245,-0.24481101932210855,-0.007348397895206626,-0.020114586299021138,-0.2402790490476157,0.934895021184362,-0.1456035722548571,-0.5369063086325574,0.14165162075621188,0.5655609248890996,-0.41527213830422566,-0.6795336522162218,0.15393616717459319,-0.12312519885979423,0.03903604854681606,0.2009955520740995,-0.7779999943395679,0.0255190228554959,-0.6175006202358279,0.28989581435271206,-0.005041515180557391,-0.3041585743397449,0.19652877802423663,-0.046554414960458076,-0.12290305146495065,-0.35665337066418895,-0.15797061295365822,0.35484394790084944,0.2029761455639407,-0.9250851007773846,0.029013498530523214,0.13364858620350387,0.3611606654306059,0.060151053990969636,-0.04506780389667232,-0.09787038750543472,-1.045050919389207,0.4537112639294123,0.0817484376763166,-0.1488213745988565,-0.5148608856631604,0.005713647417344279,0.14984752226746653,-0.5323560091516019,0.5983127599771609,-0.08914561456821488,0.36345522252327084,-0.00427804765669195,-0.31927248526880303,0.3171641548852456,0.05344067054250064,0.38707439796695997,0.025823888882410856,0.09904508786042579,0.09776765331452705,0.009487254304662046,-0.0496460254943544,-0.06660802218634089,-0.26724183841733984,0.0186909130860234,0.5577713980975259,-0.008752248438074872,-1.170466132440735,0.5444749462959414,0.40014069056623985,0.06886081342519514,-0.23633066560654126,-0.0928265441836002,-0.42600957604185885,-0.005717523832119603,-0.8976538799063726,-0.12802435069832008,0.3738823550325115,-0.13400432590891792,0.270900638359439,-0.054532156364037174,0.46004918346685414,0.366800059368645,0.0025095783920268777,0.11897386003844468,-0.13762335498683637,-0.04641479079206535,-0.5164534016484088,0.04936102877100601,-0.9159836584735969,0.03654996438964382,-0.06795781461428571,0.6195310871452666,-0.32373923624538375,0.3600905823860053,-0.34134822761760975,-0.39043093310270444,-0.09191224099827884,0.1350667233890132,0.2785322683289072,-1.5767229786068926,0.35756709854459107,0.040809249557187594,0.3146110726857662,0.20397854528836887,0.09048517062671797,0.10693021188210305,-0.5229767832271265,0.2874496695753829,0.04825413203498856,0.014136027314720755,0.8257357447549011,-0.0006471477089249021,-0.04772248415431096,0.11607024294513289,0.3614451351583246,-0.5262290710338756,0.07309915130218222,-0.24344601779264,0.3919241151771423,-1.1394379216580075,-0.14983656844888063,0.8416719173056861,-0.38429822429948624,-0.32604390964522045,-0.11429947786193796,0.03899255722487557,1.3114561587161104,0.036260460838766745,0.04121083796028725,1.1139654044532599,-0.051013310648581375,-0.005597831359861553,0.06016466128140361,0.6067918457683037,0.2679230598162161,-0.028585320058404834,-0.3524029676620853,-0.09848200548784668,0.06719892113950877,0.2146465535944843,0.09204199941462228,0.0234566168122044,-0.13009316180072197,-0.6603028148619426,0.27704631679019354,-0.08157769647566594,0.33422971439765947,-0.39915772453656817,-0.4133774678969234,-0.2880909943229062,-0.12391610566720355,0.39326729733055094,0.2221092767497346,-0.540041182440758,0.5914685615725995,0.29132267833924586,-0.17572043568395898,0.037891303197154114,-0.19963181198445692,-0.4650483114237157,-0.2989271691137128,-0.7449060686574382,0.3884020371982233,-0.10105317663457819,0.9515733326645268,0.05914897777142339,-0.16212820290845292,-0.223363842887756,0.058191784712231,-0.07462097239321236,0.15063210264063587,0.22842885574815108,0.2808406859504354,0.1828097698149304,0.08782839526110996,0.19225250808615524,-0.8840437805425265,-0.035497457393190136,-0.4415682231609355,-0.29674777816838754,0.14855999607394382,0.21927730223009567,-0.9850471991511481,0.2955138783380522,-0.1545789016240693,1.416370038745493,0.17443716024899636,0.31611505401271894,-0.5676413375126091,-0.18924724475831883,-1.0685577530974097,0.5050452945228624,-0.0955431756950633,0.14721649578929177,-0.40885805865017677,-0.17289900909974923,-0.6116006524025047,-0.047661837562779696,0.16424540570686313,-0.31473722040756485,0.20030170625746174,-0.7683028117164522,0.2548866387229848,0.3074568731746969,0.349298205696142,0.0068538647402710436,0.15187344688948523,0.05408983970062731,0.6075465313239636,2.1759170198730113,-0.31233777110555005,-0.07042674272775191,0.30774994564351965,0.038877016233682504,0.46258294956358986,-0.09399079145888788,0.32554566482646413,0.3118793637753077,-0.5140908650736197,-0.000538886323127697,0.10300320185891204,0.3451033431825349,-0.4052170260426451,0.2500372609214662,-0.28167080812197065,-0.5456579864886925,-0.07095856757500939,-0.68222034371427,0.603383089424691,0.4399147957250597,0.49719395837566144,-0.19802031075748103,-0.6657782913160024,0.32332365070253166,-0.12370037183571418,-0.018920230195356078,-0.07553441805287903,-0.44314573227689835,-0.09494805273211288,-0.9803587441678041,-0.1409174966553766,0.5289631325798028,0.09066742318623279,0.211560804874227,-0.2849972145024933,0.0034141127611767453,-0.18187626179846178,-1.7812330660452518,-0.29261209074292904,-0.888681532431737,0.1738274462780987,-0.2545054055614359,-0.6030875144873582,0.676843013684377,-0.6491743960498509,0.06962965788744171,0.14726673525044784,7.330597386266511,0.5854066329609363,-2.10752272675743,0.3638224208811181,-0.5741395648220475,-0.2405519300961683,0.024706760422000193,-1.001449834672916,0.19784933112219535,-0.010738823074663334,0.5125065188202392,-0.1118050919951824,0.21015175159097665,3.115076381089113,0.44495843127243984,0.02784333968284279,-0.24979378419011208,-0.23661468592587387,0.1603589648315283,-0.2087676538441744,-0.25720145880960754,0.2763679663565735,-0.4223460278719589,0.16114984818551847,-0.2130738947743037,-0.679798680549669,0.007811363622719118,0.08931434115441222,-0.02427564175685196,1.1736715198425482
biasActivation=0,1,1
[BASIC:ACTIVATION]
"ActivationSigmoid"
"ActivationTANH"
"ActivationLinear"
