encog,BasicNetwork,java,3.0.0,1,1547770221510
[BASIC]
[BASIC:PARAMS]
[BASIC:NETWORK]
beginTraining=0
connectionLimit=0
contextTargetOffset=0,0,0
contextTargetSize=0,0,0
endTraining=2
hasContext=f
inputCount=10
layerCounts=1,30,11
layerFeedCounts=1,29,10
layerContextCount=0,0,0
layerIndex=0,1,31
output=0,0,0,0,0,0,0,0,0,0,0,0,0,0,0,0,0,0,0,0,0,0,0,0,0,0,0,0,0,0,1,0,0,0,0,0,0,0,0,0,0,1
outputCount=1
weightIndex=0,30,349
weights=-0.39064545672614015,-0.24659258257557784,0.2090857425567846,-0.07202930053823631,-0.434271602882341,-0.26190147193401103,-0.22288657730683245,-0.43693432807072674,-0.23729923727072827,-0.6643915140553394,-0.03514053793811878,-0.19225612397117461,-0.09481537609575641,0.16854061898800118,0.07188172443257275,-0.006449674724977428,-0.5014406034182906,-0.33349524583412626,0.35336857832673196,-0.010051442303457198,0.22801717227648563,-0.35249114024524686,-0.0968136207149872,-0.09480943745928663,-0.11113811406455923,-0.022735924913919958,-0.13816751618994208,-0.3132130138918736,-0.11852723378036038,-0.21467990199814752,-0.3008919334205429,0.27193721404468696,-2.4164576001290037,0.012758799496440064,-0.20126039162126175,-0.21618642796555293,-4.081484209973303,-0.16973815709077228,-2.5721446361434914,0.06216921391605086,0.04242982543998126,-0.33111011753964537,-0.009144471260384854,-1.7424248037925274,-0.06764664613453565,0.02568469450841534,-0.47057428116881944,-4.738170845446478,-0.06804404828586098,-2.505389460367946,-0.21488588705844716,-0.05536582734938879,0.3072942286811826,-0.713527047853594,1.9308596789831634,0.33527603298522346,0.26697443256845127,-0.08299540103641218,4.585658219561492,0.2488873870064195,2.615439947718058,0.02760677285262309,0.031193078490523052,0.47790607793047424,0.2806823732661648,-0.8971141141134834,0.5664766694819692,1.3659899498964667,-0.06695512775859483,-1.7058226953228035,0.30354605060279793,-1.2778635212230964,0.3919423976327185,-0.1955521857689553,0.32577599574332294,0.38763157950064153,-2.439946063457085,-0.22748136254479534,0.5783127650769337,-0.12659465972910036,-4.041448855139072,-0.06723736839084987,-1.8717713469564643,-0.3247193585812764,-0.23356763432508248,-0.2785203663169772,0.21086499367363445,-1.9892446616093564,-0.017842795802309467,0.3644636398427281,0.47517740402753184,-4.903436758617452,-0.19353105301847792,-2.0496552467940847,-0.3840928838105745,0.26986526180636794,0.3269215817916139,-0.34325396318911483,-2.4850597884162426,0.3405870786521142,-0.08724146370133945,0.22291250833609222,-4.170411156462188,0.009846478910209379,-2.257334492989067,-0.4476346205669809,-0.1645588630172179,-0.42531342563684293,0.4548815472700375,-2.17113810986893,0.11861649073425465,0.5168773496098873,0.27769695088573765,-4.464954144810769,-0.18464208265760831,-2.5769236468387273,-0.39145806054597454,0.1801334121626761,0.17236399293782798,0.32307985173117015,-1.5637605475656318,0.11487438177104087,0.027775302049833833,0.30547743123068183,-3.966177965942559,-0.32076349575978563,-2.5856045954370344,-0.020398354378741546,0.520251095810642,-0.39896718032763623,0.8002785981057553,-2.1111465843268524,0.29002194825235256,0.4948675884598631,-0.28979943411077724,-4.7039218807041605,-0.03440052137195983,-2.2683744721925385,0.1881746068744738,0.1903453509826441,0.4048213793412975,0.09781480197161598,-0.4337317850470102,-0.07280530812015375,1.4500435339940407,0.1364082579320339,-1.802234668936624,-0.26993871192672414,-1.0624454422032428,0.30795836408212746,-0.4089220693393416,0.14982543900376832,0.0021008392681160643,-2.191462702509065,-0.2248930618024365,0.20226156374099644,0.25969262760772627,-4.665686877610747,-0.1795653581284463,-2.178246608811017,-0.14149455520062798,-0.1950184097455776,0.47613407406603314,-0.02721737487407843,-0.3884082985804175,0.8917145090894475,1.803324404174362,0.16413314310048477,-1.0818262562398864,-0.021607197780815345,-0.5420386143564341,-0.2866873489155312,-0.3932724849380762,-0.33539794237580345,0.42675151090960584,1.6652287379399162,0.010373094122161147,-0.2619651528880489,0.15764876229571326,4.235904552187324,-0.20499339768416774,1.7996658978875089,-0.16198248677076732,0.19803967743976875,-0.24620333164248928,-0.3325989170000275,-0.23487486812952596,0.1967152807386885,0.2567118969222033,0.26335062371258305,0.7226105311946852,0.566433860590735,0.6581393680942949,-0.1677893891886349,-1.0208641258779583,0.49963550230913195,0.23414854592050835,-0.6270113984086236,0.3902501310117096,0.7683520066444953,-0.10739618038779265,-0.6603540187391393,-0.16507248017345946,-0.8637926193690366,0.14243491456348684,-0.4924288767068595,-0.22352659251716242,0.4329526712462022,-2.4462588481202285,-0.24166880192091703,1.1383029108124536,0.01298369546521834,-4.136139722793582,-0.2526765462100076,-2.643557629540705,0.01755983845208752,-0.21258952001057885,0.06296493697153127,0.6396040418097161,-0.48531296537922575,-0.08089288699019814,0.12273287886239893,0.40608657325834324,-3.9844204462520105,0.47735241278802465,-2.0946048171511755,0.0011653033124075715,0.373838834585274,0.2010341769378442,-0.23637355727222328,2.384798429168758,-0.023877745131436978,-0.9144910539546358,0.08489431843550385,4.788773662461245,0.15320428260618052,2.5511212076725918,0.245421353883066,-0.44338658197405373,0.49518130947668615,0.33415612357403646,-0.9337617384167165,-0.004652043426903417,0.970134836953904,0.007996915302370766,-1.2038770819944264,0.09148921392545685,-0.5315697351197854,0.03640164560326306,-0.3164828623378989,-0.25993388579635446,0.2889284542865102,1.9930882015401918,-0.5786665399316328,0.07904450641320782,0.05080320446767634,3.9963083223421725,-0.23056316163754692,1.8767144754264122,0.1477499123292568,0.21041681230928505,0.24596774223808474,0.518384043957156,-2.0648830244182386,-0.03622440253131531,0.4764207231074581,0.4252815238014484,-4.162539845430277,-0.21913414086548277,-2.4491417897039103,-0.0466135966915357,0.5217147923728498,0.18845803501802322,-0.09090844517065257,-0.2372631666296963,-0.05957230481431511,1.1954532340992723,-0.042563127833553704,-1.1991058153055558,-0.25797632471618437,-0.6683736240619261,0.4130925751723852,-0.16895582668991874,0.19468204368554565,0.03723776023490531,-1.0425573493987135,0.23841681774660445,1.0029249690897182,-0.08607395111856257,-1.3049753585845334,-0.28686733939455855,-0.794842636728529,0.20669820658463275,0.2318190308877616,0.21713522813777483,-0.0205277445633658,-1.791504805265883,0.3827037826322479,0.39479250450880393,-0.44696766572368013,-3.931409182120201,-0.23868840757276985,-2.4546426065172358,-0.5216408912361888,-0.0013611756228492453,0.34088220669165326,0.02610947350725121,0.3251465601651465,-0.2873220557340984,4.407582857794259,0.311938273231385,-1.4376459251442326,0.8572094931729002,-0.8146588123233988,-0.15524240531450553,-0.27865827308580926,0.31480282229828443,0.47615419843694823,-2.012892224402414,0.4458023371380945,-0.06126546859992527,0.3396732878283123,-4.643916810975125,-0.27126130990957403,-2.427258919089312,-0.1283006996049462,0.35700331212128406,0.28437181152184543,-0.15936893921631515,-2.510068060365147,-0.178078271891712,0.5614340600026833,-0.06657699568666038,-4.292041162472025,0.17040366588763387,-2.679592995508002,0.13929205739301626,-0.07304994985161974,0.32912086540629204,-0.4259677623578722,-1.6934632249667296,0.3867334342844905,-0.28166311344800454,0.34786686308450265,-4.394064223294785,0.11314490286890919,-2.2932625858726547,0.1820972109109156,-0.2820141499969614
biasActivation=0,1,1
[BASIC:ACTIVATION]
"ActivationSigmoid"
"ActivationSigmoid"
"ActivationLinear"
