encog,BasicNetwork,java,3.0.0,1,1547771315478
[BASIC]
[BASIC:PARAMS]
[BASIC:NETWORK]
beginTraining=0
connectionLimit=0
contextTargetOffset=0,0,0
contextTargetSize=0,0,0
endTraining=2
hasContext=f
inputCount=10
layerCounts=1,30,11
layerFeedCounts=1,29,10
layerContextCount=0,0,0
layerIndex=0,1,31
output=0,0,0,0,0,0,0,0,0,0,0,0,0,0,0,0,0,0,0,0,0,0,0,0,0,0,0,0,0,0,1,0,0,0,0,0,0,0,0,0,0,1
outputCount=1
weightIndex=0,30,349
weights=-0.3089232585134639,0.10627271897536161,0.005496667583185508,-0.34857019696434965,-0.07065251073412505,0.07045929649452408,-0.3990335823554087,0.2047798814100681,0.20647832931476695,-0.3135921482705677,0.13836909095882224,0.08532621961846999,0.24455410222275295,0.24367958484314697,0.12843692863579553,0.03954742631461388,0.21820184524428463,-0.6118401868842516,0.11991485298684187,-0.03588351431053696,0.10601089465104213,0.007083179604214827,0.27762334093720836,-0.2865797234164381,-0.21965945832881656,-0.33784438727308536,0.5122585516064421,-0.012814164605076093,-0.13547353408327661,-0.5051198878368345,-0.1942189287204755,-0.24500719626330392,-0.46693210099336047,-0.0549543009606221,-0.1693452243163312,0.2228525737598357,-0.2306882776778513,-0.4137959971902527,1.028708800899702,0.4726156389874278,0.619946201113987,-0.4680648186972856,0.12476620145733522,0.2169702812002375,-0.1650964204866868,-0.011131968425628328,-0.401181838485409,0.16177048704029975,-0.1436265147878441,-0.33897135111946275,0.2556898286435889,-0.5543596984264537,-0.38846996276056567,-0.08016288694129611,0.4326963378760561,-0.19389897543905246,-0.0012431734634439952,-1.0548569053442536,0.04338879757173251,0.2540722947278818,0.7769732848773073,-1.8459875082757011,-0.26063656404315505,-0.5277254047045274,0.02837953875548419,-0.3433769327066947,0.03321326957716108,0.2115757301956662,-0.2605133807758506,0.39839009613114384,-0.11578791981001382,-0.43719227644750475,0.24621628933333656,0.3601927288279169,-0.5555672311148115,-0.0027201353216292877,-1.4976096429945613,-0.21189430631576742,0.04507522573708005,-0.07576811110357823,-0.678595941020994,0.8103065751993909,0.0913958897532515,-0.5800314084832761,0.29076868681676044,0.36231051968608585,-0.18496990435049468,0.21683568439861203,0.06511344313958846,0.09141657237902244,0.7213914218135549,-0.3863043314562905,0.053884345316013264,-0.45273533952658157,-0.28970681286044553,0.0031916844482989303,-0.47597688105966646,0.0034726923997733016,-0.6327136992833131,0.10280948514636444,0.005911010344810027,0.23127122308382944,-0.7214790197039956,-0.27858771572401353,0.2553284597438401,-0.14683070285576158,0.5576948722493831,0.44436420941109256,-0.04583132492606852,-0.22951925857771338,0.6009329029105701,-0.24438905652372392,-0.38058263610605936,0.0426623269184391,0.5037267098193128,0.46445685164821376,-0.35291155107752764,-0.5831628670698987,-0.41290432787758524,-0.30279056792537645,-0.03595090121087567,-0.08686703582646968,0.5597083120341771,0.07731270950286455,-0.1403369611508436,0.32159216499923904,0.14906600488047522,0.24664667531816015,-1.0392036017897954,-0.5796838351748923,-0.4225712589530224,-0.1318337864039672,0.05023140050506176,-0.15915021255928452,-0.4374923226014069,-0.7497352058647229,0.5188526983323797,0.14384187600226644,-0.21778477109794375,0.5455961411890934,-0.18530861950089525,-0.24644984288172367,-0.04797383251126502,0.4101115123465079,-0.3500691194741987,-0.07591902967172692,0.19390724144027188,0.17505173637363244,0.4562718748074279,0.16545282666409888,-0.5670281564964632,0.29733433559504363,-0.28821537539721137,0.37212606806922477,0.02399505790458971,-0.5008689817826963,0.8925627603985786,-0.18909445549178164,0.23788204375063618,0.023197576703824985,0.2470047693525143,-0.13800130917842182,-0.35458226098451917,-0.3045329921611137,0.17794660364596562,0.8656012798063495,0.5865008780241671,0.18819158458163365,0.3406040485827206,0.024108962771171354,-0.15276129548142983,0.3270485029544373,-0.5405985683936526,0.536070576579504,-0.15967384462176698,0.2065035057582823,-0.25088173061178476,0.5546665370864771,-0.08716530827858264,0.26476081241280996,-0.5543050517716159,0.7487898127889685,0.07376941100947015,-0.3098405617799504,0.17157542285912605,-0.3715693822453591,-0.18158462270608097,0.9433499996405098,-0.3388867695634552,0.2962811134653991,-0.206513260778471,0.1351538578898951,0.3669104825866547,-0.5756176657066336,-0.6737057247849338,0.22367945007874876,0.05238068375388815,0.5609439984292023,0.4714944775017028,-0.44746243100894656,-0.8039999189595974,-0.4292999046609357,0.674141640571691,-0.12379896274740439,-0.28090439622390384,0.2933263593488892,-0.20293107171457936,-0.29630832419595526,-0.11271470884079565,-0.02647196043477401,-0.24151771737983355,0.4188888502505692,0.08365840924792849,-0.1981998426454891,0.4197992109450033,0.03108630245654468,-2.34213893831039,-0.4176955027678202,-0.20625439846929886,0.11595728418310433,-0.00920228792592839,0.08438526681069378,-0.15729211062437223,-0.31561665251688775,0.003781495624136157,-0.5684671486044862,0.015708078698316624,0.8728014787502327,0.30593806728294265,0.3481541882953785,-0.3846736867435746,0.24677391191678322,-0.09337053219830546,0.20796390020634942,1.2694703442127098,-0.15035378102201427,0.12290775340817395,-0.22498168392969858,-0.31539485076638635,0.02326721988404025,0.6493386133175769,-0.4657959200379183,0.2669346667963173,-0.1879625423465618,1.0466469288416005,0.19332410421012056,0.28295634592406704,0.23710417914276502,0.9064408860199454,-0.12748294483350592,-0.005363366371986029,0.4083102480273627,-0.06539329432200375,-0.3075853897918059,-0.5000235178339579,-0.31605500414324994,-0.45580525199642635,-0.5385668050493696,0.03165819909159481,0.4332004273430873,-0.4669879570548789,0.4374654404423555,0.1880677625154653,0.3466942383449353,-0.33874152652343936,0.09713176376789703,-0.36198854352458787,-0.5267726652353396,-0.494446987756836,0.28631341087754597,-0.450158894776275,-0.08614775956314501,-0.30313114648637446,0.5219691973352774,-0.06766015225846293,-0.001977156236669275,0.21302407275239454,0.2866244511234197,0.47962692505791105,-0.06424364676992608,0.7251269413379273,-0.34439519608068175,-0.5479122644352074,-0.45315482906906746,-0.36320084337655534,-0.27614896767502384,0.09963014485325133,0.2684553142793394,-0.15805605689588387,-0.13261686054179198,-0.20585059540990658,0.4018724530984478,-0.2445461846696228,0.826583983425665,-0.4713811371382711,0.14151410994124902,-0.34251919092008043,0.05209280439131864,0.3963193823367281,0.4213494153386509,-0.18114959771602523,-0.17070878034994064,-0.768342741251177,-0.2964245748134422,0.6257677346665845,0.05006660477724317,-0.17774557951669798,0.2592136812644635,0.16533885259204906,-0.39905380039819766,-0.03819501585056468,-0.052609396911020734,-0.5797502494488764,-0.11533652971270247,-0.7190946552138817,0.4743862891173797,-0.34123125300189744,0.17049615744589044,0.028598328268936806,-0.42565812607499676,0.30088040253302845,-0.26807754799609923,0.3117644031725408,0.15389503703120766,-0.2068941045148007,-0.2688971862146846,-2.379433213944137,-0.5960704282933734,-0.8574920362631022,-0.3988072977307733,0.366328746690933,-0.5487975013956742,-0.20215142743131723,0.32638218624739446,0.16877816464335602,0.11893530768339891,0.24403462916061258,-0.16649855754273304,0.3154027401979008,0.2119830093065142,-0.014139822656736634,-0.07331063290905904,-0.5049005683053097,0.6661076336463633,0.035033406146687665,0.1543647641487862,-0.06651445060788935,0.8552631446462065,0.31063307854529065
biasActivation=0,1,1
[BASIC:ACTIVATION]
"ActivationSigmoid"
"ActivationTANH"
"ActivationLinear"
