encog,BasicNetwork,java,3.0.0,1,1547769347924
[BASIC]
[BASIC:PARAMS]
[BASIC:NETWORK]
beginTraining=0
connectionLimit=0
contextTargetOffset=0,0,0
contextTargetSize=0,0,0
endTraining=2
hasContext=f
inputCount=10
layerCounts=1,13,11
layerFeedCounts=1,12,10
layerContextCount=0,0,0
layerIndex=0,1,14
output=0,0,0,0,0,0,0,0,0,0,0,0,0,1,0,0,0,0,0,0,0,0,0,0,1
outputCount=1
weightIndex=0,13,145
weights=-0.7201065111174799,-0.1105586985028775,-0.5864982761807674,-0.18232800354735396,-0.11530401064016065,-0.4862655801225043,-0.7315494398105241,-0.574605696276031,-0.16024358696002589,-0.7351772175987416,0.6130130014242442,-0.08985646078972144,-0.34421516354284226,-0.43629499018697665,0.2342200064807196,-3.577114169734268,-0.26140608945903404,0.5175597392287695,0.2824223487533471,-6.945255339146362,-0.28949504675760407,-5.652070263158177,-0.07305149594136832,-0.010920518778738977,0.5809360091566209,0.5352561069756917,-0.45776026317157137,0.42809312208384137,0.6860820322728417,-0.0755808589343695,-2.0728442087198378,-0.14881694752451358,-2.348755021322638,0.03463387491792541,0.26636908322590663,0.4485546763368632,0.2771617995660563,-3.520986817446199,-0.16541273535787315,0.5524311242716985,0.16268405980649314,-6.715948946521872,-0.3508145383613734,-6.343933878915375,-0.20820026952115078,0.08881800977364368,0.7116288151570772,0.0050005925082123644,-0.39531159151162054,0.6701715316205462,0.8271334182990362,0.01899588003780358,-2.7686495570753067,0.2799571567670573,-1.9418392916328924,0.22444254101603334,0.21431757371778534,0.9792422497323048,0.1301715362516659,-1.4087242833636742,0.8303380709340216,2.680227620996963,0.005952595007342805,-2.511495351521474,-0.024304667913188187,-1.5378527210133086,0.33007718304176503,0.13208649033210487,0.7453113640335116,0.45180551017621173,-3.5255517701679016,0.25343288435051103,0.3571974680518771,0.16039503627354934,-6.715779501181466,0.12384106226258833,-6.34971175953402,-0.05221271800836291,-0.08553387113660983,0.8421986388111419,0.34966881307157444,-2.304812041224013,0.17702296877568505,0.021328467180880863,-0.22534552871612834,-7.047534126119761,-0.1761982720955628,-5.904823427890261,-0.09214242657640663,0.60920837010965,0.9348124605446768,0.7246521932504086,-3.3264908428552578,-0.04768619743813279,0.37872262500835613,-0.2820348198328831,-6.790429258187901,-0.10251440107743154,-5.852754899276008,-0.03194745345920096,0.18175298047369703,0.5021349562598099,-0.1514001332032796,-0.8148050791284176,0.5305162755421701,0.23276420170802894,0.24355062904029062,-2.75090328859325,-0.3818785869358858,-2.377446808218718,-0.17562557138429244,-0.3493450375858348,0.425281349376165,0.6262141839398333,-3.300181673326794,0.14890939911712048,0.01071497918934814,0.057980355658602115,-10.773167987552256,-0.38138795983772766,-6.323836197268592,-0.11365886583108867,-0.19602354417111945,-0.37940930505218173,-0.19616221688563584,3.3980252769486357,-0.1788334393245026,-0.6005384961255616,-0.23228837070559805,7.168849209313844,0.3268516069445547,6.111201379417216,0.15345325716328623,-0.3455542552790974,0.7963310266629261,0.17918665905590936,-1.0192450020972612,0.06242842072837906,6.369414405146455,-0.09828357114451083,-2.396268675670009,0.04451847292810403,-1.79874015672776,0.4519680522405026,-0.14029473959788447
biasActivation=0,1,1
[BASIC:ACTIVATION]
"ActivationSigmoid"
"ActivationSigmoid"
"ActivationLinear"
