encog,BasicNetwork,java,3.0.0,1,1547771570985
[BASIC]
[BASIC:PARAMS]
[BASIC:NETWORK]
beginTraining=0
connectionLimit=0
contextTargetOffset=0,0,0
contextTargetSize=0,0,0
endTraining=2
hasContext=f
inputCount=10
layerCounts=1,30,11
layerFeedCounts=1,29,10
layerContextCount=0,0,0
layerIndex=0,1,31
output=0,0,0,0,0,0,0,0,0,0,0,0,0,0,0,0,0,0,0,0,0,0,0,0,0,0,0,0,0,0,1,0,0,0,0,0,0,0,0,0,0,1
outputCount=1
weightIndex=0,30,349
weights=0.30440409422605436,0.4037695834525666,-0.17732927452304992,-0.20750726173574643,-0.04233739854369722,-0.16306263921562897,-0.541489281898561,0.11948759682534597,-0.020436725069823,-0.12478691158183958,-0.030054243087997697,0.10980373649018314,0.3870062282009299,0.007991207040177029,-0.30178585403511227,0.2706844587101064,0.2691019139031201,-0.6922833509830433,0.10543839556237775,0.23414355291566183,-0.02120435013321361,-0.7066458012873673,0.20181930974288925,-0.5852507041169707,-0.5558406368394195,0.14527531108896766,0.2178515781495796,0.10625146977143955,-0.12745945212826987,-0.32649092310091343,-0.052735280001811824,-0.11268229610158992,-0.09324970584805131,-0.09147516066269062,0.39230309295893334,-0.1231696662592591,-0.1749835437089461,0.3832562953760524,0.08551550100600344,0.09992761010515788,-1.0122798258766275,0.1608005426738176,0.07968765989507796,0.19163798747072425,0.18721631019271393,-0.01310685124238099,-0.2861438333447589,-0.14750533197154053,-0.08064576886482488,1.3071242621366148,-0.09860245012293135,-0.8251977836547585,-0.1867206308140903,-0.18253193617244806,-0.4231748152911465,-0.08231798524905294,-0.18481562081526856,-0.3742774222784113,-0.9404540119082583,-0.605204061081895,-0.31424809200142856,0.645056499539004,0.7640622265362201,0.023827177799745386,-0.7014009057361905,0.04314982326578362,-0.04370675658372139,-0.3863470129841921,-1.1309134945484907,-0.18264449271183972,-0.22711793308910522,-0.6868086546407441,0.02552151843966121,0.19588264201045202,-0.6845090614811931,0.15470751133641797,-0.49001105014338986,0.3219153398079015,-0.057773008185394804,0.3406709126957998,0.6508962530742983,0.220657628258073,-0.1907984613501406,0.03250649588709325,0.09543810137483494,-0.027842191859715787,-0.5641337843388856,-0.24429151887974473,0.3593359683427079,-0.1476480872652995,-0.07061834756416262,-0.2751846199371964,-0.6955706536819825,-0.2656057144883481,0.3562194054016787,0.3865154473114373,0.10946517089414612,0.12834979843699454,0.21625283691406705,-0.7219223312013159,0.07161507936220672,0.15806106328641067,-0.4225002771202326,0.33397525799009564,-0.4791547209353636,0.2587463538047421,0.41884232943417177,0.8670117253788856,-0.1218259657991472,-0.3654788133474409,-0.23392479119874396,0.19403770782856716,-0.4224331610376156,-0.18785203663059877,0.41480357053504086,0.1897634594531928,0.08881714665684,0.04962219372076656,-0.16749335314320438,-0.5622250389170523,-0.32412262320414165,0.6655617314392326,0.3893127653766423,0.009545111572610067,-0.07606539130304528,-0.2259138097425735,0.10760814239129037,-0.5962270773532844,-0.06699024230100735,-0.871852628765633,-0.4355198248451461,0.10606318222429897,0.2726175496988941,0.7279845683418462,-0.022665818653171205,-0.3339381513156367,0.221589561374584,-0.08915132979123962,-1.2010165111786248,0.8495200866586702,0.11412678978330733,-1.297974368160465,-0.34984786514388944,0.40845075177499984,1.126384005002404,-0.06728349880444263,0.028748903273790198,1.2093849667042733,0.22018874601140712,-1.0427039694666849,-0.23402189333044898,-0.16438335545048452,0.060614721350973316,0.5353559442913722,-0.6172638067307504,0.036519650938611356,-1.1834515444740983,-0.3225169169044164,-0.09955536787591615,-0.5665826835802553,-1.1041602252437817,-1.1806708479508465,0.25755843329409006,0.14614281344245303,0.11404877965605434,0.07500909446904394,-0.09689074817330913,0.12111904444054272,0.9154792682143372,-0.023485679772437883,0.06982075361460179,0.1499490719378923,-0.7528211343335723,0.5928688663115721,1.6119601631433431,0.02135559942812276,-0.02871780953065288,-0.023333197251382515,1.5881736799600388,-0.44190731086360724,0.08291869818130958,0.3464163860585178,-0.5048712170981406,-0.04856153078747655,-0.45892166642379906,0.10045598700392533,-0.03165315797693081,0.20397590717282668,0.15401329490745358,0.2308772104258773,0.20498086836193224,-0.6874315359365522,0.3855091431151356,-0.3902748106716339,0.19629645970352208,0.835400055500569,0.38862477441439075,1.605176858556753,0.8168839598812285,0.07530474283181698,0.058834090242625765,0.5112013431661407,0.4809859061978829,-0.1828977873664774,-0.09925989332886524,-0.3565827094932265,-0.4283526167027007,-0.01708845451256596,-0.20276456130888737,-0.2038818942937033,0.5661401938172698,-0.21714932592133881,0.19645425118924045,0.22029869028292703,-0.09230599718221606,0.3267014053952484,-0.48451882057223983,-0.34033304487968413,-0.03715619975815356,0.21920084750357596,-0.17506471363506537,0.04333389823237915,0.268809116037509,-0.4675055670337103,-0.005703231402936654,0.12366394518382975,-0.020269904654999105,0.8702356133134017,0.15938830977359883,0.21857917274517602,-0.9322822074396828,-0.06158912237714871,0.02206846701133493,0.3379913432395374,0.14519779185111886,-0.5981620610529564,0.15694994672625262,-0.1292212831775207,-0.8282776239987057,0.27491975783585826,0.21516416338155606,-0.020274176567004226,0.10738759129022554,-0.09730708292109058,-0.018091568276887016,-0.3506203605426165,-0.2528485204040524,0.11486512247427351,0.23287164367599555,-0.509065944352156,-0.9704046675560618,-0.8609750282386803,0.18294537104728723,-0.7537908655151578,1.0552914865613638,0.43779481004590304,0.003982412015873947,0.2525885826893409,0.3096046709274566,0.337972453605188,-0.2692505751475662,-0.1970359200852147,0.2143670687481549,-0.1700133470759713,-0.03571898470366303,0.14636660444888425,0.19751067010875467,0.08015369553840213,-0.23385212989684684,-0.3051256087404256,0.013659348986150278,0.8715267944780323,0.21031193280113203,-0.050118740737910644,0.2590372036743786,-0.21019112210094093,-0.017669590459541206,0.12687586805388879,0.0623596293978584,-0.052553119533877535,-0.9549377136746926,-0.016685053394929143,-0.5892246775929161,0.30953528590928375,-0.009218824533165176,-0.30384824136229505,-0.23072207229115507,-0.30766508808548376,-0.35591135205150815,-0.01811893394360096,0.2999748873635765,0.0850193176147015,0.12401070824101997,0.8049922329474358,-0.12263767460916022,-0.11193839710072245,-0.41911732954367475,0.24471285452683303,-0.006157751906979142,-0.02677849812696227,-0.02626661792385555,0.20722142228255813,0.6131414878596453,0.04781991536645226,0.7728106890873219,0.2885622369939883,0.1953079570648859,0.4040926403926368,-0.42049607787137133,-0.07895442168210622,0.09602332607022358,-0.865332522393727,0.008383752311859864,-0.24933024525707773,0.08447113454557167,-0.2316758396311188,-0.16254062427924848,-0.23679828691705448,0.02295578516397459,0.13108872429429955,-0.34068822687020633,0.6139981409462911,-0.11242035799012175,-0.04264206708562618,-0.10664010166202857,0.5336941150807587,-0.4853826902206001,0.4772659273960521,0.7497760283822068,-0.1530099607187933,-0.13119723156922403,0.3272097502664694,0.02967426384812196,0.0284772713185939,-0.21381724268929142,0.05422434507759974,-0.32993851924906564,-0.2497980581917739,-0.8085377306335205,-0.3383624085808623,0.1093075732120902,0.242857648651811,0.31876940120310454,-2.801198526484454,0.23576997316333914,0.06921266311741098,-0.130664410065679,0.27532966742198967,0.2451013119711154
biasActivation=0,1,1
[BASIC:ACTIVATION]
"ActivationSigmoid"
"ActivationTANH"
"ActivationLinear"
