encog,BasicNetwork,java,3.0.0,1,1547769878843
[BASIC]
[BASIC:PARAMS]
[BASIC:NETWORK]
beginTraining=0
connectionLimit=0
contextTargetOffset=0,0,0
contextTargetSize=0,0,0
endTraining=2
hasContext=f
inputCount=10
layerCounts=1,11,11
layerFeedCounts=1,10,10
layerContextCount=0,0,0
layerIndex=0,1,12
output=0,0,0,0,0,0,0,0,0,0,0,1,0,0,0,0,0,0,0,0,0,0,1
outputCount=1
weightIndex=0,11,121
weights=0.28031788376360134,0.8284777985468725,-1.4111398472797494,0.7950514869759773,-0.18588213517532906,0.7774661523148864,-0.4937062825048218,-1.0291257770304756,-0.5657495467017707,-0.07458313894320219,-0.6980562614151755,-0.4673118766509566,-1.4001356186923768,-0.8121258991027672,-0.40524149248821256,-0.7407571630024891,-0.009844628059522655,0.26851982923073087,-0.08701396379414623,-0.4402034105364593,0.2900480579663573,0.9014867349155984,-0.18941195080027728,-0.1785594892061389,3.268954391565388,-0.4403748917336544,-0.4080362179470249,-0.16464155289516952,8.108422368653839,-0.4050093000142669,6.20878337288953,-0.05822877498254372,0.388646028519905,-0.1499077253879782,0.16796883143768207,0.38557123902414925,-0.038117888384146904,0.05594578691525108,0.11684850062296763,0.29963408380567214,-0.3524649102380925,-0.29691102046627454,-0.14344270493007702,0.6880046920864555,-0.036880339352081404,0.14241611431513954,0.9430244861823552,-0.17544740989839677,-0.7005028430866047,-0.10376737178932349,1.462799241312029,0.016272973509734615,-0.3460433681298111,0.0030096790508385794,-0.7666098726031342,-0.4071592147391176,0.23968680591753377,-1.399829695772394,0.5986999669289178,0.6736921946834542,-0.85567230918303,0.7774983602537938,-1.101632320893836,-5.557311727053722,0.22456133314970533,0.8662242581428561,-0.10827017667249308,0.05271855770906192,0.4753398687281522,0.581014011554713,0.6248569937108572,-0.7468629220870696,0.7315813767704428,-0.3606171805339802,3.0924389390721965,0.0584160599519214,-0.9069912828197672,0.05580029312996778,0.2993312782004091,-7.996581934996424,0.13167110992757,0.11379234963152392,-0.23643393711376293,-4.920523979597099,0.3078423596078832,-9.856680308352562,-0.19189632898643302,-1.068820683628238,-0.0211141229839948,0.02798537669926507,-0.28904008938167475,-0.16040542311161235,-0.05533587469748298,-0.6220061732629255,0.20942230963741051,-0.09064740975935272,0.8023876097764868,0.278348713348104,0.11051332067686977,-0.06538920211759708,-0.04650154976961451,-0.2581189580138799,0.6562730355254731,-0.04309644059925478,0.26864038396686124,-7.172343258712412,0.8241247069076719,-0.7621770857658783,-0.18198408115632128,0.7297452593252408,0.3452167536028975,-2.8813050122566857,1.5170499287601826,2.834056740807365,40.13605496956656,0.0748821838909138,-1.7795646786005928,-0.25372812004646456,-0.1206867301368883,-0.5055077132813003,0.0725359833847347
biasActivation=0,1,1
[BASIC:ACTIVATION]
"ActivationSigmoid"
"ActivationTANH"
"ActivationLinear"
