encog,BasicNetwork,java,3.0.0,1,1547770055192
[BASIC]
[BASIC:PARAMS]
[BASIC:NETWORK]
beginTraining=0
connectionLimit=0
contextTargetOffset=0,0,0
contextTargetSize=0,0,0
endTraining=2
hasContext=f
inputCount=10
layerCounts=1,30,11
layerFeedCounts=1,29,10
layerContextCount=0,0,0
layerIndex=0,1,31
output=0,0,0,0,0,0,0,0,0,0,0,0,0,0,0,0,0,0,0,0,0,0,0,0,0,0,0,0,0,0,1,0,0,0,0,0,0,0,0,0,0,1
outputCount=1
weightIndex=0,30,349
weights=3.56332380539944,-0.4790449939495415,-1.616708280313674,-0.7900839397236059,-0.6423312763998754,-0.4657211099994501,-0.2586770581038655,-0.6041045460347748,-0.3069173919910904,-0.010726048463306858,-0.07405980245496163,-0.09947310440676066,-0.716865713066933,-0.29964365532291576,-0.4325478384506522,-0.31901786667041665,0.4821881332530231,-0.27804726012217096,-0.7777498045292697,-1.0520407434519439,0.19727125635115655,0.9829309536580687,0.8400279904475048,0.3267163600336285,-0.2766844459719792,-0.996897436622493,-0.6376886321636909,0.5555524335973995,1.3926231773152504,-0.005467741565192322,216.96063684454734,0.30432589829044215,-2.8099127797929393,-0.14159227309018563,0.7322487381848016,0.299849821643917,-1.333118927708075,-0.0490667947348248,-92.7563978294878,0.132986955834375,0.03441728365188033,0.24806239374315228,0.39600491636043034,6.97700272761064,-0.3356765734540185,0.17612438777864514,0.04021654744589693,-3.2208015380344435,-0.3850190040235781,-1.5844411354629868,-0.09188403591336115,0.5509154375252959,0.3405970992621697,0.16924204113434044,-2.9026159998081384,0.05884913829774949,0.2221413876273237,0.07576270535969523,-1.6633789117863444,-0.07307843357118057,-2.436941257415479,0.042419375662432285,-0.4512043363124851,-28.75488498520492,0.05397090620340901,-2.410803107049841,0.14323448751737008,0.19332725443990534,-0.058679912103692874,-2.1260456494387783,-0.09678308948516565,-1.7776243520248227,-0.0013565167262892227,-0.2276363453163052,0.459289525339555,1.7650484342603776,-3.2536474234970165,-0.19202769679541995,0.3181009649672493,0.29671923524485366,-2.6207922171392055,0.24785589895904048,-65.10484546650183,0.345328858902175,-1.7050836297887846,0.11303923389601253,0.29582046609021095,-3.075246563709379,-0.041046292058588826,-0.457618171579853,-0.22772180235997114,0.9049761720308368,-0.1402373904501837,-2.327117288112183,-0.03014404175682183,0.35135197586738753,-61.78553419507456,-1.9951317581002308,6.852575702988334,16.948974891649552,-1.222565451937515,-0.1563553559661323,11.26312366452471,-0.5032599865320933,7.397271149948161,-0.4639455449364589,-0.607851656946403,0.49190780640930704,0.09887054407554581,4.326273881893467,-1.4321964048541742,-0.5254050016969548,0.2909135606654893,-2.5998137581104497,2.845475278478773,-1.4809108937209259,0.149410994507392,0.47306305908404767,0.42325618386154173,0.2992518800499801,-9.103133973709491,2.0649950889599635,-0.012165007548662024,-0.8546769300981811,-2.5702045368440936,-0.0025394277633165726,-24.499867564855695,2.3145663188515937,-0.8486370556506776,0.5451343950652834,0.33159373050057356,-577.7200363195334,4221.485605309198,-11.212928998342598,1.675439629533861,4085.360010620846,5824.417804368936,3055.2030423230094,-1112.3307709561193,-0.27085985846632443,11.21241642799444,0.2765273173827431,334.61122383431683,-2604.0618766194934,0.12188707868367127,2.618462744724808,-626.1048889079074,-1456.5171913395793,-3313.9734875929603,-0.8511089375746196,-2.4608430562045895,0.24246546915254752,0.9906469023791712,24.055481749145212,-1.810892269356207,-1.4168487018184712,-0.7559801351932293,-54.8876838200426,-10.109388533263916,-20.54178401221876,-12.575952708515272,-0.1258644515880309,0.4072926099489639,0.20780418391405822,-2.757049264415715,-0.08055721821426175,0.08942116792450111,0.047866577480768564,-14.435259108136663,0.031063568707722897,-3.04911062268911,-0.01063682192420542,-0.2832857503215604,3.4146260396696073,0.9606094542994141,3.312036790136294,-53.55633845351922,109.63103416018848,2.3671016560838036,2.1219579463981915,-4.358704873997294,1.8689255913466265,-4.357980282637804,0.24065624816163447,2.5450033254883504,1.075530610610014,324.4523371191049,0.38010587899557563,1.915312324864314,0.12797763990780586,-481.7496178108916,-5.204647535252813,-92.34326436452936,2.860169689478321,-1.2810753371471477,0.1267861551882971,0.23828874567236583,0.3645136729732077,-0.2706457271768967,0.499543816168277,-0.08837495362616489,-3.5988065043628086,-0.24026794446734492,3.6619778055565226,0.014018330407530179,0.17160225801217058,0.7750311525961819,-0.7712080316077141,-171.18772922597336,-0.6513060963903679,-6.108901012130752,1.7897974829362366,786.95550216719,-2.79163485309391,-644.1221346783334,3.6934571899481843,-5.70999400369792,0.591086812761027,0.27953853642488125,2.357618324946053,0.34523340880663106,-0.44574675102982014,0.8981669089988705,-4.361601040745194,-0.9649145247507761,2.500785957279661,0.13949797636403627,0.40759902487150645,0.3214368059808982,0.20114155428159888,-2.717295330288865,0.11385507011071723,-0.2610940576455005,-0.0902803321787326,-2.1746332700654745,-0.05186007578255604,-3.1181923790365342,-0.046860985646616296,-0.14294811357157108,0.30260906566349416,-0.2933670397802112,-9.776270165786924,-0.67422249232654,-0.25486896985107277,0.2153055555638333,0.5557915877912947,0.5721310161009533,-25.460930156035026,-0.019953950644822388,-0.21359298249288444,10.315647950187651,-0.19206818646126625,278.52987127112607,1.0858847587592182,-9.23575321345213,-0.2578460941663843,-264.77323297513743,72.0574670587987,-83.79326704757982,-0.13674498187789386,-0.8705048463478093,-1.2770450831141624,-0.440372997266989,5.4292055433842545,-2.1822300056514656,-4.377080039952316,-0.397106929300805,13.911499804125285,-0.22226602038126708,19.052255527501362,-0.18805981209058817,2.248280196808055,-12.376214669981836,-1.9172864995788117,45.66974745462534,0.006730468967135766,-3.0827214921747723,4.732045478054928,-425.89920318479886,1.098943414995329,380.0582787569117,-0.3693860562412685,-3.5885983876634904,-0.10119760102104929,-0.11953184845903178,2.1868942375511007,0.006822515241917408,-0.3564271775923424,0.09924539245705714,1.7647599797550755,0.07760272100069096,1.730466445633717,0.037250992101629625,0.16364249965052016,0.2887192753173026,1.6422858297438658,0.2623290280398032,-0.9366088963427924,5.647896957131124,0.9146077560800486,74.1959808229782,-5.405307570821167,-181.22185394863243,0.03620821467629682,3.809351750704233,1.1967364438022634,-0.34571205582544046,0.922941881187936,0.5154252740405919,0.3608534449055342,0.7712149674281857,-205.41357637400145,1.112733044067793,204.79320559838638,-0.06166779325533753,0.10859420665389623,-298.1857022494119,0.46888163488336626,9.498642862430545,-1.7447519450389115,-1.4782119519801693,6.126596941650438,-2.5550237941535006,-1.7907083206393057,0.3413265472623655,-0.658494788042493,0.14880297310102114,-2.3662821996096404,-1.8477333910959333,-0.1365586038776775,9.827323474078169,-2.7535000562237344,0.6631556616742769,-221.05008636492707,3.567768285733672,490.4383000733605,-0.07202722624859265,-1.057664444464436,0.006932743440836983,-0.15651854911305008,3.0616902881192183,-0.020978526387894315,-0.1397429188949471,0.05043352748644999,-0.7049624034519782,0.20741106745395613,0.3576775707781478,0.062129612557241067,0.14824827767973706
biasActivation=0,1,1
[BASIC:ACTIVATION]
"ActivationSigmoid"
"ActivationSigmoid"
"ActivationLinear"
