encog,BasicNetwork,java,3.0.0,1,1547769474406
[BASIC]
[BASIC:PARAMS]
[BASIC:NETWORK]
beginTraining=0
connectionLimit=0
contextTargetOffset=0,0,0
contextTargetSize=0,0,0
endTraining=2
hasContext=f
inputCount=10
layerCounts=1,23,11
layerFeedCounts=1,22,10
layerContextCount=0,0,0
layerIndex=0,1,24
output=0,0,0,0,0,0,0,0,0,0,0,0,0,0,0,0,0,0,0,0,0,0,0,1,0,0,0,0,0,0,0,0,0,0,1
outputCount=1
weightIndex=0,23,265
weights=-0.1872671448238413,0.09571985095615487,0.08367953600760543,-0.4715829084812345,-0.47923428697539994,-0.5577484922816268,0.21856575527509575,-0.04862178177700463,-0.03482778495881262,0.5410652021018436,0.33876972908730185,0.5039383633734922,-0.38056883965644983,-0.44330379580700346,-0.4329736779415985,-0.03575017152460028,-0.08697906834405889,-0.20873263346614987,-0.5541078148290973,0.14577872329398397,-0.1816062060285515,0.13653527924406925,-0.6713879456520829,-0.20891063717400224,0.11346562005397613,0.568212258038014,0.07381950218881571,-0.5414993531730029,0.38707754133615324,0.1621907601735766,-0.5443767152876325,-0.60956708364719,-0.4646720001474872,0.09597885075323778,-0.004316072135207416,0.04103242352180525,-1.5599100730198896,0.0374198501423741,0.2801893998692241,0.3441228609746596,-0.2852034783080693,-0.30349996383299116,-0.13047833815029494,1.072682016749539,-0.5031069862854743,0.17746628662350833,0.028855718957467174,0.09148347816018687,0.27094358679073766,-0.14215527347638587,-0.29624771283148205,-0.11775839498095578,0.3859909598167157,-0.9477317965094777,-0.24641401007230204,-0.4779540011438417,-0.0701626515634273,-0.007182861723912835,-0.42577809613647183,-0.2750398358532939,0.19580480570378928,-0.3735629866108103,-0.25078654667021705,-0.19126994399324856,-0.07294108758918665,-0.23347397649434837,0.8931095198948932,-0.41777339257901014,-0.4387195520788302,-0.6066525197191696,0.19726545007321297,0.06034007266257728,-0.24903322540648815,-0.1183684016494961,0.027358338366426534,-0.17888924668129122,0.1942349311281785,0.5970890160186758,-0.03137539532773148,-0.3255279512954039,-0.17607195086342792,0.10471798271330714,0.008922238560373396,-0.08175797707365504,-0.5004045110411044,-0.0611175254200015,0.2007903212632877,-0.3171923700522169,0.6201627709250297,0.210539202994294,-0.056425668230584175,-0.638569956843227,0.2635937456657677,0.1560439764911916,-0.22170680460381734,0.23374601065652972,-0.4602633267278467,0.07784607769483927,-0.001981216026144641,-0.4238238911860352,0.0919229818259495,-0.4694339421444387,0.04563360596101538,-0.32214655622247934,-0.22288381131492838,0.27291804162611705,0.05316699985567502,-0.5848864397784374,-0.23606588895201575,0.332700471847266,-0.33421704036715816,-0.5915134330414029,0.10081731084955467,0.008406239394383775,-0.3989980697993813,0.45550080383287905,-0.2667085878163137,0.6208376831225852,-0.11852472014985273,0.46855396062706217,0.0532604219105904,0.29147361275246275,0.15216763903314656,0.024958384021121046,-0.1191316820549541,0.09930763627010059,-0.0930622492133257,-0.27874765221461184,0.06091426783320016,0.0034018468042363026,0.3648724923401721,-0.12127629956633185,-0.9997168256180471,0.5188009900763438,0.0741168460410995,-0.2532526513123988,0.30549784764938737,-0.13660206812437928,-0.0109544121129682,-0.9550179267844721,0.01935892931319482,0.0978224069824206,-0.435923599653546,-0.41371289161806735,0.2801296976425,0.2726555223960578,0.1726719086889503,0.48038816903515863,-0.04256496612656094,-0.27095331294596364,0.2538114108982765,0.06141400750421648,-0.3909134232192462,-0.0803599538572309,-0.8110340618714745,-0.2922261361650195,0.3318675876819084,-0.2577759146073051,0.0007419611007602597,0.4216495953306553,-0.2967761952613928,-0.07643958315001707,0.2889898547275372,0.1400537097678396,-0.012606557683473907,0.954964095360846,0.04318719055556634,0.24358430364198277,-0.5880212884778045,0.2184225074505295,-0.3419458613447094,0.028829968125111568,-0.452815937974549,0.09256737245188502,-0.8522761397754056,-0.007755386996600104,0.4582689252974916,0.03302123136760041,-0.39813073549135136,0.047008789556764984,-0.31269696224930676,0.39713034004274683,-0.03343912399447446,0.15539025508115464,0.11138196264431297,0.27628495504682254,0.23561204802889196,1.0168322352105752,-0.16313792018676135,-0.3240107078186065,0.05934347133029551,0.006570160383191453,-0.18587585919615274,0.3789498665477379,-0.4194127756343058,0.2944624725478697,0.09709167864279761,-2.0595996019896408,-0.027834226936175595,-0.45613752699914983,-0.943479972710584,-0.17746208728681906,-0.45836468595230195,-0.566131701742705,-0.014068567044033406,-0.20946001316508372,-0.9824002491772095,-0.32289037739779897,0.4246833607833235,-0.09787298473133912,-0.28167882530045324,0.4442383247727097,0.1576914976477059,0.34390049999996436,-0.18596796332670532,0.46112328684226594,0.42370035183415633,0.004699914600837447,0.1767353054836883,0.43362504191614815,0.2113139682006792,-0.36552450099242856,0.025198241915940556,0.18768599895589413,0.14573605350005872,-0.41692046493486096,-0.039245235307812154,-0.4195043764080787,-0.10276379368253165,-0.31921776956484266,-0.08742474495385755,0.8734663585791851,-0.497283373577506,0.23318365182079573,0.28579893180764826,-1.2132981294790037,0.25969530650488604,0.11267643531391536,-0.020737264753277564,-0.3213209900296856,0.2888301188168176,0.290026396994253,-0.4315747070793405,0.08110230666126467,-0.31277123681777774,-0.3533585541536129,-0.006225421964290706,0.07058126041563263,0.2771652078032449,1.2479393959529888,-0.22903431140560004,0.0325995733872279,-0.18102687049404864,0.5690049507637236,-0.23690313254911977,-0.3592901574224755,0.3731251422190852,0.031807324153881746,0.2917579694607453,0.2513855899459519,-0.3350484230728013,0.041448377640829995,0.0861822161743749,0.0908379240500116,-1.0061194106893436
biasActivation=0,1,1
[BASIC:ACTIVATION]
"ActivationSigmoid"
"ActivationTANH"
"ActivationLinear"
