encog,BasicNetwork,java,3.0.0,1,1547770433634
[BASIC]
[BASIC:PARAMS]
[BASIC:NETWORK]
beginTraining=0
connectionLimit=0
contextTargetOffset=0,0,0
contextTargetSize=0,0,0
endTraining=2
hasContext=f
inputCount=10
layerCounts=1,11,11
layerFeedCounts=1,10,10
layerContextCount=0,0,0
layerIndex=0,1,12
output=0,0,0,0,0,0,0,0,0,0,0,1,0,0,0,0,0,0,0,0,0,0,1
outputCount=1
weightIndex=0,11,121
weights=0.9431535583735118,0.2637381041478084,-0.3940822054535805,0.24507090667336118,-0.2741653049670592,-0.3451440581374591,-0.639123001732795,0.3593804893656882,0.8281007503919772,-0.33018150189835777,-0.7613641334006384,0.3489072075268737,0.18930928114891754,0.22056845645685977,-0.28990141632372657,0.17490743640027087,0.07029756177656557,0.24812199856404712,-0.09445686526290994,0.19101428859243008,0.0003159318455817472,-0.9044015062517856,1.2431506592783634,0.38565731218713056,0.23095310936682276,-0.20080227370547232,0.08464228362390928,0.7777761808771343,0.7240632477424477,-0.002339754354705577,1.024547943198913,0.034240290932807595,-0.26208622115845037,-0.4235950170233886,-0.37300005880164716,-1.0302978408466017,-0.06685407567061713,-0.1639254223457894,-0.3610142313129949,-1.1613523002839108,0.8252233442178311,-0.5068677637165087,-0.15387973866601787,0.4615845352966623,0.3204210281544447,0.014708295587635905,-0.02444224544760085,0.27571746314276757,0.11349076030239078,-0.34042799906421256,0.27731503754817416,-0.1058652785513967,0.3538604972762259,-0.12650420189377495,-0.34240850214347324,-0.026447462790061847,0.23813632710062854,-0.2563303863286533,-0.5626696108093722,-0.242260911052893,-0.36068781573428116,-0.0698378683126408,0.2353677190945278,0.31410455803292275,-0.3168248157241349,0.20656920044935995,-0.34553977178791406,-0.10812191816282939,0.2274924768304195,-0.41448447273247224,0.42531456560719416,0.07625358177878482,-0.23742522221547468,-0.5560359178319768,-0.027007326461693168,0.23601018263325807,0.5192237213289992,-0.33253582127172193,-0.0027138408183148286,-0.3179248978591452,-0.1633766342704655,0.19179262657333848,0.059309945312290446,0.1280358716061614,-0.2470529902046561,-0.21788470129754994,-0.1122462064484094,0.7082877189688819,0.21000560465735923,0.18518574077623176,-0.4135123269172558,0.015391084801383358,-0.1488876723141052,-0.088750769345018,-0.22540881478029745,-0.3415818213692504,0.09243945681683478,-0.02669450091636773,-0.9624989407663456,-0.33190250494311113,-0.016967988448312887,-0.11958362191533824,0.016082648567077546,0.08234530163295492,-0.22524257986364649,0.513351352282285,0.2614768751560119,0.05127450699352029,-0.06247199615794012,-2.2699583174891096,0.3347796359634921,-0.1609021880617901,-0.2804364252718621,-0.2465973757925966,-0.2962955364429809,-0.1240514981662894,-0.8394330709261731,-0.7129962006768017,0.0027201202203990553,0.009164793309759119,0.26038433368239305
biasActivation=0,1,1
[BASIC:ACTIVATION]
"ActivationSigmoid"
"ActivationTANH"
"ActivationLinear"
