encog,BasicNetwork,java,3.0.0,1,1547769094378
[BASIC]
[BASIC:PARAMS]
[BASIC:NETWORK]
beginTraining=0
connectionLimit=0
contextTargetOffset=0,0,0
contextTargetSize=0,0,0
endTraining=2
hasContext=f
inputCount=10
layerCounts=1,15,11
layerFeedCounts=1,14,10
layerContextCount=0,0,0
layerIndex=0,1,16
output=0,0,0,0,0,0,0,0,0,0,0,0,0,0,0,1,0,0,0,0,0,0,0,0,0,0,1
outputCount=1
weightIndex=0,15,169
weights=0.5618104702851695,0.4894116232963419,-0.31957912464233995,-0.2714895966837392,-0.15671229477111873,-0.6985684718234068,-0.6094667406976422,0.21943382466444225,0.284483254034708,0.8937994447531292,-0.9236725441814038,-0.2553402666824301,0.19732234884704342,-0.9173691211847025,-0.5631007426997756,-0.15050882088832102,-0.3409382651366035,0.33570614788118114,-0.08808359363546363,0.08930355041959127,-0.11486242713954734,0.3369895990503108,-0.14805099456648152,0.17770657421664487,0.13580362927830109,-1.0804388868430972,0.27260532133525717,-0.1609753135220255,0.28220159737915257,-0.0977329088812764,-0.020102935334173445,0.16830892383813148,0.23812938325655095,0.4147655602891539,0.18821678858773966,-0.05460261028264969,-0.7153288576576228,-0.45398921971301015,-0.1852088388636123,-3.46876491380787,-1.1242130526158975,-0.42208491877380466,1.6458130462920928,-2.109093544364199,0.4561420161303618,0.5135158964413422,-0.5178930056635174,-2.0724491445048483,0.051014323068192306,-0.7743605702118763,-0.1824459202709923,0.15536352056576613,-0.8561164149545037,-4.966691566260736,-0.45509175949663994,-0.9267187052377895,-0.2798279706917613,0.5790217238735232,-0.49907366710685735,-0.2706078373843606,1.5460547566558331,1.2926128756910888,-1.0725703803061977,0.6245255710238126,0.28525407313667234,-0.17922063757824713,-3.326570876536068,-1.0497993320019623,-2.171058460095075,-0.6932109235867199,0.09737339710982404,-0.4078358838101399,-0.049739760528261144,-0.40201818823092955,0.12484692818843215,0.09485917288703762,-0.3227316219567223,0.16783485271754633,0.9512207206014935,0.015816844218130524,1.2136715038500456,-0.43680021553329357,-0.050997328167711894,-0.47570643285063785,-0.013353497842637216,0.18250650379160124,0.5187663521593927,-0.0936733146298437,0.3450241012492471,-0.03394035789113256,0.2011153104821023,2.6080300898346103,0.45646103541684413,-2.492036666198434,0.3446959316489676,-0.3221580723667379,1.5891719951965502,-1.1455209149673173,-0.055906894918345724,0.4200609956014317,-1.4201904242930086,-0.1251277265791898,-1.2655061859683874,0.1434601417652861,0.640628147251258,0.07227150625297606,-3.750626982305833,1.0914366591179963,-0.08498532744289578,-0.1798246469945725,0.6388478629926404,3.321319597661078,-0.06261796291474087,-1.8998753025253015,0.1064883723346478,0.12073266744841768,0.5594523913204079,-0.10932127624886817,-0.18804920586808282,0.09133237649348085,0.38326391558839873,-0.20315315318043603,0.7964335927019133,-0.06142448319062502,-0.3637880931199271,-0.31539115746437396,-0.21731336154575534,0.3369184545385608,-0.07935897259296196,0.02765568280863426,-0.10470947472746218,-0.16925520300569938,0.018427388220368487,-0.20059454216217987,0.06962511831593758,0.6471369401406409,-1.9472041723897104,-0.036036038035746,0.2865747897382792,0.17586703023989314,1.046235887574537,0.9388095437865164,0.8175713810341833,0.6243882521463188,1.1783907481106581,1.3827924538214023,0.34470272398710666,-1.8261063883699804,0.1250146016818485,0.0664655015629018,1.139169645967461,0.787361083074823,0.37018865891215075,-0.34228256522337913,-0.12107757566927846,0.42042820452014956,3.2605124413444844,0.3107412750435045,-0.22908520653972442,-0.15913974342693146,0.012751244337687182,-0.14653386067863733,-0.02819170048216976,0.01164916572327167,3.1895172051029297,-0.09667172445119727,0.19602682812113867,-0.09365853911795247,1.111154828394869
biasActivation=0,1,1
[BASIC:ACTIVATION]
"ActivationSigmoid"
"ActivationTANH"
"ActivationLinear"
