encog,BasicNetwork,java,3.0.0,1,1547770818869
[BASIC]
[BASIC:PARAMS]
[BASIC:NETWORK]
beginTraining=0
connectionLimit=0
contextTargetOffset=0,0,0
contextTargetSize=0,0,0
endTraining=2
hasContext=f
inputCount=10
layerCounts=1,30,11
layerFeedCounts=1,29,10
layerContextCount=0,0,0
layerIndex=0,1,31
output=0,0,0,0,0,0,0,0,0,0,0,0,0,0,0,0,0,0,0,0,0,0,0,0,0,0,0,0,0,0,1,0,0,0,0,0,0,0,0,0,0,1
outputCount=1
weightIndex=0,30,349
weights=0.1558964021546108,-0.06490509526447853,0.09463714261605931,-0.35721998212824363,-0.509456105136175,0.5290893257040667,0.11968597380400971,-0.21340186174854875,0.14951129003299884,-0.30699549466275705,0.026416649667417004,-0.04629564934066301,-0.49451510059502113,-0.3911910566674265,-0.6914934446899664,-0.11981434597641995,-0.17976486731269908,0.20331976577549166,-0.3817884147220132,-0.23130784460267073,0.408519944954342,-0.10487788996787678,0.2978966705634142,0.09177421826636281,-0.17146744365494565,-0.5162830720060518,0.008778901913766025,0.24967826323038017,0.12814490889707741,-0.3737198295327974,-0.20052850368918518,-0.26756007709761453,-0.04874126287568011,0.2320431038924842,-0.6379950004597427,0.12035168878303491,0.17466741648666384,0.5530329118533018,-0.3273654365862321,-0.10096743002773478,-0.496841940067646,-0.29749949262710595,0.42110428481785184,0.07735011981548155,-0.23635456308601605,-0.27549409474069947,0.4132807593454658,-0.03130555114456559,-0.31416147914242765,0.5891849528225996,0.13426316673102265,0.01937816369163629,-0.4523482039738755,-0.545643065071579,0.37647638128136723,-0.0060843205683845025,0.6260830821389576,-0.7447301878475042,-0.18919552033060402,-0.8626726041635819,-0.9513836033863989,-0.44115663454191634,-0.18116342089701568,-0.04983693557873211,0.058320798087191705,0.23282247552738897,-0.4992629100571612,0.20004471476946595,0.01256515010399994,-0.03603305326119857,0.030326832090928894,-0.3496201686074819,-0.09210802482602984,0.689819326270896,-0.5742163256580702,0.20792055240788898,-0.28406365148843693,-0.13171331196348293,0.08321835610210027,-0.17600380099514873,-0.734464727635714,0.013693776405316728,0.06575370539229909,-0.1651344335129477,0.5600744558205624,0.39808816691767623,-0.0324008086471072,0.33480160496600486,-0.1438832928165308,-0.13977017763237157,-0.2681253790169295,0.055827935958379885,0.3977617994227157,0.3423191050953185,0.016153774897315114,-0.6421083380556362,0.40254191298926123,-0.09846346723322742,0.37388076480279503,0.1445559511332457,-0.23364897703598758,0.2834000847881731,-0.30923410076249236,0.12000556182852129,-0.05293172836942757,-0.8608852754951226,-0.05865849257594138,0.37247722868336786,0.18027773631214605,-0.052814476996177355,-0.048910946109545064,-0.27943299820333706,0.13461960555945593,-0.48495210656473736,0.5367157974407216,0.11531599224852171,-0.11086933285329335,0.44862083041361517,-0.00016801236023874892,0.5460618930541288,0.21290501906077988,0.08721101010415043,0.3466005144334549,-0.5676045183098054,0.3676602787950216,-0.16365696316101477,-0.25794870441703704,0.869727770789818,-0.40353964445406504,0.0834469593621334,0.10296694867248778,-0.6237203991366035,0.2797429212236252,0.03219018015553652,-0.35651399635088754,-0.20348946646596588,0.2122204636708605,0.10324394641864153,-0.048584191475940224,0.8145851169928001,0.5720483634603074,-0.012084850732726464,-0.37141827616961626,0.12575858883448204,0.3779989052452313,-0.23540547412962234,0.38500834162526704,-0.3967226803736408,-0.0452188499658738,0.3695218431916658,-0.29974742815359445,-0.4021516855889298,-0.12567169883192225,0.3436825124311514,-0.5058932591700284,-0.2187332097597175,0.26700694980733125,0.2406407961751001,0.5954276098415362,0.846696881361087,0.4116284797535825,-0.19047878574256286,-0.04366707652563133,0.09265988807442244,-0.549667882191353,-0.09366706691881979,0.2519914501465232,0.11107647434017669,0.24131339699508772,-0.20705537755838693,0.22649225932005085,0.376687369668952,0.6872203694196153,-0.04399617825831698,-0.22999009935339682,-0.02955015914758622,0.15172901630375285,-0.14727754017918623,0.09528327185467483,1.3696976574819733,-0.2588074513391678,-0.22050807630903468,-0.033810522050646365,0.7533799107067201,-0.037346016320966506,-0.2665803140575618,0.2666698024435463,0.1208711351280046,-0.11766240859981557,-0.08337790794553301,-0.38011835211396405,-0.06288609891332204,-0.3579203004575604,-0.11509784014553315,0.8645007297673625,-0.5536845161350894,0.3823866439367977,-0.06097044045335752,-0.42832358449929847,-0.38056063317417627,-0.2461208499607303,0.14805524887887545,0.2642163383507602,0.45475559977256075,-0.17095765565593454,0.31161794018103656,0.22349864923081839,-0.20168242810111162,-0.3709324134816275,-0.23205125104093996,0.45857592231500827,0.09396258447501939,-0.29310204766900927,-0.028185560811751897,-0.19205046772319934,-0.06148531920659753,0.6647474564652612,0.9826482840823347,0.8307643800916105,-0.18302307117165986,0.6077023140264917,0.4567194413147851,-0.055825623579436816,0.33575589918801324,1.162035246332213,-0.0365004032281742,-0.30214214519731225,-0.18484911695739606,-0.494705397821356,-0.009696724893224876,0.4070996208760526,-0.11495453547456694,0.17351587756467388,0.15532310755061268,-0.22682046721459326,0.14866972908989357,-0.13863860869741018,0.07642547840510357,0.8081878949483241,0.16231161184201942,-0.04180092176625646,-0.12774938873007216,-0.16678999370689773,-0.10551916457136043,-0.2957718568592212,0.30831527049048685,0.2751088621869985,-0.1461940636268637,-0.07504537567325734,1.249183779186937,-0.35118763465253666,0.1253308145622514,0.31622387373101024,-0.02570017519201178,0.19547156264923485,0.06705150679766629,0.2024916639271663,-0.20939271153193384,1.4669697021234933,0.1379651435724355,-0.8819477615628998,0.3278510847596563,0.5844312322252808,-0.20629137233174638,0.7926295854937973,-0.2325334446456946,0.15452424314564647,-0.29900515736702,0.14427130669718108,0.14485745866579683,1.0506675550805717,0.6386787864711988,0.6015656399790692,-0.14813285225057576,0.28746930373540797,-0.6217056519398162,0.9179982111854191,0.09526309080316556,-0.10574222958175263,-0.3453794473100267,0.35856829933933854,-0.22064511888515448,-0.3321029371643026,0.0950673629577585,0.48342821779511974,-0.24592169953987605,-0.14365070969960622,-0.33807121595401934,-0.06957196882518986,0.23553372343281487,-0.2903222262848491,-0.9566966134545056,0.4317907887888607,-0.4646349210701557,-0.0259522875886138,-0.27589183384579524,0.22252405389896493,-0.4022366987982024,0.09401187979889185,0.14517661922743283,-0.32447220523222436,0.2532347421914978,0.14767543680609446,0.1466482131708504,0.42983710522361435,-0.2181918352432367,-0.3560782178275592,0.09516926419168978,-0.010523191275094206,-0.14784049979314626,-0.28969121119608693,0.20548622705790573,0.15616971666988314,0.8966535177073687,0.15512444908167586,0.6920017636901599,-0.21292589171933712,0.6749294553686894,0.5727220195733549,-0.17638960862295752,-0.9864886935044931,-0.15294277819350138,0.45775504005067036,-0.1895949591713578,0.146739938683697,0.6186170303599056,-0.01587401371509376,-0.21057012809372416,0.3962229063964408,0.10450539699807333,0.14780861710623083,-0.3159932983890352,0.19270965129176365,-0.14423204065426595,0.28148024916740333,-0.4581171347213648,0.35571935384061043,-0.4873677650735128,0.009136798480902927,-0.030050349285826315,-0.33447040292330105,-0.09844382557187871,-0.09425985187591676,-0.2393241183570401,0.2616158741368705,0.31131205600166456,-0.49768507725142996,0.7365094493299125,-0.13015734325763634
biasActivation=0,1,1
[BASIC:ACTIVATION]
"ActivationSigmoid"
"ActivationTANH"
"ActivationLinear"
