encog,BasicNetwork,java,3.0.0,1,1547770338713
[BASIC]
[BASIC:PARAMS]
[BASIC:NETWORK]
beginTraining=0
connectionLimit=0
contextTargetOffset=0,0,0
contextTargetSize=0,0,0
endTraining=2
hasContext=f
inputCount=10
layerCounts=1,30,11
layerFeedCounts=1,29,10
layerContextCount=0,0,0
layerIndex=0,1,31
output=0,0,0,0,0,0,0,0,0,0,0,0,0,0,0,0,0,0,0,0,0,0,0,0,0,0,0,0,0,0,1,0,0,0,0,0,0,0,0,0,0,1
outputCount=1
weightIndex=0,30,349
weights=0.1429141010954892,0.03575922509853746,-0.3080917404234708,-0.07214391673514395,-0.07257629227087528,-0.27701373622481734,-0.2787553977031274,0.150579353962359,-0.3541578322947822,-0.2119477884451877,-0.4298633949620586,-0.33790486988095936,0.184932989890921,0.29528963826091786,-0.042882228251213725,0.21919333247161707,0.1423809354076788,-0.007235659426922689,-0.5162837885885053,-0.207667260793286,-0.6896821942126937,-0.3947433621599245,0.1536121714473867,-0.06344137714981817,-0.30254153109825094,-0.2514444876215016,-0.8129282462445019,0.10220263785875054,-0.30542341581195515,-0.08204180659871677,1.258872407916601,-1.001203663839223,-0.08611244055707126,0.6982183737796576,-0.33178203224549985,-1.4030843018915164,-0.13939928483024366,-0.0512663608733448,1.0357062759538471,-0.4662227058628787,0.02531825208100175,105.2584575315203,0.34519298885865857,0.9141544705676123,1.0610754842896897,0.7539950644038748,-48.64884969902303,2278.1872060152973,-1.0560089209526369,6.248123663978086,-0.22084362375051306,0.02007514707819974,-0.008276916949102339,0.6971023348064574,-0.3923088460822479,-3.800571143640686,-2.8898479510686816,2.4506454622643736,-1.8665370615077133,0.3372103480287554,0.048737939017606376,-1.123167468873304,-0.05234173000761173,-7.081890033370836,-0.03232411768262959,0.11847215679485779,-0.49212858025242934,-0.07136483070755197,-0.5127968250820294,-2229.923899210078,0.02704489679321658,-85.54140576456884,-0.022968174621423837,-0.0072853104313493604,-0.8204156475505352,0.12025800230518284,-0.340377858877754,-0.5846500803960984,2.0458326829350897,0.31013202894273867,0.6277157487320244,0.4959359643823328,-0.37500186166833277,0.6150979804535006,0.29853493012170557,-0.8754116854064531,-0.4944311869401173,-0.26532222581440185,-0.004208376053831352,-0.5319519608873732,-0.33887780648167526,-0.013791205057685444,-0.0036838716577559127,-0.25010184226079274,0.49686100165761826,0.14939940634181478,-1.095327120393604,-0.3690075261612145,-0.05342979824934572,-0.5045073786467933,0.5436354520112484,-0.665257377721014,-0.023183705545565016,-0.18842897536042935,0.17678306071086672,-0.1110279989848148,0.5229258288488932,0.5477810912745592,0.31984619789681507,0.3388961108362638,-0.1924374015794979,0.15412405776560786,0.4281422396672963,0.14368752960467862,-0.2573525684035095,-0.019565858800007118,0.38712256580848037,-0.37790284910633504,-0.6966401661938053,-0.0837282202077728,-0.07305124586608859,0.2952458221534719,0.7704412206572816,0.4385995347966751,-0.2623107609764722,0.48357623555997936,0.15304914620606339,-2.6001949005114855,-0.1718569204854762,-0.7042712635824424,-0.152663750847394,-0.062459525920952705,-0.0070641859067134055,-0.44413275724300705,-0.3790552846449615,-0.1442308909387925,0.23506347589205465,-0.19143670315306188,0.31893369317774045,0.4989045933716579,-0.7071519782165039,-0.41747865657770666,-0.5679577684553478,-0.378625516322023,-0.29841578334384794,-0.039078773710363286,-0.223901684178066,-0.8607546173401768,-0.15546429553035224,0.24031698475421145,-0.16601062213835435,-0.46090883182943326,-0.35492342767103735,-2.129155910066766,0.18320708495078936,0.17721312775598488,0.21093894905898863,-1.6572340825250103,1.9442535006930837,-12.876174448511986,-0.12943734055947642,0.17590039971782548,0.3167981482609495,0.4648110232232446,0.37740763800581795,0.3499747054804422,0.028689425924942825,-0.2987620004269181,0.0392325855165172,0.253689142698704,0.10708483939028243,0.035141791142490074,-0.04205014350756011,0.07537097978063191,-2.1597028866350483,0.19004831844648273,-0.1668558568563056,-0.7975941682339739,0.3139912138140813,-0.09201385708901023,-3.190504844409527,-0.4544165894883302,-7.668344035536384,-0.39533525932685537,0.1044330823512422,0.11176461808317971,0.28492961699951347,-0.6522696356754509,-0.08549821874263114,0.37480219050330443,0.21068532619159358,25.45998458539635,-2.0829812267228167,-0.16500319141581224,-0.42168264130034133,6.006490437455724,-0.34640114288425966,-1.494385336220273,-0.39339599230213657,0.3939469529408537,0.17980827140670608,-735.2807104201161,-0.16374788872018345,-0.12106647947612861,-0.14411205218702544,0.5452974439512597,0.45715452880146124,0.22602796587790927,-0.0061817046684767615,0.6472570118071229,0.8616748782341426,-0.09342790933249281,0.4906351326894392,-0.18858945045131625,0.7226467157176709,0.17580001041446713,0.08053375595579762,-0.18131165914008637,-0.11997031300559624,-0.53844342917059,-1.8042714109863784,-0.5746690272893447,-1.2473291550335122,0.2859469493680269,3.338936721611915,0.2895756316720674,0.07183425793758785,0.18419806974273809,-5.545123104805637,-4.167489370781833,-3.3030798748488426,-1.1455904830512555,0.5975464806254266,-0.16306891875925766,-25.07249361975998,0.054790865216254675,-0.7805426786406826,0.07769274750580035,0.19366531184330124,-12.016874298478243,0.23436795094637153,-9.844760951880888,0.16809633431571222,-0.010261866937168527,0.36886559567262106,-4.114731059345313,0.6179572063782427,-222.01921216452087,-1.7857856298308719,-0.4411006266803587,-0.5333612110553624,-1.2518263610736493,-0.796778117914581,0.1995680999090936,0.4062255883759297,-0.22822244923069546,-0.34397049699361554,-0.1738745605675944,-5.361093383482954,-0.08952163610346063,-0.2917999683370036,-0.944132609137182,-0.31539862563146814,-0.03161440548400439,-0.11417501339284318,-0.4768234466025768,-0.22835814065978172,-0.21926629187062427,-1.005279114410952,-0.09816360355303438,0.22767506510724242,-0.10508086584813346,0.024105526386500604,-0.3720740132194259,0.2992891081278869,0.5430358886517248,-0.050555100024905944,-0.17606853212837498,-0.8057968565725514,-0.4029317605543821,0.0049871179725390355,0.12042516336140512,-0.061507778438275124,-0.43143015054922546,0.35849592148172094,-0.3380948794329778,0.08431607369564488,-1.5361586347982672,-0.20033263785831437,-0.3152902885844925,0.4138198543906741,-0.29543651897406514,-0.1515764519503865,0.09403110083054471,-1.6124834115475035,0.42382292274837585,-0.2916680306764784,-0.6506120111779036,-0.8951854893825314,-0.06160459593847815,-0.2445931077956425,0.15314065949718925,-21.016014924804303,-0.2145206807235564,-0.23989932067532277,-0.17706876361475982,0.1551759458691556,-0.39447530530346764,-0.12268031043664673,0.26705212831352576,-0.33339297703841836,-0.28969236591623354,-0.030136624096379107,-0.1332910014032191,-0.16223817655710057,0.6328104266323116,-1.0492237753701878,-0.5431478951972544,-1.52255076617155,-0.044416752687801334,0.44062175929786934,-0.15226255941989877,-37.544351783815074,-2.405786575364799,0.06449593462366895,-1.0102477066733981,-0.10434079428764727,0.24645959522410535,-0.014434548051710468,0.41871452373665763,-0.8993226233543317,0.5798398517968901,0.6685905775085165,0.4934457510123224,1.4997302680647615,0.3787842494772758,-0.4903213418634653,-0.27211842547907883,-70.16040741770462,-0.13447831351667502,-3.676127672423552,0.006078222576681842,0.45186130863253476,-0.9410677068739117,-1877.6781896675075,0.1305597430067365,-77.38896930427998,-0.2751944422297455,-0.22177976873736932
biasActivation=0,1,1
[BASIC:ACTIVATION]
"ActivationSigmoid"
"ActivationSigmoid"
"ActivationLinear"
