encog,BasicNetwork,java,3.0.0,1,1547769279463
[BASIC]
[BASIC:PARAMS]
[BASIC:NETWORK]
beginTraining=0
connectionLimit=0
contextTargetOffset=0,0,0
contextTargetSize=0,0,0
endTraining=2
hasContext=f
inputCount=10
layerCounts=1,18,11
layerFeedCounts=1,17,10
layerContextCount=0,0,0
layerIndex=0,1,19
output=0,0,0,0,0,0,0,0,0,0,0,0,0,0,0,0,0,0,1,0,0,0,0,0,0,0,0,0,0,1
outputCount=1
weightIndex=0,18,205
weights=-1.4458067324540864,1.0763655565994161,-0.24444170353043806,-1.0386880686354878,1.571119982206169,1.7026231648678833,-0.6137336742682867,-0.24843064988837363,-1.3536365578738887,0.32619375378983984,-0.2700315591897197,-1.3547249785774564,-0.34078306384560536,-0.43801122488357735,-1.5614505013357602,-1.1980779531992722,-0.37712710631573404,-0.26706334771091794,0.1848397897863729,0.09372659037743564,-2.814240781596849,0.10356265376187429,0.025466156395990418,0.039830152712623156,-2.126725969783573,-0.21162221994404445,-1.858388051144574,-0.0037685694034686585,-0.18576471183054033,-0.07776686895043147,-0.7797738459944071,-3.8094227473097435,0.010449448694678997,-0.2741000432177603,0.15893993230506337,2.5125678753636422,0.2409714259003356,0.5875238994398023,0.08475184558533397,-0.13930082988508605,-5.80302193271205,-47.114525423647514,-468.68385293941446,-0.23792690752820336,4.313660511094278,3.9956696933909672,216.76531109848523,32.250813816189606,807.3865680250119,0.007205360943204431,0.1478142036417174,0.057865215957764365,0.08913090939033788,-2.2186503543897143,-0.2874300618417399,0.23955805055188092,-0.019874585789455636,1.6816248665131506,0.22487975284207043,4.359858755598685,-0.22829812899165935,-0.17867628095277943,0.11641609196411794,-0.0428768527696583,-1.1693615946169087,-0.40023949419167293,-0.3595464970482718,-0.042033130829129184,2.134785040209844,0.3028838822425922,-1.1805070092103385,-0.032658850743986445,0.3112204640231342,0.38119713170878305,-0.12555581370485053,-0.5900289775985981,0.11873607762357971,0.3063366825067799,-0.3209838957644648,2.558153891493133,0.12224078311789553,3.7047727923188267,-0.07741616424051344,0.20627495347662367,-7.245317407666178,-0.012389789070214242,6.471183017992076,0.04956055569786698,1.4699581451312893,-0.2636883135700582,9.283486197420114,3.968756423899101,0.36472265590337277,-0.001587956527216554,0.242690611566345,0.42044867039362915,0.2229278656394014,-0.2109149396041943,0.03340490382926464,23.12131775482413,0.3022193384818225,-2.17299873579522,0.5492237602512879,-1.8068404744003634,-0.036470441898517975,-0.2670537389830848,0.07336793758765821,-0.018660508305687058,-1.8278309965229826,-0.1440024551022032,-0.09336130460393363,-0.14563150401718927,-2.3632168728017047,-0.12017986194872543,-1.3189083827852373,-0.0028634601968531145,-0.41311680460708733,0.7135715007918128,-0.08421198808297534,-22.707369038270127,0.3643078930920981,0.5992428274558004,0.0442405857639496,-87.25648813951122,0.3963447660498226,111.29991058183761,0.04799627631043537,-0.4738004260910776,0.884292903573268,0.053010543217810985,-1472.2058640390535,-0.36638686027233147,38.95371139933985,0.2782252551472819,-1370.0293651145196,-0.07689979785085495,-860.657214582991,-0.13339741525590845,-0.3566462382006424,0.06859914839004623,0.0760807411068373,-2.08980781655834,-0.004664663870752945,0.16877074478198092,-0.1976989022763483,-1.791064636927408,-0.07437896918425693,-1.829957730696179,-0.010498982370760721,-0.3380642311251086,-0.12313627700986701,-5.679639133138596,-996.1379196684009,0.0519747190872069,-0.3114648453252479,-0.3834486288049567,930.0716490866507,29.76450571379825,-2053.302310860543,-0.36852567820091964,-0.12048193424568165,0.13006899821354762,0.17982832111489758,0.5507196680717129,0.679779820069543,-0.05835433734314295,0.0501559881364328,-2.8165885301910616,-0.1884213575787392,-5.128583489678055,-0.08051756126389487,-0.26515264509863123,0.1601911665783355,0.14934885834587944,-2.23513801722407,-0.14447269569842952,0.0481664796396158,0.018370131064003467,-2.6031646306582767,-0.18236045545314225,-1.026123425752871,-0.22034005881213045,-0.36891003416688667,0.14577688494675944,0.04968095765628132,-1.9535759464402815,0.10784996016869025,-0.0716251717666612,-0.08616419245090957,-2.2902223078136195,-0.09073305253428804,-2.290278056391334,0.09783402420040119,-0.4233741819261771,-0.017550668472223474,-0.04498380476445004,-785.6832688571164,1.1603657270440317,3.3997866656594997,0.17190012744560418,-2232.4889284384794,87.23730271245584,-693.6086526954163,0.0032212691845370906,0.23867483558064653
biasActivation=0,1,1
[BASIC:ACTIVATION]
"ActivationSigmoid"
"ActivationSigmoid"
"ActivationLinear"
