encog,BasicNetwork,java,3.0.0,1,1547619856781
[BASIC]
[BASIC:PARAMS]
[BASIC:NETWORK]
beginTraining=0
connectionLimit=0
contextTargetOffset=0,0,0
contextTargetSize=0,0,0
endTraining=2
hasContext=f
inputCount=10
layerCounts=1,16,11
layerFeedCounts=1,15,10
layerContextCount=0,0,0
layerIndex=0,1,17
output=0,0,0,0,0,0,0,0,0,0,0,0,0,0,0,0,1,0,0,0,0,0,0,0,0,0,0,1
outputCount=1
weightIndex=0,16,181
weights=-0.6501712349964948,-0.6949741683290046,0.1719195507362609,-0.8451798525027334,-0.3690962555531472,0.015080390272496812,-0.8984814619792261,-0.30957059421467725,-0.9664681074233741,0.11270477390080151,0.22835943792190422,-0.25310290152255605,0.101188525801729,-0.07570749359402691,-0.11735242749965341,0.07077846691922246,0.18346484512314343,0.8730280532182275,-2.784659099232295,0.3977535536086712,-0.15629136462365903,-0.4459378934954899,-7.019662185584293,0.20445183649974608,-4.13215686127478,0.05155119798913669,0.07677120520433539,-0.18178492972581106,0.23327598611010836,-3.6278855477933196,0.001107162440208884,0.15127476570744147,0.05738089586163224,-7.842789942616778,-0.09475612389006272,-4.231614092132355,-0.14465408293187476,0.23655285419907196,0.20501882713256386,-0.2702530299896341,-0.03911540031552314,-0.2195022834896908,-0.25448095368026374,0.07696143546236957,1.4886597875329786,0.1287253163140961,2.1936655270430583,0.02060074729089903,-0.2925838344405972,0.005172833694028524,0.47089813705885963,-2.853898066097045,-0.16969694838606525,0.7419664479230861,0.13070691864088738,-7.244881259708839,-0.1774424025869803,-4.935284471946728,-0.0951867590618284,0.41141619442554095,-0.17567323582137992,0.5117168589526726,-1.177868954764389,0.055304641665432246,2.551137283889895,0.11250398921158784,-2.8284697092952085,-0.18984212520350974,-1.1629732503229069,0.0341787911645063,0.2146770183863909,1.0380310609280485,-0.011205188869285202,-0.15298615812989563,-0.2717598988695407,0.8828755733107683,1.8024614439545947,0.07265881743741148,1.4243202404898816,0.26923494492137917,0.5581970025227404,-0.2275021189378226,0.21686147201764994,0.36749069845305266,-2.9732395643646505,-0.03536384386305426,0.5801943531831312,0.11849191536897197,-7.526361834308193,-0.25471324732192446,-4.1505958160157,-0.16356939227148076,0.1955083979062304,-0.3969041413449814,0.859475201468502,-0.5908257494529408,0.03862816690581701,3.1806782370752096,0.19130105510689369,-2.351677211877007,-0.315477759593555,-1.3833671262077403,-0.1664531924483905,0.18307390429917172,0.10247817852512893,0.017085785838532666,-2.961134003790594,-0.15503911298542591,-0.12242029558765193,-0.09494274763605351,-7.87312664614491,-0.2096216970802184,-3.880657647055774,-0.04084035928144002,-0.20958891118587797,0.7479467601277493,0.25438516458231414,-0.18624399717109041,0.3830617248780419,0.03829371686229832,-0.139742606899092,-0.21490959058751938,0.16053269535354658,0.2626986575162515,0.12621284573075606,-0.6394964433190446,0.10278828396506764,-0.1395121609337965,0.7839589871168605,-0.018379917002078163,0.2223635154846047,0.17071187541913424,2.05642880476232,0.21497134394775747,2.113679950893215,0.2752403963602574,-0.6566053487148614,0.41301073191083654,-0.14611893927608874,-1.0518549706962426,1.5840523927737566,3.3026584476104714,0.17579969336789797,-3.1732390283868805,-0.04204589672680204,-1.2140285419236196,-0.09817761683760882,-0.037809677237270856,2.023009533504881,0.5795620299285402,-0.21073476766820998,-0.1328940020328978,0.66564820117808,0.962673034023257,0.45109814518003244,0.1829697129086999,0.019617923716042374,0.2046615288927165,-1.0088232738749112,-0.00788544342299639,0.5593174370969324,-0.3378025231613086,0.0354795768284894,0.9179375405693656,-0.3072610805224862,-2.316735724987977,-0.1449939290374436,-1.6720978494546859,0.19284352627105045,-0.3486424093900542,0.5510981616829196,0.22609674966718885,-0.6256434985199089,0.48249518748982,0.3397715388121281,0.6749077737515754,-2.5034509921755883,1.2014199446946152,-1.2019191758924463,0.14329215993360236,0.16511571533679398
biasActivation=0,1,1
[BASIC:ACTIVATION]
"ActivationSigmoid"
"ActivationSigmoid"
"ActivationLinear"
