encog,BasicNetwork,java,3.0.0,1,1547617688207
[BASIC]
[BASIC:PARAMS]
[BASIC:NETWORK]
beginTraining=0
connectionLimit=0
contextTargetOffset=0,0,0
contextTargetSize=0,0,0
endTraining=2
hasContext=f
inputCount=30
layerCounts=1,14,31
layerFeedCounts=1,13,30
layerContextCount=0,0,0
layerIndex=0,1,15
output=0,0,0,0,0,0,0,0,0,0,0,0,0,0,1,0,0,0,0,0,0,0,0,0,0,0,0,0,0,0,0,0,0,0,0,0,0,0,0,0,0,0,0,0,0,1
outputCount=1
weightIndex=0,14,417
weights=-0.8286034796775592,1.0290859200175657,-1.4502154850586615,0.8196409019090187,1.2732557168413243,0.39653276041322955,-0.5676862524701746,-0.8056945604879318,-0.2920591113332075,1.64826290488541,-2.242026771535721,-1.0717785045959278,2.068461696655514,2.1878824504536447,-0.1847057593187768,-0.1258603219857023,-0.2417862077219635,-0.1139929926802753,-0.20258091674189316,-0.11687882064114802,-0.9614269094049996,-0.9477568599481292,-0.14796755012755855,0.20617509378274784,-0.09363895152826168,-0.026450199120316195,-0.01337876413821426,-0.5368091048071444,0.1524549260664569,-0.12844050022295767,0.07048207376559219,-0.8141647390301856,-0.02170750963352165,0.3363426202981205,-0.492729149442116,-1.0878109419947735,-0.3567091599719498,-0.7815795948496733,-0.20302298311178776,-0.08639243679034585,0.026061892292971327,-0.07071036614848701,-0.13620065631108041,0.03307530486051884,1.6775718375840416,-0.05043212972916507,0.1731041653877714,0.21406311273372503,-0.022516778659732287,-0.0008372723601203102,-0.09877424649933225,0.13338004729163846,0.2745194378291992,0.13149356007017357,0.04962878301070187,-0.15740862769084424,-0.4299123478014629,-0.014056860577511689,0.7951029756136812,-0.7044299739538148,-0.15278743921526688,-0.19279380965560203,-0.3047342967490741,-0.001629255369328311,-0.08696981263620836,1.1434821316197303,0.5165999630179323,1.2333425083985572,1.2788340509817118,0.41587864371711364,-0.0431081126978864,0.324002662053957,0.03207809449857513,0.34522879725290784,0.21948546455396833,-0.2138107814895191,-0.35562603486697536,-0.010406463286130365,-0.2886502094264493,-0.024744195373038548,-1.0061345734201794,-0.10896964402314134,-1.528078523728662,-0.23374386180512513,-0.3219892476684847,-0.5797746655522906,-0.7810354717190205,-2.022322479136561,-1.1955760072911423,-1.2491271066121081,-1.0156595742297514,0.25209509221851645,-0.4279645994200671,-1.6263764205893914,-0.45153481319084154,-0.21618918849151014,-0.022378914096381652,-0.26199541763809886,-0.6465412273884817,-0.9371959347943283,-0.06980395976320226,-0.03314274672786546,0.0633604655167072,-0.2757599951795736,0.158104474372953,-0.025030708412576336,0.05339594867346332,0.3311823730657224,0.16534731850295664,0.26840315021536226,-0.11764569630793646,0.23775616371981073,-0.16639426670435822,0.14911625076575794,0.035305498052223105,0.04794586183434958,0.11377498975760923,0.4646380188834233,-0.7346069522827872,0.049925456025049005,0.5940431296702864,-0.469956171083399,-0.6649364177110066,-0.05119273521168726,-0.06592990990446647,-0.1711315657036029,-0.3610203683933157,0.28654080798971393,0.33939430804752696,0.4471834896135194,0.36926994973547517,0.2257812380383363,0.014983975249367808,0.28024352902013405,0.286500969698435,0.3063007032232529,0.1919928164503021,-0.4969537415374291,0.28874283215626223,0.3683235781530269,0.31442909231627963,-0.012037331990950868,-0.08088609011682515,0.0916289870980504,0.20820866307443145,0.5840416870336932,0.22480941290576664,0.07167465905514521,0.4428264721802262,-0.28000093036830753,0.02525144979804946,0.6727225608032738,0.32378383020444756,-0.15676512999194636,0.1600659501858438,0.23807604819443087,-0.20244139899259622,-0.22756705788842196,0.5543855285902268,0.47783848618829194,0.20654893105032932,0.7939667603434878,0.3928628302857239,-0.10941628652169758,0.1992560498283798,0.44686271165692515,0.07469628125933732,0.019467077813416472,-0.6657076646366505,0.0070894534646761395,0.29671603861569756,0.13121125192740174,0.3330488710397624,0.055235008569672055,0.027456615560664116,0.2617722010489435,0.24380935629275635,0.1141698551212292,0.009566747418326022,0.44013931224552744,0.44719014584745914,0.13602299653157043,1.2110347818037013,0.2623311551734331,0.066373553639175,0.1832051237648836,0.17355850966565484,-0.18046494564161325,-0.35850679280100217,0.30588415706513855,0.22557406229458546,0.343623417808567,0.7059586801228352,0.5863203967189543,-0.07312377818522468,-0.08262135522905291,0.49022606289428483,0.42721805547043346,-0.24562364032400932,-0.3413254959418706,0.20756987168204294,-0.062004274891963036,0.2503462223082251,-0.01616519073639141,-0.14144695837457047,-0.1244102421721044,-0.34887620459894086,-0.1089483189826204,0.18671645393830252,0.08736205484321091,-0.33363294620400913,-0.04886238081276354,-0.34912505545337136,-0.13100245732732668,-0.03668267040577337,0.4111962167798773,-0.220872873855459,-0.05501654918266439,-0.083210533971532,0.10679782627331509,-0.28310535222609323,-0.1401351991372089,-0.12230175046272042,-0.26140776772556323,-0.07367135821371623,-0.13174333155931356,0.1824685813169513,-0.1638201883272607,-0.04369409809046086,-0.15778122203336264,-0.15531542483966315,-0.005016620982123169,-0.1689074581397528,-0.010120412798523172,-0.27343429009356873,-0.15309274357935215,-0.008863889382253846,-0.10209665800229772,-0.09945280513407127,-0.21055693580941473,0.15013375764807935,-0.4133852630377259,0.3942665122229581,-0.03582265414105958,-0.3892433524931535,0.48736793331228234,0.3778214184795123,-0.054041382716083754,0.10878346689923542,0.16383062875280105,0.38841547660862114,-0.5072528435248946,-0.3391573694820114,-0.5019992463713223,-1.0413323248621145,-0.2368077104993386,-0.10068009541498142,0.11681359226522998,-0.3308234001705996,-0.3301489855627218,-0.30898142462543376,0.3108460260937979,-0.03602253742849848,-0.27795534324899734,0.14211757963478727,-0.14124257355795727,-0.01688294091449997,-0.08759949610291368,-0.00412694876237672,-0.31543003466965597,-0.09576396993760165,0.14796793031463143,-0.6491598454944179,0.14521776706905676,-0.1365149545855366,-0.4954329307968413,0.07671235887369808,-0.0742084787997065,-0.26725716752897877,-0.1860570689954616,0.31928413179308535,0.2728009576355343,-0.1015013088898693,-0.37523850968001815,-0.36825988721951003,-0.8059904102328704,-0.3543116539537126,0.2916973359481461,0.060523269665504094,-0.17520087116593688,-0.26801964453136584,-0.03106581399952635,0.043616393828509986,0.2269266632059073,0.33704753246666525,0.10847859271128146,0.21027619238850723,0.11724733201482496,-0.24155169009341754,0.3634596942248624,0.34407924455270955,0.02114715934709156,-0.2855399575789213,0.5756288287870246,-1.209958260994722,0.2937536354935861,0.21328366316126618,-0.03804825537612987,-0.017454852901580067,0.15781956713889878,0.02910773085861217,-0.491997595248957,0.06134186178908873,0.19848049927559955,0.9650040432777318,0.3558367149015445,0.5758827913949738,0.19382014571416384,0.00785591145288374,0.2110087457812538,0.31582138075940774,0.25300666570391506,0.022422841225337293,0.1326562636197164,13.312653736104005,0.3206366771323607,6.984950888780286,-1.1706274817558922,-0.4781925550478613,-0.11901223573531024,-0.5290301043045382,-0.879994035857129,-0.6940953563822817,-0.09335977193893923,0.2928723578870779,0.11813546044702675,2.530251775957412,-0.047861789222186396,0.08955171287097195,0.4333519625037036,-0.12710044210628255,0.49315122738616834,-0.07817447621843661,0.4341937322508714,7.743442615310014,0.08991349692683087,0.4793935519880249,-0.7689006118809866,-0.6279107355692766,-0.2856612733364216,-0.09250445144087165,-0.6775232833160136,-0.2722109059846882,-1.1046320311605506,0.19085246935236097,-0.3014041718926496,-0.33210107926371,-0.17878785393622104,-0.09506614190247818,-0.004496187099673785,-0.0801709841203456,-0.4458847064981142,-0.7659112365987001,0.10907927599378464,-0.13617560415884558,-0.5688347854173107,0.20973701864704472,0.06116532029759449,-0.6356538855465629,-0.1817776934513609,0.18557631995169638,-0.2406102580788101,-0.18756604509145747,-0.22608774396013767,0.2039926755901464,-0.6020099187924292,-0.3239773077581315,-0.2687304787885655,-0.8543941528126725,-0.3560198541361647,-0.08772976488504408,0.1050210774483271,-0.4241273551628296,-0.1130720120083256,0.15577255173433763,0.6341692316951809,-0.035739827042804616,0.2843958196971753,-0.023144065717448165,0.2048338338847533,-0.1535275053392165,0.1778554587404081,0.3513722180259667,0.8282951981342708,0.10270855948971502,-0.08156022361036293,0.04230458366650631,-0.6184495901223827,0.14587429086813922,0.2658741409349826,-0.1801417231616224,-0.43196908863933253,-0.21555379363867297,0.1710392660281569,-0.2682613936196431,-0.504816180500251,0.5113565278672904,0.29821979815390876,0.4203829173403827,1.1076225163055828,0.22416484303703876,-0.23794195148168362,-0.11176706632872059,0.6309694736413618,0.3392130522717664,0.10281756933802216,-0.26432903415946307
biasActivation=0,1,1
[BASIC:ACTIVATION]
"ActivationSigmoid"
"ActivationTANH"
"ActivationLinear"
