encog,BasicNetwork,java,3.0.0,1,1547766577697
[BASIC]
[BASIC:PARAMS]
[BASIC:NETWORK]
beginTraining=0
connectionLimit=0
contextTargetOffset=0,0,0
contextTargetSize=0,0,0
endTraining=2
hasContext=f
inputCount=10
layerCounts=1,30,11
layerFeedCounts=1,29,10
layerContextCount=0,0,0
layerIndex=0,1,31
output=0,0,0,0,0,0,0,0,0,0,0,0,0,0,0,0,0,0,0,0,0,0,0,0,0,0,0,0,0,0,1,0,0,0,0,0,0,0,0,0,0,1
outputCount=1
weightIndex=0,30,349
weights=-0.40024188600692534,-0.12642777979127384,0.2736256215445014,-0.2533573961100949,0.12819383810763202,-0.20183089990875452,0.07191582056078931,-0.5285340139278711,0.5959351757757562,0.16878045209727308,0.36942457996077105,-0.21549773766730848,0.2499144851417698,-0.24206858106989815,0.1577478575745364,0.15817191823022647,-0.1362163743988935,0.5546476135820431,0.3778061174690366,-0.2030045573775144,-0.22173635043598666,0.22499792595265986,-0.08110002016743041,-0.1456521028784354,-0.4171638112781306,0.10830484237147278,-0.4569753282296458,0.2651484074274932,0.3717378480600915,-0.29892916125277025,-0.24885161058048558,-0.12287535641308801,0.03453760180915178,0.07470195007472351,-0.15136767658997607,0.013847141940650133,0.34832321647253395,0.10435277805057994,-0.27154982049131304,-0.02714517792548208,0.8217969905825291,-0.240985386170564,-0.6241702133778011,-0.22312725063149544,-0.02930510601644914,0.26863592744364223,0.49450114120802086,-0.1422622704132296,-1.039989509379268,0.016971355961653157,0.027631425312521156,0.22781173994902482,0.3901822470620331,-0.16129179563940238,0.46941792520476894,-0.2422097060815116,0.23787592271416422,-0.24220322297923133,-0.6103545435845407,0.27553583902944206,0.012968592979337097,0.09641093640215948,-0.6019372758535799,-0.006777639707449582,-0.5190476768058766,-0.06880388252989818,0.25824631534807296,-0.4002828825225882,-0.13349379458626728,0.3690060676737952,0.2604045086768175,-0.5160795514764829,-0.0011383646722681598,0.18083521678813289,-0.5066555130762205,-0.40255370574245586,0.027371811252306217,0.19600186957166296,-1.1956008721955673,0.2530898918812333,-0.23865662657367256,0.23995850990992523,0.2825704453961487,1.2051330002055531,-0.4550818148018731,-1.0160582607737663,-0.06361691737264817,-0.8505700682488828,-0.4198586855025523,-0.5089122110499866,0.22443116863194834,0.032401089120562,-0.13027363224983923,1.6697875436918272,0.3144773425955763,-0.1480833994292957,-0.30547172280421475,0.38193555732165946,0.4239164724133491,-0.3966039113633723,-0.1297984203685596,-0.33982243731250367,0.2378623609957439,-0.5211027092596154,-0.04709924274737017,-0.21049371049374252,0.22068127751034863,-0.1359979978147427,-0.07573863865526032,0.23755216819419708,-0.4332669599808914,0.12065954727685355,-0.06100452973965921,-0.16721219388328912,0.1066689139955242,-0.06838630612987626,-0.23486445046213333,1.1663167804532313,0.0648800618116757,0.13679828635224217,0.3407983198388668,0.04068336739332621,-0.011278679406719465,0.319025119614857,0.04260497503495701,0.034988942696500304,0.2893279642019209,-0.07695834958995816,-0.8108601557539047,-0.21483372214884075,0.7952384603595473,0.8340964775624264,0.49831274271363507,-0.4767607256090566,-0.35122008759177026,-0.357852936867327,0.4532531901110316,0.2382649586659588,0.29923171962501754,-0.17067747724064639,-0.17759122842323732,-0.214223838740819,0.5240974807055185,-0.08769091618249972,-0.20807932990515215,0.15646638394401907,0.42440626898642775,-0.11433056592862484,-0.4271565013640466,-0.11331924600202775,-1.0235057954897093,0.15600696333188951,-0.5954149074835899,0.06449499151086861,-1.0213639691720322,-1.0129060861090307,0.31858479343535384,-0.17462404452799954,0.2674318869332963,0.187088928346406,-0.47366956969477114,0.4056596945115096,0.15637520413785264,0.3554141346117777,1.3737853282895174,-0.6623243518198579,-0.04436801772733505,-0.2710234151728539,-0.2548035811331926,0.7290551156752799,1.0746894207131397,-0.13863989828176906,-0.5658118278062869,-0.27285844262471837,-0.6102876222164072,0.723562654903059,-0.03540389794807426,-0.13794898614359558,-0.3685235920782112,-0.025682991315103435,0.3310915647807395,-1.3469901534251452,0.10689943565044892,0.4449132244299319,0.355929221254945,0.03263740719057241,-0.041005921659984665,-0.19183756088366385,0.7677179639788293,-0.40330763066018527,0.06562876459165337,-0.507536347426636,-1.3666397033377697,0.484170487514393,-0.20663051432306742,-0.05645823764416534,-0.33479906940154563,-0.20963514451663867,0.09438803208428474,-0.2949605354643417,-0.2739886453043304,-0.18891651191904693,1.3866024783508788,0.6432714241224665,0.3987222933483525,-0.5102431615785068,-0.3987686837217312,-0.22860749677923997,0.20985915235927594,0.04844802883503303,0.09750245701269383,-0.4559847228827718,0.5027061559075433,0.5477848564274248,-0.2871931790282709,-0.12903484360142553,0.42116256763173743,0.1928534129273671,-0.22645930768104627,0.18943376450603688,-0.3066561465282962,0.19892352997745996,0.14399219642961958,0.45647780933314996,0.24078951196458012,0.19262964429882062,0.0811858087534893,-0.8825514346304685,0.31846268345533757,-0.2283591845616211,0.18911630268677654,0.2251262640085041,0.005954190432255217,-0.2504036721395357,-0.11117306374363228,-0.11647343792444523,-0.3571063728710711,0.023200440826559452,-1.083502634431794,-0.4343088648098142,1.1726137267918273,-0.36751652618022973,-0.8458945065730835,1.2247849840545106,0.2433937470192299,0.20845507764125182,0.2732553075530619,-0.0031862630669293054,0.5241893480876249,0.07116489733772498,0.18399841307818082,0.35038948264304903,0.1624115083129623,-0.2302529617347547,-0.04915949761603387,-0.7182262162416081,-0.49284883505333016,-0.13801924775414526,0.16384367645270875,-0.2347931547149648,0.4576983668904722,-0.329937262822973,1.5226166094002012,-0.07741831885529994,0.4439402533586933,0.17793216465262315,1.104042334094526,-0.003900210047910754,0.8180558089678943,0.18132673098667534,-1.222240675144412,0.7455871868262239,0.09097580465738725,-2.0746285629475016,0.07406181815396612,-0.4536478131458897,-0.9517044655399247,-0.4044428032849145,2.54797142763416,-0.6022677264544554,1.4918106828844389,0.7048018841122019,0.22329637771944644,-0.18555987051014122,-0.036091495932146465,0.1192110076081198,-0.5810400736296396,1.000190593482883,0.334207221101166,0.4255789207446205,0.18923175096679015,-0.5228404321604329,0.40823852993211923,0.23699258729461098,-0.1872299225366442,0.3005799257249129,-0.09147281251927107,0.33188952738762795,-0.3116212192339416,0.20739177769197462,-0.48566037816449287,-0.04345916929248713,0.2671407179073936,-0.08386795378439998,0.913318219044977,0.464435119515667,0.16716762493641307,0.31261222395487637,0.4388759361767129,-0.21201311126939243,-0.12480894928180362,0.06773538588355182,-0.15534469035881657,-0.24246632805340493,-0.354416325321898,-0.712690767286516,-0.33551371175667516,-0.25314836965412485,0.4965807261770559,0.35492277003336214,0.3537650956382629,-0.0027405774387024434,-0.14071247276701015,0.01883887651383847,0.19593287065559722,0.007526069227038349,0.6633953256117989,0.29320045398501343,0.07292302380567393,0.250856105728213,0.42551071418114567,-0.09928167604692185,-0.4275800280414696,0.43704282407810724,-0.02994659725555107,0.009597768618959416,0.023773708457878327,-0.6041109563609764,-0.026042821465166132,-0.3854352945858041,-0.3892637837885327,-0.286992352820063,0.3331920370512151,-0.2517527819767452,0.4500345776836613,-0.22881555748941063,0.13548851931418965,-0.07106533836269789,-0.8955381101966887
biasActivation=0,1,1
[BASIC:ACTIVATION]
"ActivationSigmoid"
"ActivationTANH"
"ActivationLinear"
