encog,BasicNetwork,java,3.0.0,1,1547766701854
[BASIC]
[BASIC:PARAMS]
[BASIC:NETWORK]
beginTraining=0
connectionLimit=0
contextTargetOffset=0,0,0
contextTargetSize=0,0,0
endTraining=2
hasContext=f
inputCount=10
layerCounts=1,11,11
layerFeedCounts=1,10,10
layerContextCount=0,0,0
layerIndex=0,1,12
output=0,0,0,0,0,0,0,0,0,0,0,1,0,0,0,0,0,0,0,0,0,0,1
outputCount=1
weightIndex=0,11,121
weights=-0.4149687016949041,-0.6506226313106854,0.5949374569037822,-0.7338073688404202,0.6861772680336663,-0.34477739194476925,-0.28274565338456936,-0.3843636181563651,0.6934902029334429,0.4528470651840677,-0.7541099421326743,-0.1645086844191334,-0.027908417152445714,-0.022289224537916597,-0.6767420001407327,-0.5092860187255229,0.33791849560119325,-0.33008835464797553,0.15867649426946928,0.16700684838648225,-0.2597573084477672,0.5333357079211827,-0.2816871640093792,-0.28176441553641174,-0.1663992641170822,-0.1977613401421152,-0.09075973863135095,-0.11382021941383459,-0.2195105072921687,-0.013414770520190465,-0.6373660046130905,-0.027437377705038114,0.7233563094847336,0.1878854818015344,-0.048369158862511086,-0.1122871581673086,0.2027950118063953,0.011686779083859272,-0.21574853854695775,0.15154896116355052,-0.004106274996556678,0.2566785075162362,-0.09560919527032409,-1.1015752313786902,0.07148039554397939,-0.05625663724724879,-0.11180260341562728,-0.027699651928445063,0.06633143711810466,-0.07253720291518545,0.21346539742797233,0.07408966520622429,-0.29074660589619333,-0.10521542923573186,0.6145692668195242,0.2687825267115161,0.16666717617074658,0.0025603145584958214,-0.20064721017613357,0.008408532430206948,0.16928562824653773,0.23150969748381775,0.004121089166595489,0.08404394744066142,0.09805502086068989,-0.9808176518478811,-2.791707972517658,-0.4073075880420589,-1.9535085038328492,-0.5981713637798598,-0.21403935915199082,0.8299040710346433,-1.937333341032722,-0.9074147647759934,-0.4581367824734783,0.05049359054057638,-1.9627351832266162,-0.5678907968875238,-0.32408916939620186,-0.02220985713911185,-0.3396787839530674,0.20522180648823543,0.18774879299349628,0.9280169079966429,-0.0072501799419823,0.3943202678136764,0.14406574432221714,0.9569590095595626,-0.3436651085885434,0.03374416207067862,0.19017367158901188,-0.07417864511246053,0.5435106401681178,-0.24916564420570922,0.05948203198978746,-0.07898406563808977,0.17223504734540976,0.04381522797070677,0.8717026865197743,-0.07508643529055153,-0.11911780697096262,0.3903151596566406,-0.24652450752341748,0.036844761956200435,-0.09436508854900187,0.18533563631776212,0.05760875263588481,-0.4978749261165484,-0.20988232805113563,-0.9445108659394615,0.3961366992148941,-0.03628040676734915,0.6332711609968635,-0.31245402108118664,0.2379218563803804,-0.14659067675712076,1.3806908675472869,0.5139253749022757,-0.10231389465105349,0.04207621055857319,-0.47451265980550045
biasActivation=0,1,1
[BASIC:ACTIVATION]
"ActivationSigmoid"
"ActivationTANH"
"ActivationLinear"
