encog,BasicNetwork,java,3.0.0,1,1547766754191
[BASIC]
[BASIC:PARAMS]
[BASIC:NETWORK]
beginTraining=0
connectionLimit=0
contextTargetOffset=0,0,0
contextTargetSize=0,0,0
endTraining=2
hasContext=f
inputCount=10
layerCounts=1,26,11
layerFeedCounts=1,25,10
layerContextCount=0,0,0
layerIndex=0,1,27
output=0,0,0,0,0,0,0,0,0,0,0,0,0,0,0,0,0,0,0,0,0,0,0,0,0,0,1,0,0,0,0,0,0,0,0,0,0,1
outputCount=1
weightIndex=0,26,301
weights=-0.24234062472476223,0.10001522219934612,0.049488378528297114,0.19747450494102511,-0.08041947167794214,-0.09477487344848709,-0.22827152955733723,-0.08598441152519641,-0.27645923908587394,-0.5035585861354467,0.1176885517008744,-0.3116747325847633,0.5080572769687417,0.21062920034480037,-0.10375698392379598,0.655170416794596,-0.7094289010705006,0.09445624304200063,-0.1298463798107734,-0.21510622261857756,0.5740530477385123,-0.05800468096301067,0.04506625656124727,-0.37137246645923816,0.18074347084670217,-0.4612250640743995,-0.22073293187132934,-0.1049146361394403,-0.453614366811549,-0.09427567640804566,0.0496658687210031,0.07032349547501945,0.19115305851916894,0.3255885058002004,-0.8468386354483873,0.027078555617216112,0.3433543107729546,0.20602205060727838,-0.10933114730328847,-0.35292426681605293,0.6107619784412377,-0.2939020656902172,0.25070968182626313,0.19576437193651358,0.21115855997719093,0.09208960358732812,0.4845061618321239,-1.705082734917863,0.8713224226826554,0.8533252819024884,2.212459893714205,0.23664061107334414,0.5408451287352786,0.47090793054454794,0.7918444313414931,-0.6655167996466221,1.248726175720931,0.7427606600205088,0.6004771092527502,0.17130616310399538,0.4133168389977613,-0.09512420418364446,-0.25287575348896374,0.24579210959385503,-0.2311421174360403,-0.2779358124051576,-0.22123591188232145,0.2664950910737661,-0.4056765364567283,-0.27308653196768495,-0.30248966872221916,-1.761031989348151,0.07046359598214727,-0.41362728123378306,-0.28390044305504863,-0.2667560489324768,-0.2433341056490413,0.19193588458470945,-1.2170562951287116,0.7665844531402404,0.019921274561936448,-0.6544514756900728,0.19038232828635454,0.14815425897757858,-0.3121488672701712,-0.2064204978713792,-0.12492756500939331,0.24189241484122823,0.3420561166227304,-0.47370509047354686,0.5612323086351181,0.355952730324919,0.07639322730409243,-0.8269531109300065,-0.6591960465430293,-0.016465905718872305,-0.15608791256746,-0.2665134206643555,0.4739227222266774,-0.04070154755941958,0.5313966369710357,-0.11035436860703375,-0.020804049547671895,-0.16689077705796657,-0.15970777240729372,0.18307150685685405,0.07202431514251705,0.42008783582265335,-0.06850822181569799,0.033616729254244436,-0.3245636657362354,-0.20171703656490816,0.2115360042101873,1.0081148301841483,-0.01423016713940953,-0.19360948991768048,0.2407646837568686,-0.29225666571263414,0.47380757010966124,0.15409951144933662,-0.57139874767389,-0.07995365161150111,0.09679467201269912,0.09397725291844351,1.4385874380639254,0.03219066592708182,-0.3729716693417126,-0.10315415794657083,-0.31610061285585533,0.1652850374573297,-0.07144142269579142,0.19708988174832803,-0.3662768847204661,0.0557786933671909,0.022504513805838004,2.084500319814446,0.01335595036635171,-0.1557866130305756,0.06319643124261405,0.1967750787170863,-0.19579868595634528,-0.00855442893247403,-0.3118709233558036,0.5246291460410923,0.6223444866877677,-0.030550141543420617,-0.9732141427699694,0.4454179644755838,-0.11475102378204954,0.11973252612529965,0.8852797337063714,-0.4518982388240032,0.25159335698522256,-0.2473384030553663,-0.1607648894436078,0.33274009059787835,0.14439951959656955,2.1379996150319744,0.24287763536516624,-0.25414841053476517,-0.07821115342651169,-0.06622888124458887,0.36664623156033155,0.08842662925674702,0.3093251973513616,0.02279194559613599,0.09795167700246646,0.08093325122180216,-0.7707036899441086,0.002952450246830593,-0.04230493419919348,0.7801368726805452,0.4123792542209285,-0.25344068083207505,-0.2060668249320961,-0.34471955383877595,0.5321234953255731,0.33439935985027053,0.08693787600212512,-0.16470079241976937,-0.38089128077506845,0.28362727845853514,0.024808747666856156,0.40484729653185914,0.3616390747195796,0.2998210996476309,-0.02733910529616737,0.5750401569478281,0.3907481777698598,-0.5118930610304466,-0.1709500443399131,-0.053095408958127706,0.12267381100860855,0.5541782996676878,0.276368280441375,-0.05430249849497746,0.1557657778193072,0.644390513268487,-0.18792092906353922,0.43734633052184996,0.009335314517647186,-0.6798384932267648,-0.3712130439147196,-0.048051805463382447,0.05718386268035426,-0.1117651444261281,0.18272099194438954,-0.1221285000508857,-0.6346932584256758,0.04832260978375738,-0.05660044277805729,0.038312534940463557,0.6752695418357509,0.8123615341273538,0.12583175692100745,0.6125943932553908,0.161467126197653,0.36496330313501874,0.20797684914344383,0.2410663966653823,-1.8192414555082717,0.6499952603632616,0.12821963579116374,-0.43738176711204696,0.4122108322412073,0.3157990277483593,-0.22314543821920374,0.8706059150371479,0.548685648680959,0.17527909565029687,-0.2729320902033397,-0.37201742329518955,0.10417742091318452,0.9208239105628144,0.7387951582754779,0.21259206003385897,0.051607912830526674,-0.22481086106550438,-1.7811751306936776,-1.2208261993151834,0.2891803191668245,0.04303056873015614,0.08379070357182303,0.15890066774625905,-0.9979857758437053,0.1990590500631567,0.4166579363105534,0.08288980590531699,-0.14084678836120046,-0.10859564875062049,0.10463773486513511,-0.19597397787986615,-0.3331837969478457,0.2016184705620587,-0.03834103759723847,-0.0018374912126424654,-0.6368036790375206,0.05876484445166507,-0.34107087660656443,0.2162263812310124,3.4198547213384822,-0.16090630128578867,0.8414767188093426,-0.15439958303254453,0.26788846817075446,0.2101459949199251,-0.24129032010912205,1.3281019704552472,0.08799528111447555,-0.01752367606212742,-0.23826650578041594,-0.5125271245515328,-0.5868661914131834,0.44273357219368065,0.2965748488966151,0.5414036102682903,-0.21473587837519206,0.36647691679051625,-0.11341882442072221,-0.5320685205400096,-0.19390799175780374,-0.24103733432648405,0.41386876214349055,-0.08930430616070291,-0.06680950130068246,-0.08318001323511455,-0.673977555488052,-0.3785757672360016,0.19316878038760898,0.06576075681234587,0.2537245191523942,-0.17798561257984635,0.22608290770791728,0.4525192330932553,-0.5195065092942713,0.22332046383294843,0.42468009902416265,0.3392708194342772,-0.48075370271330004,1.116354123232082,-0.2223489561141245
biasActivation=0,1,1
[BASIC:ACTIVATION]
"ActivationSigmoid"
"ActivationTANH"
"ActivationLinear"
