encog,BasicNetwork,java,3.0.0,1,1547766316677
[BASIC]
[BASIC:PARAMS]
[BASIC:NETWORK]
beginTraining=0
connectionLimit=0
contextTargetOffset=0,0,0
contextTargetSize=0,0,0
endTraining=2
hasContext=f
inputCount=10
layerCounts=1,13,11
layerFeedCounts=1,12,10
layerContextCount=0,0,0
layerIndex=0,1,14
output=0,0,0,0,0,0,0,0,0,0,0,0,0,1,0,0,0,0,0,0,0,0,0,0,1
outputCount=1
weightIndex=0,13,145
weights=-0.5852715737721371,-0.2031852382233703,0.09673117015045664,-0.144689157638475,-0.7546979444920536,-0.0016913728466537797,-0.6775747489498416,-0.0036229285916777425,-0.7007735434952602,-0.46700271992054365,-0.1287468390619201,-0.8286864559908844,0.07417226988716202,-0.21734058684658797,0.3932122022825572,-3.6853280300976667,0.23732270464847044,0.7409482471986675,0.19482663223497354,-8.783449762939147,-0.2645494520407698,-8.275764640208418,-0.036946349591455874,0.44721290074468956,-0.049623429611559286,0.2051184854009951,-1.1415198095547616,-0.04930228713229784,2.9301349874976266,-0.40515948877634717,-2.3401269773100113,-0.15178398776106627,-2.346280269054173,-0.09696255395969364,-0.18331607070630876,0.8079112034610467,-0.1238066778614883,0.22648213824977015,-0.2950779981613743,0.580276679793869,0.07453936315953724,0.4664391721943104,0.8280811736813839,0.18286203275652185,-0.13251498811020535,0.06746184492139459,0.11730779833114056,-0.4517743360624161,-1.323762856116495,-0.12051327622134983,0.6724376725093875,0.2812521308922405,-2.4361968613789307,-0.39197541476090914,-2.536971562329912,-0.08169008339635278,-0.22805227357002752,-0.03946275808813705,0.8541487313423941,-4.041412246043947,0.3023810741509735,0.3794139142007907,-0.2469098762076945,-8.56264102786057,-0.1314121269736303,-8.70932141991198,-0.1774015935083774,-0.1792322772436279,0.7279451941629311,0.2392963249633917,-0.5646612201862111,1.2329879251910336,-0.20375512577579946,0.30321925536792105,-1.1227280108306115,-0.24651311465247272,-1.0211297360218774,-0.11878025550877419,-0.06583141546431416,0.21681540596820234,0.22695618417188135,-4.294993270948339,0.019442637083158867,0.5888266915633497,0.147679169470627,-8.54665074736518,0.15372529776112842,-9.061067243458325,-0.48179453381105164,0.2601692372952925,1.3226424943138306,-0.13705970426115702,-0.19898061855160903,0.3290195439733922,-0.00573723670809621,-0.07851850386776044,-1.2307478380447519,-0.004948288301467603,-0.7535929848736624,-0.2740125476449522,-0.5511292884947954,0.005512182500853339,0.5094026477266187,-3.8421266092195356,-0.0015247502159375773,0.35805423967472016,0.4123591146663832,-8.962712740707095,-0.1696866784163851,-8.789187446400708,0.03742390280390228,0.5399323775445432,-0.2594960152238277,0.5954080386768181,-3.7217631621855993,0.08446356571003777,0.8676654710911575,0.2405433961195177,-8.36932422883477,0.2844762762769979,-8.35573496603418,0.055585563501522196,0.6230909663561157,0.22880854670494838,0.30085160713395176,-1.1254057358616052,1.0270291322691234,1.2327040180744915,-0.4436734666688766,-3.031903597109177,0.24306182457185688,-2.505049986654833,-0.031801306838608476,-0.07894893737961195,0.3089139397973426,0.48955000894352463,-3.933465844670039,-0.5623804030277014,0.3399831135410299,0.13708841151390275,-8.848285392835248,-0.19636736280493788,-8.718384672436201,-0.010833095042611277,0.4595466050586463
biasActivation=0,1,1
[BASIC:ACTIVATION]
"ActivationSigmoid"
"ActivationSigmoid"
"ActivationLinear"
