encog,BasicNetwork,java,3.0.0,1,1547766378327
[BASIC]
[BASIC:PARAMS]
[BASIC:NETWORK]
beginTraining=0
connectionLimit=0
contextTargetOffset=0,0,0
contextTargetSize=0,0,0
endTraining=2
hasContext=f
inputCount=10
layerCounts=1,14,11
layerFeedCounts=1,13,10
layerContextCount=0,0,0
layerIndex=0,1,15
output=0,0,0,0,0,0,0,0,0,0,0,0,0,0,1,0,0,0,0,0,0,0,0,0,0,1
outputCount=1
weightIndex=0,14,157
weights=-0.47645330967000915,-0.283794904025367,-0.25698728892227396,-0.6759478434279692,-0.4478263234584506,0.10201644000037326,0.6952020044900931,-0.5618385331865167,0.23724991438424423,-0.15343872569177186,-0.3666602729291353,0.2473920260749265,0.31880199620713523,-0.9421522110119022,-0.09813532462167825,-0.059647598348143344,-0.8846300595999956,-0.10614407834232392,0.06840208107064814,-0.13993221714293005,-0.16908880177556543,-0.34007391448703084,-0.1876838580693515,-0.20107405559420283,0.6387347493823139,-1.0123820340013718,-0.35489572633981664,-0.011194301790132383,0.12764377858058706,-0.003662615368890825,-0.9170508640067226,-0.9028854995236759,0.39129659099444286,-0.8543485048992869,0.15355235005361678,0.5819807019279757,-1.2864307742766663,-0.42163550981531506,-1.4968332985638324,-0.7587502194389691,-0.18139697376439365,0.6467824367376522,-0.49770713671294564,0.1981147642788129,-0.7348985891521654,0.30387218988812864,-0.8354464787294371,-0.18553131629055306,-0.4254351181649287,0.2608899409676665,-0.2028215395719546,0.21794751625799832,-0.05974045735359271,-0.6564435301343478,-0.15889757382707687,-0.243947333767336,-0.18360918032997942,0.6722224060790075,-0.14097542840789423,0.032417565156805245,0.1700936620730461,0.1340835241984587,-0.04719885993595982,-0.025516750179713443,-0.29370083483056436,-0.14352800681216807,-0.3808996320889553,0.2447465225979446,0.9302916491497616,0.30906880513687957,-0.2854456551538466,0.3466274698621504,2.6956742757187504,1.9868350033306676,-0.6281931243668996,-0.2453828943364225,0.12771603207090818,4.7104530106660105,0.805538419219181,-0.0490319403918635,0.031772582411531136,0.0021842805473651894,0.48249933325219396,0.0028439251165177514,0.09436244134072132,-0.14838581668402676,-0.16110652915017845,0.20762582204397387,-0.1958557919562127,-0.1662827375897648,-0.8986685552625597,-0.091689369485112,-0.048634253301379195,0.202114985360159,0.5206850378595256,-0.3672314033634001,-0.09001564982369388,-0.02628190201510235,-0.0515743836580807,0.34766377339648086,-0.18639921899937514,1.0417646962811824,0.30249733058250144,0.5585545166891993,-0.12154194283862071,-0.08189898571411294,-0.2505869411696623,0.1593452984480938,-0.2918714871898527,-0.6088355482719267,0.0764761519557759,0.3654100097499191,-0.37130449512767655,-0.4323427573817603,0.3491272837908191,-0.11253210524435632,-0.535933156968753,0.8894773524213798,0.09145791959766424,-0.10096665167558196,-0.8303051847844293,0.26002225234702947,0.5685710576629812,0.5884414377277047,-0.1920482121588692,0.1024184127839982,0.08767048349884794,-0.47030185995341345,-0.09398429184850952,0.1766858378006278,-0.009979100242190769,-0.3736230800541626,-0.2351196510541061,-0.12930315999324635,0.8916309080156161,0.21394986057794604,-0.03662869364403289,0.5753694014669781,0.027913104936535066,-0.09456655809469657,-0.00022400839637675798,1.0460427247668946,0.6130053920574378,0.6721900784895821,-0.13829288410483292,-0.488084856677042,0.9939762747801395,-0.29142847838602604,0.11198781548578995,-0.37894372314060204,0.6423026065682925,0.2521518169060015,0.36178970918147063,-0.7061542015927273,-0.06440084527217163,0.05676308181671723,-0.3633218981371659
biasActivation=0,1,1
[BASIC:ACTIVATION]
"ActivationSigmoid"
"ActivationTANH"
"ActivationLinear"
