encog,BasicNetwork,java,3.0.0,1,1547766649945
[BASIC]
[BASIC:PARAMS]
[BASIC:NETWORK]
beginTraining=0
connectionLimit=0
contextTargetOffset=0,0,0
contextTargetSize=0,0,0
endTraining=2
hasContext=f
inputCount=10
layerCounts=1,19,11
layerFeedCounts=1,18,10
layerContextCount=0,0,0
layerIndex=0,1,20
output=0,0,0,0,0,0,0,0,0,0,0,0,0,0,0,0,0,0,0,1,0,0,0,0,0,0,0,0,0,0,1
outputCount=1
weightIndex=0,19,217
weights=0.20108718808460632,0.7236350557613928,0.6781390046811713,0.4360635957877716,0.553489233095924,0.5796584942928645,-0.17567107990658787,-0.3890834631178849,0.3498850370868272,-0.5295404032735959,0.16258698057239582,0.26689584003182504,-0.34319341051139896,0.2222273006217843,-0.18485034493597,-0.2310968194021793,-0.926855244959509,-0.2218305767608473,-0.06460009820518253,0.12106652474536996,-0.388175619701353,0.04814219589043139,-0.5670981302047725,-1.3857603213336052,0.016829716765479293,0.5723014640562413,-0.7270586948696103,-1.0621298230824727,0.4435308635943237,-0.019324441878693834,-0.34998928627427073,-0.048563349643140984,0.02788987845238164,0.19413884759259925,0.37573307846812604,0.11507638635203009,-0.8922665849820522,0.35923118557627703,0.14495154680790384,0.19559865268743548,-1.9452303920226635,0.1877335617239091,0.14828884248458338,0.24470823921197038,0.20277704112593994,0.041419323987165906,0.08994627361100435,0.123562791761875,0.07976380923709353,0.8647949524707831,0.03044793703224578,-0.424159914779129,0.3178905290621153,0.11151893282467142,-0.15658133611091016,-0.3054428083183754,0.1472820670964247,-0.2499724947466122,0.16965501697160534,0.14675551497770012,-0.34568414169172335,-0.015245910541427437,-0.45285844477266957,-0.2023647193391582,-0.14182642072052457,0.33925459081116377,-0.20870502933487092,0.054831444557424565,0.11700540718163925,0.2223842123818853,-0.42582357456289044,0.1284133793707718,-0.026122449576382607,-1.0346198219010485,0.18353778950760055,-0.01466985969824151,-0.1747754279780446,0.18644360445297636,-0.06077235049024046,0.09677657637498496,-0.036978470179165696,-0.16428832707635954,0.2728420808270038,0.14838434940025458,-1.2409765340703625,-0.6249321033591915,0.38537544663844253,0.3435223706531807,-0.09766214330408989,1.1019332714738554,-0.2804926867737342,0.3332402191061634,-0.04037641273638731,0.18187478566465942,-0.37348374639357174,0.130223305523215,-0.1559372066389126,-0.3289495091254059,0.12638814627406036,-0.08285607815180528,0.16926284240077788,0.05187567278152864,0.8930129727334877,-0.1361181107386403,-0.0857513763402399,-0.2205026933520969,0.6744918533047088,-0.15530938837111274,0.4061427312720011,-0.13161511096658193,0.3062207888791597,-0.3475548840475676,-0.31189084724875243,-0.047278920853259486,-0.035228540655511065,0.3649486016953135,-0.05296639090774151,-0.906741590848488,0.10987938698820103,0.013156546750749414,-0.314668933933866,0.03768885187527797,-0.23402552589332382,0.167920944527273,-0.44031213075629844,-0.010962518073492461,0.32575922155277554,-0.03709633156907847,0.7676382622939647,0.38580999313245484,1.5141569200175942,0.546794590346799,0.5163024408038832,1.1576902334195254,0.32584832069182634,0.4219638066900107,0.7078071175781002,0.07960703703781921,-1.2269912528515736,1.3262115617141048,0.32164692503030307,-0.47774743948416043,0.24560952464011124,-0.18383101542873984,0.6355832574599847,-1.6895884567416055,-0.641191147664822,0.15670972378963316,0.24651782959555057,-0.9097420640354977,-1.096698505636393,-0.5145905209502526,-0.41265241028623706,0.22631803489999686,-0.35153775035270485,0.0828081029943016,-0.1458504503211185,-0.22888985778273566,-0.38353218464940014,-0.037844592698190974,0.2079397801460189,0.6061716877623533,0.01326012693156987,0.28664759138843704,-0.4277917304165599,0.8217223997060676,-0.03963323633624197,-0.2929733905135126,-0.12277062241473452,0.8877673042259988,0.29906528731905513,-0.4756945072738227,-0.050984621993553164,0.024621655153127274,0.37344427294495774,-0.570987845981689,-0.9174469716678364,-0.12145364336405746,0.07568619343358532,0.46068386808541284,0.4462817052839915,-1.8670527340163663,0.0023833830229678383,0.500511439546156,-0.8419131127380373,-0.2761810116742094,0.15918340735654377,0.2499923552350804,-0.38776871287237213,-0.10605927392066165,0.7716863345879069,0.9925897943088237,0.39341531577140637,0.11735122738161108,0.48457109121215514,-0.24490896967723752,0.14492398736154907,-0.42650414302918693,0.13657931468729673,-0.015077696175956199,-0.11199629899912894,-0.5490790536894253,-0.14871433140385917,0.06803348128929058,-0.053951128247408,0.6190477799487146,-0.8329906707550356,-0.8104931874357374,-0.17039760823017241,0.37873770732381307,-0.4010055275884201,-3.5684123535620342,-0.20497251264257127,0.39280412612564114,0.0824058298767332,-0.2361546082639187,-0.04437827738672665
biasActivation=0,1,1
[BASIC:ACTIVATION]
"ActivationSigmoid"
"ActivationTANH"
"ActivationLinear"
