encog,BasicNetwork,java,3.0.0,1,1547766498551
[BASIC]
[BASIC:PARAMS]
[BASIC:NETWORK]
beginTraining=0
connectionLimit=0
contextTargetOffset=0,0,0
contextTargetSize=0,0,0
endTraining=2
hasContext=f
inputCount=10
layerCounts=1,26,11
layerFeedCounts=1,25,10
layerContextCount=0,0,0
layerIndex=0,1,27
output=0,0,0,0,0,0,0,0,0,0,0,0,0,0,0,0,0,0,0,0,0,0,0,0,0,0,1,0,0,0,0,0,0,0,0,0,0,1
outputCount=1
weightIndex=0,26,301
weights=-0.459025191849367,-0.06517157189035416,-0.29778506487042605,-0.2984026970137875,-0.8520614942893273,-0.08466432166168736,-0.35931656551247304,-0.035417796612656635,-0.03655130714056712,0.11981310649097118,0.062072327322102855,-0.3006679294687529,0.14962062622797137,-0.22402033222657633,-0.3916146983174808,-0.4241771295681164,-0.04394566650148422,-0.6653434861883526,0.10007194961903426,0.03668242757297551,-0.44495972517282567,0.05369488222370555,-0.20092739966917508,0.146413816930722,-0.34186330505716056,-0.033154644786487275,-1.3396703209991718,-0.2902517894092924,0.16753928458632053,-0.1836049687761147,-0.2629153837888173,-0.28608778584658184,-0.695104740365372,-0.17182128555556944,-0.015601738646033632,0.28523096562819317,0.18287668793228068,0.13915516425788285,-0.13506528980201654,0.17344178066928415,-0.35940224930861264,0.5366774716063372,-0.28488682846436336,-0.24394083538496955,0.3646797331686743,-0.11046562191396324,-0.6963722890391936,-0.050487995068676204,-0.24310625430792326,0.3765829745384764,-0.8243596563541854,-0.58642656602901,-0.19346688640256182,0.14989217208212452,-0.5208369757996939,-0.07583809715170875,-0.8900628420334616,-0.05769633761676918,0.5164251610373954,-0.45054751826388,-0.38385332389943905,-0.36424692949380605,0.2604877972931296,-0.22213888457954237,0.37125085601587976,-0.5212000433412991,0.2919818646644846,-0.10126384673950026,0.1884709949120128,0.5348993981031241,-1.0476771631529698,-0.3357488986182923,-0.5158721530124243,-0.3500521306962982,0.1965382283469368,-0.06809351008220063,-0.5595826228049615,-0.18986128763874988,-10.873977495075861,0.02236625418626666,-0.3097985734962443,-1.0517511957663566,-1.2318316822180624,0.3499947964362629,-0.4573649637543626,-0.2825157434660654,-0.28157031685929756,-0.10736502234797783,-0.0924734971957335,-0.04925097278922217,0.34267884274414484,-0.534928539402727,-0.12545792346654006,0.1484082729739921,-0.5916080071147395,-0.4654561945674334,0.33755511530198806,0.3465157560128059,-0.6539974790815685,-0.48830596093497286,-0.40275145795812983,0.019137666431557065,0.6090842867440606,0.16032446562726146,-0.21946883671929834,-0.3918206279169369,-4.067821879822243,-4.962831445239654,1.3973289141196406,0.29810234066555985,-0.006769826058958199,0.3857697098965575,-3.6246588664365307,0.03812931547486864,0.12805398215296987,-0.30761996391057445,-0.464268202281616,-1.7898810459359122,-0.5046957539859886,2.568010929728597,0.00789556489296138,0.5573895672642842,-0.2554301498925423,-0.21886187421364545,0.0831060954817908,1.027721805695734,0.8118795692999847,-0.007476552063463869,-0.08263076454870648,0.22580932508003765,-0.07666149385634029,-0.4690136387190352,0.21121619596107513,3.521886915747783,-0.6165016618197112,0.10708911929629528,-0.3915854105272876,-0.12459753396633891,-0.09164105788570882,0.07577835006231765,1.1534351970357606,0.3698140919720875,-0.25725646853201045,2.279465763280455,0.21388340964365002,1.3037859891082335,-0.6839021614183748,-0.9125015494164553,-0.6745373528184045,-0.5001314320621888,-0.6390083453262361,-0.16964981350414268,-0.017687219116683743,-0.2775984423592124,0.15270067710913607,-0.08868100101959664,-0.1436260292243715,-0.7582552647593593,0.7846417860603839,0.8255806080596224,0.6321794870272907,0.5132745052796825,0.29757239662763657,0.4481148682445733,0.36638576943234163,0.4382626843514861,0.814560103110073,-0.4548852750078664,0.2983360266958347,0.03931303151380486,-0.030874778371361503,-0.6150131563052122,0.15218159004392048,-0.3234617179188942,0.19829682926281997,-1.0150007031416362,-0.42657257715254443,-0.014407221311308682,0.045344504391534146,0.63140280601327,-0.5705893418234023,-0.4165589211159903,-2.5445325879060423,-0.11187305904880392,-0.12335784352255386,-0.3471964259398327,-1.4909596689214217,0.1536307001458488,-0.47349784463768063,-0.6358193415210206,-0.2263775731578087,-1.0482169295454615,-0.291497980791567,-0.6420913819509492,-0.37969877416485687,0.18627062019477006,-0.10141495456562884,-1.7800008526099151,-0.6089704157768324,-0.20776207272515762,0.1506227249178357,-0.2307040103827852,-0.6647609040783721,0.3138082306284702,-0.4645549710051894,0.27164153552445996,0.3111186770051805,0.09197762111543731,-0.16165661639153672,0.34331016914320855,-0.10543139502970572,-2.8886759331103513,-0.2821603760730624,-0.9435329699163933,-0.22797657870999538,-0.036563980486126475,-0.23438657681926642,0.19185702767829754,0.022396472499073342,-0.3752789949948338,0.005101970530943347,0.2484358915644258,-0.20881422633895172,0.6507066827307849,1.0088573961136216,-0.31621658670246006,0.6702428692992423,0.1646372590429082,-0.11887374858950481,-0.16069892552064308,1.123481218973131,-0.20633730050111854,0.9244316839995139,-0.17485778506955854,-0.1267650773130647,-0.0007631251472073491,0.3587174237148891,-0.37775512781654064,0.400242982692265,1.0665490978805114,-0.44575986330214784,0.3106047810915401,1.7054823173765532,-0.1614929884329343,0.12946453421852888,-1.547879099992877,-0.7022000692800282,-0.4544147227947969,-0.44386585432610715,0.09583656026659884,0.2740910933705656,-0.6629858789399964,-0.730547295589345,-0.540178175483252,-0.35993189859590674,-0.2863840402579603,0.3389200761070539,0.14402471946170375,-0.16545378532921035,0.08546348382675385,0.38825525920672144,0.7189033219633085,-0.15828103243865882,0.7980030204567253,0.7106945553436368,-0.0326542229366465,0.2584446731464862,-0.5951793722632567,-0.666098516930521,0.3655888485550907,-0.2010847887042654,0.4272892502655856,-1.0285553713189177,-0.24331481563938165,-0.2604297536511912,0.1986211052813162,-0.2372181361791708,0.3303356287094689,-0.2653376659169814,0.18626128659006452,0.42545137712499187,0.36521625146635356,0.25099825768325235,-0.24755406745659314,0.45587034154932915,1.2409761611917558,-0.24688634321084382,0.8716647910031986,-0.16278546170466854,-0.2366552396442723,-0.6278308194892142,-0.49155563974269983,-0.37560245868775805,0.30919697255885237,-0.3405558687951773,-0.7121363259522455,-1.4261454437947292,-0.3955152930530948,-0.4325507329145267,0.12417335785224506,0.045399184700120325
biasActivation=0,1,1
[BASIC:ACTIVATION]
"ActivationSigmoid"
"ActivationSigmoid"
"ActivationLinear"
