encog,BasicNetwork,java,3.0.0,1,1547766277121
[BASIC]
[BASIC:PARAMS]
[BASIC:NETWORK]
beginTraining=0
connectionLimit=0
contextTargetOffset=0,0,0
contextTargetSize=0,0,0
endTraining=2
hasContext=f
inputCount=10
layerCounts=1,25,11
layerFeedCounts=1,24,10
layerContextCount=0,0,0
layerIndex=0,1,26
output=0,0,0,0,0,0,0,0,0,0,0,0,0,0,0,0,0,0,0,0,0,0,0,0,0,1,0,0,0,0,0,0,0,0,0,0,1
outputCount=1
weightIndex=0,25,289
weights=0.3269370609359959,0.08570252040706737,0.015577547178545738,0.22401939879546828,-0.4992762591590839,0.22513452387565397,-0.2664351250218786,-0.10729526652267825,0.12835025386370869,0.20888702184849173,-0.3635058759249656,0.138481478636401,0.43183544292117715,-0.6162494195321129,0.6593800358603172,0.013501085430356689,-0.6707937320470407,0.04128571411817254,0.13450071512463618,-0.33817583781560273,-0.7725686667383848,-0.19786391046580362,-0.8857169465357058,-0.5870426172118148,-0.3641232779570062,-0.22766525465605206,-0.47514874828523024,10.42716228111157,-0.2524425033084323,-0.48648674516755575,0.4796090395744584,0.2749126452136959,-0.1650611629063417,11.368546464069237,-0.14985117327123793,1.9277764666700092,-0.48337652865403935,-0.318987741810063,-0.08579254915764191,-0.33500468805718997,0.5963664320221257,-0.4418382063745252,-0.5040453047705327,0.48424868839746565,-0.21265541136733263,0.1556860063566157,-0.07089053434324354,-0.19290303102589756,-1.7765192081956465,-0.558307047417188,-1.0735107375787192,-1.4468475929267741,-0.4939718659402346,0.13236540349271822,0.1804751632717053,-1.02053171657319,1.9069371093178602,1.799313420196538,-0.22222147574083795,-2.699406003426434,-0.7540856010034355,-0.6348920509582229,-3.014874836095574,0.0024537120511529927,-0.0955526871116265,-0.28272627750736173,9.761921961274233,-1.253309769554769,1.094070033629428,0.31030524736444315,-0.016825008284594302,-4.658546623334633,0.243590696352292,0.12207839624265161,0.33145538400486807,-9.452863801521653,0.49395226093419486,-4.700457580622194,-0.07396075178203466,-0.445395105753585,-0.021308949850325394,0.12160635652457212,2.8317976574822272,-0.32636608707883974,0.0990598122210016,-0.09694079381199888,19.98089020203294,-3.254847482029276,11.837055496308768,0.3197996032926071,0.24517256017339153,-0.05937928008828024,0.046371504004161006,-0.6249374193547128,-0.2261857607107075,4.39586647697279,-0.8101709349111895,-1.737520354974579,-0.4124750624330483,0.28414924669524844,-0.6017973340258788,0.5457502875058915,-109.06541309524766,0.39916564894177703,2.727349184627264,-0.06117053767438222,0.4642894408289693,-0.888425358810534,6.4756312431391345,0.2015447274456819,-2.947833706278113,-0.36004352561353614,-1.2963083169315877,-0.29769886479025226,-0.08503559361269801,-0.2864357020027189,-0.521042226163066,-0.2679997664744773,0.42297626397493554,0.4463831633394196,-0.07892503715135563,-0.27212607832683183,0.3802843350087485,0.18411397614243474,-0.2645293539997964,0.007165548364199798,-0.4221231647971983,-0.48046842216969793,-0.29074825485802236,-0.025984149845043554,0.2078632698134404,-0.36897216924762266,0.028992331609470578,0.11300019440002503,-0.20314363315597192,0.5782151895408879,-0.3655120188358917,0.18666179563860702,0.6341201248455243,0.2783369945166828,0.5692838141241542,-0.06335677938360608,-0.7291822217178774,-0.13798901644863565,-0.061207503001400584,0.49322647206420456,-0.2480521096261934,0.1844853881794459,-0.6448221953140438,-0.48170852562139554,-0.5431794080246193,0.13596180241373879,-0.4608653486132401,0.25528077891317397,-0.34472986164554664,0.2901768299296245,-0.3094143574227014,-0.19075938871701748,-0.20243507696293916,1.9772808762439955,-0.12814328754812013,0.8068124982555179,0.051652404198127375,-0.2675392578182459,-0.10057272409269075,0.13039573956567854,-0.20657858241039345,-0.6318031752844945,-15.019240938306845,-0.1245100687793777,0.07803210076557408,0.8527825675896442,0.9156622401837298,0.0681672534056116,-4.409023052977831,-0.0771618348513557,-0.07381693735525267,-0.23678677705795648,0.4661426561558182,-0.10785195647321497,0.07634816527959584,1.1707821611359555,0.9128084982648151,0.3488823971918627,-0.2005455044593042,1.9277120182192007,-0.4279292610225268,1.7958941644011548,-0.047316442814411136,-0.744993313490049,0.24819765762910873,0.24526866913350875,-0.586427344592086,-0.7357011618223097,-0.011338042373417668,-0.2699166324088571,0.16437169248543845,0.4385794988224678,0.026002154131498336,0.28841886430245783,0.21136906585583126,0.04693314922336527,0.02588573518521671,-0.05542379886431422,0.6038156940833718,0.12079493361482986,-0.8416283869703468,0.7991025171088947,-0.40961616284607455,0.25091003450591565,0.5964282577184693,0.6105445036746455,2.5338645328926965,-1.3644669895155888,0.2829242871252099,-1.248639769270937,-0.6501128721464449,0.028513903120701352,3.548155223726452,-0.3421048296501398,-3.5798319058465196,1.8245620873851123,1.4010599251145528,-0.20622251193887936,-0.020946677136144697,3.3486722317369284,0.7387111871268224,-0.524592818530057,1.4881700385163628,0.20097808212003296,0.25461721050000685,4.26199327743938,-0.35546254369050123,-0.770504992893245,0.14712397553513706,0.21426981314078564,-7.703211443569869,0.21907986011786737,0.754104119170936,-0.2982009726533012,-12.187217965556142,-0.07233944308688492,-10.0923986614603,-0.006854007484661504,-1.574293562054241,-32.519722061572715,0.19359730264473554,0.07762765155506206,0.05716811627658668,-0.5787627892181306,0.1714938917131643,0.30756457392984504,-0.20752257830576806,0.312758844512675,-0.22310160285721992,-0.08463746830176745,0.4146301432417562,0.3447787636714363,-2.0677075433638397,0.535201654629933,-0.2785925393492547,-0.35518833066750305,-10.53984345513291,-0.00816280839538636,-8.213348319118069,-0.5028119556418995,-0.3094908302147492,0.11508557887505114,0.2156211233735107,0.2164142067276625,-0.21318424465343047,0.13252238799175073,0.2620698222409639,0.7890145518456031,-0.11710712907109909,-0.5720881959685785,0.03895073008889435,0.7781417492527868,0.12445689601087019,-0.20667931058077746,0.2847473098311098,-0.7402801486546099,0.18047589561140767,0.3784724609519089,-0.32501527303091987,0.1967066926693584,0.16073853470072452,0.25303782799899266,0.31516723100569366
biasActivation=0,1,1
[BASIC:ACTIVATION]
"ActivationSigmoid"
"ActivationTANH"
"ActivationLinear"
