encog,BasicNetwork,java,3.0.0,1,1547771796874
[BASIC]
[BASIC:PARAMS]
[BASIC:NETWORK]
beginTraining=0
connectionLimit=0
contextTargetOffset=0,0,0
contextTargetSize=0,0,0
endTraining=2
hasContext=f
inputCount=10
layerCounts=1,30,11
layerFeedCounts=1,29,10
layerContextCount=0,0,0
layerIndex=0,1,31
output=0,0,0,0,0,0,0,0,0,0,0,0,0,0,0,0,0,0,0,0,0,0,0,0,0,0,0,0,0,0,1,0,0,0,0,0,0,0,0,0,0,1
outputCount=1
weightIndex=0,30,349
weights=-0.08850063280151903,-0.5642183629716319,0.5065363569016874,-0.5111976983403368,0.12818276376579896,-0.20691806969261314,-0.509443975371422,0.26619001763918493,-0.49301348370410725,-0.2491334904836424,-0.25809571804877723,0.1472089564884132,0.17304894883072683,-0.30412281822671994,-0.09809829759109287,0.1034010232494201,-0.5437647441725116,-0.2729297659040926,-0.4261228616575532,-0.605540657189138,-0.4125430448331765,0.5522619022269688,-0.4866152698974081,-0.33348986633017985,-0.45277369828021935,-0.2649092514634233,-0.23516728905399595,0.10329093509004941,0.12619933240648207,-0.006142865294017219,-0.051299374119218887,-0.6743864956339849,0.2698043378430764,-0.19181800140647742,-2.150739746830804,0.09633849885566724,-0.8149706992243928,3.626335248042811,0.9957930760711565,-0.9828174756110585,0.45408279858404943,-0.6903899469449615,-1.8210891398789233,-0.29900036377032124,-0.17081050634441688,0.6192221873018114,-0.6305548680690279,-0.18127629231875647,-3.1933924689223643,-0.24676119780745198,0.4443045903834421,0.546228736185957,-0.5319714453607827,-0.20118727542297254,0.5503379605472708,0.3361088463122157,3.688267041759396,-0.2156163500186863,0.17943354576752818,-1.3390682014226087,-0.281922233930536,1.1339104801552697,-1.7306605589593893,-0.6090435457103156,-0.09892553636638426,-0.4305446276855438,0.1358899533061214,-0.37166836435628814,-0.032716059495940884,-0.24575820676179227,-0.2402471631821596,-0.6626436377153128,0.3504480063082886,0.33927951927153416,0.6767973925598912,0.3117266631071576,0.30825293083070904,0.027650903112944082,-1.229345462975714,0.07161816162984624,0.15132537337655194,0.4032645752278288,-0.4142419972918352,0.6729128425073794,-0.6360757011466835,-1.6648802406654084,0.4706290997412788,-0.5929645958392337,-0.027897758233127,0.06052948816096491,-6.857315617504128,-0.2703354365297164,-0.16260626712220402,-0.11951091477791592,0.3245323100843614,-0.20109006703593754,-0.7089934460501413,0.16063656350131544,0.06440118305911034,0.1724985383372395,0.08213925492183914,0.04980100333010188,-0.41822193112952727,-1.5380057084568934,-0.2288097342729553,-0.040960450440775203,0.35590968571635057,0.36002985711411406,0.18947303592358358,-0.22845533959949121,0.5484753497900116,0.15102675046148775,0.33295672152393074,0.2791497230952929,-0.4226085593153752,0.12058293110694682,0.7417506753900776,-2.0454947453632273,-0.6320139632214553,-0.1581008144859542,-0.6119955975179695,0.04238529834466482,-0.22431879260548943,0.18847885027135594,-0.9124797438331671,-0.3183015776869259,-1.4208696490665633,0.17473433591961196,-0.2141776958267248,0.02936907177316113,-0.25751503473118403,-1.6521140283377873,-0.8997448980858779,0.04684212421399357,-0.2882032672381179,-0.916625675719237,2.1319551547971285,-0.6095379885858816,-0.30666955864361306,0.08030631414489839,-1.064457870451981,-0.023764982930075763,0.14776421187822858,-3.7371753291731578,-3.0512640388476497,-0.809281927655874,-2.1194380142863336,-0.9375202060044477,0.09837398319018274,-0.4913693904398465,-0.037691458413175054,61.21029340907409,-0.0418590720061141,15.438659422531888,1.3842378337116954,-0.22013022109510447,0.026329472422071478,3.954638027588973,-0.2460827754670756,2.765999483862424,0.5841603661884672,5.398849610670896,0.9836858918289032,0.36213330448293823,0.3342870990882576,-0.06646286170098525,0.48429135799722517,0.40550741013148994,0.5655508217671241,0.19696225783099588,-0.1138937120306769,0.051129134688673084,-0.30167275966277995,-0.35257593146842425,-0.22764882570635572,-0.83328097191849,0.47899018137272115,-0.7563929887806836,-1.294691983388265,-0.2554496367771387,-0.6975567183033441,-0.31371365422189135,0.5811599424181879,0.09932256405502143,0.23840508941640498,0.5167309599605772,0.4706053121153144,0.0119534505250658,1.3440520728236958,-0.5258226062876117,0.05805486251336029,1.0682194644811698,0.8254837684521712,3.4182099535137493,0.17970816354711072,0.08337886244827217,-0.04463547764896237,0.5190570375861818,0.5996156164849175,-0.7450148801256267,0.2160770301661274,0.6215942727555278,-0.28204258431521784,0.4434317464431014,-0.2347950294733538,-1.0285665992657131,-0.33775530644452834,0.23254678048263958,-0.27709861003779745,-0.7453782906060047,0.15468781960556666,1.012723373509969,-0.11801315057072498,-0.20860721783442723,-0.20366644270911394,-0.22123009467346222,0.7791029791367509,-0.8300863257012172,-3.101247181964494,-0.01279052259949187,0.11394378867032394,-0.08792223031683997,-0.5780545747832323,-0.1297834801974098,0.7953989859400752,0.047494906228044496,-0.20717579922088866,0.6823879314377822,-0.10323261658602201,-0.4443331075565801,-0.5499244902121103,0.025491061676454166,0.24159343057492516,-0.16655810191621379,-0.4000214002502587,-0.2558110110502995,-0.27373491537301753,0.018287387580574077,0.5490380745575253,-0.7969673683001701,-0.486684187647441,0.3053744825550227,-0.4015973916098676,0.2603182345806298,0.3683638933058221,-0.35150013395164775,0.3890826021830056,0.13516093053573813,-0.025952746734920866,1.3787997527626026,-0.04187126132714978,-0.05469404363815606,-0.5695397238751545,0.16965488891923336,0.5636623631116365,0.1184593276525538,-0.4180338592209627,0.2564213984014048,-0.20604254086619095,-1.0913622450352374,-0.13783036076552677,-0.09961093973441176,-1.9892583053432034,0.005834357097622212,-1.566221701290344,1.437860750726288,0.18952724938119658,0.4086434018441406,-0.890592788593911,0.712306367715665,-2.180334367952432,-1.3937388491282312,-3.244075839286459,-4.883796084333732,-7.101858979433765,-1.400091167478452,-0.14561876267025034,0.20984372388935157,-1.3484083864386447,-0.3743146621154886,-6.511866330786905,-0.9417201454136884,-2.7288706344410785,-0.4920265500136135,1.7055980666424149,0.2881641912265374,0.058898918347070964,4.442118891059032,-0.38418581437990407,-0.9851518298608578,0.8929192534027062,-0.21695255242904432,-2.039597512605752,-0.29844705568442137,-0.46973625122882884,-0.32181071447799775,-0.5699883771714505,0.1325831414991722,-0.10391571169607682,-0.1254672995157648,-0.36039717740423677,0.4378093814030678,-3.3834636421405264,0.036111502987505525,0.35888655543919745,-0.6594858263805652,-0.344376229035886,-0.11615483619805163,0.029222119992649148,0.004215448947755281,-0.0703350631211301,-0.41197293549250485,0.34690087375513007,-0.1657911320790862,-0.28425669586400293,0.07180849496000491,0.155241409961188,2.2131460146921036,-0.19558649275483037,-1.5100031496755164,5.078801550786724,0.44393119246508883,0.03213407969874714,2.4360993134486586,-1.5014212151934936,0.6870725390594222,-0.345638441142371,0.1888610560524246,0.3652652522817842,0.5601307260862097,0.33216373654196907,0.028994898508147716,0.4804845479898851,0.22284841341957462,-0.4347821841151987,0.2338429117460032,-0.21040048638001507,-0.12411006709714291,0.6264287888623701,0.21241307173841,-0.13711901871162538,0.3107697423524726,0.06957593003619283,0.29316401373931616,0.2124559550850427,-0.4232238729513825,0.34202438935643326,-0.4798669295522035,-0.5539778204325846
biasActivation=0,1,1
[BASIC:ACTIVATION]
"ActivationSigmoid"
"ActivationSigmoid"
"ActivationLinear"
