encog,BasicNetwork,java,3.0.0,1,1547765023224
[BASIC]
[BASIC:PARAMS]
[BASIC:NETWORK]
beginTraining=0
connectionLimit=0
contextTargetOffset=0,0,0
contextTargetSize=0,0,0
endTraining=2
hasContext=f
inputCount=10
layerCounts=1,13,11
layerFeedCounts=1,12,10
layerContextCount=0,0,0
layerIndex=0,1,14
output=0,0,0,0,0,0,0,0,0,0,0,0,0,1,0,0,0,0,0,0,0,0,0,0,1
outputCount=1
weightIndex=0,13,145
weights=-0.4556711457249755,0.63386633117972,0.14616509553353715,0.56051143196404,0.6557873967917794,3.5107396651571925,-0.5057289895182706,-0.6828339161031267,-1.0982416899350145,0.5962332969126168,-0.7242500461433037,0.6150948565528228,-0.23989891206026417,0.7114429120061628,0.25648882964820374,-0.8352725152836924,0.300288560674862,-0.027560969887844466,-0.8203039101318039,-2.1781305567530653,0.030373903663429888,-2.27984773441849,0.24708848298336672,0.3331023757721269,-0.7913801716998332,-0.06557867455996548,-0.32323629113176006,0.4854035331507728,0.7425560012897621,0.021480451410098526,-0.11138720128889097,-0.37676156352164086,3.2451375246218426,0.026903370911578104,-0.6680018006614521,-20.588907823110766,0.9734516847459366,-1.519196943009434,-0.6623153111187587,0.10324034694827047,-0.33495662559112516,0.5002007729530176,0.3272399833122996,-1.780210768842328,0.7900538753820616,0.3086502658572301,26.829199123642894,-0.15165405880574823,-0.06327993428723298,-3.602853187053839,-1.0153143528585338,0.16301644953250508,-0.29791894678311304,0.20367849697282023,0.23670987981915395,0.1878054796757974,-0.6561388562300445,-1.014662705743984,0.0008948109356862988,0.586074828851626,0.03299217638699134,-0.19243015560197613,-0.1845097440545021,1.2184569634604943,0.2972206510463382,1.3028856442963042,0.038320010221628856,-0.46613354892589226,33.7433001188134,0.013052214665558318,0.2595455657381114,0.06421115396202969,-0.043921527621803534,-0.12181084840578225,-0.1636849309396185,0.08961318805285706,-0.11540318670630459,0.01186213326046441,0.3569632617357354,2.543702663058478,0.43039042381190457,0.4819954977900977,-0.25933417208828574,-0.0031066381309778675,0.31759622336061905,-1.244342431767421,0.16453991292518652,1.4408265767514528,0.1782701040007574,-0.5063285554369767,0.1960033147146309,-0.2903363799576088,0.38818776571430746,0.48728530572057627,1.125209169482357,-1.0291849492262626,2.0983691090250765,-0.13960667100216484,0.23811057885534867,0.009750685303046411,0.6874561398819059,0.8101741113805546,0.46204512525161184,-6.967065168460235,0.1357063797535336,0.650885189484841,-0.021728268505202476,-4.61256113155523,-0.04889836334972711,-8.43399562487221,-0.07084203781669879,-1.7943493510921835,-1.093543198142156,-0.18148656273008976,-0.33369400164735835,-0.026853508604575287,0.45017346574206457,0.49419092151266075,0.17536673699924332,-0.29092475769224185,-2.747627258629662,-0.11780850692394236,-0.7058257902246687,0.43797225694907216,-0.02079498019378388,-0.09384777013938014,0.43448255090979376,0.4163709902688247,0.3104533839944284,-5.335117814696513,0.5128742065411833,-0.6069804757255651,-0.08749386232395966,0.6351700931635713,-0.9418293124172922,0.013122495005134403,4.711435779619244,-0.25984887250746647,0.9831698728426446,-0.661089560683225,8.519791217035493,-0.3496520206793428,8.719959360909746,-0.05666485649061838,0.1662146714521306
biasActivation=0,1,1
[BASIC:ACTIVATION]
"ActivationSigmoid"
"ActivationTANH"
"ActivationLinear"
