encog,BasicNetwork,java,3.0.0,1,1547617688151
[BASIC]
[BASIC:PARAMS]
[BASIC:NETWORK]
beginTraining=0
connectionLimit=0
contextTargetOffset=0,0,0
contextTargetSize=0,0,0
endTraining=2
hasContext=f
inputCount=30
layerCounts=1,14,31
layerFeedCounts=1,13,30
layerContextCount=0,0,0
layerIndex=0,1,15
output=0,0,0,0,0,0,0,0,0,0,0,0,0,0,1,0,0,0,0,0,0,0,0,0,0,0,0,0,0,0,0,0,0,0,0,0,0,0,0,0,0,0,0,0,0,1
outputCount=1
weightIndex=0,14,417
weights=-0.8156717801703592,0.5730594800508854,-0.3469092547004591,0.8296702249682186,1.2603240173341244,0.39497367241322956,-0.5424544134573106,-0.8345248332047317,-0.2905000233332075,0.7645991740945108,-0.8887356245103539,-1.058846805088728,1.8397958181193614,0.8345913034282773,-0.11467980027160884,-0.11709926677290228,-0.21747163860836352,-0.1055504339602753,-0.20370066074189316,-0.11631317064114803,-0.6199334265597847,-0.9222159472057292,-0.10468989242515857,0.20221710978274784,-0.16014805588530998,-0.009781528693180195,-0.041790987151078256,-0.5464836929671444,-0.29889205906976446,-0.13133299078295765,0.0724528232055922,-0.9674646036973198,-0.026351311950321653,0.2636749239410722,-0.49094520544211595,-0.4850760013308721,-0.28668320092478183,-0.5799048327938295,-0.17857465385892377,-0.08368100157754585,0.027251291792971328,-0.06952096664848702,-0.12818210109828043,0.03426470436051883,1.3241090842937395,-0.05158772972916507,0.18071772060057137,0.20447810409372502,-0.029145352099732288,0.0004641276398796895,-0.11844501329613225,0.11428975578443847,0.27252389277806316,0.13058771007017358,0.04906891101070188,-0.17649891919804422,-0.4319997372414629,-0.06903690011824767,0.6367604617363615,-0.7542932657106864,-0.1530280286552669,-0.18928766724280202,-0.3107459783362741,-0.00681926880932831,-0.08766271022340835,0.5626588168989004,0.5197925771107323,0.6525191936777274,0.8228076110150313,0.41311536435711366,-0.050879136057886395,0.32796064605395703,0.024755491285775134,0.35982040526570774,0.13133753134572007,-0.21150919348951913,-0.20851037747075143,-0.012498099286130363,-0.14153455203022536,0.026337630111761434,-0.9364775386681795,-0.10861808152314134,-0.6444147929377626,-0.03313160171936522,-0.11270628216018568,-0.5542337528098906,-0.9816477318047805,-1.6032514923078123,-1.2758209113254462,-1.2041899603528978,-1.0892174029278634,0.23651513544565245,-0.4053914561752671,-1.4257641605036315,-0.5639817000107634,-0.2610594639973584,-0.05024172799718164,-0.2601170470780988,-0.3742435196987437,-0.6648982271045903,-0.06688795976320226,-0.032130246727865464,0.0645066155167072,-0.2515735247795736,0.159558586372953,-0.021951412412576338,0.04797817930386331,0.2762023335249864,0.21642914398775664,0.11006063633804264,-0.11994728430793647,0.2391304637198107,-0.16695413870435824,0.09413621122502196,0.03330995300108709,0.045337013834349585,0.04931901360042525,0.30629550500610375,-0.8159663688731231,-0.005054583515686975,0.43570061579296676,-0.482887870590599,-0.6822500606821427,-0.05203119951888726,-0.06471249934446648,-0.25249098229393885,-0.3630159134444517,0.08486604593387025,0.29324265268906297,0.2455087275576757,0.2992439906883072,0.22522136603833628,0.016139575249367807,0.29164252294013404,0.296085978338435,0.3208923112360529,0.12753684029311813,-0.4419737019966931,0.29557295951626217,0.37665395096582693,0.3144884923162796,-0.025130274634150865,-0.08251516211682516,0.0914325808480504,0.18297682406156746,0.5779736076736931,0.22455538946826661,0.0693030870551452,0.36332457651661026,-0.2560094566674435,-0.0023533750851505286,0.5781747456332258,0.09322090269625438,-0.15488675943194638,0.15574508203864382,0.2337551800472309,-0.20298274899259622,-0.219917862675622,0.40726987119400293,0.482976244908292,0.11200111588028133,0.5216690526537497,0.36763099127285986,-0.10545830252169758,0.1987633624683798,0.44680331165692516,0.07127081069933731,0.012636950453416477,-0.46403290258080676,0.03591972618147613,0.29671603861569756,0.13529779796618568,0.32850271039976237,0.054742321209672054,0.027151459310664115,0.24316950878500754,0.24312506829275637,0.06616408429107754,0.002736620058326024,0.42240256728552744,0.28403293772808136,0.04147518136152245,0.9387370741139631,0.2644784493647214,0.07513460885197501,0.1971726491777476,0.22678762934174307,0.011081274906685805,-0.33657975378813815,0.31589466842513847,0.19474050485612146,0.30591574299615104,0.6548768546380352,0.5834763247189544,-0.05853217017242468,-0.08376750522905291,0.49345092561428483,0.4315458660304335,-0.24597520282400934,-0.2467776807718227,-0.133923611163172,-0.06305338689196303,-0.09114726053698982,-0.17932239885576925,-0.14260255837457045,-0.1258130166721044,-0.37410804361180483,-0.1816160153396687,0.16148461492543853,0.07572688203041092,-0.23712616882552082,-0.04607816025276354,-0.2526182780748831,-0.060976498280158706,-0.036442080965773366,0.3892691777670133,-0.218785484415459,-0.023875590663368394,-0.15587823032858028,0.1070384157133151,-0.28152682422609326,-0.14302768969720886,-0.1127167418227204,-0.26025216772556325,-0.10718065591458023,-0.13578332211931354,0.1708334085041513,-0.1754553611400607,-0.06892593710332484,-0.16384396394696263,-0.13564465804286316,0.004568387657876829,-0.23205733049680108,-0.0034918393585231743,-0.27113270209356877,-0.16267775221935213,-0.0020337620222538482,-0.08300636649509772,-0.07596889042679962,-0.20965108580941474,0.15790478100807934,-0.3942949715305259,0.4002781938101581,0.12251985973626003,-0.2309008386158339,0.5156177307394824,0.37990880791951226,-0.05375024927608375,0.11087085633923541,0.16984231034000105,0.39442715819582114,-0.30557808146905097,-0.3392910194820114,-0.30032448431547865,-0.5853058848954341,-0.23663663849933858,-0.10061259541498142,0.10541459834522998,-0.32613167281059957,-0.3447405935755218,-0.25232961625064976,0.2917557345865979,-0.10253164178554676,-0.28628571606179737,0.1340990244219873,-0.1413100735579573,-0.04448776579769996,-0.12110879380377768,-0.00387528626237672,-0.33423485416251997,-0.09726668193760166,0.14463980231463144,-0.5791338864472498,0.15485741921625676,-0.11220038547193664,-0.29375816874099764,0.07740525646089808,-0.0748606907997065,-0.26701657808897883,-0.1840615239443256,0.231136198584837,0.2734938552227343,-0.07389648400666929,-0.3815426684000182,-0.34065506233631004,-0.6476478963555508,-0.47534028745508083,0.25818803824728215,0.0459316616527041,-0.17657517116593685,-0.3015289422322298,-0.031543001499526345,0.04021050582850999,0.2078363716987073,0.4001974048237136,0.08416402359768146,0.19118590088130724,0.14485215689802497,-0.24838181745341756,0.3608508462248624,0.33925330343270954,0.01783271710709156,-0.2882382295789213,0.5690002553470247,-1.2598215527515937,0.28712506205358607,0.20665508972126617,-0.042538428816129875,-0.019450397952716067,0.1570947791388988,0.02838294285861217,-0.481409725966653,0.059346316737952744,-0.003194262780244192,1.0182331629538202,0.07789719605149831,0.37420802933913005,0.27332204137777977,0.005157639452883739,0.2224077397012538,0.3122960533994078,0.34951344308240334,0.015592713865337294,0.21401568021005238,7.843156146878945,0.20862816525114478,7.504105887757548,1.7204890236597041,-0.41055888069091884,-0.04619741540788624,-0.30487933903538256,-0.4239675958904485,-0.4924205943264379,-0.25007747511123835,0.25728968701482957,0.06246689568829562,0.7943751468453765,-0.0385741845885864,0.16905360853458792,0.4146815122908396,-0.12494365391914655,0.41196899765312006,-0.10705892662893261,0.36768462789382306,7.963085114877318,0.057314004662894893,3.054357974693109,0.23495928583276218,-0.4262359735134328,-0.26916610052362167,0.011806493720016638,-0.0747883426521124,-0.06292794047638917,-0.8042165090971922,0.06982383585099271,-0.29181916325264967,-0.33205467301371006,-0.16920284529622104,-0.02504018285531022,-0.014081195739673782,-0.0815452841203456,-0.2366017409898151,-0.7670309805987001,0.10949226193128464,-0.13733120415884556,-0.48933288975369466,0.2096923066470447,0.11614535983833048,-0.43397912349071915,-0.023435179574041325,0.18381458939169637,-0.23726315663881004,-0.18027651165145744,-0.22555055646013766,0.2033809635901464,-0.40033515673658543,-0.31635050742533155,-0.06705571673272176,-0.6527193907568287,-0.35584878213616467,-0.09168774888504408,0.0936220835283271,-0.4274554831628296,-0.1052630785954616,0.1559669517343376,0.43249446963933713,-0.05483011855000461,0.3094568728668393,-0.04223435722464816,0.1982052604447533,-0.15215320533921653,0.1731637313804081,0.34688204458596666,0.8117433492621282,0.10116145948971503,-0.07823209561036293,0.03567601022650631,-0.6357632330935187,0.09089425132740322,0.2108941013942466,-0.18995068060162243,-0.4379807702265325,-0.21204765122587296,0.17078760352815686,-0.2965111910468431,-0.510006193940251,0.30968176581144663,0.29768519815390876,0.218708155284539,0.6515960763389025,0.22749297103703875,-0.23678635148168364,-0.10036807240872059,0.6017289983865778,0.35380466028456636,0.08043702206122218,-0.2620274461594631
biasActivation=0,1,1
[BASIC:ACTIVATION]
"ActivationSigmoid"
"ActivationTANH"
"ActivationLinear"
