encog,BasicNetwork,java,3.0.0,1,1547617688434
[BASIC]
[BASIC:PARAMS]
[BASIC:NETWORK]
beginTraining=0
connectionLimit=0
contextTargetOffset=0,0,0
contextTargetSize=0,0,0
endTraining=2
hasContext=f
inputCount=30
layerCounts=1,14,31
layerFeedCounts=1,13,30
layerContextCount=0,0,0
layerIndex=0,1,15
output=0,0,0,0,0,0,0,0,0,0,0,0,0,0,1,0,0,0,0,0,0,0,0,0,0,0,0,0,0,0,0,0,0,0,0,0,0,0,0,0,0,0,0,0,0,1
outputCount=1
weightIndex=0,14,417
weights=-1.0886014116548892,2.1299190488667077,-13.310035924103513,3.4708764463643016,1.2876789167411482,0.5572022963212927,-8.575926685866396,-0.8070918825420265,-3.3624308239897576,14.705192565460045,-11.292439916233992,-1.3948276543283664,7.596147570506245,2.5053561014032733,-0.20029474420181034,-0.13524409349453673,-0.2082148708530021,-0.12186938042537859,-0.20378160474783227,-0.11680595049562675,-0.9663373437045658,-0.966849772620069,-0.14980468823409107,0.20836695386508403,0.3317710307492066,2.1146799981300264,0.0020813621276952153,-0.5380796014785473,-0.4783530431037168,-0.0986034015905938,0.07039662496208053,-0.9107095269764199,-0.11872480814888983,2.8822850853044817,-0.5010479004053526,-3.2474580941888593,-0.8786942107677012,-2.6573010528063743,-1.00854094484497,-0.07407071705188338,0.025910868248346406,-0.09823209064837916,-1.5311367128982234,0.03362565402885875,1.5585978642072373,-0.13971270033992222,0.23206863094361918,-0.19765690132577518,-0.11010947574627279,-0.0009967244477608194,-0.03211388743286571,0.1422660958928542,0.2887689366174492,0.4538429008464829,0.04943026964620651,-0.1600632202470354,-0.5207498489182083,-0.01794482747919326,0.7854414229945268,-0.236405370092795,-0.21054412272159617,-0.159234630750891,-0.33027945058078595,-0.0040155823599468685,-0.10864266594557127,1.4262804859770633,0.9044689197353246,1.7378636770875766,1.2936747871341072,0.5392019362461786,-0.05598872721333119,0.32426772476264243,0.9226765833935452,0.42344505256425885,0.683299959989005,-0.2084572650164279,-0.5467541523281537,-0.23429450030102267,-0.47338148012525894,-0.10600821861367155,-0.78031904955098,-0.10861021819227844,-2.4728334923505084,-0.690844069594376,-1.4791522518164615,-0.8359656420667985,-1.0687962152646413,-2.2366368991694734,-1.2979950438301637,-4.225977882640164,-0.3002990206188716,0.3100384295584812,-0.39299676664855127,-4.107336878919312,0.00912944976915891,0.6097117064085608,-0.09069605341953377,-0.5860968960617892,-1.213972004662287,-1.611232249161435,-0.06782336752684053,-0.033419884330678766,0.043990316810872135,-0.30762723366361155,0.157787258073268,-0.0973788187260225,0.44992559925420417,-0.7281233832361518,0.1441499802715532,-2.333500229998502,-0.11936301710092602,0.14841839162835194,-0.17331099378404805,0.16398420301595548,0.048325482463294885,0.12023936032739801,0.1677596898097821,0.6142479057921781,-0.66093824251981,0.09198307093640819,1.4033400047899522,-1.1520907643093274,-2.029114486153215,-0.31977745833406296,-0.06649134659881258,-0.1471912593708282,-1.0472065414750404,0.1788941769097385,0.46554971915870735,0.3245153886759022,0.3720574495128678,0.21958627649991408,0.014439090187849876,0.25959464005726424,0.29197604398762395,0.3902470000353234,0.13994680262095754,-0.504228801795406,0.28924347353321256,0.43831536186081804,0.3145128463898284,-0.00777134450781003,-0.08085695691609004,0.09169945098277328,0.7739381388432783,0.5908425256834523,0.23049388700025414,0.07149331552334083,0.3467957516812535,-0.8611534108291353,-0.007629100367330757,0.6268261158174806,0.34519101184532747,-0.17805441160476834,0.14863469194906964,0.24292645206015653,-0.20216471544879963,-0.41364238576439655,0.6187478013348545,1.5838487288117502,0.27859083890228165,0.8927343753616572,0.6253768201923208,-0.11243972689064342,0.20478579431695387,0.44880787136752026,0.4931403203892001,0.02262902719034699,-0.46795366729313187,-0.03718003610323712,0.2967644586935966,0.004184542904862832,0.3188195718270427,0.0383027526294767,0.026450107869663776,0.3855897373398956,0.23826074656550095,-0.32803365576215476,0.14215645210673972,0.5047874490605615,0.3386879858966583,0.39968029622232476,2.567467814773487,-0.8586891210244769,-0.1370639947490265,-1.6576880367437623,-0.2772249361531927,-2.7206204730004973,-0.8944089963079902,0.29739618226155917,0.23133394480636799,0.2399033385013501,0.6750056042142248,0.6059689523715537,-0.2759967902639448,-0.08374299778837022,0.47590923447395306,0.3830841736196606,-0.24539452509004805,-0.7820217088508528,-0.48763147642439997,-0.0961108612119271,-0.13172014046391536,-0.28923544100957277,0.1216084887902117,-0.11716039725891751,-0.3895902472074143,0.46363226905655314,1.350122582981603,0.15030400880070607,-0.6272835475871773,0.20672363950114858,-0.643085799143489,-1.164224695563274,0.016377326027415377,0.5026413018832273,-0.22748510787413065,-0.05854464473981344,1.1753059174292788,0.45385763724567635,-0.7883291511359681,-0.1566538481126514,-0.9731337368424097,-0.2846814155527373,0.36093454784833595,-0.09454425744720252,0.323375016316968,-0.14689478543851575,0.7331926959936127,0.062198389552699705,-0.0940663016228327,0.4137000524686283,-0.8948109593962859,0.0002311792960019831,-0.2577656472952026,-0.15244518196967236,-0.007546250127927848,-0.25468581058694334,-0.9401602537213093,-0.2921213880596207,0.14980307190367323,-0.4147020541633504,0.40704474331692686,-0.025790967306584422,-0.4013014952755417,0.4710262187215019,0.36218873075618835,-0.054719467796971843,0.1125274658521667,0.1642635243515254,0.407058534034389,-0.5854344282520862,-0.36567843093883495,-1.1067742946351002,-1.0245688276392955,-0.2969066422154322,-0.10032340372901559,0.10394457245539478,-1.554931278387926,-0.1704134814345709,-0.6652749409871085,0.32229694409517207,0.08544432988244215,-1.7165011112804494,0.1567620225493972,-0.14108880638711924,0.02968668166397951,0.025308577060002314,-0.002537747030920797,-0.2641756328348934,0.07591638524960076,0.06595635384341175,-0.9312633706024745,0.26990317270703573,-0.20274293642067304,-4.850686480542991,0.40761684807678494,-0.06288319479852764,-0.24639419900125978,-0.1897344037537835,0.8585070279928361,0.771786089042643,-0.16986955485823724,-0.37556350824159385,-0.4142094392582723,-1.3727246831359834,1.1675310423410885,1.3414290401902618,0.12126319705229346,-0.17374941071873595,-0.17979891392772684,-0.02823419148265139,0.0419420792695066,0.22346331201179084,0.33790836500047633,0.10070984214238098,0.20881151504491105,0.128350427837755,-0.23731405358953084,0.36448517844182315,0.37756752642963654,0.15803094719125757,-0.2774564432845144,0.5761077276361507,-1.3436280596144792,0.2946549524983862,0.21419165696606618,-0.03280032074046158,-0.02367800217397513,0.14878880494141586,0.026507070286627483,-0.4949497773907144,0.06875750897784971,0.3678262448535021,0.9711546638269872,2.0121491837989174,0.6935213887096328,0.7501400113939084,-0.0264465997837848,0.1944335151946739,0.32474492484510825,0.3455863003765723,0.02455568042225037,0.03743357236650854,17.888270305087058,0.2975034905120846,7.007315964776905,-5.618424157007168,-0.49045762214665706,-0.1438373358414397,-0.7228212748149587,-1.1059763578716872,-0.9629381742854362,0.6282662093952847,0.187210247746143,-0.14647083938490124,2.167715679171669,-0.08142484241169105,0.13858955542129567,0.4985879329894196,-0.12096447750143224,0.5025546596306483,-0.09662973055734259,0.44350877934543814,3.2046068576040025,-0.08664258698472871,-0.6121249231397469,-2.4143228761327515,-0.4395179592961443,-0.28714051749475994,-0.09629302036803196,-4.722329931877767,-1.1224068981729909,-1.181273734556844,0.48932314512432606,-0.30369820310689233,-0.34751223497277284,-0.18108573052544338,-0.14607775674641416,-0.013104743777206088,-0.07976495734191118,-1.2571730614320271,-0.7646989385285777,0.10502239177451377,-0.13588006351109375,-0.47772589507496194,0.9834411260775395,0.14336246538875436,-0.6994164583022788,-0.6692418992185821,0.7999424725604939,-0.23981675562359978,-0.1870237178409811,-0.22680916732737197,0.48495111901246524,-0.8153939924509854,-1.9731373473614953,-0.5584063162614883,-1.0217411274777046,-0.7569338486871331,0.003930716847428309,0.09499949730152996,-0.4362982730872341,-0.6532179154502599,0.1561372483611243,0.8019164989316604,-0.5451028505178942,0.7210719671049416,-0.19840991959989876,0.1999851222898014,-0.15384545493627907,0.17727080372913734,0.3581989464528298,1.684220097241701,0.10894194573478287,-0.08192711348871776,0.04264969046241731,-0.7042215161802516,0.14908956131016787,0.26955806861985404,-0.154544855482915,-0.4555085980300678,-0.23561942306067976,0.17372394050305923,-0.2673519920123182,-0.5122866316133659,0.4970959503204647,0.3277795548652526,0.5500888393661083,1.1615396628888985,0.23689430207444842,-0.23818472735484356,-0.10448284351435054,1.0039828288172037,0.393926964530285,0.12822709494730627,-0.2645271941677124
biasActivation=0,1,1
[BASIC:ACTIVATION]
"ActivationSigmoid"
"ActivationTANH"
"ActivationLinear"
