encog,BasicNetwork,java,3.0.0,1,1547617688394
[BASIC]
[BASIC:PARAMS]
[BASIC:NETWORK]
beginTraining=0
connectionLimit=0
contextTargetOffset=0,0,0
contextTargetSize=0,0,0
endTraining=2
hasContext=f
inputCount=30
layerCounts=1,14,31
layerFeedCounts=1,13,30
layerContextCount=0,0,0
layerIndex=0,1,15
output=0,0,0,0,0,0,0,0,0,0,0,0,0,0,1,0,0,0,0,0,0,0,0,0,0,0,0,0,0,0,0,0,0,0,0,0,0,0,0,0,0,0,0,0,0,1
outputCount=1
weightIndex=0,14,417
weights=-0.8897593498698815,1.8407530685642277,-8.132796791285264,1.1762833731492026,1.2850666990009982,0.5197339975282651,-5.89195467987268,-0.8070307873131894,-2.821513731365732,9.18547635859252,-9.241455379803725,-1.1329343747882497,5.197689263485357,2.4821913959956943,-0.20072967651248771,-0.13524076357453674,-0.2085493534630811,-0.12187889562537861,-0.20382910135052185,-0.11681466159962675,-0.967302464654163,-0.9668879795925412,-0.14980647904609226,0.20834346113076277,0.33132080999409813,1.9306272967395912,0.0020270820405149004,-0.5380846283975484,-0.45784260563048645,-0.09893851303142615,0.07037749873474884,-0.9133380547880462,-0.11663204394159306,2.863656734483836,-0.5010041183028481,-2.936811254464997,-0.8715643629738868,-2.238217331919188,-1.0091482248611845,-0.07427652564944412,0.02590855661774453,-0.09824170832495524,-1.241417413516949,0.03359990841032435,1.5585203480777636,-0.13848086667606008,0.2151096997318575,-0.20139284475202093,-0.10656179479434978,-0.0010326740800889586,-0.09451421044570336,0.14014772442790704,0.2771441530721066,0.4518072640879468,0.049392299748818286,-0.15889701001572976,-0.4405180004143081,-0.017924287458821124,0.7855154668175817,-0.2552254637451748,-0.20353218652186378,-0.13904025449566168,-0.3290380929545432,-0.0039972108399468674,-0.10864142326088778,1.3985150179772328,0.715630940389413,1.5033493466211945,1.2936204833192442,0.4921849664861688,-0.057923828768764785,0.3230337227570525,0.2572015391627961,0.4266912600808724,0.6030681114851048,-0.21803485194340141,-0.548990395933027,-0.21751919190739327,-0.47396874144510914,-0.1060320443145075,-0.7816162521295374,-0.10864484045934567,-2.4722695576381635,-0.6812664826674026,-1.4746928186089632,-0.8332954557553401,-1.0682220073078519,-2.2366398600932964,-1.2980199887521167,-4.1790600980903045,-0.20958703733297065,0.30993650754260005,-0.39297007952567925,-2.9000351435073353,0.009385865357299454,0.6264325510349561,-0.09105983385895387,-0.47239064780741963,-1.2162082482671606,-1.6114298690544488,-0.06780089327571985,-0.033427086250678764,0.048449750018370555,-0.30228113703178605,0.15779922671326801,-0.0695205379955016,0.41936131994020986,-0.7193267725350023,0.14464267116007465,-2.3247036192973525,-0.119322614969267,0.14677925318773966,-0.17405064641571102,0.15927174735828104,0.0257032054389477,0.07814233737713372,0.15965561725217753,0.5943051445831024,-0.6512652283772681,0.09166335046833092,1.0506354538647078,-1.1250460025851232,-1.6010104370377878,-0.0794239504171501,-0.0664706029178791,-0.16930726990415954,-0.9496665642858145,0.15219606499613586,0.46564299519929325,0.2978172767622996,0.3716693790414679,0.21018949903401765,0.0144439012304153,0.2606054906813524,0.2837726089648364,0.3269694746976508,0.11402969226456035,-0.504234276099406,0.2892437176932126,0.43733703802882207,0.31451309054982846,-0.0077721739478100295,-0.08084045783129003,0.09172548296692298,0.6446738168583104,0.5921176957589456,0.22535865137783853,0.07150770530258747,0.346762770450835,-0.8602416533056502,-0.007627612047330757,0.6268271901214805,0.3519454884914469,-0.1776389937023806,0.15855814162781637,0.24701883604582722,-0.2004695978794411,-0.4132269678620088,0.6147866351498665,1.0304932111178078,0.2772434220900802,0.8888538149425171,0.6240460877390422,-0.11208063513089209,0.20491449419464944,0.44894569192828615,0.21867176190733156,0.02265131567909325,-0.4596562181156638,-0.03698241621022348,0.2967697796875729,0.004753688196742104,0.3188881898454502,0.038299020149476705,0.026508215521106385,0.38489596788519864,0.2381655731405491,-0.32868049960016404,0.07493803268494452,0.5038061585511251,0.3306020935712527,0.39688748355262254,2.5427633533530845,-0.8597848416796745,-0.07890419113396599,-0.8162370382460233,-0.1993788507819406,-2.7330862551235886,-0.8970608857584099,0.2973996778135591,0.2306734124974891,0.2397932676168176,0.6749716909110343,0.6058757276643363,-0.2092824386901188,-0.08359674537184618,0.47593530996353006,0.38242887724112584,-0.24540986691783648,-0.7746688529894203,-0.48806250337795654,-0.09608738541418008,-0.13296149809015803,-0.28966646796312934,-0.028899055512855817,-0.11814168776835357,-0.412644932915909,0.48502078078995153,1.2744713157087495,0.15005181608420404,-0.627273942144105,0.1049377706422892,-0.6430575447704406,-1.1609961680543939,0.016827743589414523,0.5013999442569845,-0.22753707389380137,-0.05853828681842273,1.1790418608555246,0.45221849880506404,-0.7445904016174835,-0.1577802397551692,-0.8184996842199345,-0.2807122971425215,0.3607047362591461,-0.10258755793594505,0.3211734881286215,-0.14688407806472953,0.5130864187599261,0.007246621642328345,-0.10060105636324232,0.4144267067072729,-0.33485673532892857,0.05022286280608861,-0.2577467918039308,-0.15244717940967237,-0.007579664180246054,-0.15826520594845403,-0.5248937775853807,-0.27263271794299193,0.14975039913338356,-0.41472259418372237,0.40402101557000614,-0.025794699786584423,-0.4013052277555417,0.4717011555683201,0.35581833545387126,-0.05829457776055082,0.11175943015310263,0.16433892957918764,0.40696534518972377,-0.5627320838682259,-0.3422374888546109,-0.6864632916449975,-1.023296637591827,-0.290355082429045,-0.10034610025381563,0.10455184584106754,-0.8605946154597099,-0.46614457469620063,-0.665259016347563,0.3128621178918864,0.08597355279894997,-1.2632426601321558,0.15682582739561968,-0.14109260798711926,0.02969509173291806,0.025284539424636994,-0.0025432213349207973,-0.26417225461206445,-0.05155035163918099,0.12406571530355737,-0.9301145815558769,0.2734675209584234,-0.2025044261447778,-4.710573800776803,0.4078318253289791,-0.06293516081819835,-0.2464346011329188,-0.1903229862431441,0.8261316797252423,0.7637809898383047,-0.169532264499985,-0.37556725019359394,-0.4141693846611318,-1.371753286904217,1.0858966149442095,0.6492109373895526,0.12124243609810736,-0.17376799865140222,-0.1898606518639027,-0.029215481992087473,0.04194106741310873,0.22450819909471376,0.3379202949204762,0.10076632973419947,0.208823124041088,0.1282984572306312,-0.23734209338305148,0.3645213817154344,0.37743185835728893,0.15844295688025836,-0.27750841389163805,0.5761255619799844,-1.3324358586648442,0.2946670824183861,0.2142015868860662,-0.0328816933348407,-0.023923425201383505,0.1488071516898683,0.02651752820662748,-0.494140965155817,0.06905779341049073,0.3677719410386392,0.9683618511572848,1.9947909603579146,0.6933649937228276,0.7222817306633875,-0.02746248909209336,0.19448412411641233,0.32469950646386975,0.3470788698326933,-0.0033026003082705043,0.04031463110868492,17.864046031587357,0.29929131647029783,7.007308036759203,-5.618776268994218,-0.4838043680153632,-0.14385275144190351,-0.7228354787189588,-1.106202315544465,-0.9629000574000749,0.5947422307777114,0.18749689366846428,-0.14655851708061,2.1678720741584745,-0.0813767919315745,0.07107964221873041,0.49854433724828545,-0.12102768866355264,0.5025212282521139,-0.10476894655880926,0.44349222344143824,3.2049928709104885,-0.0844410587963822,-0.6121134014592017,-2.414006719438811,-0.4396873061999139,-0.287155814412331,-0.09630907860803198,-4.375677650818473,-1.1224598500581198,-1.1799466182799745,0.48929518619152434,-0.3036852969473767,-0.3479991428328477,-0.18106897899094834,-0.14605312892633565,-0.0017472299661498952,-0.07977181735117837,-1.2643462175225488,-0.7646995922696338,0.10776790267584177,-0.13589903594861752,-0.4801466552735644,0.7384383735005557,0.14332218450657355,-0.6981240891281685,-0.6197791572294807,0.6616466027354421,-0.23987948465321882,-0.1871179911756419,-0.22666822433095488,0.47471928071690545,-0.8142432964895777,-1.4443073776499662,-0.5554971487188669,-1.021328670373844,-0.4317130064533513,0.002402598308868716,0.09501480598435166,-0.43629402639695913,-0.5876335024647317,0.15608992988402468,0.8075445695535557,-0.5464000530964517,0.6771446731862709,-0.1988603371618979,0.1999787643684107,-0.15383388949627905,0.17727397172913734,0.3582278073598875,1.6847845907472494,0.10943057335604586,-0.08191910548871773,0.04266838954721731,-0.6485776031391784,0.14909949123016789,0.26956535853985397,-0.15445284466168285,-0.45023070534717113,-0.23498310305164996,0.17496912018870328,-0.26661452529337865,-0.5120656871657859,0.4866596011917844,0.30461484945767414,0.53988463484307,1.1614520550765617,0.23687837743490314,-0.23819201727484357,-0.1044699101990913,1.0010570676092747,0.3930277515986207,0.12820462069618563,-0.26453712408771235
biasActivation=0,1,1
[BASIC:ACTIVATION]
"ActivationSigmoid"
"ActivationTANH"
"ActivationLinear"
