encog,BasicNetwork,java,3.0.0,1,1547617688582
[BASIC]
[BASIC:PARAMS]
[BASIC:NETWORK]
beginTraining=0
connectionLimit=0
contextTargetOffset=0,0,0
contextTargetSize=0,0,0
endTraining=2
hasContext=f
inputCount=30
layerCounts=1,14,31
layerFeedCounts=1,13,30
layerContextCount=0,0,0
layerIndex=0,1,15
output=0,0,0,0,0,0,0,0,0,0,0,0,0,0,1,0,0,0,0,0,0,0,0,0,0,0,0,0,0,0,0,0,0,0,0,0,0,0,0,0,0,0,0,0,0,1
outputCount=1
weightIndex=0,14,417
weights=-1.5212158747796065,4.1860442329428125,-27.36757833012609,11.711741611168582,1.2909269912054482,0.5772435978997386,-15.192059559701416,-0.807179034956454,-3.483509176054018,25.88799043242534,-15.498698700574701,-1.4573247701728698,11.496505218687458,2.54568355844187,-0.2021606184112534,-0.1352540467745367,-0.21008074506244517,-0.12193158842537857,-0.20298463375960474,-0.11680996365812274,-0.9837481891277161,-0.966883516004933,-0.15030882767309797,0.208796271088238,0.33220251416014024,2.5139517231348414,0.002042557235101555,-0.5380923584924111,-0.4793157932122354,-0.10182763222451055,0.07009759168266959,-0.91651314211747,-0.12429627868429813,2.7225763953025557,-0.5013706452933758,-4.140229671299629,-0.9061001711559935,-3.8896211917101335,-0.9982314673930193,-0.07354454052482055,0.02582767033184365,-0.09828185704837904,-3.305677712919626,0.03415342773472578,1.5619430034899267,-0.14178829881050647,0.23019661684372197,-0.21386988058381354,-0.11643541625001752,-0.001189047573621938,-0.25718114064183056,0.13056600776849644,0.26767534917039276,0.4110098810879058,0.04919057904573972,-0.16322941472954144,-0.6350835255495885,-0.017999482930329245,0.7853287200890808,-0.2610902828752105,-0.29870101071395516,-0.27379727246407853,-0.34336943488804395,-0.004054347722020473,-0.10869139903485152,1.6737539893382665,1.3933947149596226,2.979110743077547,1.2923619113934905,0.44608089474982915,-0.051412628262303126,0.17265137475630338,2.1760703825286636,0.3221369399085264,0.7635424858337229,-0.19934456780871412,-0.42298269300627106,-0.22641866955216924,-0.34961002080337616,-0.10499488275181844,-0.814549639881149,-0.10859539586325388,-2.4728634923505126,-0.7563779346200616,-1.4781322664554208,-0.8572598285068113,-1.0677051033758158,-2.236640899169474,-1.2979672438301662,-4.16259683382937,-1.4670736538789346,0.31641551660547035,-0.39286609325808336,-4.238879344352498,0.009259429287655267,0.7191532680616257,-0.07690503123988358,-0.6535294540626025,-1.0995837502953985,-1.602917349599037,-0.06816289548250576,-0.033401913293470205,0.043446227891398584,-0.3083829127184362,0.157781458073268,-0.2335014681365952,0.4483049699048647,-0.716113075632383,0.1437118263603208,-2.322067572459842,-0.11930240048435618,0.1398464984939419,-0.17254120872020046,0.2165981113464513,0.48999425760699056,0.23704716610165433,0.17060648839455428,0.6195965175061702,-0.6694371865333436,0.09202018865975867,1.6898544370850743,-1.222795132278929,-3.3793633009226243,-0.9678114388858796,-0.06645123411000274,0.061831633947676476,-1.0337865751623785,0.755343407661518,0.46555140632795056,0.9354616964680972,0.37898979540293265,0.19992477983927925,0.014441081984873106,0.2566799579546935,0.3172268398893797,0.44584115138974373,0.16467330620806134,-0.5042190687061259,0.2892571592932129,0.43840323525890185,0.31451657886982853,-0.00777238130781003,-0.08089503187033008,0.09127052876167231,0.47049162783961784,0.5876182950495356,0.27932307543534196,0.07109724390381408,0.34661016306450115,-0.8646678222201044,-0.007694792015330751,0.6267669933342795,0.3278615098919931,-0.1791235575267791,0.14355351082077722,0.24187857710413363,-0.27196409831639534,-0.4150641819119925,0.6474563508992516,3.5386830944353287,0.2850057144343452,0.8996019866118998,0.6246246396516408,-0.1210100319481671,0.2036961688705993,0.4490246257494604,0.7898213938302773,0.022119126688430895,-0.43368912350037137,-0.036363716136605974,0.2967941790284244,0.006871401766460209,0.31930547656908514,0.038271698395876685,0.026451712767744457,0.3895080731797254,0.23841110771333263,-0.32834334504990714,0.3293150732027473,0.5126868141136589,0.42593721448115335,0.42075902641461904,2.8402470121870733,-0.8567019649914204,0.09399603129542748,-3.4975321455659545,-0.3004393967173942,-2.7094775319296818,-0.8832137510513336,0.29744773426155857,0.23704351988726285,0.2424813331049634,0.6752391196332074,0.6058373531705838,-0.29633007255585675,-0.08483531164848152,0.47589679287395314,0.37981964010282,-0.24536169309004785,-0.8044390679527786,-0.4871528796896787,-0.10621539641060757,-0.13034178186791603,-0.2884414742159706,0.17789471113464053,-0.11564673060013508,-0.26729109966218834,0.49703969782214735,1.4463359778265108,0.15027060284969065,-0.6272344858271762,0.2419310258696288,-0.642863643495428,-1.1598905557759362,0.018854051031164967,0.5178974739346527,-0.226665087256984,-0.058503879377739806,1.194809095183182,0.4647814338087668,-0.8973578324842721,-0.15785034629342853,-1.2211636122076595,-0.28609939456950995,0.3610724233188905,-0.11967056975992726,0.46708578616821195,-0.14690058543851575,0.988924638772297,0.05532598064727354,-0.09414920510439953,0.41625928553430014,-0.7223255741942054,0.176298919141876,-0.25765851204825924,-0.15240438196967213,-0.007486396675844637,-0.039799986365601,-0.3412526662140839,-0.2948892946216116,0.149900927719779,-0.41466448499855124,0.41038504625366445,-0.02575339814178439,-0.4012639261107426,0.4790491362924904,0.42816385624828074,-0.027013659118493336,0.11496579026906617,0.16449189958028534,0.40725424566660057,-0.6577744016838283,-0.7259087135430062,-2.3551638881501598,-0.994204313221321,-0.2825322482340796,-0.10033515656203966,0.12069606271390992,-2.739330923442216,-0.18798143733478284,-0.6653049269711092,0.2903389891040705,0.07998866296396866,-1.8861376804014216,0.15589435864835682,-0.1412279718209755,0.02972159669415135,0.02513125557254168,-0.0026130654913368,-0.2641493561756937,0.26846640695331225,-0.03319353580471483,-0.9304878666341764,0.2729015301476258,-0.20267791010609157,-4.571488949072615,0.41151912545681874,-0.06298037574693613,-0.24658856089807676,-0.1555300318428047,0.9332164364138751,0.7332760847019014,-0.1725338139404306,-0.37560150824159283,-0.4148098806712641,-1.3814006139890767,1.2397373004799823,0.7434797048230495,0.12121984056461332,-0.173785242526736,-0.17068955960233417,-0.0295238837362181,0.04208227304614656,0.22228717716115098,0.33790505332047643,0.10063423644430747,0.20877074968283743,0.12835341857846655,-0.2372900535895308,0.36446044394683436,0.37749705080585066,0.15788532503858144,-0.27741919907157014,0.5760531222740766,-1.3519511091831888,0.29460034713631195,0.21414449160399238,-0.03292041527099833,-0.023853152699547502,0.14878403957934228,0.026470304924553857,-0.49548820785707476,0.06879523247626651,0.36801306499871683,0.972381548067805,2.074002794390087,0.6928445577671501,0.7627012046097718,-0.024566525119683803,0.19520267038292574,0.3248121134365724,0.365222294051496,0.05255790905922494,0.040409574428662165,17.791032544126708,0.28473553720177436,7.0072736683812975,-5.624804887041183,-0.6267559230229476,-0.14363656270149855,-0.7227151495992971,-1.1129406960409487,-0.9637712093751939,0.6764037148212128,0.18226241581125366,-0.14654780669604076,2.1677436672848103,-0.08212421905417852,0.4702069048002957,0.5005675777631909,-0.11798129428186281,0.5042810388086383,0.10962161582963378,0.44358518422627286,3.197369288279001,-0.15028606691500615,-0.6122552133267255,-2.4371728051814885,-0.44280610700600126,-0.28712451749476037,-0.09624847944003191,-4.754271669878152,-1.1281736809571474,-1.1999697325168266,0.4907318696785088,-0.303721636013048,-0.348017575904497,-0.18110525794723972,-0.1459967726227404,0.027198139146754594,-0.07961769308284085,-1.194786854400024,-0.7646563703406747,0.09756635843358127,-0.13515953257732816,-0.46529917284007316,1.2884403604562207,0.1434147306235972,-0.6873255934250897,-0.49675651401650134,0.6721755205589526,-0.2399939083941361,-0.18712867326526225,-0.22630301655441107,0.4976540718331963,-0.8335141686135974,-2.4228725820544237,-0.5686701171127896,-1.0209870033180541,-0.29481379659822515,-0.0017336115302368196,0.0947773533511749,-0.4363999784090905,-0.8313266855261938,0.15786298764296205,0.7436482029155165,-0.5495080265545559,0.714315386843358,-0.19975145748205905,0.19994435692772777,-0.1538650229362791,0.17729883279076958,0.35769733677195836,1.6737747934254459,0.11636524385231525,-0.08190139444871773,0.04260696575609854,-0.73971038911486,0.14905079594809426,0.2695193032577812,-0.15688168086152066,-0.4591215109565961,-0.23623651572666185,0.17307550831531548,-0.2680944427653475,-0.5125852336826825,0.5915724954783805,0.42617542564576594,0.6391684167764968,1.1611729867313938,0.23689648805844843,-0.23814529786057134,-0.10428302933545554,1.0105489777016148,0.4097543200088564,0.12828895455475897,-0.264437337605639
biasActivation=0,1,1
[BASIC:ACTIVATION]
"ActivationSigmoid"
"ActivationTANH"
"ActivationLinear"
