encog,BasicNetwork,java,3.0.0,1,1547617687996
[BASIC]
[BASIC:PARAMS]
[BASIC:NETWORK]
beginTraining=0
connectionLimit=0
contextTargetOffset=0,0,0
contextTargetSize=0,0,0
endTraining=2
hasContext=f
inputCount=30
layerCounts=1,14,31
layerFeedCounts=1,13,30
layerContextCount=0,0,0
layerIndex=0,1,15
output=0,0,0,0,0,0,0,0,0,0,0,0,0,0,1,0,0,0,0,0,0,0,0,0,0,0,0,0,0,0,0,0,0,0,0,0,0,0,0,0,0,0,0,0,0,1
outputCount=1
weightIndex=0,14,417
weights=-0.31879267617035933,0.1037057132412855,0.05619451210914087,0.18469768096821862,0.13837892933412455,0.17276367241322962,-0.08837441345731069,-0.1540787992847317,-0.0682900233332075,0.28720540728491095,-0.03579677609870631,-0.279543381088728,0.2081494360885139,0.1716524550166296,-0.15639597627160884,0.14690073322709776,-0.22325983860836357,-0.1030341839602753,-0.23195706074189315,-0.26528192064114803,0.00035363136021511477,-0.30192888928572936,-0.1687541084251586,0.10560085978274786,0.13731812011469005,-0.1289707446931802,-0.04273020315107825,-0.19338863504714449,-0.09853829226016458,-0.2783179907829577,-0.005425376794407785,-0.08452575528567223,0.07099374596967833,0.06637812394107218,-0.22748520544211603,-0.09634094341087213,-0.25574741692478187,-0.22680977487382958,0.14804691414107615,-0.18658787657754583,0.14697004179297132,0.05019778335151298,-0.004087101098280477,-0.06515717063948118,0.13461023588209203,-0.044368979729165064,-0.06087227939942866,0.20360630409372504,-0.03430535209973229,0.045745377639879695,-0.13056681329613226,0.10216795578443846,0.10861310877806321,0.2765564600701736,0.18694711101070188,0.032440280801955754,0.052781062758537035,0.10785999588175231,0.2836654038163615,-0.27134109890108665,0.018361971344733094,-0.029978367242802034,-0.12568519433627412,0.2316115151906717,0.32291008977659164,0.018305050089300487,0.07319163759073236,0.10816542686812748,0.2784538442054314,0.13309536435711372,-0.0630009360578864,0.330476896053957,-0.10361630871422486,0.22591720526570777,0.24852674734572006,-0.09263419348951915,-0.12909261066115146,-0.16862309928613037,-0.06211678522062543,0.005432688031761432,-0.28452730547777955,-0.09889933152314138,0.06309274068143711,0.07408012906898684,0.03635450183981431,-0.24704363696989076,0.0978511166068671,0.012136396446875253,-0.1963220629137986,-0.12469111194125011,-0.2843818693086637,-0.10220674871434753,0.04320214382473281,0.0786832147416805,-0.31619158417076365,-0.06995193037815853,0.11471203881241829,-0.3153826470780988,-0.20928975288914375,-0.3025444602949906,-0.17697850976320223,-0.14714649672786548,-0.04049713448329281,-0.1668685826995736,0.05209108637295298,0.11479218758742366,0.02563312138386334,0.33807390152498645,0.0577242019077566,0.3047507521780426,-0.11788478430793647,0.3377085887198107,-0.08220093870435824,-0.06977457277497803,-0.1306008309989129,0.11340701383434959,0.04884895568042527,-0.046799552913896286,0.12851607377647667,-0.004115367515686988,0.08260555787296675,-0.17304633459059904,-0.1496102347621427,0.12890458448111275,0.03819437565553352,0.04436278451566103,0.1341504225555482,-0.012479011986129732,0.05893771060906297,0.14816366963767574,0.26830820668830724,0.2618495660383363,0.11471770024936781,0.18001432294013409,0.15934237833843498,0.20926411123605299,0.12706678237311816,-0.29291291799669317,0.3006054595162622,0.14501075096582697,0.3165509923162796,-0.05606605863415087,0.020391712883174845,0.2414325808480504,0.18046057406156746,0.14869040767369315,0.3246530457182666,0.1678812120551452,0.010229518596610282,-0.04530507266744352,-0.0014141590851505237,0.22507968771322587,-0.010374155223745588,0.03191244056805363,0.2127342820386438,0.2907443800472309,-0.1067014989925962,-0.033118662675621996,-0.13708389561559703,0.25133304490829206,0.014656057960281355,-0.022684714155850202,0.0876109912728599,0.04705794747830242,0.2080726624683798,0.3270845616569253,-0.04668168930066266,0.10973007545341648,-0.18293784466080681,-0.1079376869385239,0.2924935386156976,-0.008559615153814315,0.057255910399762314,0.10811412120967205,0.027667084310664128,0.22729770878500757,0.11903006829275642,-0.04483097362892244,0.14770412005832603,0.2733417832855275,0.2962978798080814,0.17618012344152245,0.03798330730436346,0.16088339144472147,0.225650233851975,0.2957618651777476,0.023683862532143135,-0.03075966461331414,0.13977704621186188,0.01914388442513848,0.07919740085612148,-0.04717931492384894,0.3017817967180353,0.3058863247189544,-0.04922287017242469,-0.08125125522905291,0.23916170961428485,0.29764266603043354,-0.0961627028240093,0.03431737714817726,-0.13439366908317196,0.08339911310803699,-0.09161731845698975,-0.12666745677576918,0.06795994162542955,-0.02591067292210439,-0.1253180436118048,0.02001218466033132,0.25857773992543853,0.08075938203041091,-0.05619038482552083,-0.20332816025276354,-0.10355749407488307,0.11995928571984131,-0.11860208096577335,0.07368837776701331,0.08550571558454097,0.2850812093366316,-0.26675003032858025,0.08864841571331511,-0.13041682422609333,0.02198731030279112,0.04753005817727961,-0.10950216772556323,0.03944754408541976,-0.03649425961931352,0.2679265335041513,0.03249713885993931,0.02816718789667516,-0.027908179946962625,-0.22555410804286316,-0.01405021234212317,-0.26861811449680106,-0.004069339358523175,-0.2703827020935688,0.10982544778064784,-0.14951751202225386,-0.07088456649509771,0.08794189357320037,-0.3024948358094147,0.07315158100807931,-0.25988417153052595,-0.004026190189841822,-0.012185082343740009,0.12219421930416607,0.17030270481948237,0.14511200791951218,-0.21305954927608375,-0.04843844366076458,0.131031526340001,-0.06578762580417885,-0.208233023549051,-0.07178101948201146,-0.20297942639547867,-0.040952118085834203,0.04095336150066134,-0.24958134541498142,0.09610529834522999,-0.03593807281059956,-0.23311239357552188,-0.31639383225064976,0.15734493458659798,-0.16440320978554673,-0.05464251606179741,0.11990902442198728,-0.14056007355795727,-0.11854854979769996,-0.2804180938037777,0.05584346373762328,0.07845436183747995,-0.20017355693760164,-0.00890769768536856,-0.26823078244724985,-0.05584696478374326,-0.12778958547193664,0.0593368891790024,0.06766605646089807,-0.2678806907997065,-0.3499815780889789,-0.050190419944325625,0.19232541458483698,0.012045055222734302,-0.04296070000666931,-0.12968186840001816,-0.3097192783363101,-0.29455283843555086,-0.28063534537508084,0.09887873824728213,0.036622361652704105,-0.0568564211659369,-0.1899007422322299,-0.13164065774952635,-0.14157269417149002,0.19758957169870733,0.10273122882371359,0.07391722359768146,0.18093910088130724,0.23565654089802499,-0.10089806745341759,0.23756584622486246,0.22159330343270955,0.12792326710709157,-0.29075447957892137,0.31094025534702474,0.09520488989800613,0.31721506205358607,-0.05950491027873381,0.12135277118387011,0.16827049804728395,0.2905047791388988,0.16179294285861218,-0.18455595915705308,0.3016672127379528,-0.10053932070024418,0.2492512571362202,-0.01944786186850167,0.021112971419130017,0.0786170992977798,0.15264138945288375,0.23171703970125382,0.18392425339940782,0.25857422708240335,0.1126858388653373,-0.052528202439547506,0.20615616261337505,-0.03806446793925514,-0.13289409650802061,0.02905866502701074,-0.10290990277091888,0.17276783771211374,0.15384370777421735,0.03475545091915136,0.138143163753562,-0.05399156919123842,0.11237196285482949,0.23458066249789553,-0.006434897980223078,-0.006879126668586408,-0.03557293354541205,0.20973072829083977,-0.13653123791914654,0.0582374136531201,-0.009587868708932634,0.2930354118938231,0.3260851306117474,0.17142777147249483,-0.013878452732436333,-0.06453322575558976,-0.11858699559343275,-0.1283768845236216,0.17272421788001666,0.08612938150788754,0.29768447552361077,-0.07148910004759246,-0.08427122206900728,-0.3034393632526497,-0.06805467301371007,-0.16608104529622103,0.005895601144689774,-0.0674529957396738,-0.2305140341203456,-0.052890956989815135,-0.21851578059870025,0.00939460568128464,-0.23590932915884558,-0.2280378318336946,0.057977306647044646,0.11520614383833047,-0.08088406557071912,0.08015987834595864,-0.07059021060830363,-0.29891795663881005,-0.059842335651457516,-0.32239430646013767,0.07754596359014632,-0.047240098816585474,0.030192596574668412,0.030289341187278218,-0.29962433283682877,-0.07420878213616469,-0.24420399888504407,0.0843127835283271,-0.3095029831628297,0.006365121404538349,0.05887382673433761,0.15139941171933718,-0.06507691855000461,0.15075193078683924,-0.05248115722464816,0.19304526044475334,-0.05273133033921651,0.31104193138040814,0.3237712445859666,0.0358203024525284,0.196333959489715,0.01079790438963707,-0.08760898977349368,-0.049910607173518834,0.2677911473274032,-0.10000900260575338,-0.035054296601622445,0.022234013773467495,-0.052738351225872976,0.2641938535281569,0.07926386687315692,-0.04979140994025111,0.21233670789144665,0.05852519815390878,0.12136309736453905,0.1072423095293027,0.2683979710370388,-0.0878176014816836,-0.0910587724087206,0.08123394046657785,0.24217646028456646,0.14450123806122217,-0.1431524461594631
biasActivation=0,1,1
[BASIC:ACTIVATION]
"ActivationSigmoid"
"ActivationTANH"
"ActivationLinear"
