encog,BasicNetwork,java,3.0.0,1,1547617688657
[BASIC]
[BASIC:PARAMS]
[BASIC:NETWORK]
beginTraining=0
connectionLimit=0
contextTargetOffset=0,0,0
contextTargetSize=0,0,0
endTraining=2
hasContext=f
inputCount=30
layerCounts=1,14,31
layerFeedCounts=1,13,30
layerContextCount=0,0,0
layerIndex=0,1,15
output=0,0,0,0,0,0,0,0,0,0,0,0,0,0,1,0,0,0,0,0,0,0,0,0,0,0,0,0,0,0,0,0,0,0,0,0,0,0,0,0,0,0,0,0,0,1
outputCount=1
weightIndex=0,14,417
weights=-1.6826621953287535,5.628152314195102,-35.555455984596264,16.339672459347398,1.2928224054815933,0.5847299427435793,-18.752006365992795,-0.807240258953952,-3.4388009642096393,33.60120851272339,-18.168658805293255,-1.493546701065306,13.762675060655342,2.5780245681672573,-0.20268539553265927,-0.13524160517453673,-0.21060552218385103,-0.12195025082537857,-0.20274428422304122,-0.11678416475636276,-0.9883910812405562,-0.9669003876973651,-0.15045834431280344,0.20897569105588443,0.33220251416014024,2.553878895635323,0.0020121881887239074,-0.5380990143257314,-0.47353929256112404,-0.10202914663913035,0.07004008528278287,-0.9188345881738901,-0.12429627868429813,2.762503567803037,-0.5014438731251122,-4.4852004417037925,-0.9133546900823062,-4.236211230776815,-0.9947492983083885,-0.07263772565903147,0.025804559799481774,-0.098296786968379,-3.638404150423639,0.03432033713511711,1.5631520899776457,-0.14281602232506763,0.23019661684372197,-0.22239423050298834,-0.12026580224311065,-0.0012983557385265981,-0.3793582884933042,0.12364624136351919,0.2538358163604381,0.38848152854857126,0.049045740560231664,-0.16514460772608786,-0.6803609391651354,-0.018031989546546834,0.7852588712824122,-0.2746072943988108,-0.3444508958707574,-0.3486607209024816,-0.35095109199262803,-0.0040753477220204755,-0.10871539903485165,1.6977102928385555,1.6914494605888184,3.048104897158379,1.2913341878789313,0.38868558428038635,-0.04750145594644647,0.1079693553055232,2.9005090003774052,0.31495004885843964,0.8264277825219815,-0.19457895477154735,-0.37827448116189183,-0.22064216890105778,-0.2899990716775372,-0.10463385146112396,-0.810237505251097,-0.10858870878791767,-2.472881492350515,-0.78381631271284,-1.4776621736289952,-0.8680401650819415,-1.0669529548535348,-2.236639899169474,-1.2979502438301675,-4.140934956387706,-1.2610582137000348,0.3187622199949841,-0.3930776833934338,-4.238879344352498,0.009332314998961637,0.7191532680616257,-0.07066641053668328,-0.641551302312458,-1.0478381347347752,-1.6007511618548698,-0.06823742377675891,-0.03339968426835815,0.04311977453971445,-0.308785941547676,0.15777345807326798,-0.2707583113402446,0.46477492856131336,-0.7178460258277164,0.1437118263603208,-2.32351169762262,-0.11930240048435618,0.13262587268005285,-0.1724541544930847,0.1806636560960178,0.6049845144083775,0.21979862758144625,0.1719062010410543,0.6220033927774666,-0.6694371865333436,0.09206068072159554,1.7175816402104087,-1.26646547720133,-3.1409195044192675,-1.257586886025376,-0.06640810431008774,0.13634532035497535,-0.976291446761685,0.9450773313838062,0.46555267170488296,1.1769412357510107,0.3824719644875625,0.17999585259294484,0.014441081984873106,0.2550114186016413,0.3241586406707132,0.4523093533348217,0.17215965105190165,-0.5042190687061259,0.28926586841321306,0.4385086833366025,0.31452653214982873,-0.007766160507810032,-0.08090203187033009,0.09125982944113441,0.7340109663427967,0.5892304103664939,0.28327291838239155,0.07102591510022802,0.3465139944176386,-0.8664089067624193,-0.007727040642530748,0.6267365362974789,0.3365262608686603,-0.17906310320239316,0.15799476244855565,0.24357129818693984,-0.27918472413028456,-0.4150641819119925,0.651634953800808,4.286119763644346,0.28661782975130357,0.9019234326683199,0.6245021916566464,-0.12059217165801149,0.20463925633102012,0.449130073827161,0.8979574860190811,0.022054930765203446,-0.4096203707874079,-0.036363716136605974,0.29681461175861856,0.006871401766460209,0.319345968630922,0.03823944976867667,0.026440478481179662,0.39006783544255824,0.23840524948679373,-0.32878875773011274,0.35704227632808166,0.5141377178989217,0.4379715908376354,0.42410190873586395,2.909565020000408,-0.8572057510279699,0.1402080365043183,-3.2675516319631805,-0.32829674939443604,-2.703906061394274,-0.8818143453942515,0.29745637426155846,0.2392265927123109,0.2430482219706794,0.6753123474649441,0.6056753849232364,-0.26305742880545535,-0.08504522249704383,0.47589679287395314,0.38127054388808246,-0.2453388834900477,-0.811693586879091,-0.4867750401622672,-0.11765286769980812,-0.1292536040289692,-0.28767974972870763,0.24776726301048316,-0.11233727710210245,-0.20979597126149474,0.5257373530568676,1.546952452527722,0.15025541832650183,-0.6271971610271755,0.2419310258696288,-0.6427639358423616,-1.1573833940350018,0.02010763190163185,0.5209301367764865,-0.22622981612140516,-0.05847987937773978,1.2026073710621838,0.46521467135760014,-0.9189185056345324,-0.15935464333798854,-1.2556606892480757,-0.28820541043189435,0.36115988617245814,-0.14662141119775238,0.4886464593184721,-0.14690358543851575,0.9765056910377472,0.04720277660664817,-0.09382427694277452,0.4169242831025456,-0.7510731383945521,0.22204880429867793,-0.25762055074028717,-0.152380381969672,-0.007467821466577433,0.08497242769840417,0.018091886290250957,-0.2948892946216116,0.14994395053548068,-0.4146474849985517,0.41230023925021086,-0.025736398141784373,-0.40124692611074303,0.4848156082966384,0.45271398401550444,-0.014738595234881718,0.11605396810801302,0.1646230938606368,0.4073402912980039,-0.6722156533116067,-0.7558540929183674,-2.5468143161524717,-0.9841756662575862,-0.27250360127034506,-0.10037385491467973,0.1248746656154662,-3.153295847927211,-0.4179619509375572,-0.6653219269711097,0.26627023639110703,0.07940830144986362,-2.0039782936840944,0.15578940322407567,-0.14124345116203152,0.029734250463475373,0.025106960335439556,-0.0026337046127448012,-0.26415293935649364,0.3358589145496116,-0.05726228851767881,-0.9302429706441876,0.2593845186240255,-0.20265506302258998,-4.432852933445945,0.41329503168998033,-0.06301681860258931,-0.24662500375372995,-0.1483094060289155,0.9626765897345424,0.7188348330741233,-0.1728820308488936,-0.3756205082415923,-0.41487285392583273,-1.3824034786854504,1.2830610553633186,0.846970935944298,0.12122199047309333,-0.173792707486736,-0.15263799506761105,-0.0298261553581478,0.04209947231398656,0.2218797633782495,0.33790985332047635,0.10059487816020202,0.2087457496828374,0.12833661857846645,-0.2372760535895308,0.36443021678464155,0.3774466722021957,0.15776562547629713,-0.2773999990715705,0.5760214422740761,-1.3538226953941508,0.2945686671363115,0.21411809160399223,-0.032994846635182255,-0.023717765965537072,0.14878203957934227,0.02645330492455384,-0.4957138524137587,0.06881090223714734,0.36813842308576344,0.9728328371811729,2.086421742124637,0.692300468847676,0.7593323494300432,-0.0232564147720117,0.19579812129639768,0.32484451343657184,0.3683270309851334,0.06381258044366067,0.04189187070774257,17.78271438318911,0.2864766217440894,7.007277886304405,-5.626545971583493,-0.6683467277109498,-0.14357582460874324,-0.7227002894318834,-1.1161326843685269,-0.9639475344879863,0.6860312159063984,0.18085181490891508,-0.146568797780897,2.167533756436247,-0.08232829904583636,0.49895446900064244,0.5014876801613785,-0.11659009945580336,0.5050861284070516,0.18947596083059717,0.44357032405885904,3.1945835530112934,-0.16484284855580666,-0.6122886487034068,-2.4461985874488525,-0.44389428484494836,-0.2871195174947605,-0.0962335495200319,-4.658446455876996,-1.1302049462565154,-1.2083937959663626,0.49136664008456127,-0.303721636013048,-0.3486298158794705,-0.18110037609179064,-0.14595628056090354,0.047510792140430774,-0.0795213991979997,-1.1185370458053532,-0.7646292814938274,0.0957527287020031,-0.1348240785779891,-0.4575744536129801,1.4631217401458292,0.14344721982363465,-0.6806084462710957,-0.5542516424171949,0.6482192170586636,-0.24009513854872827,-0.1872336286895434,-0.22583735784328704,0.4996598012259433,-0.8358356146700174,-2.652453823932195,-0.5691537517078771,-1.0198674787923876,-0.052200769251548484,-0.00006217036961432229,0.0946592515041507,-0.43645365621784804,-0.8890916920373075,0.1587026310372113,0.7116122473369194,-0.5516742142987218,0.7111960764917578,-0.20040958743905435,0.19991935692772775,-0.1538780229362791,0.1773228327907697,0.35764510423568896,1.6706554830738451,0.10601612074019037,-0.08188239444871771,0.04258296575609852,-0.7532936131995236,0.14902979594809423,0.26949430325778184,-0.1582897028952292,-0.4602046048286797,-0.23654991094427838,0.17276211309769895,-0.2684705170264878,-0.5127212559125501,0.6164103909474801,0.4448038472475906,0.6909140323371212,1.1607195792985006,0.23689408805844842,-0.23810929786057114,-0.10407965665067102,1.0143181443764673,0.42269072389901224,0.12833215455475872,-0.26437015296563915
biasActivation=0,1,1
[BASIC:ACTIVATION]
"ActivationSigmoid"
"ActivationTANH"
"ActivationLinear"
