encog,BasicNetwork,java,3.0.0,1,1547617688259
[BASIC]
[BASIC:PARAMS]
[BASIC:NETWORK]
beginTraining=0
connectionLimit=0
contextTargetOffset=0,0,0
contextTargetSize=0,0,0
endTraining=2
hasContext=f
inputCount=30
layerCounts=1,14,31
layerFeedCounts=1,13,30
layerContextCount=0,0,0
layerIndex=0,1,15
output=0,0,0,0,0,0,0,0,0,0,0,0,0,0,1,0,0,0,0,0,0,0,0,0,0,0,0,0,0,0,0,0,0,0,0,0,0,0,0,0,0,0,0,0,0,1
outputCount=1
weightIndex=0,14,417
weights=-0.8286034796775592,1.1630678447536207,-3.1711437271468235,0.8181171542738187,1.2732557168413243,0.3967018137636295,-0.7239151490902578,-0.8068439015613398,-0.2941375208443653,2.1381905956002494,-3.128039375870271,-1.0717785045959278,2.202443621391569,2.552473025735399,-0.2505078388670013,-0.12811581677097206,-0.2646341520095415,-0.12192630666901765,-0.20328030884429316,-0.11678259264114801,-0.9682907375164779,-0.9534669535777035,-0.14838549233607054,0.2089297166955056,0.042127494563073964,0.12977869749976698,-0.016111103120582313,-0.5384054118535444,0.07278460122340785,-0.11885213508850781,0.07029148437884021,-0.8272767306710216,-0.07595365429327276,0.7862818425639599,-0.4992692421142503,-1.242982377689085,-0.512938056592033,-1.2315188171155127,-0.3592518797318709,-0.07982656469462233,0.02601150381297133,-0.07725045882062136,-0.19044680097083153,0.03366736950051884,1.7676252624066358,-0.05270299524032283,0.18019346830543537,0.1952276458379781,-0.0413522455554792,-0.0012705852945203103,-0.10077201025601962,0.13484284502143046,0.2608737918981658,0.1337644255813313,0.04949676519310189,-0.15855796876425224,-0.4303114245630629,-0.017366962868926725,0.7855698810144058,-0.7596179252339832,-0.1599925306998979,-0.21354447313133942,-0.3254849602248115,-0.003939547021936309,-0.10772047611194574,1.2245501814600257,0.5338391228672792,1.4184971420338015,1.2850239759695175,0.4164826863034714,-0.0422910937277744,0.3240524313603148,0.08632423915832624,0.36508009590545476,0.6694246868198078,-0.2139871411695191,-0.5118549314870585,-0.01694655595826471,-0.44487910604653247,-0.07899034003278965,-0.9518884287604283,-0.10869586104774134,-2.1756005864530397,-0.23493274462492808,-0.6037546331134054,-0.5255285208925394,-0.9372643683391038,-2.3109886325678874,-1.3518049039112257,-1.6990663288779477,-0.9660107938636321,0.4083239888385996,-0.41386000613456014,-1.527078859857153,-0.0015955909250020273,0.23375003377432935,-0.07662505875613276,-0.2808308845338458,-1.0964804496543212,-1.387135157060168,-0.06753309425204448,-0.032354251758713454,0.06286668640630719,-0.27269253155921136,0.15806983229295302,-0.01849061574044199,0.10764209333321442,0.17495347644563922,0.17005334777080178,-0.18153607205047717,-0.11792938345033646,0.23718680188941074,-0.16708610053475823,0.15904655764000306,0.02165985212118971,0.05448595450648393,0.10309840527584509,0.48630414297268537,-0.7262564669567173,0.057448415778265004,0.6157092537595484,-0.46849337335360697,-0.6909627289058767,-0.05234207628509526,-0.06824020155707447,-0.17444166799501795,-0.3801828514767075,0.3508306113352849,0.4956232046676101,0.5114732929590903,0.37904377904685344,0.2256492202207363,0.014892121249367807,0.27984009869386206,0.2873179886685471,0.3096525997355191,0.21812986561273948,-0.5044767012906451,0.28954098567946224,0.37144978587269667,0.3145946044762796,-0.007126511040934872,-0.08136276513762516,0.0916130705980504,0.2090361886472852,0.5832435335104932,0.22482156290576663,0.0713975224151452,0.43540895423091125,-0.4362298269883907,0.022675922732315112,0.674332594557818,0.28349385250604126,-0.16635349512639622,0.1393152867101064,0.23779742005542287,-0.20227518699259625,-0.2818132025481731,0.6201876081384514,0.4838243055804263,0.2723510105985538,0.9265454135545294,0.42995330884884375,-0.1093665172153398,0.19895309977473752,0.4470798790073251,0.09353174815508424,0.01904695882256847,-0.6641047181120305,-0.04715669119507497,0.2967450771156976,-0.025017644692681428,0.31421340414401544,0.048342196537537706,0.026668120591512117,0.10554330442886031,0.23726926362062198,-0.33576936714461036,0.011368020289483782,0.4589747791412744,0.6400067529398316,0.29225189315165356,1.6609740040695409,-0.1876080670924064,0.012127408979423899,0.026976227144800448,0.18164719599231266,-1.476289905767231,-0.5147356894210853,0.2952124857262256,0.22881996866277307,0.1873945211884838,0.651712535463084,0.5839270592077964,-0.12736992284497578,-0.08345237519820489,0.4713905959985379,0.4083825885746865,-0.24589742329940936,-0.18509659932178743,-0.1293588473342056,-0.062381180722363025,0.17384673645892953,-0.04272751221184126,-0.1406159384054185,-0.12160755590536777,-0.2603610938454612,0.3409909032832191,0.34294535055838565,0.12184037454190474,-0.6196099211128551,-0.04871904521045319,-0.6351020303622174,-0.28723135394740984,-0.01784720351002645,0.5674251133999604,-0.2020374069597121,-0.06135990884657612,0.36672868829430755,0.12563329316906202,-0.285183761737251,-0.14233554876996665,-0.12828756985485476,-0.2621294376947153,0.08255753840636695,-0.12679512800064732,0.20571518228777166,-0.15498589310061744,0.02325611270550181,-0.14353039578440388,-0.1562641536529854,0.013818845913623746,-0.2277089722600246,0.008715054097223741,-0.27135588058241095,-0.15180553962466412,-0.007576685427565847,-0.10554468122252172,-0.08760865729860802,-0.21282780132057247,0.15051396896276736,-0.4148480607675179,0.3954158532963661,-0.026289559541784274,-0.40137638198314024,0.4885172743856903,0.38502650996414334,-0.05173109106347575,0.11598855838386646,0.16497996982620905,0.40916614008435853,-0.535401471941664,-0.33945414363241144,-0.5662890497168932,-1.0475222498499202,-0.23701744750849063,-0.10071429766498144,0.11191616404109564,-0.3496588670663465,-0.34738814541206875,-0.4652103212455169,0.31230882382358993,0.24995443748034757,-0.25470874227817697,0.1765958993334811,-0.1407414138571573,-0.013756733194830213,0.06862940051716948,-0.0018560832512189616,-0.15920113804957278,-0.09160715091528614,0.14807312130547942,-0.8053887421145011,0.13223029652798807,-0.19076109924528772,-0.9453721530626807,0.13095850353344918,-0.06766838612757216,-0.24842170063323182,-0.20323349070400434,0.7692233540589248,0.32704710229528544,-0.06702298919117547,-0.3671667732318166,-0.33378156752081617,-0.5200134353240244,0.09562756831212683,0.39099489668038434,0.1147694143252552,-0.1737575312276329,-0.16872208379912762,-0.030564654298726356,0.03945957480619447,0.22718578737518474,0.33704753246666525,0.10629927485921649,0.21053531655778468,0.11864952812438272,-0.2397504172222598,0.36401396750486237,0.34707774770866734,0.03998262624283848,-0.28491451560976927,0.5761367446654245,-1.252986836778011,0.29466062813358607,0.2141906558012662,-0.03754033949772987,-0.01324199543977911,0.154490273689437,0.02660596298200417,-0.495307697540372,0.06886482154230472,0.3310591524866411,0.9650040432777318,0.9016254835063376,0.6689257946839008,0.24346892608028295,0.00848135342203574,0.20711375658803782,0.3176226536305655,0.2587695080536733,0.041258308121084206,0.12513330386650043,13.822957247777104,0.33384097609120544,6.941246024866385,-3.979913567178383,-0.4994080237560667,-0.14351902942738665,-0.6466331325450819,-1.0218631230776463,-0.8116983846228254,0.31844707192979904,0.24361225815773166,0.15846981036756788,2.2611218244875997,-0.06204039505751428,0.07244751157606005,0.48300074286982275,-0.12140706616504868,0.5026843219854438,-0.10268126991051303,0.4437268268501467,6.295784785483509,0.09715961176112853,-0.3867908456655871,-1.7443471693193515,-0.7455137638098203,-0.28592039750569903,-0.09465373095052647,-1.1422440020805111,-0.9318623463651713,-1.1395751560917124,0.30845549759290464,-0.30248966068420163,-0.33288957423286214,-0.17987334272777306,-0.1342365683781672,-0.0013888448269160263,-0.07984651030274559,-0.8576915503668524,-0.764271474527148,0.10779266438367263,-0.13598262327884564,-0.5576557875913878,0.2162771113191791,0.0685828382469094,-0.6638025139633322,-0.1762138327852384,0.19029883471776612,-0.23999350308361012,-0.18776860678105747,-0.22635157392013766,0.20563243766169842,-0.7148207470424135,-0.37822345241788263,-0.458240467887452,-0.9672049810626568,-0.3571140097462768,-0.08766236525419609,0.10012364922419276,-0.4262057646739874,-0.2693009086284087,0.15505088176518564,0.7392925724603097,-0.06647424049887397,0.2933992979298242,-0.032219430009961136,0.2040168149146413,-0.1539608182736165,0.17656825478572005,0.3522792106659667,0.7151127525239075,0.10375572504286704,-0.08200716942796293,0.04281249954490631,-0.6241429660636165,0.15008714832994016,0.2700869983967835,-0.1796338072832224,-0.45271975211506993,-0.23630445711441037,0.1701705966265569,-0.26941073469305105,-0.512021271984882,0.5756463312128612,0.2985165723043088,0.5529615705514243,1.1700209536826576,0.22403282521943876,-0.2379527990016836,-0.11162373072641024,0.6459099513438927,0.34316778862559033,0.12005672918736908,-0.26450539383946303
biasActivation=0,1,1
[BASIC:ACTIVATION]
"ActivationSigmoid"
"ActivationTANH"
"ActivationLinear"
