encog,BasicNetwork,java,3.0.0,1,1547617688633
[BASIC]
[BASIC:PARAMS]
[BASIC:NETWORK]
beginTraining=0
connectionLimit=0
contextTargetOffset=0,0,0
contextTargetSize=0,0,0
endTraining=2
hasContext=f
inputCount=30
layerCounts=1,14,31
layerFeedCounts=1,13,30
layerContextCount=0,0,0
layerIndex=0,1,15
output=0,0,0,0,0,0,0,0,0,0,0,0,0,0,1,0,0,0,0,0,0,0,0,0,0,0,0,0,0,0,0,0,0,0,0,0,0,0,0,0,0,0,0,0,0,1
outputCount=1
weightIndex=0,14,417
weights=-1.6454053521251042,5.216121433837305,-33.775482581450575,15.627683098089118,1.2922808585455519,0.5834822186029391,-18.218014345049088,-0.8072227663832383,-3.4238982269281797,31.821235109577685,-17.871996571435638,-1.478023016397119,13.041621020029197,2.5672442315921282,-0.20268539553265927,-0.13524160517453673,-0.21060552218385103,-0.12195025082537857,-0.20274428422304122,-0.11678416475636276,-0.9883910812405562,-0.9669003876973651,-0.15045834431280344,0.20897569105588443,0.33220251416014024,2.553878895635323,0.0020121881887239074,-0.5380990143257314,-0.47353929256112404,-0.10202914663913035,0.07004008528278287,-0.9188345881738901,-0.12429627868429813,2.762503567803037,-0.5014438731251122,-4.4852004417037925,-0.9133546900823062,-4.236211230776815,-0.9947492983083885,-0.07263772565903147,0.025804559799481774,-0.098296786968379,-3.638404150423639,0.03432033713511711,1.5631520899776457,-0.14281602232506763,0.23019661684372197,-0.22239423050298834,-0.11991758533464764,-0.0012884186326261745,-0.37217139744321753,0.12454881959025532,0.25564097281391046,0.3902144787439047,0.04906463253660228,-0.16479639081762487,-0.6738927372200573,-0.018027345744230035,0.7852740558056011,-0.27148798404721075,-0.336132734933157,-0.333688031214801,-0.3498679981205446,-0.004072347722020475,-0.10871299903485164,1.685732141088411,1.5920978787124198,2.979110743077547,1.2913341878789313,0.3961719291242267,-0.04840403417318262,0.11515624635560989,2.6935265381349076,0.3221369399085264,0.814449630771837,-0.19544542986921404,-0.4080799557248113,-0.21775391857550205,-0.3198045462404567,-0.1048143671064712,-0.8188617745112011,-0.10859762488836595,-2.472881492350515,-0.7823721875500622,-1.4780278013828818,-0.8658840977669154,-1.066827596766488,-2.2366358991694733,-1.2979512438301675,-4.13852808111641,-1.2610582137000348,0.31785964176824805,-0.3931079105556267,-4.238879344352498,0.009310449285569726,0.7191532680616257,-0.0731618588179634,-0.641551302312458,-1.0685363809590245,-1.6014732244362588,-0.06827882838467733,-0.03340637134369432,0.04311977453971445,-0.308836320151331,0.15776745807326797,-0.2583393636056948,0.4602831216550092,-0.7169795507300497,0.1437118263603208,-2.322789635041231,-0.11930240048435618,0.13334793526144176,-0.1724541544930847,0.18665273197109006,0.547489386007684,0.23704716610165433,0.17103972594338762,0.6214016739596425,-0.6694371865333436,0.09205055770613632,1.745308843335743,-1.2602268564981298,-3.3793633009226243,-1.174793901128377,-0.06640810431008774,0.15124805763643512,-1.0337865751623785,0.8933317158231822,0.46555140632795056,1.1079470816701782,0.3821237475790995,0.1843282280812784,0.014441081984873106,0.25530159935869384,0.32242569047537983,0.4544654206498477,0.16916511311436552,-0.5042190687061259,0.289263380093213,0.43850282511006355,0.3145240438298287,-0.0077682341078100315,-0.08090103187033008,0.09127052876167231,0.7340109663427967,0.5890288959518741,0.28590614701375794,0.07104374730112453,0.3465190559253682,-0.8663218525353036,-0.0077252490521307485,0.6267365362974789,0.3350821357058824,-0.1790026488780072,0.15799476244855565,0.24345038953816797,-0.27918472413028456,-0.41501380330833754,0.650938519983882,4.34361489204504,0.28641631533668377,0.9013430711542149,0.6245196842273599,-0.12038324151293368,0.20471180152028326,0.4491242156006221,0.9062756469566814,0.022076329406279262,-0.4120272460587042,-0.036422024705651056,0.29681461175861856,0.006703473087610373,0.3193257226000036,0.03824124135907667,0.026442083379260347,0.39006783544255824,0.23840524948679373,-0.32874826566827586,0.37090587789074886,0.5141377178989217,0.43997732023038244,0.42410190873586395,2.909565020000408,-0.8572057510279699,0.151761037806541,-3.2675516319631805,-0.3306181954508562,-2.703906061394274,-0.8815344642628351,0.2974546462615585,0.2392265927123109,0.2429672378470057,0.675307465609495,0.6056855079386956,-0.24642110693025465,-0.08504522249704383,0.47589679287395314,0.3815123611856262,-0.2453368098900477,-0.8121772214741785,-0.4868506080677495,-0.11557332746540802,-0.12947123959675857,-0.2877522949179708,0.2278036767602424,-0.11293899591992657,-0.20979597126149474,0.5219941806349476,1.518204888327376,0.1502584552311396,-0.6272046259871756,0.2419310258696288,-0.6427796791560036,-1.1578848263831887,0.01998227381458516,0.5204968992276531,-0.2263204976079841,-0.05848587937773979,1.2010477158863835,0.46651438400410017,-0.8973578324842721,-0.1591039271638952,-1.2039150736874513,-0.2879045510229823,0.36114530903019687,-0.1421296042914482,0.49295859394852415,-0.14690158543851575,0.988924638772297,0.049308792469032525,-0.0940408957171912,0.4169242831025456,-0.7510731383945521,0.22204880429867793,-0.25762055074028717,-0.152380381969672,-0.007467821466577433,0.08497242769840417,0.018091886290250957,-0.2948892946216116,0.14994141978161588,-0.4146474849985517,0.4119520223417479,-0.025736398141784373,-0.40124692611074303,0.4840634597743582,0.45271398401550444,-0.014738595234881718,0.11605396810801302,0.16461580528950617,0.4073402912980039,-0.6722156533116067,-0.7558540929183674,-2.5468143161524717,-0.9841756662575862,-0.27250360127034506,-0.10037385491467973,0.1248746656154662,-3.153295847927211,-0.4179619509375572,-0.6653219269711097,0.26988054929805155,0.07940830144986362,-2.0039782936840944,0.15578940322407567,-0.14124345116203152,0.029734250463475373,0.025106960335439556,-0.0026337046127448012,-0.26415293935649364,0.3358589145496116,-0.05726228851767881,-0.9302429706441876,0.2593845186240255,-0.20265506302258998,-4.432852933445945,0.41329503168998033,-0.06301681860258931,-0.24662500375372995,-0.1483094060289155,0.9626765897345424,0.7188348330741233,-0.1728820308488936,-0.37561950824159235,-0.41487285392583273,-1.3824034786854504,1.2830610553633186,0.846970935944298,0.12122199047309333,-0.173792707486736,-0.15263799506761105,-0.0298261553581478,0.04209947231398656,0.22197378194353445,0.33790505332047643,0.10060274981702311,0.2087507496828374,0.12833661857846645,-0.2372780535895308,0.36443021678464155,0.3774403748767388,0.1577873890330761,-0.2774047990715704,0.5760243222740762,-1.3536355367730546,0.29457154713631156,0.21412049160399224,-0.03299092919496205,-0.023717765965537072,0.14878203957934227,0.02645430492455384,-0.4956912879580903,0.06881090223714734,0.36801306499871683,0.9726523215358257,2.074002794390087,0.6924092866315709,0.7604553011566194,-0.02363073201420373,0.195766781774636,0.324836113436572,0.37764124178604574,0.06031975139331854,0.04175711650055344,17.78271438318911,0.2864766217440894,7.007277886304405,-5.626545971583493,-0.6683467277109498,-0.14357582460874324,-0.7227002894318834,-1.1161326843685269,-0.9639475344879863,0.6860312159063984,0.18085181490891508,-0.146568797780897,2.167533756436247,-0.08232829904583636,0.49895446900064244,0.5014876801613785,-0.11665634682847285,0.5050477908071271,0.18947596083059717,0.44357032405885904,3.1945835530112934,-0.16484284855580666,-0.6122886487034068,-2.4461985874488525,-0.44389428484494836,-0.2871195174947605,-0.0962335495200319,-4.658446455876996,-1.1302049462565154,-1.2083937959663626,0.4913364129223683,-0.303721636013048,-0.34854235302590286,-0.18110037609179064,-0.14595628056090354,0.044608984569905606,-0.07953744817880656,-1.1254688465866869,-0.7646331513290913,0.09514818545814371,-0.13487200057789467,-0.4585820256860792,1.438167257333028,0.14344298210189063,-0.6806084462710957,-0.43926138561580774,0.6721755205589526,-0.24006983101008023,-0.1871636584066893,-0.22589809593604235,0.5016655306186902,-0.8358356146700174,-2.6225084445568334,-0.5691537517078771,-1.0198674787923876,-0.08685977315821658,-0.000897890949925571,0.0946592515041507,-0.43645365621784804,-0.8939054425799003,0.1585766845280739,0.7157908502384756,-0.5513131830080275,0.7130676627027179,-0.2003155688737693,0.19992435692772775,-0.15387902293627911,0.17731563279076967,0.35759287169941956,1.6685759428394447,0.10860340151822159,-0.08188739444871772,0.042588965756098524,-0.7513531526160002,0.14903279594809424,0.26950130325778165,-0.15796477473360415,-0.46002408918333243,-0.23651857142251673,0.1727934526194606,-0.26843290960037375,-0.5127061423314537,0.5915724954783805,0.42617542564576594,0.6702157861128715,1.1608102607850792,0.23689408805844842,-0.2381212978605712,-0.10414436614128428,1.0131484029946165,0.4252780046770434,0.1283177545547588,-0.2643875712056391
biasActivation=0,1,1
[BASIC:ACTIVATION]
"ActivationSigmoid"
"ActivationTANH"
"ActivationLinear"
