encog,BasicNetwork,java,3.0.0,1,1547617688545
[BASIC]
[BASIC:PARAMS]
[BASIC:NETWORK]
beginTraining=0
connectionLimit=0
contextTargetOffset=0,0,0
contextTargetSize=0,0,0
endTraining=2
hasContext=f
inputCount=30
layerCounts=1,14,31
layerFeedCounts=1,13,30
layerContextCount=0,0,0
layerIndex=0,1,15
output=0,0,0,0,0,0,0,0,0,0,0,0,0,0,1,0,0,0,0,0,0,0,0,0,0,0,0,0,0,0,0,0,0,0,0,0,0,0,0,0,0,0,0,0,0,1
outputCount=1
weightIndex=0,14,417
weights=-1.3473506064959098,3.2589747521377626,-20.95967407880161,8.151794804877186,1.2893023503973238,0.5685095289152577,-12.344102114668313,-0.8071396766723482,-3.483509176054018,20.54807022298823,-13.718725297428998,-1.4366265239486204,9.642366257077372,2.5241228852916118,-0.20146091558271226,-0.1352540467745367,-0.20938104223390402,-0.12190670522537858,-0.20331742542561576,-0.11682028321882673,-0.977944573986666,-0.9669003876973651,-0.15010180463350578,0.20857544651267318,0.33206257359443203,2.5139517231348414,0.002042557235101555,-0.5380857026590908,-0.4793157932122354,-0.10102157456603136,0.07021260448244303,-0.91419169606105,-0.1270820139520023,2.8024307403035187,-0.501256735332897,-3.7952589008954667,-0.8964274792542433,-3.427501139621224,-1.0022939979917551,-0.07394756935406015,0.025864647183622653,-0.09825199720837911,-2.640224837911601,0.033922322411107014,1.5595248305144886,-0.14057921232278747,0.23019661684372197,-0.20384123362007847,-0.1129532471653874,-0.0010896765146177017,-0.1421908838404436,0.1365831959467376,0.27970972552687506,0.4422029846039075,0.049316525554877165,-0.16166243864145802,-0.5962743138791197,-0.017971620116428454,0.7853833843725606,-0.2506925817032103,-0.26126928649475334,-0.21390651371335603,-0.33614880907415434,-0.00403634772202047,-0.1086697990348514,1.6737539893382665,1.3933947149596226,2.979110743077547,1.2934500892324357,0.4959898603754316,-0.05502294116924773,0.24452028525717023,1.7621054580436697,0.33651072200869986,0.7036517270830004,-0.2032437057482142,-0.45278816756919055,-0.2321951702032807,-0.37941549536629565,-0.10499488275181844,-0.7994571686759667,-0.10859093781302974,-2.47284549235051,-0.7274954313645055,-1.478341196600499,-0.8507916265617331,-1.0688333261592373,-2.2366388991694737,-1.2979852438301647,-4.205920588712698,-1.4670736538789346,0.3142493288613038,-0.3927451846093117,-4.238879344352498,0.009186543576348898,0.6156620369403769,-0.08064820366180377,-0.6175949988121691,-1.1306311196317724,-1.6050835373432042,-0.06799727705083208,-0.03339745524324609,0.043772681243082714,-0.3079295052855414,0.157793458073268,-0.19624462493294573,0.45429404577993693,-0.7195789760230498,0.14365137203593484,-2.324955822785398,-0.11931989305506972,0.14634506172644204,-0.1726282629473162,0.26451071834702927,0.40375156500595033,0.23704716610165433,0.17103972594338762,0.6183930798705219,-0.6685707114356768,0.09199994262884023,1.5789456245837368,-1.1853634080597282,-3.1409195044192675,-0.6780359917463845,-0.06648477950993663,-0.027584789741082163,-1.0337865751623785,0.5483609454190217,0.46554887557408575,0.6939821571851849,0.3758558432267658,0.2155213315972801,0.014441081984873106,0.2581308617399563,0.30856208891271286,0.4285926128695358,0.16018149930175715,-0.5042190687061259,0.2892422293732126,0.4383212200873569,0.31450164894982824,-0.007778602107810028,-0.08087703187033006,0.09142031924920298,0.47049162783961784,0.5884243527080147,0.26615693227851,0.07127556591277925,0.34671139321909333,-0.8629267376777895,-0.007658960207330754,0.6268028251422803,0.3278615098919931,-0.1791235575267791,0.1339260097355916,0.2411531252115024,-0.22864034343306006,-0.41476191029006265,0.6377062774622865,2.618761040024233,0.28258754145890763,0.8996019866118998,0.6249744910659105,-0.11808500991707781,0.20326089773502046,0.4489074612186819,0.698321623516674,0.022333113099189058,-0.45775787621333486,-0.036363716136605974,0.2967570286098896,0.006535544408760537,0.3192244924454114,0.0383075302038767,0.026461342156228567,0.3889483109168926,0.23839939126025483,-0.32801940855521217,0.2599970653894113,0.5103653680572384,0.3858226266262131,0.4140732617721292,2.7247169991648486,-0.8570378223491201,-0.044639984331244914,-3.0375711183604066,-0.2725820440403524,-2.7150490024650895,-0.8876918491539962,0.29744082226155866,0.23368494631026587,0.2419954283629211,0.6751414825242251,0.6059993214179313,-0.36287536005665955,-0.084485460234211,0.4759009400739531,0.3783687363175575,-0.24539072349004803,-0.7947663760510288,-0.4874551513116079,-0.09581769523860706,-0.1312123241390735,-0.28909438091933887,0.12798574550903866,-0.11564673060013508,-0.331973119112969,0.47208521500934614,1.3744670673256456,0.15030704570534384,-0.6272643456671768,0.23594194999455656,-0.6429371122924243,-1.1618962851686838,0.01772582824774477,0.5135650984463187,-0.2270278132032997,-0.058523879377739826,1.18649093424558,0.4630484836134334,-0.8973578324842721,-0.15659676542296186,-1.2211636122076595,-0.28609939456950995,0.36099953760758413,-0.09571426625963828,0.41534017060758754,-0.14690058543851575,0.988924638772297,0.06134316882551455,-0.09349934878114952,0.41505019904658114,-0.7798207025948989,0.09311730976587253,-0.2577091271255553,-0.15242838196967226,-0.0075142594897454435,-0.17843600199227347,-0.7405243912189007,-0.3295482985282797,0.1498503126424829,-0.41468248499855076,0.408818070165581,-0.025771398141784408,-0.4012819261107421,0.4740348128106226,0.40216960331827917,-0.04145491074627171,0.11375670378134745,0.16436070529993388,0.4071631385274676,-0.6481469005986427,-0.6061271960415617,-2.3551638881501598,-1.0242902541125252,-0.2925608951978141,-0.10030935766027961,0.11317457749110862,-2.3253659989572206,-0.18798143733478284,-0.6652869269711087,0.31200086654573767,0.0805690244780737,-1.7613652663374149,0.15610426949691913,-0.14119701313886343,0.029713160847935335,0.025191993665296987,-0.002587266589576799,-0.26415293935649364,0.17219139610145653,0.005316468536027514,-0.9308027329070191,0.2853787715540261,-0.20270954452940146,-4.756336969908174,0.4100566144412739,-0.06291963765418082,-0.24653997042387252,-0.16130653249391605,0.9020233328978744,0.7573448374148649,-0.17201148857773613,-0.37558150824159336,-0.4146839341621269,-1.3788934522481422,1.196413545596646,1.0194563211463787,0.12123274001549336,-0.17377031260673598,-0.1887411241370573,-0.028798431843586825,0.04203927487654657,0.22260057237876751,0.33790505332047643,0.10066572307159183,0.20879074968283745,0.12835341857846655,-0.23730805358953083,0.36447555752793076,0.3775537267349625,0.1579723792656973,-0.2774383990715698,0.576081922274077,-1.350266681593323,0.29462914713631233,0.2141684916039925,-0.03284990134703461,-0.024078797256231552,0.14878203957934227,0.026486304924553873,-0.4952851277560592,0.06877956271538568,0.36813842308576344,0.9719302589544371,2.074002794390087,0.6932798289027294,0.7627012046097718,-0.025502318225163877,0.1946385589912155,0.3247881134365728,0.3465938724496713,0.04479606672513133,0.03906203235677089,17.8243051878771,0.2812533681171443,7.0072863221506205,-5.622193260227718,-0.5782333175536116,-0.14363656270149855,-0.722670569097056,-1.109458526956318,-0.963418559149609,0.695658716991584,0.18427755995745163,-0.1465058245263283,2.168247453321362,-0.08183267620895304,0.44145934059994896,0.4997394856048222,-0.11930624173525277,0.5035142868101494,0.029767270828670513,0.4436594850633419,3.2005032404551716,-0.1378088255086057,-0.6122032027407768,-2.4271441582177506,-0.44150029359926474,-0.2871265174947603,-0.09626340936003193,-4.754271669878152,-1.125852234900727,-1.1915456690672905,0.4901273264346493,-0.30373335246612587,-0.3477843416283166,-0.1811150216581379,-0.1461587408700879,0.009787293723603584,-0.07970328764714409,-1.264104862213361,-0.7646795893522581,0.09917847375053965,-0.13544706457676164,-0.4720163199940671,1.1387134635794134,0.14338647914530375,-0.6940427405790837,-0.49675651401650134,0.6721755205589526,-0.23990954993197594,-0.18705870298240815,-0.2267079371727798,0.4956483424404493,-0.8288712765007573,-2.223236719552014,-0.5677028479226146,-1.0219665872780124,-0.5027678200382337,0.004952153112253169,0.09492919858306317,-0.4363434754525036,-0.7639341779298945,0.15710730858813773,0.7715055555925574,-0.5477028701010843,0.7168108351246383,-0.19912466704682544,0.1999643569277278,-0.1538610229362791,0.17727483279076944,0.3579584994533054,1.6779338738942469,0.12671436696444013,-0.08192139444871775,0.04262496575609856,-0.7280676256137197,0.14906879594809427,0.2695373032577807,-0.15579858698943716,-0.45767738579381795,-0.23595446003080697,0.17335756401117036,-0.26775597593032124,-0.5124492114528149,0.5791535477438308,0.42617542564576594,0.628819293664372,1.1615357126777084,0.23689408805844842,-0.23816929786057148,-0.10443093674257155,1.007949552408613,0.4045797584527941,0.12826015455475914,-0.26448710400563885
biasActivation=0,1,1
[BASIC:ACTIVATION]
"ActivationSigmoid"
"ActivationTANH"
"ActivationLinear"
