encog,BasicNetwork,java,3.0.0,1,1547617688524
[BASIC]
[BASIC:PARAMS]
[BASIC:NETWORK]
beginTraining=0
connectionLimit=0
contextTargetOffset=0,0,0
contextTargetSize=0,0,0
endTraining=2
hasContext=f
inputCount=30
layerCounts=1,14,31
layerFeedCounts=1,13,30
layerContextCount=0,0,0
layerIndex=0,1,15
output=0,0,0,0,0,0,0,0,0,0,0,0,0,0,1,0,0,0,0,0,0,0,0,0,0,0,0,0,0,0,0,0,0,0,0,0,0,0,0,0,0,0,0,0,0,1
outputCount=1
weightIndex=0,14,417
weights=-1.2728369200886112,2.743936151690512,-17.39972727251023,6.727816082360631,1.2889413191066295,0.5647663564933374,-10.564128711522624,-0.8071178109589561,-3.5431201251798567,18.17477235212729,-13.125400829713763,-1.4262774008364958,8.61228905618288,2.5133425487164827,-0.20111106416844168,-0.13524907013453671,-0.20903119081963345,-0.12189426362537858,-0.20350230968451077,-0.11678932453671476,-0.974462404902036,-0.966849772620069,-0.15000979439368703,0.20854784344072758,0.331362870765891,2.2743886881319524,0.00198181914234626,-0.5381056701590516,-0.5024217958166808,-0.09981248807831258,0.07028161216230709,-0.9107095269764199,-0.1270820139520023,2.9621394303054447,-0.5012079167784061,-3.450288130491306,-0.8915911333033681,-3.196441113576769,-1.0040350825340705,-0.07334302611020076,0.025892379822456905,-0.09823209064837916,-2.085680775404913,0.03384528730323409,1.5595248305144886,-0.13997466907892797,0.2307983356615461,-0.19882691013821094,-0.11121216262307235,-0.0010399909851155835,-0.09906953753992342,0.13959179003585817,0.2857269137051162,0.45953248655724177,0.049379498809445886,-0.16079189637030056,-0.5747136407288592,-0.01795614077537246,0.7854137534189383,-0.24549373111721018,-0.24047388415075244,-0.1839611343379948,-0.33253849616720954,-0.004026347722020469,-0.10865779903485133,1.6018850788373995,1.3933947149596226,2.7031341267542186,1.294054632476294,0.5159534466256726,-0.05803153525836824,0.2804547405076039,1.4171346876395092,0.37244517725913356,0.6737063477076392,-0.20540989349238092,-0.4676909048506503,-0.23363929536605857,-0.3943182326477554,-0.10499488275181844,-0.7908328994158625,-0.10859985391347803,-2.4728354923505087,-0.7130541797367274,-1.478759056890655,-0.846479491931681,-1.0692094004203778,-2.2366368991694734,-1.2979952438301638,-4.220361840340474,-1.2610582137000348,0.3124441724078317,-0.39283586609589044,-4.288555135290697,0.009150100720695713,0.5328690520433779,-0.08314365194308389,-0.5936386953118801,-1.1513293658560217,-1.6065276625059823,-0.06791446783499525,-0.03340637134369432,0.043954044216240565,-0.30767761226726653,0.157791458073268,-0.1838256771983959,0.45728858371747305,-0.7247778266090499,0.14377228068470674,-2.3292881982737326,-0.11934613191114003,0.14995537463338657,-0.17288942562866344,0.24055441484674028,0.2600137440042166,0.21979862758144625,0.17060648839455428,0.6195965175061702,-0.6668377612403432,0.09202018865975867,1.5789456245837368,-1.1645680057157277,-2.9024757079159107,-0.4710535295038879,-0.06648957170992718,-0.027584789741082163,-0.976291446761685,0.41037263725735723,0.46554887557408575,0.5559938490235207,0.37446297559291386,0.22418608257394723,0.014430958969413888,0.25871122325406143,0.299897337936046,0.41996834360943186,0.15568969239545297,-0.504225068706126,0.2892422293732126,0.4382977871812012,0.31450662558982834,-0.0077744549078100295,-0.08086703187033005,0.09152731245458202,0.7100546628425077,0.5904394968542127,0.25299078912167805,0.07136472691726184,0.3467620082963894,-0.862056195406632,-0.007641044303330756,0.6268207410462806,0.34230276151977174,-0.1785190142829196,0.14355351082077722,0.24212039440167737,-0.204571590720096,-0.4142581242535129,0.6321348069268778,2.043809756017298,0.28178148380042845,0.8996019866118998,0.6251494167730454,-0.11599570846629974,0.2036961688705993,0.4488488789532927,0.6151400141406711,0.02244010630456814,-0.4697922525698166,-0.036363716136605974,0.2967421684424757,0.006535544408760537,0.3191030162599008,0.03832544610787671,0.026454922563905827,0.3878287863912269,0.23837595835409925,-0.32761448793684345,0.2184062607014096,0.5092046450290282,0.369776791484237,0.41240182061150676,2.666951992653736,-0.8573736797068198,-0.1139579921445811,-2.5776100911548587,-0.2586533677018315,-2.7122632671973856,-0.8899308982053276,0.29742699826155883,0.23200565952176738,0.24134755537353136,0.675092663969734,0.6060195674488498,-0.42942064755746234,-0.08441548995135689,0.47589679287395314,0.3783687363175575,-0.24540731229004814,-0.789930030100154,-0.4876062871225725,-0.09165861476980686,-0.13164759527465222,-0.28945710686565457,0.1030312626962376,-0.1162484494179592,-0.3679075743634027,0.45960797360294553,1.338532612075213,0.1503191933238949,-0.6272892288671773,0.2269583361819482,-0.6429895900045646,-1.1644034469096183,0.01709903781251133,0.5092327229579847,-0.22720917617645756,-0.058533879377739836,1.1812920836595788,0.4595825832227667,-0.8829840503840987,-0.15596997498772852,-1.1866665351672432,-0.28670111338733406,0.3609703833230616,-0.08373611450949378,0.3808430935671713,-0.14689258543851574,0.8895730568958988,0.06435176291463501,-0.0928494924578995,0.41444565580272164,-0.7798207025948989,0.051526505077870786,-0.25773443466420337,-0.15244038196967233,-0.007529738830801447,-0.24775400980560972,-0.9401602537213093,-0.3411012998305024,0.14982500510383487,-0.4146924849985505,0.40794752789442357,-0.025781398141784418,-0.4012919261107418,0.4715276510696887,0.3877283516905005,-0.048675536560160895,0.11315216053748808,0.1642878195886275,0.4071125234501715,-0.6481469005986427,-0.5262728510405987,-2.3551638881501598,-1.0410046657187497,-0.29757521867968134,-0.10028871853887157,0.10899597458955235,-1.9803952285530582,-0.18798143733478284,-0.6652789269711085,0.3240352429022194,0.08114938599217873,-1.6920472585240778,0.15624421006262734,-0.14116605445675137,0.029702616040165317,0.02521628890239911,-0.002571787248520798,-0.2641636888988935,0.12405389067552872,0.024571470706398688,-0.9309776586141539,0.28329923131962603,-0.20272711920901806,-4.871866982930399,0.4090119637158847,-0.0628953424170787,-0.24646708471256615,-0.17574778412169442,0.8846938309445407,0.7669723385000503,-0.17131505476081016,-0.37557150824159363,-0.4145579876529897,-1.3768877228553946,1.1723447928836814,1.226438783388875,0.12124993928333341,-0.17376135465473597,-0.1907468535298043,-0.028435705897271187,0.04201347597478658,0.22275726998757578,0.3379074533204764,0.10068146638523401,0.20880074968283746,0.1283606185784666,-0.23731605358953084,0.36448311431847896,0.3775852133622469,0.15801590637925522,-0.27744799907156964,0.5760963222740771,-1.349330888487842,0.2946435471363125,0.21418049160399258,-0.032810726944832544,-0.024214183990241982,0.14878003957934227,0.026496304924553883,-0.49517230547771723,0.06876389295450486,0.36807574404224014,0.9715692276637428,2.0615838466555374,0.6934974644705191,0.7627012046097718,-0.02596241650202491,0.19432516377359868,0.32477611343657303,0.3217559769805718,0.04097982757753531,0.03844846401061113,17.849259670689896,0.2858962602299844,7.0072989759199436,-5.6207423564424595,-0.5505061144282768,-0.14369730079425386,-0.7226854292644697,-1.1077174424140026,-0.9632674233386441,0.6860312159063984,0.1852851320305506,-0.14642186018690337,2.1681634889819366,-0.0816869047863403,0.326469083798562,0.4992794344057284,-0.11996871546194775,0.503130910810905,-0.010159901671811144,0.4436446248959281,3.202244324997489,-0.12117250363340511,-0.6121734824059489,-2.4221298347358817,-0.44077484170663334,-0.2871305174947602,-0.09627535329603194,-4.754271669878152,-1.1244013311154641,-1.1867319185246985,0.48982505481271954,-0.3037450689192037,-0.3477843416283166,-0.18112478536903606,-0.14623972499376164,0.00011460182185301922,-0.0797246862882199,-1.2502412606506936,-0.7646924888031378,0.10119361789673761,-0.13560680457644692,-0.4753748935710641,1.0555318542034093,0.14337235340615703,-0.6974013141560806,-0.6117467708178885,0.7680007345601085,-0.23985893485467985,-0.18698873269955404,-0.22691039748196415,0.48963115426220827,-0.8253891074161273,-2.123418788300809,-0.5667355787324396,-1.0225263495408456,-0.6182978330604607,0.00996647659412066,0.09501355704522332,-0.4363152239742102,-0.7157966725039664,0.15685541556986296,0.7854342319310779,-0.5468002918743485,0.7193062834059185,-0.19893662991625535,0.1999743569277278,-0.1538550229362791,0.17726283279076938,0.3580107319895748,1.6779338738942469,0.11895252463034647,-0.08193139444871776,0.04263496575609857,-0.7215994236686418,0.14907879594809428,0.2695473032577804,-0.1552570400533954,-0.45713583885777614,-0.23582910194376036,0.17351426161997863,-0.2675679387997511,-0.5123736435473328,0.5543156522747312,0.4385943733803157,0.5977719243279973,1.1617170756508657,0.23689408805844842,-0.23818129786057154,-0.10452337887201905,1.0066498397621122,0.39423063534066943,0.12824575455475923,-0.2645119872056388
biasActivation=0,1,1
[BASIC:ACTIVATION]
"ActivationSigmoid"
"ActivationTANH"
"ActivationLinear"
