encog,BasicNetwork,java,3.0.0,1,1547617688370
[BASIC]
[BASIC:PARAMS]
[BASIC:NETWORK]
beginTraining=0
connectionLimit=0
contextTargetOffset=0,0,0
contextTargetSize=0,0,0
endTraining=2
hasContext=f
inputCount=30
layerCounts=1,14,31
layerFeedCounts=1,13,30
layerContextCount=0,0,0
layerIndex=0,1,15
output=0,0,0,0,0,0,0,0,0,0,0,0,0,0,1,0,0,0,0,0,0,0,0,0,0,0,0,0,0,0,0,0,0,0,0,0,0,0,0,0,0,0,0,0,0,1
outputCount=1
weightIndex=0,14,417
weights=-0.8493000491001709,1.6779689811560645,-6.990472664909344,0.8758945524808897,1.28487486797555,0.48946431438725496,-5.543842444649261,-0.8069963941558035,-2.4734014961423134,8.716658186857012,-7.999617962257531,-1.0924750740185392,3.6374093141942883,2.4780171528819395,-0.20575216154240705,-0.1352330181291414,-0.21301936513970932,-0.12189051379347163,-0.20382910135052185,-0.11681499901469398,-0.9668849065347267,-0.9669468502951462,-0.14979654912609225,0.20834602617652276,0.3307278777336215,1.7569120189754683,0.002029768600356,-0.5380802978147925,-0.452259440908536,-0.09879352757328848,0.07038394033474886,-0.9109594058778764,-0.11603500378440988,2.9047313487823514,-0.5009878119340123,-2.6618804059163392,-0.8683334913631219,-1.9771726499812512,-1.009636522016871,-0.07426531218228126,0.02590833416739804,-0.09823049485779238,-1.1586842993862703,0.033600704668599934,1.5572531911229284,-0.13200398159225452,0.2041817827563338,-0.14640362497356563,-0.08790836575298977,-0.0010373140800889584,-0.1060234335589492,0.13876013483574295,0.273147895046674,0.4584726240610929,0.04938669486287766,-0.15881272307625452,-0.4347193058245117,-0.01785327045577515,0.7855481559769808,-0.28395223948499365,-0.19543192266560985,-0.09071639469035252,-0.33024066033852023,-0.003995926921482319,-0.10862974256592649,1.4007368046349482,0.6841585394999048,1.4730796634801844,1.2948557588619036,0.48480124382751666,-0.05830942850678715,0.32192319551154813,0.20910484675718896,0.42696980260519757,0.5956843888264527,-0.22055989079069635,-0.5535195179180381,-0.2450138017966209,-0.4865436924775122,-0.10630957762678804,-0.7651264292793062,-0.108653707820771,-2.4731434545318725,-0.6814673820685995,-1.4745009875835149,-0.8198271598991084,-1.0658837614994785,-2.236635804296435,-1.2979221045283411,-4.058187794193284,-0.2585070765581001,0.30983862331882434,-0.39368115687618366,-2.588444815106374,0.0052116222435442585,0.6282915401606969,-0.09160587962296468,-0.5062497507265611,-1.2207373702521715,-1.6137318413598285,-0.06780187456709777,-0.03343128625067877,0.04864158104381887,-0.30208930600633777,0.15780142671326802,-0.06841001074999721,0.456437384790835,-0.6880366104388442,0.14931916277682178,-2.2934134572011944,-0.11926778059569866,0.14600779948714407,-0.17344059791895708,0.16600589528639692,0.02804145124732127,0.08045669847892056,0.16106191306055495,0.5906557325531774,-0.652400713032952,0.09154014586191925,0.9634587664185984,-0.6348922801899713,-1.5138337495916785,-0.06684899938474699,-0.06646608226088122,-0.17172431292211363,-0.7154831408453103,0.15944451539131546,0.46545730018307646,0.3050657271574792,0.37177473891001883,0.2119464387046691,0.014469439231320278,0.26141738158703764,0.2861108547732099,0.3292838357994377,0.12860245266881148,-0.5042509491485798,0.2892479176932125,0.44313573261861844,0.31451729054982835,-0.007767973947810029,-0.08084914359129004,0.09169202754399505,0.34428499618999736,0.5891796970314129,0.22487871620742164,0.07145189651178524,0.3470403037631155,-0.8470385446589981,-0.007580463408815084,0.6268743387599961,0.466056451231708,-0.17767356855946606,0.15773222186734073,0.242489714060816,-0.2019856751161795,-0.41326154271909427,0.616410416961237,1.0872820780890124,0.2778072352190283,0.8904775967538876,0.6119282823019666,-0.11227640357844351,0.20489089171013564,0.44843841336295076,0.11437008806416729,0.022622049380664335,-0.5601661435329441,-0.03552145394205753,0.2967747086073699,0.008961259529060038,0.3193954684107856,0.03828945817848305,0.026515283873106383,0.3893659795618269,0.2381798495455018,-0.3277339394392398,0.040038753026166655,0.5037877397880907,0.33002350329580593,0.39673471096451074,2.538968937736584,-0.8570587484162127,-0.03080749872835884,-0.4173038327569555,-0.14785561818952125,-2.6793643794844715,-0.8841872521297206,0.2974187175266036,0.2310125077444937,0.24009670403824432,0.6751588156443145,0.6076326673349877,-0.20505172052247161,-0.08357719868419392,0.47596895036501863,0.3915090837321063,-0.24540694674409613,-0.7875424866181097,-0.4896145907656747,-0.08515946843865639,-0.13743150976678625,-0.29121855535084745,-0.03820396575185926,-0.11815336846331487,-0.4026703580062496,0.4949953556996109,0.8755381102196818,0.15008125143550652,-0.627271942144105,0.044619965863079876,-0.6428679455468258,-1.1658338256352123,0.017666994637315244,0.5005921612480058,-0.22772419862708143,-0.058539466379343305,1.1839939507352646,0.41055999897290096,-0.7816664664681087,-0.15804261619766796,-0.9252787509897349,-0.28518230881914974,0.36068549600947897,-0.10393231280120896,0.3139250377334419,-0.14688699823846987,0.36336643689912934,-0.04057363318723202,-0.10750633486572876,0.41352858872449216,-0.32392881835340487,0.07702100429441854,-0.25785507184622203,-0.15244964386957088,-0.0075161977803616924,-0.12204934697513309,-0.22450495691706765,-0.23641685896967107,0.14974330148887582,-0.41475186048215124,0.4020075799485491,-0.025828667085300017,-0.40131173360066924,0.47569741359375267,0.3889648980200192,-0.054298319735118235,0.11612573259490927,0.16486534528638844,0.40738290330916027,-0.5602034300718293,-0.34178002169405663,-0.5958227770832141,-1.0224186328014115,-0.271701653387685,-0.1003379886600925,0.10606792307780596,-0.5602057947913969,-0.3998514495639046,-0.6648634052260577,0.3731799226710957,0.07872510240377037,-1.1726021455703721,0.15595193050191072,-0.1410957867686438,0.029679287644480832,0.02467901219784309,-0.0025410213349207973,-0.2643095027778597,-0.08776621061250191,0.1355749384168032,-0.9300023884807737,0.2736684203596202,-0.20248156744208504,-4.7028091192803085,0.40627780025413524,-0.06304052068674929,-0.246446342664833,-0.19016006727386403,0.7899158207519213,0.7614545747724459,-0.17204908755386683,-0.37556604645186953,-0.4147083038929784,-1.3846269205329065,1.0508053461744769,0.6013906825599922,0.12103218358880392,-0.17378754533905444,-0.19040669762791346,-0.02924458008134871,0.04195274810807004,0.22460234387378308,0.337916624238336,0.10077768013676859,0.20883447444365708,0.128297105298344,-0.23734256280398455,0.36448624878070074,0.3776014059807912,0.158721983826365,-0.27752497506215607,0.5761357039319845,-1.3301869402329671,0.29467456217262605,0.2142070298403062,-0.03308899894497374,-0.023683617042701863,0.14894124606802403,0.026527669529870998,-0.49392129333409684,0.06876872293562857,0.36780423582406824,0.9682030083932034,1.9895142170458409,0.6931440973904932,0.720589897280161,-0.027730354960355724,0.19470502044874674,0.3246518102927778,0.3473574123570185,-0.0058663928980802645,0.0477779635033846,17.518513770579464,0.28778209335705196,7.0070977842499,-5.623798754024136,-0.48034097394950925,-0.14383351119223636,-0.7228389123614535,-1.105302511773885,-0.9646439758132414,0.6902043309682174,0.1877041992785973,-0.15284220390693132,2.1680793797686078,-0.0813714188118923,0.06956356498199198,0.49847133290477735,-0.12110069300706078,0.5025235401262477,-0.10523082927124706,0.4434902234414383,3.208207261329637,-0.0908376957304875,-0.6121053709814158,-2.4284714763249786,-0.4414312246130804,-0.2869962280854918,-0.09631788025052669,-3.4091910528221265,-1.1274823350880392,-1.1689675463643314,0.4892898130718421,-0.3038573535841567,-0.3477782465005133,-0.1812410356277283,-0.14608542371176467,-0.00014938786468236644,-0.07977134793024532,-1.2621244308648334,-0.7646982403373466,0.10782669442560117,-0.13589852238123168,-0.4821600908950215,0.2482846511054042,0.14321722645392929,-0.6930641028766924,-0.5098523001528069,0.47353414742932376,-0.23999394897456458,-0.1871946912910358,-0.22665415071584524,0.4694425374048315,-0.8150147501901733,-0.9025435063683455,-0.5557650145871292,-1.0215965362421064,-0.3954971474800304,0.0031740520094643287,0.09501869954933877,-0.4362463302258672,-0.5859263290584263,0.15610114335118752,0.806965979278109,-0.5330924767611773,0.5865041586244875,-0.1942396509343721,0.2001276932291673,-0.15383218248827904,0.17728563214511434,0.35794102966527797,1.7039475006700444,0.10914379566143625,-0.08191910548871773,0.0426769515894441,-0.6299241740978184,0.14911081352966046,0.26956775936110133,-0.15353484600899206,-0.44770566649987625,-0.23452122033921216,0.17525783557043859,-0.2676346637404386,-0.5119599833656612,0.4857815964013689,0.3032973440352779,0.5390066300526546,1.1614152998230833,0.23684608264947413,-0.23819043049867727,-0.10446669935990922,1.0077108557769119,0.3795594557423889,0.1282007271311985,-0.2645408050404477
biasActivation=0,1,1
[BASIC:ACTIVATION]
"ActivationSigmoid"
"ActivationTANH"
"ActivationLinear"
