encog,BasicNetwork,java,3.0.0,1,1547617688563
[BASIC]
[BASIC:PARAMS]
[BASIC:NETWORK]
beginTraining=0
connectionLimit=0
contextTargetOffset=0,0,0
contextTargetSize=0,0,0
endTraining=2
hasContext=f
inputCount=30
layerCounts=1,14,31
layerFeedCounts=1,13,30
layerContextCount=0,0,0
layerIndex=0,1,15
output=0,0,0,0,0,0,0,0,0,0,0,0,0,0,1,0,0,0,0,0,0,0,0,0,0,0,0,0,0,0,0,0,0,0,0,0,0,0,0,0,0,0,0,0,0,1
outputCount=1
weightIndex=0,14,417
weights=-1.446702188372308,3.671005632495563,-23.80763152383471,10.287762888652024,1.2900244129787124,0.5735004254778182,-13.412086156555727,-0.8071571692430619,-3.483509176054018,22.921368093849168,-14.60871199900185,-1.4418010855046828,10.466428017792966,2.534903221866741,-0.20181076699698283,-0.1352540467745367,-0.2097308936481746,-0.12191914682537858,-0.20316951801849975,-0.11682028321882673,-0.9814267430712961,-0.9669172593897971,-0.15019381487332453,0.20865825572851,0.33206257359443203,2.5139517231348414,0.002042557235101555,-0.5380923584924111,-0.4908687945144581,-0.10142460339527096,0.07016659936253365,-0.91535241908926,-0.1270820139520023,2.8024307403035187,-0.501305553887388,-3.9102491576968537,-0.9012638252051184,-3.6585611656656787,-1.0011332749635449,-0.07354454052482055,0.025855402970677902,-0.09826195048837909,-2.862042462914276,0.03402503588827091,1.5609757342997514,-0.14118375556664697,0.23019661684372197,-0.208855557101946,-0.11469433170770246,-0.0011393620441198199,-0.21405979434131045,0.13357460185761702,0.2736925373486339,0.4283393830412401,0.049253552300308444,-0.16235887245838398,-0.613522852399328,-0.01798400358927325,0.7853590891354585,-0.2558914322892104,-0.27790560836995415,-0.24385189308871727,-0.33975912198109914,-0.004044347722020471,-0.10867939903485145,1.6737539893382665,1.3933947149596226,2.979110743077547,1.292966454637349,0.47103537756263036,-0.05261606589795133,0.2085858300067368,2.0380820743669985,0.3221369399085264,0.7335971064583616,-0.20151075555288084,-0.4378854302877308,-0.22641866955216924,-0.3645127580848359,-0.10499488275181844,-0.8080814379360709,-0.10859316683814181,-2.472853492350511,-0.7419366829922835,-1.4782367315279599,-0.8551037611917852,-1.06833189381105,-2.2366388991694737,-1.2979772438301653,-4.18666558654233,-1.4670736538789346,0.3156934540240815,-0.3927754117715046,-4.238879344352498,0.009222986432002082,0.6777567756131262,-0.07815275538052364,-0.6295731505623136,-1.1099328734075231,-1.603639412180426,-0.06808008626666892,-0.03339968426835815,0.043627590864556434,-0.3081310197001613,0.157787458073268,-0.22108252040204537,0.4483049699048647,-0.716113075632383,0.1437118263603208,-2.322067572459842,-0.11930240048435618,0.14345681140088642,-0.1726282629473162,0.24055441484674028,0.48999425760699056,0.23704716610165433,0.17060648839455428,0.6195965175061702,-0.6694371865333436,0.09202018865975867,1.66212723395974,-1.2019997299349285,-3.3793633009226243,-0.885018453988881,-0.06647040290996496,0.03202615938475693,-1.0337865751623785,0.6518521765402698,0.46555140632795056,0.797473388306433,0.37724871086061773,0.2085895308159464,0.014436020477143497,0.2574054098473249,0.31549388969404635,0.4372168821296398,0.16317603723929328,-0.5042190687061259,0.28924969433321274,0.4383446529935126,0.3145091139098284,-0.007776528507810029,-0.08088503187033007,0.09133472468489974,0.42257902083903987,0.5876182950495356,0.27668984680397557,0.07118640490829667,0.34666077814179724,-0.863797279948947,-0.007676876111330753,0.6267849092382799,0.32497325956643736,-0.179244466175551,0.136332885006888,0.2411531252115024,-0.2478953456034313,-0.41496342470468256,0.641884880363843,2.963731810428394,0.2837966279466264,0.8996019866118998,0.6247995653587757,-0.11975645107770026,0.20326089773502046,0.44896604348407115,0.7648669110174764,0.022226119893809976,-0.4457234998568531,-0.036363716136605974,0.296775603819157,0.006871401766460209,0.31930547656908514,0.03828961429987669,0.026458132360067197,0.389228192048309,0.23841110771333263,-0.3281003926788859,0.3015878700774129,0.5126868141136589,0.4058799205536832,0.42075902641461904,2.782482005675961,-0.8563661076337207,0.04778402608653668,-3.0375711183604066,-0.2865107203788733,-2.7094775319296818,-0.8854528001026649,0.29744773426155857,0.23536423309876436,0.24231936485761596,0.6751903010787162,0.605938583325176,-0.32960271630625815,-0.0845554305170651,0.47589679287395314,0.37981964010282,-0.24537828189004796,-0.7996027220019037,-0.4873040155006433,-0.10101654582460731,-0.13077705300349476,-0.2888042001622863,0.1529402283218396,-0.11534587119122303,-0.30322555491262204,0.48456245641574675,1.4104015225760782,0.15028882427751725,-0.6272494157471765,0.2419310258696288,-0.6429056256651402,-1.1603919881241231,0.018227260595931525,0.5161645237393191,-0.22684645023014186,-0.058513879377739816,1.190650014714381,0.4647814338087668,-0.8973578324842721,-0.1572235558581952,-1.2211636122076595,-0.28609939456950995,0.3610359804632373,-0.10469788007224665,0.44121297838789975,-0.14690058543851575,0.988924638772297,0.05833457473639404,-0.09393258632998286,0.41565474229044064,-0.7223255741942054,0.13470811445387426,-0.2576838195869073,-0.1524163819696722,-0.00749878014868944,-0.10911799417893722,-0.5408885287164921,-0.31221879657494567,0.14987562018113096,-0.414674484998551,0.409514503982507,-0.0257633981417844,-0.4012739261107423,0.4765419745515565,0.4137226046205021,-0.03423428493238252,0.11436124702520681,0.16441901386897897,0.4072036305893045,-0.6481469005986427,-0.6859815410425247,-2.3551638881501598,-1.0109187248275455,-0.28754657171594683,-0.10032999678168765,0.11651745981235365,-2.6013426152805508,-0.18798143733478284,-0.665296926971109,0.30237336546055227,0.0805690244780737,-1.8168196725880845,0.15603429921406503,-0.14120733269956745,0.029717378771043343,0.025167698428194864,-0.0025975861502807993,-0.2641493561756937,0.22032890152738435,-0.018752284176936446,-0.9306627923413112,0.27914015085082594,-0.20269548478570817,-4.6870189620948395,0.41089233502158523,-0.06294393289128294,-0.24653997042387252,-0.15841828216836037,0.9158869344605414,0.7477173363296795,-0.17218559703196762,-0.3755915082415931,-0.4147259163318393,-1.379896316944516,1.2156685477670177,0.8124738589038818,0.12121984056461332,-0.173779270558736,-0.18071820656606924,-0.029161157789902463,0.04205647414438657,0.22244387476995925,0.33790505332047643,0.10064997975794965,0.20878074968283744,0.12835341857846655,-0.23729805358953082,0.36446800073738256,0.377528537433135,0.15793973393052885,-0.27742639907157,0.5760675222740768,-1.3510153160777079,0.29461474713631214,0.21415649160399244,-0.03288124086879626,-0.023988539433557932,0.14878203957934227,0.026478304924553865,-0.4953753855787328,0.06877956271538568,0.36801306499871683,0.9721107745997842,2.074002794390087,0.6930621933349398,0.7627012046097718,-0.02503442167242384,0.1949519542088323,0.3248001134365726,0.3528033463169462,0.048676987892178135,0.039735803392716526,17.807668866001904,0.2812533681171443,7.007277886304405,-5.623644164012976,-0.6059605206789465,-0.14363656270149855,-0.7226854292644697,-1.1111996114986333,-0.963569694960574,0.6860312159063984,0.18326998788435264,-0.14654780669604076,2.167995560303086,-0.08197844763156578,0.4702069048002957,0.5001995368039159,-0.11864376800855779,0.5038976628093939,0.06969444332915217,0.4436149045611005,3.199110372821318,-0.15028606691500615,-0.6122254929918977,-2.4321584816996196,-0.44222574549189614,-0.28712451749476037,-0.09625445140803192,-4.754271669878152,-1.1267227771718846,-1.1963594196098826,0.49042959805657904,-0.303721636013048,-0.3477260330592715,-0.18110525794723972,-0.14603726468457728,0.017525447245004034,-0.07966049036499247,-1.2363776590880262,-0.7646692697915544,0.09756635843358127,-0.13531927257701343,-0.46865774641707014,1.2052587510802166,0.14340060488445047,-0.6906841670020867,-0.49675651401650134,0.7200881275595306,-0.23994329331684,-0.18698873269955404,-0.22650547686359543,0.4976540718331963,-0.8311927225571774,-2.323054650803219,-0.5686701171127896,-1.0216867061465957,-0.41034380962045214,0.001609270791008175,0.09484484012090302,-0.43637172693079707,-0.802444182270637,0.15744316594583743,0.7575768792540369,-0.5486054483278201,0.714315386843358,-0.19943806226444225,0.19995435692772778,-0.1538650229362791,0.1772868327907695,0.3578540343807666,1.6758543336598464,0.1215398054083777,-0.08191139444871774,0.04261696575609855,-0.7332421871697821,0.14906079594809427,0.2695293032577809,-0.1563401339254789,-0.458399448375207,-0.23607981811785358,0.17323220592412375,-0.26790640563477736,-0.5125096657772005,0.5915724954783805,0.42617542564576594,0.6391684167764968,1.161354349704551,0.23689648805844843,-0.2381572978605714,-0.10433849461312404,1.009249265055114,0.4097543200088564,0.12827455455475906,-0.2644622208056389
biasActivation=0,1,1
[BASIC:ACTIVATION]
"ActivationSigmoid"
"ActivationTANH"
"ActivationLinear"
