encog,BasicNetwork,java,3.0.0,1,1547617688291
[BASIC]
[BASIC:PARAMS]
[BASIC:NETWORK]
beginTraining=0
connectionLimit=0
contextTargetOffset=0,0,0
contextTargetSize=0,0,0
endTraining=2
hasContext=f
inputCount=30
layerCounts=1,14,31
layerFeedCounts=1,13,30
layerContextCount=0,0,0
layerIndex=0,1,15
output=0,0,0,0,0,0,0,0,0,0,0,0,0,0,1,0,0,0,0,0,0,0,0,0,0,0,0,0,0,0,0,0,0,0,0,0,0,0,0,0,0,0,0,0,0,1
outputCount=1
weightIndex=0,14,417
weights=-0.8288250203937362,1.182424498955488,-3.871939598008817,0.8182792688322229,1.2734772575575013,0.3983970057842467,-1.6912432985241905,-0.8068439015613398,-0.3081981215401728,2.502274072271004,-3.3713712754751297,-1.0720000453121048,2.2287873031796717,2.5253012517889277,-0.25309562686190334,-0.1341413357426087,-0.26553268950777137,-0.12223829885590302,-0.20414326170639366,-0.116824855978748,-0.9849546545436497,-0.9740810610895936,-0.14960956816343582,0.2082910174124576,0.4121574943983369,1.0971068469337,-0.0006208158385982649,-0.5377569536199276,-0.26309322844115224,-0.11129743147839061,0.07048762298552606,-0.9316122021646801,-0.09868064357970047,0.9856279776174881,-0.4995812343011356,-1.85780670113036,-0.6147615933324959,-1.2529829658604281,-0.8516790413701398,-0.07926168550736709,0.025786344704076612,-0.09786456633251145,-0.5263246306353916,0.033545651088230835,1.554144594545082,-0.06676359593613031,0.2059313960472315,0.07860339942667252,-0.060780782757204874,-0.0011655446628966303,-0.10513972754342214,0.13673666407664298,0.2673202992604661,0.14782502627713878,0.04936916221256556,-0.15866140946085894,-0.4303081593895589,-0.01766487207515408,0.7855698810144058,-0.6429936788226777,-0.16473174748396444,-0.21741704495183545,-0.3275784277988123,-0.004042987718543029,-0.10796071009584748,1.1833525965811853,0.6504633692785847,1.3980018611141773,1.277907558983537,0.4305432869992789,-0.04310787651410057,0.32387639410208957,0.15935782706564966,0.3943206625878507,0.6345454451093201,-0.21457574951001118,-0.5877247350367946,-0.05744108596219026,-0.5207489095962685,-0.10533402182089245,-0.907993333675702,-0.10870190031265434,-2.3020184602970515,-0.38981628641286264,-1.1518168682984955,-0.5576491806004615,-1.0134143982752317,-2.235118829018152,-1.2812832507570977,-3.2774855662110065,-0.630132964199072,0.33780233568447166,-0.3995552891627405,-1.4831837647724264,-0.05911950956137557,0.7534915171432115,-0.10296874054423556,-0.3974551309451514,-1.314985483877561,-1.6056401912834077,-0.06770913151026973,-0.03322738151359122,0.06208498150954142,-0.2791763046549452,0.15788698983267013,-0.025732703179300036,0.15153718841794084,-0.3174736851926298,0.16847558941540303,-1.5997262975686917,-0.11879233631243695,0.23664807814411867,-0.16878129255537544,0.15430734085593653,0.017787280300693698,0.04676486171919452,0.09866362353458162,0.5003647436684929,-0.71219586626091,0.06233056879764261,0.6297698544553557,-0.468960263281811,-0.8075869753171823,-0.05398763766845168,-0.0663726418442581,-0.1757863109882457,-0.39383179581481903,0.17984895798866374,0.45960119577857367,0.3404916396124691,0.37229775918514313,0.2254190812143321,0.014817329452144127,0.2749579456744845,0.2857664642821059,0.2955919990397116,0.18106724966455304,-0.5042987832924816,0.2893330594307275,0.38551038656850417,0.31452240786213564,-0.007725338637290866,-0.08108036158733359,0.0916485314908504,0.22309678934309268,0.5841064863725938,0.22481393699423066,0.07142699967594521,0.36128372233453837,-0.667172142956601,-0.0030620050094810275,0.629720567185704,0.3329785696597561,-0.1739081987365134,0.13823267382161414,0.2376860802510753,-0.20228575282699623,-0.34447493617192915,0.6130711911524708,0.5243188355843518,0.2749387985934559,0.8853478286756888,0.48932193848308725,-0.10876142570177488,0.20433167174764866,0.4479428318694255,0.09575580817070282,0.022150007595450917,-0.5781210937952748,-0.029473473229911003,0.296874977710145,0.025910023046990784,0.3203534103819196,0.03770401174599499,0.026755136159324316,0.1760649575829883,0.23656104135639217,-0.27824544850823685,0.016107237073550273,0.5035868065133884,0.62789590512369,0.41179527713375247,2.526374138826542,-0.7741116387174737,0.027384575699367197,0.06066922683842506,0.17777462417181664,-2.4604125400621086,-0.633384733872146,0.29734443233660895,0.2365651123037651,0.238322188928156,0.6693957534282481,0.5823493008523978,-0.11680312186579243,-0.08318123519043273,0.47964665804477336,0.4117146651306223,-0.245782576263362,-0.25357568035808326,-0.34786388155744546,-0.06407637274298025,0.04742886261491744,-0.1494678461426182,-0.1357337853860409,-0.12282735869159324,-0.3059598160268314,0.5603029894992679,0.38736421393328024,0.08253141484814362,-0.627062750538173,-0.04554296474796008,-0.6425548597875352,-0.8352935891325,0.02676482386208761,0.49894603236366464,-0.2178702966060212,-0.0574873370260801,1.4324150878198645,0.1241395644320047,-0.2992443624330585,-0.15639614946577413,-0.14115653372575282,-0.2636809620811565,0.3366811350190861,-0.1280149307868728,0.19559765005770324,-0.15849892512494676,-0.0030875690826009934,-0.1512755394253959,-0.15179576342003467,0.07318747554786721,-0.28655906668648956,0.02814359129894942,-0.26901351257487266,-0.15195524652375308,-0.0074758777668727525,-0.10743850027773429,-0.103316750070163,-0.22079416128838564,0.1503642620636784,-0.4148480607675179,0.3953641329480627,-0.026289559541784274,-0.40137638198314024,0.48696574999924913,0.38764967093987845,-0.05151931974642272,0.11671545684706121,0.16508341052281575,0.40940637406826025,-0.5210967549698443,-0.34114933565302863,-0.5250914648380527,-1.0063246649710798,-0.24189960052786824,-0.10068010530216542,0.10657485780161803,-0.40902749670059,-0.3496122054276874,-0.6330480399036756,0.3138603482100311,0.12353656363633547,-0.37133298868948256,0.16135454687350664,-0.14096295457333427,0.0003038675009772703,0.01770173277749726,-0.0025963424909354153,-0.2816511255075457,-0.09597486820268866,0.1431909682861018,-0.9038972603265828,0.15090356304370164,-0.20245790098224495,-3.731277223432407,0.46683633319800927,-0.06704440175380141,-0.23924080389131822,-0.19036452683310628,0.7812432773560776,0.5173464895123305,-0.10408560513936191,-0.37103934505231256,-0.3708441834690026,-0.827425597044662,0.6241264243689344,0.3646512148922816,0.09708619636009123,-0.1741404498790716,-0.1950657655872304,-0.030786195014903355,0.04129712212245296,0.22546116389767945,0.33736819110318633,0.10133235924400133,0.20881069308027939,0.125807204343789,-0.23669306711977584,0.3642422925259866,0.36113834840447484,0.10605880235986806,-0.2800323625903917,0.5761367446654245,-1.254280730775462,0.29466062813358607,0.2141906558012662,-0.03700161575243777,-0.013851896832891838,0.15388037229632429,0.02650252228539745,-0.49560560674659937,0.06883585814725483,0.35952482043056355,0.9676933292641874,1.3154542713083084,0.6689257946839008,0.4144505794269041,0.008691454642023557,0.20735148211623947,0.3247803298499718,0.32822573783684417,0.08587033549319827,0.12358177948005919,14.914789384458626,0.2933464460872799,7.000868660268928,-5.884759578624117,-0.4882550169130382,-0.143831021614272,-0.7263742669351914,-1.1016042574677556,-1.0019977718398703,0.7825534817518602,0.1775360820407021,-0.17740801929699218,2.1576765520641876,-0.08498351176481622,0.06811706002209106,0.4962502174037212,-0.12171905835193406,0.5023723297985584,-0.10701172146448203,0.4434148346632613,4.390938774037775,0.05666508175720297,-0.5344641890306058,-2.4057520344046757,-0.7489751890318013,-0.28585323252102235,-0.09409663770162395,-1.6083251135871044,-1.0795356897301898,-1.1349746441007758,0.4987548848099498,-0.30279133137030556,-0.33599262300574456,-0.18017501341387704,-0.14338368011014735,-0.0014950088349534102,-0.07977397991531006,-0.7384939776700883,-0.7643796170736006,0.1081058000604405,-0.13594625287398163,-0.48353055569501496,0.23922022802648102,0.14270807014328227,-0.6581237569745194,-0.19339602624138938,0.1982651946855793,-0.2399199713763,-0.18772328617282194,-0.22632114431706565,0.20839853487274465,-0.7411644288305163,-0.5917041202794365,-0.534110271437188,-0.9935486628507597,-0.36199616276565433,-0.08746622664751023,0.09478234298471515,-0.4333634408933937,-0.5118338649188734,0.15440691641031035,0.6957721890772451,-0.08590277770059963,0.3056182780780445,-0.03896544987167144,0.20320349268980162,-0.1538906170432805,0.1768872282792564,0.35286781900645875,0.8454019572082929,0.10652182225391328,-0.08195518786577925,0.04277658263636231,-0.6242989621570593,0.1497892391237128,0.26978908919055616,-0.17793861526260518,-0.4535777306290047,-0.23654469109831214,0.1704542017606979,-0.2693025921465986,-0.5121046865626255,0.5344487463340207,0.30021176432492597,0.5458451535654436,1.1650540380674426,0.22572801724005598,-0.2379783308444996,-0.10459766667775161,0.7052785809781361,0.343940031686569,0.12945543141885354,-0.264508511626663
biasActivation=0,1,1
[BASIC:ACTIVATION]
"ActivationSigmoid"
"ActivationTANH"
"ActivationLinear"
