encog,BasicNetwork,java,3.0.0,1,1547771801799
[BASIC]
[BASIC:PARAMS]
[BASIC:NETWORK]
beginTraining=0
connectionLimit=0
contextTargetOffset=0,0,0
contextTargetSize=0,0,0
endTraining=2
hasContext=f
inputCount=10
layerCounts=1,30,11
layerFeedCounts=1,29,10
layerContextCount=0,0,0
layerIndex=0,1,31
output=0,0,0,0,0,0,0,0,0,0,0,0,0,0,0,0,0,0,0,0,0,0,0,0,0,0,0,0,0,0,1,0,0,0,0,0,0,0,0,0,0,1
outputCount=1
weightIndex=0,30,349
weights=-0.11282963929697622,-0.5660629817048323,0.5106983171886083,-0.4998965653646142,0.12844197618973807,-0.2065708308273827,-0.509408412449808,0.40783481453970527,-0.49874251523558955,-0.2491083832244218,-0.29220824419565705,0.14533053313065053,0.17306760867072685,-0.30409394095045816,-0.09821153202382836,0.1034289923507649,-0.5437469579325114,-0.2734131507794325,-0.4260623654735639,-0.6050388776406569,-0.41245423894074285,0.6011555328148868,-0.4854658770809919,-0.3320447412305545,-0.4527573939675725,-0.2647397333700568,-0.3313212690399207,0.10330830661004944,0.1262167039264821,-0.006125079054017219,-0.050728621311415194,-0.6748595864549556,0.5141494212980883,-0.2299407373608757,-2.242752010847026,0.09634413377428741,-0.7925472503443435,3.6611343569830685,1.1946054912870525,-1.2145048753670553,0.44898504519164845,-0.7229372099150426,-1.9148252572327569,-0.29915254055161444,-0.1742376375991151,0.7291742955380874,-0.6334335293665332,-0.1704741558419525,-3.1936838339948137,-0.246676945395425,0.45400354555851996,0.5461927332643429,-0.5305263202611575,-0.20116914358297253,0.550490137328564,0.27854516013313885,3.6882424109845924,-0.2275203854249184,0.17945368485232818,-1.3045472380187713,-0.32922569540227414,1.1331688262692128,-1.7255628055669883,-0.60019883959074,-0.09895391699802529,-0.43059746684571504,0.1359176735754662,-0.516590383575648,-0.03272350109594088,-0.24619647589191665,-0.24017992981638603,-0.6613252750342257,0.3505231905716576,0.3392617330315343,0.6768151787998915,0.31190089211704686,0.30869119996083344,0.02709644171707967,-1.232621627319864,0.08291929460556882,0.1546746160672256,0.40407551821474,-0.382305431297667,0.6651373365710115,-0.6351530605309513,-1.6352512145119014,0.466006771722725,-0.8629246138182737,-0.012031963598804447,0.06125118386410716,-6.895382978860852,-0.059054228867681816,-0.16259763895086482,-0.11357855457766709,0.3246101255971936,-0.20269504204237987,-0.7202945790258639,0.1769313292657227,0.06437321395776555,0.17154633211386938,0.08216647409376657,0.038499870354379295,-0.4173168723375379,-1.531393471224818,-0.2288112379297764,-0.0409732600407752,0.3558923141963507,0.36001628719411416,0.1894908221635836,-0.22885128077618644,0.556221339585701,0.15106272160938455,0.42669283887776416,0.2776739166189069,-0.4226352374647212,0.12038475304868163,0.7415589148611632,-2.0869700677724135,-0.6320618984128574,-0.17517797460609796,-0.7057317148718028,0.04154488404521563,-0.2243928153891472,0.18824461172582818,-0.9229490607151297,-0.3175043847335989,-1.4198164700739317,0.1600808386398861,-0.214195275017901,0.054841825397538374,-0.2575328209711839,-1.8798496240193585,-0.7191402632397116,0.15733460600607013,-0.25391964526816946,-0.9159613813090167,2.767517146706124,-0.7925760669765549,-0.30664040464648623,0.08029274422489836,-1.199104984032017,0.0017077706943014826,0.14775881187822856,-3.3979683431708994,-3.1334081303168313,-0.815399197118095,-2.131466986344097,-1.020305087898762,0.101741675959307,-0.5187226692588928,-0.03770900719993886,68.05012401527813,-0.007338108602276938,20.878778182017005,1.3563708118368296,-0.2201026574633897,0.026461026147040486,4.674896368207803,-0.24577757037110468,2.96454425480593,4.345750340427339,10.83896837015601,0.9835842918674469,0.36284819277939856,0.33431506818960227,-0.06700419781933797,0.5742472917202787,0.4055148517314899,0.5655787908684692,0.1961650648776689,-0.11058862453814927,0.05116770191988175,-0.3016186691773141,-0.35256500154842435,-0.22789705080929332,-0.8345431870132483,0.4910689559236493,-0.8156682058214972,-1.237128297209188,-0.2560811502643476,-0.6969990578742717,-0.3136948027885437,0.5771244561392095,0.0992684735695555,0.23834351887287458,0.5170118270224612,0.4700494482713092,0.008514547398160868,1.3538035800721977,-0.525164297867334,0.05937688287103586,1.07115264909916,0.9442738864203759,3.867495567324487,0.1781031885406684,0.08345012465143235,0.04910063970487102,0.5991089387458115,0.6065863488502689,-0.7130661773422164,0.21605947426212738,0.6216222418568729,-0.2821386965057713,0.44375675884536087,-0.23456818022737508,-1.0285488130257134,-0.33774616523161255,0.2323825128364692,-0.2783608251325556,-0.7455636497316178,0.1543403894772562,1.4901796121537034,-0.118045469611813,-0.7029708615803556,-0.20367028270911394,-0.26160144747390507,0.7787038844088285,-0.8299847257397609,-3.135768145368331,-0.01279172259949187,0.11460914234536124,-0.08790676776428583,-1.355539426562868,-0.15290633337047713,1.376567178990725,0.04752411948938926,-0.20712267870528486,0.6822843515604821,-0.10325127642602203,-0.4443614881882211,-0.550405982714043,0.025478603287897954,0.23516999439587663,-0.16656273596800258,-0.40006192184183625,-0.254662131616081,-0.2723770840687729,0.018300957500574075,0.5490204012888642,-0.831488331704007,-0.6283289845479613,0.3053648409550228,-0.40158126424986773,0.2603247294484867,0.3720619996662186,-0.3506460792778132,0.3890871701830056,0.13519018484546969,-0.025917414883749913,1.3785863493505113,-0.043316386426775114,-0.05569409157001988,-0.5969962723514242,0.1696714998379051,0.5595004028247157,0.11788426823245468,-0.4180449891409626,0.25642356640140485,-0.2047241781851039,-1.0183828076446861,-0.13784814700552678,-0.09959356821441173,-1.9890840763333142,0.006997288587439451,-1.597253932095016,1.414776410677307,0.24564477305828028,0.38702347326862563,-0.9177666061300276,0.7121034938934876,-2.1823457938723614,-1.39370353285878,-3.3004991763631235,-5.17012676319052,-7.329594575115337,-1.8743411788169402,-0.14561637855651116,0.20987293715069635,-1.3496706015334028,-0.37430018051548875,-6.524392069549783,-0.9561452334066805,-2.8282910090441304,-0.4920129800936136,1.7056936133643879,0.2897549068773985,0.05890860410707096,4.496833595526839,-0.3904081570367981,-0.986414044955616,0.8929337350027065,-0.21519688686666077,-2.0417962873021542,-0.29846062560442127,-0.4697480928288287,-0.32281076240986156,-0.5977841761852106,0.13263097421145736,-0.10391513891502083,-0.12543808625442002,-0.390548810024289,0.437812295974407,-3.3795530879843017,0.037362070386462866,0.3588537016970219,-0.659477546380565,-0.34472346790111646,-0.11618280529939642,0.02923873091132092,0.004208698799257319,-0.07107258114078444,-0.4119906345773048,0.3469030417551301,-0.16577756215908618,-0.2841672796451014,0.07179070872000488,0.15474138599525608,2.2051827906756087,-0.19561446185617515,-1.5669750867938725,5.5320669098170185,0.49135051027571147,0.4891721534852874,2.4279627416200364,-1.4967050385437821,0.6873771754001665,-0.3456709304639846,0.19252769958368698,0.366265300213648,0.5601835652463808,0.33215209961396924,0.033909005752671924,0.4804897895898851,0.2228763825209194,-0.43333705901557334,0.2388590742233217,-0.17002913357957225,-0.12407757777552916,0.6264474487023703,0.2125952638234074,-0.13711781871162537,0.3106198643831368,0.0695826801846908,0.2987594741323486,0.1724299890376242,-0.42230628420490096,0.34070602667534633,-0.4798082717314678,-0.5539604489125843
biasActivation=0,1,1
[BASIC:ACTIVATION]
"ActivationSigmoid"
"ActivationSigmoid"
"ActivationLinear"
