encog,BasicNetwork,java,3.0.0,1,1547771859093
[BASIC]
[BASIC:PARAMS]
[BASIC:NETWORK]
beginTraining=0
connectionLimit=0
contextTargetOffset=0,0,0
contextTargetSize=0,0,0
endTraining=2
hasContext=f
inputCount=10
layerCounts=1,30,11
layerFeedCounts=1,29,10
layerContextCount=0,0,0
layerIndex=0,1,31
output=0,0,0,0,0,0,0,0,0,0,0,0,0,0,0,0,0,0,0,0,0,0,0,0,0,0,0,0,0,0,1,0,0,0,0,0,0,0,0,0,0,1
outputCount=1
weightIndex=0,30,349
weights=-0.14691711019975853,-0.5737819486734894,0.6552200949446373,-0.4883225379885372,0.3495507069026489,-0.44719043124285524,-0.5105223566345363,0.9388254698050665,-0.5207164690968931,-0.29453495559077786,-0.3976994218069776,-0.04092620533989928,0.17809694135514123,-0.3041869751513097,-0.2565360188337372,0.2407142605094242,-0.5439045783685836,-0.27806670022124524,-0.42600574638772665,-0.6043676836678288,-0.2767192690164057,0.6572805293880276,-0.44348742075117087,-0.3403964171354792,-0.45259027965367327,-0.21890073649076894,-0.5464246902221025,0.10592659618575341,0.1477607077240143,-0.005935645018456929,0.3608647191195405,-0.7017001426592477,0.8614624909475453,-0.9483871864661901,-2.5358830484376043,0.09717813570194322,-1.025112841599006,3.9314249372614305,1.0906430104274416,-1.7090369669695487,0.4469918952917922,-0.8124888438094199,-2.2611107364319354,-0.31546247597697813,-0.18835496555536257,0.9622438685237489,-0.7534699535873123,-0.12327151372821872,-3.465657887317775,-0.31380962321977757,0.7026624555252896,0.5461613217783873,-0.4432917571602446,-0.29871341539135404,0.9290103114947397,-0.13607615652459418,3.687561509769155,-1.103571174860429,0.1806407802990774,-0.83941780141966,-0.2741473785084812,1.2055031655484367,-1.7226792891822715,-0.6027743347525506,-0.09903283274109957,-0.4313137701982699,0.3100093089868987,-1.1527993896122333,-0.16403182118113147,-0.30802283405237413,-0.24023880733513184,-0.5386783565911115,0.3949914215537391,0.33917084253970076,0.687693572538541,0.31069691540154964,0.3462520988058422,0.07269885936917861,-1.7065312225394773,-0.014717982609330884,0.35493900909463777,1.0245402600133617,-0.3747216694458771,0.648052959126191,-0.6347172333993035,-1.6371654128455444,-2.077989177439558,-0.29176436917142873,0.8379474849404378,1.1096360222583466,-6.921595626210789,1.1564929032844022,0.6414873242307454,-0.12215690406899808,0.8460213804508472,-0.21271724242586604,-0.9731993122813121,1.5182641665272476,0.0398949696514801,0.2858882252958691,0.08958618502222414,-0.3133679771378497,-0.5309648045382264,-1.5372945370701385,-0.2292809734829756,-0.13688023299730476,0.3560623403329887,0.3525084600339011,0.1896274557652195,-0.22939563576919136,0.5551970275214111,0.4070787514933501,0.5399018660621,0.08730539319553388,-0.4221493875552972,0.12025174499378413,0.6388544088094985,-2.088523773337082,-1.7519429695817599,-0.6782992467696711,-2.247262678763228,-0.4371934640143218,-0.22418333234238275,0.1874666567065257,-4.150720243339559,-0.8494270331349106,-1.421733175549325,-0.0679994001939779,-1.723778345916444,0.3149619242866731,-0.6252587448524612,-2.7032294709187163,-1.7653789016578907,0.8906909617825446,-0.07361235956073525,-0.9783369701804907,5.196891620524545,-0.998705051731852,-1.2015699966090272,0.054566708724081286,-1.2436133617297678,0.24975268576499116,0.1267584503264588,-4.959808241716988,-3.4948404880303796,-0.8500425927913181,-2.908561334095043,-1.6377396769119867,0.1898287192824738,-0.7389146853831002,-0.037980678204268606,746.365415280789,0.037463607805078535,1883.7281666517192,1.4186554983648487,-0.2201360686500036,0.06480663445636367,6.570100682172196,-0.24431959988362778,-6.044738527255243,682.7946555984707,620.7692750012491,9.252195483111818,0.36201270232433036,2.3536757691964687,4.9177274490732135,2.143115515229525,-2.489333220214191,6.652468708598005,0.2220928780626627,1.456543478098559,0.47156878431333543,5.880171561944134,-0.4681102227908142,-0.22769046224441686,-1.0849187408536594,1.5231815927049894,-1.4950940721254056,-0.7070886596911315,-0.31075083499307454,-1.227400920738505,-0.3169191578290283,-0.19401344095992362,0.0959582882275094,0.18692067658814635,0.5758709317180706,0.7496453165609195,-0.9039237779608066,0.8954580923867398,-0.8260839861707906,0.1448872505418017,1.228186861583833,1.4738773927504407,3.8937990617281995,-0.4302093246033503,0.10122302196866534,1.9475670795033613,0.7593729350199029,0.04318081904720332,-1.7641842741666225,-0.11660120764886936,0.8200442049259932,-1.871884847149305,0.6843921670295579,-0.5032603912314368,-1.0283782437373357,-0.3311699329527484,0.2555924607267306,-0.32461320776239194,-0.8118337434283931,0.15398242884071517,2.487988048906263,-0.19085258969009805,-0.8851681383241091,-0.3412040002020268,-0.26133666117190174,0.7813714978802219,-0.8362240963926676,-3.2613240398223335,-0.08629781951441214,0.3585211981030725,-0.4544172493316056,-1.6187907928175633,-0.5441473862077315,1.415303115781521,0.3374632980764119,0.08438026363168956,0.6824194627100926,-0.11613926891325792,-0.4443949586793042,-0.5517308475141005,0.018875499356491396,-0.11149206291844876,-0.25647067917067823,-0.40004694081000164,-0.26233533501583095,-0.2714100871903733,0.021690453353706476,0.5489619524016376,-0.9062658150951365,-0.6760878892244793,0.30535186008486725,-0.4011761517067478,0.35972568312718745,0.8839897780221717,-0.3503620181519604,0.38075000869630266,0.1377585501536426,0.18989882496109328,1.378495362073291,-0.3266559895188217,-0.4800897618872486,-0.6315846589746478,0.9102639888897572,0.5570722590543746,0.1178168291711177,-0.4180156344064958,0.2561602882501713,-0.11089919052086833,-1.3521676554616435,-0.13802501731420097,-0.09709994302445454,-1.9888973807749484,0.01380240281384477,-1.5686047286567197,1.414657980588515,0.2477621105271371,0.34999373220206154,-1.0221981701563665,0.7127868901409405,-1.9153646310102965,-1.3933186303316356,-4.660955103872702,-8.724204887045,-212.40091840450617,-3.808233283964984,-1.7998642748992633,1.4610277383024952,-2.426233964304884,-0.4545402182443493,-6.589330658139617,-4.302548958889134,-88.11960552118099,-0.49051893409517294,1.7295682059350161,0.6509007701664961,0.27341075318220126,5.283032994139803,-0.1667197912941273,-1.6698842735882604,0.8931138914209777,-0.0558404962042763,-2.4118718541637922,-0.2969669362497204,-0.6599653202159764,-0.345572716794731,-10.841643620241452,0.5672510328496839,-1.0309541893858336,-0.128801218642423,-16.7901690951901,-0.13904504556822952,-70.9958512360837,-0.24805206075452804,0.35862961478910216,-0.6675193763914313,-1.1395533924857615,-0.18144427877451128,-0.019200403350362275,0.004591423396178229,-0.08912980883404646,-0.42129146000728923,0.3467090831401061,-2.8189001775789913,0.01298561113400355,0.07157033574332539,-0.2783625838098827,3.456213665056919,-0.11554631548054534,-2.197778487053937,5.847284164325014,0.6405344992020496,0.7873172831033675,1.9886016606860555,-1.4567419251625284,0.7148945558136034,-1.2123085898248733,0.3545501352769277,0.4539070933269947,5.8135715631526095,0.38807180253858775,-0.15798570427558037,0.0438240615802229,4.987344243011561,-0.40878441077198857,77.52679938156554,1.378927416786303,-0.12367253906332655,0.8111025769978539,1.1974725049405603,-0.2299961864901998,0.40343281605212966,0.03101658044848566,-0.010941412967072933,0.7548502876287709,4.61313401970317,0.33854945430070116,-2.862692017018784,-0.5538340401738374
biasActivation=0,1,1
[BASIC:ACTIVATION]
"ActivationSigmoid"
"ActivationSigmoid"
"ActivationLinear"
