encog,BasicNetwork,java,3.0.0,1,1547771822671
[BASIC]
[BASIC:PARAMS]
[BASIC:NETWORK]
beginTraining=0
connectionLimit=0
contextTargetOffset=0,0,0
contextTargetSize=0,0,0
endTraining=2
hasContext=f
inputCount=10
layerCounts=1,30,11
layerFeedCounts=1,29,10
layerContextCount=0,0,0
layerIndex=0,1,31
output=0,0,0,0,0,0,0,0,0,0,0,0,0,0,0,0,0,0,0,0,0,0,0,0,0,0,0,0,0,0,1,0,0,0,0,0,0,0,0,0,0,1
outputCount=1
weightIndex=0,30,349
weights=-0.13476858496856592,-0.5662959712867898,0.6012232326487223,-0.4884969013512517,0.19629099318635182,-0.3834610584096568,-0.509397464970321,0.6707543468283692,-0.5000924579932915,-0.25005221966139024,-0.39457250162424856,0.1441505202399812,0.17315111110480869,-0.30410837427511256,-0.1799753596122446,0.11038916690726529,-0.5437443574205113,-0.2734408750583643,-0.4259931444143818,-0.6043518597734355,-0.3264163975961263,0.6518619223242503,-0.4193960112232893,-0.33137203748362387,-0.4526893470264921,-0.2232360185052547,-0.47173485494291995,0.10354284897765638,0.12629736848137035,-0.006041576619935384,0.2921320025693366,-0.7019144765097,0.8590619638527244,-0.4639063643266466,-2.5322128751869757,0.09697267731222933,-0.8526986565574328,3.6692203480550596,1.0160845963993996,-1.708310664259172,0.4470490908215522,-0.802268392582304,-2.2608912534197976,-0.30742199560302474,-0.17471319502357702,0.9568040712057996,-0.7164909262149936,-0.12325891397305001,-3.3316527670303313,-0.24650000948591821,0.6982663909583048,0.5461732337848557,-0.5233460441718139,-0.20125245556531315,0.8531231699424051,0.18227534499401626,3.6882664172238995,-0.9791616584215364,0.1796305880987739,-0.8387434382929385,-0.31262624323488997,1.135963470977209,-1.7191843931571276,-0.5947393434095523,-0.09901815511099116,-0.43084186511361,0.22471279622650533,-1.1397601266547734,-0.033616691146829414,-0.30834339334641847,-0.24022910715059456,-0.6589263551944083,0.39397043644269597,0.339195493688021,0.6769842493998897,0.3117638110944417,0.3454287608746255,-0.17043544791380963,-1.5925727050993346,0.12340973679844996,0.35622804373913314,0.6845630254542832,-0.3740410122045039,0.6415217730618101,-0.6344865581618658,-1.6356734697551367,-1.2400272673464108,-0.3284694982913635,0.6577339481030605,1.090185375990572,-6.9212292954467225,1.1608868716218694,0.5146175228018972,-0.27625869073155446,0.5035699815588303,-0.2161065942436141,-0.9033492208450894,1.1425200637213493,0.06421602528750768,0.17158031647739577,0.08286121084323887,-0.1135844100990543,-0.4199990739065633,-1.538864871695579,-0.22883469202312118,-0.04111345066930651,0.3558703789643509,0.35816601804650744,0.18955129949862365,-0.22933305007327967,0.5549148987583442,0.1630353549743821,0.5393501949216021,0.18796125747686065,-0.42260119464872126,0.12023900212274413,0.7276664184319557,-2.087298664849916,-0.6321492739755392,-0.5659854162420331,-0.736760118163994,0.03606108335088309,-0.2244086386236896,0.18780100800450192,-2.001936987900793,-0.7764636101937186,-1.4204785929717652,0.21987101541841683,-0.22125096647913936,0.3162122357130175,-0.5750139976089629,-2.2317967638829774,-1.0654517704030118,0.8804387059014589,-0.07350151488521606,-0.9389593754397292,3.847444865106588,-0.998892220588051,-0.39652327575017704,0.0646655129623889,-1.2176087572243612,0.22817409513801828,0.14770999548937905,-4.743958324855583,-3.0133409211257294,-0.849691204258139,-2.573824651664502,-1.2419451046710859,0.19671838691165047,-0.5632387342769108,-0.03795698515269441,205.62798620963483,0.03742661611097521,556.1522537302878,1.3726327057617622,-0.22015888370843567,0.02640942567961691,6.684518327814897,-0.24422699849707355,3.951692947206068,667.7473167034989,452.33883240717523,0.9266341060656449,0.36331920719070643,0.3343816072055053,-0.08591960489065852,0.769947363371988,0.3924087337742233,0.9381937082005284,0.21175806422283244,0.0672549120423024,0.05116108285552087,-0.19823314673081813,-0.3525809732450642,-0.22782332959211465,-0.8388379642513207,1.0777521145468467,-1.2406607624993682,-0.717037629832846,-0.2701275447134708,-0.7348000930529894,-0.3169817624849093,0.08059052441764791,0.09606928566497817,0.23860671332605352,0.5336053639916495,0.4798331207598106,-0.9037616076049255,1.332175509783236,-0.5956641477218663,0.06290153608512095,1.227629951032376,1.5208896695132441,3.87706748062825,-0.4287836393833734,0.0834673280202383,1.2260410073194246,0.6724854455975485,0.890369448545591,-1.2854395541171921,-0.1421820409402204,0.6216504155034528,-0.2927784187630512,0.4816035404019059,-0.21058534522976916,-1.0285596941137134,-0.3372594769674418,0.2323113681393079,-0.3253782411888499,-0.7474983603989072,0.15396355535683998,2.367732732002426,-0.17032244274518996,-0.9188761855845984,-0.3108823179555429,-0.26090708028201,0.7778686755702795,-0.828957312344065,-3.2535090039846355,-0.013010711377078939,0.38854988832908866,-0.08814474820190578,-1.6311613049103924,-0.4482067438811732,1.4151480136545536,0.25080023459958867,0.0839224894887376,0.6822737957093693,-0.10322876817533254,-0.4443555798557295,-0.5511908705554918,0.024730089129748428,0.17051108852569993,-0.16672312533817168,-0.4001357136437932,-0.25492306325110475,-0.27700687730674434,0.021548480092291728,0.5490059124568638,-0.8802337003558184,-0.6761641203888324,0.30536244255502293,-0.40123289643745236,0.2753611327886314,0.7208214287650004,-0.3501834478475876,0.3890332566222456,0.13693206651378842,0.0026657251000289264,1.3784816772401127,-0.04739993462070374,-0.4372280543082435,-0.6127892741378441,0.1696498998425991,0.5569656276314964,0.1179620701570146,-0.41807930600496235,0.2563560773375973,-0.1548655699685938,-1.1006629117368778,-0.13793164943960862,-0.0995943195845667,-1.9889428774324716,0.014885097918692969,-1.568784366525615,1.4145971936571127,0.24765756840050418,0.3913966963653095,-1.0165745379019862,0.7126800873809462,-1.9717160453146023,-1.3934678256400188,-3.3436135794638777,-5.557751940208909,-33.9812741462842,-2.641278426586682,-0.15830939920776413,0.9916728008666523,-1.9799300339503683,-0.3804512604291835,-6.548928316510963,-0.9693153322740312,-13.79020855753213,-0.48966481464051753,1.7056921190500594,0.29653675511057265,0.26619918828528655,4.7454300837915495,-0.3043942021786325,-1.3342389074316698,0.8928206899661197,0.057307879392052834,-2.0332499456450863,-0.29821964703554776,-0.469824548197195,-0.34475811639231757,-0.9560491226678232,0.570566094099786,-0.10375017903887855,-0.12773704112595574,-1.5443234680757068,0.23086162361916118,-3.410002760302702,0.1634933446922262,0.358796177939069,-0.6594391187381641,-0.40385185404946133,-0.11626098946893765,0.02379733538393548,0.004438446950091103,-0.08866083028992769,-0.41213486011632927,0.3467971603606119,-0.1724783590052029,-0.26429366370516943,0.07168404652991785,-0.09876267487689526,2.6010419423741635,-0.20583591836017626,-2.181014645840884,5.612102926940833,0.4923020800967189,0.712537323636622,1.9900713755625001,-1.5180625042272051,0.6855357201918645,-0.7655040950424126,0.19334920728423785,0.4463149565673246,0.5602405563532549,0.33759069914488754,0.032482439997636205,0.4797101515811315,0.2681505838491191,-0.396550179191057,0.6136654486815288,-0.1531292929783368,-0.12394627783564104,0.6265276850276557,0.21334697662967556,-0.13704369503666383,0.3044164313787136,0.06118815156516614,0.2989782299675684,0.1723667247554575,-0.3196013669069401,0.33851805509854116,-0.47975282123559854,-0.5538942095690702
biasActivation=0,1,1
[BASIC:ACTIVATION]
"ActivationSigmoid"
"ActivationSigmoid"
"ActivationLinear"
