encog,BasicNetwork,java,3.0.0,1,1547771851412
[BASIC]
[BASIC:PARAMS]
[BASIC:NETWORK]
beginTraining=0
connectionLimit=0
contextTargetOffset=0,0,0
contextTargetSize=0,0,0
endTraining=2
hasContext=f
inputCount=10
layerCounts=1,30,11
layerFeedCounts=1,29,10
layerContextCount=0,0,0
layerIndex=0,1,31
output=0,0,0,0,0,0,0,0,0,0,0,0,0,0,0,0,0,0,0,0,0,0,0,0,0,0,0,0,0,0,1,0,0,0,0,0,0,0,0,0,0,1
outputCount=1
weightIndex=0,30,349
weights=-0.13919360056090546,-0.5664383337158873,0.6552411157630813,-0.48830288607030353,0.3476390664280028,-0.41674500689676003,-0.5095130105350131,0.8492811677630888,-0.5000907701313945,-0.29442619002298553,-0.39445547322933766,-0.028785969311906728,0.17432485074849838,-0.3041391244998879,-0.2438462521870005,0.14274672688145687,-0.5437585502870554,-0.27359707658764953,-0.4259388086626697,-0.6043322084556431,-0.2770660022392172,0.6573121281914839,-0.43899268805805497,-0.33158407918635624,-0.45258652839607333,-0.2189216226421432,-0.4784169271766864,0.10388718225480655,0.12746184983339978,-0.005941248715096929,0.30267739726674664,-0.7017346103016485,0.8602067029043627,-0.8337756139295698,-2.3607231683078584,0.09709237598652991,-0.9719240061251951,3.9309843113750684,1.0195280573839802,-1.7085066262888968,0.44698591273706584,-0.81249759601678,-2.2610869007139045,-0.31545560999133954,-0.18783800262952818,0.962248796523749,-0.7503385484149271,-0.12328378767298645,-3.461548691472353,-0.2635231506044129,0.7029668903911598,0.5461236486161307,-0.4435466613099014,-0.20677850808272763,0.9299509742042196,-0.13667099445386427,3.6876187982446273,-1.10966332033919,0.18065368772677082,-0.8393391561824187,-0.2741474412503402,1.2054088308357394,-1.7193486849839508,-0.6027713710559106,-0.09902584844014417,-0.43136291303991986,0.3024214419063811,-1.1396564918048784,-0.15006161411336796,-0.30799376294053626,-0.24021869477110205,-0.6453962945520698,0.3943380243599352,0.33914224385758884,0.6876966546019011,0.3114580993610105,0.34624481880584224,-0.04222611809792456,-1.7065279935896205,0.050834450188656274,0.35493291528231147,0.9883581998677474,-0.3747336838018451,0.646945922156219,-0.6345419997014697,-1.6372325905706016,-2.080050483840477,-0.2919769390698321,0.8428813086609753,1.1184600870740462,-6.9215824926683895,1.1564446889570488,0.641497519179073,-0.1609622857532021,0.8460038498546416,-0.21604784662418647,-0.9733789807850114,1.1654736426236363,0.03990216293087779,0.27884410694350825,0.08962210298167839,-0.3199123117608489,-0.530413154881735,-1.5372505148945903,-0.22935631618334879,-0.08468146953870803,0.35588710663515477,0.3568692424144849,0.1896690514076203,-0.22933801326989217,0.5550677145707119,0.31573973256053484,0.5399876257775135,0.15337604728007165,-0.4224682392586889,0.12025298915378413,0.6391102753680736,-2.087367313545998,-1.5921700266592145,-0.6526339622135784,-1.9706135927569142,-0.4244878276692883,-0.22421386852365421,0.18697727969251476,-3.158244084047927,-0.8165454512044203,-1.4212700940466179,-0.042120750350473364,-1.181796798308704,0.3154325223203689,-0.6285998412703329,-2.3791990123334887,-1.809124439626031,0.8877677903496455,-0.07350542900539822,-0.9782670621220427,5.151824901482681,-0.997545945134018,-1.2153812430819126,0.054933521712352794,-1.2436243320721678,0.2475566456118194,0.12676443498504592,-4.959624697194187,-3.3831634598854237,-0.8499824258932026,-2.8539792895214044,-1.6027728861223203,0.18125486788352246,-0.7385307262197747,-0.038014264820486206,899.6870938719329,0.037463367805078536,1897.3853623382881,1.4193331595333711,-0.22012430065000357,0.027161306047621705,6.677318731827746,-0.2442588439604003,2.434743374068666,831.2394452781372,620.8753860026526,7.334415433154087,0.3631987371385766,2.3819164012133056,2.1799008745997126,1.9622966728389188,-1.7415875132200909,2.105036343927123,0.2122877578544949,0.5478783394504814,0.5307883407817435,5.649091472490196,-0.4665419171712412,-0.22772448988681765,-1.0844602027509436,1.5547571472433401,-1.3666815515542454,-0.7405694513870112,-0.30800732629060945,-0.9905061324170268,-0.31702706442603523,-0.19293448352697617,0.09592968954539738,0.1879807993444209,0.5669021642405584,0.70873266865165,-0.9038471675327964,1.038575677749877,-0.6825178299279819,0.1402914953361076,1.2281784922328658,1.473751347227739,3.89399525544626,-0.4301954273643104,0.10121782868926765,1.9045867045835354,0.7593221006255404,-0.06487884814518691,-1.45746466669848,-0.10161930262972406,0.6679410408666816,-1.8068963865642096,0.6840709008988944,-0.23114270315310298,-1.028405561641506,-0.3360069213213542,0.23540365340921288,-0.3248016279441346,-0.8116203778302539,0.15401279894766415,2.4902151690782506,-0.1892062463019238,-0.8838079486254062,-0.3412302484051473,-0.2612044331628613,0.7780408936819015,-0.8362284126960278,-3.2613104491731026,-0.08635226367048277,0.3585456010658069,-0.3599730904250893,-1.6191092526692423,-0.47340680655141637,1.4153434364294852,0.2528318633854806,0.0843960732316896,0.6822943589018112,-0.11612888722559338,-0.44437071206926987,-0.5517108739717002,0.019139803469322106,-0.00804126601863365,-0.17478839707267127,-0.4000758274921135,-0.25610987168870275,-0.27639259259504834,0.02167514830346893,0.5489530061502711,-0.9062526433984963,-0.6761305734423684,0.30527663943262623,-0.4011517487440134,0.33319048981807337,0.7302608146770178,-0.35033142985102533,0.3879626684553398,0.13765050960463562,0.1907566739675764,1.3784617754570736,-0.31645543618878896,-0.45458314187449683,-0.6313987033730127,0.18794208286256844,0.5570274364037913,0.11783889383793095,-0.4180453974020825,0.25618354328800674,-0.15514647110976446,-1.2782171291046835,-0.13801112007516095,-0.09709222302445451,-1.988895565525789,0.014769602264185309,-1.5686445091589614,1.4145263141443396,0.2477009146039096,0.3764969210621405,-1.0177552358768314,0.7127554714138277,-1.991300538109091,-1.393368214530517,-4.660772136982995,-8.633502055806758,-211.60416903680795,-3.7611218786009406,-1.024230067184308,1.255885412429037,-1.9936358357538275,-0.4006079594316198,-6.558746930615964,-4.178157979107939,-87.23975256029891,-0.4905372196134066,1.708718001411912,0.6250204030719757,0.273401628782154,5.27553111289713,-0.17287022687555004,-1.6467371663695223,0.8943161501158978,-0.057684030822507164,-2.336404924030875,-0.29812339604080373,-0.5696190440831118,-0.3449363108443208,-8.254153917157756,0.5661269820221454,-0.11767666583334521,-0.1280375315019306,-9.145837551782527,-0.05835277353883894,-60.2381348973953,0.17530646839116854,0.3586566196087844,-0.6674866504027104,-0.49191236760466023,-0.17091213134540245,-0.019203651729283556,0.00460206499617823,-0.08910908488652645,-0.41218682259120343,0.34675190610654627,-2.8438609988329784,-0.2395005228838509,0.0715868729823654,-0.2767321920417466,3.233173846126393,-0.13680140420692738,-2.1977811768747118,5.841383221562274,0.4952549647707933,0.7930928637822202,1.988663413839386,-1.4633744421428414,0.7147246751746371,-1.1936482275541256,0.3511192476125016,0.4576994459191329,4.623164596559457,0.37954770826584455,0.028967144871906655,0.05226425911381688,2.9779403287595554,-0.4196609292805354,47.47824139786704,1.0920555483554997,-0.12367471245964261,0.7706803762689096,0.30525410928195107,-0.1950689642599158,0.30945662211409947,0.03103495100080619,0.2960165748295724,0.2941851707287458,2.696865179547508,0.33837558967069264,-1.8824468994950154,-0.5538474518704776
biasActivation=0,1,1
[BASIC:ACTIVATION]
"ActivationSigmoid"
"ActivationSigmoid"
"ActivationLinear"
