encog,BasicNetwork,java,3.0.0,1,1547771827969
[BASIC]
[BASIC:PARAMS]
[BASIC:NETWORK]
beginTraining=0
connectionLimit=0
contextTargetOffset=0,0,0
contextTargetSize=0,0,0
endTraining=2
hasContext=f
inputCount=10
layerCounts=1,30,11
layerFeedCounts=1,29,10
layerContextCount=0,0,0
layerIndex=0,1,31
output=0,0,0,0,0,0,0,0,0,0,0,0,0,0,0,0,0,0,0,0,0,0,0,0,0,0,0,0,0,0,1,0,0,0,0,0,0,0,0,0,0,1
outputCount=1
weightIndex=0,30,349
weights=-0.1365467351776163,-0.5663015810942758,0.6181961307767956,-0.48834969573265363,0.22707575088370519,-0.402157555124829,-0.5094021049703211,0.7038481747868333,-0.5000138163644663,-0.2540684682771601,-0.3943613077738224,0.13398219962211413,0.1731759478857623,-0.3041035342751126,-0.21640415828754184,0.11250112178712168,-0.5437443574205113,-0.27344067751596424,-0.4259711455126219,-0.6043434181734354,-0.2951577821614614,0.6532103168933783,-0.45440919671698715,-0.3313864018945038,-0.4526559966079578,-0.21863022829899903,-0.4725166679300393,0.10360444565514992,0.12632220526232396,-0.006016739838981784,0.2823075048187155,-0.7028901825376361,0.8599721714259929,-0.7695379666827523,-2.429613072689149,0.09697841926422934,-0.9540542750717794,3.6693970613341835,1.0166203119901631,-1.7056570356684557,0.4470331396708579,-0.8023416276901769,-2.2608980238031577,-0.307515742327136,-0.1752142243828913,0.9618922226507994,-0.7283231476653597,-0.12324942092864997,-3.3726619801586275,-0.24642376396577734,0.6983934280673744,0.546148397003902,-0.5228409900884254,-0.20128311541796254,0.8686545722083154,0.18074859962395773,3.6882591372238993,-0.9831260584825192,0.17976254857961366,-0.8387455688064226,-0.3120995249220945,1.1514948732431194,-1.7191678940723276,-0.5948123785174252,-0.09901524473515759,-0.43094773733925523,0.22360953314943086,-1.1387320438331605,-0.03393942271233212,-0.3079035702686599,-0.24020746985753855,-0.6589077310638481,0.3939905594407132,0.3391734947862611,0.6770572845077626,0.31174911057347854,0.3454283187401673,-0.17007646253407793,-1.7105941589821547,0.12420622292407893,0.3548934588200806,0.8854102056358771,-0.37453605129680934,0.6415436929305046,-0.634496981073866,-1.6357149932657489,-1.4741301743508937,-0.2895471265884629,0.6564608997381057,1.11663460692622,-6.921581559762188,1.1579468413655696,0.5630341788247761,-0.2753150007731256,0.7822469405244783,-0.21623657538822472,-0.9038542749284778,1.14497559226076,0.0641767017768957,0.17161434429160244,0.0884642057359564,-0.13225693014698967,-0.42220201860788803,-1.5383503034586672,-0.22886746161529786,-0.04127873449653558,0.35585387987955097,0.3585397074038392,0.18956014483622366,-0.22932548207327966,0.5549944077280831,0.22365426656213128,0.5401006964939215,0.18413314307538567,-0.42259928264872126,0.12023900212274413,0.7248098080750868,-2.087296024849916,-0.6322225090834122,-0.5744173528928461,-0.7439356803200842,-0.032765596290012425,-0.22428847355168505,0.1871508345441892,-2.178021396108677,-0.7581753638501886,-1.4205686751012128,0.22003064587560964,-0.23967296518665102,0.31618719551753455,-0.6478790523017076,-2.230484260331428,-1.0678664834908,0.8855405629704072,-0.0735032250055842,-0.9483917847665675,3.8828456528210005,-0.9989374166512591,-0.48047145712231143,0.05857318286000376,-1.2177841232255375,0.23291295312309496,0.14760527839525248,-5.010280209026938,-3.0141826299199046,-0.849744747041154,-2.742187247398449,-1.246134225260341,0.192349574537999,-0.5787701365428212,-0.037978743934693936,225.45524907213485,0.037464694813702355,1064.5803927382879,1.4219384449921773,-0.22015044210843565,0.02640932309468415,6.686259454313927,-0.24422785601800026,3.9530944447204344,733.7948167034988,581.4774495566153,0.9540933088737472,0.3632880567721721,0.33442415974122924,-0.022525015776063646,0.7692743521569995,0.3908147427268507,1.1006882966151017,0.2117297817916205,0.06688546036965,0.05089842524623864,0.07507598739500909,-0.3526540083529371,-0.22779266973946527,-0.8394881436505535,1.412795029293055,-1.2461063008874649,-0.734954223627718,-0.2710203646225551,-0.7339482544204281,-0.31701626827763046,-0.07851816453235266,0.09596464260619379,0.23786328554254177,0.5372672141733612,0.7175565189577768,-0.9038620915189566,1.2283522154270925,-0.5983876487956058,0.06376303068186395,1.2276443049847947,1.5078146945453053,3.900761349572262,-0.4298617549892315,0.08354036312811125,1.2260835637207899,0.6747248553435392,0.913797356136922,-1.4069846645519661,-0.07747669781551053,0.621659895503453,-0.3044732612754697,0.6557801227699877,-0.2342109561543,-1.0285543261137136,-0.3375957606758825,0.23234251855784233,-0.3248349266917813,-0.7713965130519959,0.15395511375683996,2.3706264752839337,-0.1748519546140933,-0.9125261000486506,-0.34193303131584635,-0.26090879373706083,0.7778633075702794,-0.8290305474519379,-3.2616019000627494,-0.01317263482532687,0.3524783407975038,-0.09883034551600009,-1.633455184952204,-0.4207929282602171,1.4151584365665535,0.25087384299110965,0.08434299780554874,0.6822653541093692,-0.1033470520118343,-0.44434038355438465,-0.5512301940661037,0.018859661335050123,0.1704884117672973,-0.16675877309039647,-0.4001215977397933,-0.2549126403391048,-0.2773327421832534,0.021606492401293375,0.5489894133720638,-0.8804124345518652,-0.6761613555888325,0.30534922805262305,-0.4012401723414524,0.2964422702002959,0.7210837118201128,-0.3501989686363895,0.3890192912311725,0.1374398449490174,0.03368627646151692,1.3784651781553128,-0.0475753006218802,-0.4373180125980394,-0.6100648517894498,0.16963868243971908,0.5570080498746189,0.11794065823878098,-0.41808194600496235,0.25636650024959723,-0.1554129178013325,-1.0990691689969272,-0.13795364834136864,-0.0995586718323419,-1.9889361070491118,0.013956902005528207,-1.5686393107589613,1.4145695100964515,0.24767898031873778,0.3913825804613096,-1.0166385079884206,0.712712856973123,-1.993788060205488,-1.3934437056544,-3.347802700053133,-5.975134089302243,-45.951419063909164,-2.6713827299823456,-0.632453096871871,0.9734524187106802,-1.9654906909816596,-0.38297049812635325,-6.549018398640411,-0.9693335988312766,-18.15116943792439,-0.49020380317249984,1.7057018893924591,0.37357423578323906,0.2563492832424958,4.88572706481498,-0.3016596351712911,-1.4290588785631653,0.8928337877082544,0.051754198342644074,-2.0351224623148774,-0.2982118578568857,-0.46989758330506787,-0.344776081951656,-1.0164630361739777,0.6011688848703417,-0.10327820026804224,-0.12795895852356934,-1.817404984934413,0.22730084657981933,-3.446239437654717,0.1678255151313279,0.35877417903730907,-0.6595124912611042,-0.4035971521013224,-0.1162994554586229,-0.02489434091641006,0.004540573769070244,-0.08903704109426062,-0.41213507143726713,0.34679737788153864,-0.2239513955732559,-0.25755160371265445,0.07166204762815782,-0.10319028284973365,2.6885157507980666,-0.20583453378735622,-2.2685966450494077,5.612884600588778,0.49228935017368725,0.713458883654958,1.9891149827280925,-1.518053830746149,0.6855418321427174,-0.8682869764179795,0.19342244239211082,0.4522549746907512,0.5604195936470987,0.3862823754452332,0.03246388409363621,0.47979566612331753,0.3483730766397478,-0.40081821397529854,1.4792825589717638,-0.15314245843933416,-0.1239138789894591,0.6266009201355286,0.21335288949210884,-0.13700522904697854,0.30449111013780533,0.03214826981847253,0.2989813979675684,0.17236817682135191,-0.21165993349035736,0.338527823098541,-0.4797202012357739,-0.5538777104842701
biasActivation=0,1,1
[BASIC:ACTIVATION]
"ActivationSigmoid"
"ActivationSigmoid"
"ActivationLinear"
