encog,BasicNetwork,java,3.0.0,1,1547771861690
[BASIC]
[BASIC:PARAMS]
[BASIC:NETWORK]
beginTraining=0
connectionLimit=0
contextTargetOffset=0,0,0
contextTargetSize=0,0,0
endTraining=2
hasContext=f
inputCount=10
layerCounts=1,30,11
layerFeedCounts=1,29,10
layerContextCount=0,0,0
layerIndex=0,1,31
output=0,0,0,0,0,0,0,0,0,0,0,0,0,0,0,0,0,0,0,0,0,0,0,0,0,0,0,0,0,0,1,0,0,0,0,0,0,0,0,0,0,1
outputCount=1
weightIndex=0,30,349
weights=-0.15244115339818304,-0.5829886873375302,0.6552132549446371,-0.4883256593647105,0.34952398115642336,-0.4674507524746309,-0.5110011788159493,0.9401723265393018,-0.5344421206733175,-0.2945477578955462,-0.3980734786710257,-0.056146499578473334,0.1801244397505614,-0.3042009176498891,-0.2724452632451998,0.2740756379185904,-0.5439738524110335,-0.2797215096802085,-0.4260321232086623,-0.604374963667829,-0.2767375088777199,0.6572809693880276,-0.4439457635104502,-0.3514445035323282,-0.4526002095736732,-0.21889853649076893,-0.5570478923204675,0.11039682142424179,0.19225411118575583,-0.005935645018456929,0.4141893494948004,-0.701672257662089,0.8644292941146398,-0.9517043139625866,-2.531594171750911,0.09727122069614504,-1.0217037759790955,3.932118743691008,1.1182464067186606,-1.7100413300793427,0.4469898032258978,-0.8124789138894197,-2.26110461215546,-0.3154550880428726,-0.1878420148234235,0.9622600245330163,-0.7537033779130912,-0.12327195372821872,-3.4669779144645,-0.3137384049743101,0.7027018503354902,0.5461752642769666,-0.44329585076453004,-0.35352680485382265,0.9289168628672315,-0.13615667209098367,3.687568920682255,-1.103972404095127,0.18063253608613264,-0.8393208734232903,-0.2741542185084811,1.2055085335484366,-1.7246650605330274,-0.6027674947525504,-0.09903063274109956,-0.43128683588281796,0.3111909158281824,-1.1748100059738296,-0.1729143001568839,-0.30802380356884385,-0.24022887741513183,-0.5258531320576395,0.3950078627750062,0.33917768253970065,0.6876862925385409,0.31035216343093225,0.34624481880584224,0.07530752584802142,-1.7065365905394771,-0.024302495210448683,0.35493793549463776,1.1093970328096385,-0.3747215193909651,0.648055159126191,-0.6348003622502434,-1.637087842017043,-2.0766279950513162,-0.2916305445989282,0.8443764768356031,1.0766715426239637,-6.921600026210789,1.1565014114752468,0.6414647084349652,-0.11471999343206567,0.8460313103708473,-0.2107314710751102,-0.9731509387721134,1.5861708599564666,0.0399022496514801,0.3011581063859241,0.08953619177530572,-0.3134490272509674,-0.5310347182611732,-1.537321676025075,-0.22927238717830406,-0.2512955688394853,0.3561454691839285,0.3480756968705119,0.18959957076806075,-0.2295956087568651,0.5551914647732692,0.40592952494942114,0.5398536807870097,0.07886359268229401,-0.4218989169544645,0.12024490499378411,0.6388437364355847,-2.0892132772783163,-1.7505592158875827,-0.6775710968314378,-2.239939844000562,-0.43639300501651795,-0.22417489074238273,0.18905865431841076,-4.051890967650204,-0.8718144398758583,-1.421713494908252,-0.20546712947741297,-1.7408363327581369,0.31500299049530506,-0.6251574857613788,-2.602379685593046,-1.7598396664914024,0.8916705639593295,-0.07385493234678182,-0.9783251309958453,5.197878678433941,-0.9985787100395133,-1.202096391527433,0.054556329130214506,-1.243606081729768,0.25198497461747915,0.12676953192645882,-4.959826269403566,-3.5743382693490906,-0.8500501607913182,-2.9051522684751316,-1.6472930041016083,0.19625771117763918,-0.740912847900282,-0.03797339820426861,749.730480250835,0.037468247805078535,1883.7953229699463,1.4162709150579635,-0.2201558675517636,0.08939738005443068,6.60511796874361,-0.24441780629341375,-4.593824520368399,680.6276754961843,620.7688894357736,9.02266120419415,0.36052576262987995,2.3534003874681377,4.9969665661148115,2.1423413834603506,-2.4623310753814294,6.218565167646526,0.24358488375893386,1.343067133129866,0.4323590462653912,6.052308941615607,-0.4680522957517637,-0.2276814725841479,-1.0849090336335603,1.5416970893630657,-1.5887394340232108,-0.7051653141472122,-0.31070205760412567,-1.1183601650437005,-0.3168775257513503,-0.19601160347710544,0.09596048822750941,0.18696990916873954,0.5768579896274674,0.7577993112237681,-0.9041311099544265,0.7579903631033047,-0.8043050679589313,0.14554689549996747,1.2282007774878327,1.4739708413779484,3.8937760235066396,-0.4302194224020063,0.10121574196866531,1.9477294609576234,0.7593660852237414,0.10620705441768885,-1.768473150853316,-0.16533900351812283,0.8138552637189728,-1.9226191612778853,0.6847102635570848,-0.48887169590596413,-1.0283763953277358,-0.3267371697893591,0.276114512409088,-0.32456674089694043,-0.8118347961158949,0.15384355871038613,2.4881273646127555,-0.19074665620842043,-0.8861053254766921,-0.3411971602020269,-0.2619337773135277,0.7833572692309777,-0.8362141664726674,-3.2613210482319337,-0.08628569696167679,0.35854912360133306,-0.5391554339034708,-1.6187739964602026,-0.5319886061482129,1.4152935465289291,0.3404813322512632,0.08437033371168955,0.6824483268944466,-0.1161324289132579,-0.4443927586793042,-0.5517334125598606,0.018849539487820068,-0.10800806440970566,-0.2609132583851401,-0.40004010081000174,-0.2687829367247123,-0.2694979108126676,0.021691181353706474,0.5489620603357431,-0.9062582470951364,-0.6760823917035524,0.3054294309133687,-0.4011711250748061,0.3614194372629807,0.963487559340883,-0.3503585601017362,0.36527576459498745,0.13783897558863298,0.18992695951229852,1.3785026420732907,-0.34676017695122535,-0.4811247563291022,-0.6324262654363871,0.9482783481554957,0.5566729629920237,0.11782675909111771,-0.41801142461033447,0.25614458283643504,-0.0779097813092597,-1.3687412146441562,-0.13803511511285696,-0.09710722302445457,-1.9889020207749482,0.013444444814586863,-1.5686025286567198,1.4146830515897775,0.2477552686981234,0.349655789636153,-1.0285765254437937,0.7127785691882051,-1.8402592619444456,-1.393281784724855,-4.660947823872702,-8.722323986268103,-212.3798286403897,-3.793763064741537,-1.904061793660015,1.582218663860771,-2.3979578104270964,-0.5729732712543815,-6.5854375597803525,-4.760210302257856,-88.13077688967743,-0.4905085327189997,1.7500902576173736,0.658510917285783,0.27342815335146836,5.283949112139081,-0.16339183552985032,-1.6657470580301164,0.8936095119619454,-0.05489231692842537,-2.4145102740017115,-0.29627743230848574,-0.7348140006432192,-0.34696766555833386,-10.866943914817929,0.6400712012350348,-1.0715400789012421,-0.13047515715874636,-15.970439550912317,-0.13025796328577244,-70.70540385434576,-0.27752514697122016,0.3586242467891022,-0.6675204365012554,-1.1194360091946793,-0.1819530452012472,-0.01911997791537191,0.004586583396178229,-0.08913737683404649,-0.44128487451419063,0.3466933777263699,-2.812903248190421,0.03052475728257736,0.07156023794466936,-0.2782977242701676,3.4797923780531756,-0.10530196382653992,-2.197698061618947,5.863857723507527,0.6711293212453406,0.7826771263889118,1.9885342400187485,-1.4529182413963742,0.7148997174142979,-1.2262091637453594,0.35394566448510295,0.4417424441132176,5.82368289487472,0.40997246374119994,-0.7786611004039871,0.04378277388968856,4.918849310331784,-0.45651626121762573,75.11771261847845,1.1681427313192578,-0.12367253906332655,0.8109951623275297,1.1712677239684366,-0.2519848152598791,0.7142756343073645,0.031046366490886428,0.00040134167221951003,0.7485630016025704,4.819645858010108,0.3388987591126083,-3.0412994923204653,-0.5538294001738373
biasActivation=0,1,1
[BASIC:ACTIVATION]
"ActivationSigmoid"
"ActivationSigmoid"
"ActivationLinear"
