encog,BasicNetwork,java,3.0.0,1,1547771848857
[BASIC]
[BASIC:PARAMS]
[BASIC:NETWORK]
beginTraining=0
connectionLimit=0
contextTargetOffset=0,0,0
contextTargetSize=0,0,0
endTraining=2
hasContext=f
inputCount=10
layerCounts=1,30,11
layerFeedCounts=1,29,10
layerContextCount=0,0,0
layerIndex=0,1,31
output=0,0,0,0,0,0,0,0,0,0,0,0,0,0,0,0,0,0,0,0,0,0,0,0,0,0,0,0,0,0,1,0,0,0,0,0,0,0,0,0,0,1
outputCount=1
weightIndex=0,30,349
weights=-0.13896215034369053,-0.5663043926179622,0.6552105458990409,-0.48830992607030343,0.3437003769570569,-0.41654729754540476,-0.5094013929534088,0.8285781841472537,-0.4999568290334693,-0.2944444671988189,-0.39434385564773317,-0.028918007913500587,0.1736588540280093,-0.30411565630531145,-0.24361480196978558,0.13178811502968354,-0.5437350820924789,-0.2734631354897241,-0.4259462042748296,-0.6043283500364429,-0.27833824291687165,0.6573049843998489,-0.43981030225845014,-0.33142334986884575,-0.45259760999607324,-0.2189660050201429,-0.47594056711413557,0.1038202699685563,0.1267958531129107,-0.00595233031509693,0.2933261041672697,-0.7017201347629092,0.8600678327740338,-0.8130726303137347,-2.3421915496022936,0.09708502562492988,-0.969689773545917,3.934736512180032,1.0172938248047019,-1.7084633290997056,0.4469965543370657,-0.8124865144167798,-2.261075819113904,-0.31541428484804573,-0.18763885243337433,0.9621947079952652,-0.7498527348033317,-0.12325149091904998,-3.4498956099324034,-0.24928249540235953,0.7035130768682352,0.5461348132958108,-0.44384758957918047,-0.20234188516771812,0.9307267494053578,-0.13687734804751625,3.6879661201067977,-1.0711247796170722,0.18065685289663636,-0.8391359663115896,-0.2741784833969888,1.2053725499390766,-1.7191879556664402,-0.6027602894559104,-0.0990087245050973,-0.43141414924603283,0.27880918311617303,-1.1394099542346332,-0.10362724448329809,-0.30796146618659986,-0.24018261378010955,-0.656418092488744,0.3941522095740366,0.33915340853726883,0.6876855730019009,0.31168954957822553,0.34623759562504225,-0.0704981331569117,-1.7065296671495909,0.0754454794428889,0.35491091638055156,0.9431239292849722,-0.37473172380184516,0.6466017906172652,-0.6345138378679779,-1.6372199209549858,-2.064035782676244,-0.2921108801677575,0.8468544883933462,1.1185246805819196,-6.9215824926683895,1.1564446889570488,0.6418758150908074,-0.2549780956861757,0.8463677401867041,-0.21620857594169685,-0.9728098525764958,1.1590390527953152,0.0399384670821699,0.24205534122754016,0.08962975194167841,-0.31702568714157797,-0.5239785650534138,-1.5370839865838783,-0.22914160225220753,-0.0829688507566886,0.3558589448016631,0.3576465955304785,0.18966725725287423,-0.22933888602953945,0.555024417381521,0.30985047463932774,0.5399949761391135,0.1587648705557599,-0.42254866469367924,0.12024102243378411,0.632744898002502,-2.0873188144440276,-1.5213610680267293,-0.6290525779802366,-1.476063370123749,-0.4211895333538363,-0.22423474872677487,0.18696873718113016,-3.0045354258564863,-0.7569208583908155,-1.4210120179550918,-0.03966177382294628,-0.9195927990814122,0.31546258981286257,-0.6305009403330595,-2.3584960287176537,-1.3145742169928658,0.8865881036218028,-0.07350683741499824,-0.97825284826102,4.883421723133548,-0.9985610998425057,-1.0130488617007243,0.05509306990801512,-1.2436132504721682,0.24728727922253524,0.12678797506210357,-4.959594629701693,-3.4427880526990293,-0.8499698977713303,-2.847544699693083,-1.431054058819138,0.1809855014942383,-0.7385181286862113,-0.03800539934848621,1087.303548617448,0.03747520334381774,1920.0418327382881,1.4193764567225624,-0.22012430065000357,0.02647019940222138,6.683753321656067,-0.24425067521800028,3.709664468571745,935.9600637551704,621.0169611879058,6.208818304968825,0.36321853604033655,2.2363342847015075,1.6853506519665478,1.4824412020359703,-1.7389158793709976,1.8707141497282673,0.21196605611453348,0.18986665467153455,0.5272954435855731,5.592547442372221,-0.4635776950491332,-0.22772116798565922,-1.0823570856330926,1.53635096284024,-1.3652363296306618,-0.7427885611964127,-0.3015727364622882,-0.8187873051138443,-0.31703146442603514,-0.19072428305281933,0.0959365295453974,0.19087433824779154,0.5551236483981442,0.6588258041916312,-0.9038387259327962,1.0571072964554422,-0.6661832969540753,0.14094049147066176,1.2281898923111985,1.473743003275164,3.894261724446327,-0.43018434576431047,0.10120286811359122,1.7546688032910909,0.759309503091977,-0.08105863079065445,-1.4389330479929148,-0.10157602216136875,0.6337634683817535,-1.805933032926981,0.6841989250004337,-0.2189582541857896,-1.02844290962364,-0.33678427443734776,0.23292729334666198,-0.32493556904206,-0.8115724354651175,0.1539993317899382,2.4976167706661245,-0.187839679265356,-0.8766194126476858,-0.34123244840514727,-0.2611975931628614,0.7778801643643913,-0.8362173310960276,-3.261241833214321,-0.08596446511806206,0.3585487690658069,-0.3496815013060206,-1.6187612317612476,-0.46697221672309513,1.4153907468475833,0.2512346791360772,0.08440027323168961,0.6822661970683194,-0.11610800702247273,-0.44435963046926996,-0.5517035939717,0.01918310065851306,0.018634650492074183,-0.1696617611999321,-0.4000656194921136,-0.25530937481512184,-0.2768905656901654,0.021659276537100196,0.5489598461502713,-0.9062415617984961,-0.6761587352758602,0.30524235095024527,-0.40114874180037535,0.31619967066814486,0.7238262248486965,-0.3503094309492654,0.3886297491833238,0.1376429416046356,0.19893723388047777,1.3784705752374256,-0.3139594167520805,-0.4490590986760724,-0.6319706595956809,0.1726091140682955,0.5569736084805639,0.11785142195980332,-0.41804319740208257,0.2562952452810489,-0.15562640628018135,-1.2754868747411812,-0.13800003847516093,-0.0971032931081614,-1.988884201625542,0.015127871949160838,-1.5686445091589614,1.4145397813020655,0.2476940746039096,0.38880084715671454,-1.0168953886328904,0.7127598714138278,-1.991569904498375,-1.3933792961305167,-4.66042936971446,-8.573877462993156,-210.17986439562443,-3.7866336005284,-0.994844366864623,1.1163335039333198,-1.9872012459255064,-0.4003942299599786,-6.5525920599315,-3.7138597094438963,-86.74520233766576,-0.49052436024403706,1.7062416413493615,0.5554200223505109,0.27330838904291327,5.269913132811898,-0.19049085463012375,-1.568490380812077,0.8935808364315405,-0.030274640526694284,-2.31570194041504,-0.29817189514277387,-0.5666548219610037,-0.3449154306412002,-4.1521565505492335,0.5416060224350342,-0.10623066596029564,-0.12801247525818585,-7.870916457279447,-0.026740601564097907,-28.647309493949447,0.23493106120477353,0.3586954050230352,-0.6674657701995895,-0.4481491512608173,-0.16237517163373127,-0.019211166737283555,0.004590983396178229,-0.08909800328652642,-0.412154525837267,0.34678798709753866,-1.6252852921002447,-0.25803214158941606,0.07159795458236543,-0.27372728793164286,3.179802784254365,-0.149515705847723,-2.197760296671591,5.850880956719833,0.4927786047082425,0.7972340967072244,1.9886096339028376,-1.4485877274262835,0.7189509186514982,-1.1890821392825537,0.34958482351324505,0.457281717600308,3.21589235529998,0.3784024671840904,0.031104858588818892,0.16696223941095295,2.159331066354214,-0.4209529891256237,36.50920479944835,0.9363099103006485,-0.12369701608491217,0.6998714176364241,0.2482484101642914,-0.1252418294634141,0.30637330396368717,0.031089470205025217,0.2984929348921232,0.19575376197215302,2.6094809774850862,0.33836462295069275,-1.3193800673247686,-0.5538601189424778
biasActivation=0,1,1
[BASIC:ACTIVATION]
"ActivationSigmoid"
"ActivationSigmoid"
"ActivationLinear"
