encog,BasicNetwork,java,3.0.0,1,1547771258583
[BASIC]
[BASIC:PARAMS]
[BASIC:NETWORK]
beginTraining=0
connectionLimit=0
contextTargetOffset=0,0,0
contextTargetSize=0,0,0
endTraining=2
hasContext=f
inputCount=10
layerCounts=1,30,11
layerFeedCounts=1,29,10
layerContextCount=0,0,0
layerIndex=0,1,31
output=0,0,0,0,0,0,0,0,0,0,0,0,0,0,0,0,0,0,0,0,0,0,0,0,0,0,0,0,0,0,1,0,0,0,0,0,0,0,0,0,0,1
outputCount=1
weightIndex=0,30,349
weights=0.18145834255383791,0.4029313902747398,0.590764001422177,0.493230940825387,0.24092456814907234,0.45222990354336595,0.443784002240172,-0.3095859005340574,0.70472717729186,0.2680350883540531,0.46700946883759803,0.39336463907458025,-0.5668612269009755,-0.38902998784071274,-0.24907285205440358,0.377776630564997,0.21130483044977869,0.23262000637821592,0.7462695750443985,-0.2635648643858733,-0.36831669052567084,-0.3645615689541177,0.5516910688405955,0.2793605166769747,-0.3179244115977133,-0.23242370431416978,0.2489001068880183,0.2999285000458459,-0.7340248680477525,-0.446487113195802,4.423366109265386,9.97954120181798,1.4899339933460582,0.026486952512259448,-0.11799532574627188,-1.4964981306558425,0.17701528723322815,4.890573161362556,-0.3299549129848013,1.7865422799120394,0.5257770225460308,0.8091203473426068,0.5236339589821837,-0.45515513697346044,0.12870232500602136,-0.3399491914612318,1.2366346987063621,-0.43871093170446124,-0.13587253273212052,0.029703593995010057,0.00517591225756925,-0.34268225246565487,-0.048339251545393,0.07188326061038845,0.045679484224079164,0.05802734069246379,-0.17343301779981785,-3.723096520661523,0.10292879435723859,-0.034642807538590954,0.10765701646414987,0.05035985998583498,3.1650914490162365,0.4545762820168812,0.0747918333353155,-0.03984586740644112,1.24564554807373,-0.40969128958491563,-0.36682266205432323,-0.19940738002015734,-0.5672105730604741,1.3788087248081708,-0.23906812931911353,0.7150138675902232,-0.23141968944259522,1.6290725656987846,-0.4223945914659306,-0.8991339798509456,-0.25187589302784613,-1.4885634384871396,0.07748926171359512,0.6845786728382995,-0.43599250767324854,0.7082930251665279,-0.49205896345861205,0.2941082322189221,0.31942809266760014,-0.3437722069728044,0.15386133052270198,-0.14064186151880181,-0.5248161448739044,-0.27884215516847316,-0.22674931921823419,0.3333855951457702,0.21515524535068353,-0.9291216743265045,0.18419960477477096,0.5649114545298388,0.35172198988965675,-0.020758471708197515,-0.005363202688061113,-0.15048586857208995,-1.4906228865175084,0.4860111197984819,-0.18139109057762434,-0.1586215967302932,-0.5142275276158033,0.04226711748100708,0.7358638204113159,-0.3499777472104706,0.04532145711048254,-0.2648609479598563,1.0215218576225495,-0.25293464442232716,-0.9813146566372033,0.7367975363805618,-0.24461095433189645,0.9017699832749774,-0.045919381211980574,-0.4195657486792205,0.11048409057491802,0.6124151120052007,-0.2849587430754822,0.07898931214652109,-0.24212358041353438,-0.14724437885917407,0.5791329222249817,-0.04812928922623474,-2.3102377577035376,0.7283447871312956,1.1558866327284918,-0.1642090988757055,-0.4573490186897755,-0.3375443802074815,-0.20891076636140993,0.133266226388632,-1.564037231523557,-0.4652487865260529,0.4608990726578387,-0.605457077641124,0.26096003927182515,0.18558673622778504,0.4455229813742982,0.3380430135913853,-0.21758053811193415,0.05762231409366031,-0.018206745404029237,0.2117179832946958,-0.5304089576225605,0.22659494601919966,-0.9155304971688032,-0.07894594904869531,-0.5545800098721789,0.753050711031117,-0.2265695607948236,0.5888423342036948,-0.6561614698719799,-0.011583434261305169,0.17844123880527388,0.07558765691345545,0.3274829371294685,-1.569449075551659,0.347408058103496,0.07246997507380686,0.3298006125484898,-0.1546815245344892,-0.11816292219217887,-0.011153274949033813,-0.49726454571361356,0.41043517130755447,0.13576215349243131,0.15524760813911462,1.0931100894558508,-0.3205630853413277,1.4472799344818306,0.5687077003947162,1.1576638827160501,-1.1194918959856774,-0.23783875059949466,-0.21715255933979796,0.42095904633810427,-1.1088369072748563,-0.11513644355650925,0.8415996525702856,-0.14599397797290445,1.086284515732843,-0.15488244174751273,-0.6041299260522695,1.5535085042579555,-0.31241121285402224,-0.33032759766578057,2.4962653144181797,-0.21601030589892528,-0.8794766098012867,-1.1836876328750563,0.387388530903005,0.26896608671044553,-0.12758797649517847,-0.2096778907941293,0.018197238318798627,0.15688627396337457,0.19024311891786588,0.16710557623159994,0.15217628387694382,-0.15353784826862876,-0.6711904984274185,0.24009245761190628,0.6571972289291633,3.500541918365453,-1.3538940172447604,0.5860417793886071,0.858249015482476,-0.688478983905673,5.073768645817257,0.9983869309314886,-2.571818091847935,0.6112474016567453,0.8819352076638718,-1.9825966773942159,-0.304896986069592,0.3607713007240991,-3.592479208551685,0.914293760043262,-1.9809434683331417,-0.13034600601833818,-0.2934020785377541,1.6737794592397892,-0.2555463576474181,-0.13339353974523946,0.12943368622555593,-0.06083747927767611,-0.7698640641110006,0.15421332082350683,0.5151122318902747,0.1714509409125376,0.38844967721596124,0.167669486241229,0.18340296150630492,-0.8843292420256124,0.297057080146533,-2.193351426663273,-0.6689634704900149,0.04590032451430318,0.15277256732152508,-2.855327369057171,1.053244527885183,1.1658625439081722,2.1442601288561485,0.4994307626599014,-0.03154726081305418,-0.31780709119371936,-0.4619184060918946,-0.8135113444133517,0.7624020102785758,0.04910966495266395,0.025940368110531017,-0.3656819228869705,0.21000059973714613,-1.158521718166547,0.305374654202224,-0.31797766771989416,-0.28749395616843343,-0.16388802991913592,-1.0148187664465709,1.5074585057604786,-0.12639319337532587,0.07349592463628622,-0.1258387700395001,0.016537942938427364,0.2823122916558259,1.6244950264215254,2.618506390025541,-0.3101494049024799,-0.49138861771645836,0.2308288502323468,0.4785938813868617,0.5795672536797096,-0.18574715994065463,0.3950852603310272,-0.05997772107954166,-0.21021287959842527,-0.27897193810162546,0.5226841467990494,0.089471300299614,-0.38034483912547273,0.08733436407656194,-1.092264462740984,-0.868401498521542,0.001700264853627953,-0.7546386934036946,1.046360242125464,0.5646103277976487,1.6016946861689594,-0.3063791399302731,-0.6357090264687264,2.0785556455763787,-0.2151676359785642,0.3599193129226632,-1.2694903152184671,-0.5413442357512933,-0.9540344085511098,-0.6952763543715025,-0.9439458429322187,0.2660931413144071,0.09105450794287542,0.2888949866639031,0.014103240499229994,0.4534243501695724,0.3100909984504498,-3.3493369214826396,-0.3490176598570203,-1.6406716024459285,-0.47812311390665163,-0.29207830928096146,-0.9196761334386248,0.1991063884135598,-2.3420917533456516,-1.074808168074166,0.07486284336577897,18.604896835959224,1.9640936161932268,-7.104671715356293,0.2752681582834264,-0.2754141026565205,-0.9507872740290981,0.12385020222848525,-0.6644996560235721,0.020134788099210748,-0.20857297367728272,0.8632400513691961,0.36323406108687045,-0.3311478812727868,3.9065800300629916,0.5934753063322346,-0.19470969055492005,-0.39359467567200795,-0.7344358167098256,-0.5887657831104404,-0.3006719374181543,-0.3248584350391048,0.2324295894574705,-0.38794881436829165,0.03865337178886918,-0.22035078424438134,-0.5381432984786211,-0.03207032848870437,0.06364517955456149,0.06282679638856851,1.173542307091964
biasActivation=0,1,1
[BASIC:ACTIVATION]
"ActivationSigmoid"
"ActivationTANH"
"ActivationLinear"
