encog,BasicNetwork,java,3.0.0,1,1547771869478
[BASIC]
[BASIC:PARAMS]
[BASIC:NETWORK]
beginTraining=0
connectionLimit=0
contextTargetOffset=0,0,0
contextTargetSize=0,0,0
endTraining=2
hasContext=f
inputCount=10
layerCounts=1,30,11
layerFeedCounts=1,29,10
layerContextCount=0,0,0
layerIndex=0,1,31
output=0,0,0,0,0,0,0,0,0,0,0,0,0,0,0,0,0,0,0,0,0,0,0,0,0,0,0,0,0,0,1,0,0,0,0,0,0,0,0,0,0,1
outputCount=1
weightIndex=0,30,349
weights=-0.1721775960029372,-0.595882571036346,0.6552277783955173,-0.4882706529589369,0.34952504818101704,-0.4936834874570345,-0.5113531196566785,0.9891955482593672,-0.6210435969517988,-0.29454269241100756,-0.39770669291446337,-0.1633126432359882,0.20025562050405288,-0.304206264834264,-0.3292862179468917,0.3162445660578096,-0.5440584042917868,-0.2817412741850055,-0.4259923571949319,-0.6043733972678289,-0.27675056874274984,0.6572798177080276,-0.4433383294552604,-0.35846270172215516,-0.45256074407733676,-0.21875541083108446,-0.5700175789650024,0.1783642032523877,0.32107016392623944,-0.005914184756056928,0.5458103417808509,-0.7016629040050113,0.8762711596774921,-0.953181281092439,-2.5608798359797995,0.0976923958231872,-1.0374414201406614,3.949909387910551,1.1477531083281833,-1.7377942812092513,0.4468066928889049,-0.8124455606923634,-2.26110334425146,-0.3155409285723201,-0.18597230695689532,0.9666507640276563,-0.7540949634373173,-0.12324989388821869,-3.3954685941666107,-0.3139533195868175,0.7021632096823122,0.5461890530613414,-0.4432485634320365,-0.4083538039114547,0.9287760588303016,-0.1362820216273238,3.687760739646941,-1.1051901269424271,0.18061259816613262,-0.839620890216527,-0.2741833542524809,1.2055901826895432,-1.7268776015316014,-0.6027615868485504,-0.09902407082109957,-0.4312536441838185,0.33589584611250217,-1.230797998908067,-0.20694078747928749,-0.307998863728844,-0.24010487321645302,-0.5257896191458651,0.39497455959312056,0.33916660093970075,0.6876657834441406,0.30988778664386696,0.34625730065672217,0.08009206396045175,-1.7065641428543568,-0.050403073082093665,0.35491270765463795,1.0796757061961604,-0.3747206944792978,0.6480889523232474,-0.6348609010938359,-1.6364378261876553,-2.0733658672110287,-0.2910902103756039,0.8554157852582194,0.9706331529619937,-6.921571047394789,1.1565692316654168,0.641630553518679,-0.10926968987931449,0.8460174043868471,-0.2059724908945657,-0.9731085657954592,1.7085417518045065,0.03980752752203259,0.5335152716111884,0.07544281299982489,-0.3152517909943356,-0.5313245198928854,-1.5372305522002025,-0.22927465427931767,-0.511451339935814,0.35615276037221383,0.3322382074425413,0.18953274326107597,-0.23146765434550076,0.5551973790772692,0.40653202844304936,0.5397074394234533,0.05600052292063748,-0.42273991614619966,0.12020626187672807,0.638864932339585,-2.0908657009521163,-1.750811695602241,-0.6685579384793728,-2.232496045480772,-0.343303690167287,-0.2241682739441747,0.25903218743316936,-4.01521163252825,-0.7076441678600559,-1.4216817085174736,-0.4263259026461063,-2.0877245793551498,0.3146874160110324,-0.6248733923875126,-2.599485036419256,-1.7734189273597412,0.8955887702609001,-0.07791329249680602,-0.9782959171718449,5.201385720234166,-0.9984822866056977,-1.2021572665591453,0.05397489023656358,-1.243597973825768,0.25996055323477296,0.12677458566751482,-4.959895332276578,-3.6487257815775496,-0.8500883700065929,-2.905156935544167,-1.5988955387815385,0.22221560723158565,-0.8778942703688196,-0.03798376694666861,748.6609120883187,0.037474155709078534,1883.8518476680229,1.3114736109536986,-0.22229499182889537,0.3295248892530547,6.63078115749568,-0.24423555864366928,-4.052554513407695,679.4326782129425,620.7472910219749,8.968268529944599,0.33212905328622316,2.352924840551769,5.044734019079458,2.1507232859314804,-2.4715947765555626,6.057526919838386,0.23487075246325995,1.2375668958002628,0.3351857745913751,7.108968589942001,-0.4680630443150122,-0.22767336468014787,-1.0849045105924584,1.5964817319089553,-1.4956010761186687,-0.7022890226047812,-0.31066505227875174,-0.7249697203920665,-0.3168875645884134,-0.21477827552680318,0.09592493052550873,0.18699961567479062,0.5750870240217452,0.7771648310593852,-0.9132429048425361,0.6026242905630483,-0.7753652870979616,0.14733342299168156,1.228327116717228,1.4745328177302492,3.893642171526591,-0.4304391548063977,0.10122602381954533,1.9725014356502386,0.7593616493197415,0.2547374274448335,-1.8033402725242582,-0.26441429589765986,0.8120087069897153,-2.112493619040694,0.6848624849455965,-0.47810541272526313,-1.028281414545347,-0.29552606923365693,0.4206103483151167,-0.3245355204337926,-0.811837358035895,0.11469528433405073,2.488506749626618,-0.1907040503312346,-0.8832044929544997,-0.341184580362027,-0.2819484259704944,0.7881162494115224,-0.8361808132756111,-3.2613252886543336,-0.0862733997697408,0.35860468222685554,-0.5784678084723925,-1.6187279635056566,-0.5192527258975348,1.4153533479364708,0.3426931649851175,0.08425635677282278,0.682472516770694,-0.11614271076413792,-0.44439711221018424,-0.5519165228968536,0.018812552966121634,-0.08062986788446684,-0.26093012850612696,-0.4000014576929459,-0.29060876320322526,-0.2677201388750919,0.021669985449706476,0.5489147730032491,-0.9062543391911364,-0.6760687624104963,0.30574263328411283,-0.4011667875004062,0.36011047428081117,1.1799761924394554,-0.3503386221817364,0.3648406755007959,0.13816370380662044,0.18990225756988297,1.3785117179772906,-0.6831129659595478,-0.5023699220832126,-0.7008280841261965,1.0073425974547412,0.5501301176572239,0.11785459089911775,-0.4179811371863347,0.25619735515731334,-0.03218519443745488,-1.707304182037931,-0.13814909205172368,-0.09714057622151061,-1.9889031547269482,0.010924061320645731,-1.568577819838185,1.417640328027974,0.24773027119412336,0.34815844670802554,-1.1921308610437673,0.7127399260711488,-1.8048358789379038,-1.3929159419839958,-4.660929452352701,-8.721243652925565,-212.3533827474223,-3.868741334520063,-2.0630369056254323,1.644243913605289,-2.397996520964497,-1.373327128451387,-6.585378012509056,-6.020832461084307,-88.63653738748836,-0.4904938252245998,1.8234119679320517,0.6857006452510499,0.27346202905153116,5.284509670390676,-0.15932992562849363,-1.6647161747008146,0.8977739650748516,-0.05106391902648474,-2.481486391297785,-0.2946250086346855,-1.0046071817473026,-0.46034254651199147,-10.867062053635074,1.0376544974181399,-1.4058066962027893,-0.16021606571491345,-15.75757879812714,0.09506115736629533,-70.4925431015606,-0.487363111822401,0.3586015285427024,-0.6676154172836445,-1.1364264876138468,-0.20277876618119364,-0.018985486381228076,0.004586537936210229,-0.08917758604932108,-0.44132337175873887,0.3467461500472482,-2.793834291835209,0.02921880867061218,0.07144626100580259,-0.2782438491979106,3.504417987070477,-0.06393905348056174,-2.1975582801648033,5.941151090189626,0.7117836566351984,0.7849739775822778,1.9887865344487279,-1.4374796178355582,0.7148337585376388,-1.3642289850200315,0.3535424967323942,0.2619101664559082,6.237577684535532,0.453338157667618,-0.9916935321083119,0.042994285592584155,4.841872525014452,-0.8579441975684104,73.35216039057708,1.5125231068721394,-0.1236298136508328,0.811083077017836,1.1601113599820598,-0.3407667812787471,0.7614935302060277,0.031061819422795796,0.011219773737038422,0.7502998522228441,4.729272529376093,0.3397298853224582,-2.8724048664197515,-0.5538160122698371
biasActivation=0,1,1
[BASIC:ACTIVATION]
"ActivationSigmoid"
"ActivationSigmoid"
"ActivationLinear"
