encog,BasicNetwork,java,3.0.0,1,1547771788735
[BASIC]
[BASIC:PARAMS]
[BASIC:NETWORK]
beginTraining=0
connectionLimit=0
contextTargetOffset=0,0,0
contextTargetSize=0,0,0
endTraining=2
hasContext=f
inputCount=10
layerCounts=1,30,11
layerFeedCounts=1,29,10
layerContextCount=0,0,0
layerIndex=0,1,31
output=0,0,0,0,0,0,0,0,0,0,0,0,0,0,0,0,0,0,0,0,0,0,0,0,0,0,0,0,0,0,1,0,0,0,0,0,0,0,0,0,0,1
outputCount=1
weightIndex=0,30,349
weights=-0.0734433619508237,-0.5432261952333804,0.44074703464248194,-0.5105651449446437,0.1280689825316093,-0.2070142807433359,-0.5090077515758432,0.11055087364447282,-0.43792304690143136,-0.24884069028327563,-0.2501079903311684,0.14740457440803562,0.1730359808307268,-0.29810717126298225,-0.09805789066581175,0.10329898807249376,-0.5437666177725117,-0.2719219770631435,-0.4257845227891732,-0.5785908673104448,-0.4127031528328618,0.41592028710684115,-0.4870294893372731,-0.30067449056589873,-0.45277098613085875,-0.26501823515148115,-0.11160562233723774,0.10327052517004937,0.12618400248648204,-0.0061629548940172205,-0.05215807840967949,-0.671136562716081,0.08646070810373244,-0.2540660263223396,-0.9704071847509941,0.18330213544932855,-0.8225972039391586,3.269549820401098,0.467763422421846,-0.8750235393370746,0.44293291644329486,-0.6815870483851091,-1.447276764928537,-0.30149183526666123,-0.16934458531393126,0.4085469076119007,-0.5920669322597841,-0.18238134218859003,-2.9627185928007846,-0.2461329977529818,0.4405180040587304,0.5462351041859571,-0.5712020049009265,-0.20117435951897253,0.5727079424155476,0.42401024514066715,3.688965960630285,-0.21410147663383328,0.1793598689039775,-1.5523891127969112,-0.2746702181482516,1.1354176968887433,-1.5293785552667274,-0.612436587861319,-0.09892715213598428,-0.42715583646656186,0.13585739864317664,-0.3487936677944547,-0.032713571175940884,-0.24445448906479986,-0.22171139187456443,-0.6578683663190937,0.3425186057599578,0.33927005219953416,0.6768016668638912,0.31419660956877976,0.3166790478030647,0.027615183116592484,-1.209568015352162,0.06892785336973115,0.16174716343005585,0.397122709985426,-0.13617540411121679,0.4098524173555623,-0.6120017703110643,-0.48414901820449524,0.4716976019921632,-0.4118744340132804,-0.003262123848096863,0.06046040194434068,-2.3125761207338966,-0.292026292491952,-0.16275653124818373,-0.11970424617279754,0.3245108462763615,-0.2006559773189068,-0.7059368840501924,0.15804859276502217,0.06449207977344004,0.17535189741448015,0.0824714168330374,0.051952061339511024,-0.41853721861972787,-0.7890786477320128,-0.22811554579046414,-0.0409473205207752,0.3558835474042766,0.3600368626565141,0.18945623043557186,-0.2282597216798688,0.457060880965625,0.15126943062499093,0.3106422286912317,0.2794233819711155,-0.41735172958804495,0.12014454516539078,0.7333749277729877,-1.9644421887694603,-0.635863529945677,-0.2832224412148021,-0.5708501502489542,0.04270878456520557,-0.22426596468226195,0.1800680769089392,-0.7259128502627155,-0.27796097890890753,-1.3957740933266485,-0.12436098094604284,-0.21414853714461277,0.02670407999204378,-0.2575033931311842,-0.9019513725412843,-0.9818277182460977,0.048662960838858516,-0.30582508182939305,-0.9168507013187838,0.22502968209455304,-0.5471337442956488,-0.30682461635900166,0.08022642696191952,-0.8847336468961107,-0.07085603381926242,0.14778730814592736,-2.5922333292035837,-2.0634575036431455,-0.8055690317990113,-1.567363643670809,-0.42428970016796885,0.0987461185402031,0.00018120646312568282,-0.03763440342126319,8.177320924118417,-0.13076072410955072,2.9801866367978405,0.8188859193201086,-0.2201160723210948,0.025753691156490843,1.379471126011499,-0.25301161584348303,0.9651815006038411,0.07092986035198832,0.37564783176213534,0.9837167456529036,0.3613689156327876,0.3342693203426486,-0.07604874561353098,0.42241460912612205,0.4055137000514899,0.5655115717490737,0.14043618596978483,-0.14158869306359242,0.05094980324510589,-0.3016846012627798,-0.35253267016358225,-0.22751112224187853,-0.7535835419151913,0.4936667106224111,-0.7476053180549809,-1.5731182410674895,-0.2560365908783246,-0.5943688690289451,-0.3136137213974413,0.6006186553183985,0.09934001365502149,0.2388824797391959,0.5328963219097638,0.47020918787929744,0.01302250426404213,0.4633354428447333,-0.5237788749363816,0.05782726937581885,1.1930919024653137,0.2883311033004162,1.9721110182673618,0.18014225326414146,0.08313424320802305,-0.06630361802751543,0.5047704239511073,0.5378875922186679,-1.0380196404564719,0.2160860381661274,0.6215583548588457,-0.2977906698053754,0.4416207423960485,-0.23497436091692106,-1.0285637574704538,-0.3379636900584112,0.23110308056355783,-0.2804916521888005,-0.744514534007818,0.15485402665581738,0.4834379290546156,-0.11806569647976783,-0.03040218108564984,-0.20396946222314932,-0.19974511242655144,0.7715386990128411,-0.8300955312436173,-2.269562073266779,-0.012809460519491866,0.11392901758552393,-0.08774503464890918,-0.39296924543169376,-0.22290338656116976,0.4787010829148523,0.047522833861003214,-0.20717167122088864,0.6789948892867788,-0.10321540698602195,-0.4443232259565802,-0.5496015032907666,0.02554574268952385,0.24482323811075718,-0.1665456930685466,-0.4001899401350618,-0.31839014924901954,-0.24603993434010196,0.018286695134693758,0.5487366013171464,-0.7239526064853327,-0.41366942583260374,0.3054072653260343,-0.4015844436210104,0.2602339706349689,0.4355986232443278,-0.35164843235133314,0.38851251713526547,0.13536083412682484,-0.025935249045036576,1.3419462490726906,-0.03881469932720114,-0.05445908811860922,-0.5283942766061392,0.16945231390665932,0.5847693132585994,0.18548961415637355,-0.41805276772360744,0.256399114223816,-0.20776963281832467,-1.2102255769073076,-0.13781257721352674,-0.09980092088071885,-2.022813113432693,0.004151946443114986,-1.7171181055170135,1.0446593774348878,0.15035137193291553,0.4146485957627176,-0.5477738858928678,0.6906837949247987,-2.1986744958879147,-1.3937955562635056,-2.043428790477165,-2.592183547562959,-4.6348825011073504,-1.161981788066256,-0.14577610386811365,0.20982543998535155,-1.325601876159004,-0.3744361550909106,-4.6065327443515685,-0.112497635281151,-1.1716980416664755,-0.4920248220136135,1.4642519642146636,0.28656970683054084,0.05889864686879897,3.9696777537409242,-0.22832550830880144,-0.9619692453200771,0.8929989340112094,-0.2170803602954488,-1.7553818508248702,-0.29851941110590857,-0.46969485326849963,-0.3215757589584509,-0.5650277474370493,0.13246116302874303,-0.10392062817607685,-0.12579130156118487,-0.3009947021659604,0.43740994976418174,-3.3111884416095707,-0.026542207796968083,0.35890515434095743,-0.6595159640126317,-0.3442785296651636,-0.11601898586424023,0.02925655130207859,0.003337165382138605,-0.07097557844027585,-0.4120150570833738,0.34691815737264764,-0.16570259850185678,-0.28443841084440824,0.0718033666400049,0.1553699979702287,0.8413577670409962,-0.19553540978778802,-1.056296002968728,3.159325723960301,0.2657261557163114,-0.005651295926523985,2.3861679293199636,-1.0346871778758986,0.9959032516595274,-0.3456217195423712,0.037621050050733365,0.36503029676223736,0.5568059576760395,0.33217934382068054,0.10831455829577598,0.48049502389388504,0.22261381611670542,-0.43872317793778975,0.15408136637120634,-0.2533038428788894,-0.12411750869714293,0.6263472441834689,0.21231537236768727,-0.13710008079162536,0.3108068229406867,0.06979124832058592,-0.0212562613303886,0.21996078061984473,-0.4293657381937853,0.33463171040626954,-0.4812057762690964,-0.5538664779056088
biasActivation=0,1,1
[BASIC:ACTIVATION]
"ActivationSigmoid"
"ActivationSigmoid"
"ActivationLinear"
