encog,BasicNetwork,java,3.0.0,1,1547771806934
[BASIC]
[BASIC:PARAMS]
[BASIC:NETWORK]
beginTraining=0
connectionLimit=0
contextTargetOffset=0,0,0
contextTargetSize=0,0,0
endTraining=2
hasContext=f
inputCount=10
layerCounts=1,30,11
layerFeedCounts=1,29,10
layerContextCount=0,0,0
layerIndex=0,1,31
output=0,0,0,0,0,0,0,0,0,0,0,0,0,0,0,0,0,0,0,0,0,0,0,0,0,0,0,0,0,0,1,0,0,0,0,0,0,0,0,0,0,1
outputCount=1
weightIndex=0,30,349
weights=-0.1219359356096211,-0.5661809551374453,0.5135970141128514,-0.4935760332295114,0.12886890851478477,-0.20626640912500857,-0.5093881498551228,0.4770785156328189,-0.5003281686933785,-0.2491083832244218,-0.3278098613545994,0.14502749953757274,0.17308522902272688,-0.3041010901151126,-0.09892484970844484,0.10347871856284538,-0.5437346275005112,-0.27341511030669713,-0.42603046543523093,-0.6046894012560791,-0.4123285175649468,0.6251984845833292,-0.47010122948914895,-0.3313605732347158,-0.4527397736155726,-0.2638293250537962,-0.40827160586219424,0.10332592696204948,0.12623432427848214,-0.006107458702017217,-0.049390479316684145,-0.6766781375985027,0.7782843263841357,-0.23502812481759067,-2.2625839779060346,0.09708313031361532,-0.7948919336370891,3.6680105565160357,1.0469367910914924,-1.6621365951334126,0.4467904159780711,-0.7996104061765136,-2.1356440624657935,-0.29978398192090167,-0.17456538385459736,0.9805634177410022,-0.6352870088005838,-0.15362273548718522,-3.19372435620182,-0.24656375053690538,0.6698285649882175,0.5461724706696578,-0.5295198282735731,-0.2011568131509725,0.5511215786978512,0.18357261257708973,3.688241730327259,-0.4618566646761237,0.17949365255108113,-1.1441908874055886,-0.31742968402866545,1.1264513999081573,-1.7226641086427452,-0.5947880675399908,-0.09896163592441365,-0.4306396008619885,0.13691639094973646,-0.8611293311125421,-0.03273414269594088,-0.24853808549509807,-0.24020421305929518,-0.6586212907428504,0.35240996507522027,0.3392494025995344,0.6768433967332366,0.3119143584849435,0.31050975110438045,0.005725247088891099,-1.2776926551538355,0.09988835368206979,0.1697584066722622,0.4041315907982825,-0.37696741052760147,0.6423697904765797,-0.6343910364984592,-1.6355021651746273,0.4138817372164429,-0.843593372822753,0.035095010771589545,0.08881885139943099,-6.889938108927601,0.8168319541487681,-0.16250745966941726,0.11507870702732272,0.32399341117766106,-0.20388065131173438,-0.7637358959683691,0.19748463890536164,0.06425715914637585,0.17154551233561066,0.08235893105376138,-0.00494144658812614,-0.41832336432512246,-1.5317121142760657,-0.22884020703112118,-0.04094555004971347,0.3558799837643508,0.3599798273270298,0.18950315259558362,-0.229327097872082,0.5549610922506648,0.1511355160847963,0.4569016811697668,0.276920166338542,-0.4226245014647213,0.120271558190162,0.740749039962309,-2.087231612614338,-0.6320711784128576,-0.1799648051039543,-0.7581567366131994,0.04152574745144955,-0.2243855353891472,0.18816052014424775,-0.9415624392857546,-0.31818261365019707,-1.4200752517525308,0.19204620332784592,-0.21421289536990104,0.21530684647986487,-0.25772285396919226,-2.079271483167526,-0.7618139666521103,0.7206400810851469,-0.07386078933003405,-0.916700125584197,3.0806201362728856,-1.013394872209591,-0.30649283957612683,0.08027512387289833,-1.2024880747599804,0.16217279177662797,0.14778553833565697,-3.357754701741938,-3.0954346246727797,-0.8207372178881603,-2.150080364914721,-1.030026373665494,0.1574586971684481,-0.5093492381975292,-0.037726627551938854,77.73318547054039,0.010865023946819121,30.561839637279263,1.3582801297909084,-0.22012000490866798,0.026436630895209656,5.249231322554524,-0.24546528577882257,3.0920582116945936,6.716165465564226,15.602732215489453,0.9829442652650046,0.36304858026045406,0.33433209700418187,-0.0979346799563237,0.5867050695944802,0.40553885063324974,0.5659192521633843,0.19718732257711752,-0.10873514510409882,0.05117064290902077,-0.30153745036099544,-0.35257164154842424,-0.22794987736054356,-0.8344210882285964,0.8649060891897351,-0.956589654503152,-1.0907067999744866,-0.25832524008044344,-0.7050887029546401,-0.31371394187334367,0.583576873590221,0.09922851644829511,0.23825635423515706,0.517310579705291,0.4677429503692429,-0.12129001276367458,1.3584009672980635,-0.5203281322663266,0.05936379523868281,1.1162236769331315,1.1303000866704416,3.8621247340228257,0.16000421822598712,0.0834877016829506,0.7043809369392888,0.6683526398389251,0.6067450754136021,-0.7617889423678655,0.21592483846642788,0.6216445605914528,-0.28210904103657325,0.4438343496593961,-0.23452011568897002,-1.028536482593714,-0.3377592468316124,0.23230315616406125,-0.2835982524259713,-0.7455827863253839,0.15393011825922034,1.722455699231966,-0.11817957403553168,-0.9055164689645095,-0.2037433178169869,-0.2602747293460938,0.7783544080242507,-0.8293446991373186,-3.1539712779174267,-0.012790957799491869,0.14025457589918752,-0.08783714440867649,-1.7340284514750455,-0.20651286365387667,1.3880916797717198,0.048522836863659505,-0.20539689508254588,0.6822815969484093,-0.10326360685802206,-0.4443670071146094,-0.5511289610851267,0.025466887383897956,0.21818004350350892,-0.1665669775680026,-0.4001040558581097,-0.2546835041681148,-0.27287790734804535,0.01843942826196122,0.549008070856864,-0.8555312834724494,-0.668032871429381,0.3053555609550229,-0.4012624689865201,0.2603925085816888,0.4277790208753598,-0.3502098811988983,0.3890764341830057,0.13529336055369548,-0.02559740158252874,1.3784944772401122,-0.04432287841435953,-0.08877529261240846,-0.6151994049005203,0.1696787798379051,0.5570639008572678,0.11805574909993083,-0.4180626094929625,0.25641283040140495,-0.19362509322400676,-0.9774214746490857,-0.13786576735752681,-0.0995759478624117,-1.9889922042229151,0.00904313386575988,-1.5921665446383004,1.4122558141977002,0.24636713199237747,0.3943638104709146,-0.9741566797822332,0.7123622755720864,-2.1776509007296774,-1.3936726073633992,-3.309681786037668,-5.271083289135348,-8.367315193749336,-1.9294687569209035,-0.14560065695651114,0.21087165452496662,-1.3549080288268183,-0.3742928033634888,-6.54219549115901,-0.964635960839217,-2.897534710137243,-0.4920103400936136,1.7055414728967873,0.2899347218151629,0.05906234410675626,4.5018109529537895,-0.38404492537604346,-1.0017786925474592,0.8929318321547064,-0.19153071805352853,-2.030697202341057,-0.29847295603642116,-0.46975473282882857,-0.3258532360304482,-0.7228951689796264,0.13352562044148522,-0.1038755468964864,-0.12534004040502483,-0.874113139979245,0.43779699805440714,-3.3816995267392715,0.044079496747518654,0.3588319203349519,-0.6594821863805651,-0.3471509077529366,-0.11620512403397606,0.029248698911320918,0.004248290817791719,-0.07171615038871865,-0.4120105220707516,0.3468923057551302,-0.16577492215908618,-0.28335740474624727,0.07177308836800485,0.13820078547406184,2.2065877747109885,-0.19595492315109037,-1.714432326149139,5.6122532561265395,0.4922503841732971,0.517583504238552,2.1714129505830226,-1.6241455715295645,0.6862277636767816,-0.34686939131310895,0.1932897236161791,0.3732563269868897,0.5601945656449603,0.33213276645270207,0.03247053693417038,0.48049183118988514,0.22302581744982408,-0.4323305670279888,0.23960436545768637,-0.15806553118969288,-0.12405081465740103,0.6264650690543706,0.2127139989877876,-0.13710788879162536,0.30518595381287594,0.06954308816615637,0.29876122808020744,0.17244798679369674,-0.42228131663456653,0.3380020423839711,-0.4798555799016942,-0.5539481184805841
biasActivation=0,1,1
[BASIC:ACTIVATION]
"ActivationSigmoid"
"ActivationSigmoid"
"ActivationLinear"
