encog,BasicNetwork,java,3.0.0,1,1547771248982
[BASIC]
[BASIC:PARAMS]
[BASIC:NETWORK]
beginTraining=0
connectionLimit=0
contextTargetOffset=0,0,0
contextTargetSize=0,0,0
endTraining=2
hasContext=f
inputCount=10
layerCounts=1,30,11
layerFeedCounts=1,29,10
layerContextCount=0,0,0
layerIndex=0,1,31
output=0,0,0,0,0,0,0,0,0,0,0,0,0,0,0,0,0,0,0,0,0,0,0,0,0,0,0,0,0,0,1,0,0,0,0,0,0,0,0,0,0,1
outputCount=1
weightIndex=0,30,349
weights=0.18067459121097323,0.3960816831703281,0.5732585057919274,0.4599060086461704,0.2409549007185278,0.45221489362336603,0.443776074777772,-0.30834255092431956,0.6924086547929059,0.2595841557614068,0.4555316093461913,0.3930567540581264,-0.5169095946511485,-0.3803027454709255,-0.2498040661555899,0.377785513867397,0.19816221328172215,0.2325469093226249,0.6948437369674187,-0.263522830126995,-0.36817018564433973,-0.35070563461061893,0.5360097657377199,0.2793439607729748,-0.3086486247019326,-0.23241078345656976,0.2488983468880183,0.2974522613636315,-0.7340549601848968,-0.4465101766582018,4.22106114976619,9.497560143537033,1.4183435710043135,0.008106374864480063,-0.11634018474020404,-1.4180992335732987,0.19050016226404393,4.62181986747517,-0.32842461501560893,1.6583555682006905,0.5251239894421091,0.8091075876935447,0.5238451367729647,-0.4544288804770675,0.129342626858139,-0.3399250487412319,1.22308624781325,-0.42407669516770213,-0.13593296303862135,0.02965867895398026,0.00975153869471209,-0.3423572566091652,-0.048389965438625636,0.07180760277438576,0.045768992403123696,0.062378002141306725,-0.1969939035867535,-3.6985461551417056,0.09608818992192725,-0.03495470955201102,0.10955474988882741,0.05714964221674786,3.1420509602458093,0.4545581245128813,0.0747059236559742,-0.040162779880002275,1.1991427783107327,-0.3710046360248653,-0.31935826994220984,-0.158289982147796,-0.5671728047783618,1.363709236917244,-0.25389863192527207,0.5481984067013833,-0.22401517072195085,1.3399584206370638,-0.33192670303968297,-1.0495782104728821,-0.09652033958055597,-1.3550862616035975,0.11853452609828448,0.7051466602382264,-0.39514518829448064,0.5219830105513412,-0.4919193463111523,0.29085785864979374,0.3193947839556643,-0.34374976807104446,0.153861484570702,-0.14893578615119976,-0.5040530938682953,-0.2788548877263146,-0.22644991644692863,0.32745282138977416,0.2151403621506835,-0.9291165943265044,0.1841615161726589,0.5390315769922404,0.3516177810181175,-0.011876791686514142,-0.01916467870899281,-0.1562252840084097,-1.4905644818680996,0.5471642610062599,-0.1777699821904261,-0.14799102711287185,-0.514285932265212,0.04230520608311908,0.7155787655022674,-0.3507798915758565,0.05956715850055834,-0.2534556657107941,1.004653441220236,-0.25085255559850467,-0.9805291221695978,0.7233056120103912,-0.2468073701818732,0.9013703975628019,-0.05429580448464841,-0.4082830026976156,0.11081305397164375,0.5446528199110573,-0.24675169943817504,0.0833434160051592,-0.23341531549049907,-0.13914332246161493,0.5629664770906933,-0.05315027851034144,-2.200480206529157,0.7218292500431879,1.1451714320836188,-0.16420826047570553,-0.45738810089503484,-0.3226106431929668,-0.24807505682951903,0.13331229415237678,-1.5639402377335716,-0.4634427077528357,0.46159518522951815,-0.6054276577228903,0.26109901013870684,0.18552244714828484,0.421219711812319,0.33809012904583396,-0.21758374291193414,0.05748373177129959,-0.01816787956028447,0.2059418063678066,-0.5280959337070873,0.22028677658762782,-0.9155010772505695,-0.07623351331925385,-0.5343093915328085,0.7481987920017403,-0.21985168460039622,0.5460158122818095,-0.6573138468148026,-0.02102312233430273,0.1785405063489591,0.09265742550750844,0.3274381144632286,-1.5694871641537709,0.34737771264286244,0.07287218912136635,0.3349205533020306,-0.15457611806580185,-0.10375717412412443,-0.01099781077055528,-0.4973215825982819,0.40820085552477375,0.13365657274703396,0.1643101373276715,1.0173926590625995,-0.32927253213827,1.4236578300982494,0.5695925479635093,1.1576189721665247,-1.1204816569750402,-0.22163710595439118,-0.21711935635823765,0.4207910375079918,-1.1025142424025751,-0.1161952830874285,0.8416097824902857,-0.1600893262371776,1.0547255668503526,-0.15491417056927276,-0.5717934583251748,1.5490113698786558,-0.3129744030232567,-0.33035111383714677,2.496172798574817,-0.20408611897690443,-0.8781063266428808,-1.18372884369505,0.38744113815063197,0.26895086975044574,-0.12757953489517845,-0.2096945797541293,0.03673556276773818,0.15444591241433486,0.1902656968378659,0.16704973367706966,0.15163867568202818,-0.1535562197886288,-0.6712392746196004,0.2303717828680611,0.6067814015140449,3.351586606020727,-1.2944478492875502,0.5470179325114684,0.7888368691316695,-0.657040871749415,4.8693043121494775,0.9550481471865465,-2.4623098727709123,0.6112503296567453,0.8808015843396886,-1.9722838383912056,-0.3045268900554327,0.3608002865016606,-3.497656771825468,0.900860759288698,-1.938488141845932,-0.13675337840182955,-0.293342363994472,1.6465614095032857,-0.24639538629505964,-0.13337096182523944,0.09382616986945429,-0.0633932896975493,-0.7075661134992025,0.141711630295692,0.5151778621981475,0.17143653726453756,0.35514915031240235,0.16750244418446536,0.17524205633653225,-0.8843330436256124,0.2965045297581613,-2.1935450760825166,-0.6582132125196795,0.04466900724227216,0.15293656314161966,-2.818976122065548,1.0275841145370288,1.1382967039546636,2.126118052324845,0.5140963085584518,-0.03155702881305418,-0.3713189950693098,-0.4788894269821093,-0.8156979752363737,0.7614472032074693,0.060502053537335766,0.02568118977471926,-0.35663080380893775,0.25648771759761685,-1.158545520606583,0.2971176723383982,-0.2658989247104201,-0.2875037241684333,-0.16694743084716246,-0.9915632658584667,1.5226422349722795,-0.13003325259403173,0.07196924831497993,-0.10856312519779422,0.015674283290728872,0.2822813207161856,1.599229142573908,2.5156076118608746,-0.3099162311476589,-0.4132651735593092,0.26488788017774595,0.45833228357023814,0.5795911563997099,-0.1856344044132217,0.39577154376433105,-0.06001897768165366,-0.22542445386741755,-0.2628161873543876,0.43674727009467096,0.08941935610743211,-0.4073047376572509,0.08735235325288196,-1.0716689676967275,-0.8628124357238335,0.0012389352849295303,-0.740499912071974,1.0833423396650839,0.5642650114246724,1.6017124608067308,-0.30632653268264615,-0.63575023728872,2.078502348830874,-0.2152088467985578,0.3539991349518954,-1.269785080218358,-0.5396333503096595,-0.9505225541258484,-0.6942663122250388,-0.9421955457790173,0.2732848227235527,0.09106615434287546,0.2800218399601992,-0.021044695975597664,0.45320213836749956,0.31061032588872783,-3.181412540762759,-0.3491310320123573,-1.541936862266093,-0.4333657702155354,-0.3185733833678743,-0.9094485793206939,0.1991126300135598,-2.201134276038791,-0.916446261858266,0.07093603146523193,17.929441215988195,1.8103942232483596,-6.923973380379421,0.3216947764713872,-0.4728249831366329,-0.8580367550106303,0.09895093825109687,-0.9886834462706513,0.020173316701322743,-0.20846195466524642,0.8632766821464193,0.34766083280000043,-0.3275977331548651,3.8302248913669605,0.5938234328827922,-0.1726342889681392,-0.3959385883706588,-0.7344144765687692,-0.5764872633293866,-0.29534203824733934,-0.32471193015777366,0.23280417143396834,-0.3879968780199928,0.040644125436712475,-0.20270080330610862,-0.5381783737379108,-0.038168577786815545,0.0627915777733097,0.04600890792170746,1.1735695731747633
biasActivation=0,1,1
[BASIC:ACTIVATION]
"ActivationSigmoid"
"ActivationTANH"
"ActivationLinear"
