encog,BasicNetwork,java,3.0.0,1,1547771261796
[BASIC]
[BASIC:PARAMS]
[BASIC:NETWORK]
beginTraining=0
connectionLimit=0
contextTargetOffset=0,0,0
contextTargetSize=0,0,0
endTraining=2
hasContext=f
inputCount=10
layerCounts=1,30,11
layerFeedCounts=1,29,10
layerContextCount=0,0,0
layerIndex=0,1,31
output=0,0,0,0,0,0,0,0,0,0,0,0,0,0,0,0,0,0,0,0,0,0,0,0,0,0,0,0,0,0,1,0,0,0,0,0,0,0,0,0,0,1
outputCount=1
weightIndex=0,30,349
weights=0.1817642253864105,0.40316223801637036,0.5913027296135963,0.497460215542828,0.24092456814907234,0.4522352715433659,0.44378200224017206,-0.3101938944284514,0.7063890079242585,0.2741956835957122,0.4671247244656633,0.3938016408226087,-0.5735999532878552,-0.3898424307403655,-0.24901799456893206,0.377776630564997,0.21129771613663645,0.2326747205072868,0.755011400721177,-0.2635908230679852,-0.3683552078057865,-0.36501285557081325,0.5514133094222814,0.2793859312272978,-0.31827990904284514,-0.2324286323141698,0.2489001068880183,0.29990947085456454,-0.7340157543963445,-0.44648247319580203,4.467684945695651,10.104794328953849,1.5255922785036482,0.026670063212705607,-0.11817058235428486,-1.5129015264170063,0.17713891100218004,4.962543041996266,-0.33022628965736545,1.7917239490278778,0.5277641753017686,0.809124987342607,0.523641819195824,-0.45531561575909324,0.12844696724793653,-0.3399796889216196,1.2503355348851588,-0.4388083870329275,-0.13586793283148763,0.029706358795010056,0.0011965647074683608,-0.3427260960410319,-0.0483033032549617,0.07214121478357087,0.04565664956393197,0.05766705559283951,-0.17311243203947294,-3.7390725549032133,0.10573694709622819,-0.03349283487902047,0.09811868323660855,0.05010936695519016,3.1792996376304674,0.45457091401688127,0.07480381781977796,-0.03989846815144117,1.281202119523922,-0.43095923316069606,-0.3802040746177675,-0.2071512530314098,-0.5672200895905477,1.3797423514733005,-0.23553565374267346,0.7386799656769628,-0.23950438657901466,1.7360764487349785,-0.4554008917854874,-0.8898198205791592,-0.27446573572698757,-1.532963467788568,0.06602133250113254,0.7303178206745431,-0.44831204325492247,0.7572351457024191,-0.49205456345861215,0.2953767895021671,0.3194453299606561,-0.34377684697280436,0.153868370522702,-0.14099701556749067,-0.545924783535209,-0.2788427951684732,-0.22677511370925205,0.3335921183063258,0.21515084535068352,-0.9291170343265044,0.18420004477477095,0.5704259158333982,0.35167713328696726,-0.02903504403474414,0.012133297208292003,-0.15179538721341176,-1.4906435376564138,0.48391099965378936,-0.1816219383192549,-0.166806345221404,-0.5142068764768983,0.04226467748100708,0.7370197478459474,-0.34924324869536927,0.04523648420962776,-0.264162842656952,1.0221672343576886,-0.25464763012523894,-0.9819794981330993,0.7366404001289765,-0.24460535774142056,0.9022062748943056,-0.03828773813408585,-0.42596259080579724,0.11048173424172937,0.6254871125582309,-0.29454908714228856,0.07707011607937883,-0.2570355101729196,-0.1478381062058495,0.5850877524485218,-0.04292350430503502,-2.3221649632724066,0.7288835153227149,1.171768281282743,-0.1642167478357055,-0.45733699945296136,-0.3465424971444904,-0.19473942168563593,0.13319553329016867,-1.5640961553694286,-0.4702845246192206,0.45844675926007294,-0.605464726601124,0.2608083025537597,0.18559137622778504,0.444787970873672,0.337968374073682,-0.21759818710521414,0.05762915409366031,-0.018277438502492506,0.21660668298516053,-0.5304248150254406,0.23630392508073844,-0.9155381461288032,-0.07923675311830444,-0.5581929065594577,0.7543816865726636,-0.2264872112953718,0.589869013333154,-0.6599266836631875,0.0037046951348217376,0.17820978858805894,0.07196887970609724,0.32749545623590876,-1.5694466355516592,0.34741342610349596,0.07219507399695724,0.32449223428594576,-0.15469119453098304,-0.11836388310270043,-0.011721752600052784,-0.49719124398058956,0.40966470502092395,0.1401051084903002,0.15663021920350292,1.1244134399072274,-0.3204653569108095,1.448061761925976,0.5687271745158663,1.1576950331345848,-1.11911521459116,-0.23770446105770549,-0.21717053348501358,0.42095904633810427,-1.1120573296365195,-0.11209528125306498,0.8416050205702856,-0.1402037986927782,1.0864680571986893,-0.15488244174751273,-0.6068312041862004,1.5625066211949643,-0.3124482208079192,-0.3303498328272886,2.4963033186809542,-0.21737909722408857,-0.879533509503046,-1.1836876328750563,0.387380881943005,0.2689707267104455,-0.12759562545517847,-0.2096706107941293,0.017125368878561413,0.15630321608022102,0.19022028425771867,0.16710757623159994,0.15223637290722522,-0.15353540826862877,-0.6711858584274184,0.26797675826371936,0.6587487661204509,3.5202945200621114,-1.3638395801229073,0.5876838637030455,0.8563883455183123,-0.6924609037711115,5.095330224683438,0.9989595803049292,-2.5912256238421483,0.6112516016567454,0.881949996135046,-1.9845389529212984,-0.3061807311260183,0.36077384865820467,-3.6120466905020905,0.918551712052605,-1.9876821947200214,-0.1302422624873225,-0.29340451853775407,1.6762067040051738,-0.25981189505311114,-0.13340118870523945,0.12925014475970958,-0.058187603208962664,-0.7807230467897368,0.1625230872992578,0.5149086357667005,0.1714555809125376,0.3881279610575326,0.167675296993229,0.1832483182843098,-0.8843346100256124,0.2980327534880033,-2.1935724941040977,-0.6684258069357824,0.05050021515258507,0.152824585721145,-2.8582804778260527,1.0536667723916806,1.168202379459172,2.145367427721767,0.4994303062450351,-0.031539611853054185,-0.3158930375409697,-0.4319515958089291,-0.8115966009051713,0.7640879738126365,0.049451218430678345,0.02601207754127946,-0.37769790397978675,0.21091624684538507,-1.1585044808734912,0.30548500095541736,-0.32804914390622947,-0.28748630720843343,-0.16379726361672442,-1.0167416154155757,1.507315173859616,-0.12611309641013885,0.08033009934489638,-0.13038067229901396,0.016548614408140712,0.28231030567182586,1.6601533115791154,2.6273821726933035,-0.31030114162054534,-0.49812734410333803,0.23071983688072226,0.4858546804914542,0.5795134257564822,-0.185647821777365,0.39435329068639197,-0.059923893156314224,-0.20480673679944422,-0.28529636982753076,0.5310934283330787,0.08952512822284144,-0.37325687076424907,0.08732899607656192,-1.0926494919493375,-0.8715258446802256,0.001718782361188531,-0.7525877766325072,1.043314012623148,0.5652958374147066,1.6016946861689594,-0.3063867888902731,-0.6357013775087264,2.0786263386748423,-0.21514308976382004,0.35985333788926155,-1.2693595230675934,-0.5432589792594736,-0.9537744632687274,-0.6952595161494399,-0.9421933740610874,0.2663436343450519,0.09105670794287543,0.29668768962687486,0.023036950964760907,0.4534199501695725,0.30817625494226947,-3.3602238316397854,-0.3488387581569283,-1.6548797910601594,-0.49639265570434393,-0.2745931121020303,-0.9338843220528558,0.1990991084135598,-2.397985445488986,-1.1140340679906804,0.09533606368323062,18.81984270159153,1.9791945429794757,-7.105539464166854,0.2248782385819294,-0.263328533882757,-0.9644073781667768,0.12151036667748537,-0.5590631580204412,0.02012713913921075,-0.20873055036900695,0.8632446913691962,0.3700926033426546,-0.3342722274314705,3.91417156351678,0.5933637287548734,-0.19189078856779096,-0.38172746300363014,-0.7344767270677326,-0.594489163000503,-0.302752092904378,-0.3249824302658923,0.23241217428559405,-0.38793664319595705,0.03655576339833222,-0.2264147159140213,-0.5381248534444204,-0.01588507856172169,0.06364813366439122,0.06337203917306995,1.1735376670919642
biasActivation=0,1,1
[BASIC:ACTIVATION]
"ActivationSigmoid"
"ActivationTANH"
"ActivationLinear"
