encog,BasicNetwork,java,3.0.0,1,1547771866853
[BASIC]
[BASIC:PARAMS]
[BASIC:NETWORK]
beginTraining=0
connectionLimit=0
contextTargetOffset=0,0,0
contextTargetSize=0,0,0
endTraining=2
hasContext=f
inputCount=10
layerCounts=1,30,11
layerFeedCounts=1,29,10
layerContextCount=0,0,0
layerIndex=0,1,31
output=0,0,0,0,0,0,0,0,0,0,0,0,0,0,0,0,0,0,0,0,0,0,0,0,0,0,0,0,0,0,1,0,0,0,0,0,0,0,0,0,0,1
outputCount=1
weightIndex=0,30,349
weights=-0.17004625395917813,-0.5954499277777031,0.6552183349446372,-0.48829415128663056,0.34951954622901704,-0.49186285294625964,-0.5113953663658899,0.9809477806861562,-0.598488652738125,-0.29455402455206353,-0.3979256100117628,-0.14639999477039897,0.19100429041954026,-0.304207338434264,-0.3231479528608657,0.3191305797239711,-0.5440521791825725,-0.28159256957290785,-0.42601193913467666,-0.6043741252678289,-0.2767459287427499,0.6572818177080276,-0.44334034655407845,-0.3584310062453315,-0.4525920952696732,-0.21886702841268893,-0.5698480189319334,0.1699746260603942,0.3221232489294185,-0.005920787098456929,0.5403580915822138,-0.7016534605541312,0.8749923544512367,-0.9540513617042446,-2.5436245639503183,0.09761321443164962,-1.0358619197800867,3.9444406598002026,1.1422843802178348,-1.7234271766411373,0.4469384710789429,-0.8124502006923635,-2.26109797625146,-0.3154699855276725,-0.1864757736216288,0.9629535782651484,-0.7541310187289914,-0.1232598238082187,-3.452653737480351,-0.31396293998706687,0.7024420523377337,0.5461866130613413,-0.44327206175973016,-0.40824832400608313,0.9287756359291195,-0.13627136292850578,3.6877094674928634,-1.104961193695031,0.18061723816613262,-0.8396153964714556,-0.274173424332481,1.2055701321247827,-1.7268156412765605,-0.6027608588485505,-0.09902554282109957,-0.4312485641838185,0.32627633415049057,-1.2236541633023474,-0.20545747310828488,-0.3080087936488439,-0.24013913525347477,-0.526181758514669,0.3949835548102009,0.33916767453970076,0.6876677834441407,0.3098623367167299,0.34624785720584217,0.08056646667700347,-1.706559502854357,-0.04792257460788545,0.3549226375746379,1.0786264261033771,-0.37471076455929786,0.6480823263392473,-0.6348616290938358,-1.6366278615273455,-2.0737181449926614,-0.2912040462947375,0.8547564575057178,0.9704445014839393,-6.921575687394789,1.156549404097696,0.6415847309541319,-0.109672967309435,0.8460240303708472,-0.20648641403397522,-0.9731078377954593,1.7088149150467815,0.039878470566680105,0.4961066594301122,0.08731002566820269,-0.31480134633083673,-0.5313269096795749,-1.537239212257833,-0.2292845841993177,-0.5026753457086385,0.3561640925132698,0.33394850082019856,0.18953995997576809,-0.23092035256719295,0.5552041622580692,0.40647255066047505,0.5397349329621818,0.060817242736241346,-0.42265999081955863,0.12021619179672809,0.6388583063555849,-2.090687255417599,-1.7507395370346246,-0.6704568024065771,-2.2323056157498002,-0.418869381021336,-0.22417317029438272,0.21733233438742497,-4.020680360638599,-0.7530039862985304,-1.4216916384374734,-0.41353551847103454,-1.9988904181932727,0.3148324389858895,-0.6249040716828749,-2.563138717882638,-1.7806357239863009,0.8947351311494242,-0.07708786878423458,-0.9783058470918451,5.200726392481664,-0.9984922165256979,-1.2021501478291767,0.054242091807847746,-1.243597245825768,0.25909926904233954,0.12678402911839481,-4.959866511160201,-3.649891498370861,-0.8500887967427095,-2.905236426255068,-1.606039374387258,0.21674687912123716,-0.77321687298336,-0.03797716460426861,748.8521044868118,0.03747488370907853,1883.8526544852514,1.377719676959995,-0.22051201258385877,0.1952407917667932,6.628882293568477,-0.2442528787589304,-4.0979143318461695,679.7715157863934,620.7572166223558,8.966343837985498,0.3368876008733481,2.3529246943833524,5.053032542145427,2.1438288579663785,-2.4698551080864,6.081537016796292,0.23579149222616386,1.245373041673718,0.3462929687197247,6.976023105634385,-0.46806031631501227,-0.22767483668014787,-1.0848950671415785,1.5910130037986068,-1.5698123822364152,-0.7023928618448024,-0.31067498219875167,-0.7258833192617146,-0.3168974945084133,-0.21016974727809662,0.09593862114270937,0.18700511762679062,0.5765384757129212,0.7770920703551357,-0.9074830184527777,0.6549629892557782,-0.7796800815885244,0.14695704298408993,1.2283084680818217,1.4742686617289975,3.893665430996625,-0.43028102097835214,0.10121658036866532,1.9526454831107454,0.7593594493197414,0.27552180172932517,-1.7792544508183163,-0.25711990445411814,0.8120205180388312,-2.1090167407790688,0.6850914181929928,-0.47632026980577374,-1.028325063180781,-0.3004517141613097,0.39780643661302045,-0.3245038484000398,-0.811843544019895,0.14765976396843347,2.488470694334944,-0.19071398025123462,-0.8832576114289687,-0.3411945102820269,-0.2715872737887786,0.7876023262721128,-0.8361854532756112,-3.2613186863119337,-0.08627119976974079,0.3585947523068556,-0.583688271324101,-1.6187326035056564,-0.5211515898247391,1.4153368249633702,0.3425295076379382,0.08430873513534361,0.6824678767706939,-0.1161332673132579,-0.44438766875930424,-0.5517847447068157,0.018808762882414752,-0.10401942455563952,-0.260958854867345,-0.40001138761294586,-0.2722689507143096,-0.267851679309746,0.021676611433706475,0.548938271330943,-0.9062516111911364,-0.6760680344104963,0.3056766487911649,-0.4011729734844061,0.36010108945590263,1.1594019458949827,-0.35034326218173634,0.36754207821097995,0.13809529108433197,0.18990888355388297,1.3785092779772907,-0.6147026826003069,-0.49311859199870006,-0.6436429408124559,1.0021216317444752,0.5502175971732571,0.11784995089911773,-0.4179910671063346,0.25619230492395917,-0.03556843606950593,-1.6366837202932378,-0.13809671368920287,-0.0971359362215106,-1.9889086566789482,0.011321820898220218,-1.5685629481544783,1.4151679920553952,0.24773491119412336,0.34859620231198923,-1.1418553239902862,0.7127498559911489,-1.8068735886081013,-1.3930840658509538,-4.660934092352702,-8.721256172124063,-212.3534401153747,-3.8132304175299447,-2.056548359303613,1.6165397191546957,-2.3986558487169978,-1.2346993237326909,-6.585403464499691,-5.718689522918799,-88.46898481655312,-0.49049602522459973,1.8154939430354906,0.6827644215591072,0.27345338745153125,5.284488184510825,-0.15962898263975522,-1.6647522299924888,0.897159259981732,-0.05187047388672576,-2.446814299084789,-0.29480345416920267,-0.9355161959162998,-0.36555911911638195,-10.865610601943898,0.8127492819574141,-1.3454337230020146,-0.15278490142840404,-15.773328735084943,0.02579952784332544,-70.5082930385184,-0.4745727276473292,0.35860813088510235,-0.6675717686482104,-1.127590168985069,-0.18779121352828296,-0.018990126381228076,0.004584221476178229,-0.08917601278543766,-0.4419790666529488,0.346741099813894,-2.8027976214098698,0.030818992090301953,0.07149863936832342,-0.27824848919791056,3.5035567028780434,-0.07265326167620187,-2.1975682100848033,5.934063593180868,0.7057222734063354,0.7848341782407835,1.9887391028157553,-1.4407321786161646,0.7148640700900235,-1.3008016609870894,0.3533346800576582,0.2256997833363158,5.939711888735229,0.5384286363906224,-0.9369787873681436,0.043126415658721565,4.828892944064148,-0.7986903675203295,73.48279666767988,1.41117135141028,-0.12365331197852653,0.811080349017836,1.1600298036485412,-0.32206247518820896,0.7645889699583599,0.031062019422795795,0.012174396723217193,0.7515158400116322,4.724352212879471,0.3398249029923032,-2.9178000744469053,-0.5538132842698371
biasActivation=0,1,1
[BASIC:ACTIVATION]
"ActivationSigmoid"
"ActivationSigmoid"
"ActivationLinear"
