encog,BasicNetwork,java,3.0.0,1,1547771838484
[BASIC]
[BASIC:PARAMS]
[BASIC:NETWORK]
beginTraining=0
connectionLimit=0
contextTargetOffset=0,0,0
contextTargetSize=0,0,0
endTraining=2
hasContext=f
inputCount=10
layerCounts=1,30,11
layerFeedCounts=1,29,10
layerContextCount=0,0,0
layerIndex=0,1,31
output=0,0,0,0,0,0,0,0,0,0,0,0,0,0,0,0,0,0,0,0,0,0,0,0,0,0,0,0,0,0,1,0,0,0,0,0,0,0,0,0,0,1
outputCount=1
weightIndex=0,30,349
weights=-0.13892637098979085,-0.5663098040062758,0.6547676810785067,-0.48833883044409576,0.31393394714472583,-0.41664458241251495,-0.5094159982424012,0.7725782648940908,-0.49996564151350165,-0.2946391416649956,-0.3943584609367255,-0.0003650113465560028,0.17322473060665183,-0.3041210676936251,-0.24360427533535373,0.11600400503810356,-0.5437438945725113,-0.2734612303479641,-0.42596289975262197,-0.6043429553254354,-0.2800287971369059,0.6566215841078163,-0.4458273006252344,-0.33141280398673373,-0.45263091436986547,-0.21911646059637005,-0.4754699226597203,0.10366151832178067,0.12636172969155324,-0.005985634688889208,0.28296913296441883,-0.7015774932867112,0.8600271457170303,-0.7976753283836815,-2.3389912637999375,0.09705573503164984,-0.9687842665657913,3.6874495751479857,1.0168360676228871,-1.7084152840304967,0.447027658710858,-0.812508921470476,-2.2609446843053993,-0.3141385382192983,-0.18885227942453459,0.9618404919581078,-0.7364888799140982,-0.12325422807104998,-3.348450404519898,-0.24645386959245333,0.698476256092296,0.5461337270110109,-0.45182967316281814,-0.20148703255714695,0.930684613025007,-0.04815985704986653,3.6882514422867456,-1.042334484072771,0.18070939483709997,-0.8387449718784227,-0.2616566246428078,1.2050075762134151,-1.7191736769843278,-0.6019999180929941,-0.09900543444981379,-0.43135268369132146,0.22501672699375774,-1.1391899937279772,-0.0346260093125954,-0.30794057978660005,-0.24015620891610953,-0.6588161269597691,0.3940041339157928,0.33916801382626116,0.6872245782880617,0.3117162509764668,0.34596230793233357,-0.1232523440161319,-1.7013393552354728,0.0858700500511266,0.3549199979805515,0.889589813291129,-0.3747220923917715,0.6441734181553977,-0.634502763985866,-1.6372508102924075,-1.7469227291254759,-0.2921128938419983,0.6613532494075669,1.118404560112945,-6.921523410624106,1.1564697087946372,0.6132252207820778,-0.2742403750926051,0.7924017718019568,-0.21622285462380886,-0.9748655918540854,1.1578036348551652,0.056293414685934816,0.1717832484397039,0.08958665746912038,-0.2629041727422729,-0.5096970802771321,-1.5369147896241933,-0.2289162702357095,-0.07905702281941493,0.35584839891955106,0.35850437106015753,0.18958831157846495,-0.22930465401417943,0.5550035182967208,0.2695103826717821,0.5399936895215136,0.18042397250628953,-0.4226192458487211,0.1202326286387121,0.7224391957198179,-2.0873045357619158,-0.7453694852626062,-0.5959353797590607,-0.8525735263773536,-0.42094979585193654,-0.22426586264677487,0.18711624497075371,-2.609715729976006,-0.7263139109746777,-1.4208775792940327,0.21592770577076423,-0.448306855789649,0.31588814425786504,-0.6273809965604702,-2.2420695493759855,-1.0669138429160994,0.8859370326433189,-0.07350103198537301,-0.9670501482829921,4.466256799312585,-0.9988966561840249,-0.6541934455697626,0.05629884665251343,-1.2424408304913734,0.24738792133562043,0.12871613423381284,-4.9598204146044775,-3.236690880158273,-0.849796294597061,-2.819568654780071,-1.3176584695524822,0.1807394602037631,-0.7382438146180895,-0.037984224894693934,1443.9229267274357,0.03750099667407902,2877.9803927382877,1.4194134736678623,-0.22015837390440363,0.026350019544741643,6.7071673599968875,-0.24423122401800026,3.957639731008944,1332.5693471693994,624.028353550312,4.727679489018527,0.3631852316665443,0.3737113042478939,0.24152606840112667,0.7768147041558372,-0.978685818798763,1.556747873350503,0.2117647540860664,0.06711867083533157,0.06701197247797513,3.479083040853815,-0.39630018075698065,-0.22770678477489367,-0.9980585083089948,1.4346795998339037,-1.375801742056216,-0.7234328112694507,-0.2782800540958058,-0.7335788682245351,-0.3170540945561723,-0.2196149748278669,0.09596763391918972,0.1867719271192249,0.5517421823858867,0.6144295511711347,-0.903876446445564,1.1485596524831503,-0.6039223669798056,0.06419292389101164,1.2280584726268777,1.4743452019805123,3.882794816980483,-0.4300833761328668,0.09987555610594732,1.2275815825023355,0.7572585579279556,0.27051421078622784,-1.4338839812582134,-0.13793293685120767,0.6217059038419877,-1.5325477973545392,0.677016433423552,-0.216177948881038,-1.0285538632657139,-0.3376420499670268,0.2324594802634416,-0.32496776425741986,-0.8116099912908621,0.15395452361283996,2.400217032845613,-0.18344886235202157,-0.8889040987876036,-0.3412152889098747,-0.2611571901978766,0.7778690904822795,-0.8362180870275069,-3.259883143096516,-0.04241178529841441,0.35853170493524694,-0.2479348950689538,-1.5946184077231662,-0.4432325253072884,1.415209444521829,0.25088525647514154,0.08436519815962239,0.6822648912613691,-0.11488232048151986,-0.4442842416193888,-0.5513751953747467,0.019210323366313127,0.16110169826120488,-0.1668315486036772,-0.4000864048949935,-0.25490607361910483,-0.2771520758594912,0.02156140749729656,0.5489889505240637,-0.905069141817701,-0.6761649048178886,0.30521266961770005,-0.40121300901445994,0.3042656996855802,0.722555979931172,-0.3502816897237374,0.38896973139067126,0.13762817598906768,0.08255511960244646,1.3784595013553131,-0.1534216467091734,-0.43710117180910185,-0.6300554745197281,0.1696573729225242,0.5569768098482575,0.11791463129964322,-0.41806812725296244,0.2563730669695972,-0.15572053465069777,-1.132135542754798,-0.13796453410136866,-0.09706299836860273,-1.9889018164668704,0.015203609051097031,-1.5686310691589618,1.4145668611053708,0.24768117883188437,0.39131087201810616,-1.0167164678012175,0.7127616655935347,-1.9913136561637954,-1.3934126005043082,-4.847195605539302,-7.22147436800025,-148.1849194024625,-2.6857752260830217,-0.8827955571352688,0.9859460878005835,-1.9737632278130621,-0.4010329211731374,-6.549197708959615,-1.0008595302384677,-59.945945191050455,-0.4905564391370928,1.7057666602661412,0.45010135540428875,0.2709722978757982,4.944494253584568,-0.2498690508740695,-1.4923403062259917,0.892981090427992,0.00714006619888949,-2.285469250131344,-0.29818617382488594,-0.5135437557091113,-0.34479290075314756,-1.4156252496453916,0.8616025802181988,-0.10326774646358379,-0.12792247866541132,-3.2558076641932843,0.12017909607226746,-6.1368459041519055,0.17028870682573038,0.35875381327730926,-0.6667000308366732,-0.39925512990346756,-0.11799076352291431,-0.0187256394184371,0.004568421796178228,-0.08903257154470803,-0.4121406794372671,0.3468077478015386,-0.5105718197835593,-0.26109930713003215,0.07163345895615776,-0.2787626536429127,3.1696624723768987,-0.20574309005790864,-2.198042874599585,5.614510892277711,0.4922996220250222,0.7160300136219642,1.9885720908278353,-1.5177576762602891,0.6856392327780542,-1.154574177419792,0.3065694185713045,0.45868267678472446,0.8315310627359734,0.3784637095774791,0.0323065084374701,0.47922143574245457,0.6583074741616175,-0.4145371030543344,11.554948123477143,-0.1425673031499567,-0.12380529469296178,0.6367682139158277,0.2134148010417774,-0.13356351894097007,0.30444864637829594,0.03080351652220462,0.2989612759753436,0.17242235154094235,2.058457081782573,0.3384235543587273,-0.48005468848079064,-0.5538812933962701
biasActivation=0,1,1
[BASIC:ACTIVATION]
"ActivationSigmoid"
"ActivationSigmoid"
"ActivationLinear"
