encog,BasicNetwork,java,3.0.0,1,1547771825440
[BASIC]
[BASIC:PARAMS]
[BASIC:NETWORK]
beginTraining=0
connectionLimit=0
contextTargetOffset=0,0,0
contextTargetSize=0,0,0
endTraining=2
hasContext=f
inputCount=10
layerCounts=1,30,11
layerFeedCounts=1,29,10
layerContextCount=0,0,0
layerIndex=0,1,31
output=0,0,0,0,0,0,0,0,0,0,0,0,0,0,0,0,0,0,0,0,0,0,0,0,0,0,0,0,0,0,1,0,0,0,0,0,0,0,0,0,0,1
outputCount=1
weightIndex=0,30,349
weights=-0.13529468646764234,-0.5663150950982492,0.6023964180810746,-0.48844298698685035,0.2021439890859411,-0.3918659660057603,-0.509397464970321,0.6814366999085029,-0.5000737377278746,-0.25050830447664674,-0.39453388130043804,0.14284102641020746,0.1731597527048087,-0.30410397427511265,-0.1900612487275688,0.11107088459021973,-0.5437423574205112,-0.27344624305836424,-0.4259845028143819,-0.6043498597734355,-0.3209715184730957,0.651911034502696,-0.42337210527651403,-0.33137203748362387,-0.4526807054264922,-0.22135638584966713,-0.4719175290745437,0.10356273176239723,0.12630601008137038,-0.006032935019935384,0.27952765500631915,-0.70320237594548,0.8596308412224534,-0.5836482294519286,-2.518999896037712,0.09696827731222932,-0.972440521682715,3.669240415598425,1.0162789817866233,-1.7049471739141253,0.4470442707556579,-0.8022770341823041,-2.2608998950197976,-0.3074360003956231,-0.17485206515390606,0.9585445793809034,-0.7220909276438029,-0.12325275342578142,-3.3556185928920423,-0.24647255569632698,0.6984098687392204,0.5461645921848556,-0.5232921298074126,-0.2012519649994281,0.8528548595125944,0.18204788201464003,3.6882664172238995,-0.9483964815507518,0.17969060834938613,-0.8387375171680296,-0.31255066464108133,1.1356951605473984,-1.7191790251571277,-0.5947477850095524,-0.09902679671099118,-0.4308679954077423,0.2233620948714133,-1.1382405052761302,-0.033697637648249075,-0.30799636656478663,-0.24022470715059455,-0.6589195151944082,0.39399166415404807,0.3391868520880211,0.6769926909998898,0.3117645265660665,0.3454203053582225,-0.17033594806306682,-1.630626085049215,0.12975693137872574,0.35522860660803346,0.8144182425596326,-0.3741947210932698,0.6415120296613663,-0.6344865581618658,-1.6356821113551365,-1.3443990660743472,-0.2881835295501653,0.6559934399279567,1.112388568193402,-6.921756941758751,1.158588664515206,0.5289425641759368,-0.27591627109480843,0.770389983451647,-0.21612668184004977,-0.9034031352094907,1.1394248838061132,0.06420958368750766,0.1715889297412792,0.08477783194252302,-0.11918441152786376,-0.42062595299504973,-1.538801443177654,-0.22884006002312118,-0.041121157804811334,0.35586501096435097,0.35827235637125077,0.18955994109862367,-0.22933305007327967,0.5549460491768786,0.18946131327291008,0.539877841233631,0.18662673135346894,-0.4225965546487213,0.12023900212274413,0.7254516312247231,-2.087296664849916,-0.6321579155755394,-0.5967505931128176,-0.7384496689674034,0.016984416895800478,-0.22430776430351465,0.18727336169247305,-2.1600469062179606,-0.772487516140494,-1.420491162891765,0.22004708654745578,-0.22321750904157991,0.3162033906984882,-0.6504065196022597,-2.23040865675645,-1.0671922785781158,0.8825071634537743,-0.0735061710778051,-0.9438174643354249,3.851808561380528,-0.99889814171296,-0.4358020618063717,0.06269897039994836,-1.2176274774897786,0.22794345580007222,0.1476840667411146,-4.963896885537758,-3.0128132748137006,-0.8497132927184265,-2.69803169437242,-1.2423922919751762,0.19609150782316404,-0.5629704238471002,-0.03796538663293394,207.7445402782172,0.03744533637639233,724.444016930288,1.4142097422635964,-0.22015668370843566,0.02641176309468415,6.684095489028663,-0.24422785601800026,3.9517951623297525,730.2473167034989,494.02347240717523,0.9295653673207444,0.36331920719070643,0.3343912778306173,-0.044342568388824444,0.7573430158089705,0.3944278530385451,1.0218852792757314,0.2117548630904275,0.06684244698400603,0.05112093548377072,-0.16905748270566257,-0.3525894148450641,-0.2278238201579997,-0.8388267321738124,1.236776028883574,-1.241698445839512,-0.7696838005594854,-0.27026898778739444,-0.7344530662713576,-0.31698628308016213,0.06213069560065014,0.09605311387682422,0.23842024914167878,0.5335252808881961,0.5325659503015557,-0.903868886282177,1.317739038775655,-0.5966802928433228,0.06320186332823348,1.2276299405739148,1.5185914624065806,3.8954378116399186,-0.42895025394324915,0.08347576962023832,1.2261962806889004,0.6728199902905249,1.0521156256315523,-1.3270165906190263,-0.03543325137363508,0.6216557835034529,-0.29421998952999134,0.5247309857865996,-0.23352268909523732,-1.0285576941137136,-0.3373805261516518,0.2323113681393079,-0.32517625689532087,-0.7541222029180331,0.15396375535683998,2.365075766829287,-0.17104002092147458,-0.9174955973716732,-0.3404611560287886,-0.2608989607816402,0.7778666755702794,-0.8289659539440651,-3.2641913570647687,-0.01305067565764308,0.3648925372941709,-0.08963056423943631,-1.6494412253015869,-0.43010395450152156,1.4151480136545536,0.2508760429911096,0.08438630682919523,0.6822717957093692,-0.10324338601502424,-0.4443640214557294,-0.5511973121554918,0.022430143810607484,0.1706466584766692,-0.1667315669381717,-0.4001313136437933,-0.25492306325110475,-0.27710308542049605,0.02159413496878937,0.5490005444568637,-0.8802557888161059,-0.6761694883888325,0.30536244255502293,-0.4012448123414523,0.28859729267030104,0.7198988714132162,-0.35018778073238954,0.38902547254317243,0.1370985147454779,0.021019407177569126,1.3784763092401129,-0.04741865488612086,-0.4375562805285265,-0.6121849310214884,0.16963404243971908,0.5569812146196051,0.11795362855701458,-0.41807930600496235,0.2563560773375973,-0.15496177808234554,-1.0992025073641771,-0.13794029103960864,-0.09958587798456668,-1.9889342358324718,0.014693040627763776,-1.5686775448795338,1.4145623653365467,0.2476660100005042,0.3913922963653096,-1.0164330948280624,0.7126854553809463,-1.9900863763262713,-1.3934599008353539,-3.3440607667679676,-5.691524057540127,-36.93562223519659,-2.662443593842395,-0.22423835847652968,0.9638058537067193,-1.973644343193545,-0.3815425546373379,-6.548940886430963,-0.9693072127736614,-14.666998081353867,-0.4898181910651397,1.7056899190500594,0.3136255413530367,0.25145618763220223,4.855023818047204,-0.30358696449582123,-1.3773663528163635,0.8928233647962542,0.056331700907031663,-2.0332175972618627,-0.29821926265688564,-0.4698329897971949,-0.344804808312874,-0.9709598636103014,0.5771550846999882,-0.10344063403105966,-0.1280163376387599,-1.6685305107836246,0.22570244520498525,-3.4152023462142447,0.1676993092856038,0.35878753633906907,-0.6594478977532314,-0.40657429361097663,-0.11626657354801094,0.004720668928852862,0.004507934525922776,-0.08884404081493771,-0.41213507143726713,0.34679264988153874,-0.17986420382655904,-0.25791507654833984,0.07167540492991782,-0.09923532063410279,2.5991289274495037,-0.20582882019617618,-2.3007565109661665,5.612337355584321,0.49228746225702713,0.7128585903987305,1.9896241882584098,-1.5180351481645058,0.6855438321427174,-0.785045836743075,0.19335784888423788,0.4541555825044888,0.5602648211431892,0.3566673655999702,0.03247135839763621,0.47982754723326654,0.2909790293958721,-0.39707628069013345,0.7378724913894468,-0.15314952239766425,-0.1239385878079935,0.6265363266276558,0.21335476070874887,-0.13703811095759053,0.30447025930194105,0.042142484730593094,0.2989866715675683,0.17236817682135191,-0.27451274985647156,0.3385202550985411,-0.4797530831463859,-0.5538888415690701
biasActivation=0,1,1
[BASIC:ACTIVATION]
"ActivationSigmoid"
"ActivationSigmoid"
"ActivationLinear"
