encog,BasicNetwork,java,3.0.0,1,1547771804355
[BASIC]
[BASIC:PARAMS]
[BASIC:NETWORK]
beginTraining=0
connectionLimit=0
contextTargetOffset=0,0,0
contextTargetSize=0,0,0
endTraining=2
hasContext=f
inputCount=10
layerCounts=1,30,11
layerFeedCounts=1,29,10
layerContextCount=0,0,0
layerIndex=0,1,31
output=0,0,0,0,0,0,0,0,0,0,0,0,0,0,0,0,0,0,0,0,0,0,0,0,0,0,0,0,0,0,1,0,0,0,0,0,0,0,0,0,0,1
outputCount=1
weightIndex=0,30,349
weights=-0.12110480684713668,-0.5661352390236731,0.5123085070870393,-0.4952592184571328,0.12854834233330234,-0.20608889011502926,-0.5093935458723122,0.4462988247291194,-0.5009185769713349,-0.2491061832244218,-0.31410233570409357,0.14498440154836614,0.17307529910272687,-0.3040926485151127,-0.09844260613398509,0.10344138116534453,-0.5437392675005113,-0.2734199322849093,-0.426038960554334,-0.6048447478785969,-0.41241988148871067,0.6145110919084333,-0.4835748301957544,-0.3314856475158214,-0.45274970353557253,-0.2644608324948522,-0.3852411442835295,0.10331599704204947,0.12622439435848212,-0.006117388622017218,-0.049973044319836936,-0.6750537162170156,0.758430428890389,-0.20597048487501007,-2.2412091925562434,0.09709971076586563,-0.7932069375357264,3.6663327693069556,1.149220944506208,-1.5891885193923607,0.4473748552932174,-0.7362927690085892,-1.953289267422171,-0.2992199467189964,-0.17442846241157295,0.7982086226973804,-0.6336625874190966,-0.14843055996860408,-3.193718599100344,-0.24656644483258397,0.5059850297661032,0.5461778666868472,-0.5299672265464246,-0.2011614531509725,0.550557543495946,0.2095108329738459,3.688241730327259,-0.2795018696325016,0.17946364242577503,-1.2464750408203042,-0.3297613961976849,1.1309927645334676,-1.7239526156685572,-0.5936980830268406,-0.09896163592441365,-0.43062087176494496,0.13605654370579523,-0.6838383115072334,-0.03272570109594088,-0.24685308939373524,-0.24017505382703175,-0.6586856517331506,0.3507855436937333,0.33925404259953434,0.6768228692318916,0.3119682982844288,0.3088853297228935,0.024124809642018626,-1.238888685118811,0.08755664151305027,0.15628480596565664,0.4041041419366087,-0.38164574410628405,0.6470882101100452,-0.6345939668162184,-1.6353468185521094,0.45959133761941817,-0.8812612675709278,-0.003708959263434445,0.06508442606267541,-6.889103232694553,0.3721009937436958,-0.1625849718788648,-0.08178411048586275,0.3247636582115168,-0.20335363316759705,-0.7249319259333452,0.1844055087844676,0.06436082514318592,0.1715503343138229,0.08224797020417357,0.033862523446897844,-0.417875966052271,-1.531493594728745,-0.22881967952977642,-0.040946346079161484,0.35588462376435076,0.35999032851200224,0.18949851259558362,-0.2293134289964999,0.5559459999499019,0.15109805789070926,0.4462142884948712,0.2770084231816554,-0.42262986946472125,0.12027425248584059,0.7412965617390874,-2.0874366154886284,-0.6320665384128575,-0.1798153215135794,-0.7441957250612169,0.041543428699777986,-0.2243928153891472,0.1882285220734898,-0.927586407622611,-0.3176663804683958,-1.4198960041199609,0.17812996510085247,-0.21420296544990103,0.10682330960512151,-0.2575562098127976,-1.990625973364871,-0.7230099966170864,0.456088134530748,-0.10421297075033001,-0.9163717445172123,2.9651932899229108,-0.8310400771659691,-0.30655708256828884,0.08028505379289834,-1.2011995677341685,0.05368925490188464,0.1477847705603406,-3.328934016011607,-3.1342385947078033,-0.8160588843094779,-2.1361043332515783,-1.0193389809905984,0.11979080242027337,-0.5095345978495941,-0.037716697631938856,70.69633526907101,0.00601745049126963,23.524989435809893,1.3547768456543128,-0.22011272490866798,0.026435936800220772,4.993932254322879,-0.24517327652475276,2.9803027779937237,5.429890584706166,13.485179623948898,0.983376959873827,0.36304232254145863,0.3343274570041819,-0.07327125561828463,0.5902567997017878,0.40551705173148983,0.5656206940925715,0.1969454642410316,-0.11035956648558577,0.05116815770902078,-0.30159647349604585,-0.3525670015484243,-0.22796445697667528,-0.8343943086678064,0.5430504401312325,-0.8840750447626888,-1.0874216226913485,-0.2566402439790807,-0.703082633171809,-0.3136974427885437,0.5833915139381561,0.09924627788828722,0.2383196983026627,0.5171204679772431,0.4698032303463918,-0.009534579062805505,1.3557503487260985,-0.5202196259221765,0.059373725158682805,1.077419706898107,1.1258722390279514,4.017202241842326,0.17587560725479798,0.08347769475584423,0.17919912721365752,0.6375729489352256,0.6065984200674669,-0.7229849723328416,0.21596645961079033,0.6216346306714526,-0.28211916576999807,0.4437663477301541,-0.2345158869797964,-1.0285411225937138,-0.33775460683161246,0.23231510666908725,-0.27891991884728873,-0.7455651050770554,0.15389430756892108,1.725740876515104,-0.11805978521682643,-0.8575957307691717,-0.20367872430911396,-0.2610657466784943,0.7785097546467685,-0.829777393746141,-3.1491237044618776,-0.01278631779949187,0.11817510083543449,-0.08786047179710926,-1.5174581382670007,-0.1662618924640237,1.3741754415447265,0.047662989619718224,-0.2068827111200764,0.6822815969484093,-0.10325896685802205,-0.44436920711460937,-0.550603560051608,0.025478603287897954,0.22692264209297447,-0.16655833596800257,-0.4000853267610662,-0.2546543449358514,-0.2726061421213364,0.01834581410326361,0.5490127108568641,-0.8448438907975536,-0.6667929947373754,0.30536020095502286,-0.40151667074199476,0.26033669979088664,0.39011112612718507,-0.35026095576088523,0.38908180218300564,0.13528127967952375,-0.025813748886939863,1.378518943183129,-0.04387548014150812,-0.06029398220830177,-0.6103518314449707,0.16967369983790512,0.5578902129262846,0.1181564045099724,-0.41805267957296255,0.2564181984014049,-0.19845712038615723,-0.9421732681473981,-0.1378558374375268,-0.09958587778241171,-1.989016670165932,0.007556382302172457,-1.6212241845808815,1.4128296420234063,0.24618359616428245,0.3906529102365758,-0.9364887850340584,0.7121830279395166,-2.18232923430836,-1.3936863541327633,-3.305970885803329,-5.2809031125360315,-7.440370924460848,-1.9064382953422383,-0.14560793695651114,0.2100118072810254,-1.3502296952481359,-0.3742952433634888,-6.52986377898999,-0.9570021793519574,-2.866755019233544,-0.4920054120936137,1.7054994836023278,0.2899594376323757,0.058939754525605355,4.502440289250073,-0.3839074004728985,-0.9883050918408535,0.8929364721547065,-0.2075304024695243,-2.035529229503208,-0.2984683160364212,-0.4697500928288286,-0.32419875166143947,-0.6111397352787572,0.1327553734076294,-0.10390669731502081,-0.12529921612409098,-0.5402554845421285,0.43780692797440707,-3.3802127751756843,0.03953813212220823,0.3588377208065087,-0.659477546380565,-0.34520540861347,-0.11619519411397605,0.02924577091132092,0.004217140399257319,-0.07115211518681343,-0.4120005921507517,0.34689767375513014,-0.16576999415908616,-0.2839049265230257,0.07178301828800486,0.15244144067611518,2.2052992676851764,-0.1956563650802774,-1.6121481727344233,5.601714304244492,0.4924689037206177,0.5220632344074949,2.375981257412454,-1.5123901378286955,0.6871481173476031,-0.3458375746203793,0.19308679329841996,0.3676532894652259,0.5601899256449602,0.33213486232091327,0.0326755398084608,0.48048318958988523,0.22291828574502165,-0.43277796530084023,0.2390881322758852,-0.16455742413936625,-0.12406271119803358,0.6264551391343705,0.21264473855433377,-0.13711781871162537,0.3098642873915585,0.06957423858469078,0.29872627828505416,0.17232291251259121,-0.4223087654962403,0.3380664033742714,-0.4798546443823613,-0.5539527584805842
biasActivation=0,1,1
[BASIC:ACTIVATION]
"ActivationSigmoid"
"ActivationSigmoid"
"ActivationLinear"
