encog,BasicNetwork,java,3.0.0,1,1547771265004
[BASIC]
[BASIC:PARAMS]
[BASIC:NETWORK]
beginTraining=0
connectionLimit=0
contextTargetOffset=0,0,0
contextTargetSize=0,0,0
endTraining=2
hasContext=f
inputCount=10
layerCounts=1,30,11
layerFeedCounts=1,29,10
layerContextCount=0,0,0
layerIndex=0,1,31
output=0,0,0,0,0,0,0,0,0,0,0,0,0,0,0,0,0,0,0,0,0,0,0,0,0,0,0,0,0,0,1,0,0,0,0,0,0,0,0,0,0,1
outputCount=1
weightIndex=0,30,349
weights=0.1831903292055486,0.40338978244740453,0.5915983047901953,0.5081783155622772,0.24092236814907234,0.45223991154336585,0.44377936224017206,-0.3113803830931407,0.7080797846169767,0.27724172964022786,0.46717475896772925,0.39564722973679484,-0.5804560560045897,-0.3905548474392808,-0.24899663503993996,0.37777443056499704,0.21129771613663645,0.2327643556644079,0.7646789820416953,-0.263681887996744,-0.36839419398775725,-0.36558244301060183,0.5524454230514031,0.2794043762614985,-0.31824105825062715,-0.2324312723141698,0.24890430688801832,0.29991574413010363,-0.7340123863963445,-0.44647603159580207,4.533852613935346,10.256959088858974,1.5485671633090978,0.027397685954983358,-0.11848602675108849,-1.5510463083584516,0.1772548663822529,5.0645449380872805,-0.3304604192055633,1.8082118458135163,0.5355844305493749,0.8091336289426071,0.5236504607958241,-0.4559933656057746,0.12821079424484227,-0.3400532426703101,1.2582576432892207,-0.4388296357641469,-0.13586993283148763,0.02970371879501006,-0.004266877518121824,-0.3428285355827618,-0.04821691492428666,0.07281393313021575,0.04564929452207853,0.057152246977712984,-0.17160599625393486,-3.7430909036961384,0.10629729012901293,-0.030493822702985257,0.09385057774425756,0.050088814134795906,3.1936807939614598,0.45457091401688127,0.07481693807065798,-0.03994307540198029,1.3131990402898903,-0.452052996645114,-0.38864699896879745,-0.22524464061816632,-0.5672387939762783,1.3844728942930646,-0.23531219056290875,0.7800976959102204,-0.24636048929574897,1.7859669222240426,-0.4751337119919761,-0.8958331942008687,-0.29899922047043875,-1.5945437717024586,0.060949441179587394,0.7754024651977012,-0.4690937368951468,0.7920353360631515,-0.4920565634586121,0.30129112726089663,0.31947917876700804,-0.3437857285728043,0.153875660442702,-0.14086964155502477,-0.5510518524730431,-0.27884479516847316,-0.22677670896673705,0.33364932206318126,0.21513360805762752,-0.9291105927265043,0.18419804477477095,0.5848070721643905,0.35163587670697305,-0.04215833864747358,0.03147842511519914,-0.15268176607820247,-1.4906840902187841,0.4803654841946264,-0.18243176884358572,-0.1780435895055924,-0.5141663239145284,0.042258235881007085,0.7381958094293877,-0.3446954274872175,0.04525703703002201,-0.26394935936150543,1.0262837576629502,-0.25451135058684804,-0.9831924688827376,0.7368136963693741,-0.24460291774142057,0.9040488647228763,-0.03617388972182498,-0.4333505294114459,0.11047445424172934,0.6418034518366766,-0.31625073781930035,0.07710898270543717,-0.25913855446144696,-0.14818166227413637,0.5876921798392059,-0.03497216519159053,-2.3353523618188907,0.7294855428424116,1.187422671742173,-0.1642231823265855,-0.45732760911661396,-0.34929415602537023,-0.19247131540289722,0.1328969752193557,-1.5641561055612847,-0.487950256982803,0.4432626810759871,-0.6054738010920042,0.26051279647561965,0.18558917622778504,0.4451690003171966,0.3375062258533685,-0.2176156915568627,0.05762915409366031,-0.018575996573305456,0.22935591643403166,-0.5304917855744034,0.24566443421070383,-0.9155560177542439,-0.07980309178183267,-0.5734512484407497,0.7561793427727099,-0.22641933915482662,0.5946933891233275,-0.6595361460870216,0.0024884215760739535,0.17765388798140558,0.06722138718020047,0.3275266066544431,-1.5694466355516592,0.3474207061034959,0.0716552518052709,0.31799831515013594,-0.15469326623276172,-0.11979323147258304,-0.015241616377187352,-0.4971625202807694,0.40927103377325613,0.14071759975407183,0.15852847402433554,1.132292197070282,-0.3203659262291777,1.4488572073790305,0.5687397071472162,1.1578879083155973,-1.119000023967195,-0.23762341089669242,-0.21718872644396708,0.4209670543381042,-1.112781467510145,-0.09326520585239924,0.8416096605702857,-0.1343127650443213,1.0865153764828528,-0.15488668334751274,-0.6136769569816917,1.5626539375404034,-0.31245523657109414,-0.3304534988240985,2.4963419849087094,-0.2258542923267671,-0.8797987904320361,-1.1836856328750565,0.38737180745212507,0.2689707267104455,-0.12760469994605847,-0.20966332087412928,0.01606227782897415,0.1560276855961027,0.19017581393470265,0.16711021623159994,0.15222462512168275,-0.15353540826862877,-0.6711794168274183,0.28985707199692234,0.6591604393500221,3.558439302003557,-1.3795844649088214,0.5877623670603519,0.8546272721427758,-0.6979278776551094,5.151044193055331,1.0030761036101912,-2.6217719290293235,0.6112442336567453,0.8819588422803425,-1.9890770366244677,-0.3141293421489693,0.36076540705820476,-3.6337483411791025,0.9199205659445854,-1.9945382974367558,-0.13021642896762417,-0.29340451853775407,1.6875231384738418,-0.2681189959709802,-0.13341026319611946,0.1292272020764788,-0.05414017067959763,-0.7883292001566782,0.1717108389239949,0.5145750954027085,0.17148673133107203,0.3877645307903476,0.167671096993229,0.18324325723340815,-0.8843418900256126,0.29993286973118777,-2.1949412854292607,-0.6681533672456966,0.07898152555669177,0.15281273879390775,-2.857163365409931,1.0550961207615632,1.1705829706802606,2.146964254008405,0.49944213651836855,-0.03153412727065418,-0.31142089362141906,-0.42441423740654544,-0.8101643586578469,0.7712083014136633,0.04908438127477656,0.02618440445701569,-0.3865757425490194,0.21002471647328927,-1.158484331477156,0.30571386076695684,-0.3436843109369548,-0.2874772327175535,-0.16361886582693075,-1.0177965934780553,1.5071806466326636,-0.12583529338159,0.08953120114643362,-0.13497786679069834,0.016553254408140712,0.28231714567182575,1.6590957906707848,2.64482719324112,-0.31042981960407434,-0.5049834468200725,0.23026100450069834,0.4937144435576798,0.5791801374436929,-0.18554990509130143,0.3940664642297362,-0.05978351538661135,-0.2046691063883802,-0.29114565376851514,0.5352723631755386,0.08985841653563095,-0.368986205378095,0.0873243560765619,-1.093928228924618,-0.8746246030853294,0.0017315224875958499,-0.752019704054138,1.0432977988209582,0.5695403322785477,1.6016968861689593,-0.30639586338115304,-0.6356923030178462,2.0787421513012285,-0.21509528620153984,0.35968613971604535,-1.2693893103179879,-0.5446254552811555,-0.9531153470114938,-0.6952540932788686,-0.9407834923304815,0.2664432912429577,0.09105353994287542,0.30329617118822577,0.03212627038163159,0.45338879975103813,0.29632066782311517,-3.3875161082848537,-0.3487452751644069,-1.6679408582467876,-0.5039079919245713,-0.27318005167608733,-0.9374146530453421,0.19907627375341258,-2.4859588044280487,-1.1140340679906804,0.10314939000705259,18.926917231141744,1.9948489334389057,-7.127241114843865,0.2171655965424279,-0.181568728706081,-0.9750137341345458,0.12377791306405271,-0.4684685768948842,0.02010926751377029,-0.20939604380625834,0.8632446913691962,0.3775169262489396,-0.3418075228054329,3.929916448302694,0.5932105384039654,-0.1922244009173106,-0.377928797424949,-0.7345563996715331,-0.6056354008167734,-0.3051836740809964,-0.32530579725363007,0.23240261938836598,-0.3879194059029011,0.031536589281005875,-0.23094141664968082,-0.5381161661041526,-0.0021594269852971857,0.06365013366439122,0.06450287589724224,1.1735312254919643
biasActivation=0,1,1
[BASIC:ACTIVATION]
"ActivationSigmoid"
"ActivationTANH"
"ActivationLinear"
