encog,BasicNetwork,java,3.0.0,1,1547771791319
[BASIC]
[BASIC:PARAMS]
[BASIC:NETWORK]
beginTraining=0
connectionLimit=0
contextTargetOffset=0,0,0
contextTargetSize=0,0,0
endTraining=2
hasContext=f
inputCount=10
layerCounts=1,30,11
layerFeedCounts=1,29,10
layerContextCount=0,0,0
layerIndex=0,1,31
output=0,0,0,0,0,0,0,0,0,0,0,0,0,0,0,0,0,0,0,0,0,0,0,0,0,0,0,0,0,0,1,0,0,0,0,0,0,0,0,0,0,1
outputCount=1
weightIndex=0,30,349
weights=-0.07457510754373997,-0.5475548975498851,0.48711746406974127,-0.5120681665823188,0.12808219703400933,-0.20700583914333587,-0.5091889607817744,0.12431328229478576,-0.44731019754731616,-0.2492336575030382,-0.2512397359240846,0.1473946444880356,0.1730413488307268,-0.3024358735794869,-0.09806782058581176,0.10332739804326252,-0.5437719857725117,-0.2721031862690746,-0.4259657319951043,-0.6027771657691613,-0.41269778483286185,0.445358023260829,-0.48813332386477026,-0.3248607890246152,-0.45278295647325867,-0.265038503493378,-0.11486504964483661,0.10328045509004938,0.12619393240648205,-0.00615758689401722,-0.0525558592240491,-0.6747274096835584,0.09485872840189784,-0.2525630046846644,-1.1946462378246072,0.10544135313210187,-0.8253924892778968,3.470160654337076,0.49194972088056244,-0.9396076653065819,0.4434547989563765,-0.6821631737365139,-1.694316519992917,-0.30047934246450975,-0.1694003941047335,0.5119503944746671,-0.574207060752808,-0.18235465999478045,-3.0083786078994117,-0.2463330412777751,0.44537505187116194,0.546229736185957,-0.5574395962506135,-0.20117972751897253,0.5485216439568311,0.388106256646651,3.688614400629538,-0.2142826858397644,0.1794293284611974,-1.5029015600581528,-0.2746702181482516,1.1337312219538713,-1.5990350948278307,-0.6114240950591675,-0.09891980177438425,-0.429509425989024,0.13587473481718865,-0.3500580209435081,-0.032705129575940885,-0.24503061441620463,-0.22376099006630684,-0.6595276073311395,0.3509166260581232,0.3392799821195341,0.6767996668638911,0.3136747270556981,0.3137630685328684,0.027640857471008546,-1.2179660356503275,0.06906430032103758,0.16174716343005585,0.39748876051330934,-0.16036170256993315,0.4494881542684637,-0.6163304726275689,-0.8129036744548641,0.4716691920213945,-0.4515101709261818,-0.020192244825647514,0.06046372071506309,-4.782665379265341,-0.29142745155686467,-0.16263013436682197,-0.1196966027775383,0.3245074782763615,-0.20068438728967553,-0.7061369275749858,0.1580936411649019,0.06439355322731395,0.17515185388968685,0.08245337212167893,0.05235486463891056,-0.4185285141658427,-1.005165788710791,-0.22833678276819525,-0.040943952520775206,0.35589826449589307,0.360041262656514,0.18946779432358357,-0.2282696515998688,0.4966966178785264,0.15114736118028713,0.31177397428414794,0.2794197538147492,-0.4226702378605618,0.12062475500407142,0.7407984724430792,-1.9886284872281768,-0.6329475506754807,-0.2091891965377067,-0.5756287643636463,0.04394534770189027,-0.22426059668226195,0.18945522755482397,-0.8400637725718714,-0.25092598504875935,-1.4005527074413402,-0.04650019862881611,-0.21414853714461277,0.026826149436747614,-0.2575033931311842,-1.0161022948504403,-0.9576414197873813,0.04422633792384899,-0.29643793118350825,-0.9168507013187838,0.449268735168166,-0.5487929853076945,-0.30662128942337374,0.08024079137279953,-0.8895122610108027,-0.025764571324188183,0.14777531096302857,-3.313711708661465,-2.549596967685379,-0.8053094295927848,-1.9202005163843838,-0.43367685081385365,0.09866930014515758,-0.02685378739702249,-0.03764053851519975,16.030570072031228,-0.14210523930296184,5.707009257600899,0.8585216562330099,-0.22017899218426534,0.02579591975332824,2.3262845360125612,-0.2524356936389827,1.1894205536774543,0.08031701099787311,0.7044024880125042,0.9837068157329034,0.36180183989101933,0.3343035309489424,-0.07438950460148515,0.4235463547190383,0.40550377013148997,0.5655352467247146,0.14948207925734006,-0.13681007894890043,0.05096566064798588,-0.30168240126277984,-0.3525674883204495,-0.22752924542414574,-0.8098057871683076,0.48210097799700796,-0.7477660473724911,-1.3488791879938764,-0.255885916327427,-0.6034147623165004,-0.3136327502808973,0.5982650657959365,0.09933464565502147,0.23881178664073258,0.5168809016120479,0.4702164678792974,0.012313771356500148,1.3210053242792623,-0.5238162554386229,0.05781297029101885,1.1370659195364499,0.3216404132615771,2.166979829155304,0.18011384329337274,0.08316265317879182,-0.06572749267611064,0.506429664963153,0.5603126359580802,-0.9601588581392451,0.2160813981661274,0.6215867648296146,-0.29305379287879296,0.4418207859208418,-0.23495850351404104,-1.028571400865713,-0.3378416206137074,0.2327895554984299,-0.279479159386649,-0.7449075012275806,0.15485381957964045,0.7076769821282286,-0.11806369647976783,-0.03366160839324873,-0.20353953750458822,-0.200138079646314,0.7744546782830374,-0.8300977312436174,-2.9810365678521937,-0.012801530599491866,0.11393165758552394,-0.08774378794086951,-0.40235639607757856,-0.2179363603091813,0.5057360767750004,0.047514308999042625,-0.20717167122088864,0.6800073820889303,-0.10322297498602198,-0.4443205859565802,-0.5496721963892299,0.02552237194139351,0.2446625087932468,-0.16653098557414658,-0.40025939969228175,-0.29135515538887136,-0.2508185484547939,0.018289315580574075,0.5488586707618504,-0.7287312206000247,-0.4184480399472958,0.3053831474242218,-0.40159335832740484,0.2602763558588244,0.40755549368824123,-0.3516548739513331,0.3890780489496343,0.13529137456960494,-0.025955517386933424,1.3752555590338515,-0.039014742851994466,-0.05446901803860922,-0.5331728907208313,0.16974963106908322,0.5701187453918646,0.13309863061331273,-0.41807644269924804,0.2564315082484294,-0.20728546526144045,-1.2020679305967472,-0.13781477721352675,-0.09973146132349896,-1.9888300155625667,0.010930284267805906,-1.6301343116973421,1.1225201597521146,0.15106791130286656,0.415895417626425,-0.7483847198288451,0.7044462035751118,-2.1872876215320316,-1.3937856263435058,-2.5097585815046135,-2.920938203813328,-5.977912299266402,-1.2107405364816017,-0.14565403442340985,0.20984014747975158,-1.339364284809317,-0.3743112720276158,-4.935287400601937,-0.336736688354764,-1.88317253625189,-0.49202922201361343,1.6648627981506412,0.2869212668312879,0.05890128686879897,4.170288587676901,-0.2530692846781807,-0.9757316539703902,0.8929237735497108,-0.2170792290954488,-1.7925998217225523,-0.29847702588205305,-0.4697351813818041,-0.32158568887845085,-0.5656038727884541,0.13258323247344683,-0.10391218657607683,-0.12556865685375693,-0.3103818528118452,0.43784389247076677,-3.3249508502598837,0.043114331764135184,0.35890515434095743,-0.6595012469210151,-0.3442884595851635,-0.1160896789627035,0.029230876947662528,0.004186969849200959,-0.06996308563812437,-0.4120150570833738,0.3469224718852036,-0.16576049417106498,-0.28423508390878033,0.07181329656000492,0.1553677979702287,1.6445739755471516,-0.19553980978778804,-1.1001309166647113,4.01699560539483,0.2689855830239103,-0.004960189281123654,2.2938912446835924,-1.2817269329402787,0.7525813131532687,-0.34562371954237114,0.1995411163797085,0.3650402266822373,0.5591595471985015,0.3321613697541652,0.03865801873467272,0.48048031639948513,0.22281385964149872,-0.43872317793778975,0.16784377502151931,-0.2521720972859732,-0.12411750869714293,0.6263756541542378,0.21232530228768728,-0.13710008079162536,0.3106577388433819,0.06966917887588207,0.20298279174322437,0.2197795714139136,-0.42899968766590196,0.33991659101197746,-0.48092201981625327,-0.5539088631294644
biasActivation=0,1,1
[BASIC:ACTIVATION]
"ActivationSigmoid"
"ActivationSigmoid"
"ActivationLinear"
