encog,BasicNetwork,java,3.0.0,1,1547771809494
[BASIC]
[BASIC:PARAMS]
[BASIC:NETWORK]
beginTraining=0
connectionLimit=0
contextTargetOffset=0,0,0
contextTargetSize=0,0,0
endTraining=2
hasContext=f
inputCount=10
layerCounts=1,30,11
layerFeedCounts=1,29,10
layerContextCount=0,0,0
layerIndex=0,1,31
output=0,0,0,0,0,0,0,0,0,0,0,0,0,0,0,0,0,0,0,0,0,0,0,0,0,0,0,0,0,0,1,0,0,0,0,0,0,0,0,0,0,1
outputCount=1
weightIndex=0,30,349
weights=-0.1231883970500505,-0.5661930900266919,0.5151981908729073,-0.4899534458224246,0.12955809646675515,-0.2071564500751369,-0.5093881849703208,0.5153272211264107,-0.4998914177039051,-0.2491008152244218,-0.3375733796733263,0.14501823207250292,0.17309756854188718,-0.3041033342751126,-0.10011804303930452,0.10355899055035357,-0.5437292595005111,-0.2734204783066971,-0.4260207952534216,-0.6044963581474688,-0.4121059021611395,0.6384792851019374,-0.38667624525318495,-0.3313127890922197,-0.4527118560315589,-0.2622906073826803,-0.4381902444361076,0.1033382664812098,0.12624666379764243,-0.0060951191828568976,-0.0480357711004383,-0.6803007250055895,0.7925935302261611,-0.2580050409584387,-2.275864778424643,0.09701091105401545,-0.7985145210441759,3.6677862163270754,1.0290504714015587,-1.658360298129825,0.44692803430846,-0.8058209338466293,-2.1535303821557266,-0.3010418247705846,-0.17460230688402212,0.9611265949284192,-0.645344997833662,-0.15115613296137412,-3.194145406223901,-0.24655753462948757,0.6924863470097428,0.5461698657848557,-0.5282619854238902,-0.2011442432309725,0.5546139360010034,0.1824477964421023,3.688246130327259,-0.5042933575917333,0.17955817157396256,-0.8949674830524028,-0.3152732508098752,1.1166878815894306,-1.7210629318826893,-0.5947668595556064,-0.09896920392441368,-0.43065025650589395,0.1422403384477479,-0.9712856029340863,-0.032757407349285644,-0.25013926225515404,-0.24022748696802995,-0.6585346836876769,0.36246795410829846,0.33924139459953445,0.6768934136087468,0.31190699460147664,0.32056774013745865,-0.10819999452753569,-1.2991269663095582,0.12993554267141028,0.1998055956616027,0.4042087622056916,-0.3723560214586402,0.6414212848071954,-0.6343781902524114,-1.6356952082832372,0.3119457342248974,-0.8136747342488396,0.2753589653711657,0.1331623319214871,-6.891195951777283,1.1294389736404788,-0.16202752449900037,0.06704636406307823,0.3222756997285309,-0.20536234233398934,-0.8502718002576697,0.2809096231413256,0.06425035930405346,0.17154014433561066,0.08248598035796918,-0.09147735087742678,-0.41887932847791964,-1.532133164298147,-0.22884557503112118,-0.04095457875803959,0.35587461576435087,0.35996366673775865,0.18951116059558362,-0.22931924047327965,0.5549140049196968,0.15115878999353108,0.4869488701591073,0.27650586309866015,-0.4226168525047213,0.12026534228274421,0.7395719182514285,-2.0872461292873683,-0.6320791864128578,-0.1812226479536372,-0.7529874030328356,0.041511766255422945,-0.2243790937891472,0.18773947012216632,-0.9716096282750951,-0.3216749709533492,-1.4201065965928876,0.2201651360857794,-0.21424081295391476,0.3065777237053972,-0.25809448354098946,-2.097157802857459,-1.0020779212516866,0.7880360363222089,-0.07400862230777526,-0.9171081917587425,3.3490360148090104,-1.0097296427649325,-0.30648610402322274,0.08024720628888458,-1.2061106621670672,0.17427471299753675,0.14778333833565696,-3.37378989544972,-3.0229364257481217,-0.8311702696205703,-2.1801275539040614,-1.1134513579014578,0.17176790101047343,-0.512971825604616,-0.03775454513595257,94.87902580440864,0.021298075679229013,47.70767997114752,1.3583314606859573,-0.220139803810428,0.026454914273045627,5.9669947270916985,-0.2448482061733824,3.3412816160477794,12.455560059252713,21.556148998082598,0.9818736686850003,0.36310123638862163,0.3343274570041819,-0.09905949609131114,0.5836701320778752,0.40567279173117515,0.5665850601365724,0.198399946640712,-0.10511255769701204,0.05117883957258962,-0.30139363583878676,-0.3525770095484242,-0.22794788541344768,-0.8344702750773528,0.9385540101210664,-1.0016451744013775,-1.1050160038165118,-0.25992641684049944,-0.7087112903617269,-0.3137541431943233,0.5799542861831343,0.09920644500873696,0.23810201142033885,0.5174071610530322,0.45498623979438846,-0.813250202010454,1.3580651673606456,-0.5231863325407382,0.05935842723868281,1.2094236347581748,1.1671604476774204,3.8985548933515526,0.06173276070221914,0.08348942205927834,1.0216309997853363,0.660398582884371,0.6068610410459252,-1.0020528969674418,0.21586693215323485,0.6216394275994527,-0.28209937085476394,0.44384523328451997,-0.23461624011158388,-1.028533842593714,-0.3377618868316124,0.23229348598225188,-0.29403130415838125,-0.7455967675214106,0.15398728762772879,1.7311930138677176,-0.1184467125201004,-0.9437651744581014,-0.20388736641845626,-0.260830693498891,0.7781613649156405,-0.8291803279825095,-3.1644043296498365,-0.01278631779949187,0.2769648658388997,-0.08782943619427755,-1.7752389585400787,-0.20524021454114802,1.3968732157503783,0.05384678436167094,-0.19619711380598215,0.6822862369484094,-0.10326897485802208,-0.44437237511460936,-0.5511358073081205,0.025461519383897957,0.2161478654397807,-0.16659024222134736,-0.40012732976684456,-0.2547361602962824,-0.27290925218840206,0.0190365444035871,0.5490027028568639,-0.8688120839910577,-0.6726442604983421,0.30535336095502297,-0.4012359700374523,0.2604967772122869,0.5209789787004031,-0.3501283547337489,0.3890687852230057,0.1353500716837721,-0.024217434391044176,1.3784891092401124,-0.04487884256715673,-0.15229085426599884,-0.6140579434209427,0.1696787798379051,0.557047218488582,0.11798872024277453,-0.4180647565009625,0.25640061952140497,-0.16465808480874147,-1.0639573789383863,-0.1378781068766871,-0.09956360834325137,-1.9889689303141804,0.012665721272846648,-1.591740785662406,1.41244885730631,0.2466436510977148,0.3951125720052168,-0.9994475034007697,0.7125553186806967,-2.1486838923144123,-1.3936339588557936,-3.3142931751066294,-5.301130478124688,-12.015218338191056,-2.005823468308375,-0.14560802495651115,0.21293684854503667,-1.365341080559228,-0.3743049332834887,-6.5443519243778,-0.9692473499081782,-2.9840706144265443,-0.49200570009361366,1.705548836780254,0.28993999142948457,0.05910599274219027,4.5018685265586225,-0.3846439408028686,-1.085203676783423,0.8929242641547063,-0.08947703345469318,-2.0270901133926205,-0.2984751560364211,-0.4697673027488285,-0.3285121401661364,-0.7733287261381272,0.13829478705525583,-0.10381734797412213,-0.125981912933238,-1.1913632028252923,0.43771948584495957,-3.3833007034993274,0.0730465051627839,0.35882361480306874,-0.6594875543805652,-0.3498098118886248,-0.11619899571397606,0.02924333091132092,0.004306489740155974,-0.07520850769187083,-0.412022861589912,0.3468800948751302,-0.16578029015908619,-0.27986504744309515,0.07176074884884452,0.10644300464726665,2.209216685261048,-0.19780351603234442,-1.8467793631204235,5.6130020176608415,0.4922496380529458,0.5244451295212096,2.061256678761478,-1.596878485812484,0.6856717995239844,-0.34917042366844664,0.19332106845653585,0.38091397089767176,0.5601899256449602,0.332142696372702,0.03243297442421978,0.4805150958432299,0.22325700077384764,-0.43107272417830583,0.2401603296104836,-0.1534541421207317,-0.12403603129650015,0.6264774085735307,0.21282530668969124,-0.13710568879162535,0.3041154442769983,0.0694848892437921,0.298813884208375,0.17239776965005518,-0.42220414522715743,0.33809231552419855,-0.47985356951601593,-0.553940110480584
biasActivation=0,1,1
[BASIC:ACTIVATION]
"ActivationSigmoid"
"ActivationSigmoid"
"ActivationLinear"
