encog,BasicNetwork,java,3.0.0,1,1547771835863
[BASIC]
[BASIC:PARAMS]
[BASIC:NETWORK]
beginTraining=0
connectionLimit=0
contextTargetOffset=0,0,0
contextTargetSize=0,0,0
endTraining=2
hasContext=f
inputCount=10
layerCounts=1,30,11
layerFeedCounts=1,29,10
layerContextCount=0,0,0
layerIndex=0,1,31
output=0,0,0,0,0,0,0,0,0,0,0,0,0,0,0,0,0,0,0,0,0,0,0,0,0,0,0,0,0,0,1,0,0,0,0,0,0,0,0,0,0,1
outputCount=1
weightIndex=0,30,349
weights=-0.1388849648186673,-0.566314204006276,0.6533360031138816,-0.4883475162040957,0.30440974683197,-0.41639250504509745,-0.5094228382424014,0.7618108725528925,-0.4999762815487127,-0.2948422604546096,-0.39436714669672546,0.027313445078924144,0.17321023046559583,-0.30412546769362503,-0.2437563039778653,0.11531686038905106,-0.5437525803325114,-0.27346323034796405,-0.42597158551262193,-0.6043516410854355,-0.2803997007641897,0.6563689178323748,-0.44792301578025695,-0.3314196439867336,-0.4526396001298654,-0.21915372505866632,-0.47516773728942063,0.10363036790324626,0.12634722955049724,-0.005994320448889209,0.282910126545552,-0.7014209838288471,0.8600159876726681,-0.7848754048162231,-2.3394060345696057,0.09706333983164987,-0.9685788754442872,3.6757583049766693,1.0168152574643103,-1.708647853317195,0.44703634447085794,-0.8072308207949637,-2.260907303803158,-0.30969412031393084,-0.1803814657807368,0.9617527606124684,-0.7331423210546677,-0.12325069932864999,-3.3505398226681056,-0.24641648909021202,0.6983987438828487,0.546142412771011,-0.4886934530370981,-0.20146616717916394,0.9326671008688024,-0.03411100121395701,3.6882612401253323,-1.0531018764139692,0.18060986274467727,-0.8387383318784225,-0.2894143224464686,1.2210076620265344,-1.7191783169843275,-0.5997015716222119,-0.09899093430875777,-0.43116663037081776,0.22490800828827404,-1.139198758172357,-0.03444774633520314,-0.3079329749866001,-0.24016068756698952,-0.658851772644884,0.3939915106087132,0.3391766995862611,0.6819464776125493,0.3117051693764669,0.34567682658811005,-0.16115828380094965,-1.6894644455256869,0.0837743348961041,0.3549164692381515,0.8865183894384872,-0.37471896308053954,0.6424086653129397,-0.6345074039858661,-1.6370458247901616,-1.65275389465127,-0.2922681119246949,0.6596496532893633,1.1183508992872389,-6.921469067062348,1.1566557621151408,0.6046605194543706,-0.27465139493623514,0.7878317076882394,-0.21621821462380886,-0.9380018119798053,1.1579762426344653,0.06157151536144726,0.17172443325467118,0.08949004904720871,-0.1829620030677299,-0.48193938247347123,-1.5369287801002645,-0.2288788897334682,-0.053763308812052955,0.355857084679551,0.35850437106015753,0.18955093107622364,-0.229301283819363,0.5549957218069927,0.26839522791313203,0.5399830494863024,0.18166545835527148,-0.42261680584872113,0.12022590420274411,0.7236011953237868,-2.087309175761916,-0.6504317839155838,-0.5851679874178625,-0.8388617011738712,-0.2895647007924701,-0.22427454840677488,0.1871550010754775,-2.3794822813133214,-0.7242181958196553,-1.4208401987917911,0.2192742646301948,-0.4217645513042294,0.31609547625148515,-0.6245334237652159,-2.232431459860826,-1.0664120295585124,0.8858955684213082,-0.073486531844317,-0.9599759901765903,4.318546618186347,-0.9989004113575033,-0.6432290164298784,0.056537826887898074,-1.2296409069239151,0.247640587611062,0.14136299123749377,-4.9561890614666515,-3.157539115511274,-0.849757538492337,-2.79181095697641,-1.3002757697706635,0.1812752937668138,-0.7542439004312087,-0.03797553913469394,964.7229267274357,0.037463616171837744,2377.9803927382877,1.4193529734077366,-0.22014944946843562,0.02633833417067647,6.697529270481727,-0.24423562401800028,3.954293172149513,1042.244809769732,621.1888076524752,3.854933763321209,0.36317863166654446,0.3407468246135111,0.011292619738442658,0.7789104193108596,0.012561655567990729,1.434879496984705,0.21171611017153233,0.06691869784765786,0.05332137581424954,2.776590330304014,-0.36333570112259783,-0.22769228463383767,-0.8918908222710685,1.434009800288213,-1.3897899339130237,-0.7126654189282524,-0.2749334952363752,-0.7335245246627766,-0.317016714053931,-0.23742339751380412,0.09597631967918974,0.203109317972535,0.5519948486613282,0.6008857736793103,-0.9038713799009239,1.1311769527013316,-0.6012819516149072,0.06409591379469029,1.2278783270207112,1.4755072015844815,3.887555867398359,-0.4300474927344565,0.08842955623289775,1.2264195828983664,0.767937107439594,0.6919565085674027,-1.4331563023849416,-0.14892725123604733,0.6216747534234532,-1.1278071162030463,0.6766129613388405,-0.21614279580407625,-1.0285625490257135,-0.3376420499670268,0.2324663202634416,-0.32497707663827685,-0.7946958941809297,0.15394583785283994,2.4098551223607725,-0.18140194160364145,-0.8964179629622576,-0.3411690831461346,-0.26111402605974005,0.7778737304822796,-0.8339197405567247,-3.259432395857867,-0.02283528401377041,0.3585339049352469,-0.2451932160791726,-1.5636083177805153,-0.43359443579212836,1.415188723990553,0.25089198091110954,0.08434793105022591,0.6822735770213693,-0.1111937086418098,-0.4442697414783328,-0.5512984755293933,0.019238082518479103,0.16422862585967046,-0.1667927924989534,-0.40009362807579346,-0.2548984688191049,-0.2771498303995232,0.021566973374993383,0.5489976362840638,-0.8922692182502426,-0.6761504046768324,0.3052499767029386,-0.40121344901446,0.302545758354925,0.7226437112768115,-0.35025053930520306,0.38897309939067126,0.13762275673274768,0.05096683644843169,1.3784657429553129,-0.07347947703463034,-0.43706379130686057,-0.6172555509522697,0.1696556314236442,0.5569933089330575,0.11792966504589009,-0.41806812725296244,0.25638067176959717,-0.15568315414845646,-1.1043778449511374,-0.13795584834136865,-0.09786103533762436,-1.988939196969112,0.015286600447057095,-1.5686355133189616,1.4145700707335307,0.24766667869082837,0.3913500488773098,-1.0167094992052494,0.7127242850912935,-1.9910609898883538,-1.3934212862643078,-3.9665983504663274,-6.964264277979926,-125.44824944778172,-2.676137136567862,-0.910359409740448,0.9860576955352526,-1.972220027151476,-0.39674619081597995,-6.549152852356926,-0.9744072151904497,-50.02684776278974,-0.49055728761730116,1.705758487323293,0.41339399124920834,0.2706929784546232,4.913484163641918,-0.2195008170469519,-1.4878958883206241,0.8929031408579234,0.009027861743983668,-2.18604217674196,-0.29818413702488594,-0.4805792760747286,-0.3447555202509063,-1.3094575636074652,0.820864213041923,-0.10326394486358378,-0.12789371324632953,-2.592735332044755,0.16256337907585625,-4.227197587564141,0.1669421479662998,0.3587624990373092,-0.664401684365891,-0.3984022462583091,-0.11661079633142976,-0.01806253234466782,0.004559497360210228,-0.0890137022524308,-0.41213531143726717,0.3468121478015385,-0.3970165348159536,-0.2605974937724452,0.07164214471615778,-0.2768910777861527,3.174762277999151,-0.20582060226735618,-2.197619430594114,5.614060145039062,0.49230722682502215,0.7139864191238262,1.9885333269424064,-1.5179976438454974,0.6855462181267173,-1.1435328552579471,0.2116317172242821,0.4562263718866683,0.6040508369865104,0.3784402856362788,0.03242649223007432,0.4794568182861036,0.5962692726450052,-0.4182757809505838,9.645299806889374,-0.15144054897997578,-0.12382770348224206,0.6314901132403153,0.21336829371610885,-0.1353961927866341,0.30443948386950703,0.03091925824184787,0.29895259021534365,0.1723912011224079,1.4498987797975862,0.3384717396338175,-0.47957553320596963,-0.5538881333962703
biasActivation=0,1,1
[BASIC:ACTIVATION]
"ActivationSigmoid"
"ActivationSigmoid"
"ActivationLinear"
