encog,BasicNetwork,java,3.0.0,1,1547771872118
[BASIC]
[BASIC:PARAMS]
[BASIC:NETWORK]
beginTraining=0
connectionLimit=0
contextTargetOffset=0,0,0
contextTargetSize=0,0,0
endTraining=2
hasContext=f
inputCount=10
layerCounts=1,30,11
layerFeedCounts=1,29,10
layerContextCount=0,0,0
layerIndex=0,1,31
output=0,0,0,0,0,0,0,0,0,0,0,0,0,0,0,0,0,0,0,0,0,0,0,0,0,0,0,0,0,0,1,0,0,0,0,0,0,0,0,0,0,1
outputCount=1
weightIndex=0,30,349
weights=-0.1764703410801452,-0.5959247602009238,0.6552306162747108,-0.4882176942598797,0.3495371781010169,-0.49735043517028815,-0.5113521996074206,0.9945341303645958,-0.6336417717608029,-0.2945171529149344,-0.3976398281365562,-0.19737648045807957,0.23305965910538168,-0.3042005603862641,-0.3659658429247231,0.3165165859640892,-0.5440615781322927,-0.28178346334958326,-0.4259626015456892,-0.6043713972678288,-0.2767584986627498,0.6572917476280278,-0.44333856650614045,-0.3584802805407292,-0.4523607710896631,-0.21806430418568412,-0.5699734000983864,0.2067202883699057,0.34192009044911165,-0.005906616756056928,0.5452964424166739,-0.7016657418842048,0.8839127482145404,-0.9534806536869316,-2.6020164338652862,0.09790072504735381,-1.052263809287583,3.9925978686536854,1.1640826429660343,-1.7887382047895726,0.4463609480776458,-0.8124356307723632,-2.26109561433146,-0.31562735773320166,-0.18453773701240964,0.9895427637737553,-0.7541738073748866,-0.12323138843153773,-3.367290986989869,-0.31395375705862794,0.7011744691284045,0.5461969829813415,-0.44321855330673043,-0.4084123047546523,0.9287714188303015,-0.1362815512273238,3.6878207607753883,-1.1051780796724173,0.18061883976613263,-0.8396171880696233,-0.2742608664619285,1.2056134095377808,-1.7268951803501753,-0.6027689548485505,-0.09901614090109956,-0.4312397282798186,0.36330553121772985,-1.2734864796512015,-0.20933733431088722,-0.3079213515193964,-0.23983742632969757,-0.5227286086958981,0.39496217774549736,0.3391672409397008,0.6876731514441408,0.3098855139052756,0.34627006845591574,0.081643144235996,-1.7065717108543565,-0.04892304291326393,0.35491370043459836,1.0825610417780183,-0.374740537351046,0.6481010822432476,-0.6348535330938357,-1.634954424604108,-2.0712608071106233,-0.29020161574377007,0.8554249053858245,0.9723219165934985,-6.921592846296549,1.1566569216230465,0.6419882410147119,-0.1061217365595538,0.8460052744668469,-0.2058266851417853,-0.9731105657954593,1.7092454970137962,0.039721098361151015,0.5340327249040656,0.0019641600886634476,-0.31703882672288997,-0.5313364498128856,-1.5372269718545972,-0.22925481140756945,-0.5128419990256137,0.3561433722137807,0.32879349827489845,0.18952281334107596,-0.23573985090611674,0.5551967390772692,0.40651598931968336,0.5397018919543914,0.03469796264250711,-0.42271236411270124,0.12012874966728056,0.6388770622595852,-2.0909163279496092,-1.7510675606957886,-0.6537355493324511,-2.23270618291368,-0.14623602505735997,-0.22415134954099875,0.32600651311142254,-4.005020079006569,-0.5883007766904237,-1.4216041963080257,-0.4309132436563615,-2.2070414346414613,0.31456727113658467,-0.6248646883276794,-2.619370579684756,-1.7742740102217882,0.8985394032580668,-0.07939669408035323,-0.9782662665896038,5.206532383132404,-0.9984047743962504,-1.2021543537015456,0.05302742748486529,-1.2436053418257678,0.2604527387647043,0.12676181786832122,-4.960068108937928,-3.6485052132740594,-0.850110168908353,-2.9051616574620853,-1.5968687525787837,0.2649040879747197,-1.0054216363600126,-0.037991334946668606,748.4167369320633,0.03748208562907853,1883.8519202815735,0.8889243312090815,-0.22519520496639436,1.2379671689938991,6.630591311650568,-0.24423790240685275,-3.9008193427251157,679.3284583162748,620.7120961067504,8.969733448653502,0.3036940250675403,2.352922640551769,5.0718664004817695,2.1934117666746147,-2.4719457956479363,6.035238570949297,0.2350729528026948,1.1766327076173637,0.23624150234210473,7.134114689330607,-0.4680706123150121,-0.22766543476014786,-1.0849172783916519,1.596557377895362,-1.434603482249687,-0.7025160931449809,-0.31058754006930417,-0.7297598505315164,-0.3168100523789658,-0.22011685763203187,0.09591983859788544,0.1869874857547906,0.5718158553534496,0.7775969896882688,-0.9499822312981169,0.6032517286327015,-0.7749812319832796,0.14845728767227007,1.2283243174726046,1.4763198534588033,3.893615227438631,-0.4309740485799086,0.10123879161873894,2.050642694088895,0.7593517193997413,0.25630625942379304,-1.8551225848576314,-0.26164372277814485,0.8120285450167873,-2.1110009952029785,0.6830754492170421,-0.4940076887626464,-1.0281266420414374,-0.2856053068308454,0.43364176751937894,-0.3245741061374972,-0.811836718035895,0.08777313053912603,2.488427905689049,-0.1907016376561626,-0.8832402886445488,-0.34116473749027876,-0.3186877524260751,0.7882620551643029,-0.836170883355611,-3.2613248486543336,-0.0862733997697408,0.3586058339068555,-0.5731383210869412,-1.6187497624074165,-0.5135827485927255,1.4154823250230621,0.343970661941003,0.08407062976813148,0.6824804466906941,-0.11615547856333153,-0.44439458208937793,-0.55207706687187,0.018786594284009635,-0.019632274015484997,-0.2609929458992282,-0.39992394548349836,-0.35494614791889295,-0.2666933441253125,0.021657855529706477,0.5489012959679103,-0.9062664691111366,-0.6760608324904962,0.3062577032784001,-0.40116614750040613,0.3600705334347565,1.134985442544808,-0.35034486378173635,0.3604764795760146,0.13869772837669744,0.18989012764988294,1.3785123579772907,-0.7273933013731565,-0.5107676485243591,-1.0549034188020479,1.042662833291065,0.5537230841876447,0.11783279199735773,-0.4179372208433762,0.25620072315731335,-0.005775864453416316,-2.0613795167137825,-0.13826713832182438,-0.09713320822151059,-1.9888955867269484,0.008547221622082261,-1.568577349438185,1.4329483807177992,0.24775207009588338,0.34622241648465296,-1.357425717106129,0.7126624138617015,-1.80428281409774,-1.3923197961572744,-4.660936820352702,-8.721237325332664,-212.35366723372152,-4.093788158823393,-2.0845488966046193,1.7074153832432217,-2.396027778844772,-1.4830864217964954,-6.585292871909383,-6.3708389698573225,-88.86158421179171,-0.49050575514459965,1.8393596955600282,0.7032462517639811,0.2734663234515311,5.284554223511138,-0.15998388878426836,-1.664747153395125,0.8979483637970871,-0.04476801238696336,-2.525766726711394,-0.29466419641510266,-1.038719502651296,-0.8333539284182733,-10.867115093125008,1.0401221679714754,-1.416118504553919,-0.18969750297204385,-15.74295827866351,0.14676468675867424,-70.36960027702038,-0.4941588841247182,0.35859668854270244,-0.667770189787554,-1.1444474949623478,-0.22103794304477034,-0.018988080429228078,0.004590827881298229,-0.08920873646785549,-0.4393654772957463,0.3467435559992483,-2.7331966757265183,0.02736513432851889,0.07126053400111129,-0.27823591927791064,3.509564649968713,0.00408340096315361,-2.1975477322360426,5.94641999759066,0.7590983587050338,0.7855922580746112,1.9891567822119922,-1.4120903727593503,0.7147950471239098,-1.4167756100634548,0.3537146633033731,0.2559360055702193,6.20086028712709,0.25627049255769097,-1.0190759770174205,0.04301189630085209,4.883234665695633,-0.8747551730485393,72.33242342671065,1.629930365511393,-0.12361633661549412,0.8110906450178361,1.1601015799934173,-0.4867711892961616,0.7617271780804322,0.031069099422795794,0.012585509971805627,0.7503720844933068,4.7305257158562215,0.3395400123490053,-2.81981843705265,-0.5538166522698371
biasActivation=0,1,1
[BASIC:ACTIVATION]
"ActivationSigmoid"
"ActivationSigmoid"
"ActivationLinear"
