encog,BasicNetwork,java,3.0.0,1,1547771853951
[BASIC]
[BASIC:PARAMS]
[BASIC:NETWORK]
beginTraining=0
connectionLimit=0
contextTargetOffset=0,0,0
contextTargetSize=0,0,0
endTraining=2
hasContext=f
inputCount=10
layerCounts=1,30,11
layerFeedCounts=1,29,10
layerContextCount=0,0,0
layerIndex=0,1,31
output=0,0,0,0,0,0,0,0,0,0,0,0,0,0,0,0,0,0,0,0,0,0,0,0,0,0,0,0,0,0,1,0,0,0,0,0,0,0,0,0,0,1
outputCount=1
weightIndex=0,30,349
weights=-0.14000554461303152,-0.5669082087460529,0.6552347950856935,-0.4883031260703036,0.3495328500923481,-0.41796917108859555,-0.509904573060151,0.8592354869507501,-0.500920098105875,-0.2944386129349854,-0.39484703575447566,-0.029562752109316946,0.17464507241590158,-0.3041577780890487,-0.24465819623912657,0.15068421482259314,-0.5438151999579376,-0.2740669516178151,-0.4259514315746696,-0.6043411770516112,-0.2764542889700625,0.6572992652794837,-0.43418929248957244,-0.3321479292225549,-0.4525829996536733,-0.21890642328675622,-0.4871041768492303,0.1039356478335139,0.12794424130863602,-0.005935645018456929,0.32525040239002334,-0.7017363703016486,0.8606938693356384,-0.8487710973921618,-2.475466066813136,0.09711016633587469,-0.9807166210874941,3.9311631834134415,1.0239243648651293,-1.7085379870964277,0.44698030904042585,-0.81250319971342,-2.261095342289738,-0.3154730544154137,-0.18798225012198685,0.9622467965237489,-0.7506307763242858,-0.12328342963221874,-3.461049882738143,-0.30130933286263084,0.7026195685289898,0.5461307286161309,-0.4434019702788607,-0.22234250119846047,0.9292374598111485,-0.13663935260707608,3.68756575845654,-1.1063393203262584,0.1806459857747708,-0.8395291915221088,-0.2741546916859234,1.2054351096367086,-1.7199125350201494,-0.6027769747525507,-0.09903307690109957,-0.431347892650287,0.31118139181076204,-1.140601448522801,-0.14879610334274482,-0.3080051281867845,-0.2402019961275521,-0.6364776355124363,0.39447406947290015,0.3391468838575888,0.6877022582985411,0.3111617527806023,0.3462494588058422,-0.021748270936468583,-1.7065360625394772,0.00694209086896597,0.35492792749463786,0.98690061720807,-0.374735683801845,0.6471951818231878,-0.6346099793065284,-1.6372197276586018,-2.079643699270835,-0.2918537475820747,0.8426188585269757,1.1180601410986988,-6.9215846926683895,1.1564523379170486,0.6415240077413573,-0.15367418994607107,0.8460107045329898,-0.2154839965879878,-0.9732617245098562,1.1880466477469132,0.0398949696514801,0.2877680107200728,0.08961283061160479,-0.3146205053228075,-0.5307712739729628,-1.537245148857404,-0.22941872370191219,-0.08592194516773059,0.35595508624021344,0.35560234014988357,0.1896636834076203,-0.22934082796413421,0.5550990753782428,0.3311944270178212,0.5399698354281686,0.13551254724765632,-0.42243672416455835,0.12024974499378413,0.6389903694223501,-2.087563094808567,-1.643458023977855,-0.6676294456761704,-2.2084010953589135,-0.42687683201667576,-0.22419874467742987,0.18700559740578704,-3.3249982212399685,-0.8136811533209368,-1.421613264235952,-0.042211878869223285,-1.3717151118811988,0.3154107439818058,-0.6261656927392338,-2.394194495796081,-1.7266326605817097,0.8886222552493266,-0.07350542900539822,-0.9782639350726178,5.21048572213642,-0.9979558420837966,-1.2054838473745628,0.054856808437836,-1.2436299357688079,0.24819464310868972,0.1267584503264588,-4.95964647553275,-3.393665885458196,-0.8499833968680907,-2.8793020206128253,-1.594523708217888,0.1817849010964311,-0.7385398508034448,-0.038007184820486206,809.4781602201755,0.03746536780507854,1886.491776070128,1.4193017987258403,-0.22012630065000358,0.029339646234017684,6.665296864659227,-0.2442584039604003,-0.9481347420164629,755.38872097173,620.807314433394,7.875620184052943,0.3631228496979443,2.3543257904782333,2.5381110641322304,2.1603825320224668,-1.7951014175900921,3.0271895923490724,0.2125207712795642,0.7676113956380418,0.5281206001987808,5.676278728897072,-0.46796716165262225,-0.22772668988681766,-1.0848769129203408,1.5463919829554778,-1.3759142394863693,-0.7335272406868409,-0.31027166214457214,-1.044596297461496,-0.3170197844260353,-0.19296612537376437,0.09593432954539739,0.1867593608766425,0.5718257901462377,0.738199000622635,-0.9038509339327965,0.9940661577128922,-0.7400587516517049,0.14112032829954668,1.2281851322328654,1.473760471811409,3.893953816864453,-0.43020103106095037,0.10122502196866534,1.8963375266791032,0.7593281577172329,-0.06412299175926768,-1.572207565203757,-0.10248622788051807,0.7302963480696325,-1.8283728773470076,0.6840107628859929,-0.3065855996108913,-1.0283876041460032,-0.3341304753920847,0.24126894167125618,-0.32467843645637723,-0.8116551032088224,0.15401392668445993,2.4892964526827575,-0.18968714202648485,-0.8834626195017223,-0.34122824840514737,-0.26121171316286124,0.7786047437181002,-0.8362340163926678,-3.2613087062799337,-0.08631558471982204,0.35854148906580696,-0.3680477342423941,-1.6189784396411788,-0.4987295376428372,1.415344439292133,0.26272120727579545,0.0843940732316896,0.6823623385068699,-0.11613892675469811,-0.4443791536451035,-0.5517155139717003,0.0191084426617913,-0.04013041147214226,-0.1949637967597831,-0.4000706994921136,-0.25759436314647444,-0.2760319031673209,0.02167539044170648,0.548950366150271,-0.9062582470951364,-0.6761157457248049,0.3052970522798102,-0.4011558607440133,0.34549719653757105,0.7505423814935076,-0.35033031189861574,0.3876419255801336,0.13765792355663561,0.19045800549711342,1.3784688554570732,-0.31765556147665325,-0.4585842897266963,-0.6311997853303386,0.2828797842095908,0.5570709930809175,0.11783287012046811,-0.4180409974020826,0.2561889093251929,-0.15217483903470339,-1.2920509083419132,-0.13801672377180096,-0.09709266302445452,-1.9888969407749484,0.014169116910296512,-1.5686396691589615,1.4145316821443394,0.2477029146039096,0.34735492576392196,-1.0197917943011516,0.7127534714138276,-1.98963269242559,-1.393362610833877,-4.660916828014036,-8.676689048179023,-212.2889970443017,-3.7694870428888025,-1.2061785781514331,1.2862352696362154,-2.0334771199570487,-0.4017925200498953,-6.566931215047839,-4.0995456048546215,-87.59796274983144,-0.49053834601340657,1.7145832896739555,0.6305038624841148,0.27340811318220126,5.278655957767442,-0.15869018426719403,-1.6439789535928344,0.8956275399043176,-0.05707383868759192,-2.351400407493467,-0.29792761477823476,-0.5717660748993622,-0.3449514346905451,-9.658939297787228,0.5628915536397996,-0.188547280138092,-0.1280556801173998,-9.941300355087266,-0.12537368399977836,-69.38624302940062,0.13211947601890317,0.35864333701056417,-0.6674966899318152,-0.5236107256351421,-0.17501683545177973,-0.019205218129283556,0.004598991396178229,-0.08911468858316644,-0.4123867955788771,0.34673455780025325,-2.7951153987793464,-0.1744902681288143,0.0715812692857254,-0.2780006406766658,3.3595838409671006,-0.13081448080690342,-2.1977833018328585,5.840686424130484,0.5105879335650663,0.7928741763975806,1.9887093109868883,-1.4625200335132014,0.7148042858075734,-1.1958436744007097,0.35161412416853666,0.4573104125174549,5.299803159066836,0.3803772236642429,0.025201931080699097,0.04295009984203056,4.075655182589141,-0.4180537159053381,65.20219644204428,1.2065638585555107,-0.12366989906332654,0.8047264340088456,0.34654419742840253,-0.21531047776722922,0.3116899159809339,0.03101193701845115,0.28068360603529946,0.4737684554732448,3.18117781845352,0.33839285678008907,-2.070735846134701,-0.5538418481738375
biasActivation=0,1,1
[BASIC:ACTIVATION]
"ActivationSigmoid"
"ActivationSigmoid"
"ActivationLinear"
