encog,BasicNetwork,java,3.0.0,1,1547771255409
[BASIC]
[BASIC:PARAMS]
[BASIC:NETWORK]
beginTraining=0
connectionLimit=0
contextTargetOffset=0,0,0
contextTargetSize=0,0,0
endTraining=2
hasContext=f
inputCount=10
layerCounts=1,30,11
layerFeedCounts=1,29,10
layerContextCount=0,0,0
layerIndex=0,1,31
output=0,0,0,0,0,0,0,0,0,0,0,0,0,0,0,0,0,0,0,0,0,0,0,0,0,0,0,0,0,0,1,0,0,0,0,0,0,0,0,0,0,1
outputCount=1
weightIndex=0,30,349
weights=0.18131688315584857,0.4027140084842827,0.5886364006253115,0.4872161187941062,0.24093604405307237,0.452219973623366,0.443781640320172,-0.30915836680283254,0.7016930675663711,0.26492370257855413,0.4659381020698166,0.3932097495230749,-0.5545579061718774,-0.3881727187985243,-0.24917520328779572,0.37778323290739696,0.2114184618402449,0.23260207733814012,0.7261406254073896,-0.2635661933326371,-0.36829024783756026,-0.3611630243735795,0.5476551183120331,0.27934932877297475,-0.3162355396688408,-0.23241906431416978,0.2488957068880183,0.30035454566979625,-0.7340443022648967,-0.4464938751158019,4.349041724117646,9.782402154084888,1.4659207875211382,0.025605915972725393,-0.11749903126146975,-1.4733323878954476,0.17721957868750357,4.793370384160594,-0.329691558463508,1.6934394093775589,0.5253877179472779,0.8091135854226067,0.5236043434632622,-0.4550703393400538,0.12902623601482796,-0.33994050570123185,1.2275025221632176,-0.43790211106099475,-0.13589163349467548,0.02970095399501006,0.0080395762516325,-0.3426022044656612,-0.04835863875651364,0.07184004602994766,0.04568836582407916,0.05608669266207513,-0.17432838040326915,-3.714654720148283,0.10065380902190094,-0.03483546030861063,0.1091975105318615,0.05175959255939343,3.1574288550791922,0.4545746804168812,0.07477704963849308,-0.03981807296199886,1.2257085058708446,-0.39755151279501594,-0.34531662409698616,-0.1852688992638608,-0.567201403460474,1.3771041433126683,-0.24288755419778738,0.6406894824424827,-0.22855417432929181,1.5395437879043212,-0.38698391780471414,-0.9525631849239757,-0.1858629374463739,-1.4365670929093641,0.09350419875203018,0.681669578370369,-0.42036567405669056,0.6463530148044512,-0.49205492432028203,0.2935215718035806,0.3194213307476002,-0.34377176697280437,0.153863530522702,-0.14161048824962388,-0.5078381654185401,-0.27883486524847323,-0.22641657249960845,0.33334330999597495,0.21515417175068352,-0.9291238743265046,0.18419284285477094,0.5627838537329733,0.3517292698896567,-0.017212956249034607,-0.01517372273004602,-0.15060757217371173,-1.4906078450737419,0.49854717307941104,-0.18128486993001464,-0.1527315935930042,-0.51424256905957,0.04227387940100708,0.7337533702830059,-0.350175319120614,0.0439217245369241,-0.2652594276023712,1.0199942723046496,-0.2518543021391678,-0.9811728754027607,0.7354584294354674,-0.24453547454354327,0.9016153454192979,-0.050035189607133226,-0.4149623793472001,0.11049728381714587,0.5902612951659145,-0.26959639791561185,0.08133924670790918,-0.235827673774013,-0.141387472206551,0.5780847848314593,-0.051412462902375666,-2.303073561895289,0.7271687968603352,1.1524997807481256,-0.1642018188757055,-0.4573693883317327,-0.3338952661874401,-0.2128911936545373,0.13329128263237675,-1.5639726380156835,-0.46434019170585417,0.4613415419065347,-0.6054441073228906,0.26101382036609777,0.18557997430778503,0.438828896669142,0.33806675149766574,-0.21758374291193414,0.05762073518605278,-0.018181689160284467,0.21067544025065935,-0.5303960447771764,0.22247009837454698,-0.9155175268505698,-0.07879228701298983,-0.5532994659154282,0.7503816300765905,-0.2257584401066189,0.5828253133420186,-0.6514353221056081,-0.019532045284256255,0.17847861930751518,0.07722103048576787,0.3274694411453405,-1.569455837471659,0.34739508778526235,0.07259710656566183,0.3331484895811365,-0.15466181900812803,-0.11559275420336139,-0.011175204315605534,-0.49729912040044577,0.4085440908026644,0.13392853171125194,0.15411988136851104,1.0657971728696742,-0.3207154986961074,1.4483904028053998,0.5687077003947162,1.1576478262031342,-1.1194827176434137,-0.2383596461725915,-0.21714021982063766,0.42098888305466126,-1.1035129597768452,-0.11568515841521929,0.8416042144902857,-0.1530850088912303,1.0782026487182104,-0.15488973166751274,-0.595733702947902,1.5503971184824568,-0.3128238586350228,-0.33033274231714693,2.4962187719210793,-0.21592324823694084,-0.8794290025499343,-1.1837006031932902,0.3874015012212387,0.2689593247904456,-0.12758173489517846,-0.2096855397541293,0.016314527383381832,0.1587868378441613,0.1902530488378659,0.1671016849654868,0.15207324139069778,-0.15354461018862878,-0.6711975863580656,0.23214384658895515,0.6510697386341907,3.456298364305027,-1.3445402003186662,0.5879395075076973,0.8235340581637687,-0.6834280792835673,4.992396268381018,0.9840714519101492,-2.529923868550342,0.6112447616567452,0.8817974281951368,-1.9790505416139441,-0.3046653608168198,0.3607866359416607,-3.568466002726765,0.9089420728395694,-1.970339605621139,-0.13050412461568642,-0.2933975320099872,1.671748614647174,-0.2532924305891838,-0.13338360982523945,0.12330619593058333,-0.06250869764061816,-0.7532781091788214,0.14917713510638342,0.5151768253981475,0.17144177131253757,0.3818742819303517,0.16766411824122898,0.1804914687465205,-0.8843308436256123,0.2967112654971461,-2.193304282772814,-0.668717230230525,0.045070369355774534,0.15280946423052236,-2.8488777370536242,1.0510611964048866,1.162997028794869,2.142624269383674,0.5005735606853765,-0.03154702081305418,-0.3207921727804895,-0.4725397498867674,-0.8141202979991573,0.761804442564435,0.05457641899246735,0.025904176462686522,-0.3582947951547932,0.2389110426529459,-1.158527719766547,0.3055038501288869,-0.314091870072565,-0.2874937161684334,-0.16372285131732137,-1.0106213776406898,1.5117292515034042,-0.12590121030393808,0.07239216726640109,-0.12272068629848415,0.01667972417286994,0.2823248615758258,1.6032200985528549,2.6046640740739218,-0.31006922661260744,-0.4808791693387389,0.23588100548436008,0.46712849032370896,0.5795759394397098,-0.18570015196517278,0.39543051303092874,-0.05998765099954166,-0.2131284572388275,-0.27094965173824825,0.5122394629569981,0.089461044368967,-0.3852108352744811,0.08733900407656195,-1.0831629209160942,-0.8673962517659952,0.001651850699710204,-0.7539342647940888,1.0658849884968329,0.5644954856529227,1.6016907892867054,-0.30636616961203944,-0.6357219967869598,2.078530589332634,-0.21518060629679778,0.3600311243320965,-1.2695546788925354,-0.5407352821654877,-0.9534664017898339,-0.695262156080487,-0.9428655006490595,0.2679452759064054,0.09105610954287542,0.2847772911909758,-0.002207602061811043,0.4534086075881821,0.31041177185115476,-3.336880302001903,-0.3491106745083574,-1.625879519865128,-0.4688729370270027,-0.304373682079995,-0.9122890057064476,0.19911239001355982,-2.273640695104994,-1.0213123403839497,0.07155630398477672,18.37530143916908,1.9092780737000514,-7.053847859853673,0.29903588683921045,-0.29413353030734396,-0.9088930507315046,0.12355751779220768,-0.9374759269229277,0.020144718019210747,-0.20851712268076164,0.8632346833691961,0.3524038662346282,-0.3301426345172399,3.871146466363189,0.5935950118775877,-0.18779080171376264,-0.39551129677129204,-0.7344213165687694,-0.5857415262415288,-0.29970994311356824,-0.3248319923509942,0.23249836724588413,-0.3879641495858533,0.03960865526306909,-0.2103124360097286,-0.5381562687968545,-0.03720530871440985,0.06362354553332822,0.05740478579798759,1.1735490690119639
biasActivation=0,1,1
[BASIC:ACTIVATION]
"ActivationSigmoid"
"ActivationTANH"
"ActivationLinear"
