encog,BasicNetwork,java,3.0.0,1,1547771764402
[BASIC]
[BASIC:PARAMS]
[BASIC:NETWORK]
beginTraining=0
connectionLimit=0
contextTargetOffset=0,0,0
contextTargetSize=0,0,0
endTraining=2
hasContext=f
inputCount=10
layerCounts=1,30,11
layerFeedCounts=1,29,10
layerContextCount=0,0,0
layerIndex=0,1,31
output=0,0,0,0,0,0,0,0,0,0,0,0,0,0,0,0,0,0,0,0,0,0,0,0,0,0,0,0,0,0,1,0,0,0,0,0,0,0,0,0,0,1
outputCount=1
weightIndex=0,30,349
weights=-0.07259465685440358,-0.362291645542721,0.02157423764846135,-0.3569761554958435,0.12796804339845924,-0.14935936584566317,-0.3329107695132805,0.09859213277431236,-0.33220851370352283,-0.12013613313254001,-0.19093654460170428,0.14771624367053562,0.17294954919197672,-0.10030606301049241,-0.09800316863956164,0.10254247508208195,-0.4018620861713804,-0.11482467634325862,-0.24683192316882852,-0.215519841558548,-0.2836442007989177,0.10249806471671191,-0.24924682526052394,-0.007124401794977947,-0.29921868696522336,-0.28324821263390937,0.021094213018194446,0.10326681615629932,0.1302894121997364,-0.00624042461276722,0.35648750885804004,0.004891526913804373,0.29807341288115247,0.014103920794703323,0.026238601123356256,0.5671561438314949,-0.31890451918039275,-0.06319651374463539,0.5367635535579134,0.14642109634234343,0.3027111838222253,-0.4631857770390545,-0.5110780958264817,-0.2004004247766816,-0.0007904556502083826,0.30434942890323946,-0.43218053751768726,0.11977259405762838,-0.41553538421284675,-0.35511693620508644,0.3613699017889149,0.39151111643744985,-0.28752458137073744,0.023088422591680882,0.35040642017665324,0.2160783182156008,0.11953348611608273,-0.4199014246839232,0.2638942453099584,0.13832728625270158,-0.06716006048849277,0.6823249711102315,0.15014392703959892,-0.5623618831271993,0.12934844899346665,-0.40507595940799146,0.3030717169427114,-0.2724923839705288,-0.00046960718899716203,0.36884272583704836,-0.1118676880546248,-0.2957882066154058,0.4597921866463478,0.20760744160036648,0.4541003807576809,0.1811731888026332,0.272469635293926,-0.05954264765452111,0.1305407408503413,-0.12327350383300464,-0.2541279601429909,0.4842102111417729,-0.2030202978964646,0.28267284276019433,-0.47307059183201705,0.2190380640419812,0.496303593686499,0.008305316651682798,0.2318042278923739,0.048204286723764284,-0.3864167216385358,-0.18853910073768143,-0.276068936400541,0.28325713101307637,0.4214734688933075,-0.33261855574763766,-0.4745372859912791,0.37427336979864534,0.17960224605443262,0.34889664778569207,0.17765829569500904,0.02400385054472083,-0.12324695929015184,-0.5537286039988026,-0.14106932605334774,0.08590727060137354,0.22340570480104865,0.3343744739724981,0.163171533267902,-0.20448322295304802,0.5027422807913734,-0.18655776118566278,0.47223024809324643,0.3215197577536294,-0.21667895327336564,0.13138948395248676,0.26701429884478967,0.2759640379322684,0.09283815284893268,0.44473030128454716,-0.4349184614794792,0.2261356687535672,-0.2774118577762604,0.15768595973525598,-0.16514924563444738,-0.4370330173711767,-0.3855385346913892,0.3628939629304959,-0.36901584556741707,0.30951836191527315,-0.033891288435230246,-0.47078331456473554,-0.4817483115415375,-0.00761725071752585,-0.3900998665536337,-0.4967467593947582,-0.45026220104824355,-0.05443511515473,-0.2281460865855028,-0.05187702114740514,0.007727369246144811,-0.22682705579838008,0.28112926534073057,-0.2998149757818448,-0.44139195848774704,-0.27864766548480324,-0.4826018363461879,-0.5092224060278147,0.3297465371958894,-0.06836111554952395,-0.16959313159798214,0.33390587306056285,0.02148017340365345,-0.330431091338907,0.3459024520244983,-0.02666702016388489,0.13099234317839029,0.533324397494937,-0.26327807877909765,0.15148803539049063,0.5106082566150515,0.40159066501786866,0.7953563461324187,0.3289693946034957,0.2350860994137151,-0.24879437177796224,-0.03149163448261402,0.41908620777957684,0.1214667075901584,0.17324654599384365,-0.0389774994557375,-0.017371272093304108,-0.14877801248017838,-0.12191183233617042,0.14396017972229577,-0.6003088354841286,0.12398350813909612,-0.4284689170763316,-0.3334643535962617,0.07099631761570221,-0.49624403219882907,-0.2278068493133949,0.5668932682588254,-0.0320975981270081,0.37730712460980786,0.4232672772013969,0.5183156337295188,0.13016041087333502,0.011973234418585027,-0.4542558102886669,0.3318732153299943,0.5001640924354256,0.24588514076366136,0.0715010547701091,0.055100144535985496,0.207228034251623,-0.09239902692230176,0.4233129825907148,0.24757187649279663,0.3585836272706757,0.3596625327620907,0.5644674142988452,-0.08485228657343452,0.41185992651467285,-0.25376781237958,-0.38362467870558814,-0.23568130828793407,0.15415629180275517,-0.36897575992530707,-0.5766543271901842,-0.29096464985427095,0.24190820637256646,0.31101804103318875,-0.14199344982021062,-0.11633091798034327,-0.12045646500541521,0.5532179853098892,-0.3118188259085818,-0.027184801686213206,0.11696865621395289,0.3474317919567752,-0.14089041081780426,-0.4542972052174239,-0.234394153760048,-0.2977447941743452,0.2725147454326122,-0.0819661053290486,0.5337215922366313,0.12961437997844721,-0.5105504665512537,-0.4301036644241224,0.1989133580031476,0.19182400479396103,-0.12970097950866458,0.07431364987979927,-0.3960345305817079,0.15783605993033537,0.21168255512427603,0.4160237890956302,-0.48958577618779386,-0.20688391166255407,0.3627233364691733,-0.24846344890013594,0.19757197723740452,0.34342848815190363,0.002645737002615861,-0.25366347580122384,0.2454900166757856,0.01188636326704065,0.43924184196142346,0.19191522753863874,0.13912683527286274,-0.4073439683142779,0.26066787200894626,-0.3395401677027396,0.19675402527517508,0.2900837332854673,-0.029335397303429517,-0.07319019626349209,-0.29245838040347405,-0.26961205546352673,-0.12460551157336902,-0.13249972830446016,-0.2341692531999516,-0.2667721291478966,0.47556335845401443,0.2611198944358433,0.31533706338238204,-0.2269805720177774,0.5281468504647913,0.03586981947828766,0.1968765043087302,-0.38134661867794617,-0.4835735012546233,-0.3500014565061853,-0.4871574692614876,-0.03706699865573773,0.24227386868767034,-0.4532419205959627,-0.4617893903057605,-0.1491557810147612,0.17359622383546447,-0.27094767416380927,-0.35456674482602935,0.48597801312471123,0.38264889411414527,0.1821327877554832,0.3072327928181916,-0.31923210726852413,-0.13952599018191694,0.3507228158495487,-0.11835191950399945,-0.21407764868830836,-0.4449947863973256,-0.41462373680911957,-0.3814956406229367,-0.44488797044478645,0.30471030213821637,-0.11757204216562618,-0.31468890529707505,0.1908144433646702,0.30949668638381,-0.3734378678327376,0.43196173879808974,0.22767483284434317,-0.6073988535180339,-0.4206004136676882,-0.005953924050623477,0.11685107129733191,-0.2919276652283068,0.3410044778657588,0.13090224538466558,0.2535056534085217,-0.03709427341821461,-0.22498473738284838,-0.06003650449649517,0.31307792814247176,-0.11326176670259835,-0.1332294741513071,0.053652901940221494,0.6866576073914415,0.2936515621529742,0.0008323496720892831,-0.0814097784850061,-0.5184045779146499,-0.018771087721213234,-0.10578340996313905,-0.4053313499705591,0.3515406896085319,0.5566931493841781,0.32425202555920685,0.22196509639981674,0.584053638287741,0.06367171850130808,-0.024220265323986884,-0.04671382396684712,-0.2961948374345762,0.1396938766153571,0.39996947126826843,0.0009176183066899879,-0.2515221835371989,0.47207110798237495,0.3859078449755837,-0.016092560008248588,-0.20395505085822543,-0.32998571204983584,0.39596297833300376,0.12824593504914264,-0.39479353106279513
biasActivation=0,1,1
[BASIC:ACTIVATION]
"ActivationSigmoid"
"ActivationSigmoid"
"ActivationLinear"
