encog,BasicNetwork,java,3.0.0,1,1547771783482
[BASIC]
[BASIC:PARAMS]
[BASIC:NETWORK]
beginTraining=0
connectionLimit=0
contextTargetOffset=0,0,0
contextTargetSize=0,0,0
endTraining=2
hasContext=f
inputCount=10
layerCounts=1,30,11
layerFeedCounts=1,29,10
layerContextCount=0,0,0
layerIndex=0,1,31
output=0,0,0,0,0,0,0,0,0,0,0,0,0,0,0,0,0,0,0,0,0,0,0,0,0,0,0,0,0,0,1,0,0,0,0,0,0,0,0,0,0,1
outputCount=1
weightIndex=0,30,349
weights=-0.0731125209033656,-0.5374611692153437,0.3552221905206223,-0.5096123227279644,0.1280568526116093,-0.20700744074333588,-0.5087561336738908,0.10205183569283555,-0.4361532570387975,-0.24836177385852615,-0.24978743024204408,0.14740457440803562,0.17302385091072678,-0.29498792319867356,-0.09804332074581172,0.10328317963610235,-0.5437520478525114,-0.271670359161191,-0.4255329048872207,-0.5287364120129264,-0.4127139934452108,0.3262745984360166,-0.48369492786855767,-0.25082003526838026,-0.45276579826287594,-0.2651890563024083,-0.1109911119682676,0.10325839525004935,0.12618136248648204,-0.0061629548940172205,-0.06259387565680867,-0.6561319059130826,0.09536273418752797,-0.2529419818950434,-0.9229312105914256,0.24714165938870533,-0.8399077786952414,3.0637102049558624,0.4199459906178413,-0.10252166228727624,0.4422082568856716,-0.6812340526226701,-0.9720324647657006,-0.3035788547926164,-0.16932659360001004,0.10969756152895904,-0.42864535772487905,-0.18241535012805118,-2.4952040397393556,-0.24607515686226442,0.40392361032123697,0.5462377441859572,-0.5815131599117603,-0.2011639589066234,0.622562397713066,0.4157610121462102,3.6879164548602903,-0.21399377373343095,0.17933978526136735,-1.5820852392281124,-0.22890858865743613,1.124187469966634,-1.3857977240098744,-0.6145236073872742,-0.0989407860303843,-0.42357557431002235,0.13586508871229785,-0.34820528852409105,-0.032690220744389174,-0.24427328596339556,-0.20752549130729833,-0.6597461156354689,0.33753948401228184,0.3392554822795343,0.6768083068638914,0.3143379924820455,0.32268966403781574,0.02725014299274406,-1.2547904209567655,0.06909456014006427,0.39414026462282914,0.39701557943008897,-0.08835797230721215,0.3611005299546535,-0.6062367442930275,-0.2811250874926421,0.47171703638473905,-0.38739720471256506,0.0534814784209674,0.060493275795633725,-1.1583690037157397,-0.3429481397013224,-0.1625450917849,-0.11973458205025132,0.3245270597439188,-0.20063812281650678,-0.7057870062311662,0.15804217404797394,0.06598419770489669,0.17549649304065124,0.08258597941983184,0.05679861221953388,-0.41897408454261664,-0.6684248561567878,-0.2288402053480875,-0.0409560062807752,0.3558532115268228,0.36002890072252275,0.18918370141581695,-0.2282451517598688,0.43294705106370573,0.15234592347262454,0.3103237925139911,0.2795107492981823,-0.414017077580965,0.12223156469134598,0.5610648692678892,-1.9145877334719417,-0.6408462450238332,-0.3975219347310787,-0.5679222621969799,0.06348304894901854,-0.22425873074827055,0.17749528381009913,-0.6900100712925812,-0.2747956572728594,-1.401391215781715,-0.13870085157934978,-0.21387600812485785,0.0264954923422876,-0.25751496226526127,-0.8320103575253907,-0.973500977766611,0.04949183719924671,-0.30839787492823306,-0.9168579813187839,0.17246855855123983,-0.549011493612024,-0.30742491556662077,0.08021144021621555,-0.8811533847395713,-0.41564772143682643,0.1478208411022999,-1.7983922562030858,-1.7277103883642007,-0.8167766141342943,-1.005545267132753,-0.42253593668370854,0.09851515733254987,0.006813563727424933,-0.037693864156034644,2.5008288747340663,0.37280049268447363,1.9707549896329775,0.7465584879450783,-0.22022092106104527,0.026322794082830423,1.0502885846846226,-0.25311874639882004,0.9297407164808164,0.08078977011993675,0.25499404018691035,0.9837235647138088,0.36031760007610414,0.33386219044080295,-0.07895035406997516,0.422210310768357,0.405500309680165,0.5655050329970737,0.13538534713511483,-0.13743639628991158,0.05092767688840185,-0.3016921692627797,-0.35248936066897035,-0.2274671118102803,-0.6836425268992976,0.5629799620240672,-0.7475767654388774,-1.5907079873654384,-0.26444856985009163,-0.5893180301942753,-0.3136235872787682,0.6084346397663684,0.09935472078654271,0.23892031492980792,0.413176985931443,0.4701557427413332,0.016958791564280668,0.11443215060079111,-0.5237859753424161,0.05782682937581885,0.9636776103734692,0.14650529507850457,1.851078061989137,0.18015546776654148,0.08311440272162303,-0.06665940685423206,0.5037457521301634,0.3341747553608905,-1.054504353706322,0.21608186302577825,0.6215458683564454,-0.30259240259823944,0.44150617980925405,-0.2349964872736251,-1.0285334215929998,-0.33821530796036375,0.22682667058522663,-0.2825786717147557,-0.7441647065993926,0.15487207010986134,0.42197937682704106,-0.11808026639976786,-0.029823268470769427,-0.20588514686390824,-0.19941791775437764,0.7655280827780903,-0.8307593062026183,-0.9008584887978106,-0.012824030439491863,0.11397302801712215,-0.08773728378981434,-0.39124038371375075,-0.3606175901567032,0.49100450947767577,0.0474888259215421,-0.20717417099688865,0.6769078697608236,-0.10320327706602193,-0.44432278595658015,-0.5495586914601546,0.02564142437678121,0.24485611196205026,-0.1665537883730725,-0.40025378113159893,-0.32678289257582194,-0.25144785237126266,0.01826640614141376,0.548484983415194,-0.7210453642614324,-0.4067615111384449,0.3054725170959033,-0.40145769357800754,0.2603605024841678,0.45988369790262423,-0.35166049823266,0.3875886709734263,0.13523615617736426,-0.025811405538226573,1.1983654178158376,-0.03869116154014676,-0.054442243029428176,-0.5254663885541649,0.1706374221623151,0.7282072541466865,0.25543062917226717,-0.4180437680325127,0.25621222310443514,-0.2096853174590836,-1.2149418675796213,-0.13780500921352673,-0.09982089133348215,-1.9975397073250516,0.019622390850236655,-1.8010927999382806,1.0281746641850378,0.15021750377318735,0.41617362131634944,-0.42805454991454694,0.7062585988545415,-2.1982618267468648,-1.393796455986961,-1.6105105287090358,-1.9922709007659078,-1.7799049271855447,-0.962359624029486,-0.14587766354513412,0.2098387651921636,-1.321622592272793,-0.37415225645199646,-4.978581667050358,-0.06502166112158256,-0.5869891212163386,-0.49203135161361344,1.3835745718085273,0.2858450472729176,0.058915491957980015,3.773770365667198,-0.04527899034553959,-0.9866475789487176,0.8949703988226558,-0.21709493021544882,-1.3469235231457644,-0.2986067784329754,-0.4696407420597349,-0.32155891386927,-0.5646747516746103,0.1325385037320596,-0.10391603424208545,-0.12743337365884475,-0.2993333015967681,0.4450653819686139,-3.324463874040654,-0.06784103522089191,0.3589151623409573,-0.6595605777781088,-0.34426168457598266,-0.1159753871844472,0.029621591425927015,0.006073821791472951,-0.08096241788634234,-0.4120318171740312,0.34695773787488887,-0.1659542164038093,-0.28503871005202736,0.07178879672000488,0.15533966209277497,-0.1634837146215575,-0.19553740978778802,-0.6972001458574559,2.7494031864270942,0.2638104710755525,-0.005779412592928411,2.3211327102354447,-0.849761554948402,-0.008938230003026286,-0.34563628946237107,-0.16540288066111972,0.3650157268422375,0.5538780696240652,0.33187737944962314,0.18488255910541995,0.48049575189388505,0.2225990054781844,-0.4561883877050163,0.14693988474507153,-0.2540124760581391,-0.12411750869714293,0.6263274036970686,0.2122985272785062,-0.13709858335886677,0.3083022096613882,0.06992539683097279,-0.06332118371705216,0.22019174182749796,-0.4294728687491223,0.3519422851623524,-0.4826955393724488,-0.553779110578542
biasActivation=0,1,1
[BASIC:ACTIVATION]
"ActivationSigmoid"
"ActivationSigmoid"
"ActivationLinear"
