encog,BasicNetwork,java,3.0.0,1,1547771812122
[BASIC]
[BASIC:PARAMS]
[BASIC:NETWORK]
beginTraining=0
connectionLimit=0
contextTargetOffset=0,0,0
contextTargetSize=0,0,0
endTraining=2
hasContext=f
inputCount=10
layerCounts=1,30,11
layerFeedCounts=1,29,10
layerContextCount=0,0,0
layerIndex=0,1,31
output=0,0,0,0,0,0,0,0,0,0,0,0,0,0,0,0,0,0,0,0,0,0,0,0,0,0,0,0,0,0,1,0,0,0,0,0,0,0,0,0,0,1
outputCount=1
weightIndex=0,30,349
weights=-0.12438366909672523,-0.5662202961789168,0.51670584042907,-0.4893042559404844,0.13115389120557525,-0.21266734904347398,-0.5093955529703209,0.5513417607448816,-0.5001072565295409,-0.2491134731444218,-0.3662909406074438,0.1450051118216229,0.17310932219329508,-0.3041174501791125,-0.10290340697754127,0.10374485801215985,-0.543729787500511,-0.2734431501002177,-0.4260213232534216,-0.604415602188796,-0.4115904426422081,0.6388591361534747,-0.38352560869131375,-0.3313160787400547,-0.45271232106553194,-0.26147121464833006,-0.46674275009225186,0.10335002013261774,0.12625841744905034,-0.006083365531448985,-0.04052752251920155,-0.6902721003299357,0.8188237465061698,-0.2890448912686919,-2.2883698269032786,0.09696422194733212,-0.8028565517659244,3.668201241343282,1.0098702804020967,-1.6608697141292446,0.44706041950751096,-0.8012819137023643,-2.2362369576459846,-0.3039543234526172,-0.1746393335400475,0.9567845642066707,-0.6695024269019133,-0.1419862267169163,-3.1951566904884956,-0.2465633362294876,0.6960753396819523,0.5461776737848558,-0.5267543358677276,-0.2011286788490922,0.5762376919149651,0.1831986594186122,3.688243930327259,-0.5383180214869171,0.17957189489210412,-0.8419571937840341,-0.3120611770056472,1.101073652293159,-1.7195552823265265,-0.5947384053541784,-0.09899402562641432,-0.4306649560308098,0.17520481808213065,-1.0750074770352827,-0.032811275980189465,-0.2503212896433989,-0.2402437903505946,-0.6588489958449605,0.38869817038830706,0.3392372825995345,0.676953363800603,0.3119212979840413,0.34472516920570984,-0.17319963492721482,-1.3746699891959833,0.15359295404826825,0.23582013528007367,0.4043874503640942,-0.3695038065453423,0.6414350939338526,-0.6344241573354151,-1.635704537115468,-0.2965252286073511,-0.7381317113624147,0.47779981578708736,0.4491070899068524,-6.894108450459317,1.1732162395527956,-0.1590558924239393,-0.0426566769040625,0.3223300100690528,-0.20879315497531808,-0.8940490661699863,0.4984735290542293,0.06424009541758131,0.17153338241561064,0.0824579207480003,-0.10988370131783261,-0.4187747138820317,-1.534740195055521,-0.2288521369511212,-0.04095921875803959,0.35588271176435077,0.35992594181807264,0.18952234849958363,-0.22931924047327965,0.5549134913983442,0.15118070443736364,0.5565222658756709,0.27420965519518636,-0.4226103046007213,0.1202627022827442,0.7364095175618056,-2.0872592495382483,-0.6320903743168579,-0.188730896534874,-0.7438796890467216,0.0415003169582685,-0.2243870883491472,0.18672818585757167,-1.0076241678935658,-0.3432987268673111,-1.4204209087501714,0.22215040561526259,-0.21430545531099937,0.3161643645597752,-0.2603127949984942,-2.166731198574022,-1.0099578291159037,0.8172703405085421,-0.07401556403020833,-0.9174924221587122,3.4978086752854267,-1.0049411204562892,-0.3065859280388104,0.08018256393179998,-1.2104526928888157,0.1506173016206788,0.14777225673565694,-3.404829745759973,-2.9870390677000223,-0.8553276986888216,-2.2161420935225324,-1.236085010876775,0.18365111332558193,-0.5157977841469831,-0.03781918749303716,115.4300179859115,0.03380312415786477,87.40837659419674,1.3590823236624672,-0.22017927076394928,0.026469217655610257,6.603420786774111,-0.24434423607509384,3.9183511894792447,47.99237860751935,35.341113103308025,0.9793744918716375,0.36324617533917913,0.3343332650041819,-0.09901972580653837,0.5855827154426333,0.4058299349974256,0.5681267192117786,0.20131244532274456,-0.0834888017830502,0.05120366127459025,-0.3010606374785422,-0.3525770095484242,-0.2279531753334477,-0.8345921988168149,0.9315894450895615,-1.0990703737545882,-1.1024370150981795,-0.25997221292599537,-0.7170992865659807,-0.31399411077953177,0.5583305302691726,0.0991662976369868,0.23791701623090306,0.5173350634632687,0.4554046200884607,-0.8359443366593988,1.3578834001977211,-0.529804412481573,0.0593809541404428,1.2227757008614313,1.2427034705638456,3.9110599418301883,-0.17429710140606533,0.08348434205927832,1.242612270508396,0.6615504691658393,0.6071870739125631,-1.3096844999864732,0.2155459958891283,0.6216334259994526,-0.2821120287747638,0.4439543694502434,-0.2352114172001643,-1.0285389225937138,-0.33775143883161246,0.23228493807825187,-0.31818873322663244,-0.745608216818565,0.1539796091330397,1.7364613480309343,-0.11876690452007524,-0.936697545840234,-0.20474721366239748,-0.2608445026255482,0.7779795977527157,-0.8288790190495713,-3.1931218905839542,-0.012777041895491871,0.39215379379160464,-0.08783743075427757,-1.7678114710312811,-0.18361645862718617,1.406787280214317,0.08681126399605371,-0.13923449299776874,0.6822943697484094,-0.10327353677802208,-0.4443809230186093,-0.5511594801779888,0.025454757463897956,0.21437191162119673,-0.1666441108522512,-0.4001152498357933,-0.2548580840357445,-0.2732235643456858,0.02059376279859839,0.5490012308568638,-0.8780628565472345,-0.6758563343025701,0.305351160955023,-0.4012359700374523,0.26080968278613015,0.6189700107185325,-0.3501222117090783,0.38906023731900574,0.13548245688282304,-0.020618619779801922,1.3784876372401125,-0.04540233199637988,-0.32712100548488476,-0.613289758275954,0.1696765798379051,0.5569671534511957,0.11792916354079697,-0.4180623165009625,0.2563705520289113,-0.15758297112594286,-1.0797967896957517,-0.13788986052809502,-0.09955449469184345,-1.9889470158703482,0.015877795077074635,-1.5855128277900423,1.4126306244692346,0.24728392307609015,0.3938739141933354,-1.0040836374644007,0.7127702277475987,-2.084085185906067,-1.3935876347817233,-3.3226811713108835,-5.383837053614946,-13.979547107323617,-2.191867742764411,-0.14561921286051116,0.2170593560229491,-1.389498509627479,-0.37438244549293626,-6.549485644659595,-0.9692473499081782,-3.500616127858508,-0.49198680693234653,1.7055345333976895,0.2899588845907517,0.05941553775000912,4.5022497959318875,-0.3849878131641362,-1.1889255508846195,0.8929033839515854,0.0008108336783575389,-2.0235685609421923,-0.29846422249402116,-0.4697828671307089,-0.3358309231543777,-0.8429021218546907,0.16782420968223366,-0.10382620380744235,-0.12752357200844414,-1.2004370361234815,0.4372395506745426,-3.390808952080565,0.1485895280492088,0.3588221428030688,-0.659479986380565,-0.36568120091743567,-0.11621007731397609,0.02923656899132092,0.004392238171987048,-0.08359650389612473,-0.4120242040689852,0.34685002738263654,-0.16583411808231366,-0.270757333456981,0.07173830358596793,0.06837815085388567,2.212379085950671,-0.20224349416893816,-1.8984365368969571,5.6131996639245605,0.49223533467038116,0.5624745646982251,1.9845270708715268,-1.5706482695324757,0.6857425022524692,-0.35449839743235906,0.193325911724864,0.4019920659038067,0.5601835162856001,0.33215146553750197,0.03244021949539493,0.48056896447413366,0.22353409694364682,-0.42816022549627325,0.24276736036785745,-0.1533396037005861,-0.12402211145450841,0.6264891622249388,0.21313168739150687,-0.13709460719162533,0.3042817563769572,0.06931023683783859,0.29893580794783714,0.17235180256705138,-0.42202545706875483,0.33844345589384944,-0.479851369516016,-0.5539359984805838
biasActivation=0,1,1
[BASIC:ACTIVATION]
"ActivationSigmoid"
"ActivationSigmoid"
"ActivationLinear"
