encog,BasicNetwork,java,3.0.0,1,1547771820035
[BASIC]
[BASIC:PARAMS]
[BASIC:NETWORK]
beginTraining=0
connectionLimit=0
contextTargetOffset=0,0,0
contextTargetSize=0,0,0
endTraining=2
hasContext=f
inputCount=10
layerCounts=1,30,11
layerFeedCounts=1,29,10
layerContextCount=0,0,0
layerIndex=0,1,31
output=0,0,0,0,0,0,0,0,0,0,0,0,0,0,0,0,0,0,0,0,0,0,0,0,0,0,0,0,0,0,1,0,0,0,0,0,0,0,0,0,0,1
outputCount=1
weightIndex=0,30,349
weights=-0.12971385209353833,-0.566236852082917,0.557802371692295,-0.4886152986680873,0.1725001561649426,-0.32462947063504727,-0.509397464970321,0.6273334858719418,-0.5001335681727483,-0.24928197262753446,-0.39121706299688386,0.1448160136772326,0.17314246698576868,-0.3041158485791125,-0.14304800154282346,0.10761816987121407,-0.5437370675005112,-0.27344287505836423,-0.4260017885334218,-0.6043561407334356,-0.3515971763579547,0.649793827823903,-0.4358074174462737,-0.3313417897911752,-0.4526979911455321,-0.2416793129080388,-0.46997973936131315,0.10346203086340919,0.12628872436233035,-0.006050220738975384,0.23319083842756375,-0.6990862165599879,0.865339912045479,-0.44044764499975453,-2.4990426514725956,0.09697267731222933,-0.8292399372305407,3.669281724050478,1.0168414863724844,-1.68485194493228,0.4470665759475938,-0.8022677059160949,-2.260891155821115,-0.3074712482337959,-0.17468598887135225,0.9562895144206884,-0.7159452353433745,-0.12319572887285928,-3.2297007674218126,-0.2465302571783669,0.6983605207776202,0.5461730337848557,-0.5235953804107639,-0.20116094293334233,0.8097023089859777,0.18305548718811668,3.6882623018472596,-0.9039276758633757,0.17959794071610416,-0.8388250176360091,-0.31266735341434676,1.112504751650317,-1.7191883931571272,-0.5947455850095523,-0.09901964343099115,-0.43076577232434843,0.22408027094560884,-1.1323624274685744,-0.03393668887195384,-0.2911897903227376,-0.24023754875059458,-0.6589185076424082,0.39409069347437015,0.339204137807061,0.6769840493998897,0.3118736262528067,0.34510541416705337,-0.17041734759560942,-1.5571727052352657,0.14274871652182594,0.31280718278270564,0.44947742289680276,-0.37228589662289713,0.6414747608307658,-0.6344563104694172,-1.6356712697551368,-1.010824140129525,-0.4304214978998819,0.657417327007006,0.9851035915036319,-6.925228406137595,1.1661218326746794,0.421611127014767,-0.27492539097408775,0.3643442292850743,-0.21526071346559758,-0.9030998846061393,1.0700537532185417,0.06422002528750768,0.1715499147147313,0.08255166583541998,-0.11116589509717757,-0.4193679298753121,-1.5384563506749107,-0.22883368735112117,-0.0410322135340618,0.3558724157643509,0.35938222414261517,0.18954265537958365,-0.22933325007327968,0.5549148987583442,0.15488996631921126,0.5406712004468452,0.19934703323401012,-0.42260826300072124,0.12023700212274413,0.7224314573791456,-2.0872817816982487,-0.6321406298564993,-0.4409333366875221,-0.7349424233539906,0.03979840749891018,-0.22471598951852562,0.1864800024792588,-1.641786998783801,-0.7978191044479841,-1.4204711881717653,0.22021199969090338,-0.21693238894564867,0.3161867242261633,-0.40945009988717146,-2.2167200760508847,-1.0654398712441728,0.8961158565277489,-0.07366077963314757,-0.9278933987980587,3.8055188887479594,-0.9988404851148395,-0.3347268820533138,0.07265897381582478,-1.2175221821413924,0.1862481187793894,0.14773610064267817,-4.183579440290859,-3.009341810434856,-0.8498586160180008,-2.448772572109991,-1.2412684529679208,0.19705937118413702,-0.5397800149500187,-0.03794104731725425,195.83961836268142,0.03734004102800644,359.69452919788046,1.3644873171065914,-0.22016108370843568,0.02643831930297026,6.641097466858469,-0.24423480927383387,3.950710912501306,377.0895921710915,255.88110787476785,0.9433546243986239,0.3633105630716664,0.3343606250542554,-0.09406499354582937,0.6744171190745736,0.40244708200887597,0.7475572273729654,0.21179471018302395,0.07460135586048144,0.05119168044873099,-0.2623036477157259,-0.3525907435874642,-0.22791484222408548,-0.8370202694413174,0.9758001149383283,-1.230994756420268,-0.9787758066277146,-0.26489258366066076,-0.7289646725825245,-0.31678111594909203,0.27516652600262165,0.09675027329779023,0.23808301846057017,0.5213136973721811,0.4642434006844081,-0.9041765261000821,1.3436929485729512,-0.5996726165330857,0.06046516478475052,1.227580176597067,1.5271676177059987,3.8956823531198848,-0.43743747070549793,0.0834774604592783,1.2269267186208062,0.6684863349066752,0.6957934469606172,-1.2731478874977238,0.12507224970052422,0.6216429411994527,-0.28564110822968936,0.4581448210750138,-0.25500644682337553,-1.0285544041937134,-0.33759945022533183,0.23230407821930787,-0.3268601647299702,-0.7462006784030647,0.15396575535683998,2.0926056284258725,-0.14376409880518085,-0.9146536968479815,-0.24670753281856833,-0.26086790342280636,0.777873547796696,-0.8289486682250251,-3.2300502846577435,-0.01289433329256299,0.3931846178563534,-0.08790478061669733,-1.7220426162974996,-0.3231546643266621,1.4151105892671032,0.2524470086476085,0.08655005944563329,0.6822824398284092,-0.10326982317802207,-0.4443673042666094,-0.5511868705554916,0.025180673156082717,0.16596176131196624,-0.1667284933381717,-0.4001302393397932,-0.25492210741110477,-0.27674406828831216,0.021719023759292876,0.5490016708568638,-0.8803606937772337,-0.6761643203888325,0.30536244255502293,-0.40123289643745236,0.2652734329450755,0.6892654178666994,-0.350160062976567,0.38904106739900596,0.1363226513812861,-0.0013995485862556465,1.3784856772401124,-0.047313359537734974,-0.43756926239381805,-0.61296793968823,0.1696496556825991,0.5569476168395603,0.117942005140797,-0.4180718317009624,0.2563528405375974,-0.15460276095016154,-1.0978346517871655,-0.13792300532056861,-0.09957743643289949,-1.9889448774324714,0.015096700395256289,-1.5688023302315912,1.4144204307903068,0.24767676450076107,0.3913577126283819,-1.0185232948071021,0.7126688977660665,-2.00392527178754,-1.3934898896393217,-3.342631544759116,-5.490190828547458,-25.378057305456114,-2.6371321486223844,-0.14766150421174123,0.9285411241701709,-1.9305276572421675,-0.37568209381541284,-6.5489209117109635,-0.9692761554148276,-9.142201937398482,-0.49141900197678423,1.705635919195578,0.29148469558212464,0.1466780244288325,4.590856168979942,-0.3542217114113396,-1.3107801881047778,0.8928533373487895,0.05997447890698623,-2.0304216856953743,-0.2983066407070291,-0.469829322149195,-0.34524226915797324,-0.9126282617113958,0.5259627769304284,-0.10384169167084939,-0.12843628269778964,-1.4192713885211956,0.30194311442992733,-3.40717450035299,0.18732053967036505,0.35880016392306896,-0.6594634304765649,-0.3927858774077909,-0.11624000731768772,0.02753465953196258,0.00438548825103391,-0.08938509817295967,-0.41209445105920567,0.3468049711373723,-0.16846090656602677,-0.24046646872703056,0.07169269064895785,-0.09878157255548092,2.307420183501631,-0.2061584971738204,-2.142290016259816,5.612585072809234,0.49226548314425345,0.7142510733953443,1.9907480272656652,-1.5200471597563567,0.6855553191452846,-0.6751299538968718,0.19334173298023785,0.42909674239416196,0.5602144511999557,0.33385337499686035,0.03248443999763621,0.48029380132297145,0.24516682603329606,-0.393099024143878,0.48861336912701786,-0.1531684698375405,-0.12397433968086576,0.6265190409086158,0.21332599447842562,-0.13706467718791376,0.30441106337871365,0.06681873534344267,0.2989866715675683,0.17234923962941592,-0.4012283122393985,0.3385109750985412,-0.4797998334666429,-0.5539028536881101
biasActivation=0,1,1
[BASIC:ACTIVATION]
"ActivationSigmoid"
"ActivationSigmoid"
"ActivationLinear"
