encog,BasicNetwork,java,3.0.0,1,1547771841079
[BASIC]
[BASIC:PARAMS]
[BASIC:NETWORK]
beginTraining=0
connectionLimit=0
contextTargetOffset=0,0,0
contextTargetSize=0,0,0
endTraining=2
hasContext=f
inputCount=10
layerCounts=1,30,11
layerFeedCounts=1,29,10
layerContextCount=0,0,0
layerIndex=0,1,31
output=0,0,0,0,0,0,0,0,0,0,0,0,0,0,0,0,0,0,0,0,0,0,0,0,0,0,0,0,0,0,1,0,0,0,0,0,0,0,0,0,0,1
outputCount=1
weightIndex=0,30,349
weights=-0.1389272098414492,-0.5662977205553957,0.6551653796884449,-0.4883243303030398,0.3266175256768709,-0.4165432273626366,-0.509401498101345,0.79572717299592,-0.4999511413724457,-0.29450775976897237,-0.3943439607956695,-0.01686937906550469,0.1732559045828693,-0.30410898424274513,-0.24357774589565848,0.11748130314608811,-0.5437293944314551,-0.27345322234796415,-0.425948399611566,-0.6043284551843792,-0.2795348569498006,0.6569580651184788,-0.44303639253039584,-0.3314042679867338,-0.4526164142288095,-0.2190668347255912,-0.475475803826463,0.1036788488434253,0.1263929036677707,-0.005971134547833207,0.28309599136471525,-0.7017155830818287,0.8600279845686887,-0.8003190676182572,-2.3386292884660977,0.09706066303164985,-0.9688622080646772,3.7471260850413532,1.0168513620866573,-1.708430454767435,0.447013158569802,-0.8123420801043927,-2.2610344653569063,-0.3153726024876118,-0.1876636990436475,0.9619573256423657,-0.7445266952272334,-0.12324504931904996,-3.349138456990612,-0.24653188139136806,0.6986784000806682,0.5461251910110109,-0.44918133612087796,-0.2014914776380389,0.9309409891228648,-0.1078363669432342,3.688225244425852,-1.0423252884580418,0.1806877414820768,-0.8387580921293029,-0.27685807926354444,1.2060512784851523,-1.7191688369843279,-0.6027240559666199,-0.0990182280632792,-0.4314430397985495,0.22547587856125284,-1.1392263062156014,-0.03572976668248052,-0.30794638778660005,-0.24015884891610953,-0.658753927361683,0.3940118314367195,0.3391535136852052,0.6876037632109785,0.31172709328046677,0.3461926521342529,-0.1043376740048178,-1.705500115466584,0.08544530276199673,0.3549157563805515,0.8912684397314359,-0.37473302593417146,0.6469264112031562,-0.6344947559858659,-1.6372483851693203,-1.973098849597373,-0.29214380338311735,0.6685480446782758,1.1184760213668665,-6.921571358469632,1.1564431098814145,0.623173273178644,-0.2735967888284928,0.8043200359521839,-0.21622769462380886,-0.9737003235556316,1.157805676926951,0.04743040090030748,0.1720316425341711,0.08961682682396262,-0.34170241172762705,-0.5152087993288181,-1.536923325624193,-0.22899428203462424,-0.08428127152347795,0.3558398629195511,0.35849700306015764,0.18962515718524534,-0.22930596281417942,0.5550030782967208,0.29023139305142365,0.5400022255215137,0.1777548915517631,-0.42261343784872113,0.12022534863871208,0.7194088184914127,-2.087299695761916,-1.1189879979868995,-0.61908428786089,-0.8740672238279703,-0.41528049227623676,-0.22425732664677486,0.1870231599765519,-2.7048564576898144,-0.7274592829712997,-1.420868253052964,0.19520669539112265,-0.48365380275736913,0.31568377907677103,-0.6301878220764917,-2.2635632468266014,-1.0694120357184285,0.8859922514227311,-0.07351382559883843,-0.9725044659574239,4.498214812065085,-0.9988857226416248,-0.6888868544885371,0.0557850610179076,-1.2433603919642695,0.24724983154050303,0.1266150776897875,-4.9595822273514,-3.3038894028999293,-0.8498893795912628,-2.8350116377390324,-1.3271586430412643,0.18096042098479967,-0.7392875168898264,-0.03799872503574993,1328.6629267274357,0.03746548848236585,2654.031592738288,1.4194028047673621,-0.2201475323044036,0.026344363695816952,6.699065686248135,-0.24423679201800028,3.954826649846183,1067.8307871693994,622.5327859683454,4.920912047179848,0.3631997318076003,0.5778186734455646,1.1475884382315593,0.7781865359036142,-1.3577127977440695,1.6507108339132235,0.2118127019315933,0.06835685086660702,0.15178053848515277,4.989378076403017,-0.428792955907229,-0.22773795875111114,-1.0837212369070581,1.4355938098984482,-1.3719160327036533,-0.7465817193712799,-0.28526420522124785,-0.7338800585218839,-0.31703362318954303,-0.2206586770996037,0.0959531337781337,0.18718371963609753,0.5516040925907691,0.6149427208506655,-0.9038742464455639,1.1330431046063572,-0.6202711229649108,0.06468809882821237,1.2281085331485504,1.473825243537722,3.883529987220532,-0.430131162811726,0.10096760868394758,1.2347763777730443,0.7593850438340274,-0.06792599516874595,-1.4348530465689209,-0.11429616712345488,0.621898779023,-1.6909897274564467,0.6778584655326185,-0.21627491737832624,-1.0285393631246582,-0.3376346819670269,0.2324563122634416,-0.32496849225741986,-0.8115593609362837,0.15396902375389596,2.407188412283931,-0.1845876658096848,-0.8801766123697964,-0.34122029250114727,-0.26125918217524363,0.7778610824822794,-0.836160155997617,-3.260852208407224,-0.07528474688573877,0.3585339049352469,-0.26412462518641394,-1.6219789073708586,-0.45066368548205477,1.4152210983726448,0.2508961900175415,0.08436967454957758,0.6822503911203129,-0.11604448796505391,-0.4443154155956063,-0.5515040237334313,0.019203999743313063,0.13669313636549074,-0.16707151618888566,-0.4000731874921135,-0.2549146096191048,-0.27714479585949126,0.02156331949729656,0.5489744503830075,-0.9059887032905969,-0.6761776984313541,0.30520651490145173,-0.40120038610246006,0.30655618184908856,0.7225911648280386,-0.35029902024538206,0.38896353395067135,0.1376412962399477,0.16493416140881645,1.3784514933553134,-0.2322198856945275,-0.4373326220263169,-0.6336095796124707,0.16966821452252423,0.5569533115205636,0.11788231012110091,-0.41806388565296243,0.25636453096959727,-0.1557112084096289,-1.2413733863396785,-0.13797903424242466,-0.09708311330953678,-1.9888649708600898,0.015214211731697274,-1.5686376691589616,1.4145662670573709,0.2476939724453498,0.3912266453562845,-1.0167264758012171,0.7127505955098278,-1.991487834936652,-1.3933981003632525,-4.650816286698925,-7.774452521676509,-183.50799783865253,-2.7454517359763893,-0.8888649782267022,0.9872684443149692,-1.9761882802871737,-0.4011780553446753,-6.549291323118312,-1.1646452927780813,-73.15541654486525,-0.4905524391370929,1.705768460266141,0.5051727373982916,0.2712689200419705,5.0111631089178355,-0.2349066822362858,-1.4993244573514335,0.8930716302352384,0.006044082226885918,-2.3031071748306657,-0.2981910138248859,-0.5460365308593597,-0.3448826818046539,-1.5939025737797858,0.842924675101099,-0.10333233997145672,-0.12798432168382604,-4.639616397087514,0.018379888805233526,-8.342751501307864,0.17901619324353746,0.3587393131362533,-0.667424168710299,-0.4013035986474308,-0.12106819886514604,-0.0191519133415727,0.004577303396178229,-0.08907313879618643,-0.4121438474372671,0.34680730780153857,-0.6417437410848962,-0.26175559914462043,0.07161895881510175,-0.27826094111671973,3.1698029609352574,-0.20526315488749175,-2.1978046873465074,5.617009085080041,0.4923045500250221,0.7286834121087022,1.9885843078059138,-1.516271860222759,0.6858818055641007,-1.1692781391320324,0.34334457743734365,0.46110383324277293,1.5485395311952004,0.3784096772401183,0.032144969826393165,0.4781176783725695,0.7466182495089698,-0.4157603752470284,15.540317274212526,-0.08762650375931877,-0.12375711784686158,0.6456312277014551,0.21370276214402756,-0.1304860835987384,0.30449350298098543,0.030879279759955892,0.2989639159753436,0.17261522672195478,2.391052680824272,0.3383481045193554,-0.4830214916478851,-0.5538667932552139
biasActivation=0,1,1
[BASIC:ACTIVATION]
"ActivationSigmoid"
"ActivationSigmoid"
"ActivationLinear"
