encog,BasicNetwork,java,3.0.0,1,1547771775230
[BASIC]
[BASIC:PARAMS]
[BASIC:NETWORK]
beginTraining=0
connectionLimit=0
contextTargetOffset=0,0,0
contextTargetSize=0,0,0
endTraining=2
hasContext=f
inputCount=10
layerCounts=1,30,11
layerFeedCounts=1,29,10
layerContextCount=0,0,0
layerIndex=0,1,31
output=0,0,0,0,0,0,0,0,0,0,0,0,0,0,0,0,0,0,0,0,0,0,0,0,0,0,0,0,0,0,1,0,0,0,0,0,0,0,0,0,0,1
outputCount=1
weightIndex=0,30,349
weights=-0.07268935841690359,-0.535520354893121,0.06964893752101245,-0.5102603987746915,0.12803730511720926,-0.20679575112566317,-0.5074415731740803,0.09863596947743734,-0.4367531739531228,-0.249091097870588,-0.24962222826250433,0.14740417804553566,0.17301881091072677,-0.2920017472626319,-0.09802179754581167,0.10284096041208196,-0.5436843351713806,-0.2708170135032586,-0.42253601250873246,-0.42694430097944763,-0.4114317318197177,0.10399341151986392,-0.5016575775485551,-0.1669764967077357,-0.45284468507082337,-0.2719518966863054,-0.11056794948180558,0.1032481872500493,0.12608387995013642,-0.0061711628940172205,0.2450785291859057,-0.1554663345419425,0.19788694916200045,-0.12601576666104358,-0.5310181825209715,0.341734538278343,-0.5322353738525271,2.4617079432607474,0.4296473426357791,-0.025340694608056564,0.4443709160718253,-0.6814322391118864,-0.4612861003505457,-0.3155127858475297,-0.16920757853020837,-0.13177182952569733,-0.41031869808515853,-0.18265748627824357,-0.8401899589281618,-0.37052648513327785,0.24357872026424926,0.5461561935574498,-0.5947183460976854,-0.1975291618089489,-0.005984321940540594,-0.027973836113241418,3.362790702958762,-0.21472341665269132,0.1782368045899584,-0.5329475484092113,-0.2756213665579456,0.2624914485659785,-0.6345425584163358,-0.7266436176386464,-0.09907995388653337,-0.44431680330763146,0.13605816517311137,-0.3353243256996173,-0.03332637890752943,-0.25230314229665773,-0.23611163760855367,-0.5441830793398018,0.3370348097263478,0.3392203156003664,0.6774059268440809,0.31527111869703334,0.36692826164796766,0.022099296511072817,-0.34343600966665055,-0.037248410257408715,0.4847354874366659,0.39744957176820483,-0.0781863072363686,0.3502178780221464,-0.6050180363320171,-0.12004080868241473,0.4717211396064989,-0.34259024852533076,0.05711770501237389,0.05995121092165231,-0.9348003465696377,-0.42679167826196696,-0.16302435851345237,-0.12323556987827934,0.32455957481330755,-0.20069516824763764,-0.7051838737416792,0.15607133170277337,0.06448988498358461,0.1755906467856921,0.07103219255531247,0.07184614484948883,-0.42118004918455193,-0.6253100535527316,-0.2455466999425965,-0.04110401256862646,0.3556062743010487,0.35939017680249813,0.18681381006097977,-0.22857882294918758,0.42804685823396665,0.21250661938532978,0.3139344118047092,0.2741010778078597,-0.4056357433179967,0.07314377344653472,0.06741077744796897,-1.07700298482383,-0.2763709407266633,0.08170138783828679,-0.567699218200631,0.13335372578541105,-0.2248132796962604,0.176162967640024,-0.6560582276253175,-0.32936468749456876,-0.9169691756839403,-0.08507417392576916,-0.21299024656741705,0.06776650939120922,-0.2579810455992942,-0.8216788797417492,-0.6106373317738734,0.04955906828247415,-0.31031662223700274,-0.9168440003638104,-0.28014880571970624,-0.393513987879126,-0.3091171120567975,0.08017723197759485,-0.5509855442001155,-0.44476006121482803,0.14834850861957855,-1.1325974667865202,-1.079656728544719,-0.45732308075410744,-0.7142435416378919,-0.4224617666542466,0.09835781111588944,-0.10392029158771082,-0.03779200347298215,0.6624436651537814,0.21936534417340958,0.5355216268591511,0.3836948419523405,-0.22057620053073285,0.03519650688985288,0.873160247042641,-0.2526012181526657,0.44531867638304173,0.11331702159102683,0.24571561909786868,0.9855680979538944,0.3545439601566477,0.3410640060649728,-0.0803772488979622,0.4186432730072575,0.4055621099619768,0.5637255485592106,0.14280607708895787,0.04126887169988454,0.05883320607835291,-0.3020622557590264,-0.35255842008657046,-0.22524891385330018,-0.7017870911821701,0.2508201109710309,-0.7468344194770893,-0.9468302547846653,-0.27455702116189773,-0.5678254817527579,-0.3149170485804952,0.5313340922206387,0.09916142899299189,0.23892937360980793,0.40297710976152484,0.4508308832298968,0.009093365035383017,0.104323699288985,-0.523278802383899,0.05786423333912407,0.5110602461025231,0.1380004169705836,0.20094022778013101,0.18013823047348548,0.083105785251623,-0.06682446136914973,0.5019225538327335,0.3045705556031967,-0.972002876575189,0.2173792884454597,0.6215786750252453,-0.28416472190197184,0.43914461130775057,-0.2351763727749823,-1.0282930347055876,-0.3517328632086484,0.08013699466838291,-0.3299634039871437,-0.7436678789597843,0.150860338559681,0.3430855868220281,-0.11746238985884319,-0.032044969943602605,-0.20820766454708112,-0.2026455199261295,0.7532556928483211,-0.7533983910855955,-0.26068867047929095,-0.012907069706047106,0.11450260606237522,-0.08829183273780428,-0.37973179673362883,-0.39067029990385677,0.29079226941467523,0.047418616715812247,-0.20720212004904862,0.6726466232574314,-0.10331480591595277,-0.44464839644565385,-0.5495631810737226,0.025691829878147613,0.24442258287396104,-0.16255775122719685,-0.4078024967515121,-0.3509211352531706,-0.2704960940429965,0.017629655617854272,0.5479712335956303,-0.720232363938194,-0.4031235963837061,0.29543596005881334,-0.40832370035139354,0.23834316413702666,0.4539005938463535,-0.3465355830516144,0.1590833887104205,0.13759772467886786,-0.05030446584368167,0.711420419210512,-0.03861269534136124,-0.05546333216700925,-0.524863256064678,0.14314394782932421,0.807671593786197,0.2601718128729069,-0.41783717089969474,0.17687011120755813,-0.21099473562040982,-0.7767396158240064,-0.13781092733852673,-0.100424023822969,-0.30157046393740733,-0.27380572772865686,-0.45540609998084375,1.1328201420983421,0.15025520820224333,0.3601286810554342,-0.4085508518943853,0.5014693706813481,-0.438921415545737,-1.1560905184473684,-0.6546255539472504,-0.7143145377786873,-0.9734956915018879,-0.5994959780367483,-0.15912465783245192,0.20941709696913802,-0.9340569736252669,-0.3768748986407774,-0.9605914976633771,0.16474927047813573,-0.14325427295688703,-0.4920772189764295,0.5646219316857997,0.2798810192279875,0.058364132955995206,1.9199155046266252,-0.032838514101189806,-0.46231082504046417,0.8689704148299575,-0.21655039365439946,-1.2442159266994413,-0.2992910986917256,-0.5789054713205666,-0.3209067061760887,-0.5646226081951867,0.13514193350026432,-0.10511984049087418,-0.22093924089705946,-0.3000945386261999,0.40694277025241793,-0.7060197138912848,-0.016006398058175365,0.35893385996434324,-0.771680588029481,-0.3445043935540882,-0.11592324370502345,0.03520912713173798,-0.07406510081447999,0.27849111549384453,-0.40088089613604866,0.34673851430212166,-0.16621836613936666,-0.2854441042764165,0.07176462362850483,0.1536467276489038,-0.24109024487425534,-0.19563235104570711,-0.05703032753893627,0.7465594692633528,0.17041313693701915,-0.005300581219942715,1.570145689092403,-0.5381196431026105,-0.06459593698358541,-0.3456265909631392,-0.34176229694125493,0.366084151681364,0.5532749371345782,0.33079472663920695,0.2057716896306648,0.4804952816541411,0.16481577153061225,-0.31700679121097447,-0.021262212511100206,-0.2541706608720762,-0.1241072515096429,0.6263333461482685,0.21535330053352128,-0.13640982246635092,0.26806930874706847,0.07152249780118376,-0.06445724624184855,0.2204577001417745,-0.42944536426983587,0.3965225272611952,-0.279540299974882,-0.5530867963427951
biasActivation=0,1,1
[BASIC:ACTIVATION]
"ActivationSigmoid"
"ActivationSigmoid"
"ActivationLinear"
