encog,BasicNetwork,java,3.0.0,1,1547771817227
[BASIC]
[BASIC:PARAMS]
[BASIC:NETWORK]
beginTraining=0
connectionLimit=0
contextTargetOffset=0,0,0
contextTargetSize=0,0,0
endTraining=2
hasContext=f
inputCount=10
layerCounts=1,30,11
layerFeedCounts=1,29,10
layerContextCount=0,0,0
layerIndex=0,1,31
output=0,0,0,0,0,0,0,0,0,0,0,0,0,0,0,0,0,0,0,0,0,0,0,0,0,0,0,0,0,0,1,0,0,0,0,0,0,0,0,0,0,1
outputCount=1
weightIndex=0,30,349
weights=-0.12668194223435342,-0.5662224961789168,0.5309299827825535,-0.4886513100046249,0.16124100997246,-0.2714703785417931,-0.509394824970321,0.6067843214658329,-0.5001397760178905,-0.2491575734313624,-0.3876917056587223,0.14492034783252344,0.17313253706576867,-0.3041218501791124,-0.1208983798373009,0.10630678008279423,-0.5437319875005111,-0.2734426350583642,-0.42601171845342173,-0.6043615087334356,-0.39104473026274394,0.6437410968129259,-0.4241524500411783,-0.3313236467400546,-0.45270792106553204,-0.2530935356814153,-0.46885961358403616,0.10342378324049069,0.12627879444233034,-0.006060150658975384,0.01831328594560829,-0.6982259823622281,0.8560491407984326,-0.43331251846985563,-2.4979460249940253,0.09697247731222933,-0.8199092466368805,3.6688770247330997,1.0157213605952073,-1.67585668773725,0.44707194394759375,-0.8022836047047438,-2.2607948996805534,-0.307464814446623,-0.17467754727135223,0.956158763837601,-0.7092093022796141,-0.12456375075552563,-3.2037944267001266,-0.24654840022948757,0.6985088129877699,0.5461756737848558,-0.5238940728405416,-0.20113837007486013,0.7594985368885293,0.18342102415995132,3.6882523719272595,-0.8268663028318747,0.17958581079610414,-0.8389287302852375,-0.3126906866274324,1.103509494455287,-1.7191910331571272,-0.5947482250095524,-0.09900971351099114,-0.4307186798673767,0.22101316304433727,-1.1279189251582944,-0.033826915307971155,-0.2643174014129963,-0.24023218075059458,-0.6589242212424083,0.3941421838251165,0.3392140677270609,0.6769869106542842,0.3119007136829854,0.3466482969136783,-0.17036739755264588,-1.5478819339882195,0.14623803556096113,0.28593479387296433,0.4115097856267463,-0.3712331501440135,0.6414582617459658,-0.6344381674182963,-1.6356745433551367,-0.9411104745644041,-0.46727768346226767,0.6516229540073136,0.8382741348833103,-6.921770432656518,1.1693616557974784,-0.02673108825438498,-0.2746546592169673,0.3289665045765178,-0.2142473903082741,-0.9026348519398566,1.0583131747801433,0.0642226652875077,0.17153177166361064,0.08250167258850157,-0.1100813974608169,-0.4189773262002061,-1.5380657469998047,-0.22883940095112118,-0.041001063115527404,0.35587778376435086,0.35968221822541513,0.18953272545958363,-0.22932997647327966,0.5549137723583442,0.1517666131264925,0.5410601330083997,0.22291430486772695,-0.42261670460072115,0.12024651732274415,0.72120146247128,-2.0872722664982484,-0.6321306999364992,-0.3817517431979286,-0.7340821891562308,0.041231486238812294,-0.2245009261089207,0.18605931876022724,-1.4188966562108425,-0.5749287618750256,-1.4204733881717653,0.22028960119089078,-0.2152146774965185,0.31617082543751435,-0.35909273201184977,-2.209584949520986,-1.0638346145184638,0.8781783244754885,-0.07370767061520228,-0.9210448651340326,3.7686627031855737,-0.9999606108921165,-0.3110310252044114,0.07760598278931971,-1.2171020240878396,0.16034177805770303,0.14775225665194539,-3.9209969407231084,-3.007743759151211,-0.8498475465618363,-2.3713800920499355,-1.240408218770161,0.19799498087039893,-0.5307847577549888,-0.03792195458202625,184.11363986843543,0.03723632837877807,232.50651746497243,1.3612474939837924,-0.22016077167914927,0.026452435206970257,6.614225077948729,-0.24424473919383388,3.9506111141347713,264.8656082933006,128.69309614185977,0.9632284442005128,0.3633006331516665,0.33435069513425547,-0.09730481666862804,0.5998068577961169,0.40530858197713837,0.6295757424290469,0.21066977159871886,0.07994011179275749,0.05119952201773914,-0.28778764846361227,-0.35259338358746417,-0.22793741508256768,-0.8358953308570123,0.9506522418023049,-1.246518009430093,-1.062128213201739,-0.26165276053786213,-0.7258413193898058,-0.3168594253782334,0.34345356277744593,0.09756606265737043,0.23795384186678356,0.5181903441794624,0.4603979802494215,-0.9061884611694198,1.353023639166611,-0.6026387961638918,0.05986420005027518,1.227838762301611,1.527649102510021,3.9515528763239396,-0.41497165730434393,0.08348634205927832,1.228469601367431,0.6652465117838766,0.6211831856821605,-1.27200970708707,0.2012549170388164,0.6216340595994526,-0.28266947615462834,0.44881413048135366,-0.26171425796351494,-1.0285486905937136,-0.3376833093393451,0.23229785832913188,-0.32606177779769335,-0.7457030816183765,0.1539589100482397,1.8525506974926829,-0.12732761801151865,-0.8968637576798213,-0.22118205311596156,-0.2608559875188064,0.7778803072801609,-0.828938738305025,-3.2229151581278446,-0.012822308991828334,0.39268745109272496,-0.08786457929571757,-1.7509844241357024,-0.24576218426660704,1.415667970074641,0.260570463003262,0.08639714220884133,0.6822923697484093,-0.10327870477802209,-0.4443757550186094,-0.5511842305554916,0.025359892664086777,0.19761641308674474,-0.1667258533381717,-0.40012452573979324,-0.25491217749110484,-0.2769765846214535,0.02179204529582357,0.5489990308568637,-0.8804925646898035,-0.6761569229947285,0.30535916895502296,-0.40123397003745237,0.2627101150087059,0.679974646619653,-0.35014559050101424,0.3890536373190059,0.13595711440945146,0.002631688866617555,1.3784854372401125,-0.047151889861942346,-0.43233222728408044,-0.6130148306702847,0.1696558972825991,0.5569422488395602,0.11793336354079698,-0.41806611810096245,0.2563612821375973,-0.15499169351171607,-1.09719099390567,-0.1379130754005686,-0.09956741494272346,-1.9889446774324713,0.015231746423573828,-1.56869698751136,1.4132954922060017,0.24767591954775617,0.3915437276200178,-1.0231464341771443,0.7126851793570577,-2.029831612509226,-1.3935163212145723,-3.342074163951578,-5.46964166414135,-20.05368133203713,-2.6443794192633714,-0.14594180972385865,0.39403254288868167,-1.8007709979447557,-0.3749118467815571,-6.548918141430855,-0.9692642395108275,-7.2934602799613355,-0.4918647467880433,1.7055797507003592,0.29020095052569833,0.07319937151767103,4.516245907701486,-0.380128052133026,-1.2974655467190563,0.8928659072687897,0.060178992723512265,-2.0294290993043416,-0.2983935858364382,-0.46982395414919503,-0.3434238541893143,-0.8857558728016544,0.3992410417264677,-0.10386199422597678,-0.12865896120996798,-1.3418789084611407,0.41586835604635414,-3.4063142661552304,0.20672002689399527,0.3588100938430689,-0.659477786380565,-0.3875488422980533,-0.1162300773976877,0.0289677382718647,0.004373739087187048,-0.08977403073451418,-0.41206944262145057,0.3468149010573722,-0.16686296743037554,-0.23026439896322942,0.07170262056895786,-0.10364597500623572,2.232809922223174,-0.2063595286703408,-2.0831084227702226,5.61297567648434,0.49225581251914147,0.6982956729913375,1.9923532839913742,-1.529337931003403,0.6855615269904267,-0.5668662216712382,0.19333573138023782,0.42385970728442435,0.5601982951906883,0.3324202962569583,0.03247600991392933,0.48047966878477777,0.2309425922196485,-0.4002341506737769,0.3588567098296062,-0.15317992831303226,-0.1239876201054902,0.6265091109886156,0.2133160645584256,-0.13707460710791378,0.3044048555335716,0.06824948532757386,0.2989840315675683,0.17234034060090764,-0.4149031218061027,0.3385136150985412,-0.47981633255144285,-0.5539127836081102
biasActivation=0,1,1
[BASIC:ACTIVATION]
"ActivationSigmoid"
"ActivationSigmoid"
"ActivationLinear"
