encog,BasicNetwork,java,3.0.0,1,1547771767421
[BASIC]
[BASIC:PARAMS]
[BASIC:NETWORK]
beginTraining=0
connectionLimit=0
contextTargetOffset=0,0,0
contextTargetSize=0,0,0
endTraining=2
hasContext=f
inputCount=10
layerCounts=1,30,11
layerFeedCounts=1,29,10
layerContextCount=0,0,0
layerIndex=0,1,31
output=0,0,0,0,0,0,0,0,0,0,0,0,0,0,0,0,0,0,0,0,0,0,0,0,0,0,0,0,0,0,1,0,0,0,0,0,0,0,0,0,0,1
outputCount=1
weightIndex=0,30,349
weights=-0.07259465685440358,-0.4942916455427209,0.02157423764846135,-0.48897615549584345,0.12796804339845924,-0.2122393658456632,-0.4649107695132805,0.09859213277431236,-0.3950885137035228,-0.18301613313254003,-0.2538165446017043,0.14771624367053565,0.17294954919197675,-0.2323060630104924,-0.09800316863956166,0.10254247508208195,-0.5338620861713804,-0.2468246763432586,-0.3788319231688285,-0.347519841558548,-0.4156442007989178,0.10249806471671191,-0.38124682526052395,-0.13912440179497793,-0.4312186869652234,-0.4152482126339094,-0.11090578698180557,0.10326681615629932,0.1302894121997364,-0.00624042461276722,0.25336250885804007,-0.1316084730861956,0.19494841288115244,-0.10439607920529667,0.04223860112335625,0.34815614383149496,-0.5379045191803927,-0.04669651374463539,0.4336385535579134,-0.07869890365765655,0.4277111838222253,-0.6883057770390545,-0.4475780958264817,-0.32940042477668163,-0.17407045565020834,0.37034942890323946,-0.5473005375176871,-0.29110740594237156,-0.27403538421284673,-0.4841169362050864,0.22486990178891492,0.5235111164374499,-0.6096045813707374,-0.16939157740831912,0.02832642017665328,-0.02824168178439917,0.16753348611608276,-0.44090142468392324,0.19789424530995842,-0.4706103137472984,-0.3892400604884928,0.3602449711102315,-0.3039360729604011,-0.7874818831271992,-0.09577155100653334,-0.5340759594079915,0.1297917169427114,-0.20649238397052877,0.06303039281100285,-0.09387727416295161,-0.014992688054624791,-0.42478820661540573,0.3232921866463478,0.3396074416003665,0.6792203807576809,0.31767318880263323,0.401469635293926,0.11373735234547888,-0.004579259149658708,-0.18677350383300462,0.20859203985700908,0.3873352111417729,-0.07402029789646462,0.4011728427601943,-0.6050705918320171,-0.006081935958018789,0.472303593686499,-0.12069468334831715,0.058524227892373895,0.11420428672376429,-1.1259623216385357,-0.5994191007376815,-0.172943936400541,0.05813713101307638,0.31834846889330753,-0.20061855574763765,-0.6996572859912791,0.14915336979864535,0.05060224605443262,0.17561664778569208,0.24365829569500905,0.08750385054472083,-0.5341269592901519,-0.42872860399880275,-0.36618932605334775,-0.05059272939862646,0.35540570480104866,0.3583744739724981,0.18717153326790203,-0.20448322295304805,0.5087422807913734,0.14656223881433716,0.34623024809324654,0.3725197577536294,-0.36667895327336564,0.13138948395248673,0.3230142988447897,-0.36819596206773153,-0.1322818471510673,0.42073030128454714,-0.5639184614794792,0.05285566875356719,-0.21141185777626037,0.22118595973525595,-0.6278692456344472,-0.34015801737117674,-0.8482585346913891,0.2263939629304959,-0.23701584556741706,0.08439836191527317,-0.25901128843523025,-0.5997833145647355,-0.6550283115415376,0.05838274928247415,-0.32659986655363377,-0.9594667593947581,-0.32526220104824355,-0.27955511515472997,-0.36464608658550285,0.08012297885259487,-0.21739263075385518,-0.45194705579838,0.15212926534073057,-0.5249349757818447,-0.4653919584877471,-0.39376766548480324,-0.8934818363461878,-0.41234740602781467,0.10462653719588944,-0.20486111554952402,-0.03759313159798215,0.5590258730605627,0.24660017340365337,-0.20143109133890702,0.45690245202449825,-0.16178702016388488,0.06749234317839027,0.9442043974949369,-0.2632780787790976,0.3766080353904906,0.6216082566150515,0.26959066501786866,1.0204763461324187,0.35296939460349575,0.36408609941371506,-0.07551437177796223,-0.09749163448261403,0.4380862077795768,0.5841867075901583,0.07637154599384365,0.09002250054426246,0.11912872790669587,-0.2807780124801784,-0.3470318323361704,-0.08115982027770421,-0.7293088354841286,-0.049296491860903874,-0.3833489170763316,-1.5418094415962618,-0.3398836823842977,-0.37124403219882907,-0.3568068493133949,0.43039326825882535,0.0999024018729919,0.24080712460980785,0.3992672772013969,0.41519063372951887,0.011660410873335013,0.097093234418585,-0.4782558102886669,0.1128732153299943,0.5001640924354256,0.14276014076366136,-0.0574989452298909,0.1801001445359855,0.08122803425162299,-0.06839902692230176,0.4233129825907148,0.3035718764927967,-0.06431397272932421,0.23366253276209076,0.6334674142988451,-0.2348522865734345,0.43585992651467287,-0.25376781237958,-1.0277846787055878,-0.3646813082879341,-0.07096370819724482,-0.49797575992530696,-0.7499343271901843,-0.005844649854270936,0.3387832063725665,-0.1517019589668112,-0.04511844982021061,-0.2453309179803432,-0.2235814650054152,0.6852179853098891,-0.5369388259085817,-0.25230480168621316,-0.012031343786047108,0.12231179195677522,-0.07489041081780429,-0.5694172052174238,-0.645274153760048,-0.11822479417434517,0.04739474543261224,-0.21846610532904864,0.6657215922366312,-0.09550562002155277,-0.44705046655125374,-0.5591036644241224,0.025633358003147613,0.25782400479396106,-0.06620097950866456,-0.3884063501202007,-0.3960345305817079,-0.06728394006966462,0.07518255512427603,0.5480237890956302,-0.7147057761877939,-0.43200391166255403,0.23372333646917332,-0.42174344890013593,0.26357197723740455,0.4403034881519036,-0.46007426299738413,-0.15053847580122387,0.11649001667578561,-0.12461363673295933,0.5712418419614235,-0.03320477246136125,-0.08599316472713725,-0.5363439683142779,0.08738787200894625,-0.20442016770273966,0.2936290252751751,-0.17263626671453264,0.06753960269657049,-0.2021901962634921,-0.552578380403474,-0.13761205546352673,-0.10060551157336903,-0.10849972830446017,-0.23416925319995152,-0.2607721291478966,0.5595633584540144,0.13511989443584332,0.38433706338238205,-0.37698057201777735,0.5281468504647913,0.06936981947828767,-0.44728349569126974,-0.6064666186779462,-0.7086935012546233,-0.47900145650618525,-0.6604374692614877,0.008053001344262272,0.3057738686876703,-0.9159619205959626,-0.3649143903057605,-0.3742757810147612,0.037096223835464466,-0.13894767416380926,-0.4910667448260294,0.4619780131247111,0.2795238941141453,0.06363278775548319,0.37075279281819157,-0.31923210726852413,-0.3405259901819169,0.3507228158495487,-0.22147691950399945,-0.43919764868830835,-0.3199947863973256,-0.6397437368091196,-0.3179956406229368,-0.5738879704447865,0.13143030213821638,-0.05157204216562618,-0.2511889052970751,-0.2719055566353297,0.40637168638381,-0.5024378678327375,0.29546173879808973,0.3596748328443432,-0.8325188535180339,-0.35710041366768824,-0.13495392405062345,-0.05642892870266808,-0.24680766522830683,0.40450447786575877,-0.3318177546153344,0.3503806534085217,-0.1660942734182146,-0.3434847373828484,0.07196349550350484,0.14795792814247177,-0.27838176670259834,-0.2022294741513071,-0.059627098059778505,0.8156576073914416,0.07465156215297421,0.0008323496720892831,-0.2824097784850061,-0.5874045779146498,-0.13389108772121322,-0.3697834099631391,-0.38133134997055906,0.37554068960853193,0.5566931493841781,0.33025202555920685,0.23684509639981677,0.45805363828774115,0.13267171850130807,-0.17422026532398688,-0.04671382396684712,-0.24619483743457615,-0.12430612338464293,0.6250894712682684,0.22603761830668995,-0.12252218353719892,0.645351107982375,0.10078784497558377,-0.07959256000824859,0.2587649491417745,-0.42686071204983583,0.5249629783330038,0.22512093504914268,-0.5267935310627951
biasActivation=0,1,1
[BASIC:ACTIVATION]
"ActivationSigmoid"
"ActivationSigmoid"
"ActivationLinear"
