encog,BasicNetwork,java,3.0.0,1,1547771780907
[BASIC]
[BASIC:PARAMS]
[BASIC:NETWORK]
beginTraining=0
connectionLimit=0
contextTargetOffset=0,0,0
contextTargetSize=0,0,0
endTraining=2
hasContext=f
inputCount=10
layerCounts=1,30,11
layerFeedCounts=1,29,10
layerContextCount=0,0,0
layerIndex=0,1,31
output=0,0,0,0,0,0,0,0,0,0,0,0,0,0,0,0,0,0,0,0,0,0,0,0,0,0,0,0,0,0,1,0,0,0,0,0,0,0,0,0,0,1
outputCount=1
weightIndex=0,30,349
weights=-0.07278451521033381,-0.5365165128194122,0.2878091332353378,-0.5090935838886438,0.12805201261160928,-0.20700207274333587,-0.5084377311003715,0.09933122527255263,-0.4356345181994768,-0.24784303501920554,-0.2497490425860932,0.1474023744080356,0.17301901091072677,-0.2947277458550394,-0.0980338055458117,0.10320654472068458,-0.5437446844531613,-0.2713519565876716,-0.4252145023137013,-0.4637468185313415,-0.4127212715989465,0.13910456920905193,-0.4767110900221888,-0.1858304417867953,-0.45274408268941163,-0.2650307474733401,-0.1106631062752358,0.10325355525004933,0.12617652248648203,-0.00616779489401722,-0.04614745715129523,-0.6396854874075691,0.16277579147281243,-0.26837123458775386,-0.8652856831024038,0.30662338058915506,-0.8234613601897279,2.9447467625549635,0.41211063260742653,-0.037532068805691286,0.4412912574739355,-0.6812198095358549,-0.6294177506511106,-0.3089662771395228,-0.1693225338016782,-0.07747246769800566,-0.4205178189896741,-0.18245588540094007,-1.615620010394282,-0.23969103217276672,0.2978780820919409,0.5462343567958291,-0.5896406986469653,-0.2011589551759301,0.4436253643730798,0.07314629803162001,3.699395261266706,-0.21395025037409174,0.17870414461892611,-1.4885566168179702,-0.20369870071712867,1.101222289217117,-1.19862769478291,-0.620652367089192,-0.09894975102973434,-0.4225041818811945,0.1358691485106297,-0.346981316906061,-0.03261989631173372,-0.24410470645530868,-0.21615755114345536,-0.6621214551005505,0.3372114783192501,0.3392488799371343,0.676839239017268,0.3147044308702203,0.34754999636594797,0.026614502350302834,-1.1138961132507448,0.06859384447814289,0.45912985810441415,0.3970129999696429,-0.08052261429679729,0.35326517194423873,-0.605292087897096,-0.21613549401105708,0.471736835286499,-0.3792696659773601,0.05620208884125034,0.06047315978739211,-1.0725552467136386,-0.4079377331829074,-0.1625239143792386,-0.11964928208846935,0.32454321575318595,-0.2006386462158568,-0.705668868371886,0.1577033926439946,0.0668261920440133,0.17553603848010815,0.08172815130014834,0.06039096891845212,-0.4203590359347243,-0.65563966033439,-0.23018414009345287,-0.0409580062807752,0.35579201842758096,0.35995226580710504,0.18858328703745633,-0.2282046164869799,0.43022644064342286,0.19365267430627017,0.31017340839024343,0.2791971715001121,-0.4090370005610907,0.1163631771336273,0.21845015515329907,-1.847463088407924,-0.5971160303864881,-0.39559303379524685,-0.5678083713313438,0.10478979978266416,-0.22434446335585786,0.17655062741416758,-0.6674442402225865,-0.31610240810650503,-1.2754481976261611,-0.13928415055356722,-0.21327559374649724,0.02909643203060148,-0.257514227289667,-0.8291882954645555,-0.8475579596110572,0.04954566512247415,-0.30921880271065844,-0.9168557813187839,-0.1701461555633504,-0.5431431060543053,-0.3074594423192591,0.0801932971650949,-0.8872821444414891,-0.43821355250682115,0.1478364143295848,-1.4557775420884955,-1.1886607041905422,-0.7309628571321931,-0.9381322098474684,-0.4222802231190983,0.09840126646691383,-0.0031078166841502332,-0.037771376365482154,0.9483657843139309,0.25383705028357423,1.7766053846513583,0.6206154697895243,-0.2204067603063744,0.028120085133760474,0.9828755273993381,-0.25310711071525116,0.8037976983252624,0.08316510958501826,0.2471586821764956,0.9836747283022425,0.3585884066664256,0.3334901791807932,-0.07989501046590675,0.4226908393983838,0.4054918311364903,0.5654950255356871,0.1364260565096515,-0.11511329036386746,0.05083335201598767,-0.30170529633404286,-0.3524767907489704,-0.22730728355424515,-0.6814845119402583,0.5778751073287939,-0.7475255272365784,-1.343564367199387,-0.2722839278605064,-0.5888181838303781,-0.31351470609888277,0.6146497228484014,0.09935819559952415,0.23893288484980793,0.4053416279210282,0.47056081147342865,0.009123433553865815,0.10659679259037624,-0.5238721446392275,0.05783030418880029,0.6210628962588791,0.13866993706808975,1.752040720006845,0.1801576677665415,0.083101832801623,-0.0667732977198681,0.5034055150954371,0.31160892429089576,-1.0607194367883552,0.21607338448210353,0.6215378603564453,-0.2939603427620825,0.44087053916681285,-0.23502785510537108,-1.02847877883212,-0.33895421128090747,0.18612824521783727,-0.29061015093197484,-0.7439562293846842,0.1545742131238601,0.3812809514596517,-0.11807679158678643,-0.030863977845306104,-0.20694048942185175,-0.19915774041074347,0.7576927247676755,-0.8226317674674133,-0.3618088046241524,-0.01283810518702273,0.11404966293253993,-0.0878230163974017,-0.39117005928109533,-0.3831834212266979,0.3720410670767763,0.04747986092219207,-0.20716424107688863,0.6741872593405406,-0.10320380046537196,-0.4443225164571218,-0.5495533234601545,0.02567257479531561,0.2448703397417488,-0.1665293701672894,-0.40099268445214264,-0.34112551439305994,-0.2602012856838693,0.018263826680967654,0.5481569777221624,-0.7207173585684008,-0.404040900718162,0.30513630132845365,-0.4013607136351106,0.25897658002969065,0.46086358056263643,-0.3516316767438668,0.3159909138684056,0.1358717968198055,-0.025406336806131122,1.0166752207929406,-0.0386516161006898,-0.05440443706419015,-0.5253482506948848,0.16528004275512398,1.0336183754470594,0.25815123959255004,-0.41793488685262725,0.23135189077630297,-0.21062997385501514,-1.2136800641115795,-0.13780300921352673,-0.09993902919276217,-1.5986666689589917,-0.17452721413138267,-1.489359608914213,1.0081588560291275,0.15020949577318735,0.39460038716559875,-0.41371192809730895,0.6575838450957997,-2.3597357538919055,-1.3940355129436073,-1.051359666361972,-1.0055405241158881,-1.2408552430118862,-0.8364166058739321,-0.1479256331014071,0.2098631833979467,-1.1956795741172392,-0.37402212306320287,-3.933959897260931,-0.04712222184532739,-0.24437440710174846,-0.4920233436136135,1.0150025584294051,0.28305633921138323,0.05888455980460345,3.2170117096482094,-0.022713159275544802,-0.7596051369560713,0.8970913894129591,-0.21708469849672096,-1.3243576920757696,-0.2987244108649126,-0.4729142207711122,-0.32152110790403193,-0.5646605085877952,0.13275921228846282,-0.10397396834582133,-0.10619181356255082,-0.2990052959037363,0.42020504964048166,-2.2798421042512262,-0.07021637468597342,0.35892071381952734,-0.6656893374800267,-0.3442281256043886,-0.11596114409763202,0.03025723206836824,-0.005404984614942503,0.004851339115758864,-0.41214448299385925,0.34691417144190834,-0.16632065479198416,-0.2850732368046657,0.07177468081600485,0.15525057749105045,-0.18679088304656366,-0.1955779450606769,-0.1581504616837977,1.1969400960069587,0.2696312906453886,-0.005779412592928411,2.1307130865207,-0.6625915257214372,-0.0295916054198491,-0.3456314494623711,-0.2303924741427047,0.36500419710593013,0.553759931764785,0.33127696507126253,0.19922518092265804,0.4804903838938851,0.2223599485215379,-0.3845906305999956,0.10320967010772641,-0.25412636692377505,-0.12411730869714292,0.6263154737770684,0.2122430313562718,-0.13698184177294673,0.30302995191672377,0.07017230674082438,-0.06426584011298374,0.22035871609834426,-0.4294748687491223,0.37715217310265986,-0.4860553414639413,-0.553621739427208
biasActivation=0,1,1
[BASIC:ACTIVATION]
"ActivationSigmoid"
"ActivationSigmoid"
"ActivationLinear"
