encog,BasicNetwork,java,3.0.0,1,1547771856582
[BASIC]
[BASIC:PARAMS]
[BASIC:NETWORK]
beginTraining=0
connectionLimit=0
contextTargetOffset=0,0,0
contextTargetSize=0,0,0
endTraining=2
hasContext=f
inputCount=10
layerCounts=1,30,11
layerFeedCounts=1,29,10
layerContextCount=0,0,0
layerIndex=0,1,31
output=0,0,0,0,0,0,0,0,0,0,0,0,0,0,0,0,0,0,0,0,0,0,0,0,0,0,0,0,0,0,1,0,0,0,0,0,0,0,0,0,0,1
outputCount=1
weightIndex=0,30,349
weights=-0.1430865327484548,-0.5686911879910893,0.6552283534856934,-0.48830956767030353,0.34951279684067255,-0.42554887310218187,-0.5100108909988463,0.888976846243318,-0.5060550783315807,-0.2944851202606538,-0.3963328517920063,-0.032510317986984366,0.17560182570901567,-0.30416829789305333,-0.24773918437454984,0.19602362933502251,-0.5438305816041609,-0.2758499308628518,-0.42596285448666954,-0.6043530929556112,-0.2766982456631159,0.6572799593697236,-0.4450731001657247,-0.334287504316599,-0.4525856396536733,-0.21890801649076894,-0.520068656483613,0.10421248617064183,0.13069969079280458,-0.005938285018456929,0.3313794755795932,-0.7017299287016485,0.8608261458622455,-0.9344262121547572,-2.513125525271407,0.0971266654206747,-1.010457980380062,3.931595489014605,1.053665724157697,-1.7086518434526206,0.4469867506404258,-0.81250003171342,-2.2611435610849906,-0.3154676206283445,-0.18880620058357664,0.9622445965237488,-0.7518758164556365,-0.12327806163221872,-3.461733571193994,-0.31533770019201823,0.7021116905778755,0.546142644520131,-0.4433389530429416,-0.2401631514854236,0.9291483706527235,-0.13539431247572545,3.687547018505868,-1.1039287272275187,0.1806263868730108,-0.8395587284842394,-0.27415129050848114,1.2055305156150324,-1.720558138897938,-0.6027769747525507,-0.09903927434109959,-0.43133597674628704,0.3092795393022909,-1.1441871641010912,-0.1532251594008344,-0.3080186760556378,-0.2401961798791508,-0.5855337119321149,0.39476156263779283,0.33915879976158875,0.6877022582985411,0.31106517065924644,0.3462494588058422,0.09522243914973981,-1.7065338625394773,-0.007387985026074137,0.3549325674946378,0.9920018897210113,-0.37473295580184507,0.6481001265507429,-0.6346284372819964,-1.637208304746602,-2.079443157732278,-0.29183836593585144,0.8322919976615009,1.1155837810361482,-6.9215900606683896,1.1564718926588087,0.6415202061413573,-0.12700412730567523,0.846011685538847,-0.21483839271019944,-0.973250983629452,1.2737017625095084,0.0398949696514801,0.27645742655829414,0.08960074716072476,-0.3128928244905544,-0.5309301253698573,-1.5372550787774037,-0.2292916456386075,-0.09300761750561759,0.3559735442156814,0.35495950564842593,0.18965724180762028,-0.22935274386813423,0.5552782102207307,0.37972432215143703,0.5399533363433685,0.11274810834559755,-0.4223977816497644,0.12025247299378414,0.6389744228908164,-2.0877872628216885,-1.7555234585925688,-0.7112329581626288,-2.24693635517668,-0.4405229703392102,-0.22417328957601335,0.18712519156742632,-3.6005894375965104,-0.8168771854778196,-1.421670677187826,-0.04579759444751319,-1.4425917128778172,0.31528634478563383,-0.6260208324173798,-2.479849610558676,-1.812287775344305,0.8900604139263978,-0.07351934490939824,-0.9782723766726179,5.205384430520319,-0.9983038377301892,-1.2041922581939448,0.05477425645910526,-1.243623494168808,0.24851836721455905,0.1267584503264588,-4.959770874728923,-3.423407244750764,-0.8500093555502027,-2.901690157458608,-1.6051898292548956,0.18537061667472102,-0.7385919709810542,-0.03799526891648621,758.3480724663682,0.037460967805078536,1883.733357493949,1.4191226638833525,-0.2201307006500036,0.03853942751058145,6.636426251923238,-0.2442657719604003,-3.388363771383257,709.4564042514745,620.7776672458075,8.698770265546642,0.3628348885956941,2.35440493395615,4.5842294817264175,2.1382879339232357,-2.021106620328186,4.237154997823643,0.21385175815406704,1.1387265191289568,0.5134516259493459,5.705535227551104,-0.4681981332797804,-0.22772024828681764,-1.0849444439489722,1.5068937893416512,-1.410948429222047,-0.7166765826543355,-0.3111038998073843,-1.0916320609467018,-0.3169749278233458,-0.19375746072037123,0.09594624544939741,0.18677229467339118,0.572316094292826,0.7408981682981703,-0.903895790535486,0.9354999827736281,-0.8145118339767305,0.14289914874474252,1.2281984814091855,1.4738125919890184,3.893679047646881,-0.43019839106095037,0.10122502196866534,1.9399410391655612,0.7593402876372332,-0.034381632466699855,-1.7815503641637707,-0.1061475121648752,0.7915748660403249,-1.9098671787327564,0.6840694526275118,-0.48778548100752767,-1.0283891772797356,-0.3336209785672732,0.2442450273261527,-0.32466305481015395,-0.8118534566859802,0.1540074850844599,2.4885415687436505,-0.19053789895220913,-0.8838055285589075,-0.3412123910022674,-0.2612402235813956,0.7792503475958884,-0.8362313763926678,-3.2613131062799336,-0.08630522781237975,0.35849663246311747,-0.393436979318602,-1.6187335068598936,-0.5211176744886196,1.4153359976921334,0.32395341803509664,0.08438563163168958,0.6823807964823378,-0.11613926891325792,-0.4443975986793042,-0.5517199139717004,0.01892930781930353,-0.07926958585381569,-0.23833905963449414,-0.40005898358811365,-0.25871066771698314,-0.273971623190172,0.02168075844170648,0.5489568077502711,-0.9062582470951364,-0.6761095021748025,0.30530896818381015,-0.4012007173467028,0.3662107414256307,0.7990722766271234,-0.35033875349861565,0.3866836150304915,0.1377027801593252,0.18950548572335563,1.3784807713610732,-0.3189470291901881,-0.4814390899281839,-0.6312619445726018,0.6564982969338841,0.5571443037729971,0.1178163710356681,-0.41802139850032266,0.2561831229103184,-0.13377527648157583,-1.346492462652118,-0.13801408377180097,-0.09709530302445453,-1.9888947407749484,0.014050624232689253,-1.5685948125562716,1.4145855100675673,0.24772887328602164,0.35193806128496496,-1.0237660998126272,0.7127673873178277,-1.9793058315601149,-1.3933560108338772,-4.660958262179725,-8.735583648628099,-212.3999785925769,-3.8551421576513976,-1.4736405472206358,1.331574684148645,-2.2801638504733237,-0.40912700717461276,-6.576967632580325,-4.127058496922386,-87.89622566082095,-0.4905319044134066,1.7182207725344383,0.6396576890058674,0.27340391318220136,5.281698860536727,-0.16495149361172257,-1.6476824678417956,0.8959147057508967,-0.05649799905561243,-2.4058419618036715,-0.2977034467651139,-0.5840300456758635,-0.3450378230212201,-10.198309622404535,0.5222767237487549,-0.6273594440066549,-0.12815934611420984,-12.227164140034967,-0.13316303991358683,-70.6496640777842,-0.0246722003944869,0.3586405483315021,-0.6675036320903751,-0.7046736771338342,-0.17758828037228852,-0.019250074731973092,0.004596791396178229,-0.08912313018316646,-0.41362497561015266,0.34673191780025325,-2.8117523770681747,-0.07879887356057061,0.0715812692857254,-0.2782062023532772,3.371296163661871,-0.12653588151271372,-2.1978281584355477,5.843729326899769,0.6055256349120887,0.7920248019535339,1.988699685994443,-1.4593934100060437,0.7148148733848687,-1.1982062183349274,0.353092708608219,0.45651627037906284,5.723692128767885,0.38511546613734515,-0.00027003070946156164,0.04372155520780243,4.499119862621194,-0.4144680003270482,69.8764400846542,1.6222897272329095,-0.12367253906332655,0.8069051881919729,0.5823956954854457,-0.2178378260886191,0.3244466265557883,0.031005498848485663,0.18574590468827712,0.6502505872288393,4.191921332660449,0.33841551320277574,-2.5487680000538537,-0.5538420481738375
biasActivation=0,1,1
[BASIC:ACTIVATION]
"ActivationSigmoid"
"ActivationSigmoid"
"ActivationLinear"
