encog,BasicNetwork,java,3.0.0,1,1547771796579
[BASIC]
[BASIC:PARAMS]
[BASIC:NETWORK]
beginTraining=0
connectionLimit=0
contextTargetOffset=0,0,0
contextTargetSize=0,0,0
endTraining=2
hasContext=f
inputCount=10
layerCounts=1,30,11
layerFeedCounts=1,29,10
layerContextCount=0,0,0
layerIndex=0,1,31
output=0,0,0,0,0,0,0,0,0,0,0,0,0,0,0,0,0,0,0,0,0,0,0,0,0,0,0,0,0,0,1,0,0,0,0,0,0,0,0,0,0,1
outputCount=1
weightIndex=0,30,349
weights=-0.08725290866087898,-0.5637851254227985,0.5052886327610474,-0.5116309358891702,0.12817282665989854,-0.2069313813592536,-0.5094457975142047,0.2910279131082846,-0.49405325382130727,-0.24918572301991185,-0.2576624804999439,0.14724090448835025,0.17304774883072682,-0.30411652090126307,-0.09809637171339605,0.1034035989472695,-0.5437668177725117,-0.27287753336782317,-0.426140997954869,-0.605691086893594,-0.4125696681664574,0.5419127791148439,-0.4867656996018641,-0.3339231038790132,-0.45277799809717933,-0.2649314375744907,-0.26000518452309557,0.10328993509004941,0.12620053240648207,-0.00614493889401722,-0.05144980382367491,-0.6743683593366692,0.23999886328015682,-0.20216712451860228,-2.0648999800895957,0.09618806915121121,-0.8162184233650328,3.6366843711549355,0.9099533093299482,-0.9858120135485946,0.45283507444340937,-0.6891422228043215,-1.81749569435388,-0.299018500067637,-0.17095817340170544,0.6228156328268548,-0.631802592209668,-0.1814600137647526,-3.1830433458102396,-0.24677933410476777,0.44425235784717265,0.546229936185957,-0.5324046829096161,-0.20118900342297255,0.5502944334337129,0.3397022918372591,3.6882148092231266,-0.21546592031423026,0.17943573233886737,-1.3494173245347336,-0.28067450978989594,1.1339627126915393,-1.7336550968969255,-0.6091939754147716,-0.09892346276638427,-0.4305509250110007,0.1358869673221214,-0.36807491883124477,-0.032717059495940885,-0.24581043929806173,-0.23899943904151955,-0.6627940674197688,0.3504298700109728,0.33928159287153414,0.6767953189598912,0.3116744305708881,0.30812757274366237,0.027653889096944082,-1.2297787005245473,0.07118492408101289,0.152573097517192,0.4026296339104662,-0.38443652272891565,0.6815371117674834,-0.6348279770060435,-1.694685715228328,0.47080630021002506,-0.5826154727271088,-0.02914548237376705,0.06054058121649861,-6.827510142941208,-0.2739288820547598,-0.16260408055086484,-0.11954286277785299,0.3245293241003614,-0.20102853909540064,-0.7085602085013079,0.1602033259524821,0.06439998305911034,0.17206530078840615,0.0821914874581086,0.05023424087893523,-0.4182741636657967,-1.508200233893974,-0.22881603159841218,-0.040961943432775205,0.35591068571635054,0.36003158511411404,0.18947096232358357,-0.22842339159955416,0.5782808243529312,0.15100861416417197,0.3293632759988874,0.2791957282152023,-0.422626695612691,0.12063516364321628,0.7417688116873933,-2.041901299838184,-0.6320574903350132,-0.15685309034531414,-0.6084021519929261,0.04195206079583147,-0.22430809328495152,0.18862927997581197,-0.9137274679738071,-0.31470813216188254,-1.4221173732072034,0.1643852128074871,-0.2141725360463728,0.02893583422432778,-0.25751296113118405,-1.6223085537748678,-0.9100940211980028,0.04854048438329957,-0.28863650478695124,-0.9166640133191615,2.04611538805592,-0.5991888654737567,-0.3066708028036131,0.08030217368410654,-1.0346523958890614,-0.02272521281287572,0.14776301187822857,-3.7669808037360775,-2.9654242721064414,-0.8088486901070406,-2.1206857384269737,-0.8516804392632394,0.09835584689286696,-0.5162072859089462,-0.03768914735993886,59.15976404865025,-0.052208195118238945,14.72667006127361,1.4700776004529037,-0.22014835739242025,0.026277239885802026,4.040477794330181,-0.24671771678443824,2.851839250603632,0.4983205994472589,4.686860249412618,0.9836876198289032,0.3620810719466688,0.3342888270882576,-0.06521513756034521,0.47394223488510034,0.4055086101314899,0.5655520217671242,0.19336881230595254,-0.11264598789003685,0.05115775355366631,-0.30167483326277994,-0.35257765946842423,-0.22763068940903994,-0.833431401622946,0.4785569438238878,-0.7549232172127145,-1.2982854289133083,-0.2555018693134082,-0.6872075951912192,-0.3137186227748416,0.5781654044806518,0.09932463765502143,0.23842354779856606,0.5167744870741351,0.47053906474264495,0.011803020820609775,1.347645518348739,-0.52548078439574,0.058013651347770055,1.0685804957718643,0.7396440017109629,3.332370186772541,0.17976969148764763,0.08335749858003019,-0.04822892317400572,0.5178093134455418,0.6032090620099608,-0.7748203546885463,0.2160787581661274,0.6215954727555278,-0.2824758218640512,0.4435821761475574,-0.23476641060836057,-1.028568672865713,-0.3377616037699852,0.23255307780809645,-0.27724903974225346,-0.7458115281548381,0.1547154226775123,0.9829178989470495,-0.11801700232611863,-0.1788017432715077,-0.20366862928045312,-0.21763664914841888,0.7791552116730203,-0.8300880537012172,-3.0908980588523693,-0.01279225059949187,0.11394020548952394,-0.08789255827761501,-0.5482491002203127,-0.14013260330953464,0.7655935113771556,0.0474931782280445,-0.20717679922088866,0.6822375017333262,-0.103231416586022,-0.44433103395658013,-0.5499060318299492,0.025489339287897952,0.24210376792491442,-0.16655500604800258,-0.40003953654757446,-0.25456328690965946,-0.2749826395136576,0.018286387580574076,0.5490402611288645,-0.7866182451880452,-0.47633506453531615,0.3053727545550227,-0.4015998799298676,0.2603245319060867,0.367116169165182,-0.35152675728492866,0.3890838021830056,0.13515463321028126,-0.025955235054920867,1.378747520226333,-0.04143802377831643,-0.05465570603823158,-0.5659462783501111,0.1696485915937765,0.5649100872522765,0.11802609010372045,-0.4180360056358372,0.25642283840140484,-0.20619297057064698,-1.1017113681473623,-0.13782828716552675,-0.09960875316307258,-1.9893105378794729,0.006267594646455563,-1.5558725781782192,1.4080552761633685,0.18297493391319505,0.40989112598478067,-0.8941862341189544,0.712456797420121,-2.1799011304035987,-1.3937434712347037,-3.2142703647235393,-4.797956317592524,-7.072053504870846,-1.4298966420413715,-0.14561657609891115,0.20984199588935157,-1.3485588161431008,-0.3743134621154886,-6.597706097528113,-0.9520692685258133,-2.6990651598781588,-0.4920279900136135,1.708592604579951,0.2880137615220814,0.05889643002707096,4.452468014171156,-0.38777925990494744,-0.9853022595653138,0.8929204534027062,-0.21697473854011173,-2.0644354080748517,-0.2984492422557606,-0.4697374512288288,-0.32177237687807325,-0.5695551396226171,0.1325801555151722,-0.10391322337607682,-0.12546948608710398,-0.3690214466643408,0.437811567974407,-3.38705708766557,0.035678265438672176,0.35889085525615744,-0.6594872663805652,-0.34436291736924557,-0.11615383619805163,0.02921582266719228,0.004221746273212149,-0.07028283058486064,-0.4119761452886662,0.3469023137551301,-0.16579331865042538,-0.2842629931894598,0.07181056856000491,0.15526057876115024,2.2234951378042282,-0.19558456687713355,-1.539808624238436,5.108607025349643,0.4141257179021693,0.02581433098346788,2.439692758973702,-1.5050146607185368,0.6858248149187822,-0.34563636754237104,0.19185559398996072,0.3652269146818597,0.5601156125051132,0.33216672252596907,0.025401452983104367,0.4804857479898851,0.2228505999909138,-0.43521542166403204,0.23743635727104653,-0.20177621711991103,-0.12411214069714291,0.62642758886237,0.21239976007176956,-0.13711729071162537,0.3107878786497884,0.06956963271073596,0.2895705682142728,0.21370367922568276,-0.4238588142687451,0.34217481906088926,-0.47982340243864563,-0.5539788204325846
biasActivation=0,1,1
[BASIC:ACTIVATION]
"ActivationSigmoid"
"ActivationSigmoid"
"ActivationLinear"
