encog,BasicNetwork,java,3.0.0,1,1547771846291
[BASIC]
[BASIC:PARAMS]
[BASIC:NETWORK]
beginTraining=0
connectionLimit=0
contextTargetOffset=0,0,0
contextTargetSize=0,0,0
endTraining=2
hasContext=f
inputCount=10
layerCounts=1,30,11
layerFeedCounts=1,29,10
layerContextCount=0,0,0
layerIndex=0,1,31
output=0,0,0,0,0,0,0,0,0,0,0,0,0,0,0,0,0,0,0,0,0,0,0,0,0,0,0,0,0,0,1,0,0,0,0,0,0,0,0,0,0,1
outputCount=1
weightIndex=0,30,349
weights=-0.13892476984144922,-0.566282100724202,0.6553252194177225,-0.4883077260703035,0.34084523213457635,-0.41651536638137127,-0.5093848938686087,0.8149036836141959,-0.49993453713970937,-0.29438306876953785,-0.3943273565629332,-0.02666621584903039,0.17340506535088734,-0.30409336441155155,-0.24357742146754427,0.12454985669990208,-0.5437127901987188,-0.2734408435959642,-0.4259317953788297,-0.6043118509516429,-0.2789807833520389,0.6573355100987077,-0.43990571288638514,-0.33139739118673384,-0.4525998099960732,-0.2190111672875445,-0.4755406211387881,0.10377607382219516,0.12654206443578875,-0.00595453031509693,0.28470637971017776,-0.7017460934450213,0.8600483420726889,-0.8051834280658899,-2.339198589721358,0.09707305528252987,-0.9694756115520354,3.914144779367402,1.0169329837696743,-1.7084468300149056,0.4469965543370657,-0.8124918824167798,-2.2610811871139043,-0.3154674473820947,-0.18756296307344875,0.9620883829271673,-0.7494532350820323,-0.12324504931904996,-3.3877644526691784,-0.24698255008321862,0.7026562588349717,0.5461183142110108,-0.44368755725177594,-0.20162534579776709,0.9308356310109286,-0.1362040987794741,3.6881807326044176,-1.0462999731806477,0.1806747245220768,-0.8388264213037706,-0.2741835011252947,1.2053465280318527,-1.7191619969843281,-0.6027602894559104,-0.09902522358989732,-0.4314339481477928,0.2459215931444359,-1.1392846622085817,-0.08487934985143714,-0.30795546458659995,-0.24017119086810954,-0.6581981743890007,0.39407980080278787,0.3391369094524689,0.687688213001901,0.3117269300804668,0.3462540947098422,-0.08127163560917962,-1.7063595655451016,0.08406520389998078,0.3549131163805515,0.911506653032113,-0.37472908380184516,0.6464706538033137,-0.6344878791858658,-1.6372395198567458,-2.090800141372909,-0.29213047906951745,0.8402905166147994,1.1185345823348574,-6.921587332668389,1.156437120957049,0.6411127700867326,-0.27016217387026153,0.8442529693555723,-0.21623453462380887,-0.9737129601657434,1.1579998306144346,0.03975663900636609,0.1830924667132794,0.08963175194167841,-0.34999442274663495,-0.5228280058560716,-1.5369500454859528,-0.22905348118376243,-0.08231623004290535,0.35583298611955116,0.35836313490042965,0.18969785484608434,-0.22931928712777944,0.5550079182967209,0.30606069330503954,0.5400069464815137,0.16884752437905676,-0.4225737395261868,0.12023798117887209,0.6597760157356756,-2.0872928557619157,-1.503157102876436,-0.6538773844166613,-1.0991508631664944,-0.42129814152049744,-0.22424226373477488,0.18695275388001487,-2.9770510150219525,-0.7320960519543908,-1.4208962928464843,-0.024654239739165064,-0.6527813378531936,0.3154725197328625,-0.6308079784453167,-2.3501990516290516,-1.1086673424865856,0.8860969389313222,-0.07351880775739825,-0.9785842829604889,4.609965842530963,-0.9988190540156883,-0.8406728224644376,0.055208725942374186,-1.2436134571207331,0.24724377504682293,0.12675062104955567,-4.959584699781693,-3.451743076842383,-0.8499656607515664,-2.846859018265261,-1.3656178596946145,0.1809405681103371,-0.7384826821779735,-0.038015329268486206,1158.7977923446597,0.03744924466170574,1925.0418327382881,1.4193929558073624,-0.2201353151524036,0.026358581820616952,6.68490388085341,-0.24424423361800027,3.9155713430780255,975.8655263693993,621.0599215158577,5.779891559016389,0.3632163360403366,2.7949513630735208,1.4968943984879202,0.8894294034578843,-1.629822663658833,1.8482532346088143,0.21183211501660815,0.08781297007269918,0.5062030692125634,5.5753894208358625,-0.4623818594731899,-0.22774712666777125,-1.0902462878809371,1.4742198055770144,-1.3682282111898163,-0.7542360388370575,-0.3008870550344669,-0.7472918625769415,-0.31703455146603504,-0.20011008782128234,0.0959365295453974,0.1878282260059632,0.5521306885172096,0.6314640145471733,-0.9038418254827156,1.058693716548865,-0.6610905588363499,0.08673791015736595,1.2281568031954027,1.4737432133285462,3.8927131236204993,-0.43018476715041276,0.10121082408180433,1.5551558363293425,0.7593171484172831,-0.10377953326444729,-1.4359400881119802,-0.09980871206683169,0.630487382831268,-1.7745657983706755,0.6827228259802512,-0.216990397653132,-1.0284699830699235,-0.3375008138072989,0.23252734737131456,-0.32495516794381996,-0.811554166261904,0.1539856279866322,2.445990853417917,-0.18759532549694835,-0.8743781896361154,-0.34123220840514723,-0.2611953074066938,0.7778542056822793,-0.8362226990960276,-3.261356506733003,-0.08741917307773801,0.35854832906580686,-0.307950299503086,-1.6237460305463107,-0.4662865352952738,1.4152760182981106,0.2509767249628949,0.08439490523168959,0.6822402383862073,-0.11610263902247271,-0.44436227046926996,-0.5517024475785858,0.01919959974331306,0.07621882983547368,-0.16917034836735925,-0.40006517949211357,-0.2549760865023322,-0.2770978976837855,0.02160899266817748,0.5489578461502712,-0.9062417684470608,-0.6761846939579723,0.3052234095694121,-0.40115198186429535,0.30912551256174303,0.7227870026678165,-0.3503089909492654,0.3889074894439819,0.1376398545646356,0.20434056477062632,1.3784446165553135,-0.31367634603710826,-0.447638946596238,-0.6322842386197254,0.1701327540057446,0.5569660934725638,0.11785786355980334,-0.41805076540208247,0.2563378111078373,-0.1557039184896289,-1.272747568405124,-0.13799563847516091,-0.09706591260592012,-1.9888582429434298,0.015178155818083553,-1.5686471491589613,1.4145534851053712,0.2477013546039096,0.39078799991245233,-1.0167565185025613,0.7127625114138278,-1.9916188922214537,-1.3933814961305167,-4.661359088358441,-8.60558555868442,-209.15830410796232,-3.734263157293308,-0.9973599628407291,1.0073417973659518,-1.986515564497685,-0.4006746140948154,-6.549832125548532,-2.086303242106085,-87.97303922187503,-0.49054159753709303,1.705841695374014,0.5298831838742684,0.27318043669078157,5.219655344252258,-0.22345959023518075,-1.5537566628364208,0.8932388155077673,0.00009351584147742026,-2.307812738167195,-0.2981978538248858,-0.5655252578236415,-0.3449100626412003,-2.444282570644346,0.6118603215257247,-0.10462419691911745,-0.12800867365818583,-7.7350585798137,-0.01469427902285669,-16.336917513387018,0.2576519636785664,0.358711051953757,-0.6674604021995895,-0.43049406035809723,-0.15329533652957056,-0.01922034548928355,0.004586343396178229,-0.08909800328652642,-0.41214808423726706,0.3467999030015386,-0.7829310746598509,-0.26102510147035074,0.07160235458236544,-0.27689063755332743,3.171183059797273,-0.18389196025930313,-2.197757172087604,5.728251952634312,0.492378658732895,0.7958953295697301,1.9885836752207255,-1.4501094581379816,0.6947864699925124,-1.1857721948495803,0.3476269290502525,0.45810853926084305,2.437757289598816,0.3779660547961875,0.03199489953894722,0.42896809520361295,1.661360091518125,-0.4221035483229659,30.338645380644003,0.4366268819839771,-0.12372547506469557,0.6728885341073239,0.22652547892094066,-0.09825894593431388,0.30519835638441906,0.030976451030443164,0.2988928808674707,0.1812038305302225,2.5517629528826107,0.3383749351982864,-0.6151312677504068,-0.5538501890224776
biasActivation=0,1,1
[BASIC:ACTIVATION]
"ActivationSigmoid"
"ActivationSigmoid"
"ActivationLinear"
