encog,BasicNetwork,java,3.0.0,1,1547771799148
[BASIC]
[BASIC:PARAMS]
[BASIC:NETWORK]
beginTraining=0
connectionLimit=0
contextTargetOffset=0,0,0
contextTargetSize=0,0,0
endTraining=2
hasContext=f
inputCount=10
layerCounts=1,30,11
layerFeedCounts=1,29,10
layerContextCount=0,0,0
layerIndex=0,1,31
output=0,0,0,0,0,0,0,0,0,0,0,0,0,0,0,0,0,0,0,0,0,0,0,0,0,0,0,0,0,0,1,0,0,0,0,0,0,0,0,0,0,1
outputCount=1
weightIndex=0,30,349
weights=-0.09816992393291267,-0.5664551164477526,0.5083860829857035,-0.5075803630570807,0.12826573405284783,-0.2068069233675841,-0.5094330454514219,0.35260045986669125,-0.4989520849786101,-0.2490560567932737,-0.2689087563090909,0.14641157651386985,0.17305767875072683,-0.30410561091085553,-0.09814636496031447,0.10340846484942012,-0.5437568878525115,-0.2733345441585722,-0.4260959749595085,-0.605317648160876,-0.41250357627405426,0.5676042702582315,-0.48639226086914616,-0.33284760032878535,-0.4527673238875724,-0.2648763609974881,-0.3153682574142274,0.10329837669004943,0.1262067740064821,-0.006135008974017219,-0.0509635428126149,-0.674537925417402,0.4422278159705834,-0.23423615928860578,-2.2779954842293106,0.09620672243456375,-0.7956321169616056,3.646474641619006,1.1874286385255692,-1.013959025800762,0.45129727939455333,-0.7008078725607393,-1.8510927656523632,-0.2990408526913528,-0.1723461626532834,0.6524599140477901,-0.633340387258524,-0.176690847150982,-3.1972837392125237,-0.24672070888642042,0.44560824565209495,0.5462173662659568,-0.5313291793593884,-0.20117907350297254,0.5503784494683024,0.30351793976074476,3.6882498572549633,-0.2193708771924063,0.17943718576752818,-1.3237258333913458,-0.31306378412023944,1.133531818168925,-1.7278750397698934,-0.6052890185365954,-0.09894284997750491,-0.4305586863386798,0.13589590191412143,-0.461356028902634,-0.03272350109594088,-0.24587481485436308,-0.24040437642388024,-0.6623078064087088,0.3504794270806622,0.3392716629515342,0.6768052488798914,0.31180409679752635,0.3083695389232799,0.027576376887496562,-1.2308542040747752,0.07523549691310238,0.15200663075734142,0.40420586303199263,-0.37922056468040477,0.6648905472416305,-0.6359559196291822,-1.6441356303696164,0.4691495569141819,-0.6793750380667399,-0.016581471236088486,0.06063209384846944,-6.901501637434165,-0.18064777198337054,-0.16260408055086484,-0.11871353480337257,0.32455395710197504,-0.20160379718423507,-0.7126107813333974,0.17144960176162913,0.06439374145911032,0.17148389599787178,0.08206182123147039,0.04618366804684574,-0.41691827586087443,-1.5417611982518213,-0.2288139659297764,-0.0409678920407752,0.35590224411635063,0.3600224155141141,0.18948089224358358,-0.2287450933395156,0.5605167615134311,0.15105363715953246,0.3629603472973705,0.27800149593195056,-0.42262986946472125,0.12046632301437597,0.7416191955337078,-2.0780856519146984,-0.6320544521424869,-0.16851874010173187,-0.641999223291409,0.04169558416692213,-0.22439635778338024,0.18825584124309394,-0.9152652630226632,-0.3187543518230813,-1.4201883916857738,0.16049394251732818,-0.214185345097901,0.04018211003347482,-0.257522891051184,-1.6963000482678245,-0.6414444241924019,0.06255117861046057,-0.27739022897780424,-0.9156688197497849,2.4173277425329402,-0.6959484308133879,-0.30665430371881314,0.08030267414489838,-1.196880017278085,-0.01295194466976207,0.14776101187822857,-3.4668533138726376,-3.178519776246156,-0.8128992629391302,-2.1237831886516303,-1.0647759434029542,0.09882664126957606,-0.514473600805203,-0.03769907727993886,64.25016217531522,-0.02651670397485126,16.49416941081006,1.3802892044415997,-0.22010333439705976,0.02640690611244022,4.146273590043386,-0.24514148766291183,2.967036217570334,1.3008831382002957,6.454359598949067,0.9836427632262137,0.36256942225917954,0.33429454068825754,-0.06595878114816668,0.5593177648013942,0.4055148517314899,0.5655582633671242,0.19741503196715135,-0.1109715420932979,0.05115575595688977,-0.3016554460516594,-0.3525684898684243,-0.2278002554897728,-0.833616803225094,0.48291944769113726,-0.7930765501228798,-1.262101076836794,-0.25515476647619334,-0.6988607078154717,-0.313702562026801,0.5783744232286918,0.09930525044390079,0.23837772523401882,0.5168715079656048,0.47045741618077724,0.011429582087891781,1.3516917380099376,-0.5259395093746316,0.059083438894792034,1.0693852258540713,0.8723522810928709,4.040508982110248,0.1791944333988132,0.08341053395566356,-0.014631851875522663,0.5294749632019596,0.6053363817607865,-0.7008288601955898,0.21607383016612738,0.6216017143555279,-0.2819879963840648,0.44378405281093736,-0.23469546512889514,-1.0285587429457133,-0.33774124779139236,0.23249420069673085,-0.2774344413444014,-0.7455533185757334,0.1544877099651266,1.2830453888104891,-0.11802174953760619,-0.424683269430434,-0.20367008270911394,-0.2512337204469019,0.7790255454463821,-0.8300431970985277,-3.116589549995757,-0.01279172259949187,0.11403322014086095,-0.0879662185215502,-0.8269166483984506,-0.1307769960161738,1.0263777748175416,0.047502347828044494,-0.20716030013608866,0.6823057968191493,-0.10324134650602201,-0.4443504211677007,-0.5500786092565995,0.025483971287897953,0.2378937183178743,-0.1665649359680026,-0.400023141334801,-0.25481283173778746,-0.2730536579922281,0.018294829180574075,0.5490303312088644,-0.8123097363314328,-0.5730946298749472,0.30536704095502276,-0.40159119416986766,0.2603191639060867,0.3692323093077075,-0.3508356506395283,0.38908180218300564,0.13517498918887408,-0.0259347075535761,1.3786831446700316,-0.04251352732854424,-0.0550141450542397,-0.5748669349971208,0.16966579890964087,0.5618126370276204,0.11749213348953433,-0.4180350592209627,0.2564181984014049,-0.20570670955958692,-1.0163358382310685,-0.13783821708552677,-0.09960349813441174,-1.9891808716528345,0.006070904799285221,-1.5841513500996383,1.4162517816681714,0.2442360851994512,0.37750185165443717,-0.9031068907659641,0.711970536409061,-2.183475141931972,-1.3937319969478281,-3.2882618592164965,-5.01105182173224,-7.146044999363802,-1.6757781682002977,-0.14562194409891116,0.2098511654893516,-1.3487442177452487,-0.3743090621154887,-6.549979187220002,-0.9525453281889711,-2.773056654371116,-0.49201910841361357,1.7059723838846068,0.2895285198093208,0.05890511578707096,4.497413013952341,-0.39220810964565284,-0.9854876611674618,0.8929248534027063,-0.21639881633561145,-2.041149881072571,-0.29845069568442134,-0.4697436928288288,-0.32213081589408143,-0.5736057124547066,0.13261022300766592,-0.10392315329607683,-0.12545985791576478,-0.36841947266998554,0.43780692797440707,-3.3815016208838524,0.03686207837610833,0.3588801810465505,-0.6594826263805651,-0.34448737536091506,-0.11616227779805165,0.029233029983056668,0.004206113288711981,-0.07077118089737143,-0.41197413549250483,0.34689767375513014,-0.16578369047908617,-0.2842110431360968,0.0718006386400049,0.15508135925314614,2.2118420251799753,-0.19559393435483038,-1.557453465179684,5.238048624719457,0.5104713183173155,0.1898666789111224,2.4356465393125033,-1.4933989199277449,0.6878111917506812,-0.34564629746237097,0.1916465752419207,0.3655853536978679,0.5601447847393457,0.33215778793396916,0.034322109630113985,0.48049198958988504,0.22285585501957464,-0.4341399181138042,0.23993020846542662,-0.1803968606065754,-0.1241022107771429,0.6264375187823702,0.21252421806343905,-0.13712001871162538,0.310738321580099,0.06958526569523614,0.2984912248612824,0.18131440489533926,-0.42228258514721867,0.34168855804982934,-0.47982644063117197,-0.5539703788325845
biasActivation=0,1,1
[BASIC:ACTIVATION]
"ActivationSigmoid"
"ActivationSigmoid"
"ActivationLinear"
