encog,BasicNetwork,java,3.0.0,1,1547771245759
[BASIC]
[BASIC:PARAMS]
[BASIC:NETWORK]
beginTraining=0
connectionLimit=0
contextTargetOffset=0,0,0
contextTargetSize=0,0,0
endTraining=2
hasContext=f
inputCount=10
layerCounts=1,30,11
layerFeedCounts=1,29,10
layerContextCount=0,0,0
layerIndex=0,1,31
output=0,0,0,0,0,0,0,0,0,0,0,0,0,0,0,0,0,0,0,0,0,0,0,0,0,0,0,0,0,0,1,0,0,0,0,0,0,0,0,0,0,1
outputCount=1
weightIndex=0,30,349
weights=0.18048862858203799,0.3923541275421091,0.5711320390681476,0.45576588914766814,0.24098051882158428,0.452220261623366,0.443778714777772,-0.30815086428740457,0.6870130336066181,0.2582378750993474,0.45411744615953525,0.39302080576769516,-0.5010227998476826,-0.37949693051841743,-0.25006943304554097,0.3777832366139615,0.19502337572811138,0.23255145585039175,0.6910468595402236,-0.2635152621269951,-0.36813542406704586,-0.34732172146707013,0.5209400385188919,0.2793439607729748,-0.30669073023894006,-0.23240150755256975,0.2489037148880183,0.29635924034418043,-0.7340523201848967,-0.44653011900287104,4.158563977044267,9.374451877686319,1.3966431638092014,0.005965416714103171,-0.10880532113079004,-1.3906203428490524,0.20056134889924046,4.566382158684519,-0.3282360896320902,1.647497847267605,0.525076639490828,0.8092901178563882,0.5261091731514602,-0.45426633647042614,0.12936461032405688,-0.339918208741232,1.222963770073982,-0.4217164881262472,-0.13593516303862135,0.029624586989057775,0.009900713956111954,-0.3422538937709259,-0.04839543974262563,0.07180304085438577,0.04579545850728057,0.07056674222837461,-0.1998208740696535,-3.694761236592111,0.09238205727007377,-0.034970570435467016,0.10957957159082805,0.05813690351196727,3.13147510474249,0.4545447672111213,0.07467498631445693,-0.040403051902257646,1.1879326006027657,-0.36187805069326817,-0.3186892743608009,-0.15595062463311585,-0.5671708047783618,1.3111306181073485,-0.2554212519349769,0.5112687675814912,-0.22302790942673145,1.329096772891212,-0.32576472676883644,-1.0594194220532809,-0.08733473209139425,-1.2909266287027974,0.12772275370516223,0.7072876183886032,-0.38921930449588016,0.4583087523763849,-0.4916967639719658,0.2900866344350733,0.31938893429483967,-0.3437451280710445,0.153866124570702,-0.14979627649485608,-0.5038809267562673,-0.2789039801558029,-0.22649900887641705,0.3243139838361633,0.21513782353875033,-0.9291185063265045,0.18415585754291006,0.5085731131426809,0.35154448641363084,-0.001744824685196899,-0.01927339670938297,-0.15916054843687774,-1.4905597432561666,0.5512953159619574,-0.17585461823360393,-0.14710737206560331,-0.5142906708771452,0.04230416928311908,0.7009675910281311,-0.35096540533074366,0.06793831852279815,-0.24821642874822517,0.9984874817471504,-0.2493475670535196,-0.9802678394360934,0.721625111386958,-0.2503731532232204,0.9012670347245626,-0.05626823792886292,-0.40708877041436387,0.11086253616547669,0.53483036623471,-0.24361286188456427,0.08369580872641429,-0.23312315445559997,-0.13949247921722432,0.5559675211500414,-0.05334760296263992,-2.169290140087714,0.7181570779934241,1.1436254744060201,-0.16421478704485037,-0.4572909492080523,-0.31997280872502926,-0.2568034486790817,0.13330042564917388,-1.5639456053358862,-0.46323183213105584,0.4613873036551687,-0.6054276577228903,0.2611349584291381,0.18536872177459884,0.42026140126267686,0.3380947690458339,-0.21758374291193414,0.05734656117163074,-0.018174321160284466,0.20402054720108576,-0.5261805697502651,0.22016795789620738,-0.9155010772505695,-0.07503676596758649,-0.523770344029741,0.7471049907465617,-0.21231277310591432,0.5450130812640442,-0.6550139014956616,-0.021072214763791106,0.17865136951997382,0.09632277319883654,0.32743599895328424,-1.5694898041537708,0.34736830040908273,0.07290603792771834,0.3350169908925367,-0.15456904971380186,-0.10116013244670828,-0.010513684302726598,-0.49724627414534894,0.4179826549919421,0.1353427002557003,0.16966849562447076,0.9648140402527039,-0.3368522506716542,1.413775360963224,0.5699834139133176,1.1575062554990827,-1.121719776086619,-0.21088304115117754,-0.21709941401356836,0.4220586080832928,-1.1024813604919628,-0.11765001861008771,0.8416125104902857,-0.1619091345872572,1.0486259303678123,-0.15490772896927274,-0.569763686429907,1.5489009442003896,-0.3128718390526323,-0.3303339549353868,2.496172798574817,-0.1913914964388005,-0.8760115471809474,-1.1837239478085777,0.38745785899748,0.2689491693984457,-0.12759947723984774,-0.2096915061541293,0.05633700233642621,0.153400412393247,0.1902602225338659,0.16703469223330297,0.15137559481271992,-0.1535515797886288,-0.6712679449307811,0.2302753452775548,0.5993019214830861,3.3339488404270092,-1.275198644846352,0.5448769743610915,0.7831934751255928,-0.650357120207332,4.832503588137384,0.9506261471567237,-2.4445159564832415,0.6112549696567454,0.880116711616003,-1.9705257651316646,-0.30451961005543277,0.36080492650166057,-3.465629538213404,0.8940992355912006,-1.9292999142390543,-0.13856276700550862,-0.29333772399447205,1.6406758573486482,-0.24348497881527573,-0.13337552374523945,0.08100337850838067,-0.06346386791958854,-0.6815313392945331,0.13578298031981187,0.5151745776157475,0.17143021156055002,0.349511328710149,0.1674572183355597,0.1742189627751434,-0.8843376055456125,0.29649016534728134,-2.1893943427219416,-0.6452662913993,0.04465703689987216,0.1499151137005492,-2.8091943225983798,1.024740802006797,1.1291084763477859,2.1186385722938863,0.5236346417859931,-0.03155775681305418,-0.390611043632684,-0.47933061519272374,-0.8392815466871292,0.7614223815054685,0.06063512613690717,0.02566708644535397,-0.3553557440694365,0.2582706968426536,-1.158516040966238,0.27353410088764263,-0.2102703371754627,-0.28749835616843333,-0.16037505677300912,-0.9876732459558015,1.5236374285416558,-0.13065079886947092,0.07206166641026104,-0.10495510102476853,0.026250138794048108,0.2823421032604125,1.5991204245735178,2.4966548033473517,-0.3098802828572277,-0.39138591934844835,0.26859794942822635,0.4552551541810416,0.5795956447984011,-0.18579709433210367,0.3957845939667679,-0.060026707601653656,-0.2288640711863634,-0.2616796827726189,0.41489003404994224,0.08939068579625137,-0.41103598864618685,0.08735662820712196,-1.0713261686358875,-0.8516918684974224,0.0010969479124988998,-0.7370956820518006,1.0854566018038252,0.5641065071455352,1.6017709475522546,-0.30630981183579814,-0.63575096528872,2.078502348830874,-0.21520892175279782,0.3485799392129928,-1.2699343519090864,-0.5394119857715517,-0.9443565946527629,-0.6939779857983325,-0.9423443317800406,0.274374696874112,0.09107951164463546,0.27969142173771827,-0.022353534776722993,0.45254841915801164,0.3106193572834523,-3.1301280460154577,-0.3491477772896987,-1.5173994148465435,-0.4305706793700868,-0.3193162913866395,-0.9120864137886315,0.1991106300135598,-2.179048031373155,-0.7518963281147161,0.07091900944714566,17.713498384824984,1.767648297605751,-6.922530272585256,0.3133658568258223,-0.6061734627983779,-0.7901160692324544,0.02397078854164903,-0.9898334189302217,0.020178090653322742,-0.20845731466524642,0.863114370145303,0.3474365198810096,-0.32677956665495506,3.8273815788367282,0.5938771033928198,-0.1530296844413724,-0.39597268033558125,-0.7344169610421513,-0.5725821592223518,-0.2923380945204516,-0.3246771685804798,0.23563986009379145,-0.38801071006926374,0.04067233277533911,-0.2015675591131417,-0.5381803737379108,-0.03818817668857554,0.06270478764279457,0.04388468394011496,1.1735982434859438
biasActivation=0,1,1
[BASIC:ACTIVATION]
"ActivationSigmoid"
"ActivationTANH"
"ActivationLinear"
