encog,BasicNetwork,java,3.0.0,1,1547771770041
[BASIC]
[BASIC:PARAMS]
[BASIC:NETWORK]
beginTraining=0
connectionLimit=0
contextTargetOffset=0,0,0
contextTargetSize=0,0,0
endTraining=2
hasContext=f
inputCount=10
layerCounts=1,30,11
layerFeedCounts=1,29,10
layerContextCount=0,0,0
layerIndex=0,1,31
output=0,0,0,0,0,0,0,0,0,0,0,0,0,0,0,0,0,0,0,0,0,0,0,0,0,0,0,0,0,0,1,0,0,0,0,0,0,0,0,0,0,1
outputCount=1
weightIndex=0,30,349
weights=-0.07259465685440358,-0.5351588455427209,0.007384237648461351,-0.5127361554958434,0.12796804339845924,-0.20731456584566318,-0.5057779695132804,0.09859213277431236,-0.4339685137035228,-0.23900333313254002,-0.2488917446017043,0.14771624367053565,0.17294954919197675,-0.2731732630104924,-0.09800316863956166,0.10254247508208195,-0.5438520861713805,-0.27058467634325856,-0.41969912316882846,-0.3883870415585479,-0.4094342007989178,0.10249806471671191,-0.4221140252605239,-0.16288440179497793,-0.45497868696522337,-0.40193742863390935,-0.11090578698180557,0.10326681615629932,0.1282269121997364,-0.00624042461276722,0.25276875885804,-0.1333184730861956,0.19846403788115244,-0.10439607920529667,0.015427817123356257,0.3377953438314949,-0.5244045191803928,0.23365725306496452,0.4371541785579134,-0.02271170365765656,0.44190118382222526,-0.6932305770390546,-0.4492880958264817,-0.31927542477668164,-0.17407045565020834,0.0899956620936396,-0.5134697535176872,-0.1734098699423716,-0.2283781682128468,-0.47750013620508636,0.2335886517889149,0.5472711164374499,-0.5917197813707373,-0.16446677740831914,0.011219220176653284,-0.022020881784399177,0.44788725292568277,-0.16054765787432332,0.1803550453099584,-0.22072444453565057,-0.41866444448849277,0.24254743511023155,-0.37236487296040105,-0.7924066831271993,-0.10069635100653335,-0.5103591594079915,0.1297917169427114,-0.23330316797052877,0.038019608811002845,-0.12371637816295158,-0.02367698805462479,-0.4351490066154058,0.3367921866463478,0.3396074416003665,0.6841451807576809,0.3193831888026332,0.38985963529392603,0.08431296834547888,-0.07661031706965869,-0.16176271983300464,0.23843114385700906,0.38000771114177284,-0.0763602978964646,0.3603056427601944,-0.6050705918320171,-0.01100673595801879,0.470593593686499,-0.14570546734831713,0.05852422789237388,0.0873935027237643,-1.028529663718536,-0.4817215647376815,-0.14426033640054103,0.02829802701307639,0.3250984688933075,-0.20061855574763765,-0.7045820859912791,0.14422856979864537,0.060727246054432624,0.17561664778569208,0.1491632377750091,0.07714305054472081,-0.41642942329015187,-0.4128754039988028,-0.3327525260533477,-0.04187397939862646,0.35540570480104866,0.3600844739724981,0.18888153326790202,-0.20803072295304806,0.4985254807913734,0.17598662281433716,0.3463202480932466,0.31933537375362947,-0.3953625532733656,0.11704768395248676,0.2698299148447898,-0.4858934980677315,-0.15185663115106732,0.39571951728454713,-0.5656284614794791,0.08228005275356719,-0.22162865777626037,0.19617517573525597,-0.6114100456344473,-0.33134551737117673,-0.8531833346913892,0.20138317893049593,-0.21325584556741706,0.07947356191527316,-0.2639360884352303,-0.6247940985647354,-0.6256039275415377,0.048165949282474155,-0.3266898665536338,-0.9034795593947582,-0.2965786010482436,-0.28447991515473003,-0.34520608658550284,0.08012297885259487,-0.23696741475385516,-0.4568718557983801,0.15041926534073058,-0.5969660337018446,-0.745745725297347,-0.42360676948480325,-0.7403108104261878,-0.4050199060278146,0.09970173719588943,-0.185421115549524,-0.03759313159798215,0.5786006570605627,0.25152497340365343,-0.17642030733890704,0.4466856520244982,-0.1916261241638849,0.06758234317839026,0.8265068614949368,-0.2700430787790976,0.38153283539049065,0.5684238726150516,0.2458306650178687,1.0254011461324188,0.35467939460349573,0.35396109941371506,-0.07551437177796222,0.18286213232698592,0.42633940777957674,0.5515275075901585,0.06904404599384364,0.07841250054426246,0.09968872790669589,-0.30453801248017837,-0.35195663233617047,-0.10073460427770421,-0.7191838354841286,-0.019872107860903883,-0.6788226838859315,-1.6108266635846138,-0.27145488238429777,-0.3553908321988291,-0.34519684931339495,0.44983326825882536,0.0999024018729919,0.23909712460980787,0.3975572772013969,0.41922188372951885,0.011660410873335015,0.11349541041858499,-0.5032665942886669,0.10251241532999428,0.5160172924354256,0.14216639076366136,-0.03378214522989091,0.1801001445359855,0.08293803425162301,-0.06668902692230175,0.43355978259071487,0.3035718764927967,-0.7659792211409719,0.23375253276209074,0.6199674142988452,-0.26353588657343446,0.43351992651467286,-0.25125156237958,-1.0277846787055878,-0.3663913082879341,-0.03752690819724483,-0.4742589599253069,-0.7499343271901843,0.06618640806572905,0.3381894563725664,-0.11282195896681121,-0.036305949820210605,-0.2337209179803432,-0.21683146500541522,0.7260851853098891,-0.5565136099085817,-0.2572296016862132,-0.013741343786047107,0.11738699195677521,-0.08510721081780427,-0.5355864212174238,-0.49210312784004795,0.1196884576656548,0.05413394543261225,-0.20834110532904865,0.6716615922366312,-0.10043042002155278,-0.44876046655125373,-0.5489786644241224,0.025633358003147616,0.24760720479396106,-0.09121176350866454,-0.37194715012020074,-0.3673509305817079,-0.09712304406966461,0.050171771124276024,0.5480237890956302,-0.7196305761877939,-0.406893911662554,0.24533333646917332,-0.42174344890013593,0.27376717723740457,0.4402722381519036,-0.3917698789973842,-0.1095376918012239,0.1281000166757856,-0.10517363673295935,0.6121090419614235,-0.03812957246136124,-0.06088316472713724,-0.5262189683142778,0.10449507200894624,0.0392135991068603,0.284944725275175,-0.24466732463453258,0.08359890269657048,-0.2039001962634921,-0.49659118040347405,-0.13761205546352673,-0.09889551157336901,-0.12010972830446016,-0.23771675319995153,-0.27098892914789663,0.5863741424540144,0.1601306784358433,0.36489706338238204,-0.4056641720177773,0.5245993504647912,0.016185435478287685,-0.5649810316912697,-0.6113914186779462,-0.7136183012546233,-0.5040122405061853,-0.6310130852614878,-0.0821220565757377,0.2807630846876703,-0.8995027205959627,-0.3627431403057605,-0.4041148850147612,0.060813023835464455,-0.13894767416380926,-0.4927767448260294,0.47358801312471105,0.28255123786414527,0.06363278775548319,1.1781716412298393,-0.28829632326852417,-0.287341606181917,0.39172359984954863,-0.21744566950399943,-0.43738843268830835,-0.3058047863973256,-0.6446685368091196,-0.31970564062293677,-0.5637629704447864,0.13143030213821638,-0.07838282616562618,-0.26154970529707516,-0.2554463566353297,0.41054356138381,-0.5127986678327375,0.2704509547980897,0.3596748328443432,-0.837443653518034,-0.34838166366768825,-0.12334392405062344,-0.027004544702668082,-0.17477660730830688,0.37949369386575876,-0.31535855461533446,0.3527947159085217,-0.16375427341821458,-0.30261753738284847,0.07196349550350484,0.1430331281424718,-0.28330656670259835,-0.1935107241513071,-0.059627098059778505,0.7622025494714416,0.0642907621529742,0.00008234967208928316,-0.002056011675406186,-0.5757945779146498,-0.13208187172121322,-0.34602340996313913,-0.3796213499705591,0.3772506896085319,0.554630649384178,0.33025202555920685,0.2070059923998168,0.48306442228774116,0.12695671850130807,-0.21522104932398686,-0.04455757396684712,-0.25444483743457613,-0.1243061233846429,0.6300142712682685,0.23096241830668993,-0.1326471835371989,0.6159267239823751,0.07094874097558378,-0.054581776008248574,0.21988494914177453,-0.43154821204983584,0.5034961783330038,0.17556655104914268,-0.5505535310627951
biasActivation=0,1,1
[BASIC:ACTIVATION]
"ActivationSigmoid"
"ActivationSigmoid"
"ActivationLinear"
