encog,BasicNetwork,java,3.0.0,1,1547771864307
[BASIC]
[BASIC:PARAMS]
[BASIC:NETWORK]
beginTraining=0
connectionLimit=0
contextTargetOffset=0,0,0
contextTargetSize=0,0,0
endTraining=2
hasContext=f
inputCount=10
layerCounts=1,30,11
layerFeedCounts=1,29,10
layerContextCount=0,0,0
layerIndex=0,1,31
output=0,0,0,0,0,0,0,0,0,0,0,0,0,0,0,0,0,0,0,0,0,0,0,0,0,0,0,0,0,0,1,0,0,0,0,0,0,0,0,0,0,1
outputCount=1
weightIndex=0,30,349
weights=-0.16533635681594575,-0.5968013876922673,0.6552158949446372,-0.4883106503714305,0.34951690622901704,-0.4878395656910404,-0.5114830377119174,0.9566031636107681,-0.5559341263695887,-0.29456172779382855,-0.39797652313186443,-0.09167641548148298,0.18450857372145588,-0.3042149485725015,-0.3095834490883564,0.30548832582329555,-0.5440384227683026,-0.28126395810964927,-0.42602585503867657,-0.604378765267829,-0.27673948714274993,0.6572882593080277,-0.44337913046760674,-0.35799262551843025,-0.4526060111736731,-0.21888352749748893,-0.5677384673052328,0.12091874295438858,0.2682451763488277,-0.005928355098456929,0.5386691790627707,-0.7016508205541312,0.8721664161652973,-0.9508445145155205,-2.534388844046793,0.09753384851568543,-1.0274089277400211,3.936414610231115,1.1349585163011513,-1.712405378704463,0.44696911847423065,-0.8124600207281524,-2.26109533625146,-0.3154534864428726,-0.1866445940585875,0.9623564621235225,-0.7541667276679784,-0.12326975372821872,-3.460679787049439,-0.31392193467385365,0.7026559679106044,0.5461892951995789,-0.4432885608445301,-0.4086878236117981,0.9287766636134641,-0.13629687134475107,3.6875937423842555,-1.1047317269412715,0.18062716808613263,-0.8395470469987504,-0.27416349441248106,1.2055333552504373,-1.7266634257463864,-0.6027582188485504,-0.09902290282109956,-0.43124642682569436,0.317739778367921,-1.2005391405433758,-0.19382169112487221,-0.30801872356884386,-0.24018941912239744,-0.5267070652394257,0.39500005389500087,0.33917524253970066,0.6876741500899008,0.30981234123924595,0.3462432172058422,0.07618719296004371,-1.7065478768954452,-0.04244110216582708,0.3549325674946378,1.08665992491441,-0.37470083463929793,0.6480723964192472,-0.6348642690938359,-1.6369067624025502,-2.074496617937534,-0.2913181474972578,0.8540217749016589,0.9727688364510075,-6.921586811708389,1.1565203046365138,0.6415174805501956,-0.11021319449098789,0.8460339602908473,-0.2076220952509969,-0.9731022584756663,1.710650689524437,0.0398949696514801,0.38578892330661696,0.08922664676748683,-0.3136878577236409,-0.5312735487338468,-1.5372583494867984,-0.2292945141193177,-0.5206039641327628,0.3561716605132697,0.33772795326289984,0.1895559076665724,-0.23011711804660387,0.5551876631732692,0.4063213836194639,0.5397624905718915,0.06564518744250443,-0.4224833696766874,0.1202260118325169,0.6388483764355848,-2.0902929216616886,-1.7506888717131739,-0.6723600914489586,-2.2320023158184177,-0.43071635363280086,-0.22418073829438273,0.19891588391629314,-4.026161833080657,-0.8195752518443684,-1.4217015683574732,-0.3527718728004959,-1.8918329834066103,0.3149342652260927,-0.6249718676173693,-2.5542488099954728,-1.7540368506641486,0.8928966137802056,-0.07442589503522887,-0.9783175629958452,5.200065528230838,-0.998502146445698,-1.202116328674136,0.054429704366527346,-1.243594605825768,0.2571959799999582,0.1267870170525004,-4.95982913065796,-3.648438176909383,-0.850074982493319,-2.905342911368051,-1.6291543971462297,0.2112654066791788,-0.746617999661208,-0.03796959660426861,748.9942241253291,0.03747752370907853,1883.8485966292403,1.409462455017617,-0.22022405148160862,0.13593515278280288,6.626338590819628,-0.2442911532168607,-4.1586779775167075,680.310142831515,620.7641857703101,8.965653526837874,0.35228464272128424,2.352920873821964,4.976427786977629,2.1427153693591823,-2.468111385491381,6.105603066918051,0.23782616779204027,1.2558300915084863,0.37096335158499055,6.424527896551982,-0.4680556763150123,-0.22767219668014788,-1.0848921307528494,1.5849192524075,-1.601144843054923,-0.7026068865242353,-0.3106864017140225,-0.6850674438353117,-0.3169052054405907,-0.2017167552380313,0.09595512022750939,0.18700775762679062,0.577557596088122,0.7768338147690651,-0.9047230840698085,0.6805659239708146,-0.7840049312822602,0.14657978585999717,1.2282481274391144,1.4741889857728314,3.893693096259183,-0.43024424410400686,0.1012119403686653,1.949710416430167,0.7593568093197414,0.1505234552025555,-1.7700187309147912,-0.24100056146918708,0.8122169068554463,-2.0657597653002737,0.6853980953183845,-0.48113698962137763,-1.0283557105760688,-0.3163894261817471,0.324020732814699,-0.3244970275150006,-0.8118296281158949,0.1529837114664449,2.488391018378778,-0.19072391017123463,-0.8839184756797956,-0.34120444020202684,-0.2636386627658276,0.786466645055091,-0.8361952733114001,-3.2613133183119336,-0.08626821183563518,0.3585910197117588,-0.5913276846557652,-1.6187422094996,-0.5230548788671205,1.415312575412385,0.3423102735801813,0.0843455120096889,0.6824705167706939,-0.11612862731325789,-0.44438502875930425,-0.5517540973115279,0.018846143384656032,-0.10779696853935235,-0.2609223718489643,-0.4000212076487346,-0.2691472234050055,-0.26802788981141534,0.021686541353706474,0.548954770415743,-0.9062489711911363,-0.6760634985422851,0.30561051052786137,-0.40115898262616617,0.3605565630004019,1.1139364208715739,-0.35035319210173627,0.36942204009115087,0.13802671893293889,0.18991881347388298,1.3785119179772907,-0.3940809877170484,-0.48662287530061565,-0.6344072209089308,0.9988449180174224,0.5555328932461132,0.11783823499511772,-0.41800278301033456,0.25618123013867844,-0.04010059917828488,-1.4160620254099794,-0.13805993681485762,-0.09712611618572178,-1.9889112966789482,0.012608835633115842,-1.5686003286567198,1.4147686959930446,0.24774662709812337,0.34923866397869924,-1.0680696201919646,0.7127596760269378,-1.8063792326723747,-1.3932021121210547,-4.660944022272702,-8.721246906879468,-212.35205018195944,-3.7866315442077925,-2.0215624670701158,1.6081834517513076,-2.399539078838126,-0.8517384841608925,-6.5854375597803525,-5.164497009942055,-88.26706082468301,-0.49049639027035974,1.7979964780229847,0.6762758752372878,0.2734542585047674,5.284408508554657,-0.1602898468905821,-1.664858715105472,0.8951702833308498,-0.0526789083435519,-2.420215425762637,-0.29519778792511303,-0.8522520145112406,-0.3502510664265566,-10.864666888306047,0.7493219579244724,-1.1644643764135578,-0.13441523820061368,-15.794427223164991,-0.07585066587085718,-70.52939152659843,-0.41380908197679056,0.35861569888510225,-0.6675411212529226,-1.1213858478828918,-0.18430558779297013,-0.01899931711734577,0.004578853476178229,-0.08916219853604714,-0.44285743022651103,0.3467300250286133,-2.8055011823772937,0.03336269483915035,0.07153541624266871,-0.2782584191179105,3.5010130001291944,-0.08138777747492508,-2.1975774008209212,5.8853743590300915,0.6996467647214376,0.7846469041743527,1.9886915606480384,-1.4439923191690065,0.7148853530034177,-1.2562668833851838,0.3531995605553605,0.36642214251055466,5.870437824613136,0.43720144849671677,-0.8697285216069051,0.04355394362191624,4.852958994185907,-0.6069651227483162,73.65779596721103,1.225271312193595,-0.12366981106332654,0.8110736382219667,1.159929116817037,-0.30331458055634797,0.7517420966953556,0.031066209022783207,0.014141985069916126,0.753144767412165,4.747488689455246,0.3397209453839721,-3.001064255851965,-0.5538208522698372
biasActivation=0,1,1
[BASIC:ACTIVATION]
"ActivationSigmoid"
"ActivationSigmoid"
"ActivationLinear"
