encog,BasicNetwork,java,3.0.0,1,1547766816047
[BASIC]
[BASIC:PARAMS]
[BASIC:NETWORK]
beginTraining=0
connectionLimit=0
contextTargetOffset=0,0,0
contextTargetSize=0,0,0
endTraining=2
hasContext=f
inputCount=10
layerCounts=1,27,11
layerFeedCounts=1,26,10
layerContextCount=0,0,0
layerIndex=0,1,28
output=0,0,0,0,0,0,0,0,0,0,0,0,0,0,0,0,0,0,0,0,0,0,0,0,0,0,0,1,0,0,0,0,0,0,0,0,0,0,1
outputCount=1
weightIndex=0,27,313
weights=0.09126190845869053,0.16936752292093318,0.15263175768011464,-0.644673956242875,0.17379914366858468,-0.35465107221033537,-0.5305397687638798,-0.29223685587051385,-0.26603036013188947,-0.8054447194969752,0.11448262942180903,-0.642483434552367,0.03542986990079439,0.09284787479261637,-0.033506554086099816,-0.5237483731083264,-0.46371763204635,0.1299139610598842,-0.046195833151069544,-0.584082539244253,0.18822794438479215,-0.3599537431341246,0.16461342681754806,0.07140967719986134,-0.4203056164313188,-0.7041949181208362,0.16363801920242743,0.05660663495053934,-0.05922910047940482,-0.11580633692531844,0.3706910247247245,0.8517175500557989,-0.8826556863949602,0.41729525330575434,0.794044855031939,0.4241895947238648,-0.22964486065284323,-0.10039623790936873,0.6445362961452549,0.3417117895745686,0.8322493390955517,-0.2829189014522319,0.14509743235403535,0.2986597811404728,1.468322812613244,-0.353731554631838,0.16504128627373016,0.26784658020485314,-0.1978825581800564,0.13322475990215568,0.3893275814884891,0.5040505591257305,-0.19728026541568028,0.06914800732418998,-0.05686175208032192,0.6545139770958508,0.1980294668889158,0.8409979964713171,0.4313316507915767,0.15718042230116375,-0.2488196798668113,-0.3000519547005727,0.02598681451809193,-0.4685925550421137,-0.4465525064332028,0.5764418267551953,0.1785991714968429,-0.44059510137496194,0.19333088412854812,-0.20954238696723002,0.23784375589926054,0.10788874934260977,-0.49415634613420617,0.3680306255495095,-0.29393898975391863,0.4664844475527759,-0.03260977461119024,0.3578185713768248,0.03636535698450206,1.923107957019221,-0.7428777742998359,0.34413213987434915,-0.4648822944141573,0.14972216956167064,-0.43620995817914987,-0.4899299645475742,0.21740492259809857,-0.3281356763373109,-0.36332337664711006,-0.16747392929892538,0.010147429754089521,-0.08931175907508711,-0.39198404879864296,-0.11434885753675285,-0.17872312610624663,-0.12654478705609648,-0.3616596210858246,0.45463585087823616,-0.06490964220904302,-0.9605377613672086,-0.5621187457898121,-0.49680331389487425,-0.20328268901092614,0.2025144769114776,-0.04888798273235162,-0.028370963175684688,-0.46437019827380493,0.20544519006629192,-0.4217141488798518,-0.3777995175717794,-0.6769122491372798,0.08192606839987784,-0.08323436820085087,-0.23444345778890785,0.3553690181254752,-0.2738598744210249,0.5665546486967202,0.02184451401565832,0.409768637359856,0.21128549276120057,0.492609013544672,-0.02568615129864489,-0.040517440897786215,0.14719804403449066,0.1029782542076375,-0.06346871171848716,-1.38321565360163,0.012170060444880325,-0.05281220021818293,-0.2541030525630968,-0.10104961427177173,-0.07343087239637495,-1.2405217411980398,0.01021053431827302,0.05601963114639762,0.07130638004770039,0.49469311327084453,0.501856553726194,0.06370071039513395,-0.07186247219659937,-0.09800670209815686,-0.12789863171916369,-0.04411044534040729,0.42681613383908074,0.8111436988573911,0.31004528905379874,0.023496376440765777,-0.39061519380657,-0.20187194032817837,-0.2680592819675927,-0.7042989357466741,-0.23276722244015413,-0.06932887015745658,-0.16049598838877155,-0.4591686396825718,-0.5233204169369358,-1.0029805395188764,0.1608076730379418,-0.34522281679501815,0.15266599227619854,0.2541126775106121,-0.25953670750308044,-0.7935385793305235,-0.04029757738905028,0.21871437191502685,-0.4246829609278185,0.26754488428554146,-0.456015059954263,1.2404274137521,-0.43015747225765605,-0.14680387165955291,-0.16181190828390585,-0.40184057077845453,0.43468361429807495,-0.2785564758323302,0.21422635050406325,0.30418796889638566,0.6640417847779906,0.15669921742901607,-0.1628054320678923,-0.6320068669114267,0.30113161128343263,-0.29004640648990293,-0.5334404550022135,-0.39561735260250863,0.3429104236587813,0.03792045583786422,0.3762997379970371,0.1234045432146263,-0.2700084345623244,0.3101076725023644,-0.09882624652710413,-0.40647814665885074,-0.7532603154225705,-0.3294184264844416,-0.3393286760070796,-0.20046550780814137,-0.10226789647810806,-0.3255605126163813,0.32534747784736084,-0.7402809810667327,0.05154363634056612,0.1908100236639474,-0.4993631429336697,-0.32843512218384296,-0.32777524469456515,-0.029118247856494257,0.1238859352225463,0.010148580295895989,-0.2806611814521818,0.2849565224643118,-0.35258967222621695,-0.249121561725013,0.5133525540415225,0.08509626064516103,0.14049946171831817,0.44536110219189784,0.34415345325908064,-0.06964698148400784,0.34699133171261093,1.0430345792369664,0.15717582107620398,0.2401594715073972,0.14967374026593766,-0.538478858065764,0.08805071797828011,0.19481797334887502,-0.0670174132507844,0.42108373987865855,0.30545852814268726,0.17107100817165471,-0.5553832157634709,0.22540709856615998,-0.0519813730353152,-0.39251554883648443,-0.3930870759413665,-0.4723743089115528,0.14555750797005226,-0.15132133655072205,-0.055179868049145424,0.3746375520881991,0.12880342974288,-0.1399738367162564,0.07755472544121426,-0.5933624757261021,-0.41611853582872055,0.2103091046695104,1.328194844309472,0.40757436676765013,-0.058687827883527915,-0.36817877530374427,0.5115315075535097,-0.093747002868306,0.29940346020421094,0.2532834224022047,0.6090541557553841,-0.12155896583438415,0.27399884282026127,0.10776353057934361,-0.4506718703873948,-0.5009126940772162,0.1464523753319428,0.09624783014584301,-0.4785782415778233,-0.3385202948410997,-0.19119205340811116,0.17331215055917168,0.5261908924252302,0.20209967210984178,0.9777836127834759,-0.06427572027762238,0.0764408782663119,0.24883550704376817,0.22632073973269864,0.006535387874121807,-0.22297278586886926,0.19417314659455595,0.14424731035205834,-0.17225544056203654,0.19532255287615188,-0.021965036606942177,-0.2633467459126704,-0.1642802037431407,0.011893407772553995,-0.011989875368316874,0.10307848271674423,0.045947269341060575,0.7920761684088165,0.33932709999962124,0.07292706842557978,-0.3790347399718481,-0.023827406121166475,-0.43064492589636016,0.007207541687186048,-0.3787594547200886,0.2737730734444093,-0.4993895546397538,-0.7686406323814592,0.31283147337763706,-0.4157727790024598,-0.1200300697211779,0.48488283520357184,-0.5233232795976764,-0.24116456143152754,-0.6137455599473698,0.23276089637698977,-0.2876656896289594,-0.2810290720020362,-0.21813183108408626,-0.05739913758541718,-0.4526664431859817,0.40952607413679387,0.06300208392035139
biasActivation=0,1,1
[BASIC:ACTIVATION]
"ActivationSigmoid"
"ActivationSigmoid"
"ActivationLinear"
