encog,BasicNetwork,java,3.0.0,1,1547766820520
[BASIC]
[BASIC:PARAMS]
[BASIC:NETWORK]
beginTraining=0
connectionLimit=0
contextTargetOffset=0,0,0
contextTargetSize=0,0,0
endTraining=2
hasContext=f
inputCount=10
layerCounts=1,27,11
layerFeedCounts=1,26,10
layerContextCount=0,0,0
layerIndex=0,1,28
output=0,0,0,0,0,0,0,0,0,0,0,0,0,0,0,0,0,0,0,0,0,0,0,0,0,0,0,1,0,0,0,0,0,0,0,0,0,0,1
outputCount=1
weightIndex=0,27,313
weights=0.09126900035869052,0.17061334040641232,0.15277323733451462,-0.6446789631178751,0.17415326193573283,-0.35693399546167254,-0.5306411703310797,-0.29223949587051384,-0.26603536700688946,-0.8054344251305111,0.11454756407620906,-0.6570251334282122,0.035528217055194385,0.0967394185346508,-0.03350585369547481,-0.5243599206597034,-0.4615737027851791,0.12990286137238422,-0.04614429051826954,-0.5840834454942531,0.18895627936569528,-0.359340215711425,0.16487897715813943,0.08296989234780089,-0.4202572287485188,-0.7079963599596533,0.16363627959305244,0.057933362629231884,-0.07334618504302054,-0.14355684174179179,0.43761447600570125,0.85219191446246,-0.9291639873033385,0.1860231686480835,0.7947000753834474,0.4247036277637368,-0.22715043759457182,-0.10000199042479274,0.6403177546694182,0.3384589482705852,1.9806834754779294,-0.2898819573956865,-0.1110040344112343,0.3024737328183065,1.5248396821158907,-0.3636009315710953,0.16513820439373014,0.40330629351190567,-0.1664611419261259,0.15413427725985146,0.38523321472934735,1.1682019858658266,-0.19895199337910813,0.07031086817791102,-0.004172511559119998,1.1135810759066163,0.23842881287067147,0.8414085718840533,0.440078431824623,0.5473043966254749,-0.2489816687523153,-0.2976326648370773,0.03718968975017628,-0.5705811580534179,-0.4979396134522515,0.7926757942092132,0.18832159682143967,-0.4406428532077619,0.18373760585124707,-0.22906189139792302,0.23783667894613553,0.10787571132340977,-0.5115782470419713,0.6087966351041101,-0.29977760906244816,0.8945226516983383,-0.033124706507194436,0.3646324300649333,0.061578716172349966,2.676815822762414,-0.7682264323019823,0.3441274998743492,-0.4654193751447813,0.10819591088228932,-0.5041664142493282,-0.23382849778230452,0.21875987331301752,-0.3633687614145065,-0.38594048219533983,-0.16917593119943844,0.008293820585848882,-0.6832754194193097,-0.3923524361090672,-0.11355134021447026,-0.1570292139425573,-0.1237630860317319,-0.3600844592029225,0.6201434229921854,-0.06342663834855095,-0.9634790482348211,-0.5706809283967039,-0.49903763465789147,-0.19847599851447764,0.2025191169114776,-0.12956984325126283,0.08872178302876944,-0.509595026451328,0.2606238688009615,-0.2649916908035409,-0.35995677207905413,-1.1456857715400346,0.07511628523126672,-0.10176671833762092,-0.2593081112977772,0.3481207031891111,-0.27668019969605895,0.5826936589036854,0.06020303541205556,0.42520780401586383,0.1870906912560095,0.6739763116248775,-0.05418386430674036,-0.04056519273058621,0.14604144701996263,0.10048383114936606,-0.06346941210911215,-1.4672685910248415,-0.18390712118346877,-0.03667319001121768,-0.2268398780446335,-0.09924116723685276,-0.128619149812376,-1.3518746164362743,-0.0062286373344545756,0.3531189831083103,0.015408297203767029,0.47622094180971647,0.5018778551061941,0.06120530285077135,-0.08597955676021508,-0.009191102533124062,-0.3351691600897505,-0.0719594241352746,0.34651332666627827,0.9466034121644435,0.31018473217379877,0.04301588087145877,-0.39045993682199404,-0.2120056374519259,-0.2580021822603471,-0.7272208091293728,-0.18770937860106338,-0.07772984290231459,-0.2741360225399001,-0.5544339666133208,-0.5305071906647,-1.077004499095271,0.13594301952907242,-0.392257439471078,0.15199937445362188,0.2544964310682595,-0.2608873627924425,-0.8311658447685696,-0.6372366990963405,0.14363313321571503,-0.4130525855167026,0.6576688586098527,-0.013316652027917902,1.4729372897740542,-0.43043438799455974,-0.14673893700515295,-0.16152473264625847,-0.533405294892291,0.7284107909706308,-0.26071373033960493,0.11687680119584239,0.3055726982903484,0.6654005387618472,0.15696859445002026,0.31664699472220603,-0.6326939777319189,0.30100506915396064,-0.24356605709384307,-0.5336653222081443,-0.7466001460521265,0.5501809520293682,0.2213803618397254,0.431816107937469,0.12317703614813032,-0.27644327835981397,0.2900367165465514,-0.0988125068396041,-0.41661184378259825,-0.8788755959254233,-0.3001710452336059,-0.2432507724641314,-0.2270661775948195,-0.46115212447830417,-0.3506679310491418,0.2678535576481242,-0.7425657461043496,0.45710799028265814,0.0375944446967666,-0.49933942507613366,-0.32146756737697596,-0.29852786344372945,-0.016053225134950527,0.027947484699323323,-0.0015293937174629033,-0.31373941996980304,0.28026332402226806,-0.35592067162805757,-0.268641066155706,0.5122535712859438,0.08868031012284873,-0.03943852333218649,1.0090191314203847,0.3436065220497395,-0.12608734193859159,0.3458999881827907,1.0513358259483985,0.16479496147265255,0.24033171962739716,0.16974469622175065,-0.4030191447587116,0.08453207314364554,0.201785528155742,-0.06875566015827042,0.4192666107444901,0.3021094888839707,0.3545309141735159,-0.5563300186242796,0.21684491595926836,-0.0520889497068512,-0.9864792091807071,-0.3933526262819579,-0.4715767915892702,0.15252506277691924,-0.14760370035724438,-0.05355000953100654,0.3676318777346896,0.127395494990112,-0.1312854802217502,0.03052010276515436,-0.5866197371748118,-0.4169846549461759,0.21029328303671038,1.328171988094944,0.39428155767965556,-0.10572245055958782,-0.36904529694677274,0.9080115469848715,-0.09237369325243175,0.30312327371684816,0.30031804507826454,0.6146070447884009,-1.0531072930720045,0.2740513757202613,0.05456367677129473,-0.4289779582237055,-0.4995386022592797,0.14121904342553757,0.09687576314407877,-0.4973613570397006,-0.37159853335872095,-0.19815960821497813,0.15477980042240166,0.5194132867201284,0.195685723685839,0.9831526394520055,-0.20210957751913888,-0.2234785696739001,0.1564520379105641,0.2089879957948805,0.14600757857300536,-0.6206025258567365,0.21050461280152116,0.14648163111507553,-0.3061188468226891,0.19532035287615188,-0.020638308928249624,-0.26362366164957407,-0.16698200817981837,0.30562058444510987,-0.0035889026234588698,-0.0019131280139217388,0.0482182604946615,0.7995979964956834,0.33959647702062556,0.23940360550547501,-0.37906812583904803,-0.025092087634617996,-0.41661737520825054,0.03645492293802169,-0.37988623360131224,0.2734070396581946,-0.49170951072450425,-0.7687314223447231,0.2657968507015772,-0.41604007481648353,-0.12680767542627963,0.48482179127077185,-0.5233150442304765,-0.24297918291244494,-0.5762229229679966,0.25192015982652777,-0.4510466683305202,-0.3162092555299533,-0.27416008132093256,-0.0820582234932651,-0.9053596559872295,0.42336934276656557,0.0628749911178874
biasActivation=0,1,1
[BASIC:ACTIVATION]
"ActivationSigmoid"
"ActivationSigmoid"
"ActivationLinear"
