encog,BasicNetwork,java,3.0.0,1,1547766811369
[BASIC]
[BASIC:PARAMS]
[BASIC:NETWORK]
beginTraining=0
connectionLimit=0
contextTargetOffset=0,0,0
contextTargetSize=0,0,0
endTraining=2
hasContext=f
inputCount=10
layerCounts=1,27,11
layerFeedCounts=1,26,10
layerContextCount=0,0,0
layerIndex=0,1,28
output=0,0,0,0,0,0,0,0,0,0,0,0,0,0,0,0,0,0,0,0,0,0,0,0,0,0,0,1,0,0,0,0,0,0,0,0,0,0,1
outputCount=1
weightIndex=0,27,313
weights=0.09418368345869052,0.16732676092093318,0.15137685768011466,-0.643814681242875,0.17396320616858468,-0.3123769041975354,-0.5343288407638797,-0.2930037308705139,-0.2670179601318895,-0.7170521281369752,0.11740440442180902,-0.6002092665395671,0.034308619900794396,0.09538287479261637,-0.03363546033609982,-0.4846668191883266,-0.43148891140635004,0.1301989610598842,-0.04751148315106954,-0.585151739244253,0.18697304438479218,-0.3631829431341246,0.16349217681754807,0.09007928775986132,-0.4196559289313188,-0.5824453142439722,0.16350911295242743,0.04922034695053934,-0.06497612991940482,-0.07298773922445445,0.3350329401679245,0.8835010604813989,-0.18257568781105915,0.5073347496628027,0.796889143031939,0.4313201867238648,-0.2314722552128432,-0.09967061290936874,0.5772248513580549,0.26028334787216867,0.7360808427385032,-0.26707034623943193,0.16274767136689933,0.131998871152551,1.6256062471747805,-0.10629780512353895,0.16504128627373016,0.2626366856448531,-0.2029901287400564,0.04109412664929171,0.34835504260848915,0.4078820627686822,-0.18938530341568027,0.07885121116418996,-0.3042955015886209,0.5497858027130744,0.29419796324596403,0.8477786684713171,0.49509653728117664,0.14700186708836374,-0.22754717042681136,-0.29266566670057276,-0.01395812872670806,-0.37242405868506545,-0.45770395122040286,0.21998072119544043,-0.20895540527320328,-0.4498243013749619,-0.01568780476847581,-0.19453789063443003,0.23767969339926054,0.031338072862609784,-0.525622724707006,0.3214363865366455,-0.2868359647539186,0.2205626980444769,-0.02479687461119024,0.40103436529682485,0.045209644984502056,0.945883678986025,-0.5327540828784677,0.34301088987434913,-0.43830219841415724,0.19357589081453463,-0.42939448761914983,-0.5247738035604381,0.2138707020380986,-0.25352730481372693,-0.32695942720864607,-0.16846152929892538,0.013498777754089513,-0.009397262718038816,-0.39086279879864294,-0.04099079514955287,-0.16560509666624662,-0.11489007505609648,-0.36876264608582465,0.04452555480993717,-0.08741079420904305,-0.9867579668072085,-0.5709630337898122,-0.4968033138948743,-0.21309240677092614,0.20363572691147758,0.04324265052051235,0.026448491251451302,-0.444741643061005,0.23326685821349188,-0.4683083878927158,-0.3931289281317794,-0.3123095069148843,0.04853422938701385,-0.07358248596085086,-0.22856606322890785,0.3571424801254752,-0.24727977842102486,0.5739409366967203,-0.029036583685205668,0.47444100888344,0.24822021177406456,0.24770276403637298,-0.17222371267713316,-0.049746640897786215,0.12666193907449064,0.1081881487676375,-0.06372066484348715,-1.1178794298333816,0.1384687776531286,-0.04465733621818293,-0.2753502253758968,-0.08332282259177175,0.09323003759154691,-0.8616629989756441,-0.07570396203877527,-0.4356091272188173,0.07343435060770037,0.49646657527084453,0.49262735372619404,0.03223433182233394,-0.060141495236599375,-0.34544045160645587,-0.0985843927062997,0.011434911048456689,0.47769723153994476,0.8366152482973913,0.31036118905379867,0.008491880107965782,-0.39422930580657,-0.12212864975537838,-0.18663084026519272,-0.6577046967338102,-0.26761106145301816,-0.29776102560065654,0.08693776111952752,-0.3544404652997955,-0.5567122559497997,-0.5613782161706832,0.1626350675979418,-0.34344935479501815,0.08535454748899855,0.2290022455106121,-0.26936049550308044,-0.8527878673177234,0.102101830967998,0.3368907774637552,-0.3427059645707702,0.34090294667274146,-0.2900147845139917,-1.5832947770635044,-0.425401981697656,-0.15457507165955292,-0.18403905516390584,-0.35902197307759054,0.18724986478977587,-0.2515732719923302,0.45444510001236227,0.31268470689638567,0.6668860727779906,0.15669921742901607,-0.2427199284249406,-0.6311475919114267,0.31036081128343257,-0.279027897049903,-0.5406516630022135,-0.1481836030942096,0.3017161846459173,-0.19272323558350402,0.32541864029617307,0.12476069321462631,-0.2666570865623244,0.31297381706236443,-0.10146835590210414,-0.3267348560860508,-0.6626371451329065,-0.3097898712716417,-0.5273807461855679,-0.21911647259534134,0.14516585303019097,-0.22083233823360499,0.07791372833906188,-0.7255221330667326,-0.3237409404294801,0.20098857887674737,-0.4288590840536698,-0.30620797530384297,-0.30814668948176527,-0.04036669841649426,0.2208752315795946,0.03605426485269598,-0.2549960720137178,0.2515646834514479,-0.37958356478301697,-0.267402665392213,0.5146074540415226,0.00535297007236105,0.08568000729118218,0.39876686317903387,0.35094985950908064,-0.04033274247114385,0.35235873371261095,0.9913198697985025,0.24309031743325227,0.24047537150739717,0.14379634570593766,-0.542013078625764,0.1157393605382801,0.20793600278887503,-0.06020194269078443,0.44353942443545846,0.3267480244754872,-0.009419618228273554,-0.5716484117634709,0.21656281056616,-0.052091060535315196,-0.30660105247943614,-0.39430957594136645,-0.4111094817243528,0.18653004685005226,-0.13790586599072208,-0.024165585809145428,0.42610855082099913,0.12343602774288,-0.26003057976342436,0.06871043744121424,-0.6805057592496861,-0.42357468782872054,0.21353830466951038,1.107728896047072,0.3169511964779862,-0.06717511588352791,-0.36166637530374424,0.49547966854064573,-0.119652687425106,0.19467528582143462,0.2621277104022046,0.5994022735153841,0.25372561093566204,0.27287759282026125,0.1354521731393436,-0.43755384094739486,-0.4940972235172162,0.21112474685552676,0.09629880614584298,-0.5089079593378233,-0.3021563454026357,-0.20900393564811115,0.17888059167917167,0.5314007869852302,0.20101082210984178,0.9012329363034759,-0.15489889056728634,0.1273219759671759,0.5496637653520672,0.2729149787455626,0.006493082661321809,0.03634096363942979,0.19516074659455596,0.14424731035205834,-0.11848696214923653,0.1942013028761519,-0.029351324606942175,-0.2855738927926703,-0.13239776049834073,-0.23554034173574503,0.06572175169088311,0.34329723222504327,0.07109009270106058,0.7949204564088165,0.3477645999996212,0.02868811898711579,-0.37842858997184814,0.05272327035883351,-0.34002175560669623,0.02683609689998604,-0.27606417119650467,0.3285656807788094,-0.5297192723997537,-0.808228455741459,0.30398718537763714,-0.4157727790024598,-0.1141526751611779,0.48600408520357186,-0.49674318359767633,-0.20969818285872754,-0.6149172047345696,0.2582324458169898,-0.1906763932719111,-0.17492457564498792,-0.09153365670131001,-0.06039193902541718,0.024921055830616417,0.43053057046959375,0.06412333392035138
biasActivation=0,1,1
[BASIC:ACTIVATION]
"ActivationSigmoid"
"ActivationSigmoid"
"ActivationLinear"
