encog,BasicNetwork,java,3.0.0,1,1547766813637
[BASIC]
[BASIC:PARAMS]
[BASIC:NETWORK]
beginTraining=0
connectionLimit=0
contextTargetOffset=0,0,0
contextTargetSize=0,0,0
endTraining=2
hasContext=f
inputCount=10
layerCounts=1,27,11
layerFeedCounts=1,26,10
layerContextCount=0,0,0
layerIndex=0,1,28
output=0,0,0,0,0,0,0,0,0,0,0,0,0,0,0,0,0,0,0,0,0,0,0,0,0,0,0,1,0,0,0,0,0,0,0,0,0,0,1
outputCount=1
weightIndex=0,27,313
weights=0.09063618345869053,0.16807676092093318,0.15212685768011466,-0.645299681242875,0.17344758116858466,-0.34957728819753536,-0.5321688407638797,-0.2922537308705139,-0.26626796013188947,-0.8241892340569752,0.11385690442180903,-0.637409650539567,0.03505861990079439,0.09183537479261637,-0.03363546033609982,-0.5218672031883265,-0.46868929540635,0.1295427110598842,-0.046761483151069545,-0.585151739244253,0.18772304438479218,-0.3610229431341246,0.16424217681754807,0.07573748775986133,-0.42114092893131877,-0.6895824201639722,0.16350911295242743,0.05738034695053934,-0.05681612991940482,-0.08229703922445444,0.3585337401679245,0.8656162604813988,-0.2799207457310591,0.4899629496628026,0.7947291430319391,0.4250993867238648,-0.2333622552128432,-0.10115561290936874,0.6449071553580549,0.2984341318721686,0.7595816427385033,-0.2753053462394319,0.16819087136689934,0.18008565515255096,1.4374892551747804,-0.14444858912353895,0.16504128627373016,0.2633866856448531,-0.2008301287400564,0.1087764306492917,0.3865058266084891,0.4313828627686822,-0.19613530341568028,0.07263041116418997,-0.26614471758862096,0.5479765867130745,0.27069716324596405,0.8415578684713171,0.4641607532811767,0.14916186708836374,-0.2510479704268113,-0.3008256667005727,0.0034136712732919378,-0.39592485868506544,-0.43960315122040283,0.3225757791154404,-0.09934034735320332,-0.44166430137496193,0.13444747075152416,-0.19669789063443002,0.23819531839926056,0.09902037686260977,-0.5123759247070061,0.3449371865366455,-0.2935859647539186,0.25720148204447685,-0.033515624611190245,0.3692175652968248,0.037049644984502056,1.2590867257956249,-0.6218491407984676,0.34376088987434916,-0.46180299841415723,0.18032909081453463,-0.4334257376191498,-0.5118570035604382,0.2146207020380986,-0.2869641048137269,-0.3263312272086461,-0.16771152929892538,0.013498777754089518,-0.016644062718038817,-0.39161279879864297,-0.10867309914955285,-0.17885189666624662,-0.12488007505609647,-0.3620126460858246,0.2630896303299371,-0.062300794209043046,-0.9600279668072086,-0.5628030337898122,-0.49680331389487425,-0.19576920677092616,0.20288572691147758,-0.024439653479487636,-0.011702292748548691,-0.45635164306100495,0.2097660582134919,-0.4448075878927158,-0.37755892813177944,-0.3700845648348843,0.05669422938701385,-0.07358248596085087,-0.23072606322890785,0.3563924801254752,-0.2707805784210249,0.5657809366967204,-0.011664783685205666,0.45094020888344,0.23577861177406456,0.28332604803637296,-0.12219292867713318,-0.041586640897786215,0.14457784307449065,0.10743814876763749,-0.06320503984348716,-1.3128044653533817,0.10031799365312861,-0.05464733621818293,-0.26243342537589676,-0.09576442259177173,0.04514325359154692,-0.9336940568956441,-0.06245716203877527,-0.2854738516988173,0.07409060060770037,0.4957165752708445,0.500787353726194,0.045481131822333945,-0.06476329523659938,-0.30728966760645593,-0.1048051927062997,-0.019500872951543305,0.4603254315399447,0.8131144482973912,0.3103611890537987,0.010651880107965783,-0.39206930580657,-0.18981095375537838,-0.22478162426519271,-0.6812054967338103,-0.2546942614530181,-0.07919695008065658,0.04878697711952751,-0.3526312492997955,-0.5485522559497997,-0.7724176120106833,0.1645250675979418,-0.3441993547950182,0.15303685148899854,0.2525030455106121,-0.25937049550308044,-0.7851055633177234,0.026211526967998014,0.24779571954375518,-0.3520152645707702,0.2732206426727415,-0.38433704243399164,-0.6719537321718569,-0.429678781697656,-0.14641507165955292,-0.17079225516390584,-0.36833127307759056,0.22540064878977586,-0.2750740719923302,0.4235093160123623,0.30340345689638565,0.6647260727779907,0.15669921742901607,-0.2354731284249406,-0.6326325919114266,0.3022008112834326,-0.292274697049903,-0.5360298630022136,-0.1863343870942096,0.31981698464591735,-0.08310817766350405,0.3427904402961731,0.1231669432146263,-0.2666570865623244,0.3145675670623644,-0.09860898090210414,-0.39441716008605077,-0.7007879291329066,-0.32139987127164166,-0.4084241202655679,-0.19561567259534135,0.10701506903019099,-0.21902312223360498,0.11606451233906186,-0.7387413330667326,-0.22639588250948012,0.19882857887674737,-0.4965413880536697,-0.319454775303843,-0.3197566894817652,-0.027147498416494262,0.1965536315795946,0.024444264852695984,-0.2531868560137178,0.25972468345144784,-0.361667660783017,-0.23841546539221303,0.5138574540415226,0.07303527407236103,0.12383079129118217,0.42226766317903386,0.3441998595090806,-0.04655354247114385,0.34363998371261095,1.0155602537985027,0.22984351743325226,0.24047537150739717,0.14595634570593766,-0.541263078625764,0.09223856053828011,0.19468920278887503,-0.06423319269078442,0.4353794244354585,0.3183030244754872,0.10019543969172642,-0.5606009117634709,0.22472281056616,-0.052091060535315196,-0.31984785247943615,-0.3927158259413665,-0.47879178572435277,0.14837926285005226,-0.14789586599072208,-0.04766638580914542,0.3762177348209991,0.13215477774287998,-0.20999979576342437,0.07687043744121426,-0.6283754552496862,-0.41350968782872055,0.21137830466951038,1.302653931567072,0.35510198047798613,-0.05718511588352791,-0.36841637530374427,0.48629966854064577,-0.10804268742510599,0.19286606982143462,0.25396771040220467,0.5994022735153841,0.1563805530156621,0.2736275928202613,0.11195137313934361,-0.45080064094739486,-0.49812847351721623,0.18762394685552677,0.09440880614584299,-0.4710647593378233,-0.3015281454026357,-0.20084393564811115,0.17888059167917167,0.5306507869852302,0.20260457210984176,0.9689152403034759,-0.11674810656728636,0.1099501759671759,0.43070713943206723,0.24941417874556263,-0.0022256673386781907,-0.013689820360570204,0.19441074659455596,0.14424731035205834,-0.15979134614923654,0.1949513028761519,-0.021191324606942178,-0.2723270927926703,-0.14170706049834073,-0.19738955773574504,-0.0019605523091168753,0.3123614482250433,0.05371829270106057,0.7927604564088165,0.33932709999962124,0.03593491898711579,-0.3799135899718481,-0.01495903364116648,-0.37817253960669617,0.015226096899986044,-0.3437464751965046,0.2585194727788093,-0.4918760723997538,-0.7764116557414591,0.3121471853776371,-0.4157727790024598,-0.11631267516117791,0.4852540852035718,-0.5202439835976764,-0.22294498285872755,-0.6102954047345697,0.2347316458169898,-0.2149979932719111,-0.20836137564498788,-0.11159444070131001,-0.05964193902541718,-0.06957400208938357,0.4223705704695938,0.06337333392035138
biasActivation=0,1,1
[BASIC:ACTIVATION]
"ActivationSigmoid"
"ActivationSigmoid"
"ActivationLinear"
