encog,BasicNetwork,java,3.0.0,1,1547766818303
[BASIC]
[BASIC:PARAMS]
[BASIC:NETWORK]
beginTraining=0
connectionLimit=0
contextTargetOffset=0,0,0
contextTargetSize=0,0,0
endTraining=2
hasContext=f
inputCount=10
layerCounts=1,27,11
layerFeedCounts=1,26,10
layerContextCount=0,0,0
layerIndex=0,1,28
output=0,0,0,0,0,0,0,0,0,0,0,0,0,0,0,0,0,0,0,0,0,0,0,0,0,0,0,1,0,0,0,0,0,0,0,0,0,0,1
outputCount=1
weightIndex=0,27,313
weights=0.09127393695869053,0.1702575044100852,0.15276700176011462,-0.644673956242875,0.17390534587358464,-0.35538247107523135,-0.5306447447638797,-0.29223685587051385,-0.26603036013188947,-0.8054447194969752,0.11454132850180905,-0.6505413603324783,0.035521981480794385,0.09363636976176835,-0.03350365369547481,-0.5241655897227264,-0.4618196132935923,0.1299040891848842,-0.04613605515106954,-0.584082539244253,0.18845677573519215,-0.3592320731649725,0.16470553839754806,0.07830248923199569,-0.4202608031813188,-0.7076554796073156,0.16364091959305244,0.05737064523969133,-0.06521491987153917,-0.12623303877591976,0.3983055163119401,0.8526056772488868,-0.9401620862816722,0.25524057665278077,0.7946702970010909,0.42464938960386484,-0.2272993921976855,-0.10014565805896875,0.6402816444626027,0.33263642528205567,1.282188561361391,-0.2976030501829759,0.07929535280581085,0.31469271296652673,1.4877770661677046,-0.3215963593826445,0.16512560727373013,0.2866820471006001,-0.19219906966792205,0.14896768664502966,0.3833417620963548,0.95398978139157,-0.1990506344273923,0.07163244156367798,-0.010686908421286601,0.8061689141859787,0.23560141487624145,0.8413633129513172,0.43620586000412703,0.21142656696091486,-0.2490192182476113,-0.29797354518941493,0.031174480387026277,-0.5664277583216002,-0.45744508344832596,0.7689285263759955,0.18858292147717487,-0.4406432153749619,0.18460425081481757,-0.22782640233785695,0.23783667894613553,0.10788874934260977,-0.49751764634616397,0.4673281862817477,-0.2948954560430706,0.7266849330401796,-0.03294709749119023,0.36016403983198264,0.04290544965663641,2.2307512224131627,-0.7750732880384941,0.34413213987434915,-0.4653589694349573,0.10888778475592634,-0.4550454250748968,-0.42412788499934967,0.21743829992725058,-0.3604422747015217,-0.38277763020157063,-0.16819559926807737,0.008594738975977522,-0.5392509813409266,-0.3922346286490429,-0.11366970144792085,-0.17273730671411228,-0.12565690508694446,-0.3610449096234246,0.584224925622945,-0.06393815231464303,-0.9628832298223664,-0.56419715530097,-0.4973424426372743,-0.19838526078679178,0.2025144769114776,-0.1146900622805761,0.021277817190434423,-0.49884851797249874,0.22012933879703594,-0.3559120693316273,-0.37401737277486163,-0.8382736098193971,0.07508017502445127,-0.08770611764181344,-0.25327892468465474,0.34882892545334093,-0.2746238847101769,0.5686330582078781,0.03678499171818923,0.41724144404805064,0.18677869906912414,0.6850957131654722,-0.05356611977670732,-0.04056555489778622,0.14614593257209063,0.10063278575247973,-0.06347161210911216,-1.4285552826211072,-0.1054329677956633,-0.05073379070702517,-0.23941890383235276,-0.10056274062261973,-0.1115632507934762,-1.4018831018801572,-0.006039058748673533,0.3018435166621232,0.05247091315195347,0.48815302059871024,0.501880610726194,0.06132366408422195,-0.07784829158873371,-0.013344502264941844,-0.19370071126738816,-0.067317271587128,0.3705471488901315,0.829979165753138,0.31017213505379876,0.04178039181139269,-0.39060360445617004,-0.20733823433612072,-0.2589839176750798,-0.7218295841399935,-0.1904768740956114,-0.0778381735227609,-0.2703172381724231,-0.5151968899194181,-0.5301663103123623,-1.0698161991094322,0.14197220614219488,-0.35176290946715244,0.15198683618736655,0.2544087938114121,-0.2601621494722325,-0.8082227280612676,-0.22980756648793682,0.1518787123244712,-0.4130525855167026,0.3217910289452926,-0.34919448169247796,1.4626896493142423,-0.43039329034405605,-0.14674517257955294,-0.16161236990310585,-0.41678104848098546,0.7164489997429956,-0.27477433103541243,0.1044051007204117,0.3050023676655377,0.6654130770281026,0.15676421655401604,0.2871337901979472,-0.6321053693914267,0.30107291220343263,-0.2840605870977686,-0.5327376509950557,-0.6773827380474292,0.40871250320700586,0.10475611542841982,0.4325687229459863,0.1231873758642263,-0.2715611253404364,0.29127220560661743,-0.09881637465210412,-0.4119444406667931,-0.8004014425376178,-0.32358908892747223,-0.23909737273231363,-0.21135808482326454,-0.3702317459502178,-0.3618209378921703,0.2685648998342228,-0.7418336718448446,0.4633504802093044,0.13656387900419628,-0.4993631429336697,-0.32244930279170864,-0.3219459071375958,-0.024019585102763696,0.053306369389366184,-0.0010689885805660849,-0.30011543500664234,0.2802546726185518,-0.35561975323792894,-0.26740557709563995,0.5126673340723706,0.08817928100328455,0.09085068135219906,0.601589998811981,0.34394001177908057,-0.09451776606078387,0.34601984181821094,1.062488832791427,0.17071714863199275,0.24031912250739715,0.16850920716168458,-0.5196433911700171,0.08615269922552235,0.20080379274100937,-0.06782798894518184,0.41915075716429057,0.29830335753296183,0.23790666776221037,-0.556197614532623,0.22332868905500225,-0.052061137785315195,-0.8424547711023239,-0.3931791875213665,-0.4716951528227208,0.15154332736218662,-0.1504270563195643,-0.05396377231743342,0.3661282487228948,0.12745100293967998,-0.1314999748502339,0.07101463276907992,-0.5855385975827575,-0.41693293459787256,0.2102850476695104,1.328194844309472,0.3945285514942732,-0.06522792055566226,-0.36879348676614426,0.5721337173203115,-0.091814020153938,0.3041700075038486,0.259823515074339,0.6135259051963466,-0.5333658097031224,0.27405631232026123,0.0889280636835967,-0.4446860509952605,-0.4988886185366019,0.14088538511456294,0.09641688349624301,-0.4833007563438931,-0.35797454839556025,-0.1971778728002455,0.16884040111820914,0.5198422759770958,0.19982880659868404,0.9782704864326279,-0.0854853311078333,-0.07978801835377125,0.03780299345950336,0.2260438948137803,0.029383332161699756,-0.6896902546294333,0.1964440121057137,0.14478643909445832,-0.18949460041138347,0.19532255287615188,-0.02120102631779018,-0.2635825639990704,-0.16415865221749845,0.2936587932174747,-0.0034805720030125593,-0.006742767066907324,0.04829273779621834,0.7986162610809509,0.3393920991246213,0.22915596504566296,-0.3790631709718481,-0.025200230181070475,-0.4175991106229832,0.013036879244155367,-0.379712362955496,0.27288494625132137,-0.4965916637438818,-0.7687404015718592,0.30629138070550277,-0.41595997648245986,-0.12637868616931225,0.4848253657035719,-0.5233232795976764,-0.24309754414589554,-0.5996409666618628,0.2378595591307203,-0.37801308042319676,-0.3191614503991374,-0.27416008132093256,-0.06338495697755153,-0.7603097085799226,0.4236306674223008,0.0628512732603514
biasActivation=0,1,1
[BASIC:ACTIVATION]
"ActivationSigmoid"
"ActivationSigmoid"
"ActivationLinear"
