encog,BasicNetwork,java,3.0.0,1,1547620937688
[BASIC]
[BASIC:PARAMS]
[BASIC:NETWORK]
beginTraining=0
connectionLimit=0
contextTargetOffset=0,0,0
contextTargetSize=0,0,0
endTraining=2
hasContext=f
inputCount=10
layerCounts=1,27,11
layerFeedCounts=1,26,10
layerContextCount=0,0,0
layerIndex=0,1,28
output=0,0,0,0,0,0,0,0,0,0,0,0,0,0,0,0,0,0,0,0,0,0,0,0,0,0,0,1,0,0,0,0,0,0,0,0,0,0,1
outputCount=1
weightIndex=0,27,313
weights=0.39090189306609874,-0.3880952317220581,1.5789293329860283,-0.045989557968246775,0.11105005731661889,-1.2673006394142468,-3.0523110252164094,-0.43754398444116505,-0.07676911540241338,0.2794359713370736,0.41305733719649,-0.4081815333070561,0.017260465670429888,-0.5813448319218539,-0.07424392007231852,-0.03588672048508545,0.2533271261432209,0.4263164874028361,-0.6593289260210974,-0.5721321154287982,-0.43769856157838993,-0.51486424781809,-0.7268223228591344,-0.3353664412995925,0.12976443632111484,0.028498099379140954,0.17578338906559224,0.4231900707094073,0.6626204994986098,3.7241813306097495,0.26722266045829546,-0.5630982502434198,4.178611263487197,-16.66037358703317,0.3455499710567145,13.99537042409962,-0.5068020560160619,-1.1886166530712257,-0.1365504611653676,0.1749231846380142,0.06143339922599478,-0.39596110635231097,20.76935407484542,0.14359069931909738,-0.9340431915465917,-0.11937374131907286,-0.9599770110503251,-0.11363221817937974,-0.04682034996793118,0.12051885142226512,-0.14304647887307456,-1.3805459274812828,0.10737358615971694,-0.7815542901905075,0.05431146550759209,-0.2868471244239413,0.34797456276370403,-0.35723991409297373,0.029563927560627184,0.36116064115672897,-0.12370901614348069,0.03450821294264734,0.5740642951741477,-0.17645069400937455,1.2479879145448416,-0.09248254765502913,-0.33485545376061143,-0.27283583362246844,-1.908002374839544,-0.011442059077537314,-0.11723052200557452,3.683039308618363,-0.10990752090017337,0.4572056632746892,0.12364140246022877,0.49821883119146504,0.09186608638683495,-1.747243979892609,0.2241629424645739,0.2732942385399078,1.517414255338518,1.413880351335795,0.0587795951142504,0.11295202009420971,-1.9520101345118626,-0.035300851672745076,-0.14346599254475426,0.09741693065021667,-2.2946118273538327,-0.12843678667231218,-1.4956596778871005,-0.1184329708332719,-0.2370017469715466,0.10084444199485366,0.2394762360257752,-1.481634937871445,0.0713964578332461,-0.08896291970730827,-0.12030727291985076,-3.256042671986412,-0.0010788995711612788,-1.5973363396704714,0.008781901015376792,0.008701306242968087,0.1728440855467786,0.29556301144994984,1.0320554075312296,0.2923218725090831,-0.08975902848679206,0.3110588117171653,-3.240914653330266,-0.3285544834781247,-1.8068342915582976,0.01912944820213694,-0.19177546102511625,0.6377698346004432,0.14123977857570125,1.451844407968251,0.4602748495241708,-0.23766198766188734,0.21251575711103274,2.38310909389001,-0.4262312111537729,-0.26588039587483286,-0.5592722014264231,0.021627107187062792,-2.8147369133107394,0.07914685134168112,4.445148926658799,1.2541591809000041,3.629087790704333,-0.24977590265846908,10.324267540710045,-6.953541509888965,91.05986627771333,0.19679997651630182,0.1960580861819849,-0.06923320803031366,-0.3505323032480871,56.75518385994508,1.2860220137907865,1.3043311932073016,0.40913646148943644,202.31675387436684,15.078103833047875,37.32527920391698,-0.05822082222729503,-0.12890263438809307,0.2704841562006594,0.1702013158350657,-2.5742025451930823,0.017449668454497917,0.2864985722656126,0.08178967007389919,-2.77709273051235,0.14046676555136842,-1.8827897420706994,-0.1971661541140085,-0.4574570395244084,39.24041728058023,0.6021139486717493,-2.576640200811345,0.42525551831933095,0.24385019320410475,0.3901716251141151,-0.8050598527630994,0.21597849555596874,-1.1308055205123313,0.0643621167625464,-0.16763958216932995,-25.812969210211552,-0.048519270646846885,0.20126922583791604,0.09935121401992765,-0.6998503094484887,0.4670704567068159,-3.320948491944686,1.7401236792637942,-1.699435447649206,-0.1845474716988181,0.3987615153859451,-6.884618902252771,0.3634996026090695,16.92012127437578,-0.02879717035662273,25.673465197729787,0.4014161432444053,15.599275715022213,-0.453423939996089,1.0936215015917585,1.1542701379438371,-0.5322537643627164,0.11066488948543633,-0.10801895677509017,-0.0796209587350125,4.482992789552045,-0.25985092036639423,0.35051705451260123,2.9648150574917245,-0.6232879518618739,1.5405237817226418,-0.033844833005187806,-0.4375393899192946,2.149834520114279,2.6075293395397154,-51.421647619591724,0.23423357327500346,-0.07103217159594052,-0.7024571595621572,335.76045387605876,-1.499924853056183,-428.7103855754844,-0.4642939452490125,-0.8249951854819529,-0.07200681258271283,0.47035113069075907,9.286699872132033,-0.3730351297445256,2.5099719960434177,0.18099327820664454,-20.16362320675025,-0.35655890289718367,11.571939389573162,-0.2396476268425022,-1.6660142000104692,0.12775296950562423,0.2395771156418697,0.6106435595564147,0.03129748997703662,0.2092593873613799,0.08289113656127658,-2.8612955190139404,-0.1500799486143781,-1.496524208678145,0.07970779868441433,-0.3715224065072223,0.16823274666679966,0.3055938759513489,-2.5727278783274974,0.06852343701337577,0.008851863879582025,-0.077416903524499,-2.8968478355121206,-0.09266670422205928,-1.3006832892998077,-0.1355191114243109,-0.2677996785367083,0.1411338469211554,0.05867266925660144,0.11228109544767893,0.15545823144800278,0.21671111404407511,0.32672688300199576,-3.2209148112116526,-0.2951662127911501,-1.5152296500635418,-0.059857110506668754,-0.11389533377111828,2.9001195537129205,-0.3899499102537682,-142.48525688542063,-5.108331012837703,0.698357071077392,-4.74457247808059,432.7979185257178,-35.35162228197947,-0.7008969997149079,0.5554324881129781,-2.1592916353137253,-0.5122990599530917,0.015215078464585578,-1.8252522554325912,-0.031207487966847695,0.6609644348140529,0.681271530655753,-2.8724407872317133,0.8877627285754206,-1.4279978193385368,-0.11427186502449431,0.05059604289612416,0.08716335687523105,0.19505525874660656,-1.850255647380695,0.048319224720764796,0.03107291550033208,-0.05590018022682089,-2.919016938312898,-0.14472130298509306,-1.7297570560805273,-0.1319111924903162,-0.37024920242806253,1.0377163492402863,0.25829447480091594,263.89223523538203,0.05774447795121683,-0.5608970576945194,35.16053548432689,46.58210359879117,1.4815940687665181,-588.7824177645091,0.2825811935002174,-1.1332030678655984,1.248875416646706,0.28090846077241255,-220.42022251147839,0.577661328587073,0.1298851461327715,133.92514431298693,924.7138374732053,-984.5395073808743,-339.0320302473021,-1.029224837728603,-1.6882429430528283
biasActivation=0,1,1
[BASIC:ACTIVATION]
"ActivationSigmoid"
"ActivationSigmoid"
"ActivationLinear"
