encog,BasicNetwork,java,3.0.0,1,1547620936231
[BASIC]
[BASIC:PARAMS]
[BASIC:NETWORK]
beginTraining=0
connectionLimit=0
contextTargetOffset=0,0,0
contextTargetSize=0,0,0
endTraining=2
hasContext=f
inputCount=10
layerCounts=1,27,11
layerFeedCounts=1,26,10
layerContextCount=0,0,0
layerIndex=0,1,28
output=0,0,0,0,0,0,0,0,0,0,0,0,0,0,0,0,0,0,0,0,0,0,0,0,0,0,0,1,0,0,0,0,0,0,0,0,0,0,1
outputCount=1
weightIndex=0,27,313
weights=0.3957726584615002,-0.2090893893325847,1.5797490272447787,-0.0447058129118204,0.11105876252539063,-1.22081154320537,-2.918422428134845,-0.43626023938473873,-0.07638175307574037,0.129859537903638,-0.01772279109180455,-0.39203948601230726,0.020957651432937832,-0.5769082090068445,-0.07425138387230876,-0.03542188569307787,0.6389262857381282,0.43719699632857667,-0.6580451809646711,-0.5701859773965415,-0.4364148165219636,-0.5219964240615188,-0.7255385778027081,-0.33408269624316617,0.2636530334026798,0.021365923135712117,0.17597949816663672,0.42675247612390116,0.6661829049131036,3.7247461248207574,0.26780917960186595,-0.6425621862305151,4.178606863487197,-16.655688957929385,0.3524556357668101,13.995293769538936,-0.5068151700318247,-1.1621212829947223,-0.1365504611653676,0.17481354792949752,0.06122949804151918,-0.42550912182228895,20.80975415134104,0.14406979771724177,-0.9357344295311061,-0.11936434468371289,-0.9599754449248732,-0.11385956503137303,-0.04810409502435755,0.12052973401837111,-0.14303986990759082,-1.341689739842843,0.10665724850409926,-0.7815737991471796,0.054276552540438235,-0.2812422468910424,0.3479728469286013,-0.3575296724719506,0.029560201145914525,0.3627872484844323,-0.12388563855237864,0.03450160397716362,0.5336642186785296,-0.17692441225339495,1.2620157188835976,-0.09245878897291712,-0.3813445499694882,-0.2691377212262654,-1.9079902449026884,-0.01144693395032234,-0.11777122283717566,1.3355433100371568,-0.10990273426823165,0.4572737567125518,0.11895677335644309,0.49817397458877555,0.09181430503416875,-1.7068439033969909,0.22401381216889527,0.2732834427731799,1.3395021056151009,1.4206792233955734,0.05863046481857174,0.11290102410552617,-1.9520073057599707,-0.0366651602155238,-0.14344648358808224,0.09746871200288287,-2.294815728538308,-0.1315824458917076,-1.4956543098871007,-0.11740445381879787,-0.2758579346099866,0.10081308118732284,0.23942524003709167,-1.481675372016273,0.07140417588815813,-0.08894341075063625,-0.1180794080600585,-3.256045713241324,0.0017842291335389445,-1.5973309716704716,0.008790633266280726,0.017970416074857155,0.1728384365867786,0.29432606512547277,1.0180276031924735,0.29223475915483077,-0.08961977209247436,0.3110825703992773,-3.240914957433178,-0.3285368063793625,-1.8068342915582976,0.019124519310475645,-0.19259515528386653,0.6377654346004431,0.14121997967394123,1.4512796137572428,0.46018383394035733,-0.23761713105919777,0.2125009472383295,2.3809899923207927,-0.42587532586041443,-0.2658802660371972,-0.5592779013503676,0.008135375368160043,-2.666394649967945,0.07916865024344114,4.459176730997555,1.2541310842784565,3.629068431802573,-0.24264372641504026,10.659361935195301,-5.540403736531707,99.06455828109462,0.1879910991504197,0.19605222518998489,-0.06923370102231366,-0.3505325032480871,90.39104182098701,1.2859961231144534,1.3043052345251895,0.4090072163361441,581.0553138743668,15.004352615818812,41.04378221946359,-0.057974575106538244,-0.12887999943628148,0.27765107945657264,0.1701495344823995,-2.574201562987564,-0.007119414337079841,0.28653875459499023,0.08302661639837622,-2.7770957717672617,0.14042330611282858,-1.8827843740706995,-0.1971909411990975,-0.5138496039370332,12.712324381573389,0.6123736762654916,-2.5766405730107533,0.4252364507961518,0.24215895521959033,0.38993699234595136,-0.8048559515786239,0.21571872541790263,-1.1308108885123311,0.06437072338931342,-0.16683232015335608,-23.139777296472253,-0.10589578671854899,0.19639846044251455,0.08972908317169272,-0.6594502329528706,0.4670533605981972,-3.320951533199598,1.680966556630298,-1.699435447649206,-0.15383582112249236,0.3986065470130462,-7.006201102909211,0.36344530178855633,15.955049418258247,0.3568019892382844,25.687493002068543,0.4014781689226892,15.482923494714832,-0.4505956467190925,1.0941214578672345,1.0423643175451303,-0.5266438430476023,0.11065674753343631,-0.10802427639876246,-0.0936487630737688,4.482132911050475,-0.25790478233413766,0.3505152689858961,2.62972066300647,-0.7054693056482996,1.5405345774893697,-0.02503595563930568,-0.43876316348911615,2.1492160469520405,2.6382409901160413,-51.09935885684345,0.2383658845135307,-0.07107702819863006,-3.900770828906154,476.75221707605874,-1.480673624943798,-429.7181880034241,-0.4647921502112192,-0.8193903079490541,-0.020070550973881,0.47229726872301564,9.39860569253074,-0.08277110153695308,2.6472118622312646,0.18304437508208907,-17.38421626113175,-0.30016633848455904,11.095745939299604,-0.2396476268425022,-1.7173508083101625,0.12774960150562423,0.22931738804812735,0.6057727941610134,0.03129305317703662,0.2148642648942788,0.08291489524338859,-2.8612985602688523,-0.14792531118120283,-1.496524208678145,0.07971357771022786,-0.3731490138349256,0.1579730190730573,0.30557407704958894,-2.572726896121979,0.0685180211775762,0.008863489838494023,-0.07764901250914891,-2.8968539871670327,-0.139155800430936,-1.3006779212998079,-0.13550147221567793,-0.2585305687048192,0.14112819796115542,0.05852353896092278,0.10741033005227743,0.15544328143640862,0.21673071294583512,0.3267450317094737,-3.2209151153145648,-0.2951682865370026,-1.5152296500635418,-0.05986686627803953,-0.11857996287490397,2.900121993712921,-0.38996096781862377,-226.66858318901154,-5.087690273860673,0.6989443064886819,-4.728430430785841,291.80615532571784,-8.823529382972628,-2.5991130287878708,0.555587491332598,-3.2698172149470577,-0.5123041851450884,0.008297577973687851,-1.825251883233183,-0.03226951504124513,0.6629105728463095,0.7584475651329586,-2.872437769286625,0.5021635689805134,-1.427992451338537,-0.1157068722252533,0.04823532343092338,0.08701422657955238,0.19500426275792304,-1.8502546651751772,0.045260586746500166,0.03109242445700408,-0.055888936082671495,-2.9190230899678102,-0.1454762226434759,-1.7297516880805275,-0.1319009846149499,-0.42664176684068716,1.0401182591329592,0.4021875654244029,264.1768164066197,-0.06479705180587568,-0.5609419142972089,8.632442585320053,49.02939749195933,1.4709435050654536,-588.1467090570702,0.2824561785215083,-1.0867139716567218,1.2489292372090741,0.281382179016433,-210.27080527773134,0.5774574274025974,0.12986578723101147,133.2193051015861,1065.7056006732053,-1076.91326343233,-337.55568809408607,-1.0304336872305,-1.686616335725125
biasActivation=0,1,1
[BASIC:ACTIVATION]
"ActivationSigmoid"
"ActivationSigmoid"
"ActivationLinear"
