encog,BasicNetwork,java,3.0.0,1,1547620913157
[BASIC]
[BASIC:PARAMS]
[BASIC:NETWORK]
beginTraining=0
connectionLimit=0
contextTargetOffset=0,0,0
contextTargetSize=0,0,0
endTraining=2
hasContext=f
inputCount=10
layerCounts=1,27,11
layerFeedCounts=1,26,10
layerContextCount=0,0,0
layerIndex=0,1,28
output=0,0,0,0,0,0,0,0,0,0,0,0,0,0,0,0,0,0,0,0,0,0,0,0,0,0,0,1,0,0,0,0,0,0,0,0,0,0,1
outputCount=1
weightIndex=0,27,313
weights=0.19890244330942577,-0.14953298045885433,0.6380579154441007,-0.04693008585259962,0.10223486617378283,-0.6524453601772373,-0.5535822366604191,-0.41563864737879297,-0.09112289447045895,-0.11654868280588154,-0.15364840090609239,-0.3540372052501093,0.020147046408562547,-0.4710279265929246,-0.07864755862941082,-0.03535293849509645,0.06801255605750763,-0.19563854168756928,-0.6050484592130754,-0.5346233532604779,-0.3803034785768261,0.21993041364249458,-0.44747374773139686,-0.2989379642840011,0.087524461961243,0.03234362120821993,0.04201848176161675,0.38102723786246784,0.355073801081511,-0.35495638523819284,0.2665733851715666,-0.046656537409983746,1.6082708285390948,0.12090753477104663,0.28621148224019993,0.21079969809599894,-0.5071409216677868,-1.0092653032559904,0.5206279516333402,0.16485610335033565,-0.3302751228038151,0.32706662699533773,2.4312256981499316,-0.23130238468152106,-3.0473540803759342,0.06086870861180029,-1.4701266487317393,0.2828123233104512,-0.015693800461082257,-0.13168780303226416,-0.1566381962045514,0.950748500610001,0.07257742777311754,-0.715366606519636,0.25414912441093473,2.55220300571994,0.3973573352073459,1.4428219057296865,0.021287589942160085,-0.8577968435462477,-0.07679921998617807,0.025612420001051163,-0.1280279214670186,0.131830149214419,1.1144769374487156,-0.15869483314245852,-4.255049090488659,0.06641044828889558,-0.9219425333663746,0.09623702119880556,-0.022167162652186358,0.3776063048811885,-0.20008906591731312,0.5082128446320021,0.284906834205278,0.3849310641732173,0.13387835466601175,0.09866250711650162,0.3523537340527651,0.6750003278367325,-0.23605114635166288,-0.9728524132666758,-0.18176802959013091,0.17273184763362567,-2.92374348684366,0.09144097083751304,0.31223915185407747,0.07498581197586746,-4.053445490032587,-0.04146968123698834,-2.919854386796434,-0.27971611780342825,-0.16663607187413748,0.10117134203902019,0.3088700796551987,-2.454255435432408,0.1274136527500442,0.043698146633931456,-0.5131414659050199,-4.939217706730888,0.06546131370924752,-3.152582989321751,0.1677440432752846,-0.11768743257773821,0.12075694348244399,0.4397531847509594,-1.8030313969735217,0.2942732864882008,-0.08527879300087943,0.3073694892945252,-4.666681379330226,-0.3337663121777163,-2.630434741980886,0.06446214735206526,0.4301169241928815,0.6484621554931561,0.15474849980886882,-0.6791717933013774,0.4027004823272835,-0.11489326902579663,0.05019786259894955,-2.4469158858632594,-0.24089504405351597,-0.5883499882160058,-0.6002365524134076,0.4293233155920251,0.31897483925500264,0.3120775183049489,-0.4103385938417595,0.8498355550251635,2.458697810796943,0.16294999680033,-2.5850536362486483,0.44372301392178437,-1.4511973621061915,0.10808790290722234,0.20598030480576357,0.2620976434582241,-0.13795964224669613,-0.11447552557900578,0.6086064310969025,1.6414165828610363,0.4492396875370459,-2.822908322818994,0.7373685469840303,-0.9256740148905288,-0.07459117724206335,-0.12891096541290975,-0.461224080228348,0.22026019585902837,-2.5596493201549526,0.2469285065251798,0.43600668001760673,-0.006007370009306399,-4.207504689958551,0.13940343903256086,-2.985170769264668,-0.21159561059576074,0.5250416356790597,0.6502087186735236,0.4296326009898795,-2.3125096364079765,0.36603851581512564,0.7724344253585069,0.3938794703249286,0.16532899879854565,0.21252778014443627,-1.0043512820157947,0.05812366527332911,-0.1699487824193701,0.04020359623260561,0.22605038712862938,-1.955539205485657,-0.3474436551145844,0.036658550152843035,0.3785359085317938,-4.8256156409905255,0.3089921153416309,-2.945595494759506,-0.2023620597290576,0.4708715943201353,0.9113878039410915,0.3654154014333205,-0.11650010186300655,0.5915984992812836,1.6889628521122466,0.28353112780530054,-2.3116141415852347,-0.36721652600392934,-0.8885317877080291,0.26541382005544567,-0.27173028331090443,0.24189302858232523,-0.09302157175026987,-0.624035198042284,1.6411766504894145,0.737691882632993,0.33492413103161583,-2.437664077737554,0.13710232769362898,-1.0591587774196003,0.17159605420554733,-0.36194165363333414,0.21069221642782585,-0.014648878020596168,-0.14844723730803125,0.13921372130529613,-0.08480239740033861,0.9026864746340694,0.10775627719474354,0.1804234923904739,-0.02596308989017089,-0.45751551598168233,-0.8538958027092838,0.23040093329416095,0.516475856627888,-0.1504259343933825,-0.009742550735954356,1.761443793349919,-0.04849965601621607,-2.613345220461715,-0.32482981344179773,-0.8552614170805187,-0.23680889346705006,-0.02200790394190318,0.18290261520197512,0.7753344502234963,-1.3832893539506421,0.004627614588425393,0.5550618731100058,-0.0005030855512456051,-4.338868013906195,-0.07787708564128024,-2.9007804607835617,0.3995497549164564,0.0323009548540925,0.32415483923424687,0.3647806842618204,-2.659998454172162,0.06875383368800439,0.10436900970828863,-0.16203677001691003,-4.322946320437326,-0.16258494543964838,-2.5512870860613246,-0.13437245345986973,0.5139088731093027,0.14671765573671694,0.09721093460133493,-1.8988752583667863,0.17651851000801352,0.34554644957060787,0.32093522951374404,-4.392875558684862,-0.3195450296113664,-2.56392718066612,-0.335182805771966,0.29590547531325456,0.3119916345410813,-0.5597692115934924,0.41840812286944573,0.09337925546606253,0.08880794755112653,-0.6416073916966324,1.0457278925719924,0.5356959343144377,0.5994288114173336,0.5611788179347502,-0.5571302481304053,-0.5126412677920057,0.3070418738133725,-1.9269181865579563,0.04864976300194823,0.3144043444850581,0.3140706898664643,-4.281718764290355,0.29008927840072307,-2.991236796795581,-0.12844174860962734,0.0738023179792898,-0.00048244625096702243,0.3237175168587459,-1.9177262818634788,-0.2615079989228074,0.18485265594688813,-0.08265573287891638,-4.1384179604804565,-0.15136409318346558,-2.7235917979896747,-0.13081263159397408,0.2694310984354434,0.11915421437764216,0.0884116119442308,-0.5055662306713865,0.24882546681330234,-0.6372353199288546,0.524893778661176,-0.0849238208041901,0.47905606252728816,-0.6392397509817576,0.28501020250213716,-1.0627359629112219,0.10060077300937521,0.013689966476121439,0.3355378018715442,0.5905759345115708,0.11239346639119624,0.3499340834811704,0.043129680876856036,0.11577685201421353,-0.23479787874939403,0.13760022732962107,-2.1004622947899265
biasActivation=0,1,1
[BASIC:ACTIVATION]
"ActivationSigmoid"
"ActivationSigmoid"
"ActivationLinear"
