encog,BasicNetwork,java,3.0.0,1,1547620914596
[BASIC]
[BASIC:PARAMS]
[BASIC:NETWORK]
beginTraining=0
connectionLimit=0
contextTargetOffset=0,0,0
contextTargetSize=0,0,0
endTraining=2
hasContext=f
inputCount=10
layerCounts=1,27,11
layerFeedCounts=1,26,10
layerContextCount=0,0,0
layerIndex=0,1,28
output=0,0,0,0,0,0,0,0,0,0,0,0,0,0,0,0,0,0,0,0,0,0,0,0,0,0,0,1,0,0,0,0,0,0,0,0,0,0,1
outputCount=1
weightIndex=0,27,313
weights=0.5403959261546407,-0.1486976679588543,0.8959115404076641,-0.04515618585259962,0.10384449817378283,-0.8035658326914696,-0.9888091975014078,-0.43066561185879293,-0.08737486247045895,-0.11721288280588155,-0.15886609690609238,-0.3722567838229092,0.019077846408562547,-0.5235003128825886,-0.07687365862941081,-0.03506289943259645,0.11769866095709161,-0.19189050968756927,-0.6483261169154754,-0.552842931833278,-0.4235811362792261,0.3094629223103985,-0.5985942202456291,-0.31715754285680103,0.097109470601243,0.049595740965019924,0.07310615838241674,0.34601425833888383,0.398351458783911,-1.0860906024406871,0.2626029341907026,-0.040330294849983746,1.787751930562488,-1.6149690943409887,0.27734310976019994,-1.5250769310160366,-0.5067359216677868,-1.1339049574389024,0.5024083730605401,0.16949184351033564,-0.1831594654075912,0.3256125149953377,3.984191844781938,-0.1347956073030328,-1.7939004331538868,0.07566545372540028,-1.111164444684953,-0.0586811595347637,-0.026488132621082256,-0.007048148849352197,-0.13890145124455142,0.5917862965632147,0.09253126585311754,-0.7259544758019401,0.23015765071007074,1.2987493584978926,0.3547427092801779,1.1601244584771027,0.027277909302160088,-0.7147008614354459,0.006789221716221899,0.03024816016105116,0.019087735929205346,0.13144523721441898,1.1250648067310196,-0.12518553544159455,-1.2776729852429947,0.08456642540249558,-0.9351523424752962,0.05506544967522158,-0.05325483927298636,0.3706778888811885,-0.07544941173440115,0.4904760996720021,0.278489357392478,0.5095707183561292,0.12554798185321175,-0.05245796539773065,0.30006451996559713,0.6765929456401808,-0.2321992269916629,-0.23023397337161328,-0.06319390360220907,0.1294541899312257,-3.0039883908779643,0.056705329507849046,-0.12298780898691143,0.09346814519673145,-2.7999918428105395,-0.015928768494588342,-1.8860432391416895,-0.24546033604650022,-0.19772374849493746,0.09858193403902019,0.25778825417039875,-2.5345003394667125,0.06994659907964423,-0.1074223258803008,-0.41663468852653157,-3.685764059508841,0.08361729082284751,-2.1187718416670065,0.049169917287362766,-0.1487751091985382,0.21028945215034794,0.42472622027095946,-1.3793383036723967,0.2931647399282007,-0.20991844718379138,0.31026197985452525,-3.4132277321081785,-0.32862855345771624,-1.8162660938934443,0.023290575828481277,0.3115427982049596,0.6307254105331561,0.13701175484886882,-0.3202095892545911,0.3957347788520835,-0.2395329232087086,0.14670463997743782,-1.193462238641212,-0.23575728533351598,-0.3056525409634219,-0.6321859123529916,0.3982356389712251,0.26650245296533864,0.2687998606025489,-0.05137638979497318,1.107689179988727,3.201316250692005,0.4408895156503762,-1.3315999890266008,0.7216625327718306,-1.0159704012652027,0.09083578315042234,0.20223227280576356,0.13745798927531216,-0.1812372999490961,0.6166586916234886,0.7168924710409716,1.671909646394072,0.452132178097046,-1.5694546755969467,1.5378343612721634,-0.49044705404954003,-0.10245399114286333,-0.12816846541290977,-0.3426499542404261,0.1769825381566284,-2.6171163738253527,0.2348675199523798,0.42394569344480676,0.02750192769155759,-2.954051042736503,0.16371800814616083,-1.9513596216099236,-0.21544752995576072,0.4064675096911378,1.0091709227203098,0.4729102586922795,-2.232264732373672,0.3780995023879256,0.8459922540566189,0.3942664538513286,-0.26989796204244315,0.2070186396644363,-1.1289909361987067,0.06411398463332911,-0.16864738241937013,0.03274610119260561,0.1827727294262294,-1.5318461121845321,-0.34782856711458443,0.026983961992843038,0.4120452062326578,-3.572161993768478,0.4054988927201192,-1.9117843471047617,-0.2120366478890576,0.43978391769933534,0.5524255998943052,0.36327700143332053,0.3949916157721848,0.5811499440684836,2.0008266471511655,0.3170404255061645,-1.0581604943631868,-0.3429019568903294,-0.6058343404554452,0.22424224853186173,-0.2825246154709044,0.09477737118610129,-0.10804853623026987,-0.4769195406460601,2.383795090384477,0.5865714101187607,0.34325450384441586,-1.1842104305155066,0.14261146817362896,-0.6239318165786115,0.15434393444874733,-0.36568968563333415,0.2725476632876018,0.10999077616231578,-0.40231328494778623,0.1739493626349601,-0.06658281882753861,0.9650063017255254,-0.6233779400077508,0.23392009508000988,-0.7570973070926653,-0.45751551598168233,-0.8405448710484837,0.105761279111249,0.473198198925488,0.3610657832418088,-0.08859431407521834,4.066785338499741,0.04800712136227221,-1.3598915732396675,-0.25480385439462977,-0.5725639698279348,-0.24066081282705004,-0.03280223610190318,0.16787565072197513,0.7228620639338323,-0.9595962606495172,0.006006243401225392,0.11983491226901692,0.06859235870724269,-3.085414366684147,-0.05233617289888025,-1.8669693131288172,0.3583781833928724,-0.017385150045491488,0.2716824529445829,0.3136988587770205,-2.717465507842562,0.06862018368800439,-0.02027064447462333,-0.12852747231604605,-3.0694926732152785,-0.14778820032604842,-1.737118437973883,-0.13570992545986973,0.3953347471213808,0.13926016069671693,0.046129109116534936,-1.4751821650656614,0.16445752343521353,0.2930740632809439,0.3238277200737441,-3.139421911462814,-0.2952304604977664,-1.5301160330113754,-0.28948779097465405,0.2462193704136706,0.4631121070553135,-0.4351295574105804,0.16454207522969072,0.12811489679572652,0.14128033384079053,-2.3143785380926225,0.314593675369498,0.626818480895614,0.3455627637775786,0.5611788179347502,-0.299276623166842,-0.5124472052920056,0.2545694875237085,-1.9547810004587565,0.013914121672284244,0.16328387197082592,0.3136837063400643,-3.0282651170683073,0.36011523744789103,-1.9574256491408364,-0.13180098060962736,0.06300798581928979,0.08905006241693696,0.199077862675834,-1.9751933355338789,-0.09192376839697837,0.03373218343265587,-0.07432536006611638,-2.884964313258409,-0.14622633446346558,-1.9094231499022332,-0.13215010359397408,0.15085697244752155,0.17162660066730615,0.23953208445846305,-2.6112327762145706,0.32767723015256633,-0.6377925762068707,0.537726044901176,-0.8160580380066845,0.46318973794488816,-5.6385644428244195,0.28556910250213713,-1.0716043353912217,0.1624562198691512,0.05696762417852143,0.0816717542317892,0.5905759345115708,0.11871970895119623,0.5804970109893635,-0.5596052597870452,0.5278932804933228,-0.8375328194132952,0.14223596748962108,-1.8426086698263628
biasActivation=0,1,1
[BASIC:ACTIVATION]
"ActivationSigmoid"
"ActivationSigmoid"
"ActivationLinear"
