encog,BasicNetwork,java,3.0.0,1,1547620921947
[BASIC]
[BASIC:PARAMS]
[BASIC:NETWORK]
beginTraining=0
connectionLimit=0
contextTargetOffset=0,0,0
contextTargetSize=0,0,0
endTraining=2
hasContext=f
inputCount=10
layerCounts=1,27,11
layerFeedCounts=1,26,10
layerContextCount=0,0,0
layerIndex=0,1,28
output=0,0,0,0,0,0,0,0,0,0,0,0,0,0,0,0,0,0,0,0,0,0,0,0,0,0,0,1,0,0,0,0,0,0,0,0,0,0,1
outputCount=1
weightIndex=0,27,313
weights=-0.16388939831284258,-0.14809280434783942,1.5774818485119675,-0.04421294215358476,0.11106892755734248,-1.193852438492125,-2.839389602339491,-0.43574608504711065,-0.07582959693045836,-0.11441575268532472,0.3245960906644869,-0.38854231600359346,0.021920477665156035,-0.5744635857862093,-0.07360841394887752,-0.0347918296493289,0.13448315470623873,-0.18396019241955494,-0.6575344195451734,-0.5694664470857594,-0.4358729576599411,0.1767663890757252,-0.7242295490881795,-0.33344307503748527,-0.04369714642475782,-0.013369702808884387,0.16108794017261446,0.4410752756344584,0.6666973764561628,9.888165165832259,0.26787624428081647,-0.012027331606739498,4.195008397792625,23.151781337374544,0.3306822169231915,93.02576677525718,-0.50689623271134,-1.1570580906531287,-0.13738781800494215,0.1741777395291827,-0.0011653843746760144,-0.13538708361426882,6.246673984853134,-0.10544860452639389,-1.2556034234851008,-0.3159378546873565,-1.0019182694236206,-0.10446784809297976,-0.0486877367813082,0.1159688854718518,-0.14308911076974493,-0.1750276672185315,0.09154896991488151,-0.7764248046332956,0.21085626122115594,1.0535457347374073,0.3527133521439112,0.9427574763594218,0.028405675786774928,0.3429454807332308,-0.08100662583348185,0.03443948534215306,0.26974297512026524,0.12229387325369687,1.1708600748520805,-0.11499560392192829,-1.420295944813889,-0.17686776694391906,-2.029114575753014,0.010138876563561805,-0.11718969925443709,0.3691088629262452,-0.11018353490016677,0.47041503778824356,0.038485253844703575,0.4982357911804632,0.11185719530656119,-0.18961168896486047,0.2665700403708699,0.6333535992163807,-0.22289274135090678,1.2970337782032044,0.05883635379468699,0.11246724125686357,-2.378150785762831,-0.0719597795560993,-0.155970958840453,0.08753896897896248,-2.375200566499568,-0.1633848557143365,-1.5371292943021597,-0.10877603782752442,-0.32210757882078034,0.10070842338865947,0.23911279458884857,-1.9086627343515792,0.07119545060701926,-0.09054326390018425,-0.2675359675822843,-3.30890363638249,0.002354822484044709,-1.71028420633175,0.013507012457091266,-0.2731589395243812,0.17327293232759355,0.2924821278999235,-0.5824814001753674,0.2921294943502814,-0.19911191831647074,0.3095471389717888,-3.2591082070132487,-0.3286196764480236,-1.848451114567243,0.019376583407832968,-0.19206647520528436,0.6379167661993076,0.1412030800299707,0.47664731424243856,0.454464032027372,-0.2387301540233977,0.19989318062343056,-1.2413519322600908,-0.3062857815629471,-0.3568066865998518,-0.5507358552498905,-0.010644566533190996,-0.6795284285319422,0.11747535736164919,1.7313431838344604,1.2584721520339412,3.628596665409629,0.4607141837745452,0.5807947658292695,1.6193616732829494,12.212137049718546,0.09815574795604697,0.19593544758190884,-0.11124864158751051,-0.3481043176161458,321.34619361997744,1.3149385019569355,1.3233362296863191,0.44962109842403525,25.52561051713267,26.135262716905004,319.8139845923419,-0.08876489804087884,-0.12909044569978922,-0.0992199381871085,0.16974824211475972,-2.588906614370427,-0.08931295902394361,0.004910095076709135,0.02036617482925114,-2.795585027520728,0.1562820828737718,-1.9240916119568428,-0.20141461769561297,-0.5587315283758207,1.6220746731366582,0.6170532976236378,-2.4578220462730043,0.4241713775460045,0.8509176938550107,0.3986930828371883,-0.48897855904712684,0.21777146641516384,-1.1301948795855723,0.0645431817244501,-0.16610564150528098,-0.1694662230349076,0.03862969049487102,-0.7006027227506486,-0.34803313172329253,-0.030529762241551427,0.4511049338469512,-3.37341496755707,1.2884604748635002,-1.7411103768255538,-0.1396912760462978,0.3972849176722589,-0.9381951215966949,0.36386911410322115,5.585939047639143,0.5778185604964656,10.423938571786444,0.31943055235369644,4.958599886835681,-0.366038591277904,0.04781932784741093,0.18767349972876277,-0.39951488136475644,0.11218022463286084,-0.10714876106402212,-0.2949254596131449,3.499641568731593,-0.5063177357098182,0.34022955825391243,-0.6308919509890792,-0.2888871117952908,0.5386588287018437,0.14149576717424522,-0.4149856209034459,1.6776119577090773,4.59985261990569,-35.24883090133844,0.20806480376977404,-0.06617251866665015,3.6137485512785257,-282.0144819319413,0.9144569010213082,-282.14820129902625,-0.46219522279137465,-0.7833817141429165,-0.022873782438590746,0.4771825721781462,7.2902188184942744,-1.6845675353663478,20.487323577228597,0.1283053050782947,35.34544009955204,-0.27912500004127594,12.193142340128212,-0.24034928051696877,-0.2183875935403819,0.14360352603330764,0.12610860360794796,-0.17571790710949006,0.031085962138969782,-0.2668388754097579,0.05151633120006792,-2.9140619765070963,-0.1997922601186284,-1.5380975171798523,0.1791204993494066,-0.3756105813839193,0.13671959565919015,0.3051104299795729,-2.6392553117572812,0.06841858891776517,-0.019233714844451636,-0.10069946342962625,-2.9153731481203486,-0.1468222645689816,-1.6259594584807955,-0.13558420315776276,-0.5854385508939806,0.14248551125980685,0.05807713542187557,-0.7232521364801258,0.15426995857342307,0.15684273298720183,0.3259430497258313,-3.2391589432563435,-0.29540943529939634,-1.5203564246771477,-0.02144223350092783,-0.11200606092475715,2.6184195944420883,-0.3880665310362814,-276.13752481911496,0.21419076654739228,0.825352016966787,-3.6901389663146116,-283.62168275796506,1.9577058994425316,-98.24342210890804,0.5613412043661775,11.492768056815116,-0.5121640629873276,-0.003052933897678512,-1.876462488688155,-0.015426065129671939,0.0821242461462715,0.31738802530107973,-2.890788249329149,0.3618138262237804,-1.5489380138055802,-0.12233381461286846,0.04706025222074969,0.08695585977776263,0.1947605042130798,-1.901733658512285,0.024708011411602112,-0.004759087188932955,-0.07078718939956559,-2.9254642349152404,-0.14628847849180934,-1.849180114648456,-0.13200217913069553,-0.45899983725005405,1.0113906786353704,1.701242979440281,241.92581709356392,0.4062350942824418,-0.5639673456179851,0.57335913313761,48.33571475209704,0.5514238086466755,-589.7709500032324,0.28572319675268665,-1.0730832920486482,1.6165568684025826,0.3026558430789417,-464.10824258611706,0.5871594526528576,0.1238150149519938,7.869429461849617,-485.28713041675337,4.544886262797366,-1044.9728988808986,0.23295977139786106,-1.6077011519968027
biasActivation=0,1,1
[BASIC:ACTIVATION]
"ActivationSigmoid"
"ActivationSigmoid"
"ActivationLinear"
