encog,BasicNetwork,java,3.0.0,1,1547620927608
[BASIC]
[BASIC:PARAMS]
[BASIC:NETWORK]
beginTraining=0
connectionLimit=0
contextTargetOffset=0,0,0
contextTargetSize=0,0,0
endTraining=2
hasContext=f
inputCount=10
layerCounts=1,27,11
layerFeedCounts=1,26,10
layerContextCount=0,0,0
layerIndex=0,1,28
output=0,0,0,0,0,0,0,0,0,0,0,0,0,0,0,0,0,0,0,0,0,0,0,0,0,0,0,1,0,0,0,0,0,0,0,0,0,0,1
outputCount=1
weightIndex=0,27,313
weights=0.5208465086747623,-0.14811416324959945,1.5805008946063444,-0.04419324423358476,0.11108296259764248,-1.2126011281633855,-2.893385828592722,-0.4357447027065029,-0.07587158439750477,-0.10129500304919191,0.07883026552597974,-0.38865440798355755,0.021750926276762814,-0.5760385871013315,-0.07367771416474322,-0.03480020167919511,-0.347587859561298,0.3872290486570948,-0.6575296442864359,-0.5698220578423047,-0.4358992798437278,-0.26248249141587054,-0.7251471086097457,-0.33371559666232525,0.27967675817670173,-0.16996225760980588,0.17651727721987395,0.4444574378062781,0.6665848421433559,3.823234518346868,0.26786260425905856,-0.080285270750529,4.177717646963174,-16.668289897301804,0.34856430470740285,14.013988624857188,-0.5068145118434669,-1.1570271409387978,-0.12432326053274315,0.17420501111242956,0.05827240533377281,-0.42957498495577406,22.412475524004975,0.021775995807715817,-0.939144449749233,-0.09441238024922852,-0.9606663985924003,-0.11584169824208852,-0.04861728584537585,0.1183365897801758,-0.14303378293290767,-1.2026589720526368,0.09155030929972215,-0.7805966843774338,0.05570176302074146,-0.19465247172207722,0.34780277786544067,-0.3336320143012863,0.029399914015103695,0.36833670819588377,-0.12024440692995483,0.03449283317448316,0.4853896465291527,0.1135588808092567,1.1891175529372577,-0.09239624212428185,-0.5053161171096873,-0.21865515902822358,-1.9102713585589086,-0.011354241012099291,-0.11825263309227134,0.36936340927431777,-0.10993116703133754,0.45748820485236125,-0.04612379603850712,0.4981232624769839,0.09191214788454534,-1.1972517513293457,0.22243455264329087,0.29108513369735783,-0.1647913981570544,1.4269155120393457,0.05822182931729423,0.11267981211121382,-1.9557554799658714,-0.044642918811288894,-0.14349666103396677,0.09751881707481092,-2.2992863023416197,-0.12303041140420923,-1.4959161946201482,-0.12500687200760427,-0.42482959948746996,0.10068942496897097,0.239212868262224,-1.4862674285546198,0.07131778968227966,-0.08929288092721513,-0.14031136724817453,-3.256090482285471,0.00728190575048855,-1.598069209141455,0.008521018785719639,-0.3758809601910708,0.17265840785020078,0.29399304099034956,0.555994134867301,0.29215897984582617,-0.14653038143116195,0.3110566255533698,-3.240865219574403,-0.32855011209569146,-1.807199243736023,0.019042229887630883,-0.1933470226454325,0.6377739503046604,0.14119857699376903,1.3955753472249826,0.456138730310622,-0.23736613869202572,0.21118631073385574,2.1043521895333193,-0.3893640798637412,-0.2733706908626425,-0.5593174019576389,-0.04300817736855746,-1.7593885883381446,0.07959221696038364,4.377855918824187,1.2686513033524185,3.6291441827440405,-0.082097199098622,10.572736138488127,0.9094706658905493,60.053235578887254,0.11776060159359227,0.19609031741008226,-0.07909429117480521,-0.3505259006558484,27.363457768047848,1.2868438767312356,1.3043336102509717,0.4270892196800447,-423.2215847203032,16.93187726210531,13.915758492341912,-0.06970761692734324,-0.12893146976253383,-0.08976739723754443,0.1698204383017786,-2.5746975646678916,-0.0765945909725998,0.28642870069229714,0.08444719788907798,-2.777142540811409,0.14626589143125704,-1.8828785122748313,-0.19767137891322362,-0.5635201490077172,1.7521522317109008,0.6279487238548822,-2.5756775881257155,0.4241376936570827,0.4034090333956711,0.3905319939137252,-0.7902783174925001,0.2166534163878488,-1.1307895180624694,0.06456387137124525,-0.16606931294565808,-0.4261258286958685,-0.01757153305891323,0.18872552519804417,-0.3362469883712933,-0.45962764092424857,0.4670120564400517,-3.320889777558542,3.646996047736773,-1.6998585059943336,-0.13856675169733632,0.3972945767570589,-1.331716064283747,0.36369285092930265,12.962383267424782,0.5754520586925366,26.65344204239896,0.3970241983822265,15.15955064092935,-0.35893144071227,1.0332387380241337,0.1876150858794516,-0.5777873957843197,0.1105577620003721,-0.10733324906364448,-0.13967065253872388,4.407662666905431,-0.25467345242415107,0.3508348870739837,0.5551104484889843,-0.16623345789148922,1.5240782388785663,0.08339442398039283,-0.4567236747831801,2.180032088056147,2.9386197948397186,-55.22720295119089,0.1879100631008302,-0.0707715199043586,-3.700088974856276,-64.14778292394136,-2.2155818665669873,-500.3796624958263,-0.46459275988823,-0.8175216107527399,0.4574761321343302,0.47759957704852046,14.273284852594838,6.0636027579652625,26.591607747656315,0.18601441594159504,146.29543916102256,-0.34468894427497343,60.13409534189639,-0.23951327244870343,-0.777683467564515,0.12881702434060383,0.168226450047028,0.44534450654810614,0.031208301214230176,0.1886137702537405,0.08282961516654017,-2.861248822410077,-0.13863261739511404,-1.4968456463486322,0.07964762429229473,-0.37938530247869773,0.13919975323604072,0.3052611024951842,-2.573332891840253,0.06847420854517314,0.008748277634069865,-0.08075441600761041,-2.8969306614110297,-0.1465550046052311,-1.3027802665727457,-0.1356249215762972,-0.6523819449707474,0.14103803455278494,0.058289706276225824,-0.10218972282252967,0.15490800142201885,0.21673518072399653,0.3266437432042848,-3.220915955817498,-0.2951660207480311,-1.5153777931208812,-0.06078979956528969,-0.13654047416896792,2.901304747911799,-0.38995374687901685,-453.053241537195,0.1023097071983341,0.7163573506877254,-4.688690756410026,-404.05791025573603,-0.602609836440807,-242.5966604733644,0.5593860370355259,0.49353205212860907,-0.5121757220721276,0.006172376759864842,-1.8255371287107052,-0.014515867282815774,0.5182565456877769,0.3411057309666395,-2.8724503486010176,0.36855538242365765,-1.4300947966114748,-0.12124958760891118,0.0460943393894517,0.08680959900456992,0.19479432996405494,-1.8508082985348353,0.03572823774191702,0.031048887011119537,-0.056018935251222875,-2.919060593696727,-0.1460829108180346,-1.730486387564263,-0.1320364854139661,-0.474125777289415,1.0368837494667857,1.7701731119715127,355.8686877495639,0.6684375676419331,-0.5605675732631954,0.5819596430827743,57.6120717823244,0.6893783854387221,-471.1567588032324,0.2860163745997397,-1.0726280234619023,1.3752907249695228,0.283945126949776,-235.92550673418745,0.5821640114704291,0.12993587736959544,135.6759663192896,383.44100859124654,-108.3568776138082,-629.3870900808985,-0.4215955814549667,-1.6836176595447845
biasActivation=0,1,1
[BASIC:ACTIVATION]
"ActivationSigmoid"
"ActivationSigmoid"
"ActivationLinear"
