encog,BasicNetwork,java,3.0.0,1,1547620931869
[BASIC]
[BASIC:PARAMS]
[BASIC:NETWORK]
beginTraining=0
connectionLimit=0
contextTargetOffset=0,0,0
contextTargetSize=0,0,0
endTraining=2
hasContext=f
inputCount=10
layerCounts=1,27,11
layerFeedCounts=1,26,10
layerContextCount=0,0,0
layerIndex=0,1,28
output=0,0,0,0,0,0,0,0,0,0,0,0,0,0,0,0,0,0,0,0,0,0,0,0,0,0,0,1,0,0,0,0,0,0,0,0,0,0,1
outputCount=1
weightIndex=0,27,313
weights=0.396779612025002,-0.1484904402500685,1.5806290997752102,-0.04418607623358476,0.11109626602676252,-1.2019899802191492,-2.8642163267345286,-0.435740502706503,-0.07586201639750474,-0.08797960610246733,-0.4578005969835031,-0.38836544767610015,0.021799155734065247,-0.5760588382771652,-0.07371594337438162,-0.03479820167919511,-0.08155226263754337,0.6149844026258945,-0.6575254442864358,-0.5693980644762855,-0.4358950798437279,-0.3377827170517749,-0.7250188411244728,-0.33356295956493043,0.28933318182169915,-0.07758878645572441,0.17685957069706823,0.43017191821144884,0.6664605046846345,3.730148889089159,0.26790647020241304,-0.3736160734829333,4.178465350576959,-16.610876269981564,0.35074165066850216,13.999219748792225,-0.5067565177617808,-1.1570394085796296,-0.13648393440100418,0.1742927150912727,0.06055709021676476,-0.4341167606474112,22.0163465985603,0.1258249829890349,-0.9392990646136158,-0.11791100908235783,-0.9602557276021096,-0.1145530321702612,-0.04862383170259319,0.1195392862795246,-0.14304277934378767,-1.2164501345544523,0.09465874471169086,-0.7815490888318217,0.05432001700684634,-0.2768597135711056,0.347867081142625,-0.35733973733154534,0.029635910889098272,0.3693225134102034,-0.12411698812479732,0.034504513413360416,0.49017824462006077,-0.17710577636445404,1.233181134932159,-0.09244925138892333,-0.4023029639261114,-0.249203266550169,-1.907998196014466,-0.011561708772538556,-0.11829095951541128,0.3851367114945676,-0.10991030732263893,0.45746403656092693,-0.007145261337027076,0.49812770161938397,0.09143373871875209,-1.575855105875853,0.2229177811804952,0.2812750776471831,0.6332294807926311,1.427978896991984,0.058500920162403394,0.11272931775719293,-1.9523628727565479,-0.03910368151085254,-0.14346237777355425,0.09748243518268501,-2.2960153370734835,-0.1270785606087761,-1.4956636974123354,-0.12530062545313816,-0.45023160312282323,0.10073906738861214,0.23925353368875843,-1.4828748213452962,0.07139830527968714,-0.08896218493610829,-0.1380225224678024,-3.2560714601796925,0.0032337565459216733,-1.5973427141647976,0.008649704795092517,-0.4842257492421122,0.17284016132020338,0.2942238826798256,1.0086714661865979,0.2921762760892034,-0.09064537871957647,0.31108304644549056,-3.2409348963715465,-0.32852785692515707,-1.8068443312984617,0.01905904100171728,-0.19347522781429805,0.6377939412166608,0.14120270044209804,1.4501516072702303,0.46011434075793384,-0.23744939366691137,0.21166608365534711,2.3534699724692554,-0.40594087118431804,-0.2658882171489749,-0.5593288516875009,-0.04607072603215615,-2.3373034187495425,0.07900036942630531,4.427604676164406,1.256406434139659,3.6291875054673763,-0.16429914545255914,10.954065175893588,-0.9453552856233514,81.04858309708075,0.17787069539266628,0.1960667671419849,-0.0691694548000915,-0.35051646229873673,50.91733735716144,1.2860974743337208,1.3043201164249671,0.41851784146098675,-341.30281708519834,16.750914844713844,20.02755721524654,-0.06957577361337178,-0.12894146164814085,-0.06627564057571882,0.16989303487563173,-2.574346172522796,-0.075366579212781,0.2865270604095183,0.08391499742482922,-2.7771235187056305,0.14096630925747217,-1.8827925785777777,-0.1975396886198886,-0.5680557053373493,1.9721678261607356,0.6254984516147437,-2.576654626183549,0.4248348372902147,0.24176313629735297,0.3899008550246198,-0.8041148165778098,0.21630683621573335,-1.1308015009870964,0.06450096801457006,-0.16605635745064365,-1.459479349471148,-0.10490136059215023,0.1921904559391834,-0.18356040640854537,-0.8631857779355384,0.46692254674486633,-3.320971472137966,2.696682289273433,-1.6995035935567724,-0.09494009085817859,0.3973132758418588,-1.9057546509534518,0.3636098077020242,13.668764286412094,0.5541144588091215,26.09297559603214,0.4010036269022445,15.237687040571045,-0.37699121905201144,1.0513173701604601,0.20905004140685804,-0.5808499444479184,0.1106680718304798,-0.10800653873081903,-0.11046712091115964,4.480820437375249,-0.2552196306127646,0.35041931056503867,1.3845893942681797,-0.45533493666500024,1.5338882949287407,0.03240873618418258,-0.4597862234467789,2.149564263010366,2.5771722714425045,-50.03957723793386,0.23853461049324784,-0.07090308791702599,-5.182222556970909,822.9907770760586,-2.94884285512486,-437.59432806623914,-0.4646490605104741,-0.817602012706662,-1.6250937156217908,0.47817342346740244,10.469085446204286,0.856985370818745,4.112842824142089,0.18470949999623865,-18.05384084521748,-0.33296156263278737,39.1387478237029,-0.2396165761739061,-0.7522814639291621,0.1277897982585334,0.1826104132620111,0.6025241354784175,0.031288816811637685,0.2374306467451734,0.08290570733584782,-2.8613184992072207,-0.1474220030519033,-1.4965324131852231,0.07957264923903966,-0.3804486874313361,0.14735661318806353,0.30533369906903746,-2.5728971569937564,0.06850216534982854,0.008849795653022026,-0.07995967823664786,-2.896893814952249,-0.14647530554237712,-1.300687961039972,-0.13563689264810594,-0.7607267340217888,0.14114143921838335,0.058362302850079005,0.10416167136968163,0.15557582999315556,0.21673404063197912,0.32670371825071115,-3.2209355822529333,-0.2951599475580736,-1.5152375533123013,-0.0599992233467382,-0.13960302283256656,2.900683604266249,-0.3899572189417995,-426.1014917928788,-3.925432978156167,0.7118271303200902,-4.710536142247193,-360.7942648387139,-1.4353431866061352,-189.35525110004988,0.5550279324271911,-4.172320529358993,-0.5121657163393659,0.007450035896512191,-1.8252816906263927,-0.019215246948792824,0.6733251648095995,0.43084653626318375,-2.8724577082249936,0.3837318892200993,-1.428002491078701,-0.12097855688945496,0.04596613422058614,0.0868790748429956,0.1948325564095898,-1.8503992747104088,0.04126747504235337,0.03108073027153208,-0.055985665742287014,-2.919050836906179,-0.14606433344130662,-1.7297598925876057,-0.1319793529207531,-0.48718817951875537,1.035017859522172,1.5956555273107613,264.53276130280926,-0.5945871278537669,-0.5609201845254264,0.6277714152862853,54.82711255922661,0.7689747005778694,-528.4058230750747,0.2853581023897151,-1.0726862038273184,1.2657708587998706,0.27436462758056046,-208.98333261513915,0.5776744531749207,0.12991090758882393,134.41239329967038,1005.7056006732053,-448.6568634323301,-481.4942862661357,-1.020241748240685,-1.6846810444974227
biasActivation=0,1,1
[BASIC:ACTIVATION]
"ActivationSigmoid"
"ActivationSigmoid"
"ActivationLinear"
