encog,BasicNetwork,java,3.0.0,1,1547620926207
[BASIC]
[BASIC:PARAMS]
[BASIC:NETWORK]
beginTraining=0
connectionLimit=0
contextTargetOffset=0,0,0
contextTargetSize=0,0,0
endTraining=2
hasContext=f
inputCount=10
layerCounts=1,27,11
layerFeedCounts=1,26,10
layerContextCount=0,0,0
layerIndex=0,1,28
output=0,0,0,0,0,0,0,0,0,0,0,0,0,0,0,0,0,0,0,0,0,0,0,0,0,0,0,1,0,0,0,0,0,0,0,0,0,0,1
outputCount=1
weightIndex=0,27,313
weights=0.5339386995814968,-0.14809480434783942,1.580280034807921,-0.04419693255358476,0.11108320259764248,-1.2195482542030054,-2.913393551586827,-0.43575522212906925,-0.07586534279750476,-0.10616367313686396,0.18742213378279807,-0.3891098081701078,0.02169602174038282,-0.5760144232572207,-0.07363285756205369,-0.03478848577519512,-0.37738277264769904,0.027348222764389425,-0.6575401637090024,-0.5701128801491062,-0.4359126371454878,-0.13752387131423677,-0.7253052336745202,-0.33381657662996467,0.2927689490834362,-0.15885496681893355,0.1765260471271982,0.43922638917617696,0.6663658586930887,3.9223529255358636,0.2678698941790585,-0.036896860993017255,4.178107069539139,-16.62229379458125,0.3492177917722851,14.214534775257187,-0.5068791053513397,-1.157015425034798,-0.11053463580908264,0.17421649425580238,0.05645606900387654,-0.49819346870690184,10.995459974800585,0.016544947177614573,-1.0185669281575174,-0.21937100035086232,-0.9606649854194422,-0.1164189210572334,-0.048617413320385335,0.11652025345027954,-0.1430895917237099,-1.0777003519510027,0.09158015550801382,-0.7787803480475376,0.06048947993867913,0.4641093331875976,0.3484334502022102,-0.3328255773701092,0.02876924167833416,0.3683619655289776,-0.1150133582998536,0.034632016916560926,0.442001236771641,0.10013071956767111,1.174052132882566,-0.09289649762828721,-1.164077922019362,-0.34361377912985736,-1.9103051178209802,-0.010042688474834593,-0.11825369042099002,0.3692026799568073,-0.1103320162085215,0.45768862944095323,-0.04146124005184546,0.49812790247698385,0.0937284842144416,-0.5384899464196711,0.2276656012733921,0.2911823603721236,-0.20817980791456614,1.4250836125273034,0.058412130890426996,0.11273587115726091,-1.9574178816734888,-0.047515442732679956,-0.14357519490199463,0.0971696973817704,-2.3178799379763326,-0.13681903612786972,-1.4958760102979813,-0.123190535677708,-0.3672073572644485,0.10069251200897099,0.23921613271022402,-1.4879298302622372,0.07127603610375362,-0.08992355326398467,-0.14554241587827577,-3.256413711406521,-0.006506718973171951,-1.5979534782936142,0.008679143850494028,-0.31825871796804933,0.17284870942333355,0.29468784030146816,0.19611330897459564,0.29215168992582624,-0.1899187911886737,0.31098058963313824,-3.2408825386188154,-0.32858240884962786,-1.8071978305630647,0.019025730802830883,-0.19289162245888225,0.6377793183046605,0.1412546360398161,1.352186937467471,0.45514132617125,-0.23731007964597864,0.20952390902623852,1.1396954883976875,-0.5037324487716709,-0.27346791753740823,-0.559116977369047,-0.03606105132893778,-1.7143965209154022,0.08916765079625899,4.252897298722553,1.2740288403585598,3.6292002417900875,0.3620651889580321,5.108702223845321,1.5682324708002242,59.76777456618295,0.10269518153890068,0.19608701672903087,-0.09415971122949679,-0.35053637563212375,30.82747361997745,1.287039061801997,1.3046076474643642,0.4421546397347363,-308.29385239132375,16.943661323433577,14.16710959234191,-0.08477303698203482,-0.12898637429891383,-0.09671452327716411,0.16987649734782567,-2.5748979892564834,-0.10042045338618583,0.28620252315237693,0.07610747134904682,-2.7773593591262946,0.13247726670759655,-1.8828383279526644,-0.19768787799802362,-0.5611079524661826,1.737086811656209,0.6240920256636071,-2.5740151864180985,0.4242579439632377,0.7632898592883764,0.3919727297652607,-0.6360552660839397,0.21728408872461838,-1.1307952225104692,0.06458037045604527,-0.16608550812661166,-0.3011672085942347,0.02581687669859851,0.17493690047438368,-0.34613633226160817,-0.09974681503154326,0.46643483362490684,-3.3209250425811008,2.610539269165782,-1.6998570928213754,-0.14038308802723257,0.397278077672259,-1.2883276545262354,0.36385358024681314,12.848014898516851,0.5769934343893869,31.608800096835434,0.38195877832753494,14.803228032373756,-0.3630807599646921,1.033272495718871,0.1875390499592199,-0.5669088544192314,0.11062383893548763,-0.10717251974613412,-0.18305906229623561,4.286362497216168,-0.2572575004584735,0.35066118724620404,-0.10365135642069057,-0.291192077993123,1.5241119965733037,0.12678283373790458,-0.4458451334180918,2.223420497813659,4.096519061288175,-56.17581995026083,0.1744819018592446,-0.06999314853520891,-4.522216691444681,-277.9759219319413,-1.8218552272790376,-502.1170012990263,-0.46381438851908025,-0.8151094142112053,0.34117396426979124,0.47738059359825324,14.633165678487542,-4.124877101719555,20.253449642094306,0.18984616137349894,276.81958191766876,-0.3622125366501848,60.419556354600694,-0.23949677336390343,-0.7555194504742477,0.13063336067050008,0.17933374083790032,0.3203858864464723,0.031166547635704134,-0.17126705563896488,0.08262919057794818,-2.861572051531127,-0.18202102715262578,-1.496844233175674,0.07999351975470133,-0.3756080311713754,0.13922501056913456,0.3053171615412313,-2.5735333164288448,0.06845971077485159,0.00852210009414965,-0.08257075233750667,-2.8971474797259154,-0.1466310405254628,-1.3024469617309646,-0.13559377115776278,-0.6089935352132355,0.1412283361259177,0.058345765322272924,-0.22714834292416344,0.15456168054029248,0.21669762028743667,0.3265677072840532,-3.22093327486191,-0.29519242210922264,-1.5153827937931563,-0.062452201272906946,-0.12566193280387958,2.9179020249214878,-0.389941363994088,-454.256024819115,0.06363660282256758,0.7274646414785978,-4.809990926099289,-438.64234938196506,-0.8880708491451146,-243.3205516413644,0.5612023733654221,8.838628482220962,-0.5121592229873275,0.010029074951139954,-1.8257375532992972,-0.015078000286608896,0.1583757197950716,0.3260403109119479,-2.8725625809347157,0.3633243337935565,-1.4301285558735464,-0.1212660866937112,0.04654973957600193,0.08682261990192126,0.19480581310742776,-1.8510087231234273,0.032855713820525954,0.030940712953827103,-0.056079247691424146,-2.91913587783384,-0.14610931217922613,-1.7303706567164223,-0.1320199863291661,-0.46717865124979546,1.0292145608457768,1.758806499090299,362.55081709356386,0.9892077645762909,-0.5605277656220969,0.5834003789343096,92.19651090855338,0.713396797874012,-469.14595000323243,0.2857973911494725,-1.0726536518626477,1.500249345071157,0.2990105470044676,-239.38952258611704,0.5840312118197837,0.12999193641564252,130.91706458860773,169.6128695832466,-65.89066771120333,-631.3978988808985,-0.291977250828103,-1.6836429168778781
biasActivation=0,1,1
[BASIC:ACTIVATION]
"ActivationSigmoid"
"ActivationSigmoid"
"ActivationLinear"
