encog,BasicNetwork,java,3.0.0,1,1547620923371
[BASIC]
[BASIC:PARAMS]
[BASIC:NETWORK]
beginTraining=0
connectionLimit=0
contextTargetOffset=0,0,0
contextTargetSize=0,0,0
endTraining=2
hasContext=f
inputCount=10
layerCounts=1,27,11
layerFeedCounts=1,26,10
layerContextCount=0,0,0
layerIndex=0,1,28
output=0,0,0,0,0,0,0,0,0,0,0,0,0,0,0,0,0,0,0,0,0,0,0,0,0,0,0,1,0,0,0,0,0,0,0,0,0,0,1
outputCount=1
weightIndex=0,27,313
weights=0.3778744729687782,-0.14809700434783943,1.564608214883278,-0.04421294215358476,0.11100395369162024,-1.2259757705849263,-2.931904798766759,-0.4357656317347629,-0.07587218279750478,-0.11430288913833064,0.41337868550679285,-0.38945781934586343,0.021602594560201173,-0.5758083406514731,-0.07364222956079049,-0.03479268577519512,-0.04691061774694834,-0.17138524138715183,-0.6575539662328257,-0.5703819504280294,-0.43592925212037964,-0.00462738337746187,-0.7255743039534434,-0.33391000381014635,0.05176495376574836,-0.1835619675294231,0.16085422720255557,0.4433896367362453,0.6666973764561628,9.91457806318531,0.2678701703194366,-0.029476971436128433,4.18358573999914,0.6353146018491529,0.32425857910956535,52.02576677525718,-0.50689306471134,-1.15709467394082,-0.14405317797808825,0.17421002367220076,0.04175583087462197,-0.22835360489603823,6.350975658696298,-0.06923274555307296,-1.0283306452647545,0.05479991830346709,-0.9620199697849832,-0.10897759320673359,-0.04840112056062575,0.1167724830766389,-0.14310229210954503,-0.7997192811420468,0.0915360269053243,-0.7769512203404962,0.174640402247835,0.6131486579273921,0.3502395220613782,-0.3255861048534212,0.02847122719797026,0.3232271241460069,-0.11312995792628318,0.03453246367404503,0.3933560750382434,0.1232954249752496,1.1710428580837475,-0.10242065288952518,-1.3413817857096022,-0.04813937354432753,-1.9142074727937384,0.005629131449807995,-0.11636424453887165,0.3691651573866837,-0.11045131249601563,0.4613348312972631,-0.02060928251659461,0.49820983249835127,0.10749089286475455,-0.3045187919241363,0.24605110413430797,0.3024211426936663,-0.22132685763085339,1.2950952693443476,0.05803275618989989,0.11273501885271242,-2.0221450579990536,-0.04705853985704057,-0.1488463282027579,0.09466359961665757,-2.2962864073952813,-0.03465646231474494,-1.4972309946635223,-0.11654071932401928,-0.32523893082076744,0.10067478298717092,0.23920577292074055,-1.552657006587802,0.0713211283955279,-0.09024501085203934,-0.23132010860896335,-3.2299894772782034,0.04705218130334733,-1.5953771033724744,0.011262938243028688,-0.2762902915243683,0.17246933472280646,0.2974001452412206,-0.10705972300726224,0.2921500046952679,-0.19858550260926994,0.3104061077504461,-3.2317074573242603,-0.3285924786059941,-1.8085528149286056,0.01926371986083888,-0.19206647520528436,0.6377546381532447,0.14129605836186268,1.101338928165954,0.4553230008060293,-0.2378711852447404,0.20701781126112567,-0.8009548554500758,-0.2615884227436444,-0.3037109742143851,-0.5534319252139512,0.009073790054032867,-0.9459721942424735,0.09201738524199396,3.5304550319341836,1.2710471030663442,3.6287794486412968,0.5198087201358433,3.325680933211271,1.789553938003488,42.51016616975254,0.09950050282131086,0.1960975756279717,-0.10009470683306562,-0.35071600983170387,93.84619361997744,1.2878141898439939,1.307816313429617,0.44714726834150226,-163.3145190153237,17.279126250135157,19.81398459234191,-0.08775148767411656,-0.12904802206461727,-0.10153429928889535,0.16995412137186963,-2.5740034146310875,-0.020409133765548558,0.2263779313121228,0.07946071119054933,-2.7681842778317396,0.16167094268512677,-1.8841933123182053,-0.19754172368365294,-0.5587315283758207,1.7145898695639261,0.6193676587254247,-2.581435146190982,0.4241424654898363,0.8383427428226077,0.39156845219949316,-0.5678927181514138,0.21590033453622115,-1.1307748214181228,0.06458237045604527,-0.16610285314493867,-0.2619814194621754,0.036315329393084184,-0.07591110882713337,-0.34799147068419384,-0.012668449002401324,0.45547123628875785,-3.294500808452783,1.778614197258652,-1.7012120771869164,-0.14079622275288006,0.3972849176722589,-1.204638887307226,0.36388061252892506,10.767381170166347,0.5779820837366488,31.089809703050612,0.3320055033860996,12.863872048895843,-0.35051867502120165,1.000904802632828,0.18760689173381542,-0.436920511236276,0.11021587493227017,-0.10714656106402211,-0.21961059489435697,3.6161643549483595,-0.4020160618666539,0.3473541888916076,-0.2999594944663649,0.0818506611955328,1.4917443034872606,0.13992988345419183,-0.41475190793338695,2.2857487370829697,4.818781860480291,-73.43342834669124,0.19855065457220858,-0.06802518008131316,-4.2915236107816375,-607.0144819319413,0.47405982421129306,-607.1482012990263,-0.4617573055009573,-0.7994375942865627,0.017585518331119813,0.4774203911275583,12.47166094102148,-2.3323966037665262,24.552854612262944,0.1873998414395929,122.60376396524993,-0.2636050837845736,42.4911714601622,-0.23964686893388784,-0.3261158075703583,0.13244959127886274,0.17916486899419087,0.18028782065428714,0.03121163992747842,-0.246319939173196,0.07203526743662979,-2.8351478174028095,-0.07106386671903688,-1.4981992175412149,0.141714869477887,-0.3687639297911332,0.13440523455740333,0.30531630923668285,-2.5771378597853225,0.06847536782060658,-0.0066587638120485385,-0.09633316098781962,-2.8879723984313603,-0.1467187044828202,-1.2950270019580812,-0.13558957115776277,-0.5946959953011279,0.14114075639454296,0.05834491301772443,-0.3672464087163486,0.15475990706913798,0.20154009180650448,0.3261258329574982,-3.211758193567355,-0.29518384551846666,-1.5155461551412397,-0.04380451621083297,-0.1051594093319711,3.0150599161003937,-0.3897251912159153,-476.137524819115,0.15687237375609875,0.7210503431236228,-6.181684000465866,-583.6216827579651,1.407844202345216,-287.0835516413644,0.5617011379729929,25.622934449102054,-0.5121660629873277,0.015369380472544717,-1.833541273438857,-0.014424513408119193,0.08649054858807814,0.3189041025378181,-2.8633874996401607,0.3621120792719253,-1.4340309108463045,-0.1212680866937112,0.04715977174181999,0.08667683283165599,0.19480722699292502,-1.8588124432629871,0.0359579314355077,0.015759849047628918,-0.06642088695775895,-2.915950085717675,-0.14618491840564796,-1.7342730116891805,-0.13201578632916608,-0.46221422766920245,1.0161897378160356,1.724371778547098,486.92581709356386,0.4292535405089335,-0.5515167257684557,0.5888790493943125,237.17584428455336,0.5744422548731671,-344.77095000323243,0.2856939138993461,-1.0728814496397168,1.5240416719753147,0.3026558430789418,-302.40824258611707,0.5919363939702033,0.1309396455896889,104.98631443877754,-196.08713041675338,13.401022729567217,-755.7728988808985,0.12523155736788458,-1.6451067818683223
biasActivation=0,1,1
[BASIC:ACTIVATION]
"ActivationSigmoid"
"ActivationSigmoid"
"ActivationLinear"
