encog,BasicNetwork,java,3.0.0,1,1547620929020
[BASIC]
[BASIC:PARAMS]
[BASIC:NETWORK]
beginTraining=0
connectionLimit=0
contextTargetOffset=0,0,0
contextTargetSize=0,0,0
endTraining=2
hasContext=f
inputCount=10
layerCounts=1,27,11
layerFeedCounts=1,26,10
layerContextCount=0,0,0
layerIndex=0,1,28
output=0,0,0,0,0,0,0,0,0,0,0,0,0,0,0,0,0,0,0,0,0,0,0,0,0,0,0,1,0,0,0,0,0,0,0,0,0,0,1
outputCount=1
weightIndex=0,27,313
weights=0.4733609141598078,-0.14818234717944445,1.5805666727803531,-0.04418880423358476,0.11108740259764249,-1.2038335203540047,-2.868135118101705,-0.435740502706503,-0.07586738439750476,-0.10057631394418323,-0.08940613953492839,-0.3882873762190964,0.02179517682706918,-0.5760385871013315,-0.07371434863826502,-0.03479820167919511,-0.27486581334717014,0.36863043252983296,-0.6575254442864358,-0.5694550260778437,-0.4358950798437279,-0.2782595226178426,-0.7250196670248634,-0.33358815507744294,0.28569937287667435,-0.1447115471187893,0.17670671836101887,0.4423662521465654,0.6665198648682367,3.7211805734434313,0.2678431700419142,-0.1934378470997659,4.1782477833047,-16.642598406158417,0.34999331806310235,13.986234650073188,-0.506706248551705,-1.1570209094948298,-0.13817958647731027,0.17420988713942998,0.060717806013411674,-0.32752104005233756,23.813670586961262,0.03826404945874172,-0.939144449749233,-0.12080264418514686,-0.9605029283227098,-0.11582101415772582,-0.04862110370259319,0.11981999514738122,-0.14303158293290766,-1.3047129169560732,0.09145306551746252,-0.7811422748639314,0.05484915152463743,-0.2933682034744668,0.347865456908964,-0.3660212886316298,0.029589355156248647,0.3688822986823812,-0.12505563121626287,0.034493739989348945,0.520825044065068,0.1115144901917921,1.198517335654273,-0.09245892116780519,-0.4066003853572977,-0.2450454229641419,-1.9089154707539862,-0.011543682153244247,-0.11827547273602435,0.3697494513622716,-0.10992398505760048,0.4573093606481746,-0.06541341161693982,0.498119062476984,0.0916161022261759,-1.5467912814995457,0.2229544377018909,0.2871801768191818,-0.05163882180781745,1.427461102525843,0.058309371048081836,0.1126948168745264,-1.9533100792862323,-0.03652213119641593,-0.14347382139021375,0.09743545394692488,-2.2972949346131584,-0.1298579579017916,-1.4957527243504574,-0.12805118027475035,-0.43786259519333925,0.10069382080897099,0.239217015270224,-1.4838220278749807,0.07143582941063348,-0.08910343978607015,-0.1394587557520705,-3.256068718728692,0.0004543592529061875,-1.597598414764746,0.00841614165650572,-0.4486030064051987,0.1727459495809884,0.29408058272113713,1.0405149814427161,0.2921784140629705,-0.11945900720615767,0.31106901868986897,-3.240892867996935,-0.328541797439715,-1.807035773466332,0.019036952154869283,-0.19341280081944118,0.6377781503046606,0.14119192701808655,1.4539907656489093,0.45895844823245285,-0.2373537455555266,0.2114823563922252,2.401014423390935,-0.40178302759829104,-0.26946573398446644,-0.5593060849081138,-0.044579477969670156,-1.6895245559626613,0.07875499406201417,4.479909863727623,1.2725298288891151,3.6291916239123765,-0.11786376857412545,10.67063467566114,0.16388705352043192,62.28152279629051,0.1275796196218627,0.19608649955286492,-0.0706712548641036,-0.3505249420833208,27.12195270486621,1.2868858716903961,1.3043553738077507,0.4248277446296174,-450.2376121670815,16.92570159856771,14.289858369689238,-0.06387186139467284,-0.12893609364814085,-0.0881960966364317,0.1698432779455316,-2.5744027391615694,-0.009237530179797504,0.2864944788663058,0.08294992892030992,-2.77712077725463,0.13943834493367466,-1.8827150420051404,-0.1976745536844236,-0.5665644572748633,1.7724353631080974,0.626916440082526,-2.5771609934929205,0.42379773923942365,0.29530815381290954,0.39023594825535574,-0.80269726522705,0.21649105259350598,-1.1308360253881378,0.06456167137124524,-0.16606522087976366,-0.8199903438407078,-0.12178246703927428,0.20102948267579257,-0.3104565815357679,-0.5172261244075994,0.46692869331216574,-3.3209272437633546,3.1772808441288807,-1.6996950357246428,-0.13420424783008683,0.3972945767570589,-1.3901314827076736,0.363588094204261,13.262510757288222,0.5750786199598186,26.858020318867172,0.39947971949100614,15.207120178331769,-0.3707842490897837,1.0371436949023094,0.18808588025616077,-0.5793586963854324,0.11058815843467334,-0.10771929115159824,-0.08125523411479744,4.445197694538335,-0.25437740676578163,0.35068345729056655,1.0025485158321976,-0.30460477744035197,1.527983195756742,0.0703614282745236,-0.4582949753842928,2.144596690520232,2.6429464350949616,-51.960333116773526,0.2552671238936325,-0.0706687262729803,-4.008901175313882,211.05221707605864,-2.4987202359295626,-486.8181263308885,-0.4646228458291212,-0.8180672012392375,-0.8050117565092969,0.4781255347871452,12.044997635191582,3.8503980682811303,21.227805706268164,0.18516180444549102,57.64204465423094,-0.33786139777739105,57.905808124493134,-0.23955656963789446,-0.7646504718586459,0.12733361897339845,0.1727517957782326,0.6135809116090143,0.031326340942584005,0.2967146498365021,0.08286530739965763,-2.861276470832609,-0.1477959034839746,-1.4966821760789413,0.07945818315114975,-0.37993089296519517,0.13974534372253822,0.3052839421389372,-2.5730380663339307,0.06851519456196267,0.008814055808078529,-0.08045837034924097,-2.8969017158805137,-0.14653542949499493,-1.3014243787678232,-0.1356771318828954,-0.7251039911848751,0.14104722747916837,0.05831254591997883,0.06604668223837847,0.15588707014487682,0.21674311115585523,0.326663318314521,-3.220922920155667,-0.29516775657644173,-1.5153131996130078,-0.0607302294023251,-0.1381117747700806,2.9005873065309307,-0.3899599370217995,-449.89687644517403,0.22831294702256777,0.7188128717965051,-4.705207956896977,-398.6188464643677,-0.9051217642692804,-236.9460204046403,0.5563417287683798,-2.0887679224318134,-0.5121684443393659,0.007204660532221044,-1.8252423032043827,-0.012190248120678345,0.6263574252705385,0.36449359929747366,-2.872452766773993,0.3718191958670658,-1.4287389088065523,-0.12124738760891117,0.046028561215443034,0.08681752943642859,0.19479720599105535,-1.8505134730285129,0.04384902535678998,0.03107172665487255,-0.05600654211472376,-2.919053036906179,-0.1460761139047581,-1.730015593187554,-0.13206135005149705,-0.48289338509879576,1.0353315806358294,1.769540665559105,310.66356719977136,-0.6586314918144685,-0.560863618921565,0.5707133672736271,56.897089687378745,0.6864047373978384,-486.8529812163548,0.28638340636420084,-1.072583772911596,1.2732367800660864,0.2723293861589839,-226.83517526916722,0.5820284254471463,0.12994827050609456,134.5396312987214,513.7530085912465,-161.58591744237333,-613.6908676677759,-0.7474750013407689,-1.6841632500312818
biasActivation=0,1,1
[BASIC:ACTIVATION]
"ActivationSigmoid"
"ActivationSigmoid"
"ActivationLinear"
