encog,BasicNetwork,java,3.0.0,1,1547620920501
[BASIC]
[BASIC:PARAMS]
[BASIC:NETWORK]
beginTraining=0
connectionLimit=0
contextTargetOffset=0,0,0
contextTargetSize=0,0,0
endTraining=2
hasContext=f
inputCount=10
layerCounts=1,27,11
layerFeedCounts=1,26,10
layerContextCount=0,0,0
layerIndex=0,1,28
output=0,0,0,0,0,0,0,0,0,0,0,0,0,0,0,0,0,0,0,0,0,0,0,0,0,0,0,1,0,0,0,0,0,0,0,0,0,0,1
outputCount=1
weightIndex=0,27,313
weights=0.13278712270724816,-0.14810273426783943,1.5063552619187819,-0.04421958749118476,0.11070994815650817,-1.2177793091507085,-2.908298989836212,-0.4357606442798176,-0.07618857633129267,-0.11512093490626209,-0.07780234237241224,-0.3888901050909135,0.021472270733367348,-0.5754652183576908,-0.07423929064711536,-0.03480685733370506,0.27420483284405095,-0.1859911172158545,-0.6575489787778804,-0.5694762531012825,-0.43591488825013697,0.34625266385346765,-0.725231181659661,-0.3337908641248053,-0.02428183145477822,0.04547969815560949,0.13639120871664726,0.44855443790987665,0.6933381114194591,-5.313848846847167,0.26754817537912556,-0.002777076411150479,4.182483188211839,-20.630019019142196,0.33964380458117177,-33.06581825151101,-0.5068941411652733,-1.1568596820720924,-0.06897130370582383,0.17418233449365547,-0.04967985595030525,0.03705643034909005,6.2215718940348745,-0.111218008138128,-1.3953251016229131,-0.06017734105967143,-1.0327535936939338,-0.10354266229559687,-0.0457102180390282,0.12141275764646152,-0.14319050569128403,0.22737076581836763,0.09155899640006153,-0.7765936375223046,0.21662566483289003,1.1749670344654481,0.3517334896479213,1.6793477556071545,0.028321814606383337,0.1381009113448562,-0.04467745524148301,0.034537214607783834,0.13002129698245302,0.12480042637513715,1.1709304879920381,-0.11699886906489151,-1.4646988117631399,-0.08806203304541728,-2.117920309651516,0.015908280175295917,-0.10861444527667069,0.3691155869464622,-0.11102454493738055,0.47626410120158624,0.08188772307273438,0.49823543527874553,0.11325361517887932,-0.14109721738923126,0.26462876493563725,0.773075277354193,-0.2281254850367708,1.0921892088148297,0.05339248162007727,0.11371383098023366,-2.7805492187997305,-0.05116942534562488,-0.15225335126542489,0.08942407740311716,-2.4237150380751973,-0.07457912181583475,-1.567964618572473,-0.1531789047767753,-0.2974108473648131,0.10048053066658656,0.2395456382427965,-2.3110611673884787,0.0713003805531208,-0.09038763649331316,-0.27330537119401843,-3.351063809899171,0.03319014675435782,-1.7990899402302518,0.01337882176173996,-0.24846220806841396,0.16214457986589637,0.3409965994755528,-0.9848798332122665,0.29216592835934446,-0.19895629090959968,0.30977441381073495,-3.2759535096436756,-0.3286009134986998,-1.8792864388375563,0.018989346939235475,-0.1386190359174148,0.6378376367819211,0.14130080929560143,0.07424888120553938,0.4540991605245299,-0.238281947091609,0.19788991548046736,-1.381073610397903,-0.275450457292634,-0.3876420108701649,-0.5661535173850472,0.1942000028551836,-0.3112332889080758,0.1659898289372784,0.5724356966881912,1.2564412272376417,3.6285526753075317,0.44409830137275097,-0.578112721317,1.5952835080135879,2.59969478833253,0.0962969441685329,0.19611597192083438,-0.11646204860447348,-0.35070124896177707,355.5461936199775,1.2988367869869424,1.3242614154837022,0.44825452921661824,50.20085896895696,28.15624251906673,354.0139845923419,-0.0843619509250657,-0.12904601587777395,-0.11489829004998446,0.1717791669110593,-2.605751917000854,0.08313055493941529,0.2606706087043942,0.047628140897002694,-2.812430330151155,0.1599996904487999,-1.9409369145872697,-0.20757913197596609,-0.4048029032267565,1.6331250330887082,0.5685388260480085,-2.318100368135192,0.42388657047750355,0.8472000862799826,0.3954062910176774,-0.44046408747149757,0.21648063045161237,-1.1297466726537837,0.06467763883160202,-0.1663753933751609,-0.029744544897095375,0.08714416207050027,-1.1030011557875476,-0.34804315820847254,0.017984709334077816,0.45040935567231116,-3.4219294391326995,1.4759094379285935,-1.771945701095867,-0.15510893818145435,0.39806180305751304,-1.1114533367011283,0.36386493754768073,2.2482854846578877,0.5779234904425672,7.9057335802039805,0.31742728721073316,1.6209463238544257,-0.35533188146182304,-0.35457910518948826,0.18655825869920195,-0.3283882947715708,0.11656018829412614,-0.10711355449404326,-0.3434399311887742,3.4285149821384073,-0.4728659357681734,0.34211466667806706,-0.7706136291268915,-0.033126598167605714,0.13626039566494452,0.14672851086010924,-0.39028888944747864,0.5187044705628079,1.2621990569244341,-7.56499718854671,0.21096774614889266,-0.06820344346294968,-3.7074401849213166,-52.39369158456165,0.6586963873936231,-52.527410951646566,-0.46419848793433793,-0.8545083007361022,-0.01426872921174675,0.4766977041669246,3.952565255513017,-1.1879302151518745,17.501360804547556,0.09494780591010263,7.661606386760318,-0.268418290225195,2.580700078742196,-0.23713496092041778,-0.07866591540256969,0.16044882866373444,0.2927426029366003,-0.5781163401463892,0.031190892085071312,-0.25613216559367696,0.05694544346163342,-2.9625764480827255,-0.11098652622012663,-1.5689328414501655,0.226974240666574,-0.3044839947907336,0.12513191661732187,0.30714135477587245,-2.687769783332911,0.06845502292682819,-0.015516107269423532,-0.10139504160426625,-2.9322184507507756,-0.1467682272749291,-1.7656811366186078,-0.135611221804789,-0.4315099257449164,0.14311405666598007,0.05932372514524566,-1.125650569517025,0.15514028951836767,0.18767805725751494,0.32597045072396813,-3.25379789239408,-0.2952538078925252,-1.5240740322521757,-0.14932249031477038,-0.04087947433157152,2.7484621161335263,-0.3840448418040051,-46.51673447173531,0.33918987792412103,0.788401615270333,-2.6533463369114734,-54.00089241058538,1.7852623854791723,-18.513981016067866,0.5614714655456263,1.8803257954290993,-0.5121736030887681,0.0472706437135572,-1.9249769602637843,-0.012919512008231639,0.08341508210982293,0.3171465051015519,-2.9054271984668856,0.3619694536306515,-1.637743747704082,-0.12419261840038252,0.04809411289515247,0.08506562638380094,0.19501448979855496,-1.9502481300879144,0.03192688440135017,0.005947622627147989,-0.07148276757420559,-2.931313298328583,-0.14623444119775686,-1.9379858485469579,-0.1320799928341311,-0.40555239796218456,1.3127193511936457,1.8409646575780934,-194.82614373895504,0.41542774514965075,-0.533132021347672,0.5828250935778014,-31.393726340743125,0.5621305184627565,-1048.9709500032325,0.2858577553938477,-1.0720494313742455,1.4618661152535215,0.20631465924700473,-127.35628175359803,0.5776153551122208,0.12178409015569427,-7.332584550829808,-148.53516958423447,1.2072326998161103,-644.9728988808986,0.18780611803277827,-1.7616297771458669
biasActivation=0,1,1
[BASIC:ACTIVATION]
"ActivationSigmoid"
"ActivationSigmoid"
"ActivationLinear"
