encog,BasicNetwork,java,3.0.0,1,1547620919082
[BASIC]
[BASIC:PARAMS]
[BASIC:NETWORK]
beginTraining=0
connectionLimit=0
contextTargetOffset=0,0,0
contextTargetSize=0,0,0
endTraining=2
hasContext=f
inputCount=10
layerCounts=1,27,11
layerFeedCounts=1,26,10
layerContextCount=0,0,0
layerIndex=0,1,28
output=0,0,0,0,0,0,0,0,0,0,0,0,0,0,0,0,0,0,0,0,0,0,0,0,0,0,0,1,0,0,0,0,0,0,0,0,0,0,1
outputCount=1
weightIndex=0,27,313
weights=-0.2750553497535481,-0.14809809426783943,1.5230508685834698,-0.04421958749118476,0.11085080663264667,-1.0988158667498094,-2.3888457389327633,-0.43568825635804387,-0.0761055704435682,-0.11494025619540503,-0.14279193585399722,-0.38716091168123495,0.0216807479480759,-0.5704851413378166,-0.07370845541846768,-0.03479987260862116,0.29677066391404566,-0.18581886742217657,-0.6574765908561065,-0.5677470596916038,-0.43570641103542845,0.41124225733505265,-0.7202511046397868,-0.33206167071512677,0.040707762026806746,0.06804552922560426,0.13121928326361712,0.48419831219818943,0.6809617661804617,-1.3286584626835243,0.2668354475879762,-0.007114475760978316,4.217887841867345,-0.10094729242904776,0.31707797351117706,-0.011055129104100558,-0.5069017422309224,-1.1567703375529417,0.27364341040876633,0.17404315872666065,-0.05850283310484554,0.02784643598600254,6.162090172834424,-0.11838931904674704,-1.4162288348706968,-0.10809225551675276,-1.04001183440497,-0.09673355889704828,-0.04508667378591404,0.11849979421166765,-0.14278967948233895,0.3005520675289865,0.09158495508217354,-0.7764544617553099,0.22446102284330485,1.2672264585181952,0.35311844104002893,1.7372745002400767,0.02822284086718275,0.09520289286724289,-0.016826865003257474,0.03413638839883874,0.10461112277737702,0.12433453092851719,1.170791312225043,-0.11948890757482866,-1.472188300324994,-0.09919128383965746,-2.1334163137505486,0.022717383573844497,-0.1068186378277019,0.36893490823560515,-0.1076999320299064,0.4773278281926333,0.10445355414272917,0.49825221476454257,0.1141982715748109,-0.132274240234691,0.28719459600563196,0.7939790106019764,-0.23084609545705373,1.0492911903372166,0.07046568397400803,0.1103892180727595,-2.8407519705533475,-0.05503374853806939,-0.15173524964302013,0.08225276649449811,-2.434838136075384,-0.0912162448912102,-1.573345175551304,-0.13252552935995246,-0.2911957642827801,0.10069721795571296,0.23872328231193257,-2.3712639191420957,0.0712808771228186,-0.09036594759518089,-0.2811407292044332,-3.3675240721913062,0.008329814426225641,-1.8060737780766207,0.015868860271677124,-0.24224712498638093,0.18999517010412192,0.3452939415724269,-1.058061134922885,0.292159156334934,-0.19893460201146743,0.3089098171058956,-3.279815696449296,-0.3286160407323736,-1.8865446795485925,0.019289554128415785,-0.12071959664115964,0.638018315492778,0.14089998308665636,0.0010675794949204925,0.4527142091324223,-0.23817232062878096,0.1953998769705302,-1.41310813263844,-0.2793147804850785,-0.39490025158120085,-0.5599384343030142,0.2370980213327969,0.031381425206514386,0.17746863534369386,0.401128339630896,1.2560404010286967,3.6285677672871177,0.4234449259559282,-0.7494200783742951,1.320875380725063,1.1788030459565018,0.09711787195095822,0.19594912170207507,-0.10929073769585444,-0.3782769182615307,60.039812429820806,1.2383493183801677,1.3366915816477682,0.4473899325117789,13.115819380276335,9.277767004234128,58.50760340218523,-0.08164134050478278,-0.1289470421385734,-0.11585351132681983,0.17195906330772762,-2.6082721394699635,0.05107831265200355,0.3469804347270742,-0.01185358030344699,-2.8162925169567754,0.15953379500217996,-1.9434571370563796,-0.20673713763684948,-0.3688267780595445,1.2905103189741178,0.5642414839511344,-2.297196634887408,0.42435246592412346,0.846176101501846,0.4025776019262964,-0.43320584676046164,0.21664239970391094,-1.1296411704780727,0.06457340022424775,-0.16646573273058943,0.011562205936550243,0.09144150416737439,-1.1761824574981663,-0.34806911689058445,0.02582006734449267,0.4495447589674718,-3.4291876798437357,1.3379144842921993,-1.7792039418069032,-0.14889385509942132,0.39758127442748625,-0.12472296005110872,0.3638484384628808,1.7489397805126907,0.5778943347539831,3.4346398797939885,0.31493724870079604,1.1216006197092288,-0.3566736603480885,-0.4147818569431047,0.18737918648162724,-0.3087780769837509,0.11925389946757935,-0.10725273026103808,-0.3522629083433144,3.4039436068101816,-0.500441605067927,0.33494335576944806,-0.7915173623746748,-0.06517884045501746,0.07605764391132804,0.14909278287349415,-0.38511696399444856,0.3315344413358432,0.7688338685994242,-3.0939034881367182,0.1831171559106671,-0.06850365065212999,8.07800428304241,-15.308651995881032,0.5992146661931735,-15.442371362965947,-0.4608407296590889,-0.8132015499024566,0.00807398874534351,0.4763696984738928,3.3455702666044598,-1.1381436170519843,15.959405815332369,0.07238197484010785,3.5694381687173564,-0.2770503500613519,1.159808336366168,-0.23477068890703287,-0.05905569761474977,0.16542890568360874,0.06401897149672389,-0.6383190919000057,0.031093219261938726,-0.25651771665335643,0.03629206804481061,-2.968291816934161,-0.1276236492955021,-1.5713577851468217,0.291963834148159,-0.2865845555144785,0.14613450988356302,0.3073212511725408,-2.695028024043947,0.0684482509024177,-0.014998005647018762,-0.10225963830910555,-2.936080637556396,-0.14681179370790967,-1.7865848698663915,-0.1356036207391399,-0.37995954062930154,0.1442799449559971,0.0559991122377715,-1.1988318712276436,0.1549785202660691,0.19522003684363967,0.32586621211661393,-3.2595132612455155,-0.29537927921950924,-1.5247227298046004,-0.0898407691143207,-0.022980035055316348,2.360580213274185,-0.38132423138372223,-9.431694883054687,0.39867159912457073,0.8001234262778989,-2.1142966527378153,-16.915852821904757,1.9457794300929834,-5.637231158887094,0.5611434598525947,0.32786270500896364,-0.5121518198722779,-0.00846444122179388,-1.9322352009748205,-0.013385407454851589,0.08359497850649125,0.3168462979123716,-2.911142567318321,0.3618439823036675,-1.6447275855504508,-0.12344330765071612,0.04835429023878664,0.09099382164558245,0.194848478023106,-1.9575063707989506,0.03058510551508472,0.0074397552996737296,-0.07234736427904488,-2.9326543354138677,-0.14627800763073742,-1.9588895817947416,-0.13204379887324424,-0.3876529586859294,0.8304696931044144,1.8738574945891202,-63.00826889777333,0.42621436222502607,-0.5399385497695665,0.6051678115348916,-15.501332093879967,0.5631219354733609,-723.9709500032325,0.2857171920872774,-1.0721331415543505,0.9995770267657456,0.2857325868302952,-20.551367738197836,0.5812903298953561,0.12259422761988517,5.544165306350963,-41.73025556883429,1.6046581662889254,-170.75191813336943,0.13132869080385692,-1.8266193706274516
biasActivation=0,1,1
[BASIC:ACTIVATION]
"ActivationSigmoid"
"ActivationSigmoid"
"ActivationLinear"
