encog,BasicNetwork,java,3.0.0,1,1547620924788
[BASIC]
[BASIC:PARAMS]
[BASIC:NETWORK]
beginTraining=0
connectionLimit=0
contextTargetOffset=0,0,0
contextTargetSize=0,0,0
endTraining=2
hasContext=f
inputCount=10
layerCounts=1,27,11
layerFeedCounts=1,26,10
layerContextCount=0,0,0
layerIndex=0,1,28
output=0,0,0,0,0,0,0,0,0,0,0,0,0,0,0,0,0,0,0,0,0,0,0,0,0,0,0,1,0,0,0,0,0,0,0,0,0,0,1
outputCount=1
weightIndex=0,27,313
weights=0.5337839365110687,-0.14809236434783943,1.5799255187081267,-0.04420553735358476,0.11108126088169938,-1.2213486776915683,-2.9185787712338875,-0.4357637283655189,-0.07586754279750477,-0.11317114354541437,0.2708545336191687,-0.3893268731161634,0.021669851680335625,-0.5760122535436878,-0.07362557756205367,-0.03479068577519512,-0.2939503728113284,-0.09352445906992514,-0.6575488053090025,-0.5701882499220422,-0.43592114338193744,-0.11667934923518962,-0.7253806034474561,-0.3338427466900119,0.29880470883012855,-0.15761686225550947,0.17617153102740407,0.4388666900924677,0.6662995956417932,4.177443194288941,0.26785817827505853,-0.029889390584466845,4.173315753352517,-15.88763382057239,0.3405840186303522,15.824166775257186,-0.5068877469513399,-1.1570173667507408,-0.11556013662381438,0.174224131615575,0.05600903664119758,-0.3484382836170305,6.996784131548304,0.016544947177614573,-1.0370380582421534,-0.2563655647059736,-0.9608202049898169,-0.11629582518924933,-0.04861226025074464,0.11639535793510274,-0.14310156206610994,-1.0398886385840314,0.09153529890532429,-0.778610461352542,0.060489479938679126,0.6173162745616032,0.34861079043599574,-0.32214692551057655,0.02869387190539823,0.3673409591615706,-0.11497759571083928,0.03468278459704215,0.4344053076459811,0.12031223434429629,1.1716189834351523,-0.09215066624290168,-1.3172848633933676,-0.4140371666974186,-1.9107521501836593,-0.009688172375040492,-0.11821094880016221,0.36917672127469536,-0.11043387331188396,0.45784384901132785,-0.059516215106083424,0.49812801178253724,0.0937284842144416,-0.3852830050456654,0.22912098315675736,0.292469813576639,-0.21600834935833654,1.4221431141891712,0.058409881331436056,0.11278663883774215,-1.9587053348780044,-0.044284083768218505,-0.1429678139744417,0.09822956720229072,-2.3239980947281142,-0.14270003280413407,-1.496031229868356,-0.12306743980972394,-0.3522739246809156,0.10069057029302789,0.23922369652665365,-1.4892172834667528,0.07132300552993097,-0.08999892303692061,-0.14554241587827577,-3.2577011646110363,0.009537052661198323,-1.5984005106562933,0.008721885471321827,-0.3033252853845165,0.17284645986434263,0.29510892775045167,0.1331096344347222,0.29216161984582617,-0.1969262615972241,0.31097163956481494,-3.2413295709814944,-0.32859085044962777,-1.8073530501334394,0.019029686009791946,-0.19267455751282675,0.637777991319958,0.14129000308959475,1.3415082856079383,0.4560317337135712,-0.23716245233719843,0.21058377884675883,-0.13106416613486438,-0.38863626758846764,-0.27475537074192363,-0.5590224958914276,-0.03504004496153077,-1.5917806670944787,0.09160080024367233,4.222142781367099,1.3008310241533885,3.629025536456416,0.5294587451212719,3.83794256931277,1.735626026963464,59.03311459217409,0.10026203209148735,0.19608178832211473,-0.09739107019395823,-0.3505713622628422,33.51019361997745,1.2861520157006905,1.3045919455426076,0.4451061175677814,-280.1837990153237,17.043787334719507,14.81398459234191,-0.08720618642944816,-0.12901254435896103,-0.09851494676572661,0.16992726502830688,-2.575053208826858,-0.048422125229980496,0.28795178022372936,0.10903827273282501,-2.7778063914889737,0.14635363886027827,-1.882993547523039,-0.19769239823455054,-0.5604828054215427,1.7335941439193603,0.6216588762161936,-2.572727733213583,0.4241226720158469,0.8214126218450569,0.38800248461386,-0.5828584114401877,0.21747080212086617,-1.1307922606022545,0.06458237045604527,-0.16609401436306145,-0.2809856938176095,0.03282434710714892,0.16425824861485108,-0.34773351651101153,-0.0416240524748628,0.46923364493907077,-3.322212495785616,2.500092576716533,-1.70001231239175,-0.1406515751840184,0.39728027767225893,-1.288031025307915,0.36387953892892505,12.759441888533143,0.5778382779475166,46.902941725463585,0.371641240299001,14.339185560868158,-0.35164645392865795,1.0295646304898667,0.18753382155230378,-0.5639683560810993,0.11062305783861578,-0.10714656106402211,-0.19065499142189551,4.261972827800365,-0.26159086643045776,0.35092015647724073,-0.2568582977946961,-0.30812934842076434,1.5204041313442993,0.13461137518167499,-0.44178690179353514,2.2310164269393193,4.578612503038306,-56.910479924269694,0.19466341663586975,-0.06923732670837401,-2.2566739987029067,-330.2759219319413,-0.5797258200696089,-506.58820129902625,-0.4636040097622478,-0.8147548981114112,0.24182457140473276,0.47736964794595294,14.463721659388275,-7.688990400990196,22.895056928116574,0.19704986642502134,255.33293452715827,-0.34146586610180035,59.01411988258374,-0.2395007285708645,-0.6920136007234494,0.13075825618567694,0.1893926239200245,0.2985096105645718,0.031213517061881482,-0.22938981819564538,0.08230525408325329,-2.8628595047356424,-0.2064735922802512,-1.4969994527460486,0.08101452612210834,-0.37380760768281285,0.1374245870805721,0.3053679292217126,-2.5736885359992194,0.06847601960338541,0.01027135716550211,-0.08257075233750667,-2.8975945120885944,-0.14665052211708324,-1.3037344149354801,-0.13559157115776277,-0.6038083155661755,0.14127170262424302,0.05839653300275415,-0.24902461880606397,0.1549512637487779,0.2173050012149896,0.3265587572157299,-3.2213803072245892,-0.2952002383515504,-1.515401507572378,-0.06260147120966236,-0.12047671315681956,2.925497954047148,-0.3899323687233994,-455.187524819115,0.14082689215167518,0.7353553787293496,-5.097104402906379,-466.7524027579651,0.35405855806431413,-245.1835516413644,0.5614572998126272,16.050408534557562,-0.5121614229873276,0.01352174268798862,-1.8258927728696719,-0.014233156728479265,0.10025295723839109,0.32368271665251014,-2.873009613297395,0.3625510907820133,-1.4305755882362254,-0.1212680866937112,0.0467668045220574,0.08680777906135605,0.1948134504672004,-1.851163942693802,0.036087072784987406,0.032689970025179566,-0.056079247691424146,-2.9192910974042148,-0.146116736039911,-1.7308176890791014,-0.13201778632916608,-0.4653782277612329,1.0269876209725324,1.7386249843136738,367.7258170935639,0.5071143228261603,-0.5630824583938588,0.578609062747689,120.30656428455336,0.6185560898887308,-463.9709500032324,0.28577122108942526,-1.0726588049322885,1.518720475155793,0.3014436964518809,-242.07224258611703,0.591038682228334,0.1300988815956804,153.59454151136393,117.3128695832466,-11.771673856452498,-636.5728988808985,-0.24066623578520646,-1.6826219105104712
biasActivation=0,1,1
[BASIC:ACTIVATION]
"ActivationSigmoid"
"ActivationSigmoid"
"ActivationLinear"
