encog,BasicNetwork,java,3.0.0,1,1547620917665
[BASIC]
[BASIC:PARAMS]
[BASIC:NETWORK]
beginTraining=0
connectionLimit=0
contextTargetOffset=0,0,0
contextTargetSize=0,0,0
endTraining=2
hasContext=f
inputCount=10
layerCounts=1,27,11
layerFeedCounts=1,26,10
layerContextCount=0,0,0
layerIndex=0,1,28
output=0,0,0,0,0,0,0,0,0,0,0,0,0,0,0,0,0,0,0,0,0,0,0,0,0,0,0,1,0,0,0,0,0,0,0,0,0,0,1
outputCount=1
weightIndex=0,27,313
weights=0.061323028490063686,-0.14811375142782582,1.2796601511209553,-0.04423524465117114,0.10942247704886049,-1.0748379227604845,-2.1899630803077055,-0.4357196383846544,-0.07813646646196733,-0.11527608458536845,-0.1532881180310147,-0.3868123802173903,0.021550881200284863,-0.5695581956780427,-0.07493686040889772,-0.03482939270269278,0.28783621199897463,-0.18704727241260663,-0.6575079728827171,-0.5673985282277592,-0.43579679127206683,0.41956793233134604,-0.7193241589800129,-0.3317131392512821,0.04903343702310016,0.07182594072256483,0.11937214636386101,0.6830809708232468,0.7884754331082222,-10.830425447193662,0.2664767801718828,0.005847723666076158,5.023596223198053,-78.9124033687499,0.32577095375286785,-78.82251120542496,-0.5069188155880824,-1.156411670136848,0.36394939635548873,0.17423157080832075,-0.08462040929765872,0.2785778923192779,6.033906963382548,-0.11573313063956375,-1.4622390406939176,-0.06380673697348327,-1.054596455175281,-0.09295721022723971,-0.04255271178130597,0.08714354909127792,-0.14364117854253652,0.30799381496660927,0.09159107728249354,-0.7761444663184205,0.22353873520192177,1.2285728117079822,0.35451256689540755,1.7335892329683351,0.028167949741802607,-0.07912627198730784,-0.005939279892011036,0.034987887459036277,0.10202718269486913,0.1267868482218861,1.1704813167881538,-0.11856661993344557,-1.4239949742157956,-0.054905765296387965,-2.1674649787612035,0.029230318048261976,-0.09952082725443062,0.3687766517154362,-0.11476260583480888,0.4804766486248301,0.11990774123906833,0.4983984611021451,0.11464529398018027,-0.1157779687167862,0.29314145185616464,0.820238765316076,-0.23130918655202037,0.8749620254826658,0.08135326908525446,0.11416962956972007,-2.8481937179909704,-0.03469324797995021,-0.14884439026930715,0.09228725603274611,-2.46833045035057,-0.07583932873035273,-1.594536729607159,-0.1475922885714459,-0.2743507003477705,0.10115299673379946,0.2425036938088931,-2.3787056665797186,0.07138353663528454,-0.09017753551352081,-0.28021844156305015,-3.3541026670488714,0.02370673058708311,-1.8272653321324759,0.01667702646248503,-0.22540206105137123,0.20088275521536836,0.3766501866928166,-1.0955458220757912,0.29219480199898473,-0.19874618992980733,0.31011960799351235,-3.291444972239291,-0.3286290178379479,-1.9077362336044477,0.019158143019299665,-0.07220581250833173,0.6381300710941203,0.14175148214685393,-0.03641710765798563,0.44922069533930453,-0.23762969383359991,0.1963221646119133,-1.3996867274960045,-0.25655956319315637,-0.41609180563705594,-0.5750051935145076,0.3216086871183921,0.12168741115323681,0.20882488046408362,0.2324160918016323,1.2541771936723671,3.623201730100889,0.43109474856861607,-0.9223049567195704,1.148477865624058,-0.143012980720158,0.09602453152311212,0.19665429393068587,-0.11550863328539715,-0.31969627665414746,10.360993536376464,0.9621234036231436,1.3288872171641168,0.44771017127614804,2.1521485286094495,3.2883260689712595,8.828784508740888,-0.08140843958524159,-0.12884096479503235,-0.025547525380097396,0.17327170618861673,-2.608583667739942,0.14138429859872598,0.3783366798474639,0.04348060880626777,-2.8322682828676156,0.16227723844497532,-1.9485212414905155,-0.20855363541987096,-0.22910707975700018,1.2002043330273953,0.5328852388307446,-2.2946126948049,0.4219001486307545,0.8451723308859734,0.39467648481104567,-0.41201429270460654,0.21599868744017903,-1.1293331405919607,0.06461220425249163,-0.16671058419885706,0.02244979104779668,0.12279774928776412,-1.2929805054994206,-0.3480718175017844,0.027132710225381756,0.44986499773184097,-3.4503792338995907,1.2731819635190023,-1.793788562577214,-0.16396061431091477,0.3996121704458853,0.13535827947545184,0.3638484384628808,1.6872149505660723,0.5778943347539831,2.7125332855541555,0.3158595363421791,-0.013294549082003837,-0.3487725432328378,-0.5516085314212145,0.18717539817702872,-0.2985891946311281,0.12303431096453991,-0.10695707086513616,-0.3783804845361276,3.343412646791241,-0.5618627262636173,0.34284447288469877,-0.8525490380555375,0.09418362418096106,-0.04491303460593764,0.150426485226998,-0.37492808164182573,0.3001781962154535,0.5087526290728637,-1.6945366197416736,0.17222957079942067,-0.06866190717229892,2.088563347779542,-4.344981144214147,0.6356000042927945,-4.478700511299061,-0.45952808677819973,-0.8023139647912103,0.039430233865733244,0.47634161917707313,2.3768005372628576,-0.6522523433037051,9.969964880069499,0.06706959802574126,-0.23739198811142317,-0.2717111430610542,-0.1620076903104917,-0.23376691829116028,-0.04886681526212689,0.16674154856449785,0.3241002110232844,-0.6758037790529118,0.031204413277344675,-0.24355551722630195,0.06519139791496485,-2.9636316068152597,-0.11224673313464464,-1.5754628035942868,0.3024600163251765,-0.23807077138165056,0.17749075500395278,0.30863389405342995,-2.699547300562189,0.06848389656646837,-0.011217594150058194,-0.10193939954473642,-2.947709913346391,-0.14684916777196363,-1.8285885776848865,-0.13563002444713376,-0.2402398423267572,0.1447357237340836,0.05977952373473206,-1.2363165583805498,0.15583001932626667,0.22657628196402943,0.325904821149741,-3.2548530511266143,-0.2954869165239847,-1.5272776528919674,-0.13323303564342182,0.02553374907751155,1.6115462434376913,-0.3798783048415707,-3.21890752364287,0.3400909575171875,0.5400421867513384,-1.9722389213778395,-5.9521819702378735,1.4022057120913602,-1.8304010020583141,0.5610904851019504,0.08447198754644934,-0.5121372295620216,0.08184154472492855,-1.933132402392358,-0.010933090161482669,0.08459874912236381,0.31695749192777756,-2.90648235719942,0.36173634499919205,-1.665919139606306,-0.1252598054337376,0.04905946246739744,0.09477423314254302,0.19616112090399512,-1.958403572216488,0.03764777931998721,0.018327340410920167,-0.07202712551467576,-2.9366922783965053,-0.14631538169479139,-2.0008932896132365,-0.1320702025812381,-0.33913917455310155,0.570388453577854,1.387966220840841,-13.329450004328992,0.3708801731153113,-0.5712947948899563,0.5498336224251769,-4.537661242213081,0.5077877463636461,-228.2551751531221,0.28566870695020113,-1.0735614711381367,0.2774704325259125,0.19542660088357278,-3.3017778446407715,0.5742276560904537,0.1213287735572625,1.7373351495221827,-10.154883516033662,1.1456942681373075,-27.67691972024973,0.1147290479455966,-1.7942428486606212
biasActivation=0,1,1
[BASIC:ACTIVATION]
"ActivationSigmoid"
"ActivationSigmoid"
"ActivationLinear"
