encog,BasicNetwork,java,3.0.0,1,1547620934763
[BASIC]
[BASIC:PARAMS]
[BASIC:NETWORK]
beginTraining=0
connectionLimit=0
contextTargetOffset=0,0,0
contextTargetSize=0,0,0
endTraining=2
hasContext=f
inputCount=10
layerCounts=1,27,11
layerFeedCounts=1,26,10
layerContextCount=0,0,0
layerIndex=0,1,28
output=0,0,0,0,0,0,0,0,0,0,0,0,0,0,0,0,0,0,0,0,0,0,0,0,0,0,0,1,0,0,0,0,0,0,0,0,0,0,1
outputCount=1
weightIndex=0,27,313
weights=0.39923494156023154,-0.158062547033167,1.580047888213711,-0.04450867309693221,0.11107202885068826,-1.2136723906337143,-2.8978616687284764,-0.43606309956985057,-0.0761846132608522,0.01586256463983417,-0.3460340740915595,-0.38977391729591176,0.021476558870717782,-0.5761916696368935,-0.07386895537406692,-0.03518531791521205,0.5355418945596012,0.6165530773813419,-0.657848041149783,-0.569887116427609,-0.43621767670707545,-0.5344607844948867,-0.72534143798782,-0.333885556428278,0.28527678931664174,0.01822910515525256,0.17627835913556922,0.4282295499637545,0.6668045207309349,3.7267785685928603,0.2679582160585463,-0.5103282265976442,4.178602239987769,-16.63883105630606,0.35996388434804677,13.996839971679268,-0.5068289739100407,-1.1578421328066346,-0.1365526611653676,0.17479144985631695,0.06098445997100142,-0.4330173704035256,20.830568251406625,0.1339277266600095,-0.9377668733032084,-0.12383592460619625,-0.9600605275882472,-0.11335089103752786,-0.04830123483924574,0.12055428357687283,-0.14302662573284675,-1.2018635606183248,0.10602756503120263,-0.7815650329617075,0.054298395680598174,-0.27920980311893995,0.34799062037801326,-0.35485738700411773,0.02953465296932485,0.365266120905146,-0.1241306766228964,0.03448835980241954,0.48511346200334976,-0.17751547677949564,1.2518736478263655,-0.09245963956318888,-0.39045226395560234,-0.29834688587109437,-1.9081021127772246,-0.011408203302155815,-0.11796836265206383,0.9750473343803426,-0.10989560424102521,0.45751879478306956,0.123859298961733,0.4981700017971096,0.09181980214372121,-1.6582931467218112,0.22402964384440632,0.2777550226956633,0.8906123667748991,1.4231580958162873,0.058545382155197515,0.11288759708803353,-1.9522523438304884,-0.03988273926842271,-0.14345524977355423,0.09745093855347087,-2.2950607666088256,-0.14719667518797944,-1.4956686683752627,-0.11473989865306651,-0.3350729217003277,0.10076957259849101,0.23941181301959902,-1.482381081659364,0.07139993844508613,-0.08895217693610825,-0.1282214791172908,-3.2560602841796924,-0.013830000162732932,-1.5973535399555283,0.008803210265475259,-0.1525687467453254,0.1728342365867786,0.29387986663352517,1.0011697015691474,0.2921809312316033,-0.09004434197702635,0.31108213039927723,-3.2409295283715465,-0.32863320940620255,-1.8068568598433543,0.01913007610959021,-0.19289401625279903,0.6377654346004431,0.14121348666262404,1.4492471699851404,0.46011446805940664,-0.23761138894620812,0.21207637735377752,2.3751365542571374,-0.4550844905052434,-0.2659921339117334,-0.5592374475149273,-0.01242538403820842,-2.846706564304523,0.07917322784990699,4.476034632620882,1.254012783303704,3.6290689960285523,-0.2301793659816723,11.062061331361914,-6.43997322241137,108.68418991119991,0.17424725110067482,0.1960599271419849,-0.06924335445088638,-0.3505336212004967,80.35356514809342,1.2860042598052448,1.3043030345251896,0.4088758538803795,371.0553138743668,14.92366235928923,34.07331230773193,-0.060654612201443844,-0.12889465824358595,0.2373059511917817,0.17013909757549042,-2.5742866456509383,-0.08398053090261015,0.28652998840951827,0.08260204651382423,-2.77711034270563,0.13854080354528037,-1.8827987325588615,-0.19715898604790022,-0.5344103633434016,8.63850668913771,0.614441598718168,-2.576615394429254,0.4254416815343812,0.2433817164871,0.389999900589612,-0.8046109135081062,0.21637237214274577,-1.1307965300241691,0.06435962785070325,-0.16653799198684655,-20.658535274844834,-0.13659293620979157,0.19054502237885956,0.08771752355417721,-0.6386361328872874,0.46704584152139916,-3.320966104137966,1.6549485335731746,-1.6995004443101698,-0.03983884785868856,0.39811600006886366,-7.4359867510972295,0.36345852108501303,14.795275157298407,0.4605238633394807,25.681247003270443,0.4012464358201682,15.343097315490315,-0.4534841140836249,1.0772635562439083,1.0127656643545064,-0.5472046024539707,0.11064934273343628,-0.10802268263713331,-0.11050666469709514,4.483004236050273,-0.2577227549458928,0.35045236074223546,2.2270212668398583,-0.9477418008783693,1.5360629975668865,-0.011292107589560818,-0.4459023160607719,2.1496406168365922,2.7266487806508204,-49.93958459588361,0.2398090519472311,-0.07108166819863007,-4.3919236178282794,716.7522170760587,-1.328003991850896,-409.38976582976926,-0.46514608030342713,-0.8185295883585284,0.04296871193985491,0.4725465842193356,9.801305088697353,0.23041712596581979,2.82656794328403,0.18371176641734965,-14.04406638956741,-0.2684639639655108,18.444410295373032,-0.23965841889048475,-1.0313493885637621,0.12774540150562422,0.22561643927651726,0.5999193560973585,0.031287281977036625,0.2138613248371495,0.08290784594623414,-2.8613131312072206,-0.15334691857574168,-1.496538567166307,0.07972615470942239,-0.3756278862556393,0.15211958100940232,0.30556925120394784,-2.5728119787853534,0.06849879836367541,0.008854723653022024,-0.0788717737766586,-2.896868558105401,-0.14666404901217278,-1.3007004895848646,-0.13545577472713777,-0.4290697315250018,0.14112105979122563,0.05846974381094839,0.10155689198862247,0.15541853814717377,0.21673071294583512,0.32672725826006177,-3.220929686252933,-0.2952581135578509,-1.5152440085517038,-0.059854289278845,-0.1257191154465597,2.9001195690643438,-0.38996744304741326,-327.83582211530927,-5.202233760743348,0.6987406826306454,-4.732878286677736,51.80615532571784,-14.610903738149142,-72.8541400609391,0.5560961653264432,-3.44035637776724,-0.5123106066930757,0.004596629202077774,-1.8252770618146832,-0.033387410021865974,0.6632131162490174,0.866902605386583,-2.8724523402249935,0.3726529055055159,-1.4280150196235937,-0.11744214332926034,0.047374603840397746,0.08692914391617818,0.19499083574043038,-1.8503397478385515,0.0404884172847832,0.031083658271532078,-0.05594012361697802,-2.9190376609061786,-0.14612986936831904,-1.7297660465686895,-0.13187453930908175,-0.44720252624705564,1.0402648683107456,0.5683330826475674,264.51881158082676,-0.015398784950417625,-0.5609434806972089,2.942472409375512,51.97043079254596,1.4034373691280826,-564.6184426523771,0.28153098575562935,-1.0767425963323756,1.2489292372090741,0.28168261676333606,-198.07375197353844,0.5774728936244535,0.12986114723101147,133.08658949651414,1305.7056006732053,-1086.15686343233,-282.914669214086,-1.0381076061078065,-1.684137463304411
biasActivation=0,1,1
[BASIC:ACTIVATION]
"ActivationSigmoid"
"ActivationSigmoid"
"ActivationLinear"
