encog,BasicNetwork,java,3.0.0,1,1547620911739
[BASIC]
[BASIC:PARAMS]
[BASIC:NETWORK]
beginTraining=0
connectionLimit=0
contextTargetOffset=0,0,0
contextTargetSize=0,0,0
endTraining=2
hasContext=f
inputCount=10
layerCounts=1,27,11
layerFeedCounts=1,26,10
layerContextCount=0,0,0
layerIndex=0,1,28
output=0,0,0,0,0,0,0,0,0,0,0,0,0,0,0,0,0,0,0,0,0,0,0,0,0,0,0,1,0,0,0,0,0,0,0,0,0,0,1
outputCount=1
weightIndex=0,27,313
weights=0.09835938538942579,-0.15952298045885432,0.3484939086345009,-0.05692008585259962,0.06646526617378284,-0.5752303022572374,-0.29698846985081917,-0.40941784737879294,-0.10354289447045895,-0.12653868280588154,-0.16363840090609238,-0.34781640525010926,0.007727046408562551,-0.4501571425929246,-0.08863755862941082,-0.044071688495096455,0.03310177205750763,-0.2080585416875693,-0.5700253552130754,-0.5284025532604779,-0.35943269457682614,0.11938735572249459,-0.37025868981139687,-0.29271716428400113,0.064930861961243,0.01564682120821994,0.007107697761616757,0.39514845386246783,0.33420301708151096,-0.059482618428592815,0.39511004309156655,-0.04611653740998375,1.118722334919895,0.37750130158064654,0.22114191424019988,0.5062734649055989,-0.49673092166778693,-1.2479051445359903,0.5379997516333401,0.09978653535033569,-0.8258720256134151,0.3217866269953378,1.5972813585382837,-0.275933168681521,-1.287992815072383,0.08898672461180028,-1.4819941435413393,0.38335538123045115,-0.003572000461082259,-0.2477828609522641,-0.11172402020455144,1.4463454034196008,0.23141836729311752,-0.4258025997100361,0.2750199084109347,0.7928417404163892,0.4574651931273459,1.6159325365392865,0.02805258994216009,-0.9583399014662478,0.2575545468234218,-0.039457147998948824,-0.6236248242766185,0.11662374921441898,0.8249129306391155,-0.16594163314245852,-1.3850983533503405,0.13148001628889558,-0.9338100281759745,0.10348382119880556,0.012743621347813637,0.3917275208811885,-0.012688710077313203,0.567963628632002,0.32559086620527794,0.2958360062532173,0.21086075466601173,-0.11345184296349833,0.18237161821276518,0.6958711118367324,-0.21656794635166288,-1.8067967528783233,-0.21667881359013091,0.23248263163362565,-3.3368561409461885,0.129776028757513,0.5838872546636774,0.34514769101586734,-2.7130583893114353,0.14593067460301162,-3.418413003528082,-0.3806911757234282,-0.13172528787413748,0.13298814203902018,0.3689779375751987,-3.2685926097064564,-0.1529401140595557,0.10380600455393144,-0.5399522499050199,-3.5988306060097375,0.1305308817092475,-3.1867613743733987,0.1886148272752846,-0.08277664857773821,-0.066643412357556,0.4604999847509595,-3.230350477065169,0.30758407048820074,-0.025170935080879447,0.3071969892945252,-3.326294278609075,-0.32886311217771635,-3.128993358712534,0.04497894735206528,0.4650277081928815,0.6343409394931561,0.08967893180886882,-1.1747686961109773,0.30172542440728356,-0.2442460959057966,0.005567078598949558,-0.6875546205597085,-0.24814184405351597,-0.7614606190256057,-0.7308335392934076,0.46423409959202505,0.35928562325500263,0.3329483023049489,-0.9059354966513595,0.5694817882155636,1.624753471185295,0.06197493888033001,-0.8256923709450972,0.3427479560017844,-1.4630648569157916,0.08860470290722233,0.21177780480576358,0.3781927013782241,-0.11708885824669615,-0.6100724283886056,0.32825266428730265,0.8074722432493888,0.4467234375370459,-1.063547057515443,0.44656038017443045,-1.0987846457001287,-0.36539934405166324,-0.12544221541290976,-0.49613486422834796,0.24113097985902832,-3.5905734344845524,0.2669892905251798,0.43152770401760665,-0.0132541700093064,-2.8671175892373992,0.10758663903256085,-3.4837293859963165,-0.23691081059576075,0.5599524196790597,0.4278293518639237,0.42172181698987954,-1.2463751809563286,0.3689277318151256,1.387394246977707,0.4539873282449286,-0.5709716574318542,0.23339856414443627,-1.2591154368957946,0.06488866527332911,-0.1795112824193701,0.1318359802326056,0.28580117112862935,-3.3828582855773046,-0.36265005511458437,-0.02344930776715695,0.3720391085317938,-3.485228540269374,0.2589613313416309,-3.4441541114911547,-0.3033371176490575,0.5057823783201353,0.7942607899506915,0.3654154014333205,-0.6120970046726064,0.49062344136128366,0.8550185125005991,0.2762843278053005,-0.5522528762816834,-0.3744633260039294,-0.900399282517629,0.2726606200554457,-0.2550334833109044,0.5762467953919251,-0.08680077175026989,-1.119632100851884,0.8337578020777668,0.797799740552993,0.3031073310316158,-1.3470103460532021,0.15122354369362898,-1.0710262722292003,0.17059285420554732,-0.34952165363333415,-0.0847815503817741,-0.07475673594059618,-0.032352179388031255,0.07498520546529619,-0.09204919740033861,0.8384579587940694,0.3176940440043434,-0.309125001228726,0.26951067691942904,-0.4337555159816824,-1.1505831729492837,0.33299599121416096,0.537346640627888,-0.6460228372029824,-0.29009631754555426,0.9274994537382715,-0.09313044001621608,-0.8539839551581643,-0.36946059744179766,-1.0283720478901186,-0.25629209346705006,-0.009886103941903184,0.19014941520197512,0.8350852342234962,-2.8106084340422894,-0.055123169411574593,0.7281725039196056,0.21161126452875434,-2.9984809131850434,0.10952327019871971,-3.3993390775152097,0.40679655491645644,0.0672117388540925,0.36446562323424686,0.4248885421818204,-3.6909225685017617,0.0449938336880044,0.1644768676282886,-0.16928357001691002,-2.9825592197161748,-0.14846372943964836,-3.049845702792973,-0.14113745345986972,0.5488196571093027,0.2383500397367169,0.2692931925213349,-3.326194338458434,0.1793800780080135,0.35786363357060785,0.32076272951374407,-3.052488457963711,-0.31464182961136644,-3.062485797397768,-0.615536572581566,0.33081625931325453,0.35266073662108127,-0.3723688557534925,0.5904903807894457,0.2195072196260625,0.13372212355112653,0.1959201287150154,0.4348385643415926,0.9058815091240376,0.6595366693373336,0.5596938179347503,-0.8466942549400053,-0.5033600177920057,0.36679265781337245,-2.957842300887556,0.08698482092194824,0.3745122024050581,0.3088095519464643,-2.941331663569204,0.3042104944007231,-3.025415181847229,-0.18722485260962735,0.09049911797928979,-0.18788280209096697,0.3838253747787459,-2.9486503961930786,-0.5418617657324073,0.2449605138668881,-0.08990253287891638,-2.798030859759305,-0.15861089318346558,-2.7577701830413224,-0.13757763159397407,0.30434188243544336,0.027521830377642192,0.028303754024230826,0.3453982177402612,0.6899580214629023,-0.36508955311925484,0.746603090661176,0.12330198184540986,0.7429573284472881,0.21172469742989017,0.2917752025021372,-1.1657524109112218,-0.1902073938002247,-0.007180817523878558,0.4381328597915442,0.31843016770197086,0.10987721639119624,0.2921590255611704,0.132224738796856,-0.1563689147953864,-0.13220282082939405,0.11672944332962107,-2.4993133159995264
biasActivation=0,1,1
[BASIC:ACTIVATION]
"ActivationSigmoid"
"ActivationSigmoid"
"ActivationLinear"
