encog,BasicNetwork,java,3.0.0,1,1547620910134
[BASIC]
[BASIC:PARAMS]
[BASIC:NETWORK]
beginTraining=0
connectionLimit=0
contextTargetOffset=0,0,0
contextTargetSize=0,0,0
endTraining=2
hasContext=f
inputCount=10
layerCounts=1,27,11
layerFeedCounts=1,26,10
layerContextCount=0,0,0
layerIndex=0,1,28
output=0,0,0,0,0,0,0,0,0,0,0,0,0,0,0,0,0,0,0,0,0,0,0,0,0,0,0,1,0,0,0,0,0,0,0,0,0,0,1
outputCount=1
weightIndex=0,27,313
weights=0.1528393853894258,-0.04852298045885436,0.20059630863450098,0.054079914147400376,0.12094526617378284,-0.38971030225723746,-0.11146846985081924,-0.22389784737879292,0.0074571055295410416,-0.015538682805881568,-0.05263840090609243,-0.16229640525010922,0.11872704640856255,-0.2646371425929246,0.022362441370589167,0.08492831150490354,0.14410177205750763,-0.09705854168756932,-0.3845053552130755,-0.342882553260478,-0.17391269457682618,0.1738673557224946,-0.18473868981139688,-0.10719716428400117,0.175930861961243,0.12664682120821993,0.11810769776161675,0.3106684538624678,0.42972301708151095,-0.2450026184285928,0.12487004309156659,0.04538346259001626,0.49322473491989505,0.19198130158064652,0.14562191424019988,0.32075346490559903,-0.39360592166778696,0.08701248746400911,0.5714997516333402,-0.13073346464966432,0.3140730623865847,0.3717866269953378,0.47533627053828376,-0.292433168681521,-0.14804772707238292,0.16950672461180025,-0.34204905554133935,0.49687538123045116,-0.10044700046108226,-0.22426286095226408,0.07379597979544855,0.39640031541960086,0.18041836729311755,-0.037904999710036184,0.06673990841093472,-0.25710334758361064,0.26561879312734593,0.5659874485392865,0.1155525899421601,-0.5474599014662479,-0.3333830531765781,-0.11997714799894882,0.36632026372338145,-0.14737625078558106,0.5770153306391155,-0.33244163314245856,-0.39515326535034057,0.2620000162888956,0.05613505982402532,0.3194838211988056,0.029243621347813636,0.30724752088118845,-0.01791111007731319,0.3824436286320021,-0.08150673379472198,0.3873360062532173,-0.1962368453339882,-0.2989718429634983,0.2368516182127652,0.5103511118367325,-0.06756794635166288,-0.4718791208783235,-0.23317881359013093,-0.07903736836637437,-0.2218142875061892,0.210296028757513,0.13598965466367746,0.5381676910158674,0.4019834641285641,0.11382827460301162,-0.3033711500880828,-0.44719117572342826,-0.24272528787413747,0.01946814203902021,-0.12691966242480124,-0.1535507562664572,-0.16944011405955575,-0.34409159544606854,-0.5564522499050198,-0.48378875256973797,0.12355088170924755,-0.07171952093339948,0.46069482727528466,-0.19377664857773821,-0.364541012357556,0.4939999847509595,-0.11530862362516983,0.32408407048820076,-0.4730685350808793,0.3071969892945252,-0.21125242516907575,-0.44586311217771624,-0.01395150527253479,0.06097894735206527,0.35402770819288154,0.32282093949315616,0.009158931808868828,-0.18482360811097762,0.03772542440728357,-0.49214369590579665,-0.16093292140105045,0.30239046744029124,-0.215141844053516,0.22848446897439414,-0.2767535392934075,0.48073409959202507,0.39278562325500266,0.10242830230494887,0.23400959134864027,0.6029817882155637,0.502808383185295,0.09547493888033001,0.31425271705490265,0.4257479560017845,-0.32311976891579175,0.15460470290722234,0.11490280480576354,0.3146727013782241,-0.3476088582466962,0.5298726596113942,0.3617526642873027,-0.314472844750611,0.49672343753704595,0.07639803048455673,0.27760038017443045,0.041160442299871154,-0.34691934405166325,-0.22231721541290977,-0.5126348642283479,-0.07038902014097168,-0.47553158104455284,0.2834892905251798,-0.0163698959823933,0.020245829990693603,0.24792426420260003,0.18810663903256084,-0.36868753255631714,-0.3034108105957608,0.44895241967905974,-0.16310824813607624,0.3412018169898795,-0.2564300929563288,0.10492773181512557,0.447449158977707,0.4218849282449285,0.4189734305681456,0.36391856414443635,-0.26917034889579483,0.21488866527332912,-0.16301128241937007,-0.16606161976739436,-0.02571882887137067,-0.2678164321373053,-0.32965005511458434,-0.4713469077671568,0.3720391085317938,-0.3701866868293746,0.33948133134163094,-0.3291122580511557,-0.3698371176490576,0.3947823783201353,-0.3276842980493083,0.2848954014333205,0.3778480833273935,0.22662344136128365,-0.08492657549940066,0.10978432780530048,0.4376922117183165,-0.2914633260039293,0.08954580548237079,0.48866062005544564,-0.23853348331090443,-0.014690804608074856,-0.16732077175026988,-0.12968701285188416,0.5222378020777669,0.5499021405529929,0.23362733103161584,-0.3570652580532021,0.2817435436936289,-0.08108118422920063,0.32059285420554734,-0.33302165363333414,-0.2340615503817741,-0.0799791359405962,-0.21787217938803125,-0.33211239453470376,-0.0005491974003386108,0.4313603587940693,0.13217404400434343,-0.5362226012287259,0.08399067691942907,-0.28475551598168236,0.1843344590507159,0.366495991214161,0.3068266406278881,0.49392225079701735,-0.25659631754555423,-0.19444563426172837,-0.05963044001621606,0.2859611328418356,-0.3359605974417976,0.11157304010988127,-0.19029209346705003,-0.10676110394190319,0.12414941520197512,0.5235652342234963,0.30443341939770974,0.0253968305884254,-0.4117725840803941,0.3421312645287544,0.11656094025495603,0.07742087019871965,-0.2842972240752103,0.4227965549164564,-0.0437882611459075,0.34796562323424685,-0.0710090578181796,-0.5758807150617623,0.0284938336880044,-0.2834207323717114,-0.13578357001691005,0.13248263372382454,-0.31742372943964836,0.0651961506470263,-0.1911374534598697,0.4378196571093027,-0.059547560263283075,-0.2266044074786651,-0.21115248501843453,0.2599000780080135,-0.0900339664293921,0.32076272951374407,0.06255339547628841,-0.4316418296113663,0.05255605604223135,-0.6820365725815659,0.2198162593132546,0.45255833662108136,-0.22207125575349257,0.20259278078944581,-0.15233918037393743,0.28924212355112655,-0.17592627128498453,0.04694096434159274,0.5340351091240377,0.2716390693373338,0.7236938179347503,-0.028351854940005333,-0.5198600177920056,0.05527265781337241,0.15719955255244297,0.1675048209219482,-0.07338539759494186,0.38932955194646435,0.17371018987079548,0.38473049440072316,0.08962667159277016,-0.25372485260962735,-0.020500882020710168,-0.48578040209096696,-0.11207222522125401,0.16639145724692053,-0.5583617657324073,-0.20293708613311184,-0.05640253287891636,0.3170109936806945,-0.2756108931834656,0.357271670398677,-0.18757763159397406,0.19334188243544342,0.12741943037764217,0.30820135402423077,-0.04249938225973873,0.3181116214629023,-0.20956955311925482,-0.24334199733882386,-0.2645956181545901,-0.2469877595527117,-0.17617290257010979,0.4167752025021372,-0.3474100109112219,-0.4172473938002247,-0.14926081752387851,0.30913285979154426,0.0741101677019709,0.18487721639119625,0.047839025561170416,0.0032247387968560443,-0.4006889147953864,-0.26120282082939406,0.322249443329621,-0.5194231399995265
biasActivation=0,1,1
[BASIC:ACTIVATION]
"ActivationSigmoid"
"ActivationSigmoid"
"ActivationLinear"
